5.236382037401199341e-02
-2.437908388674259186e-02
6.892859190702438354e-02
2.744288928806781769e-02
4.067222774028778076e-02
-1.159401461482048035e-01
-1.603648997843265533e-02
-6.258604675531387329e-02
2.899971045553684235e-02
-2.612860873341560364e-02
6.016916036605834961e-02
3.361367434263229370e-02
-6.200427189469337463e-02
5.345946643501520157e-03
-1.757724583148956299e-02
4.256963357329368591e-02
1.966671086847782135e-02
-1.691520810127258301e-01
1.161327399313449860e-02
5.684104189276695251e-02
5.795792117714881897e-02
9.685794822871685028e-03
4.865610226988792419e-02
-1.027045026421546936e-02
9.778872132301330566e-02
-9.817616641521453857e-02
8.720486424863338470e-03
6.184574589133262634e-02
-1.340347435325384140e-02
-3.114751167595386505e-02
4.806712642312049866e-02
-1.519140228629112244e-02
-3.408350422978401184e-02
-7.073342800140380859e-02
-1.912941224873065948e-02
-3.954356908798217773e-02
-4.041848238557577133e-03
8.069375529885292053e-03
-9.991200640797615051e-03
5.820231884717941284e-02
-2.462717937305569649e-03
-4.520671442151069641e-02
-8.844061195850372314e-02
1.126210950314998627e-02
5.369064956903457642e-02
1.097799539566040039e-01
-4.420615360140800476e-02
-7.578468322753906250e-02
3.241924196481704712e-02
-4.302326589822769165e-02
-5.980885773897171021e-02
-8.817706257104873657e-03
-3.308285027742385864e-02
1.157306656241416931e-01
-5.586996674537658691e-02
-2.485179714858531952e-02
-1.959163323044776917e-02
4.199666157364845276e-02
-1.974396221339702606e-02
-4.294284805655479431e-02
9.005562961101531982e-02
8.264832198619842529e-02
6.209743395447731018e-02
1.693178154528141022e-02
-8.911152690416201949e-05
-4.896975681185722351e-02
-9.359648451209068298e-03
-5.040991306304931641e-02
2.964252606034278870e-03
9.838587790727615356e-02
2.133133821189403534e-02
1.203122548758983612e-02
2.023182995617389679e-02
9.432274848222732544e-02
-9.246443212032318115e-02
2.573060803115367889e-02
-1.949332840740680695e-02
-8.966887369751930237e-03
-1.583796553313732147e-02
-8.461451530456542969e-02
-7.164174318313598633e-02
-7.451349496841430664e-02
7.474457845091819763e-03
3.912616148591041565e-02
4.270844161510467529e-02
1.574740409851074219e-01
-1.025037094950675964e-01
-4.215710330754518509e-03
-3.064278699457645416e-02
-6.455463171005249023e-02
-3.816319257020950317e-02
5.829245597124099731e-02
-8.158752322196960449e-02
-5.854689329862594604e-02
8.396287739742547274e-06
4.347041621804237366e-02
7.385747134685516357e-02
-5.583085492253303528e-02
-2.474454976618289948e-02
-6.069517135620117188e-02
1.535974070429801941e-02
9.624806232750415802e-03
-4.022851958870887756e-02
-5.609503947198390961e-03
7.344316691160202026e-02
2.084371820092201233e-02
4.821878671646118164e-02
-1.294536739587783813e-01
-9.806459769606590271e-03
-3.786388784646987915e-02
3.928696736693382263e-02
-3.379463404417037964e-02
-1.700186543166637421e-02
-1.390714347362518311e-01
5.080497823655605316e-03
-6.732729729264974594e-03
9.401068836450576782e-02
-2.237344160676002502e-02
-1.832654885947704315e-02
3.668417036533355713e-02
1.128484308719635010e-01
2.812658250331878662e-02
5.422659963369369507e-02
1.848558709025382996e-02
3.622383996844291687e-02
-2.089569345116615295e-02
-5.274357274174690247e-02
2.234332822263240814e-02
-6.434512883424758911e-02
-3.267790004611015320e-02
1.363763678818941116e-02
1.681626401841640472e-02
-1.175901014357805252e-02
8.233445882797241211e-02
-5.054395645856857300e-02
8.189652115106582642e-02
-7.839971780776977539e-02
-1.397057250142097473e-02
1.355477124452590942e-01
-2.356598339974880219e-02
-6.993538141250610352e-02
8.116175420582294464e-03
9.718996286392211914e-02
-9.393567219376564026e-03
3.537527471780776978e-02
-4.206562042236328125e-02
2.003709226846694946e-02
-1.680998131632804871e-02
-3.318985551595687866e-02
-8.197906427085399628e-04
-2.287150546908378601e-02
8.309567719697952271e-02
1.980522274971008301e-02
2.293278463184833527e-02
-3.406456904485821724e-03
-1.686368323862552643e-02
-1.630607992410659790e-02
5.248266458511352539e-02
-3.712375182658433914e-03
9.191536903381347656e-02
5.350161343812942505e-02
5.246282089501619339e-03
2.935981005430221558e-02
-1.774116232991218567e-02
-1.816312223672866821e-02
2.064068429172039032e-02
9.298997931182384491e-03
1.652257516980171204e-02
-1.320986542850732803e-02
-3.547659143805503845e-03
1.332566142082214355e-02
1.895079575479030609e-02
-4.370997846126556396e-02
-2.748427540063858032e-02
3.126522898674011230e-02
-1.078402325510978699e-01
1.157758850604295731e-02
9.194458276033401489e-02
-1.619408465921878815e-02
2.095523476600646973e-02
7.962185144424438477e-02
1.149308774620294571e-02
-2.324005123227834702e-03
1.038197427988052368e-02
-4.670171998441219330e-03
1.359633728861808777e-02
-9.238204918801784515e-03
-2.200071699917316437e-02
2.447028085589408875e-02
-3.251283196732401848e-03
-3.192941099405288696e-02
-2.259418927133083344e-02
-4.667194094508886337e-03
6.068556383252143860e-02
-2.955869212746620178e-02
5.466383881866931915e-03
-2.772368676960468292e-02
4.727480933070182800e-02
-4.290755838155746460e-02
4.248419310897588730e-03
3.514340845867991447e-03
-7.466692477464675903e-02
-7.853907532989978790e-03
-2.131883800029754639e-02
2.786153741180896759e-02
4.849369870498776436e-04
1.857006736099720001e-02
-3.756081452593207359e-03
-1.904474385082721710e-02
2.352792955935001373e-02
9.676286950707435608e-03
-6.262612342834472656e-02
1.107423827052116394e-01
3.342492133378982544e-02
2.293871715664863586e-03
-3.941873833537101746e-02
4.009510949254035950e-02
2.098050899803638458e-02
2.588130161166191101e-02
-2.536852471530437469e-02
-1.760034449398517609e-02
2.210500463843345642e-02
6.718054413795471191e-02
-1.227877847850322723e-02
-1.482675317674875259e-02
5.642299726605415344e-02
3.627481684088706970e-02
3.161300718784332275e-02
-1.154251769185066223e-01
5.045794416218996048e-03
-1.261140871793031693e-02
1.346598863601684570e-01
3.268074709922075272e-03
3.840848430991172791e-02
-5.456895101815462112e-03
2.567792497575283051e-02
-5.632796883583068848e-02
3.136072680354118347e-02
-9.483200497925281525e-03
-2.077917335554957390e-03
1.075531356036663055e-02
-4.868747666478157043e-02
9.675309993326663971e-03
-6.531098484992980957e-02
-1.170710287988185883e-02
-4.097123071551322937e-02
9.588406421244144440e-03
-1.104577258229255676e-01
-1.511710789054632187e-02
-1.420544809661805630e-03
1.734984852373600006e-02
9.311981848441064358e-04
-3.220551460981369019e-02
2.827882766723632812e-02
-9.237690269947052002e-02
3.968827053904533386e-02
4.435187950730323792e-02
3.342307731509208679e-02
1.363701000809669495e-02
3.085604403167963028e-03
1.458449056372046471e-03
2.071952074766159058e-02
-4.898716229945421219e-03
-4.011827334761619568e-02
3.462510555982589722e-02
-3.764954395592212677e-03
1.019600965082645416e-02
-7.271151989698410034e-02
2.760938555002212524e-02
-4.146901890635490417e-03
-9.843300282955169678e-02
1.838242635130882263e-02
-1.635849475860595703e-02
7.496473938226699829e-02
-5.321882199496030807e-03
-1.100332941859960556e-02
3.160191699862480164e-02
-1.948238117620348930e-03
2.336873300373554230e-02
2.637241967022418976e-02
3.886877000331878662e-02
-9.516108781099319458e-03
1.388311618939042091e-03
4.163824394345283508e-02
4.809034056961536407e-03
-3.897443413734436035e-02
3.756886720657348633e-02
-2.070754533633589745e-03
-3.815646748989820480e-03
-2.055945107713341713e-03
1.071305293589830399e-02
-1.834135735407471657e-03
-5.209061875939369202e-02
3.050939703825861216e-04
7.470896095037460327e-02
9.005288593471050262e-03
3.073178697377443314e-03
5.824227118864655495e-04
-1.158992853015661240e-02
1.777551323175430298e-02
-2.299377135932445526e-02
7.707322947680950165e-03
-2.682022191584110260e-02
-5.061391275376081467e-03
4.655908793210983276e-03
-9.361553820781409740e-04
-3.129087015986442566e-02
1.657531224191188812e-02
4.128962755203247070e-02
1.361012272536754608e-02
1.169836707413196564e-02
4.644585307687520981e-03
-3.129182010889053345e-02
7.786289206705987453e-04
7.514515426009893417e-03
-1.429662108421325684e-03
-1.369463978335261345e-03
2.926842309534549713e-02
-1.446795649826526642e-02
5.488197784870862961e-03
-1.712643308565020561e-03
9.591542929410934448e-02
-1.350235939025878906e-02
-2.017068909481167793e-03
2.397556789219379425e-02
1.653653010725975037e-02
4.826938267797231674e-03
-3.724260954186320305e-03
-1.390892546623945236e-02
3.312803059816360474e-02
-6.542910356074571609e-03
3.189694508910179138e-02
1.496826764196157455e-02
1.987022405955940485e-04
-1.055546849966049194e-02
2.213140483945608139e-03
-1.494971476495265961e-02
-3.358875866979360580e-03
-9.568181703798472881e-04
1.007495913654565811e-02
4.733356088399887085e-02
-3.748641535639762878e-02
-1.799923367798328400e-02
-4.299141932278871536e-03
6.020412966609001160e-02
1.254007872194051743e-02
-1.207146793603897095e-02
9.000195190310478210e-03
-3.031907603144645691e-02
9.616608731448650360e-03
-1.622778177261352539e-02
-5.549740046262741089e-03
3.024605475366115570e-02
2.895162999629974365e-02
-2.823359332978725433e-02
1.160912308841943741e-02
-3.669677674770355225e-02
-7.020484190434217453e-03
2.562345564365386963e-02
-2.362336590886116028e-02
-1.244132965803146362e-02
3.861169144511222839e-02
4.229630157351493835e-02
-1.210264638066291809e-01
2.359623275697231293e-02
-1.048236154019832611e-02
1.829376257956027985e-02
-1.040791068226099014e-02
-2.339816093444824219e-02
-1.208544522523880005e-02
3.782164677977561951e-02
2.995917107909917831e-03
2.644686028361320496e-02
4.417356103658676147e-02
3.827719390392303467e-02
1.336139906197786331e-02
8.480200543999671936e-03
3.418743377551436424e-03
3.100425563752651215e-02
5.481595173478126526e-03
-4.237424954771995544e-02
1.600192976184189320e-03
1.802457123994827271e-02
1.311317086219787598e-02
-3.249971894547343254e-03
7.693131268024444580e-02
-8.735524490475654602e-03
1.398827135562896729e-02
-9.130509570240974426e-04
7.058370858430862427e-02
-1.250669211149215698e-01
-5.783608183264732361e-02
3.712280467152595520e-02
-1.782188005745410919e-02
8.983573317527770996e-02
-3.738311305642127991e-02
-1.377439498901367188e-01
5.855099763721227646e-03
-8.970709145069122314e-02
-9.418055415153503418e-02
1.175207737833261490e-02
-1.945302076637744904e-02
-1.948259957134723663e-02
-4.347140714526176453e-02
-1.485562324523925781e-02
1.722662150859832764e-02
-7.010998576879501343e-02
4.921220988035202026e-02
3.907584026455879211e-02
-2.993733622133731842e-02
-2.079093363136053085e-03
4.213700536638498306e-03
-1.109124813228845596e-02
-1.050868183374404907e-01
-8.077616989612579346e-02
-5.263140425086021423e-02
-2.278034342452883720e-03
-5.256232246756553650e-02
-4.150496423244476318e-02
-3.742000320926308632e-03
-9.412854164838790894e-02
-2.488791476935148239e-03
-4.012954607605934143e-02
2.519608847796916962e-02
9.625250473618507385e-03
2.446367032825946808e-02
-1.552445292472839355e-01
-3.979893773794174194e-02
2.080118656158447266e-02
2.020515687763690948e-02
4.321688041090965271e-02
7.030644267797470093e-02
2.348005212843418121e-02
4.314742237329483032e-02
9.530027210712432861e-02
-3.585921227931976318e-02
-3.537336364388465881e-02
-3.845250466838479042e-03
-7.499563694000244141e-02
1.667167246341705322e-02
1.693689730018377304e-03
2.009418047964572906e-02
3.233139216899871826e-02
4.487702623009681702e-02
-2.400971576571464539e-02
6.113592535257339478e-02
8.660385012626647949e-02
3.154854848980903625e-02
-1.093396218493580818e-03
7.475525140762329102e-02
-4.150339215993881226e-02
1.149566471576690674e-02
2.020239233970642090e-01
-4.109774529933929443e-02
7.189117372035980225e-02
9.952772408723831177e-03
4.556228406727313995e-03
3.594719618558883667e-02
-1.019782293587923050e-02
1.940262317657470703e-02
-1.397058926522731781e-02
-3.570797620341181755e-03
5.294038727879524231e-02
3.041497990489006042e-02
8.047652081586420536e-04
2.533619664609432220e-02
-5.590802058577537537e-03
-1.717360876500606537e-02
-9.143987298011779785e-02
-2.420200109481811523e-01
3.949169814586639404e-02
-5.075930058956146240e-02
1.004741191864013672e-01
2.466848678886890411e-02
-1.195286586880683899e-02
-9.738820046186447144e-02
-9.280921891331672668e-03
-1.294033788144588470e-02
-5.216673947870731354e-03
-9.866277128458023071e-02
-3.209230676293373108e-02
-5.313120037317276001e-02
-3.535431623458862305e-02
-1.369308587163686752e-02
-3.075175732374191284e-02
-6.914262659847736359e-03
3.265360603109002113e-03
-1.353556811809539795e-01
-3.473089635372161865e-02
1.922731753438711166e-03
2.167900465428829193e-02
3.747085854411125183e-02
-9.921957738697528839e-03
6.036054808646440506e-03
-1.192441806197166443e-01
7.554071396589279175e-02
-8.969052578322589397e-05
2.098493278026580811e-02
4.532895400188863277e-04
3.753795474767684937e-02
8.816896378993988037e-02
9.905987232923507690e-02
1.290974672883749008e-02
2.115911617875099182e-02
2.243880555033683777e-02
4.733655601739883423e-03
-6.472519785165786743e-02
-3.008622303605079651e-02
4.267181828618049622e-02
3.041964210569858551e-02
9.299216419458389282e-02
-1.007235422730445862e-02
4.753195494413375854e-02
-1.287683262489736080e-03
-6.967300083488225937e-03
2.289569191634654999e-02
-4.635227844119071960e-02
-2.012955211102962494e-02
6.301087141036987305e-02
1.662302576005458832e-02
4.379685968160629272e-02
2.022323012351989746e-02
5.168926902115345001e-03
8.122266829013824463e-02
6.265723146498203278e-03
-4.044311121106147766e-02
1.084421575069427490e-01
4.553256556391716003e-02
1.759495353326201439e-03
2.861805027350783348e-03
-6.992018222808837891e-02
-1.100943237543106079e-02
-5.083120893687009811e-03
2.035294845700263977e-02
-3.316804021596908569e-02
-9.717778302729129791e-03
-2.103987149894237518e-02
-3.819661960005760193e-02
1.943702623248100281e-02
-3.293046727776527405e-02
-1.352242194116115570e-02
-5.712157487869262695e-02
9.341059625148773193e-02
-8.176080137491226196e-02
2.964391559362411499e-02
-5.033934861421585083e-02
-9.013418853282928467e-02
-4.105480015277862549e-02
1.232932321727275848e-03
-1.229260675609111786e-02
2.281451411545276642e-02
1.573853939771652222e-02
1.916375756263732910e-02
-1.087270304560661316e-02
-3.366246074438095093e-02
-5.700721219182014465e-02
6.004101410508155823e-02
-4.709150642156600952e-02
-5.749676004052162170e-02
4.520364850759506226e-02
1.585929095745086670e-02
2.766880672425031662e-03
-8.311600238084793091e-02
-1.467835158109664917e-01
-7.801322638988494873e-02
-1.531909778714179993e-02
2.867101691663265228e-02
-3.535927087068557739e-02
8.301478624343872070e-02
1.043513230979442596e-02
7.442900538444519043e-02
-1.621801592409610748e-02
4.770063608884811401e-02
4.173919558525085449e-02
3.310725465416908264e-02
2.292690239846706390e-02
5.356876063160598278e-04
-1.108301356434822083e-01
-2.951156534254550934e-02
-2.107656933367252350e-02
1.024588593281805515e-03
-2.431708946824073792e-02
1.139416638761758804e-02
2.125004678964614868e-02
2.866867743432521820e-02
4.156313836574554443e-02
-1.542755402624607086e-02
3.137409314513206482e-02
-1.828981935977935791e-02
-1.286971382796764374e-02
1.792197301983833313e-02
1.543483790010213852e-02
2.195316366851329803e-02
1.716519333422183990e-02
-8.575150743126869202e-03
-4.471766296774148941e-03
1.049587968736886978e-02
-9.548158198595046997e-02
-9.496469050645828247e-02
5.797557067126035690e-03
1.698349043726921082e-02
-1.790911704301834106e-02
2.448965050280094147e-02
2.461166121065616608e-02
3.789157047867774963e-02
-4.404133558273315430e-02
-5.731739103794097900e-02
1.124620363116264343e-01
5.731366574764251709e-02
-1.102508753538131714e-01
2.089078538119792938e-02
-7.838357985019683838e-02
9.206088259816169739e-03
-1.065280637703835964e-03
3.471745923161506653e-02
-2.021055370569229126e-01
8.603746071457862854e-03
2.283352427184581757e-02
3.449656814336776733e-02
-9.716435521841049194e-02
1.806201040744781494e-02
6.118505261838436127e-03
3.394547849893569946e-02
-2.745307795703411102e-02
-1.590423658490180969e-02
-3.453993238508701324e-03
-1.399091351777315140e-02
8.009869605302810669e-02
-5.007592588663101196e-02
-4.237745329737663269e-02
7.525534927845001221e-02
-3.408951312303543091e-02
-2.685852907598018646e-02
4.999770969152450562e-02
-6.870516389608383179e-02
2.215689979493618011e-02
-1.467227637767791748e-01
-3.726467862725257874e-02
3.990125656127929688e-02
3.339361399412155151e-02
-1.945273950695991516e-02
-1.193438190966844559e-02
-8.946234360337257385e-03
-1.798018347471952438e-03
-9.610930457711219788e-03
2.593279629945755005e-02
7.359265536069869995e-02
6.217924878001213074e-02
-1.137249991297721863e-01
4.129538865527138114e-06
-2.267244644463062286e-02
3.363547846674919128e-02
-5.004335567355155945e-02
1.457192189991474152e-02
8.957844972610473633e-02
4.903410002589225769e-02
7.321219309233129025e-04
-1.163417380303144455e-02
1.373744849115610123e-02
1.899350550957024097e-03
-2.525368705391883850e-02
-1.550634624436497688e-03
-4.070176184177398682e-02
-1.548417750746011734e-02
-1.674480549991130829e-02
-1.682182028889656067e-02
-7.654972141608595848e-04
-6.211864296346902847e-03
1.713631791062653065e-03
1.499351672828197479e-02
8.989393245428800583e-05
-2.277892082929611206e-02
-1.076494809240102768e-02
9.017804637551307678e-03
7.138328999280929565e-02
4.486496001482009888e-02
-2.443111315369606018e-02
2.605428220704197884e-03
4.277916625142097473e-02
-3.394351527094841003e-02
4.372475203126668930e-03
1.097152475267648697e-02
-2.986705675721168518e-02
1.168261654675006866e-02
1.523429295048117638e-03
3.426663205027580261e-02
-6.237334012985229492e-02
3.466194961220026016e-03
5.355818662792444229e-03
4.867286235094070435e-02
4.788014665246009827e-02
-1.826629042625427246e-02
-1.306745558977127075e-01
2.326921327039599419e-03
-4.736783728003501892e-02
-1.866887090727686882e-03
3.179303184151649475e-02
-7.780890446156263351e-03
-3.190792351961135864e-02
6.224767770618200302e-03
-2.276051044464111328e-02
-1.513738278299570084e-02
-6.498132646083831787e-02
-9.353082627058029175e-03
-7.022688514553010464e-04
-8.494330197572708130e-02
-1.535754557698965073e-02
-1.168681401759386063e-02
1.348761026747524738e-03
-2.756977826356887817e-02
3.828764427453279495e-03
-1.650596270337700844e-03
-4.609796218574047089e-03
-8.287767879664897919e-03
3.367665223777294159e-03
-3.121641464531421661e-02
1.257475523743778467e-04
-1.735386787913739681e-03
3.104565432295203209e-03
8.834527805447578430e-03
1.785886101424694061e-02
1.487040612846612930e-02
-1.011205557733774185e-02
-1.037674583494663239e-02
-1.733948662877082825e-02
3.260852023959159851e-02
3.139109909534454346e-02
-1.409429241903126240e-03
2.162547782063484192e-03
8.066951297223567963e-03
-1.988805271685123444e-02
1.507643703371286392e-02
5.612082779407501221e-03
8.526904275640845299e-04
6.099283695220947266e-02
3.299264609813690186e-02
-5.270856246352195740e-02
-4.030573647469282150e-03
-9.510464034974575043e-03
2.974616363644599915e-03
3.348881378769874573e-02
-3.996594343334436417e-03
4.019933566451072693e-02
4.172832518815994263e-02
-1.100368052721023560e-02
2.744826860725879669e-02
4.317410290241241455e-02
2.974430471658706665e-02
-1.944939605891704559e-02
1.343949348665773869e-03
-2.295023016631603241e-02
-3.435383364558219910e-02
-2.157770842313766479e-02
3.570678085088729858e-02
-2.664470113813877106e-02
2.445345558226108551e-02
8.584033697843551636e-03
4.778773989528417587e-03
1.284388173371553421e-02
-2.810110710561275482e-02
4.125064238905906677e-02
-2.844894863665103912e-02
3.766064345836639404e-02
-1.833446510136127472e-02
-3.667487995699048042e-03
1.251988695003092289e-03
1.962191611528396606e-02
1.115408260375261307e-03
