1.642974764108657837e-01
-4.817491397261619568e-03
-2.037988454103469849e-01
1.075777858495712280e-01
-5.749816447496414185e-02
-1.131709888577461243e-01
-3.093748725950717926e-02
-8.121649920940399170e-02
1.593204028904438019e-02
-1.015648711472749710e-02
-4.136218726634979248e-01
1.656151115894317627e-01
7.989920675754547119e-02
3.955644741654396057e-02
-1.288392543792724609e-01
9.243372082710266113e-02
1.788540631532669067e-01
2.350565418601036072e-02
6.270023435354232788e-02
-1.087361350655555725e-01
-2.413970082998275757e-01
-2.491670660674571991e-02
3.338236212730407715e-01
1.793901175260543823e-01
7.527768611907958984e-02
-3.097649514675140381e-01
8.832249790430068970e-02
3.528309613466262817e-02
2.883779071271419525e-02
-1.037964224815368652e-01
8.366529829800128937e-03
2.116766944527626038e-02
-6.762163247913122177e-03
1.418439000844955444e-01
-4.527780041098594666e-02
-2.086283564567565918e-01
-5.251481756567955017e-02
-4.390528891235589981e-03
-6.962116807699203491e-02
-8.024439215660095215e-02
9.179061651229858398e-02
9.445070475339889526e-02
5.930919051170349121e-01
-1.043088436126708984e-01
6.624541431665420532e-02
-1.147686154581606388e-03
-2.602289430797100067e-02
5.077027902007102966e-02
-1.263471096754074097e-01
-2.463485114276409149e-02
-1.059864610433578491e-01
-1.099217087030410767e-01
2.792962789535522461e-01
2.019432038068771362e-01
2.404106967151165009e-02
-2.744733393192291260e-01
-1.630854904651641846e-01
-1.505944281816482544e-01
-3.607646503951400518e-04
-3.660064935684204102e-02
-3.081366233527660370e-02
-2.474077790975570679e-02
-1.884871348738670349e-02
-1.740318909287452698e-02
-1.346229668706655502e-02
-4.920442122966051102e-03
1.278118938207626343e-01
9.764738380908966064e-02
-1.055066660046577454e-01
4.724163189530372620e-02
3.582972288131713867e-02
-1.991674602031707764e-01
1.930684223771095276e-02
-1.594514697790145874e-01
-1.622276157140731812e-01
-7.533629983663558960e-02
2.277132421731948853e-01
5.392635613679885864e-02
-9.816861152648925781e-02
-2.773979306221008301e-02
-1.367792934179306030e-01
9.586259722709655762e-03
7.439444959163665771e-02
8.224500715732574463e-02
8.118779212236404419e-02
-3.196272552013397217e-01
3.559975028038024902e-01
-1.948806643486022949e-01
-1.861648410558700562e-01
-8.188152313232421875e-02
1.576175391674041748e-01
-2.929469347000122070e-01
1.638164818286895752e-01
-1.159169077873229980e-01
1.166038736701011658e-01
-4.439118877053260803e-02
3.248687461018562317e-02
-9.243980981409549713e-03
2.184443920850753784e-01
1.648194938898086548e-01
1.514182835817337036e-01
-1.203611940145492554e-01
1.107827723026275635e-01
2.235634438693523407e-02
-1.424374282360076904e-01
1.242211461067199707e-01
3.629589080810546875e-02
-1.560161560773849487e-01
-2.738935947418212891e-01
-5.056751966476440430e-01
7.395225763320922852e-02
5.504722148180007935e-02
8.692426607012748718e-03
2.836721837520599365e-01
-2.371173352003097534e-01
-6.795024126768112183e-02
-7.074649631977081299e-02
-1.073438748717308044e-01
-5.220528692007064819e-03
-3.056840226054191589e-02
4.599604010581970215e-01
8.869720622897148132e-03
4.386371746659278870e-02
-2.793915569782257080e-01
2.098268717527389526e-01
1.615710854530334473e-01
3.803928149864077568e-03
1.693573035299777985e-02
-2.056314796209335327e-01
1.457442436367273331e-02
-8.899986743927001953e-03
-4.646016657352447510e-02
-1.809470728039741516e-02
6.763295084238052368e-02
1.127519644796848297e-02
-7.172092050313949585e-02
1.537378877401351929e-01
-3.415993973612785339e-02
8.244314789772033691e-02
-1.781133562326431274e-01
-1.119847223162651062e-01
1.458305120468139648e-01
2.059085667133331299e-01
-1.412130594253540039e-01
5.433178972452878952e-03
-9.311430621892213821e-04
1.947878748178482056e-01
1.626795977354049683e-01
1.634765565395355225e-01
1.589625328779220581e-01
-8.428699523210525513e-02
2.243520505726337433e-02
-4.437207803130149841e-02
3.017506599426269531e-01
3.356000483036041260e-01
6.265331059694290161e-02
-2.151136696338653564e-01
-1.190377473831176758e-01
1.751354038715362549e-01
3.080560266971588135e-02
-4.173774272203445435e-02
-8.735036477446556091e-03
5.624147504568099976e-02
-1.369940862059593201e-02
-6.490886211395263672e-02
4.708315432071685791e-02
-7.201869040727615356e-02
-7.550214231014251709e-02
-1.808954924345016479e-01
5.626716185361146927e-03
1.990344822406768799e-01
-5.004739016294479370e-02
2.272266000509262085e-01
-1.873079538345336914e-01
4.754453599452972412e-01
1.254894733428955078e-01
1.246815919876098633e-01
5.665686726570129395e-02
3.234208375215530396e-02
-1.547810882329940796e-01
-7.039617002010345459e-02
-8.729578554630279541e-02
-1.046639308333396912e-01
5.122489109635353088e-02
3.836023062467575073e-02
-4.332236200571060181e-02
-2.537495493888854980e-01
7.654377818107604980e-02
-3.327300772070884705e-02
-1.883932203054428101e-01
3.775285482406616211e-01
-1.364149386063218117e-03
-6.823653355240821838e-03
-2.912372350692749023e-02
-9.353297948837280273e-02
-8.534950204193592072e-03
1.936395093798637390e-02
3.744935989379882812e-02
-2.571336030960083008e-01
-4.379134997725486755e-02
2.881389297544956207e-02
7.594110071659088135e-02
-1.360604465007781982e-01
2.007817625999450684e-01
1.446328219026327133e-02
-7.311978191137313843e-02
-9.335387148894369602e-04
3.187722861766815186e-01
-2.491807788610458374e-01
-1.468607634305953979e-01
-7.221602648496627808e-02
2.127401530742645264e-02
1.891884580254554749e-02
3.350341916084289551e-01
1.748342532664537430e-03
1.297063380479812622e-01
1.315129250288009644e-01
3.111688792705535889e-01
1.758625656366348267e-01
2.609973400831222534e-02
2.142239063978195190e-01
-2.083426527678966522e-02
2.562298439443111420e-02
3.022456169128417969e-01
1.503934413194656372e-01
-2.229879237711429596e-02
-4.053512215614318848e-02
8.948571048676967621e-03
-1.411882461979985237e-03
-3.475151583552360535e-02
-4.204772785305976868e-02
6.839849986135959625e-03
-1.188951879739761353e-01
-2.660874426364898682e-01
-3.230203688144683838e-02
2.198891788721084595e-01
-9.700693044578656554e-05
-9.393669664859771729e-02
-2.315475940704345703e-01
-1.489041447639465332e-01
1.921997815370559692e-01
3.443156182765960693e-01
-1.065102368593215942e-01
2.971453592181205750e-02
-8.576378226280212402e-02
1.609078794717788696e-01
2.342973947525024414e-01
-1.946650631725788116e-02
-1.102254912257194519e-01
-3.211467862129211426e-01
7.906924188137054443e-02
-4.764996841549873352e-02
-3.493239879608154297e-01
-4.552596434950828552e-02
-2.516372203826904297e-01
-1.168704330921173096e-01
1.399282664060592651e-01
-1.162628903985023499e-01
9.902083873748779297e-02
-1.700398474931716919e-01
-2.906739339232444763e-02
3.205468133091926575e-02
2.612835727632045746e-02
-2.693531475961208344e-02
-1.850668191909790039e-01
-2.009743265807628632e-02
8.873680233955383301e-02
-2.874835208058357239e-02
-4.592137783765792847e-02
8.872053772211074829e-02
-1.734066456556320190e-01
-1.241113096475601196e-01
-1.367855072021484375e-01
-4.733594134449958801e-03
3.775701522827148438e-01
2.649934403598308563e-02
-4.631916806101799011e-02
-4.523706063628196716e-02
-7.484187185764312744e-02
1.339286863803863525e-01
2.644178271293640137e-01
5.576170235872268677e-02
-2.137774378061294556e-01
-1.231176331639289856e-01
-2.150993943214416504e-01
-2.348157912492752075e-01
3.393605947494506836e-01
-2.035569548606872559e-01
-1.521831192076206207e-02
2.210969477891921997e-01
9.487863630056381226e-02
8.387054502964019775e-02
-4.558509960770606995e-02
1.778853237628936768e-01
3.549206629395484924e-02
-3.917406499385833740e-02
-7.469125092029571533e-02
4.071704577654600143e-03
-2.308478057384490967e-01
-3.301879763603210449e-02
3.952912613749504089e-02
3.263559937477111816e-01
-2.109168097376823425e-02
-1.800642758607864380e-01
-8.920650929212570190e-02
4.278184473514556885e-01
-1.496527791023254395e-01
4.943284690380096436e-01
9.101087599992752075e-02
-1.282925009727478027e-01
-1.156594790518283844e-02
-7.775118201971054077e-02
1.925029307603836060e-01
1.324505805969238281e-01
-2.128301858901977539e-01
-1.226365268230438232e-01
1.756039857864379883e-01
-4.140460863709449768e-02
-1.081804186105728149e-01
1.637885160744190216e-02
6.322547793388366699e-02
2.033047974109649658e-01
2.761197648942470551e-02
9.871455281972885132e-02
-7.607112079858779907e-02
6.776349246501922607e-02
-1.575917005538940430e-01
2.242665365338325500e-02
-4.463262110948562622e-02
-4.661379009485244751e-02
-3.137728869915008545e-01
2.191825211048126221e-01
1.504125893115997314e-01
-1.254248172044754028e-01
-8.739774674177169800e-02
-3.306073602288961411e-03
-3.050785511732101440e-02
9.191574156284332275e-02
-4.101464450359344482e-01
-4.931584894657135010e-01
1.789693832397460938e-01
4.442896693944931030e-02
2.895417250692844391e-02
1.054076701402664185e-01
4.534329101443290710e-02
-7.279263436794281006e-02
-6.412473041564226151e-03
-8.057002723217010498e-02
-6.869173049926757812e-02
-3.717280924320220947e-01
1.060451939702033997e-01
2.677670419216156006e-01
8.213035017251968384e-02
-1.020030956715345383e-02
-1.811675131320953369e-01
-2.762487530708312988e-01
-2.155706584453582764e-01
4.416341707110404968e-02
3.025233559310436249e-02
-7.113967090845108032e-02
-9.677901980467140675e-04
6.743663549423217773e-02
5.689297989010810852e-02
-1.556875258684158325e-01
2.740484476089477539e-01
9.582789614796638489e-03
-2.352922223508358002e-02
-2.101383917033672333e-02
-1.629127711057662964e-01
-2.156223654747009277e-01
-1.050304770469665527e-01
3.513415753841400146e-01
1.494481265544891357e-01
2.398527562618255615e-01
8.671864122152328491e-02
1.017910763621330261e-01
7.189673930406570435e-02
-1.649001687765121460e-01
-9.987539798021316528e-02
1.343292295932769775e-01
-4.355508461594581604e-02
1.957292407751083374e-01
-8.339234441518783569e-02
-7.161810994148254395e-03
-3.599418699741363525e-01
1.669171005487442017e-01
1.691443659365177155e-02
7.090091705322265625e-02
-3.774380087852478027e-01
-1.494266539812088013e-01
-2.084839530289173126e-02
1.120552197098731995e-01
1.406230628490447998e-01
-7.555539160966873169e-02
-7.153211534023284912e-02
-1.975730508565902710e-01
2.596393525600433350e-01
4.255166649818420410e-02
-1.152820065617561340e-01
-2.816649079322814941e-01
-1.454505026340484619e-01
-6.208664178848266602e-02
-1.838053204119205475e-02
3.503242135047912598e-02
2.282684892416000366e-01
-9.305541217327117920e-02
-2.082494646310806274e-01
1.857578605413436890e-01
-6.258869171142578125e-02
-9.077738970518112183e-02
8.484097570180892944e-02
3.910039365291595459e-02
-1.131087914109230042e-01
-4.944785032421350479e-03
-1.672462224960327148e-01
-2.553686499595642090e-01
-2.329619377851486206e-01
9.553699940443038940e-02
-2.520014718174934387e-02
-1.881966143846511841e-01
-2.962948381900787354e-01
-3.775840103626251221e-01
-2.955489605665206909e-02
-1.421989640220999718e-03
-7.597813755273818970e-02
-1.726605892181396484e-01
2.736344002187252045e-02
-8.124549686908721924e-02
5.391975864768028259e-02
-6.623997539281845093e-02
1.399441361427307129e-01
-8.629529178142547607e-02
3.407068783417344093e-03
-3.443697094917297363e-02
1.645331978797912598e-01
1.796295344829559326e-01
-1.972144544124603271e-01
-3.533356189727783203e-01
-1.524385958909988403e-01
-6.169785261154174805e-01
-4.366156086325645447e-02
-9.969215095043182373e-02
-2.153285034000873566e-02
1.179525032639503479e-01
3.421761393547058105e-01
-1.277149766683578491e-01
-7.346653938293457031e-02
2.931754887104034424e-01
2.115707397460937500e-01
5.285626649856567383e-02
3.481793403625488281e-01
3.271645009517669678e-01
9.877369552850723267e-02
-1.507019698619842529e-01
-6.695557385683059692e-02
-2.249076962471008301e-02
-7.188546005636453629e-03
-6.342464126646518707e-03
-5.806325748562812805e-02
3.057445213198661804e-02
-7.423861324787139893e-02
7.665845751762390137e-02
1.917889416217803955e-01
1.270007044076919556e-01
-4.449352249503135681e-02
-2.748025357723236084e-01
-6.492936052381992340e-03
6.052882596850395203e-02
-1.250149309635162354e-01
-3.361611440777778625e-02
3.176019489765167236e-01
-1.749991774559020996e-01
1.230957955121994019e-01
-3.277662396430969238e-02
1.486355215311050415e-01
1.567973941564559937e-01
-2.210941612720489502e-01
3.972372710704803467e-01
-1.218728050589561462e-01
1.021144837141036987e-01
1.318018697202205658e-02
1.294460147619247437e-01
2.805740237236022949e-01
-4.697344265878200531e-03
3.340010344982147217e-01
8.308885246515274048e-02
-5.134600028395652771e-02
-2.970816195011138916e-02
4.218237008899450302e-03
9.134006686508655548e-04
5.804640427231788635e-02
8.212547004222869873e-02
-3.668693825602531433e-02
1.927858963608741760e-02
5.766206607222557068e-02
-8.066467195749282837e-02
1.849063634872436523e-01
1.040140315890312195e-01
-2.676043100655078888e-02
-7.505774497985839844e-02
6.930519826710224152e-03
-3.787516849115490913e-03
-1.109707206487655640e-01
-3.892368078231811523e-02
-2.855055779218673706e-02
-7.633422501385211945e-03
1.426989138126373291e-01
1.438019573688507080e-01
5.230249464511871338e-02
8.721580356359481812e-02
2.928271591663360596e-01
3.492102399468421936e-02
-9.395737946033477783e-02
-1.774257570505142212e-01
-3.208123147487640381e-01
-1.534840315580368042e-01
1.774723678827285767e-01
-2.906978726387023926e-01
-1.651974618434906006e-01
-2.007352113723754883e-01
-3.371750712394714355e-01
-2.801803313195705414e-02
-3.254935145378112793e-02
2.997173694893717766e-03
1.367221027612686157e-01
2.198696136474609375e-02
3.343130275607109070e-02
-1.503622829914093018e-01
-2.300538495182991028e-02
5.479348823428153992e-02
-2.631518244743347168e-01
7.536122202873229980e-02
-5.419985204935073853e-02
1.906352788209915161e-01
-4.308066517114639282e-02
6.145077943801879883e-02
1.530117392539978027e-01
2.854927480220794678e-01
-2.233181744813919067e-01
5.549150519073009491e-03
-8.486471325159072876e-02
1.027063373476266861e-02
-1.104540750384330750e-01
-1.733076125383377075e-01
1.286501139402389526e-01
-4.200325161218643188e-02
-2.444630414247512817e-01
8.736438304185867310e-02
1.619267612695693970e-01
-2.670660614967346191e-01
4.596734046936035156e-01
-2.348319739103317261e-01
2.932052500545978546e-02
5.982314348220825195e-01
1.596545726060867310e-01
5.730423331260681152e-02
3.372462093830108643e-02
1.396728307008743286e-01
4.111151397228240967e-02
3.850542381405830383e-02
2.456031274050474167e-03
2.899091131985187531e-02
1.788252294063568115e-01
3.649460151791572571e-02
-4.706706479191780090e-02
6.083073094487190247e-05
-6.222738325595855713e-02
-4.391393624246120453e-03
8.588425070047378540e-02
-1.904440075159072876e-01
9.189481288194656372e-02
-1.609618589282035828e-02
-2.635597065091133118e-02
-9.406445547938346863e-03
-2.122052572667598724e-02
3.391473591327667236e-01
2.099930793046951294e-01
-1.336649209260940552e-01
5.437102634459733963e-03
-7.116503082215785980e-03
-1.394649744033813477e-01
-6.600826233625411987e-02
4.372240900993347168e-01
2.164816260337829590e-01
4.245103150606155396e-02
-3.644521832466125488e-01
-3.226092457771301270e-01
-3.068061731755733490e-02
-4.613830894231796265e-02
2.710288763046264648e-02
-1.573911868035793304e-02
4.955625906586647034e-02
6.570496410131454468e-02
-2.702315524220466614e-02
2.436137050390243530e-01
-8.002488873898983002e-03
5.303640663623809814e-02
7.803853601217269897e-02
1.315499097108840942e-01
2.511500120162963867e-01
-1.223072707653045654e-01
-5.631171911954879761e-02
-4.522258788347244263e-02
-2.528166174888610840e-01
2.998067252337932587e-02
-2.120078802108764648e-01
5.691748112440109253e-03
4.168948903679847717e-02
1.250707507133483887e-01
-1.593067795038223267e-01
5.621161684393882751e-02
1.013977527618408203e-01
-4.189391061663627625e-02
-2.543993890285491943e-01
2.191513590514659882e-02
-3.076038062572479248e-01
1.929695159196853638e-02
6.077838316559791565e-02
-5.767650529742240906e-02
-5.045197606086730957e-01
-1.593827307224273682e-01
2.617063000798225403e-02
1.054435502737760544e-02
-1.369840931147336960e-02
-6.493619643151760101e-03
5.029832012951374054e-03
-2.835011295974254608e-02
5.998215451836585999e-02
-1.200654059648513794e-01
1.287258416414260864e-01
1.435867138206958771e-02
-5.302384961396455765e-04
3.257662355899810791e-01
7.609467022120952606e-03
-1.063370332121849060e-01
2.485915869474411011e-01
-3.477921187877655029e-01
2.270168811082839966e-01
5.510494112968444824e-02
6.315159052610397339e-02
2.967543527483940125e-02
-2.945175468921661377e-01
-9.080291539430618286e-02
-1.671537756919860840e-01
-1.279361993074417114e-01
2.335543781518936157e-01
1.605006493628025055e-02
-1.199343800544738770e-01
2.542470693588256836e-01
-1.458203792572021484e-01
-1.281059831380844116e-01
-2.612576186656951904e-01
-2.385214716196060181e-02
-3.859221935272216797e-02
-5.659866705536842346e-02
6.197427399456501007e-03
1.696013263426721096e-03
-9.196542203426361084e-03
-4.312851279973983765e-02
1.622998900711536407e-02
2.966658473014831543e-01
-3.125961422920227051e-01
-6.911296397447586060e-02
-2.586022615432739258e-01
8.597031980752944946e-02
-1.177778467535972595e-02
-1.720396429300308228e-01
-2.819393277168273926e-01
-5.941944196820259094e-03
4.599402844905853271e-02
3.217596709728240967e-01
2.644385676831007004e-03
1.204107552766799927e-01
1.270128339529037476e-01
1.097214370965957642e-01
2.999435961246490479e-01
-1.633292585611343384e-01
6.575921177864074707e-02
2.357802540063858032e-01
3.359824717044830322e-01
-8.646802045404911041e-03
-3.457095921039581299e-01
1.083398051559925079e-02
-5.347058176994323730e-02
-1.852940469980239868e-01
9.300882369279861450e-02
-4.420057311654090881e-02
-5.001947283744812012e-03
-5.333569832146167755e-03
2.670148313045501709e-01
3.829292207956314087e-02
1.286426745355129242e-02
-1.186796128749847412e-01
-7.826878875494003296e-02
4.948121309280395508e-02
7.645611464977264404e-02
2.870293334126472473e-02
2.952972613275051117e-02
7.045040838420391083e-03
-2.190048806369304657e-02
-5.053544417023658752e-02
-1.283289790153503418e-01
-1.295901834964752197e-01
-1.469723135232925415e-02
-1.094311010092496872e-02
-1.864791847765445709e-02
-3.385602310299873352e-02
3.234972655773162842e-01
8.696068823337554932e-02
-1.329478323459625244e-01
-1.838710457086563110e-01
1.486931592226028442e-01
9.148342907428741455e-02
1.094341054558753967e-01
-4.728647470474243164e-01
1.550532132387161255e-01
-4.000967741012573242e-02
-3.179030865430831909e-02
-3.557259961962699890e-02
-8.204425685107707977e-03
-1.674314215779304504e-02
-1.704907044768333435e-02
1.442476361989974976e-01
5.234146956354379654e-03
-5.986017733812332153e-02
-5.696622282266616821e-02
-1.999541819095611572e-01
6.328089535236358643e-02
-1.141294538974761963e-01
-8.980201929807662964e-02
8.551245182752609253e-02
-9.032052010297775269e-02
1.616869270801544189e-01
1.017972752451896667e-01
3.894285857677459717e-01
-1.602538079023361206e-01
-4.337066113948822021e-01
1.690396666526794434e-01
4.977150456397794187e-05
-1.034094020724296570e-02
-3.734346628189086914e-01
-7.955136895179748535e-02
2.072990834712982178e-01
7.518538832664489746e-02
1.864917203783988953e-02
-2.470726817846298218e-01
-2.209432721138000488e-01
4.213815629482269287e-01
2.237621247768402100e-01
-3.562264889478683472e-02
7.771925628185272217e-02
-7.061667740345001221e-02
-8.868052810430526733e-02
-6.621842831373214722e-02
-1.775735616683959961e-02
9.546700865030288696e-02
-1.251969393342733383e-02
2.135604154318571091e-03
1.178624406456947327e-01
1.597770899534225464e-01
-7.343215495347976685e-02
-1.376814693212509155e-01
-1.076519563794136047e-01
-1.031129509210586548e-01
-2.672927975654602051e-01
3.383339941501617432e-01
-1.343973428010940552e-01
-1.017997488379478455e-01
-1.196807622909545898e-02
-5.718030780553817749e-02
5.881943926215171814e-02
-9.996597468852996826e-02
1.924722045660018921e-01
-2.520746588706970215e-01
-1.724727898836135864e-01
-1.161815598607063293e-01
-6.589803099632263184e-02
-1.709226369857788086e-01
7.727934420108795166e-02
1.560097187757492065e-01
3.875434398651123047e-01
-9.146798402070999146e-02
8.247075974941253662e-02
2.941401004791259766e-01
-1.054731979966163635e-01
2.834066450595855713e-01
1.695330068469047546e-02
-3.113120794296264648e-02
-1.671649813652038574e-01
3.427648916840553284e-02
1.143679302185773849e-02
-2.397632040083408356e-02
1.514805853366851807e-01
4.501370340585708618e-02
2.053196541965007782e-02
1.221939176321029663e-01
-4.535512533038854599e-03
-1.721376329660415649e-01
1.874043792486190796e-01
1.072091236710548401e-01
-6.600316613912582397e-02
-2.436040528118610382e-02
-3.622331321239471436e-01
1.884006559848785400e-01
-7.522650808095932007e-02
-5.714742001146078110e-03
-2.389788031578063965e-01
-9.690902382135391235e-02
-4.457489121705293655e-03
-1.221223548054695129e-01
-5.148312449455261230e-02
1.476369649171829224e-01
-9.095664322376251221e-02
2.324864566326141357e-01
2.558888494968414307e-01
3.531078249216079712e-02
4.150636196136474609e-01
-2.352153062820434570e-01
1.692858338356018066e-02
2.494831010699272156e-02
1.284699700772762299e-02
-1.831820979714393616e-02
4.162384569644927979e-02
2.173264138400554657e-02
1.509622763842344284e-02
3.565067425370216370e-02
-3.498821705579757690e-02
-4.003733024001121521e-02
6.459738314151763916e-02
4.821225628256797791e-02
-7.898004353046417236e-02
-5.380745977163314819e-02
-3.455813974142074585e-03
1.082857325673103333e-01
1.118023842573165894e-01
1.139814127236604691e-02
1.264168024063110352e-01
-6.331603508442640305e-03
1.661345735192298889e-02
-3.553080558776855469e-01
-3.381036967039108276e-02
1.242834329605102539e-01
-1.124592572450637817e-01
-3.301064074039459229e-01
6.609325855970382690e-02
-5.740976426750421524e-03
-1.965282298624515533e-02
2.055566906929016113e-01
3.390116617083549500e-02
-1.339906901121139526e-01
-2.067601978778839111e-01
1.308105736970901489e-01
-3.989655151963233948e-02
-6.656036525964736938e-02
-2.590399794280529022e-02
-1.867719925940036774e-02
5.227910727262496948e-02
-7.176946103572845459e-02
1.013399660587310791e-02
-4.525767639279365540e-03
-5.906290933489799500e-02
6.966749578714370728e-02
-5.121359601616859436e-02
-1.168521344661712646e-01
-1.692758649587631226e-01
-2.484529465436935425e-02
1.586985960602760315e-02
-3.093072474002838135e-01
2.089505940675735474e-01
-2.865971624851226807e-02
2.739886566996574402e-02
-1.045747101306915283e-02
-1.495362371206283569e-01
-1.011864095926284790e-01
5.206187814474105835e-02
1.201627328991889954e-01
2.225950956344604492e-01
-1.686303615570068359e-01
-1.361460089683532715e-01
-3.060336410999298096e-01
-9.264593943953514099e-03
-3.224271163344383240e-02
-1.493840515613555908e-01
-3.246863484382629395e-01
-2.239842563867568970e-01
1.483373623341321945e-02
-4.125168547034263611e-02
9.821224212646484375e-02
-3.079126402735710144e-02
-1.416913513094186783e-02
5.472128465771675110e-02
4.544984400272369385e-01
-5.784658193588256836e-01
-2.652475237846374512e-01
-1.052155531942844391e-02
1.174956038594245911e-01
-3.426446393132209778e-02
-2.313417149707674980e-03
-7.246527075767517090e-02
-1.037255153059959412e-01
2.971309721469879150e-01
2.726768851280212402e-01
1.118501126766204834e-01
2.843091078102588654e-02
-4.091004282236099243e-02
-1.365107744932174683e-01
7.841657847166061401e-02
-1.538807339966297150e-02
-2.486959844827651978e-01
-2.524774670600891113e-01
9.389895945787429810e-02
-1.290365308523178101e-01
-3.046042025089263916e-01
2.381709814071655273e-01
-7.494299858808517456e-02
2.757160067558288574e-01
-3.515512943267822266e-01
6.431940197944641113e-02
3.216098994016647339e-02
1.124581471085548401e-01
-2.196535915136337280e-01
8.399991691112518311e-02
-2.196805737912654877e-02
-7.584273070096969604e-02
3.984626382589340210e-02
1.506932526826858521e-01
1.338012889027595520e-02
-1.182625889778137207e-01
2.658913843333721161e-02
2.850175499916076660e-01
-5.944354087114334106e-02
-1.999098062515258789e-02
1.958732306957244873e-01
-2.120401710271835327e-01
-3.741246089339256287e-02
-6.796754896640777588e-02
8.740491420030593872e-02
1.437476575374603271e-01
-1.461137235164642334e-01
7.638162374496459961e-02
-2.415021955966949463e-01
-6.734255235642194748e-03
1.089901030063629150e-01
-1.055226102471351624e-01
-6.772912293672561646e-02
-4.690021872520446777e-01
-8.468347601592540741e-03
-7.425972074270248413e-02
5.396186560392379761e-02
-4.035466611385345459e-01
-1.423865705728530884e-01
1.958844438195228577e-02
-3.302181512117385864e-02
-5.617842823266983032e-02
1.263800263404846191e-02
-4.501352459192276001e-02
-4.406952112913131714e-02
-2.623736858367919922e-01
8.619952201843261719e-02
-1.293025016784667969e-01
-8.416331559419631958e-02
-1.927872770465910435e-03
-1.391524076461791992e-01
-4.502185806632041931e-02
-1.763921044766902924e-02
5.784238129854202271e-02
-1.591053009033203125e-01
7.358188629150390625e-01
-6.274571269750595093e-02
2.972954139113426208e-02
-7.590103894472122192e-02
7.240164279937744141e-02
-2.226117551326751709e-01
-1.980135217308998108e-02
6.719405204057693481e-02
2.978792600333690643e-02
-8.817935734987258911e-02
-1.091610640287399292e-01
-3.889606893062591553e-01
1.892599910497665405e-01
1.280652284622192383e-01
-9.205848723649978638e-02
-2.022672593593597412e-01
-9.363752603530883789e-02
3.868963941931724548e-02
-1.866168901324272156e-02
1.224064454436302185e-01
-9.883367456495761871e-03
-3.063815273344516754e-02
1.606013998389244080e-02
-1.307429373264312744e-01
1.329929083585739136e-01
-2.302874624729156494e-02
-1.253017485141754150e-01
-2.258312702178955078e-01
8.710722625255584717e-02
8.073589205741882324e-02
-2.354232594370841980e-02
1.628075838088989258e-01
1.475141048431396484e-01
-7.096320986747741699e-01
1.033570170402526855e-01
5.691563710570335388e-02
1.658695489168167114e-01
-2.424044460058212280e-01
9.707763046026229858e-02
2.480280250310897827e-01
-1.581477001309394836e-02
4.110801219940185547e-02
2.946409583091735840e-02
-2.425315603613853455e-02
3.485132008790969849e-02
-9.758326411247253418e-02
3.126470744609832764e-02
-1.206748336553573608e-01
1.842266768217086792e-01
-2.849452197551727295e-02
-1.711598411202430725e-02
2.163993194699287415e-02
-1.122774034738540649e-01
-2.102686837315559387e-02
-4.547661915421485901e-02
1.831701025366783142e-02
-1.079494953155517578e-01
-6.086456775665283203e-02
-7.944069057703018188e-02
1.532977372407913208e-01
4.619745537638664246e-02
-2.224558740854263306e-01
-5.564557388424873352e-03
7.595165073871612549e-02
7.068089395761489868e-02
4.409156441688537598e-01
-2.187461405992507935e-01
1.393006742000579834e-02
-1.932500861585140228e-02
-1.006814837455749512e-01
7.141121476888656616e-02
-3.878803551197052002e-02
1.410846859216690063e-01
8.318904787302017212e-02
8.623092621564865112e-02
-5.819137208163738251e-03
1.216900721192359924e-01
-1.377868801355361938e-01
3.599195927381515503e-02
1.096376851201057434e-01
3.449634313583374023e-01
2.363561093807220459e-02
3.051344864070415497e-02
3.720995411276817322e-02
-2.923364937305450439e-02
9.256375022232532501e-03
-1.604122482240200043e-02
3.608575090765953064e-02
-4.272997006773948669e-02
-1.339915394783020020e-01
-2.316031903028488159e-01
7.133224606513977051e-02
-2.059655822813510895e-02
-1.002770662307739258e-01
1.052799671888351440e-01
-9.388598799705505371e-02
3.994675353169441223e-02
-7.865633070468902588e-02
1.337721757590770721e-02
4.186216294765472412e-01
3.073590621352195740e-02
7.673265784978866577e-02
-1.293039917945861816e-01
-2.370141893625259399e-01
-1.932570934295654297e-01
-1.666020900011062622e-01
-1.630162894725799561e-01
-1.636974960565567017e-01
3.620071709156036377e-01
1.341990232467651367e-01
-1.344356834888458252e-01
2.001947462558746338e-01
8.443723618984222412e-02
-8.407007157802581787e-02
3.355675637722015381e-01
1.530612353235483170e-02
1.455098111182451248e-02
4.126302152872085571e-02
4.885841161012649536e-02
-1.775842905044555664e-02
-7.278039306402206421e-02
8.494538813829421997e-02
3.274893015623092651e-02
8.673729747533798218e-02
-1.828039437532424927e-02
-2.449920214712619781e-02
1.547747999429702759e-01
6.931251287460327148e-02
8.335591107606887817e-02
6.763184070587158203e-02
-1.834154501557350159e-02
6.782662589102983475e-03
1.370788067579269409e-01
-8.176557719707489014e-03
-5.320302769541740417e-02
-4.507798701524734497e-02
4.749673232436180115e-02
1.175360679626464844e-01
1.597511172294616699e-01
4.257745295763015747e-02
-4.937189519405364990e-01
-6.609862297773361206e-02
1.879742741584777832e-01
1.466177999973297119e-01
5.327911302447319031e-02
2.186177670955657959e-02
-5.437462329864501953e-01
-2.065956890583038330e-01
-1.230406537652015686e-01
-4.656193777918815613e-02
6.523916032165288925e-03
4.998147487640380859e-02
4.975676536560058594e-02
5.075668916106224060e-02
-7.997398823499679565e-02
-1.139287129044532776e-01
2.421919703483581543e-01
5.530606955289840698e-02
-2.376139461994171143e-01
-2.687537968158721924e-01
2.530257217586040497e-02
9.983187168836593628e-02
-1.984746456146240234e-01
3.010790236294269562e-02
-1.492131352424621582e-01
-4.734547138214111328e-01
-4.795517772436141968e-02
-4.971428215503692627e-02
-5.568672344088554382e-02
1.292058676481246948e-01
2.171925604343414307e-01
-2.201010938733816147e-03
8.336959779262542725e-02
4.003550484776496887e-02
-3.339414894580841064e-01
-9.449677169322967529e-02
-3.617266118526458740e-01
5.513154342770576477e-02
1.598417013883590698e-02
1.356647536158561707e-02
-3.571525514125823975e-01
-5.080896988511085510e-02
-9.318830445408821106e-03
-5.951865110546350479e-03
-2.129231765866279602e-02
-2.901037456467747688e-03
-2.849180065095424652e-02
-1.730167567729949951e-01
1.643975526094436646e-01
-1.635983586311340332e-01
-1.328004896640777588e-01
9.810579568147659302e-02
-1.578079313039779663e-01
2.526265161577612162e-04
1.057347208261489868e-01
-1.754842847585678101e-01
-1.049656793475151062e-01
-1.419994384050369263e-01
-1.560676395893096924e-01
-1.112659275531768799e-01
8.966077864170074463e-02
5.065832659602165222e-02
-9.817739576101303101e-02
-7.132115215063095093e-02
-1.392513215541839600e-01
-8.123455196619033813e-02
-7.576000690460205078e-02
2.927754819393157959e-01
2.884263545274734497e-02
2.485690712928771973e-01
-3.937125802040100098e-01
-1.420766860246658325e-01
2.806361317634582520e-01
-6.723222136497497559e-02
-1.136488094925880432e-02
1.264501921832561493e-02
-4.249693825840950012e-02
-4.470835998654365540e-02
-2.893544733524322510e-03
-4.503557458519935608e-02
6.419607996940612793e-02
1.403229869902133942e-02
-1.752733290195465088e-01
-6.117590516805648804e-02
-7.377036381512880325e-03
-1.258314866572618484e-02
1.986941508948802948e-02
1.241292655467987061e-01
8.969802409410476685e-03
2.740679085254669189e-01
-5.129250288009643555e-01
-5.294068455696105957e-01
-1.419475525617599487e-01
3.038895502686500549e-02
-2.068948000669479370e-03
-3.565025925636291504e-01
-2.322696298360824585e-01
-2.034291625022888184e-02
2.809155033901333809e-03
7.454264163970947266e-02
-1.304685026407241821e-01
1.403026934713125229e-02
-2.168078571557998657e-01
-1.512590646743774414e-01
-1.294971257448196411e-01
2.971480488777160645e-01
2.076616585254669189e-01
7.444104552268981934e-02
2.046115882694721222e-02
-1.873870939016342163e-02
8.454353362321853638e-02
-1.953081600368022919e-02
-6.450397893786430359e-03
7.677252590656280518e-02
-3.546018898487091064e-02
-5.084151402115821838e-02
2.324182242155075073e-01
8.519599586725234985e-02
6.095316633582115173e-02
3.819374740123748779e-01
1.388735771179199219e-01
3.903305530548095703e-02
1.508514583110809326e-01
-9.114646166563034058e-02
-1.975697129964828491e-01
-4.111303761601448059e-02
-8.755478262901306152e-02
-6.919948756694793701e-02
-3.213438093662261963e-01
1.672678589820861816e-01
3.031928278505802155e-02
-5.554194748401641846e-02
-1.800533384084701538e-01
4.788527265191078186e-02
8.225107938051223755e-02
2.363874465227127075e-01
-3.088109493255615234e-01
4.083962738513946533e-02
2.947391867637634277e-01
-2.970070540904998779e-01
-5.494835600256919861e-02
4.176051169633865356e-02
6.821493804454803467e-02
-7.706675678491592407e-02
1.947134174406528473e-02
9.468489885330200195e-02
-1.276091635227203369e-01
5.915405973792076111e-02
-1.288863420486450195e-01
-2.665292620658874512e-01
4.706912115216255188e-02
-1.434387564659118652e-01
-7.843789458274841309e-02
1.504995673894882202e-01
7.825636863708496094e-02
-1.115019991993904114e-01
5.939214304089546204e-02
-1.452488750219345093e-01
-8.296404033899307251e-02
-2.159051783382892609e-02
5.346708931028842926e-03
1.284025609493255615e-01
3.246647771447896957e-03
-6.104150041937828064e-02
-1.209384873509407043e-01
-1.556259244680404663e-01
-9.185767918825149536e-02
-9.400549530982971191e-02
3.034365475177764893e-01
1.682798415422439575e-01
-1.514796540141105652e-02
1.653807759284973145e-01
-1.122369766235351562e-01
-9.707052260637283325e-02
2.148749865591526031e-02
-1.441237982362508774e-02
1.152635067701339722e-01
1.517158583737909794e-03
3.349879384040832520e-02
7.475443184375762939e-02
2.556253075599670410e-01
-5.320032685995101929e-02
4.505310952663421631e-02
5.909878015518188477e-02
-3.213876485824584961e-02
-5.922455806285142899e-03
1.343588531017303467e-01
-8.657472580671310425e-02
4.177884757518768311e-01
-4.295879974961280823e-02
-7.973741739988327026e-02
5.664063617587089539e-03
1.432735323905944824e-01
7.334409654140472412e-02
-5.476991534233093262e-01
-7.427550107240676880e-02
-8.717775344848632812e-02
1.140360236167907715e-01
-1.377001553773880005e-01
-2.388632595539093018e-01
4.921091794967651367e-01
-6.620524078607559204e-02
-2.683788239955902100e-01
-8.838665671646595001e-03
-6.408768147230148315e-02
-4.485166668891906738e-01
2.757879793643951416e-01
-1.821317523717880249e-01
-9.566748142242431641e-02
4.941616207361221313e-02
-1.411352455615997314e-01
-5.308365076780319214e-02
1.938948035240173340e-01
-1.425404250621795654e-01
3.826335538178682327e-03
9.213628619909286499e-02
4.602708294987678528e-02
-3.582023829221725464e-02
1.000671833753585815e-01
-9.710557060316205025e-04
-2.127241156995296478e-02
1.500665247440338135e-01
2.259231358766555786e-01
1.339973509311676025e-01
7.553033065050840378e-03
1.692944020032882690e-01
-1.581029444932937622e-01
3.826699256896972656e-01
-1.429479867219924927e-01
2.199612557888031006e-01
1.118693724274635315e-01
-2.800666689872741699e-01
-2.246764898300170898e-01
-1.719899624586105347e-01
-2.547640204429626465e-01
-2.415374666452407837e-01
-2.785403840243816376e-02
4.295396804809570312e-01
-3.920737802982330322e-01
5.979076772928237915e-02
2.671808190643787384e-02
3.960169106721878052e-02
-1.231844797730445862e-01
1.430136617273092270e-02
2.098547481000423431e-02
-1.077541783452033997e-01
-1.928826123476028442e-01
3.310771286487579346e-01
-3.102066181600093842e-02
5.233826860785484314e-02
1.581977307796478271e-01
5.712757632136344910e-02
3.326890617609024048e-02
-7.889681309461593628e-02
-2.580848932266235352e-01
-6.973987910896539688e-03
-2.283206135034561157e-01
1.447014361619949341e-01
-6.681063026189804077e-02
-4.774244129657745361e-02
6.047775745391845703e-01
1.627947837114334106e-01
-7.563905417919158936e-02
-3.527583926916122437e-02
-1.795834153890609741e-01
6.900466978549957275e-02
-6.562817841768264771e-02
-2.981224656105041504e-01
2.520366311073303223e-01
8.955076336860656738e-02
2.198120355606079102e-01
-2.667344510555267334e-01
-1.119265034794807434e-01
5.333872139453887939e-02
1.229714252986013889e-04
-7.951625436544418335e-02
-2.711479924619197845e-02
-1.588913649320602417e-01
-1.327645927667617798e-01
-9.140859544277191162e-02
-2.940451726317405701e-02
1.902008652687072754e-01
1.023271679878234863e-01
8.551863580942153931e-02
2.049273550510406494e-01
-1.318025030195713043e-02
6.210082396864891052e-02
2.705706954002380371e-01
1.105126291513442993e-01
-4.069245755672454834e-01
-1.713316589593887329e-01
-7.473211735486984253e-02
-1.017167884856462479e-02
-2.866797149181365967e-01
1.136394739151000977e-01
-1.227512210607528687e-01
-4.768015816807746887e-02
-1.220212504267692566e-01
3.167897760868072510e-01
4.343002662062644958e-02
8.909509517252445221e-03
-4.077197313308715820e-01
1.252344064414501190e-02
-1.002642512321472168e-01
3.258793652057647705e-01
1.801208108663558960e-01
-1.419062633067369461e-02
5.397317931056022644e-02
-1.597000956535339355e-01
-1.983931846916675568e-02
1.690888591110706329e-02
-8.429238945245742798e-02
1.498428732156753540e-01
1.022968217730522156e-01
-1.641883999109268188e-01
-7.241961359977722168e-02
3.160401061177253723e-02
-2.569906786084175110e-02
5.180183053016662598e-02
-1.690907329320907593e-01
-1.295855343341827393e-01
-3.282712399959564209e-01
-5.904607176780700684e-01
3.673433884978294373e-02
9.155664592981338501e-02
1.642358750104904175e-01
5.369561910629272461e-02
8.197192847728729248e-02
3.102613985538482666e-02
-1.488838810473680496e-02
1.842382922768592834e-02
-1.717636585235595703e-01
-7.848156243562698364e-02
7.056374847888946533e-02
-4.731479287147521973e-02
5.128872022032737732e-02
1.133768931031227112e-01
-3.660710155963897705e-01
-5.238552391529083252e-02
8.198940195143222809e-03
1.254080329090356827e-02
-1.068262010812759399e-01
-2.705916203558444977e-02
-7.552016060799360275e-03
-5.698153749108314514e-02
-2.720020711421966553e-01
-1.626213043928146362e-01
-5.162776261568069458e-02
-5.296438001096248627e-03
-6.764504313468933105e-02
-5.591821391135454178e-03
-9.297821670770645142e-04
1.903192326426506042e-02
-6.110508739948272705e-02
9.993536025285720825e-02
-2.341362386941909790e-01
-2.013687491416931152e-01
6.586106121540069580e-02
-9.550479799509048462e-02
4.965738058090209961e-01
-1.400774866342544556e-01
-4.074105247855186462e-02
-5.368938669562339783e-02
2.119643092155456543e-01
-1.365665793418884277e-01
6.739218533039093018e-02
-4.382269829511642456e-02
1.149524524807929993e-01
1.833194494247436523e-02
1.559011936187744141e-01
-1.041506603360176086e-02
-1.658836379647254944e-02
3.389463527128100395e-03
-3.134366869926452637e-02
1.696135550737380981e-01
-2.432704344391822815e-02
7.534186542034149170e-02
-1.016476973891258240e-01
-2.893636822700500488e-01
7.371558248996734619e-02
1.236166805028915405e-01
-3.209745883941650391e-02
-1.104020699858665466e-01
-1.265893429517745972e-01
-1.305477172136306763e-01
1.028137933462858200e-02
2.195511199533939362e-02
-3.075104653835296631e-01
4.316057264804840088e-01
-9.356302767992019653e-02
-6.972793489694595337e-02
-3.128178790211677551e-02
-2.280755043029785156e-01
2.881038784980773926e-01
2.553247213363647461e-01
1.096155866980552673e-01
1.584647595882415771e-01
-1.246950626373291016e-01
1.327262371778488159e-01
2.953929901123046875e-01
9.007558226585388184e-02
-8.945690840482711792e-02
-1.676735281944274902e-01
-2.971921265125274658e-01
-1.028265058994293213e-01
-1.083068829029798508e-02
-1.103481743484735489e-02
1.576498597860336304e-01
-4.251912981271743774e-02
-1.359322108328342438e-02
-6.504698097705841064e-02
-1.414042413234710693e-01
-3.771779537200927734e-01
3.166399523615837097e-02
-5.568690598011016846e-02
4.352665320038795471e-02
1.342367678880691528e-01
8.597876131534576416e-02
4.908575490117073059e-02
8.719975501298904419e-02
1.256320774555206299e-01
2.679167874157428741e-02
-1.297988593578338623e-01
6.142082810401916504e-02
-1.144380029290914536e-02
-1.835622638463973999e-01
-1.404497958719730377e-02
-4.053328931331634521e-01
-7.213739305734634399e-02
-3.519806265830993652e-02
2.570282220840454102e-01
1.702010072767734528e-02
3.355835676193237305e-01
-5.077286362648010254e-01
-2.091568261384963989e-01
1.864870935678482056e-01
3.548745810985565186e-02
1.006896570324897766e-01
-2.045265026390552521e-02
-1.463227570056915283e-01
-4.237147420644760132e-02
-6.966384826228022575e-04
-6.663756817579269409e-02
1.185481026768684387e-01
2.055882364511489868e-01
-1.117375027388334274e-02
-1.606431007385253906e-01
2.123012021183967590e-02
-3.967907279729843140e-02
-4.153627529740333557e-02
3.576203435659408569e-02
-4.393370077013969421e-02
-3.061252236366271973e-01
1.324998140335083008e-01
-1.007814183831214905e-01
5.521464720368385315e-02
1.426844298839569092e-01
-3.024189919233322144e-02
4.851584732532501221e-01
1.380477398633956909e-01
1.526599675416946411e-01
-2.128906361758708954e-02
-1.857638061046600342e-01
-7.765970379114151001e-02
-8.953948318958282471e-02
-4.214451313018798828e-01
7.362127304077148438e-02
-1.198673844337463379e-01
5.189833641052246094e-01
-4.438807368278503418e-01
-7.655124366283416748e-02
-5.036624497734010220e-04
1.532648056745529175e-01
-1.231038570404052734e-01
4.260632023215293884e-02
-2.697501331567764282e-02
-6.682301312685012817e-02
-4.668600112199783325e-02
1.091708168387413025e-01
2.861668467521667480e-01
-1.906860247254371643e-02
6.098877638578414917e-02
3.628312349319458008e-01
2.686693519353866577e-02
-1.483926326036453247e-01
1.121747568249702454e-01
-2.976480126380920410e-01
-1.359651237726211548e-02
-6.633688509464263916e-02
-1.376606337726116180e-02
1.127778440713882446e-01
-2.054189890623092651e-01
-1.912883967161178589e-01
-1.293890923261642456e-01
-4.585961252450942993e-02
1.078294292092323303e-01
-2.036378234624862671e-01
-1.273717582225799561e-01
-1.755868047475814819e-01
3.743329644203186035e-01
8.929086476564407349e-02
3.247462809085845947e-01
-4.143759906291961670e-01
-1.289123147726058960e-01
3.982114791870117188e-02
-6.272543687373399734e-03
6.794322282075881958e-02
-2.668335661292076111e-02
-6.790756713598966599e-03
-7.120734453201293945e-02
1.769302636384963989e-01
1.395997256040573120e-01
9.117713570594787598e-02
-2.022899128496646881e-02
-5.860347300767898560e-02
3.247492909431457520e-01
6.639730930328369141e-02
-3.967444971203804016e-02
2.414705902338027954e-01
-2.734448611736297607e-01
-2.468591183423995972e-01
-1.465621292591094971e-01
-5.206144228577613831e-02
-7.346463948488235474e-02
-9.207797050476074219e-02
-7.983103394508361816e-03
3.804218955338001251e-03
-1.148470938205718994e-01
-1.421347260475158691e-01
-9.117593616247177124e-02
6.226242706179618835e-02
8.056946843862533569e-02
-5.312083363533020020e-01
-9.556286782026290894e-02
2.448040395975112915e-01
-1.487334221601486206e-01
-1.549615859985351562e-01
7.636576890945434570e-02
-3.020313195884227753e-02
-2.581475069746375084e-03
-5.811353679746389389e-03
8.104135096073150635e-02
-6.423064321279525757e-02
8.847333490848541260e-03
1.069458946585655212e-01
-2.550580911338329315e-02
8.186281472444534302e-02
7.437014579772949219e-02
-3.119324892759323120e-02
5.140988156199455261e-03
1.300988942384719849e-01
1.376546472311019897e-01
2.851918041706085205e-01
-1.830653846263885498e-01
-6.065260618925094604e-02
-2.954540215432643890e-02
2.041557431221008301e-02
-3.348662853240966797e-01
-2.159927487373352051e-01
-2.513315975666046143e-01
-6.293927133083343506e-02
-1.198589280247688293e-01
1.482323557138442993e-01
2.378674596548080444e-01
-1.774026155471801758e-01
-4.432129561901092529e-01
-2.169372737407684326e-01
-4.135838523507118225e-02
3.002707064151763916e-01
-6.332845240831375122e-02
6.930103898048400879e-02
1.909724809229373932e-02
5.715896189212799072e-02
4.302695021033287048e-02
-9.302591904997825623e-03
1.306803226470947266e-01
1.939754001796245575e-02
1.904739439487457275e-01
9.578496217727661133e-02
1.401074603199958801e-02
1.356426030397415161e-01
-1.557174921035766602e-01
1.220785081386566162e-01
-5.008433386683464050e-02
-1.121040200814604759e-03
1.914110779762268066e-01
-4.506385922431945801e-01
8.035410940647125244e-02
-4.682505968958139420e-03
-5.431094393134117126e-02
2.966045737266540527e-01
4.836091399192810059e-02
1.890817433595657349e-01
3.105125203728675842e-02
-3.315436542034149170e-01
-2.391961812973022461e-01
-2.717529535293579102e-01
2.778520882129669189e-01
-2.103876918554306030e-01
-3.136754781007766724e-02
3.584430217742919922e-01
-2.090793102979660034e-02
5.688209459185600281e-02
-1.602189242839813232e-02
2.848953194916248322e-02
-7.301077712327241898e-03
1.383644808083772659e-02
5.544803664088249207e-02
-1.246731262654066086e-02
-1.087707802653312683e-01
1.734196394681930542e-01
-3.431572616100311279e-01
1.752002388238906860e-01
-5.508060380816459656e-02
-1.102050244808197021e-01
-1.272137314081192017e-01
1.272564381361007690e-01
-1.148788407444953918e-01
3.224204778671264648e-01
1.745821535587310791e-01
2.074447870254516602e-01
-2.526665106415748596e-02
-1.350459009408950806e-01
-8.268343657255172729e-02
2.427759915590286255e-01
-1.714206486940383911e-01
-2.325971424579620361e-02
2.144177109003067017e-01
4.510556161403656006e-02
4.373927712440490723e-01
5.339939147233963013e-02
-4.718127474188804626e-02
1.170398369431495667e-01
-3.662396073341369629e-01
-2.492854185402393341e-02
-1.417792774736881256e-02
-6.328954547643661499e-02
8.152116835117340088e-02
-1.691135466098785400e-01
-7.321038097143173218e-02
-1.254011243581771851e-01
5.681971833109855652e-02
3.485956415534019470e-02
-9.914310276508331299e-02
2.063437700271606445e-01
-3.202199190855026245e-02
-4.939347505569458008e-02
-2.342385351657867432e-01
-1.582322147442027926e-05
-8.747773617506027222e-02
1.434407234191894531e-01
-5.457838773727416992e-01
4.777482524514198303e-02
-9.518575668334960938e-02
5.566774401813745499e-03
-6.758926901966333389e-03
-1.458588838577270508e-01
1.023404672741889954e-01
-5.671118944883346558e-02
1.534277293831110001e-02
2.427948266267776489e-01
-1.259564608335494995e-01
1.616952866315841675e-01
-1.178109124302864075e-01
1.557126641273498535e-01
7.537946105003356934e-02
3.392638564109802246e-01
-3.945297598838806152e-01
-2.694420889019966125e-02
5.094494204968214035e-03
-1.388194505125284195e-02
1.361030247062444687e-02
3.992521204054355621e-03
1.294744480401277542e-02
-1.583275943994522095e-02
1.942015439271926880e-01
7.178068161010742188e-02
1.788878291845321655e-01
-5.968748033046722412e-02
-2.565683424472808838e-01
1.741004884243011475e-01
9.950015693902969360e-03
-1.943313479423522949e-01
2.628654241561889648e-01
-2.529751956462860107e-01
2.313319221138954163e-02
-2.156448066234588623e-01
8.348573744297027588e-02
7.788670808076858521e-02
-3.211449384689331055e-01
1.950368285179138184e-01
-2.753692865371704102e-01
-9.446424990892410278e-02
1.591652780771255493e-01
-1.274975389242172241e-01
1.131647154688835144e-01
-3.473848849534988403e-02
-3.424786925315856934e-01
-5.709457397460937500e-02
2.530143260955810547e-01
-5.572265982627868652e-01
-1.840272396802902222e-01
1.048977952450513840e-02
3.409864380955696106e-02
5.398920550942420959e-02
-4.983083903789520264e-02
4.729749262332916260e-02
-1.772402673959732056e-01
-4.237236455082893372e-02
-1.791891157627105713e-01
4.531529173254966736e-02
3.416253486648201942e-03
-1.238288264721632004e-02
5.882129445672035217e-02
2.219613175839185715e-03
-1.156674399971961975e-01
-4.097479581832885742e-02
-2.885133214294910431e-02
6.336600780487060547e-01
-1.512308865785598755e-01
3.771907417103648186e-03
2.004439570009708405e-02
-1.942691057920455933e-01
4.635555744171142578e-01
-1.026260778307914734e-01
1.421658787876367569e-02
-4.818109795451164246e-02
6.532322615385055542e-02
1.016053091734647751e-02
3.761269450187683105e-01
1.743715628981590271e-02
-3.843920677900314331e-02
-7.998881861567497253e-03
-2.514341771602630615e-01
5.370228365063667297e-02
-8.501979708671569824e-02
-3.243290632963180542e-02
-1.347089558839797974e-02
-2.090764604508876801e-02
-5.851808004081249237e-03
-1.100637717172503471e-03
1.084352955222129822e-01
-8.208926767110824585e-02
-1.172251626849174500e-01
-1.053741350769996643e-01
-6.342339515686035156e-02
1.968305259943008423e-01
5.133944377303123474e-02
2.287825345993041992e-01
-4.218752086162567139e-01
5.583394169807434082e-01
-1.353688687086105347e-01
1.535207331180572510e-01
6.893349438905715942e-02
-7.751936465501785278e-02
3.281774818897247314e-01
-9.924288839101791382e-03
-1.065300311893224716e-03
3.019983135163784027e-02
2.613513171672821045e-01
4.231287539005279541e-01
1.358659286051988602e-02
-3.696896731853485107e-01
4.372307285666465759e-02
8.769092150032520294e-03
2.145531028509140015e-01
3.407863676548004150e-01
1.868104003369808197e-02
-1.120345946401357651e-02
-4.363773390650749207e-02
-3.090879023075103760e-01
6.755746901035308838e-02
-7.344278041273355484e-03
6.112693808972835541e-03
-2.223999053239822388e-01
2.321222051978111267e-02
1.210870370268821716e-01
5.970917642116546631e-02
1.184140592813491821e-01
2.558142244815826416e-01
8.479961752891540527e-02
-6.408307701349258423e-02
9.389282017946243286e-02
-6.225655321031808853e-03
-4.486383795738220215e-01
-2.705926001071929932e-01
-5.630924925208091736e-02
3.035728447139263153e-02
1.405691951513290405e-01
7.525423169136047363e-02
2.244492024183273315e-01
2.062252163887023926e-01
4.739749711006879807e-03
-3.331557214260101318e-01
-4.099837318062782288e-02
4.712173342704772949e-01
-1.959899365901947021e-01
-1.193897426128387451e-01
2.481210976839065552e-02
-8.501067012548446655e-02
-3.860824555158615112e-02
-5.668152868747711182e-02
6.123799365013837814e-03
1.947005465626716614e-02
-1.640274375677108765e-02
-9.881963953375816345e-03
2.323693968355655670e-02
1.207550987601280212e-01
3.951861336827278137e-02
-8.677459508180618286e-02
-4.408911243081092834e-02
1.411730144172906876e-02
-1.247013807296752930e-01
3.956032544374465942e-02
7.936352491378784180e-02
-5.498211830854415894e-02
7.408205419778823853e-02
4.476346448063850403e-02
4.033669084310531616e-02
9.931094013154506683e-03
-1.308989971876144409e-01
1.429005712270736694e-01
2.769298553466796875e-01
-1.877362579107284546e-01
-2.553475834429264069e-02
1.737804710865020752e-01
-1.181198731064796448e-01
6.105123460292816162e-02
7.967796921730041504e-02
-1.581942737102508545e-01
-1.176132708787918091e-01
-7.424143701791763306e-02
-2.784492671489715576e-01
-1.020742729306221008e-01
5.826524645090103149e-02
-8.948399871587753296e-02
-4.124436154961585999e-02
-1.603900641202926636e-02
3.005395829677581787e-02
5.736928433179855347e-03
-1.223374158143997192e-01
1.682875454425811768e-01
-2.440993785858154297e-01
1.961108110845088959e-02
-1.869704015552997589e-02
-6.098094955086708069e-02
-6.731764972209930420e-02
-5.244916304945945740e-03
7.504707574844360352e-02
-2.929773926734924316e-01
-1.111987233161926270e-01
-1.518603041768074036e-02
4.218704253435134888e-02
1.021012589335441589e-01
-2.014559656381607056e-01
-4.364619404077529907e-02
1.026048585772514343e-01
3.154374659061431885e-02
7.188495248556137085e-02
-1.568236202001571655e-01
-2.657794766128063202e-02
2.584399580955505371e-01
3.070580214262008667e-02
-4.957353323698043823e-02
-2.436944544315338135e-01
4.927908778190612793e-01
-1.497045755386352539e-01
-7.139202952384948730e-02
6.269743200391530991e-03
-1.743571311235427856e-01
6.047349050641059875e-02
-5.257336050271987915e-02
8.199376612901687622e-02
-6.638614088296890259e-02
9.044513851404190063e-02
-2.498547434806823730e-01
6.980787217617034912e-02
5.887079983949661255e-02
-5.706546455621719360e-02
-9.320849925279617310e-02
2.200714349746704102e-01
-2.748265564441680908e-01
5.496504306793212891e-01
4.132511913776397705e-01
1.653690040111541748e-01
1.914029754698276520e-02
-3.978760913014411926e-02
4.947491586208343506e-01
3.195752622559666634e-03
-1.312394589185714722e-01
-1.099970117211341858e-01
1.571206450462341309e-01
2.769902050495147705e-01
8.351020514965057373e-02
2.219283394515514374e-02
-3.036489523947238922e-02
-4.228014498949050903e-03
-2.111315727233886719e-01
9.699272364377975464e-02
3.776916861534118652e-02
-4.269115254282951355e-02
1.515822368673980236e-03
1.127643510699272156e-02
2.443402260541915894e-02
1.981785334646701813e-02
-1.201933845877647400e-01
-1.460872311145067215e-02
-4.020539522171020508e-01
2.216438055038452148e-01
-8.246102370321750641e-03
1.057416852563619614e-02
1.193913370370864868e-01
1.532786935567855835e-01
-1.596439331769943237e-01
1.489079743623733521e-01
2.032303810119628906e-02
-1.399814188480377197e-01
-2.110132724046707153e-01
-1.593337357044219971e-01
2.318626940250396729e-01
-4.515970945358276367e-01
-2.697189152240753174e-01
-3.189670667052268982e-02
2.170887440443038940e-01
4.838455840945243835e-02
1.218526810407638550e-01
-2.003393471240997314e-01
5.392742529511451721e-02
-7.519052177667617798e-02
8.924917131662368774e-02
1.513264328241348267e-01
4.371494948863983154e-01
1.990077942609786987e-01
5.453340243548154831e-03
-2.657093107700347900e-02
-1.345000565052032471e-01
-6.874958518892526627e-03
-4.056829214096069336e-02
4.872582480311393738e-02
1.666899621486663818e-01
-8.461192995309829712e-02
1.249245777726173401e-01
-4.994850233197212219e-02
-1.711982786655426025e-01
2.981314957141876221e-01
1.304016262292861938e-01
-7.805223762989044189e-02
-2.546892166137695312e-01
-3.888446092605590820e-02
-2.362157404422760010e-02
-1.668802201747894287e-01
6.767047941684722900e-02
1.405823826789855957e-01
3.643955290317535400e-01
-5.116387829184532166e-02
-9.117853641510009766e-02
-4.567533358931541443e-02
-8.306185901165008545e-02
3.080807067453861237e-02
-1.510472875088453293e-02
-8.377525024116039276e-03
1.927427351474761963e-01
1.371203809976577759e-01
2.597976922988891602e-01
1.713572293519973755e-01
7.288125157356262207e-02
2.650001272559165955e-02
2.228812687098979950e-02
-1.553790569305419922e-01
-2.533147484064102173e-02
-6.453429232351481915e-04
-2.083795703947544098e-02
-1.609719097614288330e-01
-7.200550287961959839e-02
-9.676653891801834106e-02
-1.702808588743209839e-02
-5.681715160608291626e-02
3.035629726946353912e-02
-4.242544993758201599e-02
-5.872014537453651428e-02
2.530802786350250244e-01
-3.400613740086555481e-02
-2.612015008926391602e-01
8.296718448400497437e-02
6.249536946415901184e-02
3.446406498551368713e-02
-3.799248337745666504e-01
7.490522414445877075e-02
1.270908713340759277e-01
-4.134251549839973450e-02
2.215225100517272949e-01
-1.159068420529365540e-01
-2.639089524745941162e-01
1.752174198627471924e-01
-1.327774375677108765e-01
-9.985631704330444336e-02
9.811901301145553589e-02
2.374427765607833862e-01
-1.828871667385101318e-02
-7.767607271671295166e-02
-3.348002955317497253e-02
1.248597204685211182e-01
-1.157366950064897537e-02
-4.469566792249679565e-02
1.066910699009895325e-01
-6.953106261789798737e-03
1.273390054702758789e-01
-4.663391411304473877e-02
1.145410090684890747e-01
-3.476979732513427734e-01
-7.281005382537841797e-02
8.322226256132125854e-02
1.313179433345794678e-01
2.411659248173236847e-02
5.636209249496459961e-01
-4.748036861419677734e-01
-3.521980345249176025e-02
4.362231492996215820e-02
-3.125914186239242554e-02
-1.800978332757949829e-01
1.764706149697303772e-02
-1.541811972856521606e-02
1.564055830240249634e-01
3.271466791629791260e-01
2.805567085742950439e-01
1.553913056850433350e-01
1.277727484703063965e-01
3.520023822784423828e-02
-2.621968276798725128e-02
-2.308792620897293091e-01
1.246121823787689209e-01
1.097380071878433228e-01
7.365340739488601685e-02
4.932215064764022827e-02
7.107591629028320312e-02
-2.254218980669975281e-02
-2.122697606682777405e-02
-4.103863239288330078e-02
-1.892812200821936131e-03
1.289175171405076981e-02
1.861235648393630981e-01
-3.059054724872112274e-02
-1.271272152662277222e-01
5.943996086716651917e-02
1.810809671878814697e-01
-4.747004061937332153e-02
-7.459680736064910889e-02
1.772222369909286499e-01
-2.757137715816497803e-01
5.639373138546943665e-02
-5.211580917239189148e-02
9.026527404785156250e-02
9.172906167805194855e-03
-3.419370576739311218e-02
2.051182538270950317e-01
1.486161798238754272e-01
3.316466212272644043e-01
-6.294183433055877686e-02
-1.044648289680480957e-01
1.929387748241424561e-01
3.293124735355377197e-01
1.149069964885711670e-01
1.964805573225021362e-01
3.113995790481567383e-01
8.571994304656982422e-02
1.516506914049386978e-02
-2.745871618390083313e-02
4.269087314605712891e-02
-3.024679608643054962e-02
3.206485509872436523e-02
3.651399910449981689e-02
-1.992166787385940552e-01
8.673661947250366211e-02
6.518248468637466431e-02
1.477996110916137695e-01
-3.541513532400131226e-02
2.803324759006500244e-01
-2.076000347733497620e-02
1.746366545557975769e-02
-1.214297264814376831e-01
2.397138327360153198e-01
-3.517113924026489258e-01
-2.231920324265956879e-02
2.663983963429927826e-03
-1.481797173619270325e-02
1.685070097446441650e-01
-1.419763267040252686e-01
-2.197705954313278198e-02
-4.198297485709190369e-02
2.418758124113082886e-01
-1.358837485313415527e-01
-3.612287715077400208e-02
2.698526531457901001e-02
1.719090193510055542e-01
2.531440695747733116e-03
-3.291874378919601440e-02
1.734494604170322418e-02
-5.663861706852912903e-02
-2.003152295947074890e-02
-1.605952158570289612e-03
6.981451064348220825e-02
2.138707228004932404e-02
3.355748951435089111e-02
3.144721034914255142e-03
2.746630460023880005e-02
-3.312785178422927856e-02
-7.779024541378021240e-02
6.885061971843242645e-03
-6.166450679302215576e-02
2.254893928766250610e-01
-9.061226248741149902e-02
-2.402007281780242920e-01
-2.371734678745269775e-01
-1.772421300411224365e-01
2.479158192873001099e-01
-6.344909965991973877e-02
3.342115879058837891e-02
-1.073800176382064819e-01
-1.927258074283599854e-01
-3.971543908119201660e-02
3.795468714088201523e-03
-1.252655964344739914e-02
-8.767635561525821686e-03
1.584769040346145630e-01
8.428804576396942139e-02
-6.140118837356567383e-01
-1.585416346788406372e-01
4.990647360682487488e-02
1.582318246364593506e-01
-2.171829491853713989e-01
-3.807124122977256775e-02
3.488470241427421570e-02
-2.511837705969810486e-02
-1.013443768024444580e-01
-1.681545749306678772e-02
-5.605140700936317444e-02
-2.761077880859375000e-02
-2.078814953565597534e-01
1.382463574409484863e-01
7.883658260107040405e-02
-1.523827612400054932e-01
-1.829403936862945557e-01
1.873518824577331543e-01
-1.882226578891277313e-02
-1.318894177675247192e-01
-5.250067263841629028e-02
2.983876168727874756e-01
-2.549098432064056396e-01
1.443908084183931351e-03
1.892432570457458496e-02
-6.146206334233283997e-02
1.713935732841491699e-01
1.790785491466522217e-01
4.057028796523809433e-03
-3.272431716322898865e-02
-1.056416034698486328e-01
7.283931970596313477e-02
5.335068330168724060e-03
-2.531225681304931641e-01
1.874455660581588745e-01
-1.506097316741943359e-01
2.564113438129425049e-01
1.527698189020156860e-01
-7.764450460672378540e-02
6.045496091246604919e-02
-4.188415035605430603e-02
2.429018914699554443e-02
9.380942583084106445e-02
-1.986246369779109955e-02
-5.148350819945335388e-02
-4.721855372190475464e-02
-8.009221404790878296e-02
5.174837633967399597e-02
9.588363021612167358e-02
9.293007105588912964e-02
9.953420609235763550e-02
-1.148019507527351379e-01
2.192251384258270264e-01
-5.597304552793502808e-02
3.092876970767974854e-01
2.278039455413818359e-01
-5.189914256334304810e-02
-4.400214552879333496e-02
2.523154579102993011e-02
4.781213402748107910e-01
-1.007937937974929810e-01
6.459058821201324463e-02
1.737743243575096130e-02
2.388574630022048950e-01
8.831216394901275635e-02
5.238002166152000427e-02
-2.795786559581756592e-01
1.120960339903831482e-01
2.739603258669376373e-02
1.858381330966949463e-01
-2.445293813943862915e-01
-2.281806468963623047e-01
5.776499211788177490e-02
-4.560134187340736389e-02
4.539230465888977051e-02
-2.277731336653232574e-02
4.723700881004333496e-02
1.323155034333467484e-02
6.011174619197845459e-02
-4.568121209740638733e-02
7.959178090095520020e-02
-1.092464998364448547e-01
1.679336279630661011e-01
-3.053410053253173828e-01
1.716806367039680481e-02
-1.256683766841888428e-01
-1.913359016180038452e-01
1.964238882064819336e-01
3.043721243739128113e-02
1.126653999090194702e-01
8.786985650658607483e-03
-9.057874791324138641e-03
8.344745635986328125e-02
-2.757046520709991455e-01
-2.193286418914794922e-01
8.385531604290008545e-02
-1.115442253649234772e-02
-5.411320924758911133e-02
2.246240675449371338e-01
7.875414192676544189e-02
-3.095705211162567139e-01
-1.124382168054580688e-01
4.299457743763923645e-02
-2.802791595458984375e-01
-1.431827545166015625e-01
1.754483580589294434e-02
8.690017275512218475e-03
4.239933565258979797e-03
3.125704079866409302e-02
4.166396334767341614e-02
1.003071591258049011e-01
1.075897365808486938e-01
8.298463374376296997e-02
4.253061488270759583e-02
-7.124180346727371216e-02
-4.316466394811868668e-03
6.332856602966785431e-03
1.693435758352279663e-02
-2.575790695846080780e-02
2.944436967372894287e-01
-1.379831135272979736e-01
2.101839520037174225e-02
7.962183654308319092e-02
7.695639133453369141e-02
-1.012456417083740234e-01
-3.091823160648345947e-01
-1.882061064243316650e-01
-1.511939316987991333e-01
1.259071826934814453e-01
-7.963248342275619507e-02
2.103903293609619141e-01
-1.217374876141548157e-01
1.096210479736328125e-01
-1.248691454529762268e-01
7.356103509664535522e-02
-3.167644739151000977e-01
3.391751646995544434e-01
8.829108625650405884e-02
-4.102705046534538269e-02
3.807951882481575012e-02
-1.794438362121582031e-01
2.273242920637130737e-02
-3.565515950322151184e-02
1.840377748012542725e-01
-1.362753380089998245e-02
-1.143368035554885864e-01
-2.030632495880126953e-01
5.836519971489906311e-02
1.914525330066680908e-01
2.628266513347625732e-01
-2.078239768743515015e-01
-8.149743825197219849e-02
3.263627588748931885e-01
-7.790266536176204681e-03
9.594631791114807129e-01
-7.375877350568771362e-02
-1.219757497310638428e-01
-6.742756813764572144e-02
-1.618631333112716675e-01
-1.249329596757888794e-01
1.491493284702301025e-01
1.822573989629745483e-01
-1.324546486139297485e-01
-1.107742115855216980e-01
-6.122605502605438232e-02
-3.254492580890655518e-01
2.093193233013153076e-01
-9.012507647275924683e-02
-5.940186232328414917e-02
9.169464558362960815e-02
-8.994245529174804688e-02
2.579327486455440521e-02
-5.339360609650611877e-02
2.389023154973983765e-01
-2.640326693654060364e-02
-3.412308171391487122e-02
-1.799084246158599854e-01
-1.597405225038528442e-02
4.529267922043800354e-02
1.399886328727006912e-02
-7.267865538597106934e-02
8.440490067005157471e-02
-1.686702519655227661e-01
9.437869489192962646e-02
6.397464871406555176e-02
-1.715397685766220093e-01
-1.148988958448171616e-02
-9.781703352928161621e-02
1.552003324031829834e-01
3.737695887684822083e-02
3.732090815901756287e-02
1.758793741464614868e-01
1.385457068681716919e-01
1.009343937039375305e-01
4.614812508225440979e-02
2.462347149848937988e-01
-1.761494427919387817e-01
-1.337064523249864578e-02
1.898050606250762939e-01
2.344312518835067749e-01
2.100406438112258911e-01
-2.576683461666107178e-01
-3.718194067478179932e-01
-2.051433622837066650e-01
5.188418924808502197e-02
2.077975124120712280e-02
-1.906092092394828796e-02
-1.325487531721591949e-02
-2.571664983406662941e-03
1.552145089954137802e-02
-1.986823230981826782e-02
2.261715978384017944e-01
-1.881956011056900024e-01
9.182658791542053223e-02
-7.088674604892730713e-02
-6.080457940697669983e-02
-1.481234133243560791e-01
-1.792784333229064941e-01
2.726429104804992676e-01
3.989086151123046875e-01
2.551944553852081299e-01
2.964017447084188461e-03
3.948780242353677750e-03
-9.942863881587982178e-02
-3.629754781723022461e-01
2.885793447494506836e-01
8.157031983137130737e-02
-3.096152469515800476e-02
6.311306357383728027e-02
3.766715899109840393e-02
3.685108199715614319e-02
-1.612090021371841431e-01
-3.395038545131683350e-01
-8.739888668060302734e-02
2.211503386497497559e-01
2.635086476802825928e-01
-6.579655408859252930e-02
-9.536670148372650146e-02
-4.327258840203285217e-02
1.088660396635532379e-02
1.141171306371688843e-01
7.915084809064865112e-02
-8.034525066614151001e-02
1.372950673103332520e-01
-1.602416634559631348e-01
-2.164760977029800415e-01
4.516040533781051636e-02
-7.542102783918380737e-02
-1.586506515741348267e-01
1.785064861178398132e-02
-9.240068495273590088e-02
-3.905123844742774963e-02
-3.186443075537681580e-02
-3.227458596229553223e-01
5.715967342257499695e-02
5.939656868577003479e-02
-7.900393754243850708e-02
7.459461688995361328e-02
-2.316649854183197021e-01
9.698148816823959351e-02
-9.063991159200668335e-02
8.238849043846130371e-02
-3.263214975595474243e-02
-2.136760950088500977e-01
-3.243517875671386719e-01
2.068481892347335815e-01
2.685634046792984009e-02
3.458466827869415283e-01
4.283943772315979004e-01
2.092082053422927856e-01
-3.014321252703666687e-02
-2.320313826203346252e-02
-8.741863071918487549e-02
-4.555476363748311996e-03
2.770395018160343170e-02
1.185860931873321533e-01
4.475922510027885437e-02
1.362111568450927734e-01
6.801385432481765747e-02
-2.210039645433425903e-01
-7.723397761583328247e-02
-1.722863316535949707e-01
1.598968654870986938e-01
7.930401712656021118e-02
-4.402125775814056396e-01
5.176331475377082825e-02
-4.863482117652893066e-01
1.133234426379203796e-01
-8.166113495826721191e-02
1.747647672891616821e-02
-4.871026426553726196e-02
-5.940266326069831848e-02
-7.227447349578142166e-04
1.417919099330902100e-01
-6.772531569004058838e-02
-4.483043253421783447e-01
5.030969157814979553e-02
-8.726823329925537109e-02
-4.697558879852294922e-01
-2.372969239950180054e-01
-3.781958669424057007e-02
-6.041974946856498718e-02
-9.125834703445434570e-02
7.372556626796722412e-02
3.643526136875152588e-02
-1.672448962926864624e-01
-1.504231691360473633e-01
1.193929538130760193e-01
9.169138222932815552e-02
1.140018329024314880e-01
1.832887679338455200e-01
1.642486900091171265e-01
3.803135082125663757e-02
-2.169539332389831543e-01
5.880591273307800293e-02
-6.243304163217544556e-02
-1.037756502628326416e-01
6.814908981323242188e-02
9.576964378356933594e-02
8.500652015209197998e-02
7.434882968664169312e-02
-8.202753216028213501e-02
6.536409258842468262e-02
-5.453027412295341492e-02
-1.389931589365005493e-01
8.971921354532241821e-02
1.813359260559082031e-01
1.511712372303009033e-01
-1.387458145618438721e-01
-1.342026293277740479e-01
-1.037050783634185791e-02
1.853408813476562500e-01
1.555736809968948364e-01
4.813713431358337402e-01
9.191202372312545776e-02
-1.007561311125755310e-01
2.113008871674537659e-02
-1.416300889104604721e-02
-8.297046273946762085e-02
-9.519935399293899536e-02
-1.229959875345230103e-01
-6.098252907395362854e-02
-6.248981226235628128e-03
-1.282160580158233643e-01
1.024745330214500427e-01
1.101595461368560791e-01
7.342218607664108276e-02
-1.762266308069229126e-01
-5.499706789851188660e-02
6.865105032920837402e-02
2.077320218086242676e-01
-2.120915800333023071e-01
-2.171284407377243042e-01
1.234687026590108871e-02
-4.987626150250434875e-02
1.854046806693077087e-02
-3.961065318435430527e-03
-1.533113718032836914e-01
-4.980256035923957825e-02
-1.057412102818489075e-01
-1.551297008991241455e-01
2.727925479412078857e-01
9.293902665376663208e-02
-3.159266710281372070e-01
1.140255704522132874e-01
1.075726896524429321e-01
8.926828950643539429e-02
3.581663370132446289e-01
1.839690208435058594e-01
-3.533443436026573181e-02
-1.319006457924842834e-02
-8.769029378890991211e-02
-2.260870113968849182e-02
-7.732918858528137207e-02
5.686746910214424133e-02
1.548978984355926514e-01
-4.040099084377288818e-01
-2.288566976785659790e-01
1.624586433172225952e-01
6.031222641468048096e-02
-1.692719310522079468e-01
6.234414130449295044e-02
6.982874125242233276e-02
2.012314647436141968e-01
1.424701362848281860e-01
2.991110086441040039e-01
-2.913564629852771759e-02
1.240179538726806641e-01
1.169263944029808044e-01
5.383010208606719971e-02
-9.754265099763870239e-02
-1.423802971839904785e-01
-4.413446038961410522e-02
7.391622290015220642e-03
2.150443643331527710e-01
-2.353653684258460999e-02
-3.073208332061767578e-01
2.009671032428741455e-01
-2.942903935909271240e-01
8.905085735023021698e-03
-1.374094933271408081e-01
-9.759102016687393188e-02
-2.160735130310058594e-01
4.636172950267791748e-02
-2.741556167602539062e-01
3.349079191684722900e-02
5.318557471036911011e-02
-1.853580921888351440e-01
7.721310108900070190e-02
4.117721691727638245e-02
-2.441779375076293945e-01
-6.689604371786117554e-02
4.172513633966445923e-02
1.546442043036222458e-02
1.192049458622932434e-01
1.254135817289352417e-01
8.459533751010894775e-02
4.518246650695800781e-02
1.268581002950668335e-01
6.179250031709671021e-02
-4.622478038072586060e-02
-1.431104987859725952e-01
-5.289123859256505966e-03
1.402498781681060791e-01
-1.671037524938583374e-01
-1.890598237514495850e-01
4.674926027655601501e-02
6.094962731003761292e-02
7.724697142839431763e-02
6.985184550285339355e-02
-2.174418121576309204e-01
-9.363162517547607422e-02
-1.502998024225234985e-01
2.372045069932937622e-01
1.270749270915985107e-01
-1.469830237329006195e-02
-4.126687720417976379e-02
-1.192867234349250793e-01
2.362514287233352661e-02
5.618267133831977844e-02
-9.139003604650497437e-02
-2.674714922904968262e-01
-7.239983975887298584e-02
-1.308727711439132690e-01
8.198183774948120117e-02
1.509557962417602539e-01
1.180977746844291687e-01
1.575738340616226196e-01
4.044418036937713623e-02
-3.916691839694976807e-01
3.159531950950622559e-01
-3.047246038913726807e-01
6.938307732343673706e-02
-6.908042728900909424e-02
-6.561856716871261597e-02
6.052809953689575195e-01
1.076421216130256653e-01
1.346961557865142822e-01
-3.052933327853679657e-02
3.038811385631561279e-01
2.294791936874389648e-01
3.653590977191925049e-01
-1.690459549427032471e-01
3.549381494522094727e-01
9.632294625043869019e-02
2.376063019037246704e-01
2.543725967407226562e-01
-8.428896963596343994e-02
4.077374562621116638e-02
2.830953896045684814e-02
2.437370643019676208e-02
7.106288522481918335e-02
-1.042764633893966675e-01
7.525695115327835083e-02
1.013140380382537842e-01
-9.220094233751296997e-02
-3.990577161312103271e-02
-1.597920060157775879e-01
-1.253146082162857056e-01
-4.274150356650352478e-02
6.191551219671964645e-03
1.014028042554855347e-01
1.227723658084869385e-01
-1.303581893444061279e-02
-8.398878574371337891e-02
-1.576623320579528809e-01
1.155902747996151447e-03
2.950691618025302887e-03
1.307811141014099121e-01
2.811056971549987793e-01
-3.021792769432067871e-01
2.739073336124420166e-01
4.890470206737518311e-01
-9.379801154136657715e-02
-8.256594836711883545e-02
9.428087621927261353e-02
2.165328264236450195e-01
2.742153778672218323e-02
5.633613094687461853e-02
-3.521712869405746460e-02
-2.812837064266204834e-01
-1.205160394310951233e-01
1.648274958133697510e-01
-1.240742802619934082e-01
6.003388389945030212e-02
-1.197243183851242065e-01
-1.854608356952667236e-01
1.136296335607767105e-02
-1.202553510665893555e-01
1.543934792280197144e-01
-1.109547242522239685e-01
7.304617017507553101e-02
-2.060813270509243011e-02
-2.858558669686317444e-02
-5.362745374441146851e-02
2.651909291744232178e-01
-1.738578230142593384e-01
-1.034391149878501892e-01
1.508665680885314941e-01
3.406713157892227173e-02
9.363136440515518188e-02
-1.054928451776504517e-01
-4.687891900539398193e-02
2.965274453163146973e-01
7.144276797771453857e-02
-2.519962787628173828e-01
-1.722961217164993286e-01
-8.033709973096847534e-02
1.655753701925277710e-01
-1.210250556468963623e-01
4.352847579866647720e-03
-1.545417904853820801e-01
2.321605198085308075e-02
-7.497472316026687622e-02
-1.327260117977857590e-02
-4.301591590046882629e-02
-1.707871630787849426e-02
-6.639168411493301392e-02
5.810544360429048538e-03
3.627268224954605103e-02
-3.246709704399108887e-01
2.585783004760742188e-01
-9.480444341897964478e-02
1.227138042449951172e-01
1.140302047133445740e-02
-1.531544923782348633e-01
-5.819408688694238663e-03
1.288470476865768433e-01
-1.456176936626434326e-01
1.516051292419433594e-01
-4.244804680347442627e-01
-3.118382580578327179e-02
-8.602056652307510376e-02
-6.020911782979965210e-02
2.274817675352096558e-01
-1.894211322069168091e-01
3.655209764838218689e-02
-1.602454185485839844e-01
-1.811733543872833252e-01
-9.157878160476684570e-02
-4.540119320154190063e-02
3.361696004867553711e-01
2.924655377864837646e-01
-5.880628153681755066e-02
2.301195077598094940e-02
-7.560756802558898926e-02
-2.254462391138076782e-01
8.411235362291336060e-02
2.006146870553493500e-02
-1.570210456848144531e-01
-8.836217457428574562e-04
-6.377192586660385132e-02
-4.111951962113380432e-02
-3.290607929229736328e-01
-2.932748198509216309e-02
-6.789075583219528198e-02
-8.963962644338607788e-02
8.618943393230438232e-03
7.604199647903442383e-02
-2.179322391748428345e-02
-3.870531171560287476e-02
-2.419214844703674316e-01
1.917176544666290283e-01
-2.473193258047103882e-01
-1.298309713602066040e-01
9.838711470365524292e-03
3.993931785225868225e-02
6.331287324428558350e-02
-1.354008764028549194e-01
2.343655005097389221e-02
-6.159249693155288696e-02
2.694201469421386719e-01
-2.657259404659271240e-01
-1.583272963762283325e-01
-3.366993069648742676e-01
2.249082326889038086e-01
7.446184754371643066e-03
8.558474481105804443e-02
7.449509203433990479e-02
-2.038545906543731689e-01
5.625370889902114868e-02
-1.390198059380054474e-02
1.217744499444961548e-01
-1.940446160733699799e-02
-2.617173828184604645e-03
6.454804539680480957e-02
3.652650117874145508e-02
-2.370991855859756470e-01
1.372756250202655792e-02
1.807433962821960449e-01
1.375244557857513428e-01
-8.552797138690948486e-02
7.505448162555694580e-02
3.314123302698135376e-02
-2.203756868839263916e-01
1.086889505386352539e-01
-4.059970974922180176e-01
1.039267331361770630e-01
-2.498680353164672852e-02
-1.908094137907028198e-01
3.158732503652572632e-02
1.568813771009445190e-01
5.947275832295417786e-02
-1.469736993312835693e-01
3.963449597358703613e-02
-6.076483801007270813e-02
2.188133262097835541e-02
1.125741675496101379e-01
-6.973212212324142456e-02
1.179265677928924561e-01
-3.124682419002056122e-02
-2.198576480150222778e-01
2.498061209917068481e-02
8.504863083362579346e-02
-2.596440492197871208e-03
-2.624322474002838135e-02
3.512335196137428284e-02
3.770427778363227844e-02
3.337531164288520813e-02
9.621646255254745483e-03
2.438479661941528320e-01
-2.379350215196609497e-01
3.059732727706432343e-02
-1.897598952054977417e-01
-1.644829660654067993e-01
6.895443052053451538e-02
3.790362924337387085e-02
-3.622759580612182617e-01
1.966528147459030151e-01
-2.991876304149627686e-01
-4.689947515726089478e-02
-1.405344754457473755e-01
8.527082204818725586e-02
5.897194147109985352e-02
-1.010851114988327026e-01
1.163005828857421875e-01
1.606436520814895630e-01
6.938827782869338989e-02
-1.573346853256225586e-01
-2.099149376153945923e-01
1.426116935908794403e-02
2.781154513359069824e-01
1.069814637303352356e-01
1.548225730657577515e-01
9.455655515193939209e-02
3.763683140277862549e-02
3.913853690028190613e-02
1.148323179222643375e-03
-1.493698954582214355e-01
-4.275454953312873840e-02
-7.650282233953475952e-02
-4.523053392767906189e-02
-2.954624295234680176e-01
-1.025231257081031799e-01
8.076318353414535522e-02
-1.965822875499725342e-01
-9.337337687611579895e-03
2.381094247102737427e-01
-1.357587873935699463e-01
4.840862751007080078e-02
1.950106620788574219e-01
2.815412282943725586e-01
5.681058168411254883e-01
-1.005052998661994934e-01
-5.465705320239067078e-02
-1.311346981674432755e-02
-3.161915838718414307e-01
-2.456968575716018677e-01
-4.990207403898239136e-02
-1.763429865241050720e-02
-1.549599915742874146e-01
1.486522406339645386e-01
-5.625535920262336731e-02
-2.036961317062377930e-01
1.117958053946495056e-01
6.723155081272125244e-02
-2.487371675670146942e-02
2.000961154699325562e-01
1.201198026537895203e-01
-1.100216619670391083e-02
1.005697622895240784e-02
-1.353664398193359375e-01
-5.035734549164772034e-02
5.947228893637657166e-02
-9.153107553720474243e-02
1.090156137943267822e-01
8.340924233198165894e-02
1.320722848176956177e-01
-1.009481772780418396e-01
-8.858086913824081421e-02
-6.516858190298080444e-02
8.315477520227432251e-02
-9.395443648099899292e-02
-1.269742399454116821e-01
-5.383562669157981873e-02
-1.678462922573089600e-01
1.360632777214050293e-01
-7.600414752960205078e-02
-9.568686597049236298e-03
2.285417467355728149e-01
-1.376491189002990723e-01
-9.803617000579833984e-02
-1.189563795924186707e-01
-1.917682737112045288e-01
-6.755910813808441162e-02
4.352492839097976685e-02
3.260740041732788086e-01
-6.634382158517837524e-02
-1.845312416553497314e-01
-3.186959028244018555e-01
-3.639018237590789795e-01
-1.025435179471969604e-01
-1.230217888951301575e-02
-4.342292621731758118e-02
3.461755439639091492e-02
4.626656696200370789e-02
-2.167914249002933502e-02
-3.760902211070060730e-02
3.033569455146789551e-02
-1.002631708979606628e-01
-1.767050921916961670e-01
1.514166146516799927e-01
6.257090717554092407e-02
-3.394315019249916077e-02
4.225965216755867004e-02
-4.805596172809600830e-02
-2.970063090324401855e-01
2.178342491388320923e-01
7.276982665061950684e-01
1.675845384597778320e-01
-4.676109552383422852e-02
-1.572200357913970947e-01
-1.175470501184463501e-01
-1.303226798772811890e-01
1.073151454329490662e-01
-7.737743854522705078e-02
-3.296942710876464844e-01
1.598012447357177734e-01
-6.852106750011444092e-02
2.173904776573181152e-01
-4.152050707489252090e-03
-1.776181720197200775e-02
-1.277795583009719849e-01
-3.490185439586639404e-01
-9.698227792978286743e-02
-1.542477123439311981e-02
-4.191414639353752136e-02
2.176080085337162018e-02
8.477305993437767029e-03
-7.687947712838649750e-03
8.713536709547042847e-02
-1.865988969802856445e-01
1.527576893568038940e-01
-3.334200084209442139e-01
1.144366115331649780e-01
7.135803811252117157e-03
-1.295077800750732422e-01
7.927025854587554932e-02
2.589590251445770264e-01
2.056394517421722412e-01
4.652183130383491516e-02
-3.473787903785705566e-01
2.625520527362823486e-01
-2.799325622618198395e-02
-6.900180876255035400e-02
-5.493976175785064697e-03
-3.276469707489013672e-01
6.260373443365097046e-02
-8.292383700609207153e-02
1.311439424753189087e-01
-1.054877340793609619e-01
5.151652917265892029e-02
-2.445815503597259521e-01
3.583750426769256592e-01
-2.198784798383712769e-01
2.144493907690048218e-01
4.242957383394241333e-02
-2.337565273046493530e-02
-1.892286166548728943e-02
4.642557725310325623e-02
1.592661440372467041e-01
1.282056514173746109e-02
-5.177841708064079285e-02
1.522993892431259155e-01
2.710750699043273926e-01
8.125411719083786011e-02
7.721664011478424072e-02
1.260584443807601929e-01
-7.572844624519348145e-02
1.211474239826202393e-01
-1.318064928054809570e-01
-5.430295690894126892e-02
2.102384120225906372e-01
-3.125669956207275391e-01
2.406656891107559204e-01
-9.188295155763626099e-02
1.889602653682231903e-02
-5.738740041851997375e-02
-4.528831541538238525e-01
-1.113442629575729370e-01
-1.427471935749053955e-01
-1.121786907315254211e-01
8.515915274620056152e-02
-4.061162844300270081e-02
-1.187913045287132263e-01
1.381189227104187012e-01
-1.517125070095062256e-01
2.160004228353500366e-01
-3.289090394973754883e-01
2.940323352813720703e-01
-7.290469110012054443e-02
-1.403127424418926239e-02
3.966522589325904846e-02
-9.523956477642059326e-02
-5.869577638804912567e-03
-3.183018416166305542e-02
-3.530148416757583618e-02
-2.700054347515106201e-01
1.301137171685695648e-02
-2.157721072435379028e-01
7.486055791378021240e-02
-9.128657728433609009e-02
-1.037668064236640930e-01
3.946091607213020325e-02
1.497193127870559692e-01
-5.889871120452880859e-01
1.235506236553192139e-01
6.872246414422988892e-02
-6.987604498863220215e-02
-9.128024429082870483e-02
4.806471988558769226e-02
6.209650635719299316e-01
-8.944918215274810791e-02
-1.688400954008102417e-01
-3.017718531191349030e-02
-2.977905869483947754e-01
1.588623970746994019e-01
-5.011999234557151794e-02
1.354679763317108154e-01
1.043513417243957520e-01
4.616421833634376526e-02
1.671165674924850464e-01
1.479433178901672363e-01
-1.817405372858047485e-01
4.347169771790504456e-02
-4.739923402667045593e-02
5.892520397901535034e-02
-1.766773872077465057e-02
2.193487808108329773e-02
1.244016736745834351e-02
-4.298564046621322632e-02
2.115892767906188965e-01
-2.685323953628540039e-01
1.112465858459472656e-01
-1.270817369222640991e-01
-2.880136370658874512e-01
-1.228948831558227539e-01
1.386162042617797852e-01
4.529800117015838623e-01
5.097322911024093628e-02
2.624303698539733887e-01
3.898478299379348755e-02
-1.037652697414159775e-02
1.346316039562225342e-01
-2.372084259986877441e-01
2.599025666713714600e-01
-2.081485539674758911e-01
2.348323166370391846e-01
8.509263396263122559e-02
1.188005902804434299e-03
3.645376116037368774e-02
2.576233148574829102e-01
-1.556362360715866089e-01
2.332888394594192505e-01
-8.728962391614913940e-02
-6.788399815559387207e-02
-2.819193899631500244e-01
2.143419086933135986e-01
-6.326509173959493637e-03
2.511788308620452881e-01
1.391517668962478638e-01
2.426092885434627533e-02
-2.477721869945526123e-01
1.703949570655822754e-01
-1.657686531543731689e-01
-1.354303956031799316e-01
-8.023006841540336609e-03
1.742383241653442383e-01
1.323730777949094772e-02
9.287829697132110596e-02
1.825275085866451263e-02
8.658938854932785034e-02
-3.079803846776485443e-02
3.979849517345428467e-01
-5.302463099360466003e-02
-7.625927031040191650e-02
-7.934768497943878174e-02
-6.207249686121940613e-02
-1.126657873392105103e-01
-3.316476941108703613e-01
-2.658589801285415888e-04
-2.718256972730159760e-02
2.615027725696563721e-01
-9.437223523855209351e-02
-2.667079865932464600e-01
-3.511798679828643799e-01
-6.000893656164407730e-03
2.276578843593597412e-01
-4.710096120834350586e-01
8.400829881429672241e-02
-8.859042078256607056e-02
5.629121512174606323e-02
1.473021358251571655e-01
-2.986354939639568329e-02
1.655411347746849060e-02
3.057051077485084534e-02
-7.838649302721023560e-02
1.443935781717300415e-01
1.232588142156600952e-01
1.107876887544989586e-03
7.518216967582702637e-02
2.022771686315536499e-01
-2.101671695709228516e-02
-3.786639496684074402e-02
-1.303359121084213257e-01
-2.002914249897003174e-01
1.374966949224472046e-01
1.209730282425880432e-01
-2.425110712647438049e-02
-2.898162603378295898e-02
1.586773991584777832e-01
-5.046166777610778809e-01
2.851033955812454224e-02
-1.203068196773529053e-01
2.817710936069488525e-01
-2.301261946558952332e-02
6.884114444255828857e-02
-6.192002445459365845e-02
4.562390968203544617e-02
1.467700153589248657e-01
3.707451224327087402e-01
1.832317113876342773e-01
6.660681962966918945e-02
3.865634649991989136e-02
-3.776838537305593491e-03
1.217372529208660126e-02
-7.491325587034225464e-02
3.208669275045394897e-02
-1.507922559976577759e-01
6.383225321769714355e-02
-5.077852308750152588e-02
1.692648082971572876e-01
7.785383611917495728e-02
-6.564319133758544922e-02
1.238167136907577515e-01
-3.351072594523429871e-02
-8.320721983909606934e-02
3.290996849536895752e-01
-4.627678543329238892e-02
-8.611106872558593750e-02
-4.583940654993057251e-02
7.540479302406311035e-03
2.596752345561981201e-02
-4.437165260314941406e-01
5.211919918656349182e-02
-2.374806813895702362e-02
1.509217023849487305e-01
1.084322109818458557e-01
-5.974017083644866943e-03
1.403207480907440186e-01
1.371671073138713837e-02
-9.172749519348144531e-02
-4.813763126730918884e-02
1.768151819705963135e-01
-1.304038763046264648e-01
5.522437393665313721e-02
-4.352986440062522888e-02
2.469594590365886688e-02
-6.081449985504150391e-02
-9.158631786704063416e-03
-1.041842624545097351e-02
4.503645747900009155e-02
1.024110019207000732e-01
-4.894974082708358765e-02
1.930781453847885132e-01
-1.715071499347686768e-02
6.994850188493728638e-02
1.930586695671081543e-01
2.341485321521759033e-01
-1.351070553064346313e-01
2.955327928066253662e-01
9.242859482765197754e-02
-3.762131333351135254e-01
-3.864422813057899475e-02
-6.396235525608062744e-02
2.810701727867126465e-02
-3.171320855617523193e-01
-1.481637060642242432e-01
1.286185830831527710e-01
4.813724756240844727e-02
-3.012364506721496582e-01
2.052615284919738770e-01
8.588533103466033936e-02
2.393177449703216553e-01
8.358011022210121155e-03
1.802653260529041290e-02
2.416142635047435760e-02
6.147519871592521667e-02
1.883440017700195312e-01
3.673683153465390205e-03
-3.227134793996810913e-02
-1.686795949935913086e-01
4.962040856480598450e-02
-3.153250738978385925e-02
1.890323683619499207e-02
-1.192993745207786560e-01
-4.381963983178138733e-02
-1.879503428936004639e-01
-2.276414930820465088e-01
9.544795006513595581e-02
-1.107067218981683254e-03
-2.009085863828659058e-01
-1.451924443244934082e-01
3.098107576370239258e-01
-2.113616466522216797e-01
7.383862733840942383e-01
2.339367056265473366e-03
-7.605057954788208008e-02
9.677646681666374207e-03
-2.543143332004547119e-01
-2.434591650962829590e-01
-1.662071198225021362e-01
1.185361146926879883e-01
-1.690207868814468384e-01
1.879833936691284180e-01
1.148076280951499939e-01
-2.037486732006072998e-01
-1.019839718937873840e-01
7.746010273694992065e-02
-1.852335482835769653e-01
3.288662731647491455e-01
4.192252457141876221e-02
5.104363430291414261e-03
-7.130232639610767365e-03
-8.413856476545333862e-02
2.212077565491199493e-02
-1.207074709236621857e-02
9.546966850757598877e-02
5.364299193024635315e-02
2.183562517166137695e-02
-1.087269335985183716e-01
1.714289486408233643e-01
-4.695633426308631897e-02
1.276878416538238525e-01
2.045566737651824951e-01
8.595996350049972534e-02
-2.927468158304691315e-02
3.501068353652954102e-01
-6.346834301948547363e-01
2.054862864315509796e-02
-1.529960781335830688e-01
-4.025986790657043457e-02
-4.880510643124580383e-02
1.239060163497924805e-01
1.241987049579620361e-01
1.434864401817321777e-01
1.891402155160903931e-01
2.058081179857254028e-01
-1.345814962405711412e-04
2.801383435726165771e-01
2.625922262668609619e-01
8.656579069793224335e-03
-7.969623804092407227e-02
4.789994657039642334e-01
4.886298626661300659e-02
2.059166552498936653e-03
-4.182958975434303284e-02
2.635406702756881714e-02
1.072858273983001709e-02
-1.527668442577123642e-03
8.764241635799407959e-02
3.178462013602256775e-02
-3.015710972249507904e-02
3.145661950111389160e-02
9.806036949157714844e-02
-1.892415247857570648e-02
-7.620987296104431152e-02
7.595865428447723389e-02
-1.626413166522979736e-01
4.654685407876968384e-02
-2.339021414518356323e-01
-2.243846356868743896e-01
-1.125378161668777466e-01
-4.573679715394973755e-02
2.494750544428825378e-02
-5.452558398246765137e-02
2.112672179937362671e-01
1.530424654483795166e-01
1.037418767809867859e-01
2.487894520163536072e-02
1.688345372676849365e-01
1.571909040212631226e-01
-7.035552710294723511e-02
-1.916834414005279541e-01
5.739822238683700562e-02
4.767982959747314453e-01
-8.336468786001205444e-02
1.475958526134490967e-01
-2.982673607766628265e-02
3.088590689003467560e-02
-8.512881398200988770e-02
-1.024983171373605728e-02
6.281040143221616745e-03
-4.984100162982940674e-02
-4.346335306763648987e-02
1.302804499864578247e-01
2.102911472320556641e-01
-5.524426326155662537e-02
-1.049180105328559875e-01
1.999867521226406097e-02
4.370007198303937912e-03
-2.047831416130065918e-01
3.718837499618530273e-01
-3.644511699676513672e-01
-8.244881778955459595e-02
-1.325923483818769455e-02
9.694273769855499268e-02
3.302567452192306519e-02
-4.082095921039581299e-01
2.512545883655548096e-01
-1.076157949864864349e-02
-3.747441805899143219e-03
2.100433409214019775e-01
-2.029672414064407349e-01
-5.193385109305381775e-02
-2.385338097810745239e-01
-1.122796684503555298e-01
7.713117450475692749e-02
2.789445519447326660e-01
-2.228315621614456177e-01
1.606251746416091919e-01
1.347905956208705902e-02
-7.407787721604108810e-03
-5.626146495342254639e-02
-3.381094196811318398e-03
3.227305784821510315e-02
-1.845250576734542847e-01
1.316807270050048828e-01
1.385143101215362549e-01
1.849717646837234497e-01
1.450953185558319092e-01
-1.196735054254531860e-01
1.181399673223495483e-01
1.853231787681579590e-01
2.179811336100101471e-02
-1.907014846801757812e-01
2.440831065177917480e-01
1.378776431083679199e-01
-7.715960592031478882e-02
-5.110935494303703308e-02
1.137095596641302109e-02
1.333457976579666138e-01
-1.193966567516326904e-01
5.567652732133865356e-02
1.058262437582015991e-01
-3.034753799438476562e-01
2.799140810966491699e-01
2.304562479257583618e-01
1.616382598876953125e-01
-2.219555377960205078e-01
6.790922489017248154e-04
3.036282658576965332e-01
2.935930192470550537e-01
1.722116470336914062e-01
3.956162184476852417e-02
2.771674655377864838e-02
-2.503301389515399933e-02
1.484053209424018860e-02
5.251400172710418701e-02
-1.767798513174057007e-01
-7.823774963617324829e-02
4.393062591552734375e-01
-2.131294012069702148e-01
-1.951138973236083984e-01
-2.500745281577110291e-02
-7.530794292688369751e-02
1.562971323728561401e-01
-2.269185334444046021e-01
-6.615140289068222046e-02
-4.223837703466415405e-02
-4.368338584899902344e-01
-2.141759730875492096e-02
2.737230993807315826e-02
5.730276182293891907e-02
-1.542703658342361450e-01
4.722009599208831787e-02
-1.194197684526443481e-01
-1.857534795999526978e-01
-2.044812142848968506e-01
3.385352715849876404e-02
-1.709970980882644653e-01
1.835980713367462158e-01
-3.308160603046417236e-01
1.573657430708408356e-02
-8.788178116083145142e-02
1.879332214593887329e-01
-1.905555129051208496e-01
-4.636827856302261353e-03
-7.465470582246780396e-02
-1.509336531162261963e-01
-6.839863210916519165e-02
9.318639338016510010e-02
8.301470428705215454e-02
3.800019621849060059e-02
-8.162155002355575562e-02
4.795917775481939316e-03
1.523317489773035049e-02
7.276435848325490952e-03
7.197079062461853027e-02
-2.358443848788738251e-02
-1.208455935120582581e-01
-3.339657932519912720e-02
-7.190074771642684937e-02
5.032151937484741211e-01
6.817767024040222168e-02
-5.985834822058677673e-02
-5.699693784117698669e-02
4.373577237129211426e-01
-1.620873808860778809e-01
1.029988527297973633e-01
-5.917024984955787659e-02
1.594441384077072144e-01
-2.091926336288452148e-01
7.886175811290740967e-02
-4.777010530233383179e-02
-1.870104819536209106e-01
-4.578272253274917603e-02
1.510094404220581055e-01
-1.675013005733489990e-01
-2.819075286388397217e-01
4.631975293159484863e-02
-9.014223515987396240e-02
1.162844076752662659e-01
-1.638912037014961243e-02
1.309214346110820770e-02
-1.087299287319183350e-01
-1.082813888788223267e-01
2.480411231517791748e-01
-3.489506617188453674e-02
2.765590138733386993e-02
8.119391649961471558e-02
1.851561814546585083e-01
7.771582156419754028e-02
2.186417952179908752e-02
4.174518287181854248e-01
-1.352158039808273315e-01
1.533004790544509888e-01
1.880198568105697632e-01
-3.000985085964202881e-02
6.833554804325103760e-02
-1.961672753095626831e-01
3.014236688613891602e-02
-3.050526380538940430e-01
-2.002398520708084106e-01
1.905953586101531982e-01
2.562669217586517334e-01
-1.287882477045059204e-01
-4.464745894074440002e-02
2.816000580787658691e-01
1.108022332191467285e-01
-9.356179088354110718e-02
-1.841498017311096191e-01
1.418480277061462402e-01
-4.350523650646209717e-02
-9.680126793682575226e-03
4.801817610859870911e-02
3.653603419661521912e-02
8.033049851655960083e-02
-2.087641209363937378e-01
3.408195450901985168e-03
7.735747098922729492e-02
-1.142405942082405090e-01
6.829275190830230713e-02
-7.044201344251632690e-02
7.139197736978530884e-02
1.007897220551967621e-02
-1.638464927673339844e-01
-5.067591741681098938e-02
-3.511415421962738037e-01
5.496662259101867676e-01
9.493482857942581177e-02
7.191408425569534302e-02
-2.070680819451808929e-02
2.830657958984375000e-01
-3.130840361118316650e-01
-4.613855108618736267e-02
-1.199856474995613098e-01
1.768155544996261597e-01
-1.162423044443130493e-01
3.038299679756164551e-01
-1.614012271165847778e-01
9.106842428445816040e-02
-6.024312227964401245e-02
-3.074806556105613708e-02
-3.369459509849548340e-01
-1.461186259984970093e-01
1.347239408642053604e-02
-3.946675360202789307e-02
-4.320453852415084839e-03
4.130637273192405701e-02
-5.692078918218612671e-02
8.672014623880386353e-02
-1.709336787462234497e-01
6.279540807008743286e-02
8.472271263599395752e-02
-1.272368896752595901e-02
7.160162180662155151e-02
-1.101514846086502075e-01
-4.196738079190254211e-02
-1.930048167705535889e-01
-2.653415501117706299e-01
-3.047341704368591309e-01
-5.542195588350296021e-02
1.372935771942138672e-01
1.298972666263580322e-01
4.021423310041427612e-02
1.232501715421676636e-01
1.607024073600769043e-01
5.338565632700920105e-02
3.163205832242965698e-02
1.281188726425170898e-01
-2.619160413742065430e-01
2.931724116206169128e-02
-1.830585300922393799e-01
-4.985680431127548218e-02
8.596303313970565796e-02
-2.993384003639221191e-01
-6.049919724464416504e-01
-1.332877427339553833e-01
1.250074990093708038e-02
7.769808918237686157e-02
-3.895672783255577087e-02
2.700320817530155182e-02
6.748700048774480820e-03
-3.411243110895156860e-02
-4.183044284582138062e-02
3.202241659164428711e-01
8.277603238821029663e-02
1.182615384459495544e-01
-2.179865352809429169e-02
-5.551615357398986816e-02
2.047751694917678833e-01
-5.315021052956581116e-02
-4.651425778865814209e-02
2.346547842025756836e-01
-6.736901402473449707e-01
9.033343195915222168e-02
-1.209323182702064514e-01
-6.951297819614410400e-02
2.161047756671905518e-01
2.394949644804000854e-01
2.439378798007965088e-01
1.106742322444915771e-01
-1.375544909387826920e-02
-1.134996712207794189e-01
-2.391495108604431152e-01
-9.879982471466064453e-02
2.962247133255004883e-01
1.406512558460235596e-01
1.075732186436653137e-01
3.533508479595184326e-01
-1.217146143317222595e-01
1.346254441887140274e-02
-1.194387301802635193e-01
-1.710564792156219482e-01
4.675314947962760925e-02
-2.741591446101665497e-02
1.381345465779304504e-02
3.861182928085327148e-01
-6.904876232147216797e-02
-3.522934615612030029e-01
1.081966683268547058e-01
9.886880218982696533e-02
-1.553358733654022217e-01
-1.833185739815235138e-02
-3.259475529193878174e-01
-1.552416533231735229e-01
-1.612987220287322998e-01
1.122447252273559570e-01
3.176005557179450989e-02
-1.594438552856445312e-01
-1.478410959243774414e-01
1.889847815036773682e-01
2.337387055158615112e-01
3.005485609173774719e-02
-1.619275063276290894e-01
1.513330340385437012e-01
9.636966139078140259e-02
-4.431927576661109924e-02
-2.634923160076141357e-01
4.777447283267974854e-01
-3.086486458778381348e-01
-2.190003544092178345e-01
7.445846498012542725e-02
-3.650837764143943787e-02
1.099974811077117920e-01
-8.981636166572570801e-02
-2.774021327495574951e-01
-1.310907751321792603e-01
-8.817086368799209595e-02
6.491387635469436646e-02
3.290031105279922485e-02
1.719430238008499146e-01
-1.104529947042465210e-01
-5.629373341798782349e-02
2.542791329324245453e-02
-5.067118257284164429e-02
2.414467744529247284e-03
1.320114284753799438e-01
-8.629160374402999878e-02
-4.467258602380752563e-02
1.262767761945724487e-01
1.355026364326477051e-01
-1.007722318172454834e-01
-3.124533034861087799e-02
3.262149393558502197e-01
-2.873102426528930664e-01
3.937259316444396973e-02
1.673022210597991943e-01
-5.899513605982065201e-03
1.781693249940872192e-01
7.963152229785919189e-02
-3.322437107563018799e-01
1.134933903813362122e-01
2.698321826756000519e-03
5.177671909332275391e-01
-1.346381157636642456e-01
-2.191994339227676392e-01
2.914369292557239532e-02
-2.737019443884491920e-03
8.720452338457107544e-02
-5.115249194204807281e-03
1.972399465739727020e-02
9.864598512649536133e-02
5.600503832101821899e-02
3.889824822545051575e-02
-8.241876959800720215e-02
2.607328891754150391e-01
-1.179647818207740784e-01
2.426241524517536163e-03
1.012015715241432190e-01
-2.072807168588042259e-03
-4.816396534442901611e-01
2.390959765762090683e-03
5.037869140505790710e-02
-5.885644815862178802e-03
-1.458531618118286133e-01
-4.463060200214385986e-02
3.301350772380828857e-01
-1.726996302604675293e-01
-3.113770484924316406e-02
4.539385065436363220e-02
-2.625600099563598633e-01
4.102361500263214111e-01
-4.036520794034004211e-02
-4.285610839724540710e-02
-3.053362369537353516e-01
-2.314158156514167786e-02
1.574081368744373322e-02
5.264585837721824646e-02
-9.042118489742279053e-02
-3.889514366164803505e-03
6.931112147867679596e-03
3.140268148854374886e-03
-2.264365553855895996e-02
-2.890881709754467010e-02
7.695078849792480469e-02
-3.417886495590209961e-01
-5.303406342864036560e-02
-1.813678592443466187e-01
-1.684315316379070282e-02
2.153553813695907593e-02
-1.463390141725540161e-01
6.023902446031570435e-02
-2.957012876868247986e-02
1.790581792593002319e-01
-2.814192473888397217e-01
-4.461251497268676758e-01
-3.138553723692893982e-02
-1.871280930936336517e-02
-1.215953305363655090e-01
9.681309014558792114e-02
5.770657211542129517e-02
9.211623668670654297e-02
-1.857277378439903259e-02
2.138373702764511108e-01
-2.283104062080383301e-01
-1.110737323760986328e-01
1.375294178724288940e-01
-2.507141530513763428e-01
-7.103234529495239258e-02
7.960823178291320801e-02
-9.411007910966873169e-02
-1.993380114436149597e-02
-3.146849200129508972e-02
-3.218084573745727539e-02
1.052314937114715576e-01
5.991777870804071426e-03
6.689761579036712646e-02
-2.594752702862024307e-03
1.973653137683868408e-01
-3.736010789871215820e-01
-1.120482161641120911e-01
-1.278582662343978882e-01
2.478264421224594116e-01
-1.971432939171791077e-02
-4.839436337351799011e-02
2.036940902471542358e-01
6.708268076181411743e-03
4.613259807229042053e-02
4.326628744602203369e-01
3.069541044533252716e-02
1.150537282228469849e-01
-9.164852648973464966e-02
-6.172879412770271301e-02
-1.457724273204803467e-01
-2.032067328691482544e-01
-9.024558961391448975e-02
-1.668615937232971191e-01
8.126405626535415649e-02
-8.587485551834106445e-02
-7.209683954715728760e-02
-2.902565896511077881e-01
-2.098674029111862183e-01
-6.226919218897819519e-02
-3.641899526119232178e-01
6.845045089721679688e-02
-1.841194480657577515e-01
3.214868018403649330e-03
-1.985427588224411011e-01
-4.820254072546958923e-02
4.292225465178489685e-02
-5.985588580369949341e-02
2.710121273994445801e-01
9.883916378021240234e-02
8.111630380153656006e-02
8.728732913732528687e-02
3.236396983265876770e-02
2.086973935365676880e-01
-1.580637693405151367e-01
1.869674921035766602e-01
-1.145837306976318359e-01
2.798180580139160156e-01
3.973825275897979736e-01
-8.705979585647583008e-02
-2.116159349679946899e-02
2.499117702245712280e-02
7.695194333791732788e-02
2.525753676891326904e-01
1.643322110176086426e-01
1.969481408596038818e-01
-2.231280207633972168e-01
1.581084132194519043e-01
1.001952737569808960e-01
-1.770919561386108398e-01
9.164957702159881592e-02
-2.368556708097457886e-02
-7.779395580291748047e-02
1.141170635819435120e-01
9.335464239120483398e-02
-9.312887489795684814e-02
-7.220198214054107666e-02
4.045425448566675186e-03
-3.026296198368072510e-02
7.066146284341812134e-02
-9.955891966819763184e-02
-1.687298715114593506e-02
-1.358343809843063354e-01
-3.188119828701019287e-01
-6.473544239997863770e-02
3.193089962005615234e-01
-1.200190410017967224e-01
-2.218618541955947876e-01
-1.978416740894317627e-01
1.140408962965011597e-01
-4.764752089977264404e-01
7.310826182365417480e-01
3.942463546991348267e-02
5.444695055484771729e-02
-8.736450225114822388e-02
-1.706684380769729614e-01
-1.682479679584503174e-02
1.317816525697708130e-01
-2.758637070655822754e-02
-1.933513879776000977e-01
1.478351056575775146e-01
-6.559510529041290283e-02
-1.752320080995559692e-01
3.379296362400054932e-01
-1.410794854164123535e-01
1.654105186462402344e-01
-2.610103040933609009e-02
-1.790613830089569092e-01
1.622780598700046539e-02
1.420476883649826050e-01
3.312720800749957561e-04
-1.419526040554046631e-01
-4.722982645034790039e-02
-2.071897834539413452e-01
1.202687025070190430e-01
-1.875402778387069702e-01
8.372890949249267578e-02
1.119725108146667480e-01
1.461291462182998657e-01
7.513636350631713867e-02
5.732883885502815247e-02
2.338483463972806931e-03
2.496692985296249390e-01
2.345820665359497070e-01
7.580486126244068146e-03
9.194803237915039062e-02
-7.560319453477859497e-02
6.503177434206008911e-02
3.933949023485183716e-02
2.065820246934890747e-01
7.910155504941940308e-02
-3.711177408695220947e-02
4.933750629425048828e-02
-5.333677306771278381e-02
-9.747566282749176025e-02
-4.607845470309257507e-02
2.679481804370880127e-01
-1.333897262811660767e-01
-7.746215909719467163e-02
9.924469143152236938e-02
1.600293666124343872e-01
-2.533485181629657745e-02
-1.466737687587738037e-01
1.289432644844055176e-01
-1.573819294571876526e-02
7.405907846987247467e-03
-2.560955472290515900e-02
-8.494180440902709961e-02
2.133372873067855835e-01
5.574265867471694946e-02
-3.017668128013610840e-01
-6.313734501600265503e-02
9.436587989330291748e-02
1.139205992221832275e-01
1.478610485792160034e-01
-3.764636516571044922e-01
2.182014137506484985e-01
-5.124230682849884033e-02
-1.276918649673461914e-01
1.082184016704559326e-01
7.320834696292877197e-02
2.005265653133392334e-02
4.110181927680969238e-01
-6.881551444530487061e-02
1.344612687826156616e-01
2.338341325521469116e-01
-9.003005921840667725e-02
-5.219467356801033020e-02
-2.028143256902694702e-01
-1.699168682098388672e-01
4.812007397413253784e-02
