1.439152359962463379e-01
-7.250722497701644897e-02
-7.129028439521789551e-02
1.619874127209186554e-02
-2.703853882849216461e-02
6.998187303543090820e-02
1.356101781129837036e-01
1.132578626275062561e-01
1.043118089437484741e-01
-3.429966047406196594e-02
-1.682700216770172119e-02
7.115429732948541641e-03
-1.417318284511566162e-01
1.164534245617687702e-03
1.210617795586585999e-01
9.147970378398895264e-02
6.775566190481185913e-02
-9.400826692581176758e-02
-1.268152799457311630e-02
2.402777038514614105e-02
-1.099028885364532471e-01
-1.184839308261871338e-01
7.334865629673004150e-02
1.524029076099395752e-01
-6.688993424177169800e-03
-1.866750866174697876e-01
-1.190344989299774170e-01
-1.662976294755935669e-01
-2.610305510461330414e-02
-6.829188019037246704e-02
1.200885474681854248e-01
1.089188754558563232e-01
7.124742260202765465e-04
1.133516356348991394e-01
-4.457478970289230347e-02
-1.394906640052795410e-01
5.158215388655662537e-02
3.958056122064590454e-02
-1.098092049360275269e-01
1.789455711841583252e-01
5.896341800689697266e-02
-8.647908270359039307e-02
-5.569566041231155396e-02
3.079808689653873444e-02
-5.148821696639060974e-02
-1.207314729690551758e-01
-3.959266841411590576e-02
-1.292346417903900146e-01
-1.830577999353408813e-01
-1.769485771656036377e-01
-1.665254533290863037e-01
-5.636925995349884033e-02
1.057411655783653259e-01
-6.069270148873329163e-02
-1.361952126026153564e-01
1.265503913164138794e-01
-3.483818843960762024e-02
1.029740944504737854e-01
-1.122068520635366440e-02
4.036179184913635254e-02
1.264244616031646729e-01
-8.819645643234252930e-02
-1.246368288993835449e-01
2.402159012854099274e-02
9.688049554824829102e-02
-8.180367201566696167e-02
1.411453820765018463e-03
9.825058281421661377e-02
1.049202457070350647e-01
-4.429588094353675842e-02
1.619070768356323242e-01
5.170257762074470520e-02
1.512585431337356567e-01
9.063919633626937866e-02
4.060032218694686890e-02
-6.965061277151107788e-02
2.034929208457469940e-02
1.044203266501426697e-01
-1.294458359479904175e-01
-1.353085041046142578e-01
1.478282213211059570e-01
-8.391661942005157471e-02
1.387385427951812744e-01
1.219230368733406067e-01
-1.997356265783309937e-01
-1.570476889610290527e-01
-1.081859767436981201e-01
3.913836926221847534e-02
-3.886734135448932648e-03
-1.435527056455612183e-01
1.669825464487075806e-01
8.082918077707290649e-02
-6.832560058683156967e-03
-4.665325582027435303e-02
-8.049105107784271240e-02
9.500106796622276306e-03
-1.718483492732048035e-02
1.275801360607147217e-01
6.525205820798873901e-02
1.700738370418548584e-01
-9.919840842485427856e-02
8.897531032562255859e-02
-2.105597592890262604e-02
3.360938513651490211e-03
-6.771375238895416260e-02
1.303047239780426025e-01
3.762269020080566406e-02
1.175901517271995544e-01
6.205584853887557983e-02
-7.825259119272232056e-02
-1.394717097282409668e-01
8.239501714706420898e-02
-1.207292377948760986e-01
1.392482873052358627e-02
2.385048195719718933e-02
-3.010726347565650940e-02
1.471987515687942505e-01
-5.574279278516769409e-02
3.959592431783676147e-02
-1.090354695916175842e-01
1.231511980295181274e-01
6.015680730342864990e-02
1.353621929883956909e-01
-1.919721066951751709e-02
-1.173979938030242920e-01
6.864717602729797363e-02
-1.478717327117919922e-01
-2.279716357588768005e-02
5.732342228293418884e-02
-7.284671813249588013e-02
3.477327525615692139e-02
-1.077502369880676270e-01
1.767552942037582397e-01
-1.085789129137992859e-02
1.035912036895751953e-01
-1.567984223365783691e-01
1.678423956036567688e-02
-6.768985092639923096e-02
-1.159435585141181946e-01
1.600933521986007690e-01
1.237066313624382019e-01
1.601289212703704834e-02
-5.679002776741981506e-02
-6.633761525154113770e-02
2.319398149847984314e-02
1.158644929528236389e-01
-1.323052644729614258e-01
4.804105684161186218e-02
-1.224460452795028687e-01
5.395535379648208618e-02
3.710492327809333801e-02
8.873311802744865417e-03
4.186156392097473145e-02
-1.496141105890274048e-01
-1.692343503236770630e-02
-2.917121723294258118e-02
-1.385726779699325562e-01
-7.631621509790420532e-02
1.604038923978805542e-01
-1.656010746955871582e-01
-5.592782050371170044e-02
-5.260991863906383514e-03
9.470301866531372070e-02
-1.142460331320762634e-01
-5.034883320331573486e-02
-3.821615828201174736e-03
1.564208567142486572e-01
-1.237837225198745728e-01
4.037494584918022156e-02
1.383651494979858398e-01
2.794063277542591095e-02
6.406613439321517944e-02
1.535713076591491699e-01
1.713023893535137177e-02
1.357716917991638184e-01
1.390386223793029785e-01
-2.536934055387973785e-02
-1.500691771507263184e-01
5.313390120863914490e-02
6.025612726807594299e-02
-1.693433374166488647e-01
-1.283236220479011536e-02
7.107858546078205109e-03
1.161889871582388878e-03
-1.239123642444610596e-01
1.268521696329116821e-01
-4.562018811702728271e-02
6.510835886001586914e-02
-6.057640910148620605e-02
1.919919699430465698e-01
-7.845534384250640869e-02
6.517095863819122314e-02
-4.790342599153518677e-02
1.730341464281082153e-01
5.406442657113075256e-02
-5.172342061996459961e-02
-5.875126272439956665e-02
-3.378643095493316650e-02
-9.071832895278930664e-02
7.548754569143056870e-03
-7.684395462274551392e-02
-7.584019005298614502e-02
-2.319450862705707550e-02
3.385438770055770874e-02
9.653207659721374512e-02
-1.036604791879653931e-01
1.275764852762222290e-01
8.566689491271972656e-02
-5.317862331867218018e-02
1.008158847689628601e-01
6.946618854999542236e-02
2.156739123165607452e-02
1.771174669265747070e-01
1.064663100987672806e-02
1.602126061916351318e-01
1.565323621034622192e-01
8.447379618883132935e-02
1.656091660261154175e-01
4.069360345602035522e-02
-1.698281057178974152e-02
1.111963912844657898e-01
-7.596704643219709396e-03
-1.017843782901763916e-01
8.881946653127670288e-02
-1.424510627985000610e-01
6.574471294879913330e-02
5.546338483691215515e-02
1.060101464390754700e-01
-6.510959565639495850e-02
-3.428413718938827515e-02
4.150567948818206787e-02
-2.466372773051261902e-02
1.386134624481201172e-01
-3.085024468600749969e-02
1.310280561447143555e-01
9.518386423587799072e-02
-1.837729960680007935e-01
-5.923059582710266113e-02
-1.675398200750350952e-01
-8.487946540117263794e-02
5.563099682331085205e-02
-1.660229116678237915e-01
1.560403257608413696e-01
-5.059287697076797485e-02
-1.823361366987228394e-01
6.237549707293510437e-02
-1.434748768806457520e-01
5.664337798953056335e-02
-1.667154580354690552e-01
-8.023139834403991699e-02
-1.049539074301719666e-01
-7.116477936506271362e-02
-5.180670320987701416e-02
1.023196950554847717e-01
1.894822120666503906e-01
1.058740615844726562e-01
-4.745178855955600739e-03
8.066826313734054565e-02
-1.182983890175819397e-01
9.438508003950119019e-02
-9.632720798254013062e-02
1.184260696172714233e-01
-8.339036256074905396e-02
-1.387718319892883301e-01
1.201588436961174011e-01
-2.920135855674743652e-03
-1.726382076740264893e-01
-6.169478222727775574e-02
-1.227503567934036255e-01
-1.287578511983156204e-02
-7.274311035871505737e-02
9.302382916212081909e-02
1.135470122098922729e-01
-1.174844205379486084e-01
9.101618081331253052e-02
-1.136218756437301636e-02
1.386905163526535034e-01
-4.459896311163902283e-02
3.272940590977668762e-02
-3.076359815895557404e-02
1.230170764029026031e-02
1.023144274950027466e-02
1.124910265207290649e-01
1.828856021165847778e-01
1.516455709934234619e-01
-2.437101863324642181e-02
-6.612544506788253784e-02
4.023068025708198547e-02
6.877837330102920532e-02
8.216576650738716125e-03
1.677060872316360474e-01
-2.085864916443824768e-02
-9.828013181686401367e-02
-8.084024488925933838e-02
8.975598961114883423e-03
5.043741688132286072e-02
6.464067101478576660e-02
1.539283338934183121e-02
-1.044715642929077148e-01
-2.224502563476562500e-01
-1.465165428817272186e-02
5.300157144665718079e-02
-9.690980613231658936e-02
-8.922206237912178040e-03
1.369891874492168427e-02
-7.999064400792121887e-03
-1.882900148630142212e-01
1.380364894866943359e-01
1.720782667398452759e-01
7.326570153236389160e-02
2.638203650712966919e-02
-7.341273128986358643e-02
-1.159698069095611572e-01
-2.284614369273185730e-02
-2.014532685279846191e-01
-7.257284969091415405e-02
3.758865967392921448e-02
-9.464040398597717285e-02
-4.939236491918563843e-02
-2.189337313175201416e-01
-5.678184330463409424e-02
1.148363575339317322e-01
-1.176921054720878601e-01
6.858483701944351196e-02
1.391084641218185425e-01
1.429144591093063354e-01
-6.363815069198608398e-02
-4.950274899601936340e-02
-1.356163918972015381e-01
-5.922949407249689102e-03
-8.487159013748168945e-02
-4.473983496427536011e-02
1.305051147937774658e-01
-2.332510426640510559e-02
3.820217773318290710e-02
5.138371512293815613e-02
1.050078496336936951e-01
1.671372167766094208e-02
3.419373417273163795e-03
3.082507476210594177e-02
-1.006893962621688843e-01
-9.869627654552459717e-02
-4.978312924504280090e-02
-3.754001855850219727e-02
9.004335850477218628e-02
7.930591702461242676e-03
-9.096550941467285156e-02
2.596191130578517914e-03
5.489790439605712891e-02
-1.404187083244323730e-01
1.901204511523246765e-02
-1.786509454250335693e-01
1.460440307855606079e-01
-8.566424250602722168e-02
1.117495149374008179e-01
-6.946214288473129272e-02
1.914194524288177490e-01
4.239442571997642517e-02
1.495038270950317383e-01
-7.387737184762954712e-02
1.149563305079936981e-02
1.816312372684478760e-01
-7.973504811525344849e-02
2.826439216732978821e-02
-2.031066687777638435e-03
-1.033516079187393188e-01
-4.869519919157028198e-02
-1.161116808652877808e-01
3.869655355811119080e-02
7.407514750957489014e-02
-1.267514973878860474e-01
-1.398070603609085083e-01
5.460905656218528748e-02
-3.257388621568679810e-02
-8.353214710950851440e-02
-3.892571851611137390e-02
3.285127878189086914e-02
-7.930828630924224854e-02
-5.486465618014335632e-02
2.660391479730606079e-02
-1.017812918871641159e-02
5.605807900428771973e-02
2.388684806646779180e-04
8.291043341159820557e-02
1.477806866168975830e-01
-5.445461347699165344e-02
-1.333761066198348999e-01
-8.708284050226211548e-02
-7.174769788980484009e-02
-5.993319302797317505e-02
6.527946796268224716e-03
-6.654816865921020508e-02
3.446429909672588110e-04
7.901353389024734497e-02
-9.844910353422164917e-02
1.631239205598831177e-01
1.467406302690505981e-01
6.480541825294494629e-02
4.563132300972938538e-03
2.080890387296676636e-01
-1.030560657382011414e-01
-5.394269246608018875e-03
-1.542110554873943329e-02
1.197925060987472534e-01
-1.771003603935241699e-01
-1.415186226367950439e-01
2.096504904329776764e-02
-6.463749706745147705e-02
2.157411128282546997e-01
6.143726408481597900e-02
-1.022184863686561584e-01
-2.467804821208119392e-03
-4.134593531489372253e-02
-5.501165241003036499e-02
-2.012304067611694336e-01
-6.926853954792022705e-02
7.299789786338806152e-02
1.018456369638442993e-01
-1.299285441637039185e-01
2.936111390590667725e-02
4.370990768074989319e-02
7.429535966366529465e-03
-3.415035456418991089e-02
2.406779304146766663e-02
2.117990106344223022e-01
1.375136431306600571e-02
2.745654433965682983e-02
1.569677889347076416e-02
4.040022566914558411e-02
1.143322959542274475e-01
-1.370221227407455444e-01
2.095201751217246056e-03
-8.194047957658767700e-02
-1.718987524509429932e-01
-3.862883662804961205e-03
-1.099592000246047974e-01
-1.138933226466178894e-01
1.207252666354179382e-01
2.321137860417366028e-02
-3.538035228848457336e-02
6.541422009468078613e-02
-4.335894063115119934e-02
-4.191447421908378601e-02
4.898985475301742554e-02
-1.226761490106582642e-01
1.273352503776550293e-01
-1.944122314453125000e-01
-1.240508854389190674e-01
-1.767060458660125732e-01
1.371774375438690186e-01
6.044379249215126038e-02
-1.502199284732341766e-02
1.454905979335308075e-02
8.264928311109542847e-02
-1.584524065256118774e-01
-1.236244142055511475e-01
1.137043610215187073e-01
1.532592475414276123e-01
-3.669996187090873718e-02
-5.385264009237289429e-02
-2.041768282651901245e-02
1.245981268584728241e-02
-1.049624532461166382e-01
1.566512137651443481e-01
-1.091685611754655838e-02
-2.849975042045116425e-02
3.916740044951438904e-02
-1.177347376942634583e-01
6.080838292837142944e-02
-9.456728398799896240e-02
-7.218415290117263794e-02
-1.947252452373504639e-02
4.653970897197723389e-02
-9.653858095407485962e-02
-8.138057589530944824e-02
-4.115325957536697388e-02
2.668076939880847931e-02
6.369999796152114868e-02
1.746756583452224731e-01
8.798842132091522217e-02
-8.374813944101333618e-02
-1.837193965911865234e-01
1.395947486162185669e-01
-4.399361461400985718e-02
3.233477473258972168e-02
5.490343272686004639e-02
1.766950339078903198e-01
5.305886641144752502e-02
8.209498599171638489e-03
7.590409368276596069e-02
2.198234796524047852e-01
-7.982081919908523560e-02
-8.990039676427841187e-02
-4.137272946536540985e-03
-8.657695353031158447e-02
-4.852056875824928284e-02
7.987120002508163452e-02
4.348817095160484314e-02
7.639836519956588745e-02
1.107691973447799683e-02
-6.208021659404039383e-03
1.462060958147048950e-01
-1.068749278783798218e-01
-9.325929917395114899e-03
1.056174561381340027e-01
-7.216059416532516479e-02
5.219480022788047791e-02
-1.409867256879806519e-01
-1.302888393402099609e-01
8.761414885520935059e-02
4.167750477790832520e-02
1.556081771850585938e-01
