3.116276860237121582e-02
-4.397871717810630798e-02
3.968204185366630554e-02
1.320012360811233521e-01
-3.216842189431190491e-02
-1.147590428590774536e-01
-1.463641375303268433e-01
-1.856620982289314270e-02
-6.921650469303131104e-02
-9.861242957413196564e-03
-1.433235313743352890e-02
-3.116330504417419434e-02
6.944582611322402954e-02
4.144336283206939697e-02
-8.116997778415679932e-03
-1.755517162382602692e-02
-4.735398665070533752e-02
-3.300820291042327881e-02
6.236242875456809998e-02
1.109677702188491821e-01
9.235274791717529297e-02
6.776761263608932495e-02
-7.787334918975830078e-02
-1.594289764761924744e-02
1.347796898335218430e-02
2.238010987639427185e-02
7.461824268102645874e-02
-6.345956027507781982e-02
-1.566205173730850220e-03
-8.476877212524414062e-02
-2.428692393004894257e-02
-1.034932062029838562e-01
-4.482598043978214264e-03
-4.643743857741355896e-02
-1.217296347022056580e-01
7.717835903167724609e-02
1.061324477195739746e-01
-9.842988848686218262e-02
3.413837635889649391e-03
8.213554322719573975e-02
-7.280101627111434937e-02
7.625925354659557343e-03
-6.851015985012054443e-02
1.257290989160537720e-01
-4.502378776669502258e-02
-8.111868798732757568e-02
-1.277773299079854041e-05
5.586811155080795288e-02
-1.866590417921543121e-02
3.666463494300842285e-02
8.360110968351364136e-02
2.494926750659942627e-02
9.195534512400627136e-03
7.540101557970046997e-02
2.606587111949920654e-02
-7.334448397159576416e-02
-4.038038477301597595e-02
-4.061067104339599609e-02
1.004986837506294250e-02
9.160532616078853607e-03
-2.611309848725795746e-02
-3.096166811883449554e-02
-5.391262937337160110e-03
5.188242532312870026e-03
-6.322175264358520508e-02
-4.137584194540977478e-02
-4.382792115211486816e-02
2.946835383772850037e-02
-1.252638250589370728e-01
-1.345074772834777832e-01
4.583298042416572571e-02
1.330860797315835953e-02
-1.069850567728281021e-02
-3.275950253009796143e-02
-6.813259329646825790e-03
4.585687071084976196e-02
-3.920390456914901733e-02
-1.085884422063827515e-01
8.545543998479843140e-02
1.958676055073738098e-02
-1.937688142061233521e-02
2.492529526352882385e-02
-5.348749086260795593e-02
5.867181811481714249e-03
-5.366062745451927185e-02
-8.535793423652648926e-02
2.376556769013404846e-02
-8.589645475149154663e-02
-1.633248478174209595e-01
6.902171671390533447e-02
-2.409540675580501556e-02
-7.042182143777608871e-03
2.977459505200386047e-02
-4.837299510836601257e-02
-5.285418778657913208e-02
-6.108465604484081268e-03
5.850985273718833923e-02
2.791621163487434387e-02
2.062560804188251495e-02
1.461474783718585968e-02
-6.909088045358657837e-02
6.632827967405319214e-02
4.903176799416542053e-02
2.382418140769004822e-02
-2.824464626610279083e-02
-1.109092216938734055e-02
5.022597312927246094e-02
9.322044253349304199e-02
1.075671836733818054e-01
-2.032166160643100739e-02
2.320600301027297974e-02
-2.173368260264396667e-02
1.046573817729949951e-01
1.296024420298635960e-03
2.003661543130874634e-02
-1.385042071342468262e-02
8.803255110979080200e-02
-2.930443547666072845e-02
-3.453589975833892822e-02
-3.924842551350593567e-02
-2.738076448440551758e-02
1.816499046981334686e-02
3.613899648189544678e-02
-3.688351064920425415e-02
-3.101350739598274231e-02
2.838729135692119598e-02
1.077431999146938324e-02
6.855875998735427856e-02
-6.716752797365188599e-02
1.354865729808807373e-02
-1.393458843231201172e-01
-1.844961754977703094e-02
-2.888541109859943390e-02
-2.677462808787822723e-02
-1.771938502788543701e-01
7.127679139375686646e-02
1.193442419171333313e-01
-4.514253139495849609e-02
-6.938045378774404526e-03
4.805903136730194092e-02
-1.274022608995437622e-01
3.740575909614562988e-02
-1.839078031480312347e-02
-3.001309931278228760e-02
2.919988892972469330e-02
-2.399703860282897949e-02
-2.185799926519393921e-02
3.612130880355834961e-02
-2.529641985893249512e-02
-5.150977056473493576e-03
-1.274938583374023438e-01
2.374831587076187134e-03
1.053985133767127991e-01
-5.811406672000885010e-02
1.053836569190025330e-01
4.644035827368497849e-03
3.811497613787651062e-02
-1.321426481008529663e-01
-6.995277851819992065e-02
-1.728389598429203033e-02
-4.612421244382858276e-02
-4.800361394882202148e-02
-7.193086203187704086e-03
-4.427675530314445496e-02
-8.143599331378936768e-02
-1.584377884864807129e-02
3.637864813208580017e-02
-2.232850296422839165e-03
-4.728870838880538940e-02
-8.963305503129959106e-02
6.575110554695129395e-02
6.591411679983139038e-02
5.801183730363845825e-02
-2.118214219808578491e-02
9.459768980741500854e-02
-1.371940318495035172e-02
1.715519651770591736e-02
-4.845080547966063023e-04
2.687847800552845001e-02
4.076471179723739624e-02
-3.159232810139656067e-02
-3.924052789807319641e-02
-1.985819078981876373e-02
4.983448889106512070e-03
2.153314091265201569e-02
-6.324891000986099243e-02
1.402200106531381607e-02
-2.275050245225429535e-02
-4.089299216866493225e-02
-1.527408808469772339e-01
5.790317803621292114e-02
-2.143910713493824005e-02
3.466463461518287659e-02
2.851041965186595917e-03
-1.375312171876430511e-02
2.178127132356166840e-02
-2.994524128735065460e-02
-4.878931120038032532e-02
3.583494573831558228e-02
-2.410133183002471924e-02
-2.058643102645874023e-01
-3.589065000414848328e-02
-1.397898942232131958e-01
-7.411786168813705444e-02
-4.416285455226898193e-02
-6.930352747440338135e-02
-6.916130427271127701e-03
-3.005765005946159363e-02
-1.554245501756668091e-01
-4.821066185832023621e-02
4.076600447297096252e-02
-1.999964937567710876e-02
-5.666476488113403320e-02
-1.581320911645889282e-02
-7.468154281377792358e-02
-2.706628143787384033e-01
-2.848619595170021057e-02
-9.778465330600738525e-02
3.199309855699539185e-02
4.874578863382339478e-02
-6.680294126272201538e-02
-6.188838928937911987e-02
-1.226590871810913086e-01
5.625292286276817322e-02
9.007618064060807228e-04
6.131938844919204712e-02
-3.210674971342086792e-02
1.751635596156120300e-02
4.551361128687858582e-02
-4.830539226531982422e-02
8.627094328403472900e-02
-2.226168662309646606e-02
-7.272326201200485229e-02
-7.689310610294342041e-02
5.452879890799522400e-02
2.371037192642688751e-02
1.128411572426557541e-02
4.259703308343887329e-02
2.385179139673709869e-02
-7.833030819892883301e-02
-2.832630649209022522e-02
2.926275506615638733e-02
-1.489736139774322510e-01
1.694482853054068983e-05
-1.413024496287107468e-02
3.734700381755828857e-02
8.574092388153076172e-02
7.394908368587493896e-02
1.897312700748443604e-02
-1.302622854709625244e-01
1.373636350035667419e-02
2.300588600337505341e-02
6.568188965320587158e-02
-9.121005423367023468e-03
1.163590326905250549e-02
6.869943812489509583e-03
-2.202583104372024536e-02
-2.394097112119197845e-02
-1.720681041479110718e-02
-5.427081137895584106e-02
-4.471855238080024719e-02
-1.551530207507312298e-03
4.161389172077178955e-02
-1.652941107749938965e-02
-7.730592787265777588e-02
3.703153505921363831e-02
2.215926349163055420e-02
7.595857977867126465e-02
3.787233727052807808e-03
1.916621625423431396e-01
2.164599485695362091e-02
-9.873653203248977661e-02
-2.368710702285170555e-03
5.442599207162857056e-02
5.080372467637062073e-02
4.465178772807121277e-02
-3.688084427267313004e-03
-1.812952756881713867e-01
1.556160300970077515e-01
-1.579438149929046631e-01
-7.780406624078750610e-02
-3.988069656770676374e-04
4.509880393743515015e-02
-4.479499906301498413e-02
4.725871607661247253e-02
5.147956684231758118e-02
-5.629017949104309082e-02
-4.801634699106216431e-02
-2.885261550545692444e-02
-3.626600652933120728e-02
-6.069413200020790100e-02
-3.211760893464088440e-02
6.941308081150054932e-02
5.747204646468162537e-03
-4.304563254117965698e-02
-3.118488704785704613e-03
-9.496684372425079346e-02
3.710893541574478149e-02
-6.700099259614944458e-02
1.333271618932485580e-03
1.359662264585494995e-01
-3.997423499822616577e-02
-5.339368060231208801e-02
2.239745482802391052e-02
-2.029330655932426453e-02
-3.258135542273521423e-02
-4.006674513220787048e-02
-2.252586372196674347e-02
1.188963651657104492e-02
-2.236828207969665527e-02
-1.999535970389842987e-02
-5.094138532876968384e-02
-5.429674312472343445e-02
-2.788420766592025757e-02
5.131739377975463867e-02
5.657977610826492310e-02
5.381244234740734100e-03
-2.098501281579956412e-04
-4.573153797537088394e-03
-2.231767866760492325e-03
-1.298272609710693359e-01
-1.270080208778381348e-01
-2.946531213819980621e-02
4.150068014860153198e-02
4.782867617905139923e-03
-4.561207070946693420e-02
8.626074530184268951e-03
-1.468699332326650620e-02
1.570407897233963013e-01
-3.375962004065513611e-02
-1.868563331663608551e-02
5.760450288653373718e-02
-4.335758090019226074e-02
3.573337197303771973e-02
1.892489567399024963e-02
-3.802721574902534485e-02
7.405219227075576782e-02
-2.680934779345989227e-02
-2.782950177788734436e-02
-4.088780283927917480e-02
4.570476338267326355e-02
-7.550388574600219727e-02
2.320434525609016418e-02
4.521557688713073730e-02
4.059626720845699310e-03
-4.722784832119941711e-02
6.724040210247039795e-02
9.304147213697433472e-03
1.458503156900405884e-01
6.625231355428695679e-02
-5.017628427594900131e-03
9.123307652771472931e-03
7.362381368875503540e-02
4.880423191934823990e-03
3.408643184229731560e-03
2.959578298032283783e-02
-4.189691692590713501e-02
-1.813336834311485291e-02
-4.606232047080993652e-02
-4.378667473793029785e-02
-1.411362290382385254e-01
-4.074416682124137878e-02
-5.232378095388412476e-02
2.626001462340354919e-02
-3.801523894071578979e-02
5.002579418942332268e-04
-4.763691127300262451e-02
-1.688642799854278564e-02
-1.090902537107467651e-01
-2.319383062422275543e-02
-4.159334674477577209e-02
-2.802581153810024261e-02
5.074566230177879333e-02
-1.989990286529064178e-02
-1.022335737943649292e-01
-4.138334095478057861e-02
4.838519543409347534e-02
8.635262399911880493e-02
-4.009623080492019653e-02
5.837660748511552811e-03
-6.766056269407272339e-02
-6.938181351870298386e-03
4.864410310983657837e-02
-4.777638241648674011e-02
5.025440361350774765e-03
-3.768479079008102417e-02
5.889072269201278687e-02
9.817630983889102936e-03
8.781132102012634277e-02
-3.331956686452031136e-03
-7.463152520358562469e-03
-5.154703557491302490e-02
9.910388849675655365e-03
7.530161738395690918e-02
-2.473861910402774811e-02
-4.155633505433797836e-03
-7.315854728221893311e-02
1.241766214370727539e-01
6.166850402951240540e-02
1.061724275350570679e-01
-2.185461670160293579e-02
6.952799856662750244e-02
-7.780940271914005280e-03
5.547145754098892212e-02
-9.427491575479507446e-03
-1.938980259001255035e-02
1.033924054354429245e-02
6.554115563631057739e-02
-3.675643587484955788e-03
-9.517124295234680176e-02
1.152105629444122314e-01
1.304545998573303223e-02
-1.715387776494026184e-02
-3.812985867261886597e-02
-3.710212558507919312e-02
-1.270289439707994461e-02
7.623344659805297852e-02
-1.983696073293685913e-01
3.788335248827934265e-02
9.019879251718521118e-02
-7.140254601836204529e-04
-3.435814753174781799e-02
4.272285476326942444e-02
-6.663112901151180267e-03
-8.550158143043518066e-02
7.502052932977676392e-02
-1.935506239533424377e-02
1.926437835209071636e-03
1.057340018451213837e-02
3.132562153041362762e-03
-6.244553998112678528e-02
-1.796534284949302673e-03
2.760155498981475830e-02
9.410023689270019531e-03
-4.499572888016700745e-02
3.800124861299991608e-03
2.334183827042579651e-02
2.475994452834129333e-02
2.226148918271064758e-02
-6.823412328958511353e-02
3.775706514716148376e-02
1.010837033390998840e-02
-5.803367868065834045e-02
-5.543338507413864136e-02
5.925514921545982361e-02
-9.016229212284088135e-02
6.808704137802124023e-02
5.958016961812973022e-02
5.805921927094459534e-02
-1.410312354564666748e-01
-8.024719357490539551e-02
-3.626496344804763794e-02
-1.138806808739900589e-02
1.860086061060428619e-02
4.407712072134017944e-02
-1.923451386392116547e-02
-1.012404263019561768e-01
4.540947452187538147e-02
9.859502315521240234e-02
-7.282739877700805664e-02
1.589768938720226288e-02
-3.906914219260215759e-02
-7.050517201423645020e-02
3.870835155248641968e-02
6.373114883899688721e-02
-3.956974670290946960e-02
-5.352198332548141479e-02
8.151210099458694458e-02
7.785663753747940063e-02
9.056293219327926636e-02
4.928663000464439392e-02
-2.229329943656921387e-02
-1.598809845745563507e-02
-2.802476659417152405e-02
-3.644050285220146179e-02
-1.104964688420295715e-01
-2.852924354374408722e-02
-1.070768982172012329e-01
-7.999126613140106201e-02
4.914292693138122559e-02
2.115721814334392548e-02
5.752962082624435425e-02
8.597091585397720337e-02
-4.901814833283424377e-02
-1.445062085986137390e-02
2.431961521506309509e-02
-1.317448914051055908e-01
-1.087916567921638489e-01
-3.838932514190673828e-02
1.592303439974784851e-02
-2.203039266169071198e-02
-1.212856024503707886e-01
9.157405793666839600e-02
-5.660554394125938416e-02
1.415829509496688843e-01
2.450341731309890747e-02
4.125872254371643066e-02
-4.627221822738647461e-02
-4.969353228807449341e-02
5.576910078525543213e-02
4.416984692215919495e-02
-1.404618658125400543e-02
6.050350889563560486e-02
8.312156051397323608e-02
2.253108657896518707e-02
-1.551851816475391388e-02
1.437776386737823486e-01
1.765649914741516113e-01
1.184516325592994690e-01
9.151697158813476562e-02
6.123188138008117676e-02
-3.695989027619361877e-02
-3.983394056558609009e-02
-6.379301846027374268e-02
2.934564091265201569e-02
-7.985929399728775024e-02
1.008990127593278885e-02
-2.118059806525707245e-02
1.343322098255157471e-01
-6.445691734552383423e-02
7.209268864244222641e-03
5.143797397613525391e-02
-3.833816573023796082e-02
2.848859131336212158e-02
-5.408937856554985046e-02
-1.296111475676298141e-02
-1.840055175125598907e-02
-1.003572493791580200e-01
2.671637572348117828e-03
-1.069399621337652206e-02
-8.162302896380424500e-03
2.649955218657851219e-03
3.769068047404289246e-02
-1.706857816316187382e-03
-6.719247996807098389e-02
2.886016666889190674e-02
3.249987587332725525e-02
1.090898178517818451e-02
-7.831804454326629639e-02
-5.089043825864791870e-02
2.628858387470245361e-02
-1.274827420711517334e-01
-5.820801015943288803e-03
8.918271958827972412e-02
-2.818247303366661072e-02
-6.263713538646697998e-02
-3.381577134132385254e-02
-3.292775526642799377e-02
6.471594423055648804e-02
4.688745737075805664e-02
-5.890128389000892639e-02
8.270145207643508911e-02
-4.810632765293121338e-02
-1.032253801822662354e-01
1.390009373426437378e-01
-8.045855164527893066e-02
7.685388624668121338e-02
-3.697056323289871216e-02
-1.391053199768066406e-02
-1.672016829252243042e-02
1.710817590355873108e-02
7.942542433738708496e-02
1.621341705322265625e-02
1.656416058540344238e-02
-5.791224911808967590e-02
-4.201973788440227509e-03
4.608838353306055069e-03
-2.887523733079433441e-03
-6.552032381296157837e-02
8.111570775508880615e-02
-6.196971237659454346e-02
-5.812864378094673157e-02
-6.318114697933197021e-02
1.667796634137630463e-02
2.010280638933181763e-02
5.825635045766830444e-03
9.533598273992538452e-02
1.006547734141349792e-01
7.087972760200500488e-02
2.273974940180778503e-02
-1.292311679571866989e-02
3.123935684561729431e-02
-1.914809271693229675e-02
-4.959668219089508057e-02
8.537641726434230804e-03
-3.799898177385330200e-02
5.812933668494224548e-02
-4.024259746074676514e-02
-3.926289454102516174e-02
6.768127530813217163e-02
1.233059819787740707e-02
3.863764181733131409e-02
-2.223396301269531250e-02
1.204631198197603226e-02
3.172023966908454895e-02
3.555428981781005859e-02
-6.795730441808700562e-02
-4.673793539404869080e-02
-1.860676333308219910e-02
2.224427834153175354e-02
4.712713509798049927e-02
-2.027753181755542755e-02
-9.946255385875701904e-02
-1.724029704928398132e-02
2.128173783421516418e-02
-7.471276819705963135e-02
4.076344147324562073e-02
-2.597055397927761078e-03
5.562590062618255615e-02
1.100255399942398071e-01
4.802776873111724854e-02
-5.776743218302726746e-02
5.842993780970573425e-02
1.498279422521591187e-01
-4.077157750725746155e-02
1.106538251042366028e-01
1.001442410051822662e-02
-2.203257754445075989e-02
-2.591168740764260292e-03
-9.614477306604385376e-02
-1.049558222293853760e-01
3.769223392009735107e-02
-1.978351548314094543e-02
-2.887932816520333290e-03
8.769582957029342651e-03
-5.287075880914926529e-03
-3.848623484373092651e-02
3.938673064112663269e-02
-8.164549618959426880e-02
7.762877643108367920e-02
-4.043462127447128296e-02
2.475032582879066467e-02
1.755281351506710052e-02
-5.217352416366338730e-03
-1.470681838691234589e-02
3.931501507759094238e-02
-2.670756913721561432e-02
-2.553996257483959198e-02
7.078884169459342957e-03
-3.933745995163917542e-02
-2.527485601603984833e-02
3.869812190532684326e-02
-4.976590722799301147e-02
-9.413233399391174316e-02
4.673988558351993561e-03
-3.915947303175926208e-02
9.934376180171966553e-02
1.299504376947879791e-02
-6.819798052310943604e-02
-1.784799620509147644e-02
-4.668778553605079651e-02
7.554679363965988159e-02
1.860121451318264008e-02
-9.516672044992446899e-02
7.547290623188018799e-02
2.889996394515037537e-02
-1.003258861601352692e-02
1.102173049002885818e-02
-1.871989481151103973e-02
1.516426727175712585e-02
4.952634871006011963e-02
-3.682759404182434082e-02
1.728062145411968231e-02
3.880232945084571838e-02
-9.359376877546310425e-02
-9.680616110563278198e-02
-1.949832588434219360e-02
4.002460092306137085e-02
-6.438893824815750122e-02
1.158275008201599121e-01
1.300651133060455322e-01
1.434807479381561279e-01
-1.119341142475605011e-02
6.243178248405456543e-02
-1.279942784458398819e-02
2.867083437740802765e-02
1.049826294183731079e-01
6.874823570251464844e-02
-4.644866101443767548e-03
-2.466296777129173279e-02
8.389570564031600952e-02
8.206712082028388977e-03
-2.371229697018861771e-03
4.221737757325172424e-02
-4.944602400064468384e-02
2.745619788765907288e-02
-5.359522998332977295e-02
8.429670706391334534e-03
5.278066918253898621e-02
3.417091211304068565e-03
4.845383390784263611e-02
-3.505704691633582115e-03
-8.466581813991069794e-03
-5.544770881533622742e-02
-1.858109608292579651e-02
2.330898493528366089e-02
-5.054399371147155762e-02
8.425676077604293823e-02
-8.853867650032043457e-02
2.876551821827888489e-02
3.859889507293701172e-02
2.873680740594863892e-02
-1.856858283281326294e-02
7.513077557086944580e-02
-2.578878402709960938e-02
6.906932219862937927e-03
-2.785817161202430725e-02
-5.289775319397449493e-03
7.812879979610443115e-02
-1.633738726377487183e-01
3.981316089630126953e-02
-5.361577123403549194e-02
4.350762069225311279e-02
3.909219056367874146e-02
-4.160549491643905640e-02
-5.105966702103614807e-03
2.142871916294097900e-02
-7.737457752227783203e-02
1.979673095047473907e-02
1.606729696504771709e-03
-9.805569052696228027e-02
-9.145813062787055969e-03
-5.961154773831367493e-02
8.604840934276580811e-02
9.962176904082298279e-03
2.992822555825114250e-03
5.571543797850608826e-02
-7.671079039573669434e-02
7.652980089187622070e-02
-2.046979963779449463e-02
1.614691317081451416e-02
3.948529437184333801e-02
-1.032437533140182495e-01
2.816742053255438805e-03
-4.123118519783020020e-02
4.995029419660568237e-02
-2.635343745350837708e-02
6.045663729310035706e-03
-3.856728971004486084e-02
4.009805992245674133e-02
2.889289753511548042e-03
6.174490600824356079e-02
4.893349111080169678e-02
-3.652359172701835632e-02
1.078844591975212097e-01
1.043341010808944702e-01
-2.455611713230609894e-02
8.318131789565086365e-03
1.477666106075048447e-02
-8.261094801127910614e-03
-4.390773922204971313e-02
3.116539865732192993e-02
1.619205027818679810e-01
3.345243260264396667e-02
2.272900752723217010e-02
2.528630755841732025e-02
-1.466705184429883957e-02
4.708784446120262146e-02
9.578096121549606323e-02
5.072949454188346863e-02
6.045028567314147949e-03
-2.280895411968231201e-02
-2.971900813281536102e-02
-4.659042879939079285e-02
2.759628556668758392e-02
-4.630250111222267151e-02
1.263205055147409439e-02
-4.472824279218912125e-03
-1.533886417746543884e-02
6.242389231920242310e-02
1.597118563950061798e-02
4.629125446081161499e-02
1.608546636998653412e-02
2.809639263432472944e-04
1.181595772504806519e-02
-7.301469147205352783e-02
1.751848161220550537e-01
-2.677305415272712708e-02
-5.866105854511260986e-02
-1.961018331348896027e-02
-1.687385700643062592e-02
-5.780502036213874817e-02
4.148160293698310852e-02
-6.520332768559455872e-03
9.625449776649475098e-02
-4.379450902342796326e-02
3.051309101283550262e-02
-4.997666180133819580e-02
-2.163638919591903687e-02
-1.605969481170177460e-02
5.969449877738952637e-02
4.895092174410820007e-02
-4.804906249046325684e-02
-1.700316742062568665e-02
-2.389903552830219269e-02
-7.849256694316864014e-02
-6.529205292463302612e-02
-9.053690731525421143e-02
3.170971944928169250e-02
2.987926360219717026e-03
6.407301872968673706e-02
-1.260013580322265625e-01
4.844904318451881409e-02
-6.430963426828384399e-02
-1.299744844436645508e-02
3.571655601263046265e-02
1.995768211781978607e-02
1.108260974287986755e-01
2.499436959624290466e-02
-2.414761856198310852e-02
2.436856180429458618e-02
4.107895120978355408e-02
5.020949617028236389e-02
3.638795390725135803e-02
-3.470264002680778503e-02
-7.635432295501232147e-03
2.095476724207401276e-02
-6.349777337163686752e-03
-6.418235134333372116e-03
3.613488376140594482e-02
1.876798458397388458e-02
4.921058937907218933e-02
3.689396381378173828e-02
-2.699615433812141418e-02
2.746482845395803452e-03
-1.460297498852014542e-02
1.235551480203866959e-02
1.201678067445755005e-02
5.375956743955612183e-02
-3.667062893509864807e-02
-2.503936877474188805e-03
-6.335843354463577271e-02
7.314732298254966736e-03
4.298773594200611115e-03
2.141114696860313416e-02
2.142217010259628296e-02
-6.206195056438446045e-02
4.820607602596282959e-02
1.072700768709182739e-01
2.144326269626617432e-02
5.051677115261554718e-03
-7.794742286205291748e-02
-5.256870761513710022e-03
3.366695344448089600e-02
4.946988821029663086e-02
-1.278934814035892487e-02
-8.510793745517730713e-02
4.555111750960350037e-02
-3.440333995968103409e-03
-1.610383763909339905e-02
-7.269014418125152588e-02
-3.120551258325576782e-02
-1.324430201202630997e-02
8.576919138431549072e-02
-5.215331166982650757e-02
2.525628358125686646e-02
9.661549329757690430e-02
-3.464196622371673584e-02
-7.265498489141464233e-02
-2.985079027712345123e-02
-3.875893726944923401e-02
-2.470510080456733704e-02
-9.719282388687133789e-03
3.768717870116233826e-03
3.776817116886377335e-03
-2.996278926730155945e-02
-1.118038296699523926e-01
-5.433701723814010620e-02
-2.725686132907867432e-02
3.113526385277509689e-03
1.849145442247390747e-02
-1.795680820941925049e-02
-3.835007548332214355e-03
4.681874439120292664e-02
3.581443335860967636e-03
-1.910865679383277893e-02
-1.080727111548185349e-02
-6.423006951808929443e-02
-1.482127793133258820e-02
2.030692808330059052e-02
4.059030115604400635e-02
-5.208042263984680176e-02
8.058275282382965088e-02
2.594231162220239639e-03
-8.734983205795288086e-02
6.025728303939104080e-03
-6.141201406717300415e-02
2.362820319831371307e-02
-1.392032112926244736e-02
5.951545014977455139e-02
-3.166639432311058044e-02
-5.904407426714897156e-02
-1.683221943676471710e-02
3.308570757508277893e-02
5.760848149657249451e-02
4.521778225898742676e-02
-7.191825658082962036e-02
-5.089823622256517410e-03
3.345468640327453613e-02
1.266657374799251556e-02
-7.309218496084213257e-02
2.099769748747348785e-02
6.235963851213455200e-02
-2.873693034052848816e-02
4.245612025260925293e-02
-5.083850026130676270e-02
5.502705462276935577e-03
-3.059691749513149261e-02
-9.677935391664505005e-03
-1.996335014700889587e-02
-1.564906723797321320e-02
-5.530769377946853638e-02
4.710470512509346008e-02
-9.876807779073715210e-02
-4.376230761408805847e-03
-1.326878815889358521e-01
7.065184414386749268e-02
-8.983489125967025757e-02
2.317779930308461189e-03
-5.069585144519805908e-02
1.936966367065906525e-02
-3.370494395494461060e-02
-8.259103447198867798e-02
-4.064967483282089233e-02
-1.141819357872009277e-02
-8.587935008108615875e-03
-3.733298555016517639e-02
1.834158226847648621e-02
-4.963547363877296448e-02
-3.788875788450241089e-02
1.921730930916965008e-03
-2.626168169081211090e-02
-7.577192783355712891e-02
8.763445168733596802e-02
8.278068155050277710e-02
-6.305692344903945923e-02
2.482473105192184448e-02
4.701225832104682922e-02
-3.148367255926132202e-02
6.461165100336074829e-02
5.240397527813911438e-03
7.271952927112579346e-02
2.615534514188766479e-02
1.979878637939691544e-03
-3.935619071125984192e-02
1.418917719274759293e-02
-2.948781475424766541e-02
-2.942249365150928497e-02
-1.534398943185806274e-01
2.424093894660472870e-03
6.009110435843467712e-02
-3.067208640277385712e-02
7.617606315761804581e-03
9.280433878302574158e-03
6.541289389133453369e-02
3.010646440088748932e-02
1.461363118141889572e-02
9.512159973382949829e-02
7.420691847801208496e-02
2.108633145689964294e-02
2.197643183171749115e-02
1.022038701921701431e-02
5.972196534276008606e-02
-1.594256050884723663e-02
5.761994048953056335e-02
-8.031646162271499634e-02
-4.917504265904426575e-02
-2.639179863035678864e-02
6.495915353298187256e-02
-7.675500214099884033e-02
5.386386439204216003e-02
-7.936369627714157104e-02
-2.663164213299751282e-02
1.746912859380245209e-02
6.389199197292327881e-02
2.457782626152038574e-02
4.045398160815238953e-02
-5.646407976746559143e-02
-3.653831034898757935e-02
1.253827288746833801e-02
1.234626322984695435e-01
-9.031333029270172119e-03
3.506708890199661255e-02
1.773797348141670227e-02
-3.496256470680236816e-02
2.909057028591632843e-02
3.817940503358840942e-02
7.821504771709442139e-02
-3.418683772906661034e-03
-3.286019712686538696e-02
5.059902090579271317e-03
8.380664885044097900e-02
5.148507654666900635e-02
7.579072564840316772e-02
2.435131371021270752e-02
-3.083942085504531860e-02
6.456130743026733398e-02
-6.803781539201736450e-02
1.997389458119869232e-02
3.327645361423492432e-03
2.803797833621501923e-02
-1.000666990876197815e-02
5.686727911233901978e-02
2.396793477237224579e-02
-1.749092526733875275e-02
5.089004337787628174e-02
-2.636657655239105225e-02
1.170479655265808105e-01
-1.086245942860841751e-02
4.125513881444931030e-02
-1.171378716826438904e-01
-8.471080102026462555e-03
-3.036443702876567841e-02
4.511527344584465027e-02
2.130001597106456757e-02
8.221776038408279419e-02
1.567101106047630310e-02
3.754642978310585022e-02
-9.934068657457828522e-03
4.990327171981334686e-03
-1.308793108910322189e-02
5.693939514458179474e-03
-1.319534480571746826e-01
8.090444654226303101e-02
-1.521862577646970749e-02
7.161714881658554077e-02
1.459479611366987228e-02
8.123809471726417542e-03
-7.078857161104679108e-03
1.440845429897308350e-01
6.449072062969207764e-02
-6.670501828193664551e-02
-4.574503749608993530e-02
-7.880150526762008667e-02
2.851686067879199982e-02
-2.519157342612743378e-02
2.533342130482196808e-02
2.373057790100574493e-02
1.139089912176132202e-01
-2.383583597838878632e-02
-1.164256185293197632e-01
3.787824511528015137e-02
-9.471779316663742065e-02
-3.559139743447303772e-02
2.277081273496150970e-02
4.538726061582565308e-02
1.122785266488790512e-02
8.444447815418243408e-02
2.218547463417053223e-02
-5.368753802031278610e-03
-2.871191687881946564e-02
1.630881614983081818e-02
-8.642828091979026794e-03
9.593781828880310059e-02
5.979517847299575806e-02
-4.572027921676635742e-02
8.895597606897354126e-02
-7.070010155439376831e-02
4.091120138764381409e-02
9.402502328157424927e-03
-2.879779599606990814e-02
-1.234377548098564148e-01
8.045238256454467773e-02
4.577915184199810028e-03
-5.884001404047012329e-02
-3.231006488204002380e-02
-7.040114700794219971e-02
-1.635137386620044708e-02
6.865898519754409790e-02
-6.388288736343383789e-02
1.418146193027496338e-01
2.476523257791996002e-02
-5.856994912028312683e-02
-1.558742225170135498e-01
1.139474101364612579e-02
-8.935115486383438110e-02
8.967958390712738037e-02
4.625202342867851257e-02
-1.279302779585123062e-02
4.296923056244850159e-03
8.278971165418624878e-02
-4.573522508144378662e-02
7.538458704948425293e-02
-3.683845326304435730e-02
4.912067577242851257e-02
-6.470362842082977295e-02
-2.288733422756195068e-02
9.291741065680980682e-03
1.197356656193733215e-01
-4.257773607969284058e-02
-7.979136705398559570e-02
3.721382096409797668e-02
5.780502036213874817e-02
-5.584018304944038391e-02
2.219702005386352539e-01
5.625209584832191467e-02
-7.360798865556716919e-02
7.935018092393875122e-02
-1.340354979038238525e-01
1.035085786134004593e-02
8.942265063524246216e-02
-2.604427374899387360e-02
-4.332678020000457764e-02
-1.575300656259059906e-02
2.307374961674213409e-02
9.527512639760971069e-02
1.619636826217174530e-02
-1.550269778817892075e-02
-2.805449767038226128e-03
1.834585331380367279e-02
-2.691094996407628059e-03
4.911462217569351196e-02
2.437703683972358704e-02
2.359805814921855927e-02
4.068589955568313599e-02
6.352787464857101440e-02
-9.146372228860855103e-02
3.207379207015037537e-02
-2.890261821448802948e-02
3.429328277707099915e-02
-5.834399163722991943e-02
-2.540829777717590332e-02
1.586978882551193237e-02
5.620457977056503296e-02
-6.165080517530441284e-02
-2.275793440639972687e-02
-8.996710926294326782e-02
-3.489129245281219482e-02
4.941197857260704041e-02
-8.097314834594726562e-02
-5.440369620919227600e-02
-5.329521000385284424e-02
7.950140535831451416e-02
-1.386566180735826492e-02
-6.186508014798164368e-02
6.683077663183212280e-02
5.548347905278205872e-02
-2.784091746434569359e-03
9.059197618626058102e-04
-1.162786260247230530e-01
-3.614463657140731812e-02
-9.388152509927749634e-02
1.505572497844696045e-01
-5.996910482645034790e-02
-5.868313834071159363e-02
-1.432977467775344849e-01
5.213832855224609375e-02
-2.426962135359644890e-03
-6.051619350910186768e-02
1.836010441184043884e-02
-2.426169440150260925e-02
8.305252343416213989e-02
2.011904492974281311e-02
4.383181780576705933e-02
1.734770238399505615e-01
7.930180430412292480e-02
-4.197962209582328796e-02
3.946275264024734497e-02
2.068384736776351929e-02
-3.696349635720252991e-02
5.469053611159324646e-02
2.776503562927246094e-02
-7.453975826501846313e-02
-2.248238958418369293e-02
-1.939078234136104584e-02
5.844459310173988342e-02
-4.852883517742156982e-02
-2.499856427311897278e-02
2.331629209220409393e-02
-4.393615573644638062e-02
1.964898407459259033e-01
9.630966931581497192e-02
-3.587893396615982056e-02
-1.691162958741188049e-02
4.169267043471336365e-02
-4.764136299490928650e-02
7.228035479784011841e-02
-2.174994675442576408e-03
5.430806800723075867e-02
-4.554606229066848755e-02
1.033629775047302246e-01
-8.300346136093139648e-02
4.025623574852943420e-02
-1.500716507434844971e-01
-6.952892988920211792e-02
-6.036474928259849548e-02
-1.430393755435943604e-02
4.617979377508163452e-02
-9.877309203147888184e-02
-5.303160101175308228e-02
5.902742221951484680e-02
5.069418251514434814e-02
-1.354480981826782227e-01
-3.482917696237564087e-02
4.851243644952774048e-02
-1.711373589932918549e-02
-1.367674581706523895e-02
-5.281573161482810974e-02
-1.466067787259817123e-02
5.573170632123947144e-02
-1.580644696950912476e-01
2.167630009353160858e-02
3.870616480708122253e-02
3.591882064938545227e-02
-6.723381578922271729e-02
-3.526864945888519287e-02
2.786689810454845428e-02
2.574390731751918793e-02
3.301268070936203003e-02
-2.643026784062385559e-02
4.060144349932670593e-02
-5.294689163565635681e-02
-6.836191564798355103e-02
5.171246826648712158e-02
3.005782887339591980e-02
-1.921438379213213921e-03
1.015416128211654723e-04
-2.845235727727413177e-02
-1.233612298965454102e-01
-5.945196375250816345e-02
-1.404429823160171509e-01
8.817721158266067505e-02
2.034872770309448242e-02
7.965486496686935425e-02
-1.735844016075134277e-01
6.739419698715209961e-02
1.580336503684520721e-02
3.279052302241325378e-02
-5.947053059935569763e-02
7.762634009122848511e-02
4.877461120486259460e-02
-8.886910974979400635e-03
8.340843021869659424e-02
5.174985155463218689e-02
-5.203229375183582306e-03
-3.122197650372982025e-02
-1.283518411219120026e-02
6.273679435253143311e-03
-1.183873694390058517e-02
2.767180502414703369e-01
-4.658499732613563538e-02
8.127690106630325317e-02
-3.841673582792282104e-02
-1.733895093202590942e-01
-2.639083005487918854e-02
6.342233717441558838e-02
-2.976385131478309631e-02
3.638904541730880737e-03
2.160330489277839661e-02
2.892834320664405823e-02
5.517963320016860962e-02
4.088022559881210327e-02
-4.454900324344635010e-02
3.409237414598464966e-02
-5.855242908000946045e-02
1.144343987107276917e-01
1.861530542373657227e-01
-9.282001107931137085e-02
6.557068973779678345e-02
-1.023754198104143143e-02
1.488373987376689911e-02
7.542510330677032471e-02
9.709373861551284790e-02
-7.394981384277343750e-02
-1.854940652847290039e-01
-9.652679413557052612e-02
-8.389413356781005859e-02
-4.560933634638786316e-02
-5.638523027300834656e-02
-3.296255692839622498e-02
-6.715238094329833984e-02
9.074179083108901978e-02
-4.214135184884071350e-02
-4.056468978524208069e-02
-2.434927411377429962e-02
2.088891342282295227e-02
2.546753361821174622e-02
-2.013974823057651520e-02
-5.204177647829055786e-02
-7.936846464872360229e-02
6.127303093671798706e-02
-1.058120802044868469e-01
-8.726492524147033691e-02
-5.134181305766105652e-02
-7.321802526712417603e-02
3.973729908466339111e-02
5.678361281752586365e-02
-6.443178653717041016e-02
-1.577961295843124390e-01
-8.776338770985603333e-03
1.659043692052364349e-02
3.953588008880615234e-02
8.976930752396583557e-03
3.411730378866195679e-02
-3.903001546859741211e-02
4.800262674689292908e-02
-3.593540191650390625e-02
1.111205760389566422e-02
1.252283714711666107e-02
-5.050678923726081848e-02
1.196286007761955261e-01
6.921450048685073853e-02
-1.013481616973876953e-01
-2.162421587854623795e-04
-3.538262471556663513e-02
-4.099252074956893921e-02
1.909433491528034210e-02
6.110321730375289917e-02
-4.767188057303428650e-02
6.717075407505035400e-02
3.403627499938011169e-02
2.372134663164615631e-02
-1.460895389318466187e-01
-1.012118253856897354e-02
-2.605889178812503815e-02
1.223834231495857239e-01
7.620642334222793579e-02
5.847445502877235413e-02
-6.074547395110130310e-02
1.004169322550296783e-02
-6.104543432593345642e-02
2.866795659065246582e-02
-3.993210941553115845e-02
-3.588673472404479980e-02
2.090881392359733582e-02
1.013046503067016602e-02
1.257027834653854370e-01
3.968805074691772461e-02
-8.078947663307189941e-02
-1.986844092607498169e-02
-4.725512489676475525e-02
-5.960279703140258789e-02
-2.668065577745437622e-02
1.407686714082956314e-02
3.918537497520446777e-02
1.210349202156066895e-01
-8.998240530490875244e-02
-6.071753427386283875e-02
4.190899897366762161e-03
-6.175966467708349228e-03
4.996919259428977966e-02
1.776486076414585114e-02
-5.530972499400377274e-03
-7.351815700531005859e-02
1.205081585794687271e-02
1.710312790237367153e-04
-3.485428914427757263e-02
-6.596048362553119659e-03
5.479876697063446045e-02
-5.897121876478195190e-02
-6.630276143550872803e-02
3.375579137355089188e-03
-1.269690878689289093e-02
8.447632938623428345e-02
-1.172064915299415588e-01
-3.608457744121551514e-02
7.580703496932983398e-02
1.129020154476165771e-01
1.474840007722377777e-02
6.524159014225006104e-02
3.634475916624069214e-02
-1.271721441298723221e-02
-5.699940398335456848e-02
-5.649888515472412109e-02
-3.652188181877136230e-02
-1.027263626456260681e-01
-4.449522122740745544e-02
-5.849703401327133179e-02
-4.134036228060722351e-02
-1.157170161604881287e-01
6.520141661167144775e-02
-3.078786842525005341e-02
1.899032294750213623e-02
-9.213310666382312775e-03
-5.883489735424518585e-03
1.149847656488418579e-01
5.233437940478324890e-02
-3.711524233222007751e-02
5.770130828022956848e-02
3.406561538577079773e-02
-4.034939780831336975e-02
-5.320707336068153381e-02
-6.243264675140380859e-02
2.995621971786022186e-02
1.452667415142059326e-01
-2.975624985992908478e-02
-4.720841348171234131e-02
-1.307970751076936722e-02
-1.120621412992477417e-01
3.372246026992797852e-02
-9.595277905464172363e-02
-2.696659415960311890e-02
2.084836922585964203e-02
-7.722866535186767578e-02
-5.445159599184989929e-02
-3.704311326146125793e-02
4.232169315218925476e-02
-8.826329559087753296e-02
1.726879854686558247e-03
-4.399916157126426697e-02
-1.642812788486480713e-02
-7.359176874160766602e-02
1.296631526201963425e-02
1.050423756241798401e-01
5.643421038985252380e-02
1.937194727361202240e-02
2.824811451137065887e-02
-6.314489990472793579e-03
-6.335646659135818481e-02
-4.700413718819618225e-02
-1.118639558553695679e-01
2.212501689791679382e-02
6.764303892850875854e-03
1.043926775455474854e-01
4.541382193565368652e-03
8.279927074909210205e-02
2.688684500753879547e-02
7.625939697027206421e-02
-2.055639028549194336e-02
-2.247359044849872589e-02
-6.136967614293098450e-02
1.044354494661092758e-02
-9.447677433490753174e-02
-4.745488055050373077e-03
-7.346983253955841064e-02
5.526633933186531067e-02
4.990498349070549011e-02
1.418409943580627441e-01
2.424638159573078156e-02
2.873350307345390320e-02
-5.901245400309562683e-02
3.318800032138824463e-02
2.704291790723800659e-02
-1.296885963529348373e-02
1.452108379453420639e-02
-3.572589904069900513e-02
5.567318573594093323e-02
-1.261272877454757690e-01
-2.627405896782875061e-02
4.647178202867507935e-02
1.817624457180500031e-02
7.264316082000732422e-02
-1.019744873046875000e-01
-3.397296369075775146e-02
9.289257228374481201e-02
-2.661802060902118683e-02
-1.058521345257759094e-01
-4.206292331218719482e-02
9.652791917324066162e-02
4.260947462171316147e-03
9.290006011724472046e-02
-3.422178328037261963e-02
-2.348221605643630028e-03
-6.024115160107612610e-02
-7.682253420352935791e-02
-5.261053144931793213e-02
5.453344807028770447e-02
8.587405085563659668e-02
-3.153185546398162842e-02
-5.213327333331108093e-02
3.617414459586143494e-02
5.301368888467550278e-03
-8.133835345506668091e-02
-7.975079119205474854e-02
-2.675382047891616821e-02
-3.613029420375823975e-02
-8.601371198892593384e-02
1.729187741875648499e-02
6.224372889846563339e-03
-1.125044748187065125e-01
-4.657738655805587769e-02
8.250100910663604736e-02
-5.215238779783248901e-02
-7.603848725557327271e-02
-7.227867096662521362e-02
6.294927746057510376e-02
9.647439583204686642e-04
2.146012522280216217e-02
3.667605295777320862e-02
1.594685763120651245e-02
8.382779546082019806e-03
-1.352015789598226547e-02
-2.162830904126167297e-02
-4.277870804071426392e-02
1.528220251202583313e-02
-5.198620259761810303e-03
-6.756413727998733521e-02
-1.499833073467016220e-02
-1.065216884016990662e-01
1.274763792753219604e-01
4.145758599042892456e-02
1.792498305439949036e-02
-1.016719415783882141e-01
8.452028967440128326e-03
4.313030466437339783e-02
-1.774644479155540466e-03
-8.025391958653926849e-03
-4.539154469966888428e-02
1.088170334696769714e-02
-7.300230860710144043e-02
4.922605305910110474e-02
-4.572402313351631165e-02
5.310527980327606201e-02
-2.923176996409893036e-02
1.491401810199022293e-02
-5.090020224452018738e-02
5.857070442289113998e-03
-4.578925669193267822e-02
5.527026951313018799e-03
2.090537175536155701e-02
-2.585893124341964722e-02
-9.580814093351364136e-02
-1.614455319941043854e-02
-2.360414899885654449e-02
-8.170777559280395508e-02
5.559041723608970642e-02
1.298893243074417114e-02
6.881748884916305542e-02
-5.675116181373596191e-02
-1.876422762870788574e-02
9.095226228237152100e-02
-1.017790064215660095e-01
1.190174221992492676e-01
-3.496960178017616272e-02
2.490585856139659882e-02
6.737234443426132202e-02
8.235979825258255005e-02
-5.648561194539070129e-02
-5.519633647054433823e-03
-2.055198187008500099e-03
8.042768388986587524e-02
-3.045915067195892334e-02
-5.528197810053825378e-02
-3.859863150864839554e-03
3.344553336501121521e-02
-2.852640300989151001e-02
6.608408689498901367e-02
2.232648403150960803e-04
3.591900318861007690e-02
-7.140070199966430664e-02
-1.127259731292724609e-01
-1.645200140774250031e-02
1.102751940488815308e-01
-6.661786139011383057e-02
-6.145619228482246399e-02
-1.349166873842477798e-02
-1.276465505361557007e-01
-8.018688112497329712e-02
2.005342626944184303e-03
-3.376305475831031799e-02
-4.037656635046005249e-02
-9.446744620800018311e-02
6.656081229448318481e-02
-8.595932275056838989e-02
-1.170189492404460907e-02
-3.554997593164443970e-02
-2.456117793917655945e-02
-1.001026555895805359e-01
1.184620801359415054e-02
2.051076479256153107e-02
1.028437763452529907e-01
-1.788993552327156067e-02
6.569381058216094971e-02
-3.089286200702190399e-02
3.259319439530372620e-02
-9.842998534440994263e-02
3.294214606285095215e-02
1.306881308555603027e-01
-6.989795714616775513e-02
1.464338880032300949e-02
-4.736487194895744324e-02
-4.457987844944000244e-03
6.884254515171051025e-02
1.164377108216285706e-01
7.172530144453048706e-02
1.048219278454780579e-01
7.183319423347711563e-03
-1.130646318197250366e-01
1.175010204315185547e-01
-1.286544799804687500e-01
-9.792224317789077759e-02
-1.071615368127822876e-01
4.745823144912719727e-02
-4.872709140181541443e-02
3.445758298039436340e-02
6.324336677789688110e-02
6.608109176158905029e-02
1.281220093369483948e-02
-3.030344657599925995e-02
7.302492111921310425e-02
9.996606409549713135e-02
-2.798475511372089386e-02
5.495069175958633423e-02
7.980830967426300049e-02
7.963512837886810303e-02
-2.521315589547157288e-02
-1.291115283966064453e-01
8.752616494894027710e-02
-3.759148716926574707e-02
6.763618439435958862e-03
1.279042512178421021e-01
7.592689245939254761e-02
-6.612675497308373451e-04
-1.552957948297262192e-02
3.633376583456993103e-02
-2.256855182349681854e-02
1.423899736255407333e-02
8.483286947011947632e-02
2.991338260471820831e-02
-7.450155168771743774e-02
1.073375269770622253e-01
-2.237862348556518555e-02
2.216735854744911194e-02
9.562163800001144409e-02
3.204374015331268311e-02
-3.240871429443359375e-02
1.364463567733764648e-02
-4.860728979110717773e-02
-1.159963663667440414e-02
-9.883234277367591858e-03
-1.827441528439521790e-02
-5.202461779117584229e-02
3.094100765883922577e-02
-3.649218240752816200e-03
-3.508427739143371582e-02
-1.377297658473253250e-02
-5.630248039960861206e-02
1.991388201713562012e-02
1.943755336105823517e-02
-8.711791783571243286e-02
7.821410894393920898e-02
4.323698207736015320e-02
-1.291242986917495728e-01
1.249890327453613281e-01
1.317682117223739624e-01
-2.293837629258632660e-02
2.202517837285995483e-01
9.663932025432586670e-02
2.954574860632419586e-02
6.659816205501556396e-02
-2.810182422399520874e-02
3.357861191034317017e-02
-2.802441129460930824e-03
-1.683208197355270386e-01
-1.496159732341766357e-01
1.397116631269454956e-01
-2.088676951825618744e-02
-4.282062407582998276e-03
3.981508687138557434e-02
-5.537395551800727844e-02
-1.369536016136407852e-02
1.529685314744710922e-02
-1.366064250469207764e-01
-4.736325237900018692e-03
4.637367092072963715e-03
-7.794083654880523682e-02
1.037293951958417892e-02
-5.703382939100265503e-02
-1.813938654959201813e-02
-1.182432696223258972e-01
-5.740551650524139404e-02
-1.061094328761100769e-01
9.072383493185043335e-02
3.840579465031623840e-02
1.105668395757675171e-01
-7.126206159591674805e-02
5.097599327564239502e-02
-2.812941744923591614e-02
-7.453710585832595825e-02
-1.905502565205097198e-02
6.375865638256072998e-02
1.250723935663700104e-02
-1.653210520744323730e-01
-2.132276631891727448e-02
-2.543190028518438339e-03
1.311549842357635498e-01
4.792775958776473999e-02
-1.411762684583663940e-01
3.709292411804199219e-02
-3.583425283432006836e-02
5.061624199151992798e-02
3.463731333613395691e-02
-3.770598769187927246e-02
-2.580751106142997742e-02
-5.198282748460769653e-02
-5.951756983995437622e-02
4.592124745249748230e-02
2.036208659410476685e-02
-9.828735888004302979e-02
2.301827073097229004e-02
-2.317963354289531708e-02
-5.408241972327232361e-02
1.661064662039279938e-02
5.456029996275901794e-02
7.116736471652984619e-02
3.678152803331613541e-03
-1.123500708490610123e-02
1.268277019262313843e-01
-2.078971453011035919e-02
-1.788229122757911682e-02
1.017890796065330505e-01
4.381262138485908508e-02
-1.413203328847885132e-01
-1.407884210348129272e-01
7.185695320367813110e-02
4.081302136182785034e-02
-8.131646364927291870e-02
1.151723973453044891e-02
2.463504672050476074e-03
-4.570097848773002625e-02
-1.749604381620883942e-02
4.820596426725387573e-02
2.020735852420330048e-02
2.063954062759876251e-02
-3.937337175011634827e-02
-1.822983101010322571e-02
-3.061603568494319916e-02
-5.917425453662872314e-02
-5.586232990026473999e-03
-4.978716373443603516e-02
5.016772821545600891e-02
4.670495912432670593e-02
2.902889391407370567e-04
8.466467261314392090e-02
-4.566646367311477661e-02
-3.041939251124858856e-02
-9.255728125572204590e-02
1.430587619543075562e-01
3.772546350955963135e-02
3.191998973488807678e-02
9.437447413802146912e-03
-8.286539465188980103e-03
-1.406382769346237183e-01
7.962578535079956055e-02
-2.857890911400318146e-02
-3.034277819097042084e-02
6.753402948379516602e-02
1.310604065656661987e-01
3.306534886360168457e-02
3.237983584403991699e-02
3.346890211105346680e-02
-2.820698730647563934e-02
1.879294216632843018e-02
2.477748319506645203e-02
1.283432394266128540e-01
8.919241279363632202e-02
-1.151807829737663269e-01
8.964506536722183228e-02
1.204648166894912720e-01
3.476325795054435730e-02
3.963593021035194397e-02
-1.060489378869533539e-02
-3.712804242968559265e-02
7.525134086608886719e-02
7.198759168386459351e-02
3.712386265397071838e-02
-1.007386296987533569e-01
-8.705679327249526978e-02
7.152857631444931030e-02
-6.852363795042037964e-02
8.855830878019332886e-03
1.265830546617507935e-02
-4.694623872637748718e-02
-1.551647204905748367e-02
7.237411290407180786e-02
8.657176792621612549e-02
1.581943221390247345e-02
2.727211220189929008e-03
-3.621958568692207336e-02
1.915144734084606171e-02
7.122485339641571045e-02
5.166941508650779724e-02
-3.276677802205085754e-02
4.360178112983703613e-02
6.830082088708877563e-02
9.169020503759384155e-02
5.597519874572753906e-02
-1.270667463541030884e-01
-2.337962575256824493e-02
8.623892813920974731e-02
9.631066769361495972e-02
-2.632127702236175537e-02
4.390357434749603271e-02
7.017120718955993652e-02
4.144396167248487473e-03
3.003427200019359589e-02
-2.997331693768501282e-02
-6.712891161441802979e-02
-3.938439488410949707e-02
-6.447884440422058105e-02
6.011676788330078125e-02
-3.235311806201934814e-02
9.427058696746826172e-02
3.993817791342735291e-02
-7.460945844650268555e-02
2.674447000026702881e-02
-9.431083686649799347e-03
-1.010738313198089600e-01
-9.880565106868743896e-02
-5.322002246975898743e-02
1.427174210548400879e-01
-8.823450654745101929e-03
-1.800417341291904449e-02
6.952918320894241333e-02
-2.934280969202518463e-02
-1.433359980583190918e-01
-3.735077381134033203e-02
1.100894510746002197e-01
1.623022705316543579e-01
3.999419137835502625e-02
-3.087700344622135162e-02
-4.882531985640525818e-02
-4.332984099164605141e-04
5.382566899061203003e-02
6.069466471672058105e-02
8.031944930553436279e-02
-5.132997408509254456e-02
-1.282743271440267563e-02
-1.673755235970020294e-02
-3.483106195926666260e-02
4.067164659500122070e-02
-2.072591893374919891e-02
9.538725018501281738e-02
5.676197633147239685e-02
-1.934857852756977081e-02
-3.106143698096275330e-02
-3.115263069048523903e-03
-5.148229375481605530e-02
-2.406982146203517914e-02
4.221186041831970215e-02
7.140920311212539673e-02
5.165095999836921692e-02
6.875829398632049561e-02
-6.650131195783615112e-02
5.045284330844879150e-02
2.497718669474124908e-02
1.909511908888816833e-02
-9.618372470140457153e-02
8.130490779876708984e-02
-7.973587140440940857e-03
5.704182386398315430e-02
-5.870508775115013123e-02
-9.498244151473045349e-03
5.858984310179948807e-03
1.920302584767341614e-02
-6.624021381139755249e-02
-1.231826618313789368e-01
1.909950003027915955e-02
-1.904382184147834778e-02
-1.729143969714641571e-02
-6.815100461244583130e-02
-1.565972529351711273e-02
1.061739474534988403e-01
4.837612435221672058e-02
-5.103665217757225037e-02
-6.019402667880058289e-02
-2.066528610885143280e-02
-7.854107022285461426e-02
3.837681934237480164e-02
-9.305726736783981323e-03
9.237472712993621826e-02
-3.573146834969520569e-02
1.751017197966575623e-02
-4.556810948997735977e-03
-3.180884057655930519e-03
-6.923091411590576172e-02
-6.812816858291625977e-02
1.124952360987663269e-01
7.837220281362533569e-02
-7.131448388099670410e-02
-2.966097369790077209e-02
-3.948723897337913513e-02
1.994515359401702881e-01
7.925871014595031738e-02
5.918129161000251770e-02
-6.246576830744743347e-02
-5.637899413704872131e-02
6.942692399024963379e-02
1.470622047781944275e-02
4.987258091568946838e-02
2.271914482116699219e-02
-1.519571989774703979e-01
5.650048702955245972e-02
-5.248479917645454407e-02
-7.627637684345245361e-02
-3.271901607513427734e-02
7.275946438312530518e-02
7.593125849962234497e-02
-9.710196405649185181e-02
1.240107882767915726e-02
-4.665227606892585754e-02
-1.227494105696678162e-01
-3.576141223311424255e-02
3.158896416425704956e-02
-6.385017931461334229e-02
-2.569020725786685944e-02
-4.006633535027503967e-02
-6.253740191459655762e-02
-3.349057957530021667e-02
-4.263398423790931702e-02
3.716119797900319099e-03
-1.414474751800298691e-02
1.132692918181419373e-01
4.091128334403038025e-02
4.561198130249977112e-02
2.201416529715061188e-02
-9.512428939342498779e-02
-6.187460571527481079e-02
-3.526930510997772217e-02
-8.910029381513595581e-02
2.064688317477703094e-02
7.744115591049194336e-02
-8.470035344362258911e-02
-7.317328453063964844e-02
-2.769417315721511841e-02
6.131801288574934006e-03
-3.679101541638374329e-02
-7.589425891637802124e-03
2.550128661096096039e-02
3.215496195480227470e-03
-3.944076970219612122e-02
-3.295358270406723022e-03
1.398899685591459274e-02
1.641399227082729340e-02
-2.258118242025375366e-02
8.857704699039459229e-03
-6.342162191867828369e-02
-1.200893670320510864e-01
1.349994353950023651e-02
2.281969413161277771e-02
-2.866696938872337341e-02
4.736537486314773560e-02
-9.844526648521423340e-02
-1.165216788649559021e-01
-4.456809163093566895e-02
2.852168865501880646e-02
3.591700643301010132e-02
-9.745753556489944458e-02
1.970483455806970596e-03
3.928234055638313293e-02
-1.012655091471970081e-03
-6.619983166456222534e-02
1.278037875890731812e-01
7.186660915613174438e-02
-1.781628094613552094e-02
3.799869492650032043e-02
-3.170506097376346588e-03
-3.394347429275512695e-02
-5.583681166172027588e-02
6.600421667098999023e-02
-3.680761530995368958e-02
-7.064371369779109955e-03
-1.117872595787048340e-01
1.591498404741287231e-01
-6.325819343328475952e-02
-1.320601254701614380e-01
-7.845810800790786743e-02
1.180174499750137329e-01
-7.668572943657636642e-03
-8.341015875339508057e-02
1.396823823451995850e-01
2.829619310796260834e-02
-5.746969580650329590e-02
1.010685786604881287e-01
1.005997657775878906e-01
7.008483260869979858e-02
-3.735657408833503723e-02
2.760099247097969055e-02
-1.035198569297790527e-02
7.384546101093292236e-02
-8.475390821695327759e-02
1.015757396817207336e-01
-1.573175936937332153e-02
5.656323581933975220e-02
-8.873098343610763550e-02
-3.127887472510337830e-02
-8.948989957571029663e-02
8.661293983459472656e-02
6.292200088500976562e-02
9.722679108381271362e-02
-1.258598361164331436e-02
5.738498643040657043e-02
-3.386904671788215637e-02
-4.304860904812812805e-02
5.256218463182449341e-02
1.216291636228561401e-02
-3.527699038386344910e-02
-2.769634686410427094e-02
2.312694936990737915e-01
-4.285358265042304993e-02
9.848422557115554810e-02
1.847718469798564911e-02
7.054287940263748169e-02
2.005261182785034180e-02
-4.138167575001716614e-02
-1.952685532160103321e-03
-3.971549496054649353e-02
-2.440364286303520203e-02
1.095810085535049438e-01
-1.953094266355037689e-02
4.811562970280647278e-02
-1.046757027506828308e-02
-1.053787861019372940e-02
1.591510698199272156e-02
1.220913305878639221e-01
-3.883804008364677429e-02
1.521900016814470291e-02
-1.724024862051010132e-02
-1.713111251592636108e-01
-1.120834723114967346e-01
-8.224290609359741211e-02
1.637600921094417572e-02
6.591834127902984619e-02
-1.546972524374723434e-02
5.380506068468093872e-02
8.919466286897659302e-02
-4.811054095625877380e-02
-7.256060093641281128e-02
4.130669683218002319e-02
-7.135136547731235623e-05
2.476770803332328796e-02
4.145367443561553955e-02
-7.920102030038833618e-02
-2.786701917648315430e-02
1.009161174297332764e-01
2.731806039810180664e-02
-9.799160063266754150e-02
-7.513087987899780273e-02
-5.371550098061561584e-02
-7.925870269536972046e-02
-1.056024879217147827e-01
8.793548680841922760e-03
1.426541339606046677e-02
2.193791978061199188e-02
-7.670383900403976440e-02
5.101548042148351669e-03
-2.596356719732284546e-02
1.930511742830276489e-02
2.396366745233535767e-02
8.986776322126388550e-02
-1.038102582097053528e-01
-1.162382960319519043e-02
7.673738896846771240e-02
-6.934919208288192749e-02
2.401446364820003510e-02
-3.183118626475334167e-02
-4.601912200450897217e-02
-4.702791571617126465e-02
-8.732334710657596588e-03
7.194884866476058960e-02
-4.275061190128326416e-02
-1.717786304652690887e-02
-1.571821793913841248e-02
-2.805580850690603256e-03
-1.368625909090042114e-01
2.348474226891994476e-02
8.703145198523998260e-03
-4.048871621489524841e-02
3.476527333259582520e-02
6.511377869173884392e-04
7.283042371273040771e-02
-9.433554112911224365e-02
1.588315702974796295e-03
4.178629070520401001e-02
-1.962756551802158356e-02
-9.249450638890266418e-03
3.717571124434471130e-02
-8.080280572175979614e-02
-3.921590745449066162e-02
-8.294159919023513794e-02
6.820284575223922729e-02
-1.029388327151536942e-02
-2.240247651934623718e-02
1.983354333788156509e-03
9.713640809059143066e-02
1.932716742157936096e-02
2.856265008449554443e-02
1.252792477607727051e-01
-3.500713407993316650e-02
-3.791436925530433655e-02
6.998823489993810654e-03
-5.024521797895431519e-02
5.689734965562820435e-02
2.647033333778381348e-02
-4.269256442785263062e-02
-2.910475991666316986e-02
4.714931920170783997e-02
-2.867410890758037567e-02
1.661173254251480103e-01
2.234659856185317039e-03
-1.745136082172393799e-01
3.669697046279907227e-02
6.107598915696144104e-02
-3.108515217900276184e-02
4.701331257820129395e-02
2.095020143315196037e-03
-1.383457332849502563e-02
4.423568025231361389e-02
-3.354666009545326233e-02
3.783959522843360901e-02
6.151235662400722504e-03
-2.405324019491672516e-02
-9.385581128299236298e-03
-5.950179323554039001e-02
6.257555913180112839e-03
-2.974072657525539398e-02
5.826597288250923157e-02
-1.490229554474353790e-02
-5.852277949452400208e-02
8.489363826811313629e-03
5.470001325011253357e-02
-1.238762494176626205e-02
-3.781240805983543396e-02
1.379640866070985794e-02
-4.779936000704765320e-02
8.675221353769302368e-03
3.742014756426215172e-03
-1.357082743197679520e-02
-6.870841979980468750e-02
1.768179982900619507e-02
1.197601296007633209e-02
2.410909719765186310e-02
-1.009364798665046692e-01
4.176751524209976196e-02
3.128322213888168335e-02
3.216835483908653259e-02
-4.374480992555618286e-02
-5.999514833092689514e-02
-9.281603246927261353e-02
1.748833991587162018e-02
-3.937721997499465942e-02
6.146017834544181824e-02
-2.778908982872962952e-02
2.068311348557472229e-02
-1.128331385552883148e-02
-5.928482860326766968e-04
9.394018352031707764e-02
-2.520431205630302429e-02
4.744186252355575562e-02
-4.876238852739334106e-02
-5.248862132430076599e-02
8.694077283143997192e-02
1.596663892269134521e-02
-4.678044468164443970e-02
2.319611981511116028e-02
-5.805479735136032104e-02
-5.327774584293365479e-02
-1.745883375406265259e-02
-1.661964692175388336e-02
-1.061612442135810852e-01
2.079596742987632751e-02
4.670159891247749329e-03
2.165950089693069458e-02
-1.620053430087864399e-03
-8.164985477924346924e-02
3.915570676326751709e-03
-3.253392130136489868e-02
-9.096483699977397919e-03
-3.004963509738445282e-02
8.162255585193634033e-02
8.649490191601216793e-04
7.755090948194265366e-03
-4.449216183274984360e-03
-5.392749235033988953e-02
-5.438581109046936035e-02
-2.317363768815994263e-02
4.735423997044563293e-02
2.215963415801525116e-02
-1.171376705169677734e-01
-3.949463367462158203e-02
-1.975020766258239746e-02
-1.431197114288806915e-02
4.235769808292388916e-02
-4.238828644156455994e-02
1.507703494280576706e-02
-7.193760573863983154e-02
2.326793782413005829e-02
-1.063773632049560547e-01
1.070010811090469360e-01
-4.483678378164768219e-03
4.303073510527610779e-02
9.125175885856151581e-03
7.953040185384452343e-04
-7.726493477821350098e-02
5.107590928673744202e-02
-1.905126683413982391e-02
4.615907371044158936e-02
-1.615708023309707642e-01
2.576711773872375488e-02
7.785338908433914185e-02
-4.259737953543663025e-02
-7.261793315410614014e-02
-1.993970386683940887e-02
-1.033202037215232849e-01
5.674806982278823853e-02
-5.842978879809379578e-02
-4.643189907073974609e-02
1.119203679263591766e-02
8.905562758445739746e-02
-3.252930007874965668e-03
-1.187506970018148422e-02
5.770142376422882080e-02
1.678723841905593872e-02
1.185086090117692947e-02
2.609091624617576599e-02
-1.027939170598983765e-01
8.473518490791320801e-02
1.782490685582160950e-02
-2.409066818654537201e-02
-9.860638529062271118e-02
-6.181060336530208588e-03
1.776964520104229450e-03
-8.672716468572616577e-02
-9.242097288370132446e-02
-3.399912733584642410e-03
2.001937106251716614e-02
-7.783783227205276489e-02
2.396913943812251091e-03
6.725982297211885452e-03
-6.066437438130378723e-02
7.956158369779586792e-02
-7.721748948097229004e-02
4.796071723103523254e-02
2.748597599565982819e-02
-5.529970675706863403e-02
-6.530486047267913818e-03
-1.260201912373304367e-02
9.005631436593830585e-04
1.059628725051879883e-01
7.194358855485916138e-02
-2.773978002369403839e-02
6.949706934392452240e-03
4.558167979121208191e-02
-5.954810976982116699e-02
3.826021775603294373e-02
-2.051654271781444550e-02
1.425551902502775192e-02
2.519018203020095825e-02
-3.703567758202552795e-02
-1.170739457011222839e-01
6.398264784365892410e-03
6.099520623683929443e-02
1.043200269341468811e-01
2.587069384753704071e-02
-1.452189590781927109e-02
7.630173116922378540e-02
3.629080206155776978e-02
2.524112118408083916e-03
-5.460728332400321960e-02
1.705989800393581390e-02
2.651117742061614990e-02
1.412004083395004272e-01
1.473302394151687622e-02
5.740259960293769836e-02
-1.403567846864461899e-03
9.307930245995521545e-03
2.314759232103824615e-02
-3.679630160331726074e-02
2.820637822151184082e-02
-2.575905807316303253e-02
-4.384930431842803955e-02
5.765222478657960892e-03
3.093512030318379402e-03
1.143060401082038879e-01
3.415674716234207153e-02
2.957920916378498077e-02
-6.588811054825782776e-03
-4.649003595113754272e-02
2.447055466473102570e-02
-5.677985027432441711e-03
7.010070234537124634e-02
-7.848575711250305176e-02
2.463890984654426575e-02
-2.121438831090927124e-02
7.146812975406646729e-02
1.569799520075321198e-02
3.566134721040725708e-03
3.516709432005882263e-02
-8.524897508323192596e-03
6.994167715311050415e-02
-9.766152501106262207e-02
-6.416374444961547852e-02
5.576221272349357605e-03
-3.560836613178253174e-02
-5.039020627737045288e-02
-5.890904739499092102e-02
7.094128429889678955e-02
1.767158880829811096e-02
-1.145469471812248230e-01
-9.316205978393554688e-03
-2.108591608703136444e-02
3.929781541228294373e-02
1.091994252055883408e-02
-4.226462915539741516e-02
-1.338560283184051514e-01
-4.693973064422607422e-02
5.624270811676979065e-02
1.277261041104793549e-02
-1.596407406032085419e-02
-1.874826475977897644e-02
6.290011852979660034e-02
1.064683683216571808e-02
-5.296057462692260742e-02
-2.807860495522618294e-03
4.223665967583656311e-02
-7.183563709259033203e-02
5.241285264492034912e-02
-5.547989532351493835e-02
4.436281323432922363e-02
-1.049720682203769684e-02
2.425654605031013489e-02
8.606093376874923706e-02
-5.228737741708755493e-02
-2.616067416965961456e-02
5.694403499364852905e-02
-7.160252332687377930e-02
3.041126579046249390e-02
-2.414713241159915924e-02
-6.388969253748655319e-03
-7.999760657548904419e-02
-9.444498270750045776e-02
-3.048583457712084055e-04
-1.707829348742961884e-02
7.345691323280334473e-02
-6.179937720298767090e-02
5.733881518244743347e-02
-1.502511464059352875e-02
2.677688747644424438e-02
9.496274590492248535e-02
-1.383601874113082886e-02
3.003110736608505249e-02
3.093785047531127930e-02
-1.265566609799861908e-02
-3.869960317388176918e-03
5.294545087963342667e-03
5.153762642294168472e-03
-9.769931435585021973e-02
8.221217244863510132e-02
-6.523617357015609741e-02
8.673601783812046051e-03
4.666121676564216614e-02
5.985411629080772400e-02
-4.993018694221973419e-03
-2.676899172365665436e-02
1.286102365702390671e-02
-4.576250538229942322e-02
-1.971469074487686157e-02
-2.361267060041427612e-02
-6.245029624551534653e-03
3.641583025455474854e-02
4.605762287974357605e-02
1.380234677344560623e-02
-1.067098043859004974e-02
2.992672845721244812e-02
3.173949941992759705e-02
-1.775682903826236725e-02
-1.637172885239124298e-02
-3.749965503811836243e-02
-6.774689257144927979e-02
-3.577236086130142212e-03
3.578197956085205078e-02
-1.009561028331518173e-02
-6.767580658197402954e-02
-1.244448497891426086e-02
-3.677233681082725525e-02
4.338330402970314026e-02
-4.564620181918144226e-02
2.850242424756288528e-03
-1.752461120486259460e-02
-2.800882793962955475e-02
3.914098069071769714e-02
-6.783545762300491333e-02
4.603972285985946655e-02
4.890404269099235535e-02
-6.049231439828872681e-02
1.927973516285419464e-02
3.250351408496499062e-03
9.298603050410747528e-03
4.910786822438240051e-02
3.210187703371047974e-02
-1.259207427501678467e-01
6.922487169504165649e-02
6.431571673601865768e-03
-2.494834549725055695e-02
-1.618841104209423065e-02
3.133725374937057495e-02
-5.430209264159202576e-02
4.179170355200767517e-02
-1.883717626333236694e-02
-2.417051047086715698e-02
5.767057649791240692e-03
-4.839422553777694702e-02
-1.242014169692993164e-01
-8.782232552766799927e-02
3.704384341835975647e-02
5.311664938926696777e-02
6.302409619092941284e-02
-2.496736124157905579e-02
7.510616630315780640e-02
-3.009138442575931549e-02
2.510818187147378922e-03
-2.950713783502578735e-02
8.067548274993896484e-02
1.202427502721548080e-02
-3.291258588433265686e-02
4.432535544037818909e-02
-1.001091487705707550e-02
-1.486345008015632629e-02
4.294370114803314209e-02
-8.386003226041793823e-02
7.378019858151674271e-03
-8.099267631769180298e-02
3.757804632186889648e-02
6.294918246567249298e-03
4.969817772507667542e-02
2.756854891777038574e-02
-1.132569015026092529e-01
9.692442417144775391e-02
-9.740255773067474365e-02
5.467408522963523865e-02
3.617126867175102234e-02
5.049631744623184204e-02
6.749399751424789429e-02
6.869178265333175659e-02
7.316649705171585083e-02
-5.084072798490524292e-02
2.441152930259704590e-02
-7.333932444453239441e-04
-3.954000025987625122e-02
-1.498545054346323013e-02
-7.287989556789398193e-02
7.062429212965071201e-04
3.862335160374641418e-02
-8.100982755422592163e-02
3.406511247158050537e-02
-1.211465056985616684e-02
5.846102256327867508e-03
7.780006527900695801e-02
-2.336008474230766296e-02
8.481343835592269897e-02
-1.762730069458484650e-02
-2.609054557979106903e-02
2.229115925729274750e-02
-4.092476796358823776e-03
5.594952031970024109e-03
-4.053218290209770203e-02
-1.647451519966125488e-02
9.486670792102813721e-02
8.442846685647964478e-02
-1.585574448108673096e-02
6.226537004113197327e-02
7.820481806993484497e-02
2.664764178916811943e-03
-1.754178851842880249e-02
2.256370335817337036e-02
1.601964421570301056e-02
-2.859156951308250427e-02
2.191721834242343903e-02
8.997065573930740356e-02
4.442520067095756531e-02
4.183418676257133484e-02
-3.802612051367759705e-02
5.006709694862365723e-02
-1.546297781169414520e-02
7.748211920261383057e-02
5.861930083483457565e-03
-1.300081424415111542e-02
-6.070278957486152649e-02
5.046022683382034302e-02
1.036854926496744156e-02
-1.934197545051574707e-02
1.186998188495635986e-01
-1.232341304421424866e-01
3.165170922875404358e-02
-4.256265982985496521e-02
-4.938625544309616089e-02
5.364336073398590088e-02
6.415975093841552734e-02
5.194636434316635132e-02
2.161923237144947052e-02
2.184890024363994598e-02
-4.316946491599082947e-02
8.209481835365295410e-03
2.702653035521507263e-02
-2.211601659655570984e-02
-2.954399911686778069e-03
-5.339611694216728210e-02
-4.604985937476158142e-02
-9.027671068906784058e-03
3.388516139239072800e-03
5.506783351302146912e-02
2.088183071464300156e-03
-7.941451855003833771e-03
-7.475375663489103317e-03
-7.230114936828613281e-02
-1.709297671914100647e-02
-6.767977029085159302e-02
3.480784595012664795e-02
-3.036968596279621124e-02
6.125878542661666870e-02
-2.959085628390312195e-02
8.926302194595336914e-02
2.223149687051773071e-02
6.665818393230438232e-02
-3.653576597571372986e-02
1.797148957848548889e-02
-7.200120389461517334e-02
4.765217751264572144e-02
-7.908323779702186584e-03
1.801540143787860870e-02
-4.511563107371330261e-02
1.172624155879020691e-02
-2.708404324948787689e-02
-1.086127851158380508e-02
5.218229256570339203e-03
-6.724475417286157608e-03
-1.684349030256271362e-01
-4.058123752474784851e-02
3.819836676120758057e-02
4.305170848965644836e-02
-1.270383037626743317e-02
3.607013961300253868e-03
6.293131038546562195e-03
-3.854173701256513596e-03
7.244513928890228271e-02
3.290394321084022522e-02
-4.992578551173210144e-02
-1.770918257534503937e-02
-5.009344592690467834e-02
-3.858550637960433960e-02
-8.617836982011795044e-03
3.041517734527587891e-02
-2.334311790764331818e-02
1.154085434973239899e-02
1.242828890681266785e-01
2.589667029678821564e-02
2.661183103919029236e-02
-3.774605318903923035e-02
-4.772246628999710083e-02
2.773738279938697815e-02
3.642847016453742981e-02
-9.970059618353843689e-03
-6.335749477148056030e-02
-4.999919235706329346e-02
2.705860696732997894e-02
2.035024762153625488e-02
7.774063199758529663e-02
-7.602934539318084717e-02
-5.062138289213180542e-02
1.219727005809545517e-02
1.048841420561075211e-02
-1.856472045183181763e-01
2.163500152528285980e-02
-4.845445975661277771e-02
-1.002330984920263290e-02
-5.997839197516441345e-02
1.513058319687843323e-02
-3.452254086732864380e-02
1.284123063087463379e-01
6.633164733648300171e-02
3.700869157910346985e-02
3.222674131393432617e-02
-2.573272027075290680e-02
2.191816270351409912e-02
-1.447874121367931366e-02
7.658486068248748779e-02
-2.543392218649387360e-02
-5.442000180482864380e-02
-6.492764502763748169e-02
-4.531662166118621826e-02
-7.211060076951980591e-02
-4.148457199335098267e-02
6.862501055002212524e-02
-1.198704242706298828e-01
6.730961799621582031e-02
1.481211464852094650e-02
1.455327309668064117e-02
2.276250161230564117e-02
4.162788763642311096e-02
5.533302575349807739e-02
2.483158744871616364e-02
-8.948796242475509644e-02
5.207137204706668854e-03
-6.435436755418777466e-02
-6.494517624378204346e-02
-2.034626435488462448e-03
3.120833449065685272e-02
3.120055608451366425e-02
9.611696749925613403e-02
3.801490366458892822e-02
9.022082202136516571e-03
-5.772180855274200439e-02
-5.334308836609125137e-03
-2.495383098721504211e-02
-9.601908922195434570e-02
1.094012428075075150e-02
-2.684023603796958923e-02
6.583026051521301270e-02
-1.074159070849418640e-01
1.160147041082382202e-01
1.281969845294952393e-01
1.417109742760658264e-02
1.374931540340185165e-02
1.603434607386589050e-02
-7.247569411993026733e-02
-3.223567456007003784e-02
6.098168902099132538e-03
-2.595010213553905487e-03
-1.035338640213012695e-02
3.202144056558609009e-02
-8.653908967971801758e-03
2.613370679318904877e-02
-3.630115464329719543e-02
-1.014793664216995239e-01
-2.398218959569931030e-02
-2.573538385331630707e-02
4.278688877820968628e-02
-4.220937564969062805e-02
-6.469503790140151978e-02
3.294891910627484322e-03
-5.764050409197807312e-03
4.685854911804199219e-02
1.018205005675554276e-02
-7.890096865594387054e-03
1.930404081940650940e-02
-9.475626051425933838e-02
-5.298302695155143738e-02
2.703496441245079041e-02
-2.550732158124446869e-02
-4.727767407894134521e-02
-4.884938150644302368e-02
1.208916082978248596e-01
1.324487570673227310e-02
-1.241886690258979797e-01
2.587508596479892731e-02
5.094122886657714844e-02
-2.440481632947921753e-02
-2.066921256482601166e-02
-1.514160074293613434e-02
1.418299507349729538e-02
-6.484831683337688446e-03
-6.266478914767503738e-03
-3.264571726322174072e-02
2.423734776675701141e-02
-7.949292659759521484e-02
-8.692602068185806274e-02
5.072751082479953766e-03
-1.550707034766674042e-02
1.047869846224784851e-01
-5.403612926602363586e-02
4.718937911093235016e-03
-9.676585346460342407e-02
1.256471127271652222e-02
-7.825232297182083130e-02
7.000957429409027100e-02
4.601183533668518066e-02
7.205612957477569580e-02
6.510999798774719238e-02
-1.018914021551609039e-02
6.974025070667266846e-02
-4.299376532435417175e-02
-5.069557577371597290e-02
1.075752731412649155e-02
3.891011327505111694e-02
3.998151421546936035e-02
-9.279629588127136230e-02
1.527864858508110046e-02
-1.295493636280298233e-02
7.065068185329437256e-02
-4.860159382224082947e-02
-6.916050612926483154e-02
-4.882526770234107971e-02
-2.146364748477935791e-02
-9.807990491390228271e-02
3.587203100323677063e-02
5.247554555535316467e-02
-3.123985417187213898e-02
1.267523411661386490e-02
-1.699378155171871185e-02
-2.293564379215240479e-03
-7.879143953323364258e-02
8.588118478655815125e-03
3.350803628563880920e-03
-2.480592764914035797e-02
-2.416495233774185181e-03
7.179499417543411255e-02
1.311164349317550659e-03
6.768784672021865845e-02
-1.504900399595499039e-02
2.234109491109848022e-02
5.917077884078025818e-02
3.880300209857523441e-04
2.757352776825428009e-02
3.428684920072555542e-02
-1.777133904397487640e-02
-6.127810105681419373e-02
-5.415660329163074493e-03
-2.416711300611495972e-02
5.050369352102279663e-02
-1.220871601253747940e-02
2.664863876998424530e-02
8.107715845108032227e-02
-1.494636666029691696e-02
-9.298581629991531372e-02
-3.807221353054046631e-02
4.140959307551383972e-02
3.371056867763400078e-03
-3.021170571446418762e-02
2.531095780432224274e-02
-3.992271423339843750e-02
-9.324567392468452454e-03
-3.464457765221595764e-02
-3.801468387246131897e-02
2.547475509345531464e-02
-5.803738906979560852e-02
1.017534211277961731e-01
7.765626907348632812e-02
-5.185509473085403442e-02
3.856376186013221741e-02
-1.624821126461029053e-02
-3.361767530441284180e-02
-9.590830653905868530e-02
1.426653284579515457e-02
1.179394591599702835e-02
-2.138021588325500488e-02
-9.254445135593414307e-02
1.121140271425247192e-02
1.028752420097589493e-02
8.800689876079559326e-02
6.388292461633682251e-02
-2.290198951959609985e-02
6.753692775964736938e-02
4.610763117671012878e-02
3.426889702677726746e-02
2.651215903460979462e-02
2.684441581368446350e-02
-2.592816576361656189e-02
2.977223694324493408e-02
1.541224587708711624e-02
1.265619546175003052e-01
4.339116439223289490e-02
2.078801952302455902e-02
1.131590455770492554e-02
-8.213430643081665039e-02
3.518889844417572021e-02
-7.974347472190856934e-02
-6.341931968927383423e-02
1.450287923216819763e-02
-2.969361608847975731e-03
-1.513837929815053940e-02
7.004583626985549927e-02
5.612167343497276306e-02
3.615980967879295349e-02
9.054270386695861816e-02
1.458765752613544464e-02
-6.939953193068504333e-03
7.174465060234069824e-02
-7.310065906494855881e-03
3.416520729660987854e-02
3.058407269418239594e-02
-4.787021502852439880e-02
3.331291303038597107e-02
8.132016658782958984e-02
-1.030440069735050201e-02
2.233393304049968719e-02
-6.690489500761032104e-02
5.638639256358146667e-02
9.190823882818222046e-03
7.005814462900161743e-02
5.306652188301086426e-02
-1.590365357697010040e-02
-5.108962953090667725e-02
9.914408624172210693e-02
-4.380841180682182312e-02
-2.352535165846347809e-02
1.224948838353157043e-02
1.007620012387633324e-03
1.471931766718626022e-02
1.316317319869995117e-01
7.461712509393692017e-02
6.015032902359962463e-02
-4.558579251170158386e-02
-8.415585756301879883e-02
-2.508906275033950806e-02
3.109172545373439789e-02
2.031065523624420166e-03
3.700042515993118286e-02
-5.505371838808059692e-02
8.969423174858093262e-02
3.316045179963111877e-02
4.307216033339500427e-02
6.304115056991577148e-02
-3.610665723681449890e-02
-6.506550591439008713e-03
-1.132976636290550232e-02
-1.996230520308017731e-02
2.567376382648944855e-02
3.102785348892211914e-02
6.166451051831245422e-02
-5.460935831069946289e-02
-4.727596789598464966e-02
-5.933621525764465332e-02
-5.503458436578512192e-03
-3.194908378645777702e-03
3.278306126594543457e-02
-6.962530314922332764e-02
-5.132764950394630432e-02
3.526071831583976746e-02
-6.250300910323858261e-03
-1.630255207419395447e-02
2.105808816850185394e-02
9.638749808073043823e-02
-3.198033431544899940e-03
5.602353438735008240e-02
4.165634512901306152e-02
-1.137680280953645706e-02
5.867451056838035583e-02
3.399973362684249878e-02
3.748256340622901917e-02
-3.186356276273727417e-02
1.817501708865165710e-02
-1.239375327713787556e-03
4.839200992137193680e-03
6.419380009174346924e-02
1.097211390733718872e-01
-1.183510944247245789e-02
-8.236543275415897369e-03
2.813034877181053162e-02
-3.883903846144676208e-02
5.758188664913177490e-02
1.884039491415023804e-02
-4.703424870967864990e-02
-6.091834604740142822e-02
5.912080407142639160e-02
-2.075911499559879303e-02
4.305408895015716553e-02
5.498001351952552795e-02
-1.968475617468357086e-02
-2.000739565119147301e-03
-3.669463470578193665e-02
-1.666561067104339600e-01
-2.917173318564891815e-02
6.600043177604675293e-02
-1.060340274125337601e-02
5.463519319891929626e-02
1.254460960626602173e-01
2.312829159200191498e-02
7.257772237062454224e-02
4.479697719216346741e-02
-1.244218833744525909e-02
-1.462990231812000275e-02
-1.051782891154289246e-01
-8.389722555875778198e-02
2.964885532855987549e-02
1.492207497358322144e-02
7.596592605113983154e-02
-4.373377561569213867e-02
-8.194138854742050171e-02
-8.039265871047973633e-02
9.776964783668518066e-03
-8.371177129447460175e-03
-9.316934645175933838e-02
7.178544998168945312e-02
-8.725165389478206635e-03
-7.215691357851028442e-02
3.914086893200874329e-02
5.128141865134239197e-02
-4.423667490482330322e-02
-4.949499294161796570e-02
-5.214489996433258057e-02
-8.002956956624984741e-02
1.390821952372789383e-02
1.030798349529504776e-02
5.179702304303646088e-03
5.602952092885971069e-02
-4.104424640536308289e-02
-6.715574115514755249e-02
3.017920255661010742e-02
-4.728658869862556458e-02
-3.902164101600646973e-02
-5.360683426260948181e-02
2.429876290261745453e-02
4.010511562228202820e-02
-9.578940272331237793e-02
-4.206106066703796387e-02
-2.668475173413753510e-02
-1.430808100849390030e-02
7.171600311994552612e-02
5.615503713488578796e-02
-3.063046932220458984e-02
2.373777329921722412e-02
-6.657561659812927246e-02
1.048636063933372498e-02
1.397310104221105576e-02
-4.475497081875801086e-02
-1.400174498558044434e-01
1.093411296606063843e-01
1.316807884722948074e-02
-7.861518301069736481e-03
-4.461352154612541199e-02
3.814227506518363953e-02
4.638159275054931641e-02
7.672753185033798218e-02
-3.258372470736503601e-02
3.482899069786071777e-02
-7.221419364213943481e-02
2.879588492214679718e-02
2.453974820673465729e-02
6.348425894975662231e-02
-4.015451297163963318e-02
3.793771937489509583e-02
8.914039283990859985e-02
-9.367676451802253723e-03
1.294058561325073242e-01
7.873807102441787720e-02
3.060000948607921600e-03
-7.761081214994192123e-03
7.733938843011856079e-02
-1.002911571413278580e-02
-2.122844569385051727e-02
-3.301657363772392273e-02
-5.816169083118438721e-03
-1.570840179920196533e-02
-2.060023695230484009e-02
3.717042133212089539e-02
3.590438887476921082e-02
6.450345367193222046e-02
4.783065617084503174e-02
-9.819345176219940186e-02
4.359943047165870667e-02
-6.987425033003091812e-03
-4.143919423222541809e-02
1.657619178295135498e-01
7.645491510629653931e-02
3.181550279259681702e-02
5.177438724786043167e-03
-1.235602889209985733e-02
-4.239716753363609314e-02
-1.400042623281478882e-01
3.347894875332713127e-03
-1.285509578883647919e-02
-4.705068189650774002e-03
7.359139621257781982e-02
-1.548900734633207321e-02
8.555328845977783203e-02
-1.759052835404872894e-02
8.576955646276473999e-02
-2.240885980427265167e-02
8.876638859510421753e-02
-1.537663955241441727e-02
4.330106079578399658e-02
-6.518543511629104614e-02
1.050682552158832550e-02
-4.210563749074935913e-02
-5.681232362985610962e-02
8.991964161396026611e-02
-4.326986148953437805e-02
-2.952947095036506653e-02
-5.855649709701538086e-03
6.110227480530738831e-02
-1.273437123745679855e-02
4.255608841776847839e-02
5.876436457037925720e-02
3.435062989592552185e-02
-3.423459362238645554e-03
1.154695004224777222e-01
3.828032687306404114e-02
6.386804580688476562e-02
-2.260876819491386414e-02
2.061380632221698761e-02
4.250736907124519348e-02
1.738234423100948334e-02
-2.781699039041996002e-02
5.133343115448951721e-02
7.298701256513595581e-02
-1.149991601705551147e-01
9.761188179254531860e-02
-1.058660522103309631e-01
3.146899864077568054e-02
4.780619964003562927e-02
9.359106421470642090e-03
-2.129881642758846283e-02
-5.986733362078666687e-02
-1.412406004965305328e-02
-2.239939197897911072e-02
6.191565468907356262e-02
-4.757926240563392639e-02
7.180650532245635986e-02
-5.109844729304313660e-02
2.132778987288475037e-03
5.019430816173553467e-02
-4.755286499857902527e-02
-3.191702067852020264e-02
8.171890676021575928e-02
1.153076589107513428e-01
2.707869559526443481e-02
6.784195546060800552e-03
3.814765065908432007e-02
1.977502740919589996e-02
-4.480746574699878693e-03
-2.979574352502822876e-02
-1.900142058730125427e-02
-1.168643385171890259e-01
4.424601048231124878e-02
3.469298779964447021e-02
-3.358201682567596436e-02
-4.187789559364318848e-02
-1.167302280664443970e-01
7.087098807096481323e-02
2.918683178722858429e-02
-7.452583312988281250e-02
-1.356688421219587326e-02
-4.149273410439491272e-02
-4.358050227165222168e-02
1.067791227251291275e-02
3.929236158728599548e-02
-2.368631027638912201e-02
-6.668370962142944336e-02
6.686489563435316086e-03
-2.101894095540046692e-02
2.523560635745525360e-02
-4.865198582410812378e-02
2.466958388686180115e-02
9.692423045635223389e-02
-2.770920284092426300e-03
1.418227422982454300e-02
-9.309957921504974365e-02
6.539764255285263062e-02
4.548671655356884003e-03
-6.380568444728851318e-02
-5.952944979071617126e-03
-2.090297453105449677e-02
-2.149518951773643494e-02
-3.548519685864448547e-02
-4.009920731186866760e-02
-4.284289851784706116e-02
-1.873459853231906891e-02
-3.219436109066009521e-02
-4.672413051594048738e-04
-5.494940280914306641e-02
-1.076421067118644714e-01
-6.070651113986968994e-02
7.872246950864791870e-02
3.837955370545387268e-02
-4.530981183052062988e-02
4.056656360626220703e-02
-1.494439668022096157e-03
-4.872315004467964172e-02
-3.298321040347218513e-03
4.635412991046905518e-02
2.258099429309368134e-02
1.115582697093486786e-02
5.076775327324867249e-02
-5.232988297939300537e-02
7.758071273565292358e-02
-3.815975040197372437e-02
-5.288862437009811401e-02
1.001073699444532394e-02
7.018522173166275024e-02
7.754205167293548584e-02
-2.333879284560680389e-02
-3.488959372043609619e-02
-4.401285573840141296e-02
-4.894902184605598450e-02
-3.975021094083786011e-02
5.390200763940811157e-02
-4.117474332451820374e-02
8.001947402954101562e-02
2.250710316002368927e-02
-9.428988397121429443e-02
1.338953822851181030e-01
-2.341735735535621643e-02
-3.864992409944534302e-02
8.392181992530822754e-02
-1.839792914688587189e-02
3.985081333667039871e-03
6.357200443744659424e-02
-1.530185714364051819e-02
6.284908950328826904e-02
9.382878243923187256e-02
-4.421922564506530762e-02
1.066866517066955566e-01
-1.243389695882797241e-01
3.555668890476226807e-02
-8.761981874704360962e-02
-1.656593531370162964e-01
-2.312492288183420897e-04
-1.114645972847938538e-01
5.250870063900947571e-02
-1.496559083461761475e-01
4.880172759294509888e-02
-2.821521833539009094e-02
2.883959189057350159e-02
3.090582974255084991e-02
-3.073763102293014526e-02
-8.164824545383453369e-02
-8.623958379030227661e-02
6.698732078075408936e-02
-3.186225146055221558e-02
-4.656035453081130981e-02
4.250760003924369812e-02
7.126932591199874878e-02
-4.824184253811836243e-02
7.642284035682678223e-02
7.358142733573913574e-02
9.541740268468856812e-02
-1.416733264923095703e-01
-1.946164853870868683e-02
2.170604467391967773e-02
3.005453385412693024e-02
-1.992977112531661987e-01
1.218919083476066589e-01
1.520245373249053955e-01
7.825702428817749023e-02
1.137320846319198608e-01
-6.556104868650436401e-02
-2.547363517805933952e-03
-2.710667625069618225e-02
1.011462789028882980e-02
-1.616193354129791260e-02
-1.026751473546028137e-03
-5.536712706089019775e-02
3.709692507982254028e-02
1.865732856094837189e-02
-1.624131016433238983e-02
-5.065544694662094116e-02
-1.020499318838119507e-01
-4.331625998020172119e-02
4.222650453448295593e-02
-4.957590624690055847e-02
2.974818088114261627e-02
4.100161418318748474e-02
7.261569052934646606e-02
6.639013439416885376e-02
-2.582058683037757874e-02
-6.572265923023223877e-02
-2.082250639796257019e-02
-1.026117578148841858e-01
-3.494791686534881592e-02
-1.895523816347122192e-02
-3.985445201396942139e-02
8.096606284379959106e-02
-6.797653157263994217e-03
5.235317349433898926e-02
1.593495160341262817e-01
-1.850641332566738129e-02
5.744520947337150574e-02
-2.738791331648826599e-02
-1.273201107978820801e-01
-1.430964190512895584e-02
9.102281183004379272e-02
1.336783617734909058e-01
7.276591658592224121e-02
7.851701229810714722e-03
6.521379202604293823e-02
1.434965133666992188e-01
3.857888281345367432e-02
-9.636675566434860229e-02
-6.369055062532424927e-02
-1.212580204010009766e-01
1.115017682313919067e-01
-1.240580007433891296e-01
-8.220943063497543335e-02
-2.744540758430957794e-02
-2.195257507264614105e-02
-4.404224082827568054e-02
3.810892626643180847e-02
3.498407825827598572e-02
5.589111894369125366e-02
-1.529298070818185806e-02
1.406561583280563354e-01
1.013954058289527893e-01
1.282211113721132278e-02
5.485697835683822632e-02
1.794960349798202515e-02
7.579442858695983887e-02
-8.496771007776260376e-02
1.636342518031597137e-02
8.765652030706405640e-02
3.273871168494224548e-02
-3.417614102363586426e-02
3.563120588660240173e-02
-4.657939542084932327e-03
2.458646148443222046e-02
-4.453814774751663208e-02
-4.119059070944786072e-02
8.134151995182037354e-02
1.260904520750045776e-01
5.854605883359909058e-02
3.929639980196952820e-02
-3.467355668544769287e-02
4.875141754746437073e-02
7.246427983045578003e-02
8.919937908649444580e-02
-6.529635936021804810e-02
2.813846431672573090e-02
-6.588410586118698120e-02
-9.840174019336700439e-02
5.356045812368392944e-02
3.739741817116737366e-02
-4.582794383168220520e-02
6.003436818718910217e-02
8.283787965774536133e-02
-6.670866161584854126e-02
-4.357544705271720886e-02
-2.974772453308105469e-02
-5.938313528895378113e-02
4.680249094963073730e-02
-1.197172030806541443e-01
-4.844596609473228455e-02
1.643015258014202118e-02
-1.399126742035150528e-02
-1.505517680197954178e-02
1.622897572815418243e-02
2.379903942346572876e-02
-2.915111556649208069e-02
-1.116350740194320679e-01
9.411807358264923096e-02
-9.024383872747421265e-02
-7.062131073325872421e-03
-3.817578777670860291e-02
-4.518847912549972534e-03
1.839009076356887817e-01
3.759932145476341248e-02
-1.283796429634094238e-01
-1.069409772753715515e-01
1.914609223604202271e-02
4.511526226997375488e-02
-2.397572994232177734e-02
2.048292011022567749e-01
2.312174066901206970e-03
1.579774729907512665e-02
1.211928203701972961e-02
4.386642575263977051e-02
-5.768330022692680359e-02
-1.237353309988975525e-01
2.516750432550907135e-02
-2.705628052353858948e-02
1.420484390109777451e-02
-2.590801008045673370e-02
-4.345969855785369873e-02
-9.298304468393325806e-02
-8.568418025970458984e-02
8.309786021709442139e-02
-1.714847981929779053e-02
9.927320480346679688e-02
-9.367281198501586914e-02
9.420988149940967560e-03
1.009235382080078125e-01
-5.355582013726234436e-02
4.119442775845527649e-02
1.344853341579437256e-01
3.388575976714491844e-03
-9.551964700222015381e-02
-9.280211478471755981e-02
-9.820114076137542725e-02
-9.548925608396530151e-02
-1.023749541491270065e-02
-1.300755143165588379e-01
6.312379986047744751e-02
1.976641081273555756e-02
-1.461525857448577881e-01
-1.583092729561030865e-03
1.582790613174438477e-01
-7.547376304864883423e-02
-9.246972948312759399e-02
-3.007037332281470299e-03
1.733773387968540192e-02
-7.175771892070770264e-02
-7.346843183040618896e-02
2.293316274881362915e-02
-3.698871005326509476e-03
1.351006627082824707e-01
9.505084902048110962e-02
9.764529764652252197e-02
1.033145841211080551e-02
5.865136533975601196e-02
-7.749947905540466309e-02
2.705178037285804749e-02
-5.098300427198410034e-02
-1.674407124519348145e-01
-7.979517430067062378e-02
-1.137095615267753601e-01
3.551093488931655884e-02
5.931762605905532837e-02
-1.481971144676208496e-01
7.832475751638412476e-02
-4.137327894568443298e-02
9.059891104698181152e-02
4.017626121640205383e-02
4.947395995259284973e-02
9.109507501125335693e-02
5.652048438787460327e-02
-2.869958244264125824e-02
-3.260461986064910889e-02
-9.586852043867111206e-03
-1.485323067754507065e-02
2.990992697959882207e-06
-3.728522220626473427e-03
-2.819537371397018433e-02
8.828996215015649796e-04
7.412660121917724609e-02
-2.206552401185035706e-02
8.252038061618804932e-02
1.096854358911514282e-01
9.811820834875106812e-02
-2.015902660787105560e-02
-5.468125268816947937e-02
-1.223766431212425232e-02
-2.170179039239883423e-02
-2.525156363844871521e-02
1.257396787405014038e-01
3.101861290633678436e-02
-1.392808556556701660e-01
1.258422136306762695e-01
3.894731053151190281e-04
4.124439321458339691e-03
3.672287985682487488e-02
1.354367006570100784e-02
-3.937715664505958557e-03
-5.488782376050949097e-02
-3.845201339572668076e-03
8.653420954942703247e-02
4.907343536615371704e-02
-5.143517628312110901e-02
2.116902917623519897e-01
1.696143299341201782e-02
-4.371511936187744141e-02
4.857767745852470398e-02
1.201510205864906311e-01
3.969294950366020203e-02
-7.865169644355773926e-02
2.887949580326676369e-03
-6.343547999858856201e-02
-7.226591557264328003e-02
1.753922551870346069e-02
1.280105859041213989e-01
-6.287255883216857910e-02
-6.118489801883697510e-02
1.113737374544143677e-01
-1.470951437950134277e-01
1.290839463472366333e-01
6.698378175497055054e-02
5.206811055541038513e-02
6.376188248395919800e-02
-2.787309326231479645e-02
1.928943954408168793e-02
-7.566669583320617676e-02
4.984059371054172516e-03
-4.470274969935417175e-02
1.230204477906227112e-02
6.968434154987335205e-02
-1.270671933889389038e-01
3.184682130813598633e-02
1.511064469814300537e-01
3.477827878668904305e-03
1.196682685986161232e-03
4.735782369971275330e-02
7.010004483163356781e-03
-4.711626097559928894e-02
3.394455835223197937e-02
-9.263692051172256470e-02
-1.375245978124439716e-03
1.369075500406324863e-03
-4.308174178004264832e-02
1.321755629032850266e-02
-3.668218478560447693e-02
1.556984782218933105e-01
4.044558107852935791e-02
3.926581889390945435e-02
-2.197582647204399109e-02
-2.470692060887813568e-02
-1.828694157302379608e-02
-8.606620877981185913e-02
5.963096395134925842e-02
-4.744038358330726624e-02
-5.748489871621131897e-02
5.857003852725028992e-02
2.596846036612987518e-02
3.962981328368186951e-02
2.662334591150283813e-02
5.354797467589378357e-02
-9.156552702188491821e-02
9.534561075270175934e-03
5.484732240438461304e-02
-1.488392986357212067e-02
-7.112735882401466370e-03
4.568643122911453247e-02
-4.041317850351333618e-02
-2.127902209758758545e-02
-9.537481516599655151e-02
-7.312946766614913940e-02
-3.021937608718872070e-02
3.055895492434501648e-02
5.707843974232673645e-02
-1.363200396299362183e-01
-1.642021089792251587e-01
-1.042069718241691589e-01
9.249076992273330688e-02
-1.187443062663078308e-01
-1.205236837267875671e-01
-3.969495743513107300e-02
-1.118493229150772095e-01
-4.592161253094673157e-02
1.619457453489303589e-02
-4.842302761971950531e-03
-4.822979122400283813e-02
1.596430987119674683e-01
1.520598190836608410e-03
9.209492243826389313e-03
7.256954908370971680e-03
-8.492670208215713501e-02
2.377001941204071045e-02
-8.120147511363029480e-03
-1.850188337266445160e-02
9.217633306980133057e-02
5.466876924037933350e-02
3.445450961589813232e-02
-2.450475236400961876e-03
2.248916216194629669e-02
8.849610388278961182e-02
1.816466636955738068e-02
-1.110786665230989456e-02
7.480494678020477295e-02
-4.594465345144271851e-02
1.683435738086700439e-01
-9.644418954849243164e-02
2.367339283227920532e-02
-3.872935101389884949e-02
1.351487590000033379e-03
-2.215262688696384430e-02
-3.951843455433845520e-02
8.894330263137817383e-02
5.502986535429954529e-02
-4.783949628472328186e-02
6.699091941118240356e-02
3.050037892535328865e-03
1.642149835824966431e-01
1.866841875016689301e-02
3.974261134862899780e-02
-1.301771588623523712e-02
-3.313420340418815613e-03
3.142172843217849731e-02
1.214708946645259857e-02
1.023422628641128540e-01
1.352982372045516968e-01
6.068687071092426777e-04
1.771129854023456573e-02
-1.117846593260765076e-01
-1.053833737969398499e-01
-1.356036961078643799e-02
2.079775184392929077e-02
-3.841386362910270691e-02
8.914064615964889526e-02
1.782784312963485718e-01
-1.161830201745033264e-01
7.080835103988647461e-02
9.269545972347259521e-02
3.447147458791732788e-02
-7.718088477849960327e-02
7.100903987884521484e-02
4.363277927041053772e-02
8.958971500396728516e-02
1.665766835212707520e-01
-1.001582518219947815e-01
4.652321338653564453e-02
1.212408766150474548e-02
1.439054496586322784e-03
1.200519278645515442e-01
3.775393962860107422e-02
1.068220883607864380e-01
1.451907753944396973e-01
-2.836810797452926636e-02
-5.618458148092031479e-03
3.874746710062026978e-02
-8.750373870134353638e-02
5.686438828706741333e-02
4.318432882428169250e-02
-8.636571466922760010e-02
3.804797679185867310e-02
9.041088633239269257e-03
1.487256865948438644e-02
-9.984727948904037476e-04
1.047196090221405029e-01
-4.624041914939880371e-02
1.525351852178573608e-01
6.478362251073122025e-03
-1.336006373167037964e-01
-3.929548710584640503e-02
-2.047305256128311157e-01
-5.685254558920860291e-02
2.792116021737456322e-03
-1.418332196772098541e-02
-4.360843077301979065e-02
4.959922656416893005e-02
-5.490358546376228333e-02
-6.073738262057304382e-02
-2.101111412048339844e-02
-2.238577697426080704e-03
1.763253062963485718e-01
-7.933244109153747559e-02
-6.255706772208213806e-03
9.622148424386978149e-02
7.281044125556945801e-02
1.045288424938917160e-02
-1.492661796510219574e-02
7.419816218316555023e-03
-1.121301129460334778e-01
-2.136309817433357239e-02
-1.920576579868793488e-02
9.560590982437133789e-02
1.073296442627906799e-01
1.874263957142829895e-02
8.156694471836090088e-02
-5.984598770737648010e-02
5.044667795300483704e-02
-8.372387848794460297e-03
5.485636368393898010e-02
7.922895252704620361e-02
-3.212156938388943672e-03
4.397659376263618469e-02
-4.767801985144615173e-02
-7.995534688234329224e-03
-6.303893774747848511e-02
-1.015524491667747498e-01
-1.171437799930572510e-01
6.272006779909133911e-02
4.358476027846336365e-02
1.488763689994812012e-01
-6.267231702804565430e-02
1.393327564001083374e-01
5.124793201684951782e-02
-4.748764634132385254e-02
-5.084313079714775085e-02
-2.497136965394020081e-02
1.529517918825149536e-01
2.675293013453483582e-02
-1.062504947185516357e-01
-8.844362944364547729e-02
5.466486141085624695e-02
1.129532456398010254e-01
-2.638917975127696991e-02
-1.983514055609703064e-02
-6.396543979644775391e-02
-2.802183665335178375e-02
2.728443406522274017e-02
-3.432603552937507629e-02
9.565172716975212097e-03
2.918963506817817688e-02
-9.539841115474700928e-02
4.545889794826507568e-03
-4.997324943542480469e-02
4.127075150609016418e-02
-1.417225925251841545e-03
9.011540561914443970e-02
2.249657921493053436e-02
-2.140569873154163361e-02
8.126801252365112305e-02
2.592965401709079742e-02
1.813351409509778023e-03
-5.002841353416442871e-04
3.066493198275566101e-02
4.537681490182876587e-02
8.076327294111251831e-02
-8.085837960243225098e-02
2.294497971888631582e-04
1.411203294992446899e-01
2.320813387632369995e-02
3.242357075214385986e-02
1.031011622399091721e-02
1.712799258530139923e-02
1.122098043560981750e-01
-5.683085322380065918e-02
2.440824359655380249e-02
4.472617805004119873e-02
2.547508105635643005e-02
8.886498212814331055e-02
1.296990513801574707e-01
-1.443117111921310425e-01
7.795149087905883789e-02
-9.352081269025802612e-02
-5.057187378406524658e-02
1.024858504533767700e-01
2.441816776990890503e-02
-5.429549515247344971e-02
2.363856285810470581e-01
2.826979756355285645e-01
7.739288359880447388e-02
-1.292214989662170410e-01
1.101528033614158630e-01
4.138809815049171448e-02
-7.464864850044250488e-02
-1.527564674615859985e-01
-8.803305099718272686e-04
8.535595983266830444e-02
-1.374733597040176392e-01
-8.929857611656188965e-02
-6.368733197450637817e-02
1.348892301321029663e-01
-1.661575287580490112e-01
1.532768905162811279e-01
-1.527902930974960327e-01
3.965082764625549316e-02
-2.774895913898944855e-02
5.513851717114448547e-02
6.606572121381759644e-02
-1.781368553638458252e-01
1.289585828781127930e-01
-2.116198651492595673e-02
9.968879073858261108e-02
3.150091692805290222e-02
1.013914421200752258e-01
-1.332102417945861816e-01
-8.889428526163101196e-02
-9.540043771266937256e-02
7.906219363212585449e-02
1.535329222679138184e-01
6.447871774435043335e-02
-2.179837524890899658e-01
1.606092005968093872e-01
5.683887284249067307e-03
-2.771474234759807587e-02
-3.339631948620080948e-03
2.208056151866912842e-01
-7.018988579511642456e-02
-5.872076377272605896e-02
-5.868078395724296570e-02
-1.112835668027400970e-02
1.982463896274566650e-02
1.828917115926742554e-02
7.078947126865386963e-02
-3.538982197642326355e-02
-1.190033331513404846e-01
4.245039541274309158e-03
3.124606609344482422e-01
-2.338557839393615723e-01
3.926001191139221191e-01
1.081306785345077515e-01
2.289629727602005005e-02
-1.113432124257087708e-01
1.828704327344894409e-01
-1.859709620475769043e-01
4.243675619363784790e-02
-1.265665143728256226e-01
1.833824962377548218e-01
-5.885254591703414917e-02
8.144817501306533813e-02
-2.441826909780502319e-01
7.360200583934783936e-02
-2.287990786135196686e-02
1.055772602558135986e-02
9.590997546911239624e-02
-8.871271461248397827e-02
8.682460337877273560e-02
1.930018365383148193e-01
-5.557924136519432068e-02
2.706012874841690063e-02
-6.170770525932312012e-02
-7.596533745527267456e-02
-3.690842539072036743e-02
3.955127298831939697e-02
-2.117649763822555542e-01
5.724139511585235596e-02
-5.071269813925027847e-03
9.080342203378677368e-02
2.814061641693115234e-01
-1.594358682632446289e-01
-8.344057202339172363e-02
-1.963657736778259277e-01
-1.934037208557128906e-01
5.024552717804908752e-02
-2.518188953399658203e-01
-2.725983783602714539e-02
8.594431728124618530e-02
3.176181763410568237e-02
1.152384653687477112e-01
-1.288009732961654663e-01
5.466480180621147156e-02
4.349195957183837891e-02
2.928254427388310432e-03
1.174615621566772461e-01
2.187654748558998108e-02
-5.076721776276826859e-03
1.102447658777236938e-01
8.755597472190856934e-02
3.669635951519012451e-02
-1.168607473373413086e-01
2.695908546447753906e-01
-2.449629008769989014e-01
7.020272314548492432e-02
-5.928942188620567322e-02
3.293763399124145508e-01
9.710892103612422943e-03
-2.417193055152893066e-01
-1.257725059986114502e-02
7.929448783397674561e-02
1.253633201122283936e-01
-1.640525460243225098e-01
1.201783567667007446e-01
9.086228162050247192e-02
1.222420576959848404e-02
-1.987256854772567749e-02
-2.272808253765106201e-01
-2.300857007503509521e-02
8.137490600347518921e-02
-2.774747274816036224e-02
1.433810498565435410e-02
-1.355502456426620483e-01
-3.373175561428070068e-01
-9.721893072128295898e-02
-1.080338582396507263e-01
1.371960341930389404e-01
-1.560712307691574097e-01
1.105308383703231812e-01
-7.981505990028381348e-02
8.197227492928504944e-03
-1.220991313457489014e-01
6.879432499408721924e-02
-9.253714233636856079e-02
-1.695314794778823853e-01
1.039111986756324768e-01
3.412662073969841003e-02
2.830989658832550049e-02
1.281486600637435913e-01
-6.734307110309600830e-02
-5.876100435853004456e-02
1.142363399267196655e-01
1.393373757600784302e-01
3.846200183033943176e-02
1.978095769882202148e-01
-7.285962253808975220e-02
1.637490540742874146e-01
1.711331121623516083e-02
3.351445542648434639e-03
9.731643646955490112e-02
1.527716517448425293e-01
9.668515995144844055e-03
-1.602621749043464661e-02
4.553717002272605896e-02
2.997672259807586670e-01
2.323582395911216736e-02
3.639911068603396416e-03
1.554141640663146973e-01
-1.795228384435176849e-02
-1.182040572166442871e-01
-1.652463376522064209e-01
-1.513486802577972412e-01
3.132873028516769409e-02
-1.140099838376045227e-01
-3.928185254335403442e-02
2.454775720834732056e-01
-3.881635144352912903e-02
1.742178648710250854e-01
1.018587797880172729e-01
-4.477563872933387756e-02
5.550287663936614990e-02
9.098891168832778931e-02
6.773272901773452759e-02
3.722664667293429375e-03
5.726628005504608154e-02
-5.745373293757438660e-02
-1.099291890859603882e-01
5.343853235244750977e-01
2.259576134383678436e-02
-7.710827887058258057e-02
-5.242045503109693527e-03
-1.378926485776901245e-01
-1.925089210271835327e-02
-4.351432248950004578e-02
4.880371317267417908e-02
7.378309220075607300e-02
2.481819540262222290e-01
8.415425568819046021e-02
-1.071723997592926025e-01
-7.908167690038681030e-02
5.389682948589324951e-02
-1.486116945743560791e-01
8.796443790197372437e-02
5.027333647012710571e-02
2.786725573241710663e-02
-1.816729456186294556e-02
-1.763448566198348999e-01
-4.180860146880149841e-02
-1.934286355972290039e-01
-1.875414997339248657e-01
4.624844342470169067e-02
1.360389683395624161e-02
-6.847774982452392578e-02
1.458114851266145706e-02
9.700161218643188477e-02
1.406619101762771606e-01
-1.986162215471267700e-01
-1.749613434076309204e-01
-1.934123784303665161e-01
6.177664268761873245e-03
-1.971309185028076172e-01
1.208088546991348267e-01
-1.485522836446762085e-01
-1.404896974563598633e-01
-1.137822028249502182e-02
3.856518073007464409e-03
8.371844887733459473e-02
1.227603033185005188e-01
-3.112513013184070587e-02
-4.281353205442428589e-02
-1.695225536823272705e-01
-7.250736653804779053e-02
6.190067529678344727e-02
3.767795860767364502e-02
-3.827726235613226891e-03
-1.933853141963481903e-02
2.161062806844711304e-01
1.249292120337486267e-01
-5.828570947051048279e-02
7.206049561500549316e-02
1.559454854577779770e-02
1.502057611942291260e-01
1.833389550447463989e-01
1.617495864629745483e-01
1.862814128398895264e-01
-1.067474782466888428e-01
-2.406694293022155762e-01
-3.225342929363250732e-02
-7.191768288612365723e-02
6.909839063882827759e-02
2.313702134415507317e-03
-5.265948548913002014e-02
2.638031914830207825e-02
-1.281903684139251709e-01
1.721901893615722656e-01
4.467482864856719971e-02
-2.446724101901054382e-03
-6.305836141109466553e-02
-1.067308038473129272e-01
3.460297584533691406e-01
-5.959536135196685791e-02
1.202852055430412292e-01
9.260412305593490601e-03
-2.369744777679443359e-01
-4.977993294596672058e-02
1.542448103427886963e-01
1.447966098785400391e-01
-1.130601391196250916e-01
1.534492243081331253e-02
2.628159150481224060e-02
-1.555413156747817993e-01
1.544768810272216797e-01
-1.618257537484169006e-02
1.081478521227836609e-01
-1.595638692378997803e-02
3.241997957229614258e-01
-4.714411869645118713e-02
-7.806327939033508301e-02
5.149167403578758240e-02
1.245953142642974854e-01
-1.075533032417297363e-02
1.090046614408493042e-01
1.125629022717475891e-01
-2.433704398572444916e-02
-8.398260921239852905e-03
2.050169408321380615e-01
-1.661537401378154755e-02
6.218772009015083313e-02
7.887522131204605103e-02
1.113482713699340820e-01
6.790788471698760986e-02
9.313092380762100220e-02
-1.213857084512710571e-01
-2.003780566155910492e-02
6.088709086179733276e-02
-1.227516755461692810e-01
1.170346513390541077e-01
2.165936119854450226e-02
9.147096425294876099e-03
-2.076585739850997925e-01
-1.227184906601905823e-01
-7.950432598590850830e-03
-7.849370688199996948e-02
-9.223456494510173798e-03
-3.413160517811775208e-02
7.831460982561111450e-02
-8.338981121778488159e-02
-3.272117674350738525e-02
6.548700481653213501e-02
3.243886828422546387e-01
1.110183373093605042e-01
8.379034698009490967e-02
2.822828590869903564e-01
6.625279039144515991e-02
-2.263075113296508789e-01
-1.307061612606048584e-01
-4.894094169139862061e-02
-7.120222598314285278e-02
2.880970835685729980e-01
-1.814478822052478790e-02
1.592330820858478546e-02
9.586904942989349365e-02
-9.950008243322372437e-02
1.108143851161003113e-01
2.242964804172515869e-01
-8.006974309682846069e-02
9.823509305715560913e-02
-7.298410683870315552e-02
2.332173474133014679e-02
-8.890654146671295166e-02
-1.518789231777191162e-01
4.144590348005294800e-02
-7.896535843610763550e-02
-8.350863307714462280e-02
9.607061743736267090e-02
1.372950226068496704e-01
-3.391254246234893799e-01
-1.954152481630444527e-03
1.231699511408805847e-01
-1.322871148586273193e-01
-1.201906204223632812e-01
3.033072315156459808e-02
-1.486372947692871094e-01
-3.198026716709136963e-01
-4.603346064686775208e-02
1.192983016371726990e-01
