2.485477179288864136e-02
-8.458596467971801758e-02
1.298647560179233551e-02
-7.595125585794448853e-02
-4.830210283398628235e-02
-1.361204683780670166e-01
7.002092152833938599e-02
-4.366830736398696899e-02
-2.083811461925506592e-01
-1.651085913181304932e-02
-1.167547926306724548e-01
-1.054201647639274597e-01
-1.169519275426864624e-01
-4.773830994963645935e-03
-9.762769192457199097e-02
9.439563378691673279e-03
-4.976677149534225464e-02
1.967539638280868530e-02
-6.039933487772941589e-02
-4.929223284125328064e-02
9.316954761743545532e-03
1.284028403460979462e-02
-3.337019821628928185e-03
-8.655337989330291748e-02
-4.097966477274894714e-02
-4.366214200854301453e-02
1.505702361464500427e-02
1.115883234888315201e-02
-4.125584289431571960e-02
-7.646214216947555542e-02
1.390970312058925629e-02
-3.622020781040191650e-02
-3.634952381253242493e-02
-2.346609905362129211e-02
2.264797501266002655e-02
-4.975819587707519531e-02
-8.369047194719314575e-02
-5.670126155018806458e-02
1.203337218612432480e-02
-3.961874544620513916e-02
-2.968760579824447632e-02
9.894016198813915253e-03
-1.111738458275794983e-01
3.173300996422767639e-02
-8.569337427616119385e-03
-1.475079357624053955e-01
-1.648724079132080078e-01
-5.658288951963186264e-03
-3.019535169005393982e-02
-2.919685468077659607e-02
-9.298189729452133179e-02
3.385988995432853699e-02
-1.779399812221527100e-01
-6.709219515323638916e-02
-1.197653077542781830e-02
-6.313789635896682739e-02
-2.596953324973583221e-02
-5.472159758210182190e-02
-8.658289909362792969e-02
-3.085133619606494904e-02
3.478460013866424561e-02
-6.215490028262138367e-02
-1.198333129286766052e-01
-1.997238211333751678e-02
-4.463318362832069397e-02
-6.477838009595870972e-02
-1.637828908860683441e-02
-2.024981565773487091e-02
1.031515188515186310e-02
-3.189888969063758850e-02
-6.230165064334869385e-02
-7.734889537096023560e-02
-3.043491765856742859e-02
-7.281704246997833252e-02
-6.543380022048950195e-02
-4.289349913597106934e-02
-7.646226882934570312e-02
-7.149422913789749146e-02
-4.421254247426986694e-02
-5.859258398413658142e-02
-3.224296262487769127e-03
-5.867176875472068787e-02
2.214134298264980316e-02
1.390038058161735535e-02
-1.577553898096084595e-01
-2.744629420340061188e-02
-1.788049004971981049e-02
-3.038541413843631744e-02
-3.520125150680541992e-02
-8.336329460144042969e-02
-4.448477551341056824e-02
-5.607253115158528090e-05
-2.716208621859550476e-02
-2.371702156960964203e-02
-4.101610928773880005e-02
6.823731213808059692e-02
-5.814680084586143494e-02
-8.310700207948684692e-02
-2.934800088405609131e-02
-7.710109651088714600e-02
-3.519376739859580994e-03
-3.730778023600578308e-02
-6.423014402389526367e-02
-1.535431444644927979e-01
-5.191658064723014832e-02
-1.543974038213491440e-02
-1.265542302280664444e-02
-1.984636336565017700e-01
2.326342090964317322e-02
8.104931563138961792e-03
1.104790437966585159e-02
-9.675034135580062866e-02
-9.669509530067443848e-02
-3.320300206542015076e-02
7.761836517602205276e-03
-8.504106104373931885e-02
-1.764598488807678223e-01
-6.790055334568023682e-02
1.984132081270217896e-02
-1.598261892795562744e-01
-3.893584012985229492e-02
1.970419101417064667e-02
7.119114510715007782e-03
-2.701996825635433197e-02
-1.491693109273910522e-01
-2.042757533490657806e-02
-7.416725903749465942e-02
8.694622665643692017e-03
