6.649608910083770752e-02
-3.090313402935862541e-03
-1.918694935739040375e-02
4.122984595596790314e-03
-5.939740315079689026e-02
-7.267663627862930298e-02
-1.051510274410247803e-01
8.999796211719512939e-02
2.195926615968346596e-03
-7.638456299901008606e-03
7.211567461490631104e-02
5.002644285559654236e-02
2.718927897512912750e-02
-1.208205893635749817e-02
-2.703661844134330750e-02
-4.868884384632110596e-02
-2.147185616195201874e-02
-1.282145678997039795e-01
-9.414856880903244019e-02
6.862343288958072662e-03
3.283040225505828857e-02
1.195662003010511398e-02
-4.179068375378847122e-03
1.336535904556512833e-02
5.554427579045295715e-02
4.225809872150421143e-02
2.806855365633964539e-03
-3.593149012885987759e-04
1.906225271522998810e-02
6.850935053080320358e-03
2.499460242688655853e-03
2.081581763923168182e-02
-3.797115013003349304e-02
4.839894175529479980e-02
-7.447300944477319717e-03
2.260890603065490723e-02
-1.591721326112747192e-01
-5.055150017142295837e-02
-5.156992934644222260e-03
1.690604910254478455e-02
-2.251269668340682983e-02
4.524369910359382629e-02
-6.035266071557998657e-02
-1.427052170038223267e-02
3.616583719849586487e-02
1.405380014330148697e-02
-5.710202082991600037e-02
-2.691198326647281647e-02
4.984491504728794098e-03
-6.575664132833480835e-02
-5.642095953226089478e-02
3.000740334391593933e-02
1.422701170668005943e-03
-6.527199875563383102e-03
-3.018213249742984772e-02
-9.321863204240798950e-02
6.493291584774851799e-04
3.828178625553846359e-03
-6.597617268562316895e-02
-3.457608073949813843e-02
-3.611209616065025330e-02
5.706292390823364258e-02
1.671771518886089325e-02
2.593354135751724243e-02
-1.810971647500991821e-02
-3.068946674466133118e-02
3.189722821116447449e-02
-7.201312482357025146e-02
4.613621905446052551e-02
4.302366077899932861e-02
1.294514238834381104e-01
9.668763726949691772e-03
1.121562495827674866e-01
3.831574693322181702e-02
-5.461282283067703247e-02
4.640993662178516388e-03
-4.598779231309890747e-02
-2.222110144793987274e-02
6.665448844432830811e-02
-1.373617630451917648e-02
-2.984354272484779358e-02
5.972864455543458462e-04
-2.409526146948337555e-02
-2.110105566680431366e-02
-5.012147501111030579e-02
-6.383039802312850952e-02
-3.269765526056289673e-02
6.184250488877296448e-02
9.158998727798461914e-02
1.365665812045335770e-02
-2.839801460504531860e-02
-3.605032339692115784e-02
-3.505765646696090698e-02
-2.367777749896049500e-02
6.570829451084136963e-02
-2.266549877822399139e-02
-1.656071096658706665e-02
4.292136803269386292e-02
-2.601141482591629028e-02
5.707170814275741577e-02
-5.549692735075950623e-02
-9.937580674886703491e-02
7.910580188035964966e-02
-6.068631075322628021e-03
4.372527822852134705e-02
2.567893639206886292e-02
2.093833871185779572e-02
3.850130364298820496e-02
5.661836825311183929e-03
-8.066850714385509491e-03
-2.737104520201683044e-02
-1.156276091933250427e-01
-1.681469008326530457e-02
4.470456764101982117e-02
5.245553795248270035e-03
-2.354120649397373199e-02
-3.918849676847457886e-02
-7.286728918552398682e-02
-1.006608922034502029e-02
-1.072909906506538391e-01
4.849342629313468933e-02
-3.147502616047859192e-02
3.352105244994163513e-02
1.123813316226005554e-01
6.119609624147415161e-02
-7.649350166320800781e-02
7.542728632688522339e-02
-5.625536292791366577e-02
-4.832599312067031860e-02
-4.941021092236042023e-03
-1.926104351878166199e-02
-7.524264976382255554e-03
5.460320413112640381e-02
-5.150053184479475021e-03
-2.269193530082702637e-02
6.435413379222154617e-03
-1.923399977385997772e-02
-1.936762221157550812e-02
-3.490476310253143311e-02
4.434375092387199402e-02
-7.359371986240148544e-03
4.321542009711265564e-02
2.922355569899082184e-02
2.468076162040233612e-02
7.337066531181335449e-02
5.991603806614875793e-02
1.322315912693738937e-02
-3.663948923349380493e-02
-9.652705490589141846e-02
3.776060044765472412e-02
-3.557046130299568176e-02
-8.920738846063613892e-02
-6.263887882232666016e-02
1.389393769204616547e-02
1.715602353215217590e-02
-5.457134917378425598e-02
7.032931316643953323e-03
1.511116325855255127e-02
-2.244209684431552887e-02
-1.117849051952362061e-01
4.331858456134796143e-02
3.896978124976158142e-02
-2.396048232913017273e-02
-3.778892382979393005e-02
2.309852465987205505e-02
8.342953026294708252e-02
4.109339043498039246e-02
-3.364842385053634644e-02
-9.116451442241668701e-02
-4.697939381003379822e-03
-8.695963770151138306e-03
-1.320181414484977722e-02
-4.026173427700996399e-02
6.553517282009124756e-02
-1.243420969694852829e-02
2.394862845540046692e-02
3.191236779093742371e-02
2.853187546133995056e-02
-2.627514069899916649e-03
-1.018227487802505493e-01
7.963671348989009857e-03
-5.146079137921333313e-02
3.990735858678817749e-02
4.144089296460151672e-02
-7.315549254417419434e-02
-9.981936775147914886e-03
6.574696302413940430e-02
-4.399214684963226318e-02
-5.725054070353507996e-02
8.686007559299468994e-02
-3.742144256830215454e-02
-1.015778630971908569e-01
-8.110737428069114685e-03
-1.942654699087142944e-02
-1.354512013494968414e-02
-1.930076442658901215e-02
3.327022865414619446e-02
-3.905994072556495667e-02
-3.662038221955299377e-02
-7.355853170156478882e-02
6.428004056215286255e-02
-1.277617737650871277e-02
-2.259810641407966614e-02
3.928285464644432068e-02
8.637225627899169922e-02
-4.802707117050886154e-03
-8.693019859492778778e-03
-3.533502668142318726e-02
-6.040284410119056702e-02
6.732539087533950806e-02
-1.202640309929847717e-01
3.039321862161159515e-02
4.112499579787254333e-02
4.776814579963684082e-02
1.119458898901939392e-01
-1.650683209300041199e-02
-2.657093293964862823e-02
2.216860419139266014e-03
1.078422367572784424e-02
-1.645489782094955444e-02
4.991718009114265442e-02
5.360089242458343506e-02
7.182230474427342415e-04
-3.931175917387008667e-02
-2.983042737469077110e-03
-3.754986682906746864e-03
-3.591177612543106079e-02
-5.859098955988883972e-02
-4.429636150598526001e-02
-1.848539710044860840e-02
-7.726845890283584595e-02
4.794031754136085510e-02
-5.518724676221609116e-03
-6.579803675413131714e-02
3.222405537962913513e-02
-7.983180135488510132e-02
3.811925277113914490e-02
-5.015163123607635498e-02
-4.470952227711677551e-02
5.477738752961158752e-02
-2.362370863556861877e-02
2.186555229127407074e-02
-8.272804319858551025e-02
-1.029622331261634827e-01
-8.484746329486370087e-03
5.843603610992431641e-02
-1.183434501290321350e-01
-1.980049349367618561e-02
-2.164001390337944031e-02
-7.466571778059005737e-02
3.604614362120628357e-02
2.354034967720508575e-02
4.338927194476127625e-02
2.115972712635993958e-02
1.619575661607086658e-03
-1.079270243644714355e-02
-4.653811827301979065e-02
-7.911058515310287476e-02
-7.064171135425567627e-02
-1.693911664187908173e-02
1.253069788217544556e-01
5.695168394595384598e-03
-7.050519436597824097e-02
6.537852808833122253e-03
2.301705442368984222e-02
-1.194357052445411682e-01
4.671061411499977112e-02
-1.746065765619277954e-01
-7.403738051652908325e-02
1.538233738392591476e-02
3.843266144394874573e-02
6.573160737752914429e-02
2.554586529731750488e-02
3.708669170737266541e-02
-1.069729328155517578e-01
-3.642281144857406616e-02
1.820908486843109131e-02
3.864108026027679443e-02
-5.646755546331405640e-02
7.197817321866750717e-03
5.566079914569854736e-02
-4.576374962925910950e-02
-7.115243375301361084e-02
9.331098198890686035e-02
-2.855004277080297470e-03
3.462902968749403954e-03
6.170442700386047363e-02
-1.581455394625663757e-02
5.140528455376625061e-02
-1.483792439103126526e-03
4.527024459093809128e-03
-8.765491098165512085e-02
-6.691806018352508545e-02
1.884460099972784519e-03
-1.200527921319007874e-01
1.063193380832672119e-01
-1.080452948808670044e-01
1.693994179368019104e-02
5.136130750179290771e-02
2.494091354310512543e-02
-2.330420538783073425e-02
-9.253427386283874512e-03
-6.050201877951622009e-02
-8.083028346300125122e-02
-1.659343391656875610e-02
-3.836283460259437561e-02
-8.791288360953330994e-03
-6.914583593606948853e-02
-3.717406466603279114e-02
-5.431575700640678406e-02
1.290620677173137665e-02
-1.264215353876352310e-02
-2.232551202178001404e-02
-2.312482567504048347e-03
-1.689574419287964702e-04
-6.322889029979705811e-02
-3.712100163102149963e-02
-6.903292983770370483e-02
4.218573495745658875e-02
-5.547470971941947937e-02
-5.985050648450851440e-02
-3.590271994471549988e-02
5.660023912787437439e-02
4.523141682147979736e-02
-1.333398744463920593e-02
-3.834723308682441711e-02
-5.094131082296371460e-02
2.798441983759403229e-02
-4.773297905921936035e-02
-2.539052255451679230e-02
1.126280426979064941e-02
-2.588368952274322510e-02
-4.458013176918029785e-02
-1.420056354254484177e-02
4.643534868955612183e-02
-1.758658513426780701e-02
2.668584510684013367e-02
-6.671087443828582764e-02
-3.161758184432983398e-02
-5.610531568527221680e-02
-7.566030137240886688e-03
2.794634550809860229e-02
-6.527442485094070435e-02
-5.235386267304420471e-02
1.421522442251443863e-02
-6.608135066926479340e-03
-2.969849482178688049e-02
4.154921695590019226e-02
-2.035524137318134308e-02
1.518197730183601379e-02
-1.019576564431190491e-01
-7.298738346435129642e-04
3.262601047754287720e-02
1.507958583533763885e-02
-4.666488245129585266e-02
-2.117850072681903839e-02
4.712745919823646545e-02
3.636495210230350494e-03
-8.389277756214141846e-02
3.907923027873039246e-02
-8.407375961542129517e-02
4.218549281358718872e-02
-3.092755936086177826e-02
1.906732842326164246e-02
3.853379189968109131e-02
-2.039076387882232666e-02
-6.497581303119659424e-02
9.720241278409957886e-02
-4.900615289807319641e-02
9.190307930111885071e-03
-1.806788891553878784e-02
2.287368103861808777e-02
7.234804332256317139e-02
1.732693612575531006e-02
-1.107100844383239746e-01
1.216549277305603027e-01
3.190449997782707214e-02
-1.718631386756896973e-02
-8.802940696477890015e-02
-1.157443132251501083e-02
1.313683390617370605e-01
4.917163401842117310e-02
-1.341559588909149170e-01
1.437073498964309692e-01
-3.221324458718299866e-02
5.237211659550666809e-02
-1.583127304911613464e-02
-3.898853063583374023e-02
2.315276768058538437e-03
2.237073145806789398e-02
-1.980953663587570190e-02
2.634232118725776672e-02
6.400004774332046509e-02
5.155417136847972870e-03
4.397055134177207947e-02
-1.053068041801452637e-01
3.724363818764686584e-02
-3.038035705685615540e-02
8.954337798058986664e-03
3.330986946821212769e-02
2.023798786103725433e-02
9.335137903690338135e-02
2.247057668864727020e-02
2.907090121880173683e-03
-2.897454984486103058e-02
1.105329673737287521e-02
3.848831355571746826e-02
-5.160193145275115967e-02
2.524957992136478424e-02
6.250545382499694824e-02
-5.123962461948394775e-02
7.511568069458007812e-02
-9.232962504029273987e-03
1.735187321901321411e-02
-5.843817070126533508e-02
9.130468592047691345e-03
4.889968782663345337e-02
-1.389663852751255035e-02
-1.436862628906965256e-02
-5.967592075467109680e-02
5.326725915074348450e-02
4.102819412946701050e-02
-1.864126510918140411e-02
-7.243075221776962280e-02
-5.855049937963485718e-02
1.018745824694633484e-01
-2.938781864941120148e-02
-6.407054513692855835e-02
2.555160038173198700e-02
1.798498816788196564e-02
3.712983801960945129e-02
-6.259802728891372681e-02
-9.892005473375320435e-02
-5.709426850080490112e-02
5.616553127765655518e-02
-2.541939355432987213e-02
1.399732567369937897e-02
9.277304634451866150e-03
-2.443061023950576782e-02
1.441573165357112885e-02
4.558832198381423950e-02
-1.533559896051883698e-02
3.409292921423912048e-02
3.924719244241714478e-02
1.263693906366825104e-02
3.573636338114738464e-02
1.663535647094249725e-02
3.663400420919060707e-03
-8.422876894474029541e-02
-6.378229241818189621e-03
7.341857254505157471e-02
-4.797833785414695740e-02
3.095626272261142731e-02
-8.965612389147281647e-03
-4.069930687546730042e-02
-4.169590305536985397e-03
4.202551394701004028e-02
-9.372480958700180054e-02
-3.595982445403933525e-03
-2.087560668587684631e-02
-8.133194595575332642e-02
-1.978926919400691986e-02
-6.506032496690750122e-02
-6.735001504421234131e-02
1.116768792271614075e-01
-2.827603369951248169e-02
1.438247878104448318e-02
3.122190572321414948e-02
1.688677631318569183e-02
-3.067611716687679291e-02
-2.808172212098725140e-05
7.294240593910217285e-02
-8.986427634954452515e-02
-2.487493678927421570e-02
-3.839034959673881531e-02
-9.794001281261444092e-02
-4.059701785445213318e-02
-2.911625616252422333e-02
-1.403015702962875366e-01
-4.326120018959045410e-02
2.343258075416088104e-02
-1.311366111040115356e-01
6.458277255296707153e-02
-1.742230728268623352e-02
8.028789609670639038e-02
-3.389295935630798340e-02
-7.842073589563369751e-02
9.788536280393600464e-02
-4.906180128455162048e-02
-1.335605792701244354e-02
-3.762214258313179016e-02
-4.009061027318239212e-03
2.320532314479351044e-02
-1.318888273090124130e-02
5.561716854572296143e-03
-2.108941599726676941e-02
-2.736649103462696075e-02
-1.739429682493209839e-02
-6.925239413976669312e-02
-4.339297860860824585e-02
-2.607923559844493866e-02
6.100013107061386108e-02
8.644519746303558350e-02
1.784224063158035278e-02
-1.149289589375257492e-02
-1.809560693800449371e-02
-1.576250046491622925e-02
6.216775625944137573e-02
-1.124596148729324341e-01
2.117054350674152374e-02
-6.721592694520950317e-02
1.808161102235317230e-02
1.783728227019309998e-02
1.091700047254562378e-02
-2.595355547964572906e-02
5.300244316458702087e-02
-4.727552831172943115e-02
-5.223273485898971558e-02
-4.890047013759613037e-02
1.618982874788343906e-03
-1.953516341745853424e-02
8.012281358242034912e-02
-5.598719790577888489e-02
-2.011355757713317871e-02
-1.165096368640661240e-02
3.530453145503997803e-02
5.004760622978210449e-02
-5.459888372570276260e-03
1.027258462272584438e-03
3.569424524903297424e-02
2.819737419486045837e-02
1.013371441513299942e-02
3.620283445343375206e-03
-1.206209068186581135e-03
6.792057305574417114e-03
-1.599175482988357544e-02
-9.362492710351943970e-03
-1.057107653468847275e-02
7.135527580976486206e-02
4.259651899337768555e-02
-7.040768116712570190e-02
-4.468090366572141647e-03
2.380525320768356323e-02
2.714376710355281830e-02
3.491283953189849854e-02
-3.729099780321121216e-02
3.392175957560539246e-02
-1.511979382485151291e-03
-4.597861692309379578e-02
3.255611285567283630e-02
-3.053895570337772369e-02
1.168802008032798767e-02
2.944486215710639954e-02
5.971863120794296265e-02
-7.178954035043716431e-02
-4.930307343602180481e-02
6.913195364177227020e-03
8.064589649438858032e-02
-2.534631639719009399e-02
-5.622644722461700439e-02
7.368384860455989838e-03
-2.135777287185192108e-02
-4.824905842542648315e-02
7.001233170740306377e-04
-8.717910945415496826e-02
-1.171382740139961243e-01
6.349194049835205078e-02
-1.078448258340358734e-02
2.313682623207569122e-02
-7.456362247467041016e-03
-2.600858174264431000e-02
-4.393117129802703857e-02
6.098535843193531036e-03
4.930901527404785156e-02
-3.871775045990943909e-02
2.342655323445796967e-02
-2.987295389175415039e-02
-7.182024419307708740e-03
-2.697061747312545776e-02
-1.643193699419498444e-02
-1.964954286813735962e-02
3.527497872710227966e-02
4.973213374614715576e-02
-2.526558935642242432e-02
1.290390361100435257e-02
2.721066703088581562e-04
4.826243594288825989e-02
2.778654918074607849e-02
7.369309663772583008e-03
3.436405956745147705e-02
-2.592133544385433197e-02
-3.055944107472896576e-02
-6.367766112089157104e-02
5.353382602334022522e-02
1.132586039602756500e-02
-4.229693859815597534e-02
8.871029131114482880e-03
3.441568464040756226e-02
4.022991284728050232e-02
8.785530179738998413e-02
8.941903710365295410e-03
-1.285169553011655807e-02
3.252588957548141479e-02
-5.691820406354963779e-04
-4.389929119497537613e-03
-2.522037178277969360e-02
-7.688584178686141968e-02
4.401456564664840698e-02
3.430321067571640015e-02
-5.057319626212120056e-02
4.243664816021919250e-02
-9.318645298480987549e-02
3.831379860639572144e-02
-4.417535662651062012e-02
2.971277013421058655e-02
2.039042301476001740e-02
-1.498901098966598511e-02
-2.948097651824355125e-03
3.391991928219795227e-02
3.744790796190500259e-03
-1.800161669962108135e-03
1.150985620915889740e-02
-1.234101317822933197e-02
4.057628661394119263e-02
-2.997950650751590729e-02
-2.596103586256504059e-02
-1.580853946506977081e-02
-2.021936886012554169e-02
5.231288447976112366e-02
-1.002580765634775162e-02
-7.956746034324169159e-03
3.014580905437469482e-02
5.363598838448524475e-02
-8.044897578656673431e-03
-4.556104540824890137e-02
2.622063271701335907e-02
-1.234776433557271957e-02
-1.090534962713718414e-02
5.881905928254127502e-02
-4.327249526977539062e-02
-5.916288867592811584e-02
4.200269654393196106e-02
-1.944742538034915924e-02
8.006129413843154907e-02
-4.297891631722450256e-02
-1.028805971145629883e-02
6.093993037939071655e-02
2.103288657963275909e-02
-4.934060946106910706e-02
1.151580642908811569e-02
-3.418342396616935730e-02
8.814096450805664062e-02
-4.633896052837371826e-02
4.445478320121765137e-02
7.439684867858886719e-02
3.318185731768608093e-02
2.772133611142635345e-02
-7.210648804903030396e-02
-2.543235197663307190e-02
5.578068643808364868e-02
-3.106410987675189972e-02
-2.315087430179119110e-02
2.031414210796356201e-02
2.190345525741577148e-02
-4.818812385201454163e-02
-1.014699693769216537e-02
4.966960847377777100e-02
4.464346170425415039e-02
-4.739326611161231995e-02
-1.661418564617633820e-02
-4.890445247292518616e-02
-8.583008497953414917e-02
2.911412715911865234e-02
-2.118857391178607941e-02
-4.574560374021530151e-02
-7.805706933140754700e-03
-6.122659891843795776e-02
7.718201261013746262e-03
7.053798530250787735e-03
-4.770693555474281311e-02
-1.345713287591934204e-01
6.447364576160907745e-03
6.802801787853240967e-02
-8.224352262914180756e-03
2.110246382653713226e-02
6.476122420281171799e-03
2.185536548495292664e-02
-1.005348656326532364e-02
3.168518841266632080e-02
-2.743512019515037537e-02
2.294312417507171631e-02
2.153428457677364349e-02
-2.614678069949150085e-02
-1.068692468106746674e-02
2.662925980985164642e-02
-8.742496371269226074e-03
3.358684480190277100e-02
2.556042559444904327e-02
-1.627999916672706604e-02
-6.846126168966293335e-03
-2.857366390526294708e-02
-4.932119045406579971e-03
-2.179187722504138947e-02
1.882095262408256531e-02
-3.284633159637451172e-03
-4.722448065876960754e-02
3.213668614625930786e-02
1.753960363566875458e-02
-2.113509364426136017e-02
-1.589157246053218842e-02
5.814642459154129028e-02
4.233497753739356995e-02
7.191739231348037720e-02
2.533295005559921265e-02
1.187680289149284363e-02
1.894141547381877899e-02
7.104628533124923706e-02
3.084214404225349426e-02
-1.100228168070316315e-02
5.585471168160438538e-02
-4.306527599692344666e-02
-3.173860162496566772e-02
-1.917244866490364075e-03
-9.503935463726520538e-03
7.453953847289085388e-03
-4.890964552760124207e-02
1.486882381141185760e-02
-2.809132076799869537e-02
3.134281933307647705e-02
-2.643509395420551300e-02
-1.042685098946094513e-02
2.437362633645534515e-02
-4.163305461406707764e-02
-3.879527747631072998e-02
-3.236655518412590027e-02
-6.015587598085403442e-02
-7.012736052274703979e-02
-1.617670245468616486e-02
-8.956848084926605225e-02
-2.167666144669055939e-02
-1.641664654016494751e-02
-1.601063087582588196e-02
-1.199559718370437622e-01
1.065526753664016724e-01
3.704858571290969849e-02
2.404903760179877281e-03
6.707420106977224350e-03
6.355112046003341675e-02
-2.272561751306056976e-02
3.111668862402439117e-02
2.256875671446323395e-02
-5.259858816862106323e-02
1.161508038640022278e-01
5.321874469518661499e-02
1.901654154062271118e-02
4.996660724282264709e-02
-2.560601755976676941e-02
-8.571775630116462708e-03
-3.914621844887733459e-02
-7.293814420700073242e-02
2.241592667996883392e-02
-2.177129872143268585e-02
3.154885722324252129e-03
3.487098217010498047e-02
-2.396261878311634064e-02
-4.246978834271430969e-02
3.603955497965216637e-03
1.485706120729446411e-02
-4.799212794750928879e-03
1.976829767227172852e-02
-1.717578433454036713e-02
4.520320519804954529e-02
-1.167145930230617523e-02
-1.643807394430041313e-03
-3.879870846867561340e-02
8.230290259234607220e-04
-2.169977687299251556e-02
3.557179123163223267e-02
2.161337807774543762e-02
-2.412109449505805969e-02
-2.381555736064910889e-02
3.110068850219249725e-02
-2.394823543727397919e-02
4.229857027530670166e-02
-2.511844784021377563e-02
-1.213779952377080917e-02
-8.040662109851837158e-02
9.734512306749820709e-03
-4.860528279095888138e-03
-5.655423924326896667e-02
-2.177763171494007111e-02
4.085416346788406372e-02
-5.869622156023979187e-02
1.594267971813678741e-02
5.747953429818153381e-02
-6.861231289803981781e-03
2.708646096289157867e-02
-1.905625499784946442e-02
5.991384852677583694e-03
3.988553956151008606e-02
-2.632139017805457115e-03
-3.137708082795143127e-02
-2.892326377332210541e-02
2.656984329223632812e-02
1.826012879610061646e-02
-4.210788011550903320e-02
2.046570734819397330e-04
4.967972636222839355e-02
1.227721944451332092e-02
2.644625492393970490e-02
-4.640015214681625366e-02
-3.164427727460861206e-02
-1.172195468097925186e-02
5.663419514894485474e-02
-2.422535978257656097e-02
1.065799780189990997e-02
-2.597931213676929474e-02
-3.165754242218099535e-05
5.727149080485105515e-03
1.556897535920143127e-03
3.623232617974281311e-02
-7.914555072784423828e-02
-2.012623287737369537e-02
6.290501914918422699e-03
-5.886009708046913147e-02
-5.107317864894866943e-02
8.853018283843994141e-03
-9.266230277717113495e-03
6.983513478189706802e-03
-9.733323007822036743e-03
-1.127101131714880466e-03
9.635802358388900757e-03
-8.048534393310546875e-03
-2.330302260816097260e-02
-7.331712171435356140e-03
-1.145930029451847076e-02
3.681715950369834900e-02
-4.316119849681854248e-02
-6.149522028863430023e-03
-2.075807005167007446e-02
8.564122021198272705e-03
-1.368785463273525238e-02
-5.375233665108680725e-02
1.957295835018157959e-02
-3.995497245341539383e-04
8.331423997879028320e-02
4.145202692598104477e-03
3.848521411418914795e-02
4.096660763025283813e-02
8.658371120691299438e-02
1.882856339216232300e-02
4.062362760305404663e-02
-3.655260801315307617e-02
-1.649900153279304504e-02
8.531039580702781677e-03
-3.958676382899284363e-02
-9.845707565546035767e-02
-8.025639690458774567e-03
2.042107982560992241e-03
-2.122166939079761505e-02
1.518386695533990860e-02
2.687641605734825134e-02
6.949868053197860718e-03
-7.198985666036605835e-03
-1.587837375700473785e-02
4.800868779420852661e-02
1.851144619286060333e-02
-4.096207395195960999e-02
5.862027034163475037e-02
-3.091673133894801140e-03
-6.603419035673141479e-02
-1.645916141569614410e-02
-4.150548577308654785e-02
2.776024164631962776e-03
-2.447688765823841095e-02
4.345436394214630127e-02
-1.982011133804917336e-03
-1.549430191516876221e-02
-6.290628761053085327e-02
1.748364232480525970e-02
-2.208393998444080353e-02
5.483813583850860596e-03
-3.896228596568107605e-02
-4.407478496432304382e-02
2.202785201370716095e-02
4.491394851356744766e-03
-4.974904283881187439e-02
3.763421624898910522e-02
7.326830923557281494e-02
7.826366275548934937e-02
-1.368696801364421844e-03
3.088552504777908325e-02
-1.541942544281482697e-02
-1.967747509479522705e-02
-3.460405021905899048e-02
-3.540785051882266998e-03
-6.211516261100769043e-02
1.203176216222345829e-03
-8.536848239600658417e-03
1.676489971578121185e-02
-2.581459470093250275e-02
-1.354341674596071243e-02
4.347488656640052795e-02
-7.356594782322645187e-03
3.518375742714852095e-04
1.630771905183792114e-02
-1.007110998034477234e-02
5.760845728218555450e-03
1.376362401060760021e-03
-1.198177691549062729e-02
2.049508504569530487e-02
-2.285732887685298920e-02
4.894179850816726685e-02
1.617061905562877655e-02
-6.240769103169441223e-02
-2.732702717185020447e-02
5.313111841678619385e-02
-3.503147512674331665e-02
-7.930392894195392728e-05
1.523605734109878540e-02
1.645471900701522827e-02
-2.722784876823425293e-02
6.045783311128616333e-02
4.274819418787956238e-02
3.115483559668064117e-02
4.316798970103263855e-02
6.021730974316596985e-02
-3.131675720214843750e-02
7.059075683355331421e-02
-1.964726299047470093e-02
-2.424203418195247650e-02
1.438519917428493500e-02
-3.289359435439109802e-02
1.197165902704000473e-02
-1.405680086463689804e-03
-2.786693722009658813e-02
-4.037932679057121277e-02
-3.739246353507041931e-02
-4.740437120199203491e-02
-2.428510226309299469e-02
7.796298246830701828e-03
-2.382774651050567627e-02
7.439252734184265137e-02
2.254553372040390968e-03
1.256095990538597107e-02
-7.405167818069458008e-02
1.020214706659317017e-02
2.298033982515335083e-02
-4.290052875876426697e-02
1.814951933920383453e-02
3.838441520929336548e-02
2.279127389192581177e-02
-2.482745610177516937e-02
-3.748093172907829285e-02
-1.448879297822713852e-02
-5.664584692567586899e-03
-2.385053038597106934e-02
-3.362682834267616272e-02
-4.063634574413299561e-02
4.306733980774879456e-02
1.731118187308311462e-02
2.663784194737672806e-03
1.360350660979747772e-02
4.638895764946937561e-02
-7.399305701255798340e-02
-9.618318639695644379e-03
-7.060391828417778015e-03
-1.363653410226106644e-02
-2.810159325599670410e-02
-1.676004379987716675e-02
-2.137858653441071510e-03
2.425603196024894714e-02
-1.232711039483547211e-02
-1.418457180261611938e-02
-3.069317527115345001e-02
-3.968861699104309082e-02
-4.312074929475784302e-02
2.578847808763384819e-03
6.490314006805419922e-02
-2.461632713675498962e-03
-5.014513805508613586e-02
-2.559051848948001862e-02
4.219610244035720825e-02
2.235073223710060120e-02
-4.340260848402976990e-02
2.212999854236841202e-03
-1.129684783518314362e-02
-2.131199277937412262e-02
-3.699886426329612732e-02
1.189917884767055511e-02
-6.418225914239883423e-02
-4.084564372897148132e-02
-1.585001684725284576e-02
-1.982597075402736664e-02
-7.909456640481948853e-02
9.419460594654083252e-02
-3.992805629968643188e-02
2.823092229664325714e-02
-2.872885018587112427e-02
7.381808012723922729e-02
-2.622353844344615936e-02
-2.761143632233142853e-02
-2.622460946440696716e-02
2.197523042559623718e-02
1.397919282317161560e-02
1.976715587079524994e-02
-5.758246406912803650e-03
-1.440680585801601410e-02
7.760673016309738159e-02
-5.120173469185829163e-02
2.898251637816429138e-02
-5.964430980384349823e-03
-2.052847854793071747e-02
-2.765870280563831329e-02
2.075447887182235718e-02
8.087032474577426910e-03
8.745174109935760498e-02
-1.761236414313316345e-02
-5.204349011182785034e-02
-1.504253782331943512e-02
-3.236375004053115845e-02
1.233118306845426559e-02
6.617541611194610596e-02
3.751949220895767212e-02
7.054829597473144531e-02
1.854272093623876572e-03
7.430748082697391510e-03
-4.667103756219148636e-03
6.091176532208919525e-03
-7.694000750780105591e-02
-1.379936747252941132e-02
-4.013075679540634155e-02
-7.189361844211816788e-03
-2.386699058115482330e-02
-1.154764741659164429e-02
4.503975436091423035e-02
-1.976685971021652222e-02
9.396725147962570190e-02
5.561410263180732727e-02
6.034196168184280396e-02
-1.052616443485021591e-02
2.265049144625663757e-02
3.149323537945747375e-02
9.083253890275955200e-02
2.932453155517578125e-02
5.218507722020149231e-02
-2.028103731572628021e-02
-1.490386575460433960e-02
2.240027673542499542e-02
2.879888936877250671e-02
5.085599049925804138e-02
-4.657606128603219986e-03
-1.025516688823699951e-01
8.071734756231307983e-02
8.439685218036174774e-03
-3.279369324445724487e-02
-9.107104502618312836e-03
-4.082450643181800842e-03
-5.219316110014915466e-02
-1.147493836469948292e-03
1.678436994552612305e-02
3.574047237634658813e-02
7.759961299598217010e-03
-2.957729622721672058e-02
-5.057114362716674805e-02
7.063429057598114014e-02
-5.905492231249809265e-03
4.253007005900144577e-03
4.477717727422714233e-02
3.670329600572586060e-02
-1.045687962323427200e-02
-7.211163640022277832e-02
-2.778795734047889709e-02
2.255234494805335999e-02
-5.979591608047485352e-02
-1.246522273868322372e-02
-7.560095191001892090e-02
2.288520894944667816e-02
4.335089772939682007e-02
2.047679573297500610e-02
8.652562648057937622e-02
2.355981618165969849e-02
-5.309172440320253372e-03
3.944945335388183594e-02
6.108626723289489746e-03
7.743021100759506226e-02
2.072425000369548798e-02
1.898610964417457581e-02
3.960940614342689514e-02
-8.717771619558334351e-03
-1.497928239405155182e-02
2.605304494500160217e-02
4.936691373586654663e-02
7.299210876226425171e-02
1.241917070001363754e-02
5.876663606613874435e-03
8.134271018207073212e-03
4.812421649694442749e-02
1.299765892326831818e-02
4.516779258847236633e-02
-2.982937172055244446e-02
2.947143651545047760e-02
3.890652954578399658e-02
-1.875411719083786011e-02
-7.287473231554031372e-02
5.487347766757011414e-02
-7.343725860118865967e-02
-2.438619360327720642e-02
3.705758973956108093e-02
2.364980988204479218e-02
-4.025055095553398132e-02
7.178847491741180420e-02
-3.544016927480697632e-02
-1.434641890227794647e-02
5.483230948448181152e-02
8.009740151464939117e-03
-6.414166092872619629e-02
-4.554320126771926880e-02
2.405892498791217804e-02
5.393569543957710266e-02
3.215855360031127930e-02
-6.335140671581029892e-03
1.367284078150987625e-02
-4.755384474992752075e-02
5.487570166587829590e-02
-8.759835362434387207e-02
7.680625468492507935e-02
4.749264940619468689e-02
3.369222953915596008e-02
-4.500570520758628845e-02
5.414175987243652344e-02
2.498172782361507416e-02
4.979451745748519897e-02
-1.446871459484100342e-02
-1.621298864483833313e-02
2.557365223765373230e-02
3.302614390850067139e-02
-9.058180730789899826e-04
2.382227592170238495e-02
1.332525280304253101e-03
3.006994910538196564e-02
-1.290135737508535385e-02
-3.764369338750839233e-02
-1.654397509992122650e-02
1.651906594634056091e-02
7.736581563949584961e-02
5.741199851036071777e-02
1.097322627902030945e-02
-9.646491147577762604e-03
-3.843378275632858276e-02
3.136111423373222351e-02
-8.941038511693477631e-03
5.784024298191070557e-02
1.120953559875488281e-01
1.697699539363384247e-02
4.622126370668411255e-02
-3.940692543983459473e-02
-4.021098464727401733e-02
1.491842698305845261e-02
6.046714633703231812e-02
3.081173449754714966e-02
-3.972583636641502380e-02
-2.618688624352216721e-03
2.093724347651004791e-02
-9.089300036430358887e-02
4.064545501023530960e-03
7.156186550855636597e-02
4.668882489204406738e-02
2.283299155533313751e-02
1.052399910986423492e-02
-2.740408293902873993e-02
3.510037437081336975e-02
2.982632629573345184e-02
7.014587987214326859e-03
-3.193931654095649719e-02
8.442048728466033936e-02
-4.119740333408117294e-03
-5.119898915290832520e-02
2.768544713035225868e-03
3.482699766755104065e-02
-2.650358155369758606e-02
8.958894177339971066e-04
-3.936706855893135071e-02
-1.120517961680889130e-02
-5.652448534965515137e-02
3.490525297820568085e-03
4.962294362485408783e-03
5.643067881464958191e-02
-2.028449811041355133e-02
-4.753473028540611267e-02
-3.455918282270431519e-02
9.060590527951717377e-03
-6.626950949430465698e-02
2.576637640595436096e-02
6.438961252570152283e-03
-4.663231223821640015e-02
5.434184335172176361e-03
1.658592373132705688e-02
1.308638975024223328e-02
9.272595494985580444e-02
2.639582566916942596e-02
-1.673418097198009491e-02
-2.616024762392044067e-02
-1.440994255244731903e-02
-3.295673802495002747e-02
-5.832773819565773010e-02
7.913888990879058838e-02
-4.486826062202453613e-02
4.981340095400810242e-02
-4.139613732695579529e-02
2.741193212568759918e-02
1.006554886698722839e-01
4.649744834750890732e-03
1.049481704831123352e-01
-3.329151496291160583e-02
-1.021937727928161621e-01
-1.814015023410320282e-02
-8.362892270088195801e-02
5.417777597904205322e-02
3.829147666692733765e-02
6.321824621409177780e-03
4.557223618030548096e-02
1.091432347893714905e-01
4.453675448894500732e-02
7.796209305524826050e-02
-3.365673823282122612e-03
-3.677739575505256653e-02
4.824587330222129822e-02
9.340171515941619873e-02
1.068829325959086418e-03
3.336757794022560120e-02
9.978737682104110718e-02
1.010170485824346542e-02
-2.864333987236022949e-02
4.015256185084581375e-03
-2.765839919447898865e-02
1.264236122369766235e-02
-4.924711957573890686e-02
5.467604845762252808e-02
9.872454218566417694e-03
7.427518814802169800e-02
1.389819756150245667e-02
-3.808567672967910767e-02
5.548426415771245956e-03
-5.589687079191207886e-02
1.141415443271398544e-02
2.800964750349521637e-02
-1.012364998459815979e-01
-4.145492985844612122e-02
-1.224157027900218964e-02
-1.763032749295234680e-02
-1.041600201278924942e-02
-1.988232694566249847e-02
-1.042352337390184402e-02
2.355056256055831909e-02
6.231030914932489395e-03
3.252135217189788818e-02
-1.279938872903585434e-02
8.951946347951889038e-02
5.815685261040925980e-03
1.987254805862903595e-02
2.247482165694236755e-02
1.722527854144573212e-02
-6.039343029260635376e-02
1.330948323011398315e-01
-1.712480559945106506e-02
2.463974431157112122e-02
1.113904714584350586e-01
-4.387965798377990723e-02
1.990346238017082214e-02
-5.184932425618171692e-02
-2.914228662848472595e-02
-3.572556376457214355e-02
7.551594823598861694e-02
2.348911017179489136e-02
6.854771822690963745e-02
1.684520952403545380e-02
2.464779466390609741e-02
3.592059947550296783e-04
-1.673757471144199371e-02
4.442382976412773132e-02
-6.615434587001800537e-02
1.220047175884246826e-01
-1.452483385801315308e-01
8.173763751983642578e-02
-2.427796274423599243e-02
-4.483559727668762207e-02
-6.480146199464797974e-02
-8.949898928403854370e-02
7.802470028400421143e-02
2.240021154284477234e-02
6.533762812614440918e-02
1.371883600950241089e-02
-1.871055364608764648e-02
-5.129254981875419617e-02
2.583431079983711243e-02
-1.013414710760116577e-01
-1.479650884866714478e-01
-1.400220114737749100e-02
-1.772105693817138672e-01
-2.980757132172584534e-02
-1.214736923575401306e-01
-2.458611875772476196e-02
2.662609517574310303e-02
-4.860985092818737030e-03
7.193503528833389282e-02
7.000523153692483902e-03
-5.407723784446716309e-02
-2.081225439906120300e-02
7.649828493595123291e-02
-7.082869112491607666e-02
2.264013141393661499e-02
6.512699276208877563e-02
-4.107693955302238464e-02
-3.416136652231216431e-02
1.327982842922210693e-01
8.984520100057125092e-04
-7.223398424685001373e-03
1.330339163541793823e-01
3.468432463705539703e-03
4.107716307044029236e-02
-1.372437225654721260e-03
5.327946692705154419e-02
-1.533612161874771118e-01
-2.757022157311439514e-02
5.114052910357713699e-03
-2.986377850174903870e-02
1.559297926723957062e-02
7.692527770996093750e-02
3.592477366328239441e-02
-4.049183055758476257e-02
-1.157142147421836853e-01
-5.951340869069099426e-02
3.658490255475044250e-02
7.142949104309082031e-02
8.778052777051925659e-02
1.241078078746795654e-01
8.095353841781616211e-02
4.399566352367401123e-02
-8.802933245897293091e-02
5.935812368988990784e-02
3.124684654176235199e-02
-1.841139455791562796e-04
6.970016658306121826e-02
7.349887490272521973e-02
1.358807645738124847e-02
2.461332269012928009e-02
-4.410232976078987122e-02
1.840734295547008514e-02
-7.895489037036895752e-02
-2.098027803003787994e-02
9.055314213037490845e-02
7.536338269710540771e-02
1.167806796729564667e-02
-1.330368220806121826e-01
6.843486800789833069e-03
-2.600766159594058990e-02
-2.027180790901184082e-02
-5.285581201314926147e-02
2.986954711377620697e-02
-3.828683169558644295e-03
1.510641723871231079e-01
3.482535714283585548e-03
-1.229025349020957947e-01
-1.635089330375194550e-02
-6.381940841674804688e-02
3.354106098413467407e-02
-3.415753692388534546e-02
4.253089055418968201e-02
-1.138566341251134872e-02
1.293152123689651489e-01
2.512527815997600555e-02
-2.376238442957401276e-02
1.819161511957645416e-02
4.795766249299049377e-02
4.365417640656232834e-03
-1.304745581001043320e-02
4.756036680191755295e-03
-4.830905050039291382e-02
-1.001254245638847351e-01
1.880345121026039124e-02
-8.697797358036041260e-02
5.028885602951049805e-02
-1.188164856284856796e-02
-1.876638457179069519e-02
-2.499045804142951965e-02
-5.839290842413902283e-02
-2.533696591854095459e-02
-1.002309098839759827e-01
-4.871138930320739746e-02
6.401822715997695923e-02
1.018266826868057251e-01
8.889751136302947998e-02
-4.773556441068649292e-02
-2.170190773904323578e-02
-1.254370659589767456e-01
-3.674787655472755432e-02
7.635208219289779663e-02
7.584961131215095520e-03
-1.874489337205886841e-02
-2.063222602009773254e-02
3.542731329798698425e-02
-7.441426068544387817e-02
-5.887143686413764954e-02
-1.901509910821914673e-01
-1.045382767915725708e-01
-5.383006483316421509e-02
-7.810893654823303223e-02
3.420378640294075012e-02
-7.754217833280563354e-02
4.973804112523794174e-03
6.134149432182312012e-02
-2.502446062862873077e-02
1.739940494298934937e-01
8.541394025087356567e-03
-1.059554293751716614e-01
3.978634253144264221e-02
3.979106247425079346e-02
-6.342791020870208740e-02
7.053704932332038879e-03
7.402662187814712524e-02
7.852336764335632324e-02
-8.956913650035858154e-02
-5.575681477785110474e-02
2.395078353583812714e-02
-2.990839816629886627e-02
-9.925113618373870850e-02
-1.726633906364440918e-01
-1.402634370606392622e-04
1.674349047243595123e-02
-7.417936623096466064e-02
1.213117782026529312e-02
-4.650716204196214676e-03
5.561789870262145996e-02
1.935637742280960083e-02
7.074978202581405640e-02
2.795155905187129974e-02
-1.750488393008708954e-02
7.268966734409332275e-02
7.188236713409423828e-02
-2.289450354874134064e-02
2.051525376737117767e-02
2.343452349305152893e-02
-3.039662353694438934e-02
-8.009035885334014893e-02
-8.257062733173370361e-02
-2.438816241919994354e-02
-1.695436052978038788e-02
1.064567416906356812e-01
3.540324792265892029e-02
-4.937390610575675964e-02
-5.431601032614707947e-02
9.999978542327880859e-02
2.742288634181022644e-02
-5.270944163203239441e-02
6.173664703965187073e-02
-3.527913615107536316e-02
-3.566983714699745178e-02
-1.750079914927482605e-02
-9.127072058618068695e-03
-1.630156859755516052e-02
-6.625366210937500000e-02
6.298875808715820312e-02
1.553086042404174805e-01
-1.392644196748733521e-01
6.208901479840278625e-02
1.246972754597663879e-01
-7.105436176061630249e-02
-1.136015579104423523e-01
-6.924634426832199097e-02
7.783953845500946045e-02
-7.469413802027702332e-03
-5.855309590697288513e-02
2.459231205284595490e-02
-8.720508217811584473e-02
2.144414931535720825e-02
8.387593179941177368e-02
2.889344468712806702e-03
-1.868444308638572693e-02
1.470768004655838013e-01
-9.850221127271652222e-02
-5.131476745009422302e-02
4.126351699233055115e-02
9.175558388233184814e-02
3.883073851466178894e-02
-1.244768500328063965e-01
6.949652452021837234e-03
-1.567157171666622162e-02
-6.498861312866210938e-02
-2.618512604385614395e-03
4.855681955814361572e-02
-6.381522119045257568e-02
-3.013125155121088028e-03
2.038390375673770905e-02
3.090054728090763092e-02
-1.538494378328323364e-01
1.454116590321063995e-02
1.040313020348548889e-01
-1.511622816324234009e-01
-3.996476903557777405e-02
5.200470238924026489e-02
-2.823257446289062500e-02
-8.551740087568759918e-03
-7.209370285272598267e-02
9.557131677865982056e-02
2.379465661942958832e-02
9.661447256803512573e-02
3.038427419960498810e-02
-4.287624731659889221e-02
-9.790428727865219116e-02
2.128354012966156006e-01
-4.298661276698112488e-02
-8.223429322242736816e-02
3.853637352585792542e-02
-9.373132139444351196e-02
-4.116869065910577774e-03
-4.397293925285339355e-02
-1.290369927883148193e-01
-7.294896990060806274e-02
-1.988771185278892517e-02
2.552923047915101051e-03
5.445331707596778870e-02
-3.646932914853096008e-02
5.761514604091644287e-02
-5.649984255433082581e-02
4.795620962977409363e-02
-4.983248561620712280e-02
-7.227769494056701660e-02
6.075566634535789490e-02
4.786092042922973633e-02
-1.424599532037973404e-02
-7.988491654396057129e-02
5.014833435416221619e-02
4.372251220047473907e-03
1.164895445108413696e-01
-1.687848009169101715e-02
1.581743173301219940e-02
-4.202663898468017578e-02
6.097541749477386475e-02
7.986027747392654419e-03
-4.868743196129798889e-02
-5.480972677469253540e-02
-3.250722959637641907e-02
3.279884159564971924e-02
5.743792653083801270e-02
9.080839157104492188e-02
9.662762284278869629e-02
5.223012343049049377e-02
1.652022823691368103e-02
-1.990105211734771729e-02
7.045717537403106689e-02
-4.442124441266059875e-02
-9.130389988422393799e-02
-1.355210840702056885e-01
-8.311804383993148804e-02
-3.196101263165473938e-02
-2.255428023636341095e-02
-9.237273782491683960e-02
-5.504083633422851562e-02
6.411211937665939331e-02
7.704047486186027527e-03
-1.000100970268249512e-01
1.824010349810123444e-02
-8.109547197818756104e-03
2.774291671812534332e-02
9.652056545019149780e-02
9.018510580062866211e-03
-1.885647773742675781e-01
-9.173747152090072632e-03
-1.505494397133588791e-02
-1.413740776479244232e-02
1.223379895091056824e-01
5.849191546440124512e-02
-1.431276798248291016e-01
2.032813616096973419e-02
-7.410707324743270874e-02
3.243828564882278442e-02
8.853625506162643433e-02
1.035797782242298126e-02
-2.921056933701038361e-02
5.420612543821334839e-02
7.754080742597579956e-02
-4.788432270288467407e-02
-1.027127075940370560e-02
-5.029855761677026749e-03
8.170644193887710571e-02
-4.273961856961250305e-02
-5.400209128856658936e-02
7.654652581550180912e-04
-8.298571221530437469e-03
-2.670153742656111717e-03
6.716999341733753681e-04
-6.509051471948623657e-02
1.083613839000463486e-02
-1.398667972534894943e-02
-1.339486688375473022e-01
8.441036194562911987e-02
-2.967218309640884399e-02
1.153979301452636719e-01
-2.270093001425266266e-02
-6.656072568148374557e-03
-8.123851567506790161e-02
8.266829699277877808e-02
-1.214016526937484741e-01
-3.585702553391456604e-02
3.622610494494438171e-02
1.096847727894783020e-01
4.149320721626281738e-02
-3.095681313425302505e-03
-9.437344968318939209e-02
-4.229392856359481812e-02
-6.462656706571578979e-02
1.118710637092590332e-01
-2.514735162258148193e-01
-8.658275753259658813e-02
-5.105106625705957413e-03
-1.730045080184936523e-01
6.219427660107612610e-02
1.218872331082820892e-02
-9.732367843389511108e-02
-2.837035059928894043e-02
2.002009935677051544e-02
1.222765073180198669e-02
-3.694340214133262634e-02
2.716585621237754822e-02
-6.807456910610198975e-02
-1.082924157381057739e-01
-2.863079868257045746e-02
6.073281168937683105e-02
-4.769575968384742737e-02
-9.936577826738357544e-02
9.059084206819534302e-02
-4.033288452774286270e-03
1.390472352504730225e-01
-4.418742842972278595e-03
2.459811791777610779e-02
1.417637569829821587e-03
9.695182740688323975e-02
1.324190851300954819e-02
-1.141514703631401062e-01
7.148043811321258545e-02
-1.377793252468109131e-01
9.545256197452545166e-02
-3.056505462154746056e-03
-5.679179728031158447e-02
3.108544275164604187e-03
-1.530526876449584961e-01
1.054130494594573975e-02
-3.125046566128730774e-02
-1.375039517879486084e-01
3.508676961064338684e-02
-8.725820109248161316e-03
1.947792060673236847e-02
-6.367295980453491211e-02
4.196058586239814758e-02
-3.170381113886833191e-02
-1.164579242467880249e-01
-1.965787261724472046e-01
2.659110166132450104e-02
-1.692592799663543701e-01
1.440204773098230362e-02
-2.571944147348403931e-02
-8.930435776710510254e-02
-4.722542688250541687e-02
4.579705372452735901e-02
3.703749924898147583e-02
-4.729658365249633789e-02
-2.258613146841526031e-02
-8.644910529255867004e-03
-1.126290112733840942e-02
2.019795402884483337e-02
5.811062175780534744e-03
4.438898339867591858e-02
4.448712617158889771e-02
-5.350529775023460388e-02
-1.960053667426109314e-02
-5.658854544162750244e-02
-8.223009109497070312e-02
-1.790917664766311646e-01
-1.300621032714843750e-01
4.191793873906135559e-02
-1.603453792631626129e-02
-3.203811496496200562e-02
3.041350096464157104e-02
-6.679619103670120239e-02
2.498923987150192261e-02
4.343960899859666824e-03
-1.282653538510203362e-03
-5.750961229205131531e-02
-7.644014060497283936e-02
6.486371159553527832e-02
-9.439972788095474243e-02
-4.147357493638992310e-02
-1.499543488025665283e-01
-2.180700749158859253e-02
5.983592942357063293e-03
-2.616276964545249939e-02
5.292481556534767151e-02
-1.111965179443359375e-01
4.558061435818672180e-02
1.707581244409084320e-02
-2.359579503536224365e-02
1.480783969163894653e-01
4.700381681323051453e-02
3.706175088882446289e-02
-3.170769289135932922e-02
5.735785141587257385e-02
-1.052858233451843262e-01
1.115418691188097000e-02
1.739158527925610542e-03
-3.650117665529251099e-02
-5.873277038335800171e-02
-4.597987979650497437e-02
6.519451737403869629e-02
-2.062212117016315460e-02
7.451607286930084229e-02
-2.456783549860119820e-03
-8.029081672430038452e-02
-1.708786748349666595e-02
-8.681450039148330688e-03
-8.608831465244293213e-02
-5.776887759566307068e-02
1.154356971383094788e-01
-1.296449918299913406e-02
-1.890595406293869019e-01
-1.161702424287796021e-01
-1.221678312867879868e-02
-6.449265033006668091e-02
-3.238340839743614197e-02
5.931877531111240387e-03
3.791961446404457092e-02
-8.135728538036346436e-02
-6.948073953390121460e-02
-2.100831829011440277e-02
1.298132091760635376e-01
5.653826892375946045e-02
1.459983084350824356e-02
6.991825252771377563e-02
6.840936373919248581e-03
1.102824509143829346e-02
-2.607915177941322327e-02
-9.364819270558655262e-04
2.352154999971389771e-02
6.841749697923660278e-02
-3.591447696089744568e-02
-1.160136014223098755e-01
-1.082034036517143250e-01
-1.461643353104591370e-02
-1.143492981791496277e-01
4.255288094282150269e-02
1.651486940681934357e-02
-2.741788921412080526e-04
9.387419372797012329e-02
1.667613280005753040e-03
-9.081375598907470703e-02
-1.191748008131980896e-01
6.316666956990957260e-03
8.031141012907028198e-02
-1.708840131759643555e-01
3.381351754069328308e-02
-4.583359137177467346e-02
3.885242342948913574e-02
-1.111767813563346863e-01
6.963513046503067017e-02
-1.079241558909416199e-02
-1.266052573919296265e-01
3.320384025573730469e-02
-1.364929527044296265e-01
-1.377250701189041138e-01
-4.216640442609786987e-02
3.158422932028770447e-02
1.437079347670078278e-02
4.041714221239089966e-02
3.538036486133933067e-03
2.079659700393676758e-02
1.008491516113281250e-01
1.253812573850154877e-03
-1.288232356309890747e-01
-1.973370909690856934e-01
3.245692327618598938e-02
-5.790263414382934570e-02
4.575415700674057007e-02
-6.850318610668182373e-02
-1.358878426253795624e-02
-1.223139390349388123e-01
-1.807607859373092651e-01
1.461717858910560608e-02
5.031489953398704529e-02
-5.437434883788228035e-04
-4.673346877098083496e-02
-2.053408324718475342e-02
4.864833503961563110e-02
-1.301271170377731323e-01
-4.342893511056900024e-02
-1.669070869684219360e-02
3.377358615398406982e-02
8.352609723806381226e-02
5.799178779125213623e-02
-7.320967037230730057e-03
1.349646598100662231e-01
-2.379308268427848816e-02
8.824965357780456543e-02
8.995541930198669434e-02
4.183910787105560303e-02
-1.675991117954254150e-01
-7.172608375549316406e-02
-7.243037223815917969e-02
-2.718275040388107300e-02
-4.977025836706161499e-02
-6.911044567823410034e-02
1.611971668899059296e-02
8.882189542055130005e-02
-1.578777730464935303e-01
-5.620208755135536194e-02
1.984769850969314575e-02
-7.093901932239532471e-02
-5.854192655533552170e-03
-7.111490517854690552e-02
-6.813479959964752197e-02
-7.590246945619583130e-02
-5.144028738141059875e-02
-6.433514505624771118e-02
-9.843239933252334595e-02
-8.598864078521728516e-02
-3.817002102732658386e-02
-1.864587189629673958e-03
-7.142797112464904785e-03
-2.816037833690643311e-02
7.632705569267272949e-02
-1.929941028356552124e-01
-2.944496087729930878e-02
-5.508748069405555725e-02
5.230102688074111938e-02
-1.254246849566698074e-02
-6.195545569062232971e-02
-4.419305920600891113e-02
1.024732831865549088e-02
-5.629915744066238403e-02
6.391037255525588989e-03
-9.625647962093353271e-02
-2.237628214061260223e-02
-3.587651252746582031e-02
-3.355235233902931213e-02
3.749174252152442932e-02
-1.928235590457916260e-02
-1.276577115058898926e-01
-9.501657634973526001e-02
-1.849769987165927887e-02
-1.041388809680938721e-01
2.734301984310150146e-02
1.064257230609655380e-02
1.055812276899814606e-02
9.327070415019989014e-02
-2.462851814925670624e-02
-5.207056645303964615e-03
-9.356693923473358154e-02
-2.162551507353782654e-02
1.002257969230413437e-02
-6.986618787050247192e-02
-2.984547056257724762e-02
9.359740652143955231e-03
-3.132350742816925049e-02
6.998687982559204102e-02
-1.019710898399353027e-01
-2.857400290668010712e-02
1.996875181794166565e-02
1.646608696319162846e-03
-2.028835564851760864e-01
1.357020903378725052e-02
-4.552114754915237427e-02
-5.452013388276100159e-02
-1.078768894076347351e-01
-7.047861069440841675e-02
-2.045947872102260590e-02
1.078771892935037613e-02
5.520080402493476868e-02
2.037037722766399384e-02
1.409597247838973999e-01
4.803874716162681580e-02
-6.914823502302169800e-02
2.102108672261238098e-02
1.154676266014575958e-02
-5.287244915962219238e-03
4.935985431075096130e-02
3.526964783668518066e-02
8.068462461233139038e-02
-1.197260096669197083e-01
-1.659424006938934326e-01
-9.938943386077880859e-02
-2.043947577476501465e-02
-2.969002723693847656e-02
1.641871221363544464e-02
2.036865800619125366e-02
-5.355114117264747620e-03
-1.165924593806266785e-02
-5.850854143500328064e-02
4.163883253931999207e-02
-9.633558988571166992e-02
-1.485732849687337875e-02
-6.934690475463867188e-02
-8.661103248596191406e-02
6.128956377506256104e-02
-4.037130996584892273e-02
-4.296012595295906067e-02
-1.993172764778137207e-01
-2.468115836381912231e-02
-1.249184384942054749e-01
1.390278432518243790e-02
5.294538661837577820e-02
-4.020438715815544128e-02
9.872529655694961548e-02
4.355020821094512939e-03
2.345886640250682831e-02
6.972265243530273438e-02
4.635198414325714111e-02
-1.668575704097747803e-01
-2.651690877974033356e-02
5.641788616776466370e-02
-9.215464442968368530e-02
-8.448316156864166260e-02
-1.428139675408601761e-02
6.905104219913482666e-02
2.710910979658365250e-03
-8.610574528574943542e-03
1.707874611020088196e-02
-8.265192806720733643e-02
6.317270547151565552e-02
5.071077868342399597e-02
1.205545105040073395e-02
-3.959795087575912476e-02
2.070822194218635559e-02
-4.577843844890594482e-02
2.382837235927581787e-02
-7.402016222476959229e-02
-3.303219005465507507e-02
4.242053721100091934e-03
-5.270775407552719116e-02
-1.490098834037780762e-01
-4.671746119856834412e-02
5.614939611405134201e-03
-5.263027176260948181e-02
4.090224578976631165e-02
-9.918563999235630035e-03
-1.486803032457828522e-02
2.873772382736206055e-02
4.112696275115013123e-02
-9.761369228363037109e-02
2.163716033101081848e-02
-7.532376050949096680e-02
-5.098533257842063904e-02
1.884302496910095215e-02
2.210227586328983307e-02
1.357131917029619217e-02
-3.792067617177963257e-02
1.149210520088672638e-02
3.706841543316841125e-02
3.190660849213600159e-02
-6.177142634987831116e-02
-4.996635764837265015e-02
1.126921921968460083e-01
-1.450624503195285797e-02
-1.547305583953857422e-01
7.107722014188766479e-02
4.782624915242195129e-02
-4.364519193768501282e-02
-1.966509521007537842e-01
-7.766042649745941162e-02
1.573142595589160919e-02
-6.682533025741577148e-02
5.883138999342918396e-02
-3.628930822014808655e-02
-6.115627661347389221e-02
7.486112415790557861e-02
7.478275150060653687e-02
-6.875017285346984863e-02
5.179208144545555115e-02
-8.381066471338272095e-02
1.073215063661336899e-02
-1.335301846265792847e-01
-9.927582740783691406e-02
3.782023489475250244e-02
7.762937340885400772e-03
1.276380289345979691e-02
4.919200018048286438e-02
-7.951287180185317993e-02
-8.251524716615676880e-02
6.718273460865020752e-02
6.259334087371826172e-02
8.364354819059371948e-02
-1.161644980311393738e-01
4.572216793894767761e-02
-1.179470568895339966e-01
-2.658553048968315125e-02
3.030730783939361572e-02
-6.960015743970870972e-02
-2.216346748173236847e-02
-2.401629462838172913e-02
3.170816227793693542e-02
-5.232603102922439575e-02
-5.793484300374984741e-02
-9.175117127597332001e-03
-3.794669732451438904e-02
7.845935970544815063e-02
-1.294450927525758743e-02
3.475491702556610107e-02
3.389093279838562012e-02
-1.003697514533996582e-01
7.264920324087142944e-02
3.663654997944831848e-02
-2.123997174203395844e-02
1.691222563385963440e-02
1.598692685365676880e-02
-1.146379020065069199e-02
8.855271339416503906e-02
5.387745797634124756e-02
1.140549406409263611e-01
-5.339371785521507263e-02
4.595130309462547302e-02
1.007415652275085449e-01
-7.890276610851287842e-03
-3.043974563479423523e-02
-1.914322748780250549e-02
-2.580757811665534973e-02
-1.840269751846790314e-02
-8.669657260179519653e-02
7.267455011606216431e-02
2.812849543988704681e-02
7.744774967432022095e-02
-4.747766256332397461e-02
1.159357056021690369e-01
-2.038329653441905975e-02
6.025706231594085693e-02
-3.578024357557296753e-02
-3.481311257928609848e-03
2.473469078540802002e-02
-1.618196256458759308e-02
1.031215190887451172e-01
-1.362999975681304932e-01
-1.891187019646167755e-02
1.695447973906993866e-02
6.443451344966888428e-02
1.577429845929145813e-02
2.387982793152332306e-02
5.139771103858947754e-02
8.404540270566940308e-02
4.868544638156890869e-02
5.929577723145484924e-02
-1.824637502431869507e-02
3.028789907693862915e-02
-4.010803997516632080e-02
2.184329787269234657e-03
-1.438959836959838867e-01
3.015017509460449219e-02
1.111407503485679626e-01
4.618345573544502258e-02
-2.144853919744491577e-01
-4.832169786095619202e-02
5.468601360917091370e-02
-1.217717211693525314e-02
-6.254956871271133423e-02
-5.832628905773162842e-02
2.325308509171009064e-02
-8.649682998657226562e-02
5.363996326923370361e-02
-9.447457268834114075e-03
-5.005459487438201904e-02
-6.195073574781417847e-02
9.308336302638053894e-03
7.410953752696514130e-03
-4.891743510961532593e-02
-4.447436705231666565e-02
-4.292825702577829361e-03
4.568977653980255127e-02
-2.543237432837486267e-02
-2.647234126925468445e-02
7.015831023454666138e-02
1.545965075492858887e-01
1.693680509924888611e-02
3.503250703215599060e-02
-2.610316574573516846e-01
-1.063892692327499390e-01
-3.741277381777763367e-02
8.944056928157806396e-02
5.316535755991935730e-02
-2.520997804822400212e-05
8.596631139516830444e-02
6.376982480287551880e-02
5.671550706028938293e-02
-8.774285763502120972e-02
3.256156295537948608e-02
3.682171925902366638e-02
-8.919118344783782959e-02
-1.766758970916271210e-02
-2.765352092683315277e-02
1.714083366096019745e-02
-1.487917173653841019e-02
3.262881562113761902e-02
1.345786731690168381e-02
-5.698764696717262268e-03
1.531049609184265137e-01
1.259726434946060181e-01
-2.390467375516891479e-02
-1.634469628334045410e-02
4.128291085362434387e-02
-1.301391869783401489e-01
-5.334290489554405212e-02
5.316103994846343994e-02
1.503402143716812134e-01
-5.204048007726669312e-02
2.343391068279743195e-02
9.433827549219131470e-02
7.303575426340103149e-02
3.545153420418500900e-03
6.566005200147628784e-02
1.412860304117202759e-01
1.920934207737445831e-02
-6.140998750925064087e-02
-1.679527387022972107e-02
-2.659106813371181488e-02
5.084879323840141296e-02
1.121553108096122742e-01
-5.325617268681526184e-02
-1.986403390765190125e-02
1.169205084443092346e-02
3.981211036443710327e-02
4.386604949831962585e-02
-1.744034588336944580e-01
-4.699115455150604248e-02
-7.749141752719879150e-02
5.696321278810501099e-02
-7.236286997795104980e-03
-8.092641085386276245e-02
5.117244273424148560e-02
6.353764235973358154e-02
1.271796692162752151e-02
6.279343366622924805e-02
-4.015876725316047668e-02
1.912404745817184448e-01
-1.765625774860382080e-01
3.725876659154891968e-02
-5.660105869174003601e-02
3.296337276697158813e-02
-6.540601700544357300e-02
3.721486032009124756e-02
1.423531491309404373e-02
-2.993607223033905029e-01
1.658307015895843506e-02
-5.236227810382843018e-02
-1.022468414157629013e-02
-6.149725243449211121e-02
8.560742251574993134e-03
-1.720907283015549183e-03
-1.094840466976165771e-01
1.720296591520309448e-01
-2.559441030025482178e-01
5.725163966417312622e-03
2.726975083351135254e-02
-8.447635173797607422e-02
-1.618028134107589722e-01
6.756771355867385864e-02
9.442808805033564568e-04
7.010228186845779419e-02
2.211975492537021637e-02
2.055884525179862976e-02
-2.170594781637191772e-02
-2.219393849372863770e-01
-5.445562768727540970e-03
5.192095041275024414e-02
1.687678098678588867e-01
3.547406941652297974e-02
-3.481835871934890747e-02
-1.117615550756454468e-01
8.138833194971084595e-02
-6.017339974641799927e-02
-1.270497739315032959e-01
7.054693996906280518e-03
4.034009203314781189e-02
8.912324160337448120e-02
4.553604498505592346e-02
-5.643822625279426575e-02
1.145787350833415985e-02
5.495790392160415649e-02
2.881513349711894989e-02
1.184851117432117462e-02
-1.294186711311340332e-01
-2.754818834364414215e-02
-7.388702128082513809e-03
1.581410691142082214e-02
-4.513365682214498520e-03
1.091438829898834229e-01
8.137316256761550903e-02
-6.933147553354501724e-03
-1.135298162698745728e-01
1.601990871131420135e-02
-5.797162279486656189e-02
-6.913337111473083496e-02
1.382593624293804169e-02
2.014899998903274536e-02
-1.701591908931732178e-02
2.215431630611419678e-02
-2.818124182522296906e-02
7.364703714847564697e-02
1.145385652780532837e-01
5.369101464748382568e-02
-1.242141425609588623e-02
1.956965178251266479e-01
8.389423042535781860e-02
-4.134238511323928833e-02
1.457067877054214478e-01
-2.447486296296119690e-02
-2.609935775399208069e-02
5.748059600591659546e-02
-5.878101103007793427e-03
6.662991363555192947e-03
-6.638019531965255737e-02
7.230559736490249634e-02
4.036665707826614380e-02
-4.662964120507240295e-02
-1.701361835002899170e-01
3.311854228377342224e-02
2.031833492219448090e-02
5.042227450758218765e-03
6.025451049208641052e-02
-3.910676017403602600e-02
2.310585230588912964e-02
-7.440427690744400024e-02
7.035589776933193207e-03
-3.993858397006988525e-02
-2.638892084360122681e-02
-2.272976003587245941e-02
2.350448817014694214e-02
-7.959687151014804840e-03
-1.307417452335357666e-01
-2.164884656667709351e-01
9.337645024061203003e-02
-2.223770879209041595e-02
2.480313181877136230e-02
7.813300937414169312e-02
1.010459139943122864e-01
1.314411461353302002e-01
-2.193948067724704742e-02
2.068462222814559937e-02
-3.201160579919815063e-02
5.791587010025978088e-02
2.873208001255989075e-02
-5.225912854075431824e-02
-1.541500352323055267e-02
1.175224259495735168e-01
3.336296603083610535e-02
-8.501209318637847900e-02
2.405285276472568512e-02
5.749532207846641541e-02
2.203812152147293091e-01
-2.424533665180206299e-02
2.931186556816101074e-02
-1.081545464694499969e-02
-1.079986151307821274e-02
-4.846042022109031677e-02
3.637900203466415405e-02
3.397464752197265625e-02
5.627677589654922485e-02
-8.534031361341476440e-02
1.469648778438568115e-01
-6.983358412981033325e-02
1.373912766575813293e-02
1.201298367232084274e-02
2.939627133309841156e-02
-6.330245733261108398e-02
7.976647466421127319e-03
-4.001110047101974487e-02
-2.682856284081935883e-02
7.911233231425285339e-03
6.594882905483245850e-02
-9.424266964197158813e-02
4.962954204529523849e-03
-3.146430850028991699e-02
-2.626294493675231934e-01
-4.147704690694808960e-02
6.948948651552200317e-02
2.623015828430652618e-02
4.224572330713272095e-02
4.901921376585960388e-02
-8.030165731906890869e-02
8.041368797421455383e-03
3.863799571990966797e-02
-1.075430586934089661e-01
-7.752624154090881348e-02
2.809745818376541138e-02
-1.767153665423393250e-02
1.171195507049560547e-01
-5.359294638037681580e-02
-3.039285726845264435e-02
1.868629828095436096e-02
-5.013526231050491333e-02
1.142071746289730072e-02
1.724707335233688354e-02
7.508191466331481934e-02
1.143072471022605896e-01
3.021117672324180603e-02
3.564361110329627991e-02
-2.899803221225738525e-02
9.762331098318099976e-02
-2.984810620546340942e-02
1.062899734824895859e-02
3.804425150156021118e-02
1.365028973668813705e-02
-9.125296957790851593e-03
1.518321968615055084e-02
-5.157173052430152893e-02
-4.569112882018089294e-02
4.743423778563737869e-03
5.284415092319250107e-03
1.246932707726955414e-02
-1.075580483302474022e-03
4.106565937399864197e-02
-1.715246960520744324e-02
4.533163271844387054e-03
5.913247913122177124e-02
1.321708038449287415e-02
3.273689746856689453e-02
1.843685097992420197e-02
2.773700840771198273e-02
3.435086458921432495e-02
2.209992893040180206e-02
3.431855142116546631e-02
1.062543317675590515e-01
3.290304541587829590e-02
2.708235941827297211e-02
2.814891934394836426e-02
3.195854648947715759e-02
2.321223169565200806e-02
-4.305475950241088867e-02
-7.520807906985282898e-03
4.294692724943161011e-02
1.033875253051519394e-02
-1.508131902664899826e-02
2.927392534911632538e-02
3.321052715182304382e-02
-2.298110164701938629e-02
-5.315650254487991333e-03
4.111861065030097961e-02
2.383459359407424927e-04
2.399234799668192863e-03
2.770199440419673920e-02
4.263040900696069002e-04
1.982526853680610657e-02
2.566383406519889832e-02
5.646627768874168396e-02
2.050306648015975952e-02
-3.793729096651077271e-02
-5.968800280243158340e-03
1.373070757836103439e-02
2.327106334269046783e-02
-1.309293974190950394e-02
4.790061712265014648e-02
8.700206130743026733e-02
8.430118672549724579e-03
4.890305548906326294e-02
-1.851967908442020416e-02
-3.705089166760444641e-02
-3.537183627486228943e-02
-1.050791237503290176e-03
2.192418090999126434e-02
3.768998384475708008e-02
-1.224811840802431107e-02
-5.974151194095611572e-03
-2.569300308823585510e-02
-3.383865405339747667e-04
2.506287395954132080e-02
3.909023478627204895e-03
3.586309775710105896e-02
5.201521795243024826e-03
4.811789095401763916e-02
5.532484874129295349e-02
2.344849146902561188e-02
7.612951099872589111e-03
-3.538022562861442566e-02
8.331712335348129272e-03
-2.412023767828941345e-02
3.599075973033905029e-02
1.184571534395217896e-02
-1.045709624886512756e-01
-8.255401253700256348e-02
-6.492444127798080444e-02
-4.222723189741373062e-03
-1.886281557381153107e-02
1.064232346834614873e-04
-4.220485314726829529e-02
4.261523019522428513e-03
-6.380572170019149780e-02
2.511497773230075836e-02
6.398741155862808228e-02
3.172773495316505432e-02
3.009739099070429802e-03
-4.150869697332382202e-02
1.523514650762081146e-02
-1.207641977816820145e-02
-3.033447312191128731e-03
-2.714411541819572449e-02
-1.491482183337211609e-02
8.144229650497436523e-02
2.552564721554517746e-03
6.611092016100883484e-03
-2.207687869668006897e-02
-7.437692582607269287e-02
-1.536330860108137131e-02
1.780104078352451324e-02
-8.533298224210739136e-02
-2.632415853440761566e-02
8.312729001045227051e-02
6.069115549325942993e-02
3.930156305432319641e-02
6.497931480407714844e-02
2.396014519035816193e-02
-3.831677511334419250e-02
-4.759037494659423828e-02
3.086570464074611664e-02
1.689676381647586823e-02
3.945765271782875061e-02
6.915281713008880615e-02
2.045067213475704193e-02
2.012879820540547371e-03
-2.549088094383478165e-03
-4.474340379238128662e-02
6.912153214216232300e-02
-1.659278199076652527e-02
3.275760263204574585e-02
-5.290153995156288147e-02
2.561633102595806122e-02
-3.196241334080696106e-02
-2.737451810389757156e-03
3.488047048449516296e-02
-5.012056231498718262e-02
3.896814538165926933e-03
8.511514961719512939e-02
7.530343718826770782e-03
3.011270985007286072e-02
1.046862546354532242e-02
-5.006853863596916199e-02
-1.242631860077381134e-02
6.285557150840759277e-02
1.540613267570734024e-02
-5.126126855611801147e-02
3.166745975613594055e-02
1.971560157835483551e-02
-1.473530009388923645e-02
5.269825458526611328e-02
2.294020541012287140e-02
-3.055874630808830261e-02
3.690328076481819153e-02
1.476428005844354630e-02
-1.261644437909126282e-02
6.000096723437309265e-02
4.465212672948837280e-02
-2.105372771620750427e-02
1.579523086547851562e-02
2.747615426778793335e-02
2.214777655899524689e-02
8.749620988965034485e-03
-2.220478095114231110e-02
4.339959844946861267e-02
-4.509802535176277161e-02
4.539667442440986633e-02
3.121139667928218842e-02
-1.535849086940288544e-02
9.409898892045021057e-03
1.940692588686943054e-02
2.671110443770885468e-02
-2.985683502629399300e-03
-2.466895058751106262e-02
1.718261511996388435e-03
-5.030668340623378754e-03
3.422470763325691223e-02
-2.264401316642761230e-02
-1.825025863945484161e-02
-1.335649099200963974e-02
6.382287479937076569e-03
6.989470124244689941e-02
8.446381241083145142e-02
1.397425029426813126e-02
5.854757130146026611e-02
-3.486321866512298584e-02
4.906348139047622681e-02
-9.053145535290241241e-03
2.697083167731761932e-02
-2.764412946999073029e-02
2.617705613374710083e-02
5.172819271683692932e-02
3.179067000746726990e-02
2.465889044106006622e-02
4.065560176968574524e-03
7.863269001245498657e-02
1.014053705148398876e-03
-4.307116940617561340e-02
2.251246012747287750e-02
-2.989056706428527832e-02
2.294352091848850250e-02
9.328503906726837158e-02
-1.616145670413970947e-02
-5.214001610875129700e-02
5.658047273755073547e-03
6.439900398254394531e-02
6.052143126726150513e-02
-1.955146342515945435e-02
4.196162521839141846e-02
5.567520391196012497e-03
-2.765730954706668854e-02
3.546036407351493835e-02
-2.456249110400676727e-02
-6.490924209356307983e-02
-1.879995502531528473e-02
7.677078247070312500e-02
7.755184918642044067e-02
-9.131907485425472260e-03
2.877412363886833191e-02
-4.532259702682495117e-02
-1.447520777583122253e-02
2.023019641637802124e-02
1.378201320767402649e-02
5.716388300061225891e-02
8.482663892209529877e-03
4.753814265131950378e-02
-6.356290727853775024e-02
7.677048910409212112e-03
3.090617805719375610e-02
5.830711685121059418e-03
3.676220774650573730e-02
8.301572501659393311e-02
4.454573243856430054e-02
-2.600678615272045135e-02
3.762863948941230774e-02
1.260553300380706787e-02
1.553318090736865997e-02
7.247513625770807266e-03
-9.585302323102951050e-03
-1.153468806296586990e-02
2.205184474587440491e-02
5.794607102870941162e-02
-5.145997926592826843e-02
6.117141246795654297e-02
-2.910065092146396637e-02
1.374568324536085129e-02
-3.417471796274185181e-02
-1.459613256156444550e-02
2.064645290374755859e-02
9.593999944627285004e-03
-2.514937147498130798e-02
-1.690467633306980133e-02
-2.314433688297867775e-03
2.055547572672367096e-02
-4.902067035436630249e-02
-3.366098552942276001e-02
1.230604480952024460e-02
-8.620734326541423798e-03
-3.032420948147773743e-02
-1.402023155242204666e-02
-3.220812976360321045e-02
-1.869412697851657867e-02
7.152052130550146103e-03
-1.385867409408092499e-02
-5.796237662434577942e-02
-3.775029256939888000e-02
-8.195903152227401733e-02
-1.250901538878679276e-02
1.179672591388225555e-02
3.404974192380905151e-02
3.607703372836112976e-02
-2.722554206848144531e-01
-6.899009644985198975e-02
-1.270306389778852463e-02
-1.261060982942581177e-01
-4.797722026705741882e-02
-4.752965644001960754e-03
4.369151592254638672e-02
-6.812294572591781616e-02
-4.258909076452255249e-02
1.099946536123752594e-02
1.350948121398687363e-02
4.120297357439994812e-02
-3.335915505886077881e-02
-6.919986102730035782e-03
-4.631219431757926941e-02
2.381488308310508728e-02
2.826178073883056641e-02
2.300181984901428223e-02
-4.303353652358055115e-02
-9.282699972391128540e-02
-5.207014456391334534e-02
3.197188954800367355e-03
-1.012098938226699829e-01
-8.198839426040649414e-02
-3.240457922220230103e-02
-2.177120186388492584e-02
1.670163311064243317e-02
-4.257963225245475769e-02
-1.217760611325502396e-02
-4.013161733746528625e-02
-1.981627941131591797e-02
-3.038812987506389618e-02
2.312691183760762215e-03
-2.057538926601409912e-02
-3.514592302963137627e-03
-6.937186419963836670e-02
-1.763549633324146271e-02
5.027187988162040710e-02
-6.561407446861267090e-02
-2.182260155677795410e-01
2.950500324368476868e-02
-2.062864787876605988e-02
-1.007936149835586548e-02
-3.402709588408470154e-02
1.050332486629486084e-01
7.123147696256637573e-02
-2.290771901607513428e-02
-5.548687651753425598e-03
-2.973421663045883179e-02
-1.313599497079849243e-01
-6.844265013933181763e-02
-7.504223287105560303e-02
1.814618892967700958e-02
-7.288526743650436401e-02
3.640953823924064636e-02
-9.475672617554664612e-03
-3.884005174040794373e-02
-1.177586689591407776e-01
-5.897591635584831238e-02
-1.204160749912261963e-01
4.987336322665214539e-02
-1.020134687423706055e-01
-5.548664554953575134e-02
-1.192411631345748901e-01
-7.435308396816253662e-02
1.115062609314918518e-01
-4.488000646233558655e-02
-1.844542287290096283e-02
-7.696945965290069580e-02
2.993762120604515076e-02
3.187878802418708801e-02
-2.718007192015647888e-02
-2.194132208824157715e-01
8.862414956092834473e-02
-8.698070421814918518e-03
1.804083958268165588e-02
-2.497919462621212006e-02
-7.349167019128799438e-02
9.195268899202346802e-02
6.617149710655212402e-02
-6.335616856813430786e-02
-1.010055933147668839e-02
6.028730049729347229e-02
5.446651205420494080e-02
-2.467287518084049225e-02
3.055911511182785034e-02
-5.436133220791816711e-02
2.306798286736011505e-02
-9.476981312036514282e-02
-8.884000033140182495e-02
-2.006584554910659790e-01
3.328146785497665405e-02
6.005822494626045227e-02
-7.511197775602340698e-02
-6.169151514768600464e-03
4.262144211679697037e-03
9.643018245697021484e-02
-3.908592835068702698e-02
-5.503380671143531799e-02
-8.850401639938354492e-02
-7.390721142292022705e-02
-6.884762644767761230e-02
-7.468115538358688354e-02
-6.085947528481483459e-02
-4.440663754940032959e-02
-9.958536922931671143e-02
3.277195990085601807e-02
-1.044376939535140991e-01
-3.871546685695648193e-02
8.161859959363937378e-02
-1.241341158747673035e-01
2.400522306561470032e-02
1.324000582098960876e-02
1.391948759555816650e-01
-5.703292787075042725e-02
-7.873269915580749512e-02
1.145385131239891052e-01
-4.502846300601959229e-02
-4.410745948553085327e-02
-6.222991738468408585e-03
-3.170093894004821777e-02
-6.232526898384094238e-02
-1.718723960220813751e-02
4.320383816957473755e-02
-1.672504283487796783e-02
1.321249827742576599e-02
-7.397475838661193848e-02
3.906729072332382202e-02
6.130273267626762390e-02
-9.391429275274276733e-02
3.526407107710838318e-02
1.403070706874132156e-02
-2.461105398833751678e-02
-3.869389370083808899e-02
8.286282420158386230e-02
2.148087136447429657e-02
3.250054642558097839e-02
5.728248879313468933e-02
-1.232629269361495972e-01
5.247093737125396729e-02
5.159620195627212524e-02
5.446237698197364807e-02
-1.328234672546386719e-01
9.470902383327484131e-02
-5.761730298399925232e-02
-2.481822669506072998e-02
-5.296424031257629395e-02
-6.951788440346717834e-03
-3.779256343841552734e-02
-6.446976959705352783e-02
4.418580606579780579e-02
-5.707425996661186218e-03
-3.020593523979187012e-02
8.044234663248062134e-02
-5.415037274360656738e-02
-1.754407435655593872e-01
-6.376715609803795815e-04
3.526112064719200134e-02
-5.063637346029281616e-02
-4.759244620800018311e-02
3.639991581439971924e-02
7.533020526170730591e-02
-1.677445769309997559e-01
-7.958141155540943146e-03
1.447930186986923218e-02
4.243424162268638611e-02
-4.110335558652877808e-02
-2.435603179037570953e-02
-2.609852328896522522e-02
-7.202368229627609253e-02
1.163032650947570801e-02
-4.590242356061935425e-02
-7.608774304389953613e-02
-5.054394155740737915e-02
6.524867378175258636e-03
6.424838304519653320e-02
-7.881635800004005432e-03
-8.071449398994445801e-02
-1.166507601737976074e-01
-4.190599080175161362e-03
-1.438873633742332458e-02
-1.046830639243125916e-01
1.120447516441345215e-01
-7.208026945590972900e-02
-3.508739173412322998e-02
6.434361636638641357e-02
-7.596039772033691406e-02
7.571022957563400269e-02
-3.743358328938484192e-02
-1.607047915458679199e-01
-4.701632261276245117e-02
-5.997841060161590576e-02
-5.770280212163925171e-02
-1.081584915518760681e-01
2.463387511670589447e-02
-3.316265344619750977e-02
-1.248611230403184891e-02
1.455019861459732056e-01
-2.710187062621116638e-02
-1.184735726565122604e-02
-7.374498993158340454e-02
-8.583081513643264771e-02
9.441712871193885803e-03
-1.634297776035964489e-03
1.406872421503067017e-01
2.329085767269134521e-02
3.950902447104454041e-02
8.543510339222848415e-04
-8.314829319715499878e-03
-8.108527958393096924e-02
-1.104132086038589478e-01
1.085313260555267334e-01
-3.999050334095954895e-02
1.163986977189779282e-02
-5.174183472990989685e-02
1.083414256572723389e-02
-2.091345041990280151e-01
5.105318035930395126e-03
9.099877439439296722e-03
-3.909908607602119446e-02
-3.989762812852859497e-02
2.974304556846618652e-02
2.340095303952693939e-02
-7.728776894509792328e-03
-6.839472055435180664e-02
-6.490302085876464844e-02
5.741057451814413071e-03
-2.529878914356231689e-02
1.491758972406387329e-02
-2.113845571875572205e-02
-8.227339014410972595e-03
-8.743267506361007690e-02
5.494141951203346252e-02
4.579939320683479309e-02
-7.335082441568374634e-02
-5.963274091482162476e-02
-7.737919688224792480e-02
4.740613698959350586e-02
-5.760166421532630920e-02
9.986120462417602539e-02
7.698684185743331909e-02
-2.860329672694206238e-02
3.023634850978851318e-02
-7.766236364841461182e-02
-1.371429562568664551e-01
-3.280845656991004944e-02
4.456809163093566895e-02
-1.537044765427708626e-03
-1.924482407048344612e-03
-7.163336500525474548e-03
-7.388167548924684525e-03
3.282260149717330933e-02
-1.220823265612125397e-02
1.642558537423610687e-02
1.055934093892574310e-02
-4.654098302125930786e-02
2.853788062930107117e-02
7.476188242435455322e-02
4.171826317906379700e-02
-8.558177947998046875e-02
3.370297327637672424e-02
1.098805107176303864e-03
3.443489549681544304e-03
2.115417271852493286e-03
-1.203933358192443848e-02
-7.965887337923049927e-02
-6.645317375659942627e-02
8.549025654792785645e-02
9.203664958477020264e-02
-2.017632499337196350e-02
1.200374215841293335e-02
4.903966560959815979e-02
-1.655764319002628326e-02
-1.501558274030685425e-01
2.891142293810844421e-02
-2.402538433670997620e-02
-3.537153825163841248e-02
-4.633037373423576355e-02
3.859600797295570374e-02
-3.812704607844352722e-02
-5.814576055854558945e-03
-8.686077594757080078e-02
-8.346169441938400269e-02
5.221566557884216309e-02
-1.055968645960092545e-02
2.344710007309913635e-02
5.812248960137367249e-02
9.278157353401184082e-02
-2.521968074142932892e-02
-3.274610266089439392e-02
-9.809588640928268433e-02
9.104944765567779541e-02
-6.906404346227645874e-02
-1.811697706580162048e-02
1.756577380001544952e-02
-1.757988631725311279e-01
1.557037141174077988e-02
-5.224897712469100952e-02
2.594234049320220947e-02
-7.458652555942535400e-02
2.517941780388355255e-02
8.898095786571502686e-02
2.472315542399883270e-02
-1.108523737639188766e-02
1.062217652797698975e-01
-6.550560146570205688e-02
-6.758445501327514648e-02
-2.279840409755706787e-02
1.207351163029670715e-01
7.136884331703186035e-02
-8.256469666957855225e-02
3.296075761318206787e-02
1.194584816694259644e-01
9.062328189611434937e-02
4.508241638541221619e-02
1.030492857098579407e-01
-3.233437240123748779e-02
1.970233321189880371e-01
6.478299200534820557e-02
2.465877216309309006e-03
-1.485605258494615555e-02
-7.980218529701232910e-02
-2.712025865912437439e-02
1.207062322646379471e-02
2.670955285429954529e-02
4.988849977962672710e-04
8.406347781419754028e-02
3.178857639431953430e-02
-2.087642550468444824e-01
-1.585272997617721558e-01
-6.667553912848234177e-03
-8.237559348344802856e-02
9.805846959352493286e-02
-4.378848150372505188e-02
-1.765654794871807098e-02
4.581629112362861633e-02
6.111981719732284546e-02
-3.443693742156028748e-03
-1.159412972629070282e-02
-6.095470488071441650e-02
-2.364648133516311646e-02
-9.424865245819091797e-03
7.989314198493957520e-02
1.809062436223030090e-02
3.375500440597534180e-03
-3.139302507042884827e-02
-1.255048066377639771e-01
-1.021895855665206909e-01
1.063657458871603012e-02
1.173293218016624451e-01
-9.079856798052787781e-03
-6.579130142927169800e-02
3.427325934171676636e-02
-2.062464691698551178e-02
-7.118555903434753418e-02
-1.265127863734960556e-02
1.637892797589302063e-03
8.804371207952499390e-02
-9.596073627471923828e-02
-1.186730414628982544e-01
2.541268989443778992e-02
-4.813458304852247238e-03
-3.602441772818565369e-02
6.911730021238327026e-02
-2.810798352584242821e-03
-3.134518396109342575e-03
-1.530844345688819885e-02
2.477126196026802063e-02
5.917174741625785828e-03
-4.623184353113174438e-02
7.064180076122283936e-02
-2.414873056113719940e-02
-5.594778433442115784e-02
4.003791138529777527e-02
-5.736690014600753784e-02
4.731433466076850891e-02
2.599342539906501770e-02
-2.121186815202236176e-02
8.786055445671081543e-02
-7.352048158645629883e-02
1.100426688790321350e-01
1.063391473144292831e-02
-4.223488271236419678e-02
7.597549352794885635e-03
5.887069925665855408e-02
-4.014167562127113342e-02
1.970541430637240410e-03
4.271054267883300781e-02
-6.896280497312545776e-02
4.122200608253479004e-02
-8.172105997800827026e-02
3.698232769966125488e-02
4.166327044367790222e-02
7.794526405632495880e-03
5.960317328572273254e-02
-3.628892078995704651e-02
-8.353272080421447754e-02
3.447978571057319641e-02
7.575375586748123169e-02
-7.497823983430862427e-02
-2.013993822038173676e-02
3.215828537940979004e-02
-8.641142398118972778e-03
-1.984306238591670990e-02
7.756785303354263306e-02
-1.390563696622848511e-01
-9.956193715333938599e-02
1.314564049243927002e-01
1.268702447414398193e-01
-2.388202399015426636e-02
4.526204988360404968e-02
-4.440361261367797852e-02
-3.809550777077674866e-03
-8.941402286291122437e-02
-8.236238732933998108e-03
1.466459315270185471e-02
2.318838983774185181e-02
-7.206618320196866989e-03
1.759411245584487915e-01
3.489802777767181396e-02
6.791943311691284180e-02
5.104783922433853149e-02
5.579794291406869888e-03
4.983895272016525269e-02
2.775060944259166718e-02
2.989027276635169983e-02
5.638704821467399597e-02
-8.896718733012676239e-03
4.134165495634078979e-02
-1.072436198592185974e-01
6.401649117469787598e-02
-5.827432498335838318e-02
6.626925617456436157e-02
-4.735664650797843933e-02
-7.119875401258468628e-03
-6.748709082603454590e-02
1.959653757512569427e-02
-1.108835712075233459e-01
-4.585099220275878906e-02
5.566066130995750427e-02
9.874127805233001709e-02
-4.280083253979682922e-02
-4.464099765755236149e-05
-2.752810716629028320e-03
5.480226874351501465e-02
-3.440450727939605713e-01
-5.364898964762687683e-02
-2.769764699041843414e-02
1.639758795499801636e-02
1.138204559683799744e-01
1.148543879389762878e-01
4.671745747327804565e-02
2.275451645255088806e-02
-1.383472234010696411e-01
5.228362604975700378e-02
1.155386772006750107e-02
5.039836466312408447e-02
9.384886920452117920e-02
-1.291139870882034302e-01
6.114886701107025146e-02
2.859868295490741730e-02
1.375019550323486328e-03
-3.687724098563194275e-02
-6.387672573328018188e-02
1.770724542438983917e-02
2.752535603940486908e-02
8.226164430379867554e-02
-5.547301843762397766e-02
7.417456805706024170e-02
-7.518015801906585693e-02
-3.979390114545822144e-02
3.687798231840133667e-02
-3.025759197771549225e-02
9.568603336811065674e-02
-2.827215066645294428e-04
3.613068535923957825e-02
8.308558166027069092e-02
-6.011344119906425476e-02
1.154914572834968567e-01
1.019548997282981873e-01
1.042547002434730530e-01
9.948045946657657623e-03
-3.795136138796806335e-02
2.974100038409233093e-02
1.078859642148017883e-01
-1.085722595453262329e-01
-1.770991459488868713e-02
-2.091654390096664429e-02
9.447474963963031769e-03
-7.175758481025695801e-02
8.981297165155410767e-02
-3.653076663613319397e-02
1.582530140876770020e-02
-4.845451191067695618e-02
-8.869308978319168091e-02
-6.910011637955904007e-03
-1.930959150195121765e-02
1.114167738705873489e-02
-1.713680773973464966e-01
1.730651780962944031e-02
6.668832898139953613e-02
-1.279811491258442402e-03
5.277058854699134827e-02
2.830516174435615540e-02
-8.009964227676391602e-02
6.614015251398086548e-02
5.401582457125186920e-03
4.587598517537117004e-02
2.906779386103153229e-02
2.172384783625602722e-02
2.454217150807380676e-02
9.322469681501388550e-02
-3.490205109119415283e-01
3.498897701501846313e-02
4.418161883950233459e-02
-6.400429457426071167e-02
-1.733221462927758694e-03
1.104096136987209320e-02
1.124231796711683273e-02
-5.502331629395484924e-02
-1.000836342573165894e-01
-4.160813614726066589e-02
9.037891775369644165e-02
2.135154046118259430e-02
4.558081924915313721e-02
-6.152556277811527252e-03
-3.460096940398216248e-02
-1.533287912607192993e-01
-1.688450388610363007e-02
-1.194147579371929169e-02
-1.310003572143614292e-03
4.263358190655708313e-02
1.872266083955764771e-02
-1.143750473856925964e-01
-4.560469463467597961e-02
2.090713232755661011e-01
7.809226214885711670e-02
1.008452400565147400e-01
1.714823953807353973e-02
-4.215068742632865906e-02
1.390952616930007935e-02
-5.404046177864074707e-02
8.815555274486541748e-02
4.858829826116561890e-02
-4.617204517126083374e-02
-3.145776316523551941e-02
-9.559617191553115845e-02
-5.413844436407089233e-02
-7.015663199126720428e-03
4.315554723143577576e-02
-5.788480862975120544e-02
-1.501788850873708725e-02
-1.611733064055442810e-02
-4.038767516613006592e-02
-2.658623643219470978e-02
-4.993150476366281509e-03
-8.262288570404052734e-02
-4.994728136807680130e-03
1.869480498135089874e-02
6.551472842693328857e-02
2.180047146975994110e-02
-1.360747218132019043e-01
-5.993551015853881836e-02
-2.347328886389732361e-02
-9.435448795557022095e-02
-1.191373765468597412e-01
2.631218731403350830e-02
2.782978862524032593e-02
1.850666292011737823e-02
5.801810696721076965e-02
-2.841627225279808044e-02
-1.019619312137365341e-02
1.965949684381484985e-02
1.162145212292671204e-01
-1.566617749631404877e-02
1.489501353353261948e-02
1.211320608854293823e-02
5.666847154498100281e-02
2.911405265331268311e-02
-1.357962563633918762e-02
1.664246246218681335e-02
-2.448019199073314667e-02
-2.552285604178905487e-02
4.374962882138788700e-04
-6.957727018743753433e-03
-1.848361641168594360e-02
-1.615834608674049377e-02
3.492580261081457138e-03
-1.027256995439529419e-01
-2.720624767243862152e-02
-2.722069062292575836e-02
4.190408065915107727e-02
1.971651241183280945e-02
1.833483017981052399e-02
1.584365032613277435e-02
-2.143595069646835327e-01
4.394863545894622803e-02
3.410007059574127197e-02
-2.866705134510993958e-02
-1.922672241926193237e-01
-8.981949836015701294e-02
-8.793958462774753571e-03
1.518993973731994629e-01
2.722461894154548645e-02
5.204668268561363220e-02
-5.287722125649452209e-02
-4.760643467307090759e-02
-1.954676350578665733e-03
5.762059707194566727e-03
6.941955536603927612e-03
8.866503834724426270e-02
4.095481336116790771e-02
2.509801089763641357e-02
-1.833972893655300140e-02
-7.680449169129133224e-03
2.262820303440093994e-02
-2.288501895964145660e-02
-3.009612672030925751e-02
1.592353731393814087e-02
-2.805603668093681335e-02
2.804630063474178314e-02
-6.021818518638610840e-02
-5.642095580697059631e-02
3.665770962834358215e-02
-2.883971296250820160e-02
-1.699366867542266846e-01
1.383170112967491150e-02
6.321359425783157349e-02
1.459648460149765015e-01
-2.892703341785818338e-04
2.560404315590858459e-02
-1.881083995103836060e-01
-3.910904284566640854e-03
-6.419653445482254028e-02
-5.798416957259178162e-02
-2.508765319362282753e-03
-3.403983637690544128e-02
-1.200226973742246628e-02
-5.801164731383323669e-02
-6.711383908987045288e-02
2.326507307589054108e-02
3.792477026581764221e-02
6.309732049703598022e-02
-4.988645762205123901e-02
-3.173504397273063660e-02
-2.843412011861801147e-02
-2.350631915032863617e-02
1.019403897225856781e-02
-9.994679130613803864e-03
-7.359313964843750000e-02
-1.159673035144805908e-01
4.434106498956680298e-02
6.277495622634887695e-02
8.480371907353401184e-03
7.950506359338760376e-02
-4.892065748572349548e-02
1.916556619107723236e-02
-3.999669477343559265e-02
-7.873573899269104004e-02
-7.891786098480224609e-02
-3.454764187335968018e-02
1.764941401779651642e-02
7.709917554166167974e-06
-7.664468884468078613e-02
-1.973476260900497437e-01
-1.981345936655998230e-02
1.675840094685554504e-02
-7.204992696642875671e-03
-1.058400347828865051e-01
-8.065366744995117188e-02
-2.258899994194507599e-02
-1.384712848812341690e-02
-9.877298027276992798e-03
-9.490402787923812866e-02
6.071348488330841064e-02
3.962261602282524109e-02
1.687829615548253059e-03
9.644936770200729370e-02
2.350968867540359497e-02
2.394590119365602732e-04
-2.879191562533378601e-02
5.645959451794624329e-02
2.682442590594291687e-02
-3.137710690498352051e-02
3.459934890270233154e-02
1.267741061747074127e-02
3.154962882399559021e-02
7.030860055238008499e-03
-7.207394391298294067e-02
-1.109855063259601593e-02
-1.342156380414962769e-01
5.575107410550117493e-02
1.886845938861370087e-02
-5.699104815721511841e-02
-1.654988676309585571e-01
-1.989191398024559021e-02
2.060670964419841766e-02
8.045744150876998901e-03
-3.726064413785934448e-02
-1.281959994230419397e-04
2.364554966334253550e-04
-1.557852774858474731e-01
1.403960585594177246e-02
-6.815712153911590576e-02
-1.256159506738185883e-03
4.026400670409202576e-02
8.432772755622863770e-02
-4.607165604829788208e-02
5.977367609739303589e-02
-8.310442417860031128e-02
-3.619178757071495056e-02
3.385966271162033081e-02
-2.048866078257560730e-02
2.209076099097728729e-02
-1.886755600571632385e-02
-5.041280388832092285e-02
4.369904845952987671e-02
-9.517983533442020416e-03
1.034644525498151779e-02
3.937814757227897644e-02
5.547158420085906982e-02
-1.073278859257698059e-01
3.107084147632122040e-02
-5.992508027702569962e-03
-3.042418882250785828e-02
-5.150519311428070068e-03
-1.043082252144813538e-01
-2.060360610485076904e-01
7.220959663391113281e-02
-1.145857572555541992e-02
-6.528177857398986816e-02
-8.069703727960586548e-02
2.283973805606365204e-02
1.323757320642471313e-01
9.206342697143554688e-02
-1.837857626378536224e-02
-1.001429110765457153e-01
-8.630347996950149536e-02
4.956349357962608337e-02
1.920422911643981934e-02
-1.707707196474075317e-01
-9.496723860502243042e-02
-1.431599725037813187e-02
4.770822823047637939e-02
3.787850588560104370e-02
-1.820916682481765747e-02
-4.711804445832967758e-03
9.559612721204757690e-03
3.432688117027282715e-02
-1.614969782531261444e-02
3.764751926064491272e-02
4.934028908610343933e-02
-1.747290370985865593e-03
-7.447575032711029053e-02
9.209723770618438721e-02
-3.991280496120452881e-02
7.808872964233160019e-03
1.734233461320400238e-02
1.646398194134235382e-02
8.196425624191761017e-03
-3.472608514130115509e-03
-5.971970036625862122e-02
1.901016919873654842e-03
4.460938274860382080e-02
1.384709402918815613e-02
-7.732141017913818359e-02
4.056327510625123978e-03
-4.413831233978271484e-02
-1.108288094401359558e-01
4.725149273872375488e-02
-2.069316990673542023e-02
2.769210189580917358e-02
-1.877355761826038361e-02
-7.738689333200454712e-02
7.340113632380962372e-03
-4.922696575522422791e-02
-2.712862752377986908e-02
-9.104691445827484131e-03
2.916075289249420166e-02
-7.618885487318038940e-03
-3.776960074901580811e-02
9.809199720621109009e-03
-6.423851102590560913e-02
1.133427117019891739e-02
2.491478342562913895e-03
-1.933519355952739716e-02
2.054493501782417297e-02
2.329316549003124237e-02
1.799669489264488220e-02
1.645145006477832794e-02
2.608222514390945435e-02
-4.436371475458145142e-02
-1.496249437332153320e-02
-2.135529927909374237e-02
-9.421576396562159061e-04
-4.065296053886413574e-02
5.471805576235055923e-03
-6.734797358512878418e-02
-3.234403952956199646e-02
-5.719986557960510254e-02
-3.083235211670398712e-02
7.159505970776081085e-03
-4.800039157271385193e-02
2.480276301503181458e-02
6.054033711552619934e-02
1.890190690755844116e-02
3.192090953234583139e-04
4.335942491888999939e-02
1.527987793087959290e-02
-4.685380682349205017e-02
-8.004329167306423187e-03
8.217298891395330429e-04
3.721166402101516724e-02
4.963945597410202026e-02
4.041860997676849365e-02
-3.384298086166381836e-02
3.578257746994495392e-03
3.410647064447402954e-02
5.158825963735580444e-02
3.578250994905829430e-03
-2.302100509405136108e-02
-1.017966400831937790e-02
-2.214586548507213593e-02
-2.249851636588573456e-02
-1.975089870393276215e-02
-4.523334559053182602e-03
2.232518792152404785e-02
1.324807386845350266e-02
-4.511273652315139771e-02
9.411919862031936646e-03
4.920252040028572083e-02
-2.526662545278668404e-03
-2.915848046541213989e-02
-7.260791212320327759e-02
1.960301958024501801e-02
3.958684206008911133e-02
-3.023215197026729584e-02
5.099268630146980286e-02
7.190855685621500015e-03
6.970126926898956299e-02
-6.581904739141464233e-02
-7.424435112625360489e-03
-6.513447314500808716e-02
-4.215648770332336426e-02
2.779017202556133270e-02
-2.856442332267761230e-02
-2.573755383491516113e-02
-4.676528275012969971e-02
-1.145942602306604385e-02
-3.758875653147697449e-02
2.854876033961772919e-02
-3.619975224137306213e-02
-4.602912813425064087e-02
-1.325371768325567245e-02
-4.810540750622749329e-02
-1.262501440942287445e-02
5.439041554927825928e-02
-2.826227061450481415e-02
2.534651570022106171e-02
-4.509855061769485474e-02
-3.707759547978639603e-03
-3.253833204507827759e-02
-9.759711101651191711e-03
-3.547381982207298279e-02
-4.439033195376396179e-02
-5.766312777996063232e-02
-5.218336731195449829e-02
5.163928121328353882e-02
6.034064665436744690e-02
3.315785899758338928e-02
-1.780931651592254639e-02
-3.495909739285707474e-03
-9.481689892709255219e-03
-1.293155364692211151e-03
2.686424367129802704e-02
-2.249581739306449890e-02
6.078749150037765503e-02
5.926750227808952332e-02
2.833402156829833984e-02
-2.853108942508697510e-02
-3.810104355216026306e-02
-1.847685128450393677e-02
-1.324346065521240234e-01
2.929352037608623505e-02
-2.097263187170028687e-02
-5.300673842430114746e-02
-4.519264213740825653e-03
-1.688279770314693451e-02
3.235042467713356018e-02
3.236425342038273811e-03
5.270543042570352554e-03
-1.011687982827425003e-02
1.983537338674068451e-02
-4.755842313170433044e-02
-1.181737286970019341e-03
3.427725657820701599e-02
2.294156886637210846e-02
-8.875197917222976685e-02
-2.176209539175033569e-02
-1.820202544331550598e-02
-1.317551452666521072e-02
1.216771453619003296e-02
6.159152463078498840e-02
-3.258765861392021179e-02
2.205124357715249062e-03
-1.612663120031356812e-01
1.340734958648681641e-02
-5.866048112511634827e-02
1.597188040614128113e-02
-8.905186317861080170e-03
-1.935403421521186829e-02
8.048404008150100708e-03
-5.416401475667953491e-02
-5.556128174066543579e-02
1.480080094188451767e-02
1.004616264253854752e-02
-2.603007014840841293e-03
2.129637263715267181e-02
7.504339516162872314e-02
-1.425867807120084763e-02
-4.146915301680564880e-02
-5.266826599836349487e-02
1.657768007135018706e-04
-6.386084482073783875e-03
2.602106146514415741e-02
-7.829714566469192505e-02
-1.417048391886055470e-03
-2.421953948214650154e-03
-2.481594868004322052e-02
1.158922072499990463e-02
-2.066736109554767609e-02
7.207616418600082397e-02
7.375163491815328598e-03
2.926200255751609802e-02
-2.237537875771522522e-03
1.426316890865564346e-02
-3.530586371198296547e-03
-1.845268346369266510e-02
-1.465979032218456268e-02
5.640134215354919434e-03
3.997558727860450745e-02
-2.926185354590415955e-02
4.517801851034164429e-02
-5.758065730333328247e-02
-7.483755797147750854e-02
4.303389787673950195e-02
3.306920826435089111e-02
-3.387346491217613220e-02
4.023460298776626587e-02
7.282188534736633301e-02
-3.350831568241119385e-02
-1.784829609096050262e-02
-5.671070143580436707e-02
2.003659727051854134e-03
2.608220092952251434e-02
-2.929639071226119995e-02
3.990433365106582642e-02
2.324371365830302238e-03
2.069923328235745430e-03
4.482873529195785522e-02
-5.800208076834678650e-02
7.365656085312366486e-03
3.623150289058685303e-02
-5.649983882904052734e-03
2.700006961822509766e-02
-6.280229240655899048e-02
2.162467502057552338e-02
-2.345016971230506897e-02
-5.626018159091472626e-03
-2.781175263226032257e-02
2.546785166487097740e-03
-1.121241785585880280e-02
-4.263150040060281754e-03
-1.755837723612785339e-02
-2.280649542808532715e-02
-7.635636627674102783e-02
1.621433161199092865e-02
7.349376566708087921e-03
-1.995131559669971466e-02
-9.826139546930789948e-03
6.010667886584997177e-03
1.134388428181409836e-02
-3.444067016243934631e-02
3.368576616048812866e-02
-4.761685058474540710e-02
-1.822233945131301880e-02
6.452251970767974854e-02
7.137456908822059631e-03
7.926853140816092491e-04
8.501540869474411011e-03
-1.665809750556945801e-02
-6.030308082699775696e-02
-3.902931138873100281e-02
3.866582736372947693e-02
3.220551460981369019e-02
2.829910814762115479e-02
3.237534686923027039e-02
7.292487472295761108e-02
2.524166775401681662e-04
2.897822763770818710e-03
9.674288332462310791e-03
-5.045172944664955139e-02
-6.688944995403289795e-02
2.449143305420875549e-02
2.851846814155578613e-02
-2.077168785035610199e-02
6.220341194421052933e-03
-1.075813360512256622e-02
-2.324528433382511139e-02
-1.419146894477307796e-03
-3.318670392036437988e-02
-8.906621485948562622e-03
-4.495605081319808960e-02
4.381713643670082092e-02
-6.420893222093582153e-02
-1.075134426355361938e-02
5.187058448791503906e-02
2.330246381461620331e-02
4.996177926659584045e-02
-1.852577924728393555e-02
8.757749199867248535e-02
-1.816425472497940063e-02
2.797647006809711456e-02
1.090402677655220032e-01
-9.081469476222991943e-02
3.064670413732528687e-02
-3.253487870097160339e-03
-6.155404448509216309e-02
3.274613991379737854e-02
-7.152024656534194946e-02
-4.025648906826972961e-02
2.442129701375961304e-02
-4.601854830980300903e-02
2.394925430417060852e-02
1.382621563971042633e-02
-4.867791756987571716e-02
-4.600323271006345749e-03
-1.308232694864273071e-01
4.320199042558670044e-02
-6.649281829595565796e-02
1.856310118455439806e-04
-1.366189587861299515e-02
-8.605866879224777222e-02
1.357034081593155861e-03
-2.037917729467153549e-03
-1.000870391726493835e-01
6.900350004434585571e-02
1.298948470503091812e-02
1.135286968201398849e-02
-1.062269434332847595e-01
2.200109697878360748e-02
-5.933822691440582275e-02
-3.564496710896492004e-02
-4.324172437191009521e-02
-4.343824833631515503e-02
9.784227237105369568e-03
-4.364990163594484329e-03
-1.068021208047866821e-01
5.872448161244392395e-02
4.873710125684738159e-02
2.131050080060958862e-02
7.187855429947376251e-03
2.153842896223068237e-02
-1.799553632736206055e-01
7.780628651380538940e-02
-3.048386611044406891e-02
-3.227204829454421997e-02
1.397096086293458939e-02
2.592239342629909515e-02
-1.292477995157241821e-01
9.824889898300170898e-02
-3.626249358057975769e-02
-1.510289777070283890e-02
-1.475685238838195801e-01
5.311463400721549988e-02
-9.334979951381683350e-02
-1.347590610384941101e-02
6.617140769958496094e-02
-4.573378339409828186e-02
-1.124935410916805267e-02
-3.084355778992176056e-02
4.605505615472793579e-02
-5.360072851181030273e-02
3.375067189335823059e-02
-3.843030333518981934e-02
3.842261061072349548e-02
1.332539971917867661e-02
6.575746089220046997e-02
-6.175844371318817139e-02
3.322060452774167061e-03
-2.260529696941375732e-01
4.423441737890243530e-02
2.777162007987499237e-02
-3.990731015801429749e-02
-1.346002817153930664e-01
7.943116128444671631e-02
-1.164739504456520081e-01
-3.153558969497680664e-01
1.867259386926889420e-03
6.404714658856391907e-04
-1.055213361978530884e-01
3.514454932883381844e-03
3.295580297708511353e-02
1.935806684195995331e-02
6.093467026948928833e-02
-3.416128829121589661e-02
-2.993627078831195831e-02
3.665957134217023849e-03
8.428911678493022919e-03
-7.938498631119728088e-03
2.241577208042144775e-02
-1.176312640309333801e-01
3.660878911614418030e-02
5.271773412823677063e-02
-8.047167211771011353e-02
-1.263295859098434448e-02
1.763122901320457458e-02
7.149794697761535645e-02
1.309922523796558380e-02
5.649530887603759766e-02
9.959933906793594360e-02
2.677036263048648834e-02
-1.659676283597946167e-01
3.249257430434226990e-02
5.935048311948776245e-02
6.724908202886581421e-02
6.703159958124160767e-02
-8.095828443765640259e-02
-5.754877254366874695e-02
4.524723440408706665e-02
-1.116190105676651001e-01
-8.900021016597747803e-02
5.828050896525382996e-02
7.105879485607147217e-02
-5.841062217950820923e-02
1.534827332943677902e-02
-1.370880752801895142e-02
-7.872033864259719849e-02
-1.308708786964416504e-01
7.539504673331975937e-03
-3.173864781856536865e-01
6.068334332667291164e-04
1.814820431172847748e-02
-8.726924657821655273e-03
8.132069557905197144e-02
-3.720334544777870178e-02
1.094257924705743790e-02
-7.180429250001907349e-02
1.017979905009269714e-01
9.106505662202835083e-02
-3.192363679409027100e-02
1.207467168569564819e-02
-3.479140996932983398e-02
1.993100531399250031e-02
2.388190664350986481e-02
-3.656381741166114807e-02
-3.628483787178993225e-02
4.101981967687606812e-02
-9.520788490772247314e-02
-5.687014758586883545e-02
3.686405019834637642e-03
3.297987580299377441e-02
-1.218475401401519775e-02
5.790746212005615234e-02
8.465440012514591217e-03
5.443247407674789429e-02
-2.787588350474834442e-02
-2.027386054396629333e-02
-2.332701720297336578e-02
2.304302714765071869e-02
4.671261087059974670e-02
-5.817311257123947144e-02
1.556895487010478973e-02
-3.100415691733360291e-02
-1.059026643633842468e-01
7.034713029861450195e-02
-2.857994101941585541e-02
-2.004985138773918152e-02
-5.318083986639976501e-02
-1.759643852710723877e-02
1.851863786578178406e-02
1.100595109164714813e-02
7.272221613675355911e-03
1.889532990753650665e-02
2.409164793789386749e-02
1.239711120724678040e-01
5.770436953753232956e-03
-2.954720333218574524e-02
4.727636277675628662e-02
-3.611961845308542252e-03
-2.287699878215789795e-01
3.433560207486152649e-02
1.593734510242938995e-02
1.278128474950790405e-01
4.358908161520957947e-02
7.111030863597989082e-04
-2.570578642189502716e-02
2.071300894021987915e-02
2.129960805177688599e-02
1.095377933233976364e-02
-6.149810180068016052e-02
6.709904968738555908e-02
-1.382747143507003784e-01
-4.926798865199089050e-02
-1.230452675372362137e-03
-2.416404932737350464e-01
-9.161508828401565552e-02
-9.782909415662288666e-03
7.080658525228500366e-02
-1.080696433782577515e-01
1.407555304467678070e-03
5.739577114582061768e-02
8.679868280887603760e-02
-2.677469253540039062e-01
8.303701132535934448e-02
8.106172829866409302e-02
-2.773176878690719604e-02
2.764860354363918304e-02
6.353574246168136597e-02
4.608462564647197723e-03
2.258732169866561890e-02
-1.277822442352771759e-02
9.448892623186111450e-02
-4.380954429507255554e-03
1.805011183023452759e-02
-1.798117756843566895e-01
-1.862322837114334106e-01
4.440603032708168030e-02
4.396636784076690674e-02
-5.791989341378211975e-02
-4.796652495861053467e-02
3.243832290172576904e-02
6.438777595758438110e-02
1.486621946096420288e-01
6.424856185913085938e-02
4.871514067053794861e-02
-1.554846484214067459e-02
4.607258830219507217e-03
4.368791356682777405e-02
-5.405581369996070862e-02
-4.871970508247613907e-03
3.365539759397506714e-02
6.821788102388381958e-02
-8.215604349970817566e-03
5.998646095395088196e-02
2.098509296774864197e-02
3.450707346200942993e-02
1.393001712858676910e-02
2.595107629895210266e-02
-1.953452825546264648e-01
2.975218184292316437e-02
4.055892303586006165e-02
8.843360701575875282e-04
-1.922735013067722321e-02
9.328612685203552246e-02
9.724901057779788971e-03
3.977705538272857666e-02
3.821010887622833252e-02
-8.232729882001876831e-02
-5.825209245085716248e-02
-2.022550627589225769e-02
-8.141502737998962402e-02
2.264047972857952118e-02
5.471597239375114441e-02
1.241153404116630554e-01
-1.956675201654434204e-02
-2.906951010227203369e-01
-4.537629336118698120e-02
7.177685201168060303e-02
-5.942059680819511414e-02
-3.845077380537986755e-02
6.471712142229080200e-02
7.120516151189804077e-02
-5.747175216674804688e-02
-1.848439220339059830e-03
-3.656551614403724670e-02
-5.565884523093700409e-03
5.461328104138374329e-02
-5.555830895900726318e-02
-4.382720589637756348e-02
-5.987881124019622803e-02
9.042420983314514160e-02
4.050634428858757019e-02
2.633474394679069519e-02
2.118974551558494568e-02
-1.107716094702482224e-02
-3.660888224840164185e-02
7.757852971553802490e-02
-1.590054295957088470e-02
-8.071577548980712891e-02
-1.108980178833007812e-01
7.025530561804771423e-03
3.665193915367126465e-02
-8.641988784074783325e-02
-7.482870947569608688e-03
-1.154012456536293030e-01
3.845326229929924011e-02
7.741681765764951706e-04
5.334679782390594482e-02
-1.130761578679084778e-01
-5.437950044870376587e-02
-5.464434251189231873e-02
-9.070345014333724976e-02
2.325667068362236023e-02
6.749733537435531616e-02
-2.022296888753771782e-03
4.429447464644908905e-03
1.635367609560489655e-02
-4.681967571377754211e-02
1.009144932031631470e-01
1.058992650359869003e-02
-1.627874560654163361e-02
3.582670912146568298e-02
2.051552385091781616e-02
-2.870792709290981293e-02
4.521802999079227448e-03
-6.152530014514923096e-02
-2.017659135162830353e-02
-4.412846267223358154e-02
1.848527416586875916e-02
2.098956145346164703e-02
-7.318136096000671387e-02
-3.468934446573257446e-02
-5.917089432477951050e-02
-3.666256740689277649e-02
5.499158799648284912e-02
-2.988859452307224274e-02
-1.620611548423767090e-01
-8.841112256050109863e-02
-1.329181194305419922e-01
7.836372591555118561e-03
6.421207450330257416e-03
1.532726436853408813e-01
9.564556926488876343e-02
4.171857237815856934e-02
-1.661671325564384460e-03
5.375778302550315857e-02
-6.882749497890472412e-02
-5.629960820078849792e-02
-1.047504842281341553e-01
-7.901833951473236084e-02
-1.077778041362762451e-01
6.405290961265563965e-02
-3.501000627875328064e-02
-1.355767250061035156e-02
-9.185390919446945190e-02
5.991367250680923462e-02
-4.908866062760353088e-02
-1.261066347360610962e-01
1.378502789884805679e-02
-7.188533246517181396e-02
