1.511125862598419189e-01
-1.438232660293579102e-01
-1.538934856653213501e-01
1.555492281913757324e-01
-1.222083717584609985e-01
-1.932906210422515869e-01
-1.663938760757446289e-01
2.711945176124572754e-01
2.042501270771026611e-01
3.598417043685913086e-01
3.070636391639709473e-01
1.821803599596023560e-01
-1.804357320070266724e-01
-2.031413167715072632e-01
-1.736023873090744019e-01
-1.720690429210662842e-01
-9.881114214658737183e-02
1.926897168159484863e-01
1.791735887527465820e-01
-1.446548700332641602e-01
-1.312204301357269287e-01
1.797286421060562134e-01
1.089309602975845337e-01
-1.651944369077682495e-01
-1.371222287416458130e-01
9.627314656972885132e-02
1.370625346899032593e-01
1.424229741096496582e-01
1.554544419050216675e-01
-1.327852159738540649e-01
1.941339373588562012e-01
-1.871140450239181519e-01
-1.706219613552093506e-01
-1.290726661682128906e-01
-1.890659779310226440e-01
-2.220608144998550415e-01
1.517354100942611694e-01
1.558109074831008911e-01
1.975467652082443237e-01
-1.377767175436019897e-01
-1.559939384460449219e-01
1.216655224561691284e-01
-1.689158827066421509e-01
9.251625835895538330e-02
-1.330875158309936523e-01
-1.256277412176132202e-01
1.943515092134475708e-01
-1.335645616054534912e-01
3.135119378566741943e-01
-1.564464122056961060e-01
-1.306611746549606323e-01
1.098076179623603821e-01
1.421009302139282227e-01
-1.432096660137176514e-01
2.000520080327987671e-01
-1.147393360733985901e-01
-1.594341248273849487e-01
-1.436917632818222046e-01
-1.180654466152191162e-01
1.713790446519851685e-01
1.707137674093246460e-01
-1.883012652397155762e-01
-1.605919003486633301e-01
-1.750799864530563354e-01
-1.863360553979873657e-01
-2.174132317304611206e-01
9.451676905155181885e-02
-1.245271861553192139e-01
1.256486624479293823e-01
1.426373273134231567e-01
-1.075826585292816162e-01
-1.804168969392776489e-01
-1.358473151922225952e-01
-1.700303852558135986e-01
1.225893050432205200e-01
3.382916450500488281e-01
-1.351327598094940186e-01
1.540936380624771118e-01
-1.681041419506072998e-01
1.916620582342147827e-01
-2.070560306310653687e-01
2.044315636157989502e-01
1.638663560152053833e-01
1.377557963132858276e-01
-1.340962350368499756e-01
-1.344194561243057251e-01
1.199173256754875183e-01
1.357813030481338501e-01
-1.802187711000442505e-01
1.778730601072311401e-01
2.802399992942810059e-01
-1.732755452394485474e-01
1.724162548780441284e-01
-1.014437675476074219e-01
-1.504200994968414307e-01
-1.090664491057395935e-01
1.010234504938125610e-01
-1.881786882877349854e-01
-1.951379030942916870e-01
-2.032108008861541748e-01
3.158681988716125488e-01
2.065892368555068970e-01
2.538732886314392090e-01
1.608855128288269043e-01
-8.500202745199203491e-02
1.167215406894683838e-01
-1.598911583423614502e-01
-2.083454877138137817e-01
-1.656970679759979248e-01
-1.618945449590682983e-01
-1.479445844888687134e-01
-2.692319154739379883e-01
-2.546427547931671143e-01
-1.903098523616790771e-01
7.766307145357131958e-02
-2.146911025047302246e-01
1.744563281536102295e-01
1.611773818731307983e-01
1.815165579319000244e-01
2.372651994228363037e-01
1.217533573508262634e-01
1.616711914539337158e-01
8.356644958257675171e-02
-2.678752541542053223e-01
-2.016912400722503662e-01
9.434244036674499512e-02
-1.297856420278549194e-01
6.827306002378463745e-02
