-3.762664794921875000e-01
8.524721860885620117e-02
4.114916324615478516e-01
4.406171739101409912e-01
-8.337502926588058472e-02
6.605513393878936768e-02
9.447763115167617798e-02
-5.062744021415710449e-02
-1.139881536364555359e-01
3.677758872509002686e-01
4.073207452893257141e-02
2.477769553661346436e-01
2.221855148673057556e-02
-1.004133298993110657e-01
3.698747605085372925e-02
-2.109716534614562988e-01
-3.557354584336280823e-02
3.203824758529663086e-01
2.034741640090942383e-01
1.565240323543548584e-02
-3.745326772332191467e-02
8.705426007509231567e-02
-1.481765359640121460e-01
-1.616518758237361908e-02
2.213463885709643364e-03
-3.622277081012725830e-01
3.775040805339813232e-01
3.130152225494384766e-01
-2.527117133140563965e-01
2.450446337461471558e-01
-3.031909763813018799e-01
-4.285934939980506897e-02
5.535739064216613770e-01
-8.216611295938491821e-02
2.337460666894912720e-01
3.200062513351440430e-01
-1.811797916889190674e-01
7.177822291851043701e-02
-2.426787018775939941e-01
2.409875020384788513e-02
-7.161528337746858597e-03
4.042788594961166382e-02
1.335691064596176147e-01
-1.264786422252655029e-01
2.813100069761276245e-02
-3.186906874179840088e-02
-5.894505232572555542e-02
2.252453416585922241e-01
4.783860146999359131e-01
1.182878464460372925e-01
2.686925046145915985e-02
-4.133633375167846680e-01
-1.099561676383018494e-01
1.812049448490142822e-01
7.602811604738235474e-02
-2.032661288976669312e-01
-9.323193877935409546e-02
-3.564549610018730164e-02
-1.291058957576751709e-02
-6.001824513077735901e-02
-4.880355298519134521e-02
9.284421801567077637e-02
3.888479620218276978e-02
3.642744421958923340e-01
-2.323091775178909302e-01
1.483701020479202271e-01
2.709113657474517822e-01
6.712299305945634842e-03
2.500526607036590576e-01
-3.409631783142685890e-03
3.182078897953033447e-02
5.187488347291946411e-02
1.325410306453704834e-01
1.202050745487213135e-01
1.264729350805282593e-01
1.990684419870376587e-01
-5.119528621435165405e-03
4.578929767012596130e-02
5.251985415816307068e-02
-2.306899875402450562e-01
-7.332460582256317139e-02
1.106671392917633057e-01
-1.659990400075912476e-01
-1.471745818853378296e-01
-2.248665690422058105e-02
1.108623221516609192e-01
-1.080392450094223022e-01
-6.307070702314376831e-02
-1.157687827944755554e-01
-3.098583519458770752e-01
6.711836457252502441e-01
-1.896141022443771362e-01
-9.913454949855804443e-02
7.085646688938140869e-02
-5.825079604983329773e-02
9.019822627305984497e-02
-5.729739367961883545e-02
1.232752278447151184e-01
9.541467577219009399e-02
2.972902059555053711e-01
5.741391330957412720e-02
3.409298360347747803e-01
3.008264303207397461e-01
2.344212681055068970e-01
1.477190256118774414e-01
4.570939019322395325e-02
2.703801691532135010e-01
-4.784228280186653137e-02
4.614417254924774170e-02
-4.645331203937530518e-02
3.887838125228881836e-02
3.039884269237518311e-01
5.047961696982383728e-02
1.562938988208770752e-01
2.066866606473922729e-01
-3.188757300376892090e-01
2.120203524827957153e-01
2.506703734397888184e-01
-2.775720134377479553e-02
-4.005299806594848633e-01
1.702876836061477661e-01
1.017072126269340515e-01
2.934125959873199463e-01
-5.510272085666656494e-02
-1.618092805147171021e-01
-5.373207852244377136e-02
2.170642167329788208e-01
3.240480646491050720e-02
4.368199408054351807e-01
6.679512560367584229e-02
2.635262608528137207e-01
9.478588402271270752e-02
1.090907156467437744e-01
2.480169832706451416e-01
-5.060050264000892639e-02
-1.785988733172416687e-02
-2.502835392951965332e-01
1.623870134353637695e-01
2.429472208023071289e-01
-2.843292057514190674e-01
-1.017784774303436279e-01
-2.726362645626068115e-02
-1.850391924381256104e-02
-1.456881910562515259e-01
-2.038941383361816406e-01
2.077150046825408936e-01
2.902457304298877716e-02
-1.023089699447154999e-02
-9.930247068405151367e-02
-3.942335024476051331e-02
3.456389531493186951e-02
-1.728261820971965790e-02
-6.813987493515014648e-01
-5.736003071069717407e-02
4.419608414173126221e-02
2.206085473299026489e-01
-2.392869144678115845e-01
4.426841139793395996e-01
-3.704603910446166992e-01
1.255316585302352905e-01
-5.306405946612358093e-03
2.772421538829803467e-01
1.801432073116302490e-01
1.753370314836502075e-01
3.063731193542480469e-01
5.499675869941711426e-01
1.582354456186294556e-01
2.191758528351783752e-02
2.373008579015731812e-01
4.130794852972030640e-02
6.566785275936126709e-02
4.876201599836349487e-02
1.656613498926162720e-01
1.528311287984251976e-03
-4.399387538433074951e-02
-9.835091978311538696e-02
4.025394320487976074e-01
3.146258890628814697e-01
1.426466852426528931e-01
-1.858792006969451904e-01
1.301489770412445068e-01
-4.878128170967102051e-01
1.487648636102676392e-01
-7.488473784178495407e-03
3.019768297672271729e-01
1.179275959730148315e-01
-2.029961943626403809e-01
-9.818219393491744995e-02
5.131408199667930603e-02
3.220786899328231812e-02
1.289383769035339355e-01
1.401706486940383911e-01
1.162916421890258789e-01
-1.070844531059265137e-01
1.132238432765007019e-01
-8.931156247854232788e-03
-1.503775715827941895e-01
7.032295316457748413e-02
3.487498685717582703e-02
7.175456266850233078e-03
1.523697469383478165e-02
-1.265598535537719727e-01
2.662558555603027344e-01
2.276255004107952118e-02
1.141882464289665222e-01
3.556424379348754883e-02
2.165737897157669067e-01
1.624576449394226074e-01
-9.103486686944961548e-02
-1.336413472890853882e-01
-9.160771965980529785e-02
-4.770840331912040710e-02
8.155719190835952759e-02
1.693530976772308350e-01
-9.681310504674911499e-03
9.921165183186531067e-03
-2.159899100661277771e-02
1.741870492696762085e-01
2.224344313144683838e-01
4.162349551916122437e-02
2.371932566165924072e-01
2.541422247886657715e-01
-5.995764210820198059e-02
-2.685819566249847412e-01
7.873550802469253540e-02
-1.104136463254690170e-02
-1.447558999061584473e-01
-3.925297278328798711e-05
2.042473703622817993e-01
1.028490439057350159e-01
4.358187317848205566e-02
3.319970145821571350e-02
-1.949206739664077759e-01
2.568581607192754745e-03
1.738444902002811432e-02
2.196110039949417114e-01
-3.411143645644187927e-02
1.511935610324144363e-02
3.678922951221466064e-01
7.191072404384613037e-02
-1.330101937055587769e-01
6.596271693706512451e-02
-1.259947121143341064e-01
-7.232473790645599365e-02
-1.448023971170186996e-02
2.949323318898677826e-02
-3.084614174440503120e-03
1.135287508368492126e-01
3.649832680821418762e-02
1.435860395431518555e-01
1.320190280675888062e-01
8.074812591075897217e-02
-9.707652032375335693e-02
9.585916250944137573e-02
-1.675594151020050049e-01
-2.582320868968963623e-01
1.177008673548698425e-01
6.736724823713302612e-02
2.690473571419715881e-02
-1.111684069037437439e-01
-3.484739363193511963e-01
-1.432010680437088013e-01
8.119435608386993408e-02
4.208043217658996582e-01
1.120966896414756775e-01
2.103752791881561279e-01
-9.784650802612304688e-02
1.516766399145126343e-01
6.239029392600059509e-02
-2.041246443986892700e-01
2.675217390060424805e-01
1.050831675529479980e-01
1.794269829988479614e-01
-4.616812616586685181e-02
8.197876065969467163e-02
-1.151774916797876358e-02
5.284028127789497375e-02
-5.096936225891113281e-02
-6.846117973327636719e-02
-1.771073788404464722e-01
-4.789313971996307373e-01
1.043209135532379150e-01
2.743868157267570496e-02
3.425087928771972656e-01
8.717714995145797729e-02
1.691359132528305054e-01
4.182397201657295227e-02
-2.677812054753303528e-02
4.987087845802307129e-02
6.179381906986236572e-02
-6.697891652584075928e-02
-1.034877225756645203e-01
1.021983996033668518e-01
-4.897572845220565796e-02
3.182327151298522949e-01
1.006766408681869507e-01
2.101354449987411499e-01
2.202804535627365112e-01
1.831579804420471191e-01
8.950334042310714722e-02
1.905092746019363403e-01
2.001729011535644531e-01
-9.876945614814758301e-02
2.147509455680847168e-01
-1.927503496408462524e-01
7.281662225723266602e-01
-1.451299041509628296e-01
1.993947029113769531e-01
5.819834303110837936e-03
2.316898554563522339e-01
-6.948292255401611328e-02
1.453380137681961060e-01
-5.768698453903198242e-02
4.214554131031036377e-01
-1.106778234243392944e-01
1.469030082225799561e-01
8.234710432589054108e-03
2.364279031753540039e-01
1.681450754404067993e-01
-7.834592461585998535e-02
4.023241698741912842e-01
-2.980135083198547363e-01
-1.804138273000717163e-01
2.714675366878509521e-01
1.205378472805023193e-01
-7.165181636810302734e-02
2.267935872077941895e-02
1.854392886161804199e-01
1.364527940750122070e-01
-2.631767420098185539e-03
-7.644799351692199707e-01
1.588424146175384521e-01
-1.653511673212051392e-01
-2.445967495441436768e-01
2.804774604737758636e-02
-2.016607373952865601e-01
-2.390058711171150208e-02
3.116543292999267578e-01
1.504427194595336914e-01
5.318770408630371094e-01
1.949482560157775879e-01
1.961592882871627808e-01
-2.358713448047637939e-01
-2.301472797989845276e-02
-1.490337997674942017e-01
-2.781003341078758240e-02
3.615368157625198364e-02
3.162440955638885498e-01
1.487386971712112427e-01
1.190774887800216675e-01
-5.280828475952148438e-01
-1.766693145036697388e-01
1.435379087924957275e-01
2.545839846134185791e-01
-9.003698825836181641e-02
1.703937053680419922e-01
-2.309274673461914062e-02
1.920914351940155029e-01
-6.001630797982215881e-03
6.021095812320709229e-02
2.553093433380126953e-02
2.615071833133697510e-01
4.911341071128845215e-01
-1.687469519674777985e-02
6.944625973701477051e-01
3.030510246753692627e-02
-8.354885876178741455e-02
-1.453095376491546631e-01
1.642450392246246338e-01
7.108350098133087158e-02
-7.749028503894805908e-02
-1.789786815643310547e-01
1.427662521600723267e-01
-6.747047603130340576e-02
-5.262615159153938293e-02
2.493072450160980225e-01
-1.432405412197113037e-01
-1.454031914472579956e-01
-8.497127331793308258e-03
8.017949759960174561e-02
2.131531983613967896e-01
1.308101117610931396e-01
-4.440873488783836365e-02
1.114480048418045044e-01
1.895388215780258179e-01
-2.713079564273357391e-02
-4.943527877330780029e-01
5.486951395869255066e-02
3.406625986099243164e-01
1.192253008484840393e-01
-6.090043578296899796e-03
9.460676461458206177e-02
3.746109083294868469e-02
2.193520218133926392e-02
1.523060798645019531e-01
-5.354456230998039246e-02
2.392527833580970764e-02
-4.641482234001159668e-01
-5.897255986928939819e-02
-2.012560963630676270e-01
-6.299532949924468994e-02
3.896383047103881836e-01
1.536375284194946289e-01
2.529703974723815918e-01
7.362891733646392822e-02
6.922269612550735474e-02
-1.668199747800827026e-01
-1.925480812788009644e-01
-3.918307647109031677e-02
5.975329279899597168e-01
-1.268107593059539795e-01
-1.857610195875167847e-01
9.800608269870281219e-03
1.559923738241195679e-01
1.625749915838241577e-01
2.546303533017635345e-02
-7.759051769971847534e-02
1.599633321166038513e-02
-4.593890160322189331e-02
-1.352060586214065552e-01
1.785801351070404053e-01
4.092922806739807129e-02
-4.625804349780082703e-02
1.705605536699295044e-01
2.426380477845668793e-02
-2.883649989962577820e-02
5.034133195877075195e-01
2.722352743148803711e-01
-8.820328861474990845e-02
6.640142202377319336e-02
1.509000211954116821e-01
-1.023773476481437683e-01
-7.242182642221450806e-02
1.204748377203941345e-01
1.208750680088996887e-01
-9.236419200897216797e-02
-2.284881323575973511e-01
-1.029300391674041748e-01
-9.898768067359924316e-01
-1.947055310010910034e-01
-2.276968397200107574e-02
-1.962950974702835083e-01
7.110314816236495972e-02
1.957312971353530884e-01
1.449611634016036987e-01
-1.702205836772918701e-01
-3.250346481800079346e-01
-3.347946703433990479e-01
2.481540292501449585e-02
-1.547821313142776489e-01
-7.968448847532272339e-02
4.756782203912734985e-02
-9.216518700122833252e-02
-4.961085319519042969e-02
1.342875957489013672e-01
-8.520625531673431396e-02
5.998091306537389755e-03
-9.148528426885604858e-02
5.581098049879074097e-02
-1.567610353231430054e-01
7.408683001995086670e-02
-2.536021173000335693e-01
3.179787099361419678e-01
1.318886578083038330e-01
2.367022484540939331e-01
2.745648026466369629e-01
1.019983440637588501e-01
6.271295249462127686e-02
-1.002504583448171616e-02
-2.388029098510742188e-01
1.331097483634948730e-01
2.060696631669998169e-01
2.760960720479488373e-02
-6.781987100839614868e-02
1.595298349857330322e-01
8.076524734497070312e-02
2.612132392823696136e-02
-1.851554363965988159e-01
-1.417957097291946411e-01
-1.473216414451599121e-01
-5.955012142658233643e-02
2.762771248817443848e-01
-1.005617380142211914e-01
8.171078562736511230e-02
1.874021291732788086e-01
3.497070074081420898e-01
-1.182857435196638107e-02
-5.773345008492469788e-02
1.580293923616409302e-01
1.658466309309005737e-01
3.983578979969024658e-01
1.870131120085716248e-02
-8.275505155324935913e-02
-8.015503734350204468e-02
4.862146079540252686e-01
2.785918116569519043e-01
-4.174099862575531006e-02
-8.774254471063613892e-02
1.239879727363586426e-01
9.998395293951034546e-02
2.370287179946899414e-01
2.332596182823181152e-01
-7.972163148224353790e-03
-3.679374754428863525e-01
-3.392324224114418030e-02
-9.069825708866119385e-02
-7.943466305732727051e-02
-1.188666224479675293e-01
-1.178696379065513611e-02
-1.114294007420539856e-01
8.810003101825714111e-02
3.463250696659088135e-01
-7.629653811454772949e-02
9.278567507863044739e-03
1.234267428517341614e-01
-2.505994588136672974e-02
1.344296336174011230e-01
-7.784654200077056885e-02
-1.330044865608215332e-02
-5.646900460124015808e-02
1.598564675077795982e-03
-2.938765473663806915e-02
-1.744985394179821014e-02
-5.372828990221023560e-02
2.796729095280170441e-02
-2.773839794099330902e-02
1.242159958928823471e-02
5.032593011856079102e-02
3.750478476285934448e-02
-4.831914976239204407e-02
-4.731411486864089966e-02
7.087201625108718872e-02
-1.823370531201362610e-02
-9.873522073030471802e-02
-4.176533780992031097e-03
1.781063079833984375e-01
-8.628965914249420166e-02
-9.899126738309860229e-02
-8.221363276243209839e-02
1.137120351195335388e-01
-1.526806205511093140e-01
-1.895282976329326630e-02
-9.867902100086212158e-02
-5.538372695446014404e-02
-2.970206923782825470e-02
-1.383853405714035034e-01
8.343431353569030762e-02
1.321651488542556763e-01
1.548778414726257324e-01
-1.823463290929794312e-02
1.043611988425254822e-01
6.949231028556823730e-03
-4.923374205827713013e-02
-1.717979204840958118e-03
-5.104877054691314697e-02
1.781312189996242523e-02
-2.869557738304138184e-01
-5.626289173960685730e-02
1.755331605672836304e-01
1.092037260532379150e-01
-1.673088781535625458e-02
-9.006889909505844116e-02
7.766041159629821777e-02
-5.200840532779693604e-02
-1.644746959209442139e-01
1.124982759356498718e-01
-2.843382209539413452e-02
4.774453490972518921e-02
-2.634739316999912262e-02
6.534520536661148071e-03
4.116608574986457825e-02
-1.904957145452499390e-01
5.302676558494567871e-02
-3.872391302138566971e-03
8.297345042228698730e-02
-9.329329431056976318e-02
8.075484633445739746e-02
1.063425466418266296e-01
-1.330133676528930664e-01
1.125825662165880203e-02
4.884255584329366684e-03
-3.887380287051200867e-02
5.919202417135238647e-02
-6.461093574762344360e-02
-1.002013981342315674e-01
-3.178390115499496460e-02
-8.886149153113365173e-03
1.361313089728355408e-02
-2.588624656200408936e-01
-2.389503084123134613e-02
-5.583027843385934830e-03
-9.902022778987884521e-03
2.444775216281414032e-02
5.866968259215354919e-02
2.254940010607242584e-02
2.049768567085266113e-01
-1.021311953663825989e-01
-4.610807076096534729e-02
1.484411358833312988e-01
-1.715489178895950317e-01
-5.044737085700035095e-02
4.399672895669937134e-02
1.280988100916147232e-02
2.213952317833900452e-02
7.324329018592834473e-02
7.707791030406951904e-02
-8.846803754568099976e-02
-5.753482878208160400e-02
-8.657153695821762085e-02
-5.972996354103088379e-02
8.321936428546905518e-02
-7.980649173259735107e-02
1.127230599522590637e-01
2.202303893864154816e-02
7.292369008064270020e-02
1.341687440872192383e-01
-1.414860412478446960e-02
-1.015891283750534058e-01
-4.563520103693008423e-02
-2.909506671130657196e-02
-2.614509761333465576e-01
-4.971350356936454773e-02
-3.314606845378875732e-02
-1.701882779598236084e-01
-1.139152678661048412e-03
-3.222909569740295410e-02
-7.223554700613021851e-02
-1.986234635114669800e-01
8.610307238996028900e-03
-1.631042733788490295e-02
3.801938891410827637e-02
-1.205834820866584778e-01
1.642181910574436188e-02
-3.944112919270992279e-03
1.881409669294953346e-03
-8.738003671169281006e-02
-9.856989979743957520e-02
-3.024431131780147552e-02
-8.809949271380901337e-03
-7.027722895145416260e-02
9.565607458353042603e-02
-5.725658684968948364e-02
-9.012427181005477905e-02
-6.313315033912658691e-02
4.853325709700584412e-02
3.789175674319267273e-02
-1.015643626451492310e-01
-6.840016692876815796e-02
1.836318075656890869e-01
9.160417318344116211e-02
-9.260569512844085693e-02
-1.058245524764060974e-01
-9.010546654462814331e-02
-1.242776066064834595e-01
6.898444844409823418e-04
-9.266344457864761353e-02
1.377452611923217773e-01
3.110233135521411896e-02
-2.055946141481399536e-01
-1.059203445911407471e-01
-5.643418990075588226e-03
8.999095857143402100e-02
1.496013905853033066e-02
-8.470240980386734009e-03
9.281485527753829956e-02
-5.225643515586853027e-02
2.305459976196289062e-02
6.588299572467803955e-02
-1.071796268224716187e-01
-1.181412488222122192e-02
1.768268495798110962e-01
-1.182308197021484375e-01
5.863348487764596939e-03
6.921081244945526123e-02
-8.134513348340988159e-02
1.025719568133354187e-03
9.422146528959274292e-02
1.554356701672077179e-02
-2.388538233935832977e-02
-4.502069577574729919e-02
5.810554139316082001e-03
-4.534070938825607300e-02
6.565516442060470581e-02
-1.710999384522438049e-02
-1.137214945629239082e-03
-7.447061687707901001e-02
1.104886010289192200e-01
1.289184987545013428e-01
-6.942882388830184937e-02
3.213704749941825867e-02
-1.261273119598627090e-02
-1.571974903345108032e-01
1.416506990790367126e-02
-2.214199602603912354e-01
2.187751233577728271e-03
-2.732234075665473938e-02
1.013755574822425842e-01
7.166051864624023438e-02
7.427579909563064575e-02
9.181877225637435913e-02
-8.420301228761672974e-02
-2.608183771371841431e-02
-2.026121655944734812e-04
-9.085810743272304535e-03
-1.129127070307731628e-01
1.198911964893341064e-01
6.692380458116531372e-02
1.821108460426330566e-01
-1.020441502332687378e-01
2.706200629472732544e-02
7.656706124544143677e-02
7.571288198232650757e-02
9.554635733366012573e-02
-1.669850386679172516e-02
2.832205779850482941e-02
7.509452756494283676e-03
5.742550268769264221e-02
1.336786802858114243e-02
7.042582146823406219e-03
3.004150092601776123e-02
1.010182425379753113e-01
8.827797323465347290e-02
-8.000890165567398071e-02
1.508226245641708374e-01
2.568188309669494629e-02
1.013450622558593750e-01
-2.315379120409488678e-02
6.855043768882751465e-02
2.454989217221736908e-02
-6.878335028886795044e-02
5.780047178268432617e-02
-4.562531039118766785e-02
7.572465576231479645e-03
9.672887623310089111e-02
-1.142651289701461792e-01
-9.879705309867858887e-02
-2.882574498653411865e-02
5.268993601202964783e-02
1.623218208551406860e-01
1.605372875928878784e-02
7.591996341943740845e-02
-1.129191964864730835e-01
3.670200332999229431e-02
-6.074604019522666931e-02
-1.811680942773818970e-01
1.296193152666091919e-01
-7.759551703929901123e-02
6.058360263705253601e-02
-1.343697011470794678e-01
4.536510258913040161e-02
-1.920390725135803223e-01
-3.790098056197166443e-02
-1.373829990625381470e-01
-7.717337459325790405e-02
1.042809039354324341e-01
-1.977541111409664154e-02
-7.288929820060729980e-02
1.827568560838699341e-02
-7.954451441764831543e-02
-2.495148628950119019e-01
6.627047806978225708e-02
9.407840669155120850e-02
-5.890493746846914291e-03
5.588112771511077881e-02
7.498492300510406494e-02
-3.536946699023246765e-02
-2.260787598788738251e-02
-1.150124222040176392e-01
-2.206122688949108124e-02
3.311206772923469543e-02
-1.522858720272779465e-02
6.039647385478019714e-02
7.212880998849868774e-02
-1.342939734458923340e-01
-1.060644239187240601e-01
-8.190280757844448090e-03
-6.053290143609046936e-02
6.677914410829544067e-03
-1.828082650899887085e-01
-6.425423175096511841e-02
1.083701252937316895e-01
9.237650781869888306e-03
1.092793419957160950e-02
2.683273702859878540e-02
1.205491721630096436e-01
1.007990315556526184e-01
-7.495048642158508301e-02
2.338396199047565460e-02
-2.024663612246513367e-02
6.462528370320796967e-03
-1.015244796872138977e-01
2.472510561347007751e-02
7.313913106918334961e-02
3.077561222016811371e-02
-7.215775549411773682e-02
-3.063280833885073662e-03
-5.106480792164802551e-02
1.109921559691429138e-02
-4.496029019355773926e-02
-5.542425066232681274e-02
1.167169213294982910e-02
-1.013526991009712219e-01
7.764489855617284775e-03
-6.066170334815979004e-02
3.222291916608810425e-02
-2.107651345431804657e-02
-7.901979237794876099e-02
-4.494632035493850708e-02
1.374744810163974762e-02
-1.308820694684982300e-01
-8.279732614755630493e-02
-6.013859808444976807e-02
-4.417624790221452713e-03
-2.834488265216350555e-02
8.483409881591796875e-02
-2.820937661454081535e-03
-5.469924584031105042e-02
-5.300216004252433777e-02
-2.492805942893028259e-02
2.608162723481655121e-02
-1.240202970802783966e-02
-2.068887799978256226e-01
1.326137408614158630e-02
-8.270549774169921875e-02
-6.061602383852005005e-02
1.402837485074996948e-01
3.047573938965797424e-02
-4.448183253407478333e-02
-7.257681339979171753e-02
-5.900754407048225403e-02
1.401370763778686523e-01
3.864381089806556702e-02
4.393844678997993469e-02
6.923843175172805786e-02
1.309124231338500977e-01
-3.368585929274559021e-02
2.660438185557723045e-03
1.176834851503372192e-01
9.213493205606937408e-03
-9.181484580039978027e-02
-1.844156347215175629e-02
1.397547423839569092e-01
8.844177424907684326e-02
-1.920126006007194519e-02
5.554472655057907104e-02
-1.034907326102256775e-01
6.741869729012250900e-03
6.856317818164825439e-02
-4.840942565351724625e-03
-2.067918394459411502e-04
-4.389113187789916992e-02
-1.027585864067077637e-01
-2.757466398179531097e-03
-4.033027682453393936e-03
-8.439883589744567871e-02
-1.043788045644760132e-01
-8.004559203982353210e-03
-1.390279680490493774e-01
-7.761223614215850830e-02
6.238583941012620926e-03
-2.430601231753826141e-02
1.926166750490665436e-02
1.421439647674560547e-01
-3.120866604149341583e-02
1.595535576343536377e-01
-1.738888621330261230e-01
-6.985576450824737549e-02
-4.578139632940292358e-02
1.875242032110691071e-02
5.734273046255111694e-02
-1.610667854547500610e-01
-4.745728895068168640e-02
-8.278138935565948486e-02
-1.619691029191017151e-02
1.645558923482894897e-01
1.163852736353874207e-01
1.187795028090476990e-01
6.790656596422195435e-02
4.732867237180471420e-03
-1.347810775041580200e-01
-1.410475838929414749e-02
1.876405626535415649e-02
6.441966444253921509e-02
-4.072562977671623230e-02
-8.340598642826080322e-02
2.383707761764526367e-01
-5.754595249891281128e-02
-6.844660639762878418e-02
1.231154128909111023e-01
-1.348706781864166260e-01
-8.714386075735092163e-02
-9.151154756546020508e-02
8.360799401998519897e-03
1.254224181175231934e-01
4.180694371461868286e-02
-6.195531040430068970e-02
-5.505338683724403381e-02
-7.194523233920335770e-03
-1.333419233560562134e-01
-1.303621847182512283e-02
1.452941000461578369e-01
1.034530401229858398e-01
-1.560467034578323364e-01
-4.265784844756126404e-02
-5.037609487771987915e-03
-2.744793891906738281e-02
-2.855850458145141602e-01
5.360325425863265991e-02
7.656665518879890442e-03
1.695868074893951416e-01
-3.227604553103446960e-02
1.559901982545852661e-01
-7.655228674411773682e-02
1.176406666636466980e-01
-1.519418042153120041e-02
6.571852415800094604e-02
-3.929575160145759583e-02
-6.660265475511550903e-02
-2.199537865817546844e-02
1.717243045568466187e-01
-1.120231077075004578e-01
1.411100197583436966e-02
6.401039659976959229e-02
6.207070127129554749e-02
1.083004474639892578e-02
-3.006122261285781860e-02
-4.896457865834236145e-02
-4.401146993041038513e-02
-6.603097915649414062e-02
1.274973750114440918e-01
7.634866237640380859e-02
-1.346314325928688049e-02
9.235621988773345947e-02
-1.498219277709722519e-02
2.728505805134773254e-02
-6.322589516639709473e-02
-2.442625351250171661e-02
-7.894966751337051392e-02
-7.482772320508956909e-02
-5.462003126740455627e-02
-2.771617844700813293e-02
-1.134744472801685333e-02
-3.066150285303592682e-02
-4.727217182517051697e-02
-9.451813995838165283e-02
-1.131351385265588760e-02
-9.294695407152175903e-02
1.561213564127683640e-02
-6.150590721517801285e-03
-8.899807184934616089e-02
-1.596243493258953094e-02
-1.050112769007682800e-01
6.826744973659515381e-02
1.480472385883331299e-01
3.742076084017753601e-02
9.603408724069595337e-02
4.204657301306724548e-02
-1.258214004337787628e-02
1.855471432209014893e-01
6.219771131873130798e-02
-3.153816238045692444e-02
2.723666280508041382e-02
2.168157510459423065e-02
3.593542426824569702e-02
9.777809679508209229e-02
-3.111862391233444214e-02
-1.041637584567070007e-01
-3.074885904788970947e-02
-5.259123072028160095e-02
-1.208850666880607605e-01
-5.111138522624969482e-02
-9.622740745544433594e-02
-3.204183280467987061e-02
2.942731231451034546e-02
4.061222821474075317e-02
1.658710278570652008e-02
1.043306067585945129e-01
-2.473364919424057007e-01
7.727205753326416016e-02
-4.551010951399803162e-02
1.207297015935182571e-02
-1.589141935110092163e-01
-3.275007754564285278e-02
1.386080533266067505e-01
6.574343144893646240e-02
3.502675890922546387e-02
5.641603842377662659e-03
-1.555142737925052643e-02
-6.682795286178588867e-02
1.135276034474372864e-01
7.230008952319622040e-03
2.533638291060924530e-02
-1.307623833417892456e-01
2.557360194623470306e-02
1.139130368828773499e-01
1.560334116220474243e-01
5.977625772356987000e-02
-2.743613719940185547e-02
-4.475295171141624451e-02
1.221008133143186569e-02
1.044361665844917297e-01
8.914771676063537598e-02
-2.621020935475826263e-02
5.383642390370368958e-02
7.637553662061691284e-02
-1.561252474784851074e-01
1.575973778963088989e-01
-8.268091082572937012e-02
-2.071084268391132355e-02
-2.574195154011249542e-02
3.929133713245391846e-02
-1.918776705861091614e-02
1.098279058933258057e-01
9.533548355102539062e-02
3.611692413687705994e-02
-2.018681615591049194e-01
5.899445153772830963e-03
1.596719473600387573e-01
4.325622692704200745e-03
-4.839904233813285828e-02
-7.462852448225021362e-02
1.733376383781433105e-01
1.621889881789684296e-02
1.476199328899383545e-01
3.279334008693695068e-01
-4.265503957867622375e-02
-4.243738651275634766e-01
3.042166121304035187e-02
7.275601476430892944e-02
2.241041064262390137e-01
-1.154346540570259094e-01
1.042805463075637817e-01
4.225421696901321411e-02
3.861076235771179199e-01
8.839857764542102814e-03
8.124353736639022827e-02
2.634745836257934570e-01
1.368683129549026489e-01
1.375000774860382080e-01
1.880552470684051514e-01
5.008023977279663086e-02
1.641506552696228027e-01
1.759758777916431427e-02
1.043713092803955078e-01
1.298127770423889160e-01
7.316724210977554321e-02
-1.133192107081413269e-01
2.459109388291835785e-02
1.816277801990509033e-01
-6.608444452285766602e-02
-1.981978537514805794e-03
-4.590283334255218506e-01
8.024235814809799194e-02
2.620137035846710205e-01
-1.126584634184837341e-01
-2.388865798711776733e-01
-7.455405592918395996e-02
2.874136269092559814e-01
-2.928315401077270508e-01
2.479594387114048004e-02
-3.852221183478832245e-03
1.636413633823394775e-01
1.270483434200286865e-01
7.290399819612503052e-02
-8.188896626234054565e-02
2.499229907989501953e-01
-5.602927207946777344e-01
-6.747085601091384888e-02
1.405112892389297485e-01
-3.955508023500442505e-02
2.102634012699127197e-01
-1.765401959419250488e-01
1.577409356832504272e-01
6.307980418205261230e-02
4.360247403383255005e-02
9.524541674181818962e-04
4.024605751037597656e-01
3.876345455646514893e-01
1.934870034456253052e-01
-4.794422164559364319e-02
-4.732743278145790100e-02
2.550559937953948975e-01
-2.950283586978912354e-01
-7.966242730617523193e-02
-6.015354990959167480e-01
-3.712758421897888184e-02
1.117189675569534302e-01
2.138813734054565430e-01
3.638381138443946838e-02
2.254065126180648804e-01
4.060362279415130615e-01
1.460064649581909180e-01
-8.484001457691192627e-02
2.017915248870849609e-01
1.912885755300521851e-01
1.509365141391754150e-01
1.615891456604003906e-01
1.195297762751579285e-01
8.038152754306793213e-02
1.389314420521259308e-03
2.318947911262512207e-01
-2.340271472930908203e-01
2.545714080333709717e-01
1.447584014385938644e-03
2.774170935153961182e-01
-6.894398480653762817e-02
3.234317004680633545e-01
9.317100048065185547e-02
-5.825756117701530457e-02
1.112645119428634644e-01
-4.419147670269012451e-01
4.628061056137084961e-01
3.355886042118072510e-01
-2.052880674600601196e-01
-1.325510293245315552e-01
1.421973407268524170e-01
1.231619045138359070e-01
3.484086366370320320e-03
-2.626610100269317627e-01
-2.862406522035598755e-02
-6.526082009077072144e-02
9.475715458393096924e-02
4.195757955312728882e-02
4.061905667185783386e-02
-1.923864483833312988e-01
5.605575814843177795e-02
7.499580830335617065e-02
-1.289820522069931030e-01
1.500221639871597290e-01
8.274845033884048462e-02
4.848642647266387939e-01
-9.881605952978134155e-02
3.278813362121582031e-01
-2.506727166473865509e-02
1.173538714647293091e-01
1.020479649305343628e-01
1.030648127198219299e-01
1.443184316158294678e-01
-6.912138313055038452e-02
3.054348826408386230e-01
1.354553699493408203e-01
5.162940546870231628e-02
8.060479164123535156e-02
-2.146907150745391846e-01
-8.943971991539001465e-02
-2.803609706461429596e-03
2.844301983714103699e-02
-8.901169896125793457e-02
1.695957630872726440e-01
1.291070729494094849e-01
2.344616353511810303e-01
-9.006586670875549316e-02
6.364936381578445435e-02
2.689983248710632324e-01
2.291829735040664673e-01
1.198287084698677063e-01
2.041297964751720428e-02
-6.036881804466247559e-01
-3.352658450603485107e-01
2.062813043594360352e-01
-4.977966472506523132e-02
-2.975580655038356781e-02
-2.206330932676792145e-02
2.093511670827865601e-01
-3.165877163410186768e-01
-2.592978179454803467e-01
-1.283826120197772980e-02
1.405715793371200562e-01
-3.407762944698333740e-01
2.167257070541381836e-01
8.139546215534210205e-02
3.233439624309539795e-01
-9.586665779352188110e-02
-3.752417862415313721e-01
1.272176653146743774e-01
-2.580108344554901123e-01
-3.223711848258972168e-01
1.025327071547508240e-01
-1.340563744306564331e-01
-2.682406008243560791e-01
4.030106216669082642e-02
-6.718737632036209106e-02
9.846269339323043823e-02
-1.495187543332576752e-02
1.112578287720680237e-01
9.711496531963348389e-02
-3.479735553264617920e-02
1.167221181094646454e-02
8.640556782484054565e-02
1.446643173694610596e-01
-1.338204648345708847e-02
7.219417393207550049e-02
2.625328004360198975e-01
-8.743838407099246979e-03
-1.972196251153945923e-01
6.131104752421379089e-02
1.513131260871887207e-01
2.579322755336761475e-01
3.697367757558822632e-02
-1.330701261758804321e-02
9.808259457349777222e-02
3.386894473806023598e-03
2.070924788713455200e-01
2.973348200321197510e-01
3.022096455097198486e-01
2.715561389923095703e-01
5.595769733190536499e-02
-6.747132539749145508e-02
-1.196108236908912659e-01
-1.163947358727455139e-01
-1.096989065408706665e-01
4.776569083333015442e-02
1.587370969355106354e-02
-5.382993817329406738e-02
2.436148002743721008e-02
1.927134543657302856e-01
1.560572385787963867e-01
-2.042510658502578735e-01
2.098209410905838013e-01
2.204000353813171387e-01
2.219193428754806519e-01
-6.632297635078430176e-01
-5.872962996363639832e-03
1.328171938657760620e-01
-3.061577118933200836e-02
-3.698045760393142700e-02
-3.324033021926879883e-01
6.634726375341415405e-02
3.001333586871623993e-02
7.867889851331710815e-02
7.601000368595123291e-02
8.121493458747863770e-02
-2.146842777729034424e-01
-5.084409713745117188e-01
-1.677003949880599976e-01
-3.836986124515533447e-01
3.062339723110198975e-01
-6.355038881301879883e-01
1.220791786909103394e-01
2.389342337846755981e-01
-6.540120113641023636e-03
1.497006416320800781e-01
-1.384168565273284912e-01
3.696309626102447510e-01
4.673359915614128113e-02
-4.203571006655693054e-02
2.859973013401031494e-01
1.922094970941543579e-01
1.952945142984390259e-01
-5.719594657421112061e-02
-4.199134930968284607e-02
-4.289029538631439209e-01
-4.127299413084983826e-02
1.668844670057296753e-01
-3.938173502683639526e-02
3.726007938385009766e-01
2.315980195999145508e-02
1.136152353137731552e-02
2.498856484889984131e-01
-5.546354688704013824e-03
7.442645728588104248e-02
-2.131848596036434174e-02
2.614828571677207947e-02
-7.123732566833496094e-02
-5.841178447008132935e-02
-1.243183761835098267e-01
-2.975004017353057861e-01
-7.790242321789264679e-03
4.102697372436523438e-01
1.833587139844894409e-01
-8.960666507482528687e-02
4.314273893833160400e-01
1.620037108659744263e-01
3.389461338520050049e-02
1.987334936857223511e-01
-3.048576116561889648e-01
-4.096393287181854248e-02
-6.931616365909576416e-02
5.223686695098876953e-01
6.750150769948959351e-02
-5.131160020828247070e-01
-1.009691357612609863e-01
-1.488970667123794556e-01
-9.954480826854705811e-02
-3.075476549565792084e-02
-4.780151844024658203e-01
5.113431438803672791e-02
-4.009793698787689209e-02
1.151036098599433899e-01
1.488149315118789673e-01
4.433264210820198059e-02
1.053617447614669800e-01
-5.757469534873962402e-01
-1.708867698907852173e-01
1.619278639554977417e-01
-2.473139315843582153e-01
-4.176031053066253662e-02
7.195138931274414062e-02
-1.003320589661598206e-01
1.228697597980499268e-01
1.132825464010238647e-01
5.968850106000900269e-02
1.073763370513916016e-01
3.972594439983367920e-02
-1.823384314775466919e-02
-4.701913520693778992e-02
1.766395419836044312e-01
2.083041518926620483e-01
2.346212789416313171e-02
-1.421948224306106567e-01
1.191621273756027222e-01
-5.807099118828773499e-02
-3.169995248317718506e-01
4.815034195780754089e-02
1.010849997401237488e-01
-8.840196765959262848e-03
1.960423290729522705e-01
2.483013123273849487e-01
2.821977250277996063e-02
6.647446751594543457e-02
-6.532118469476699829e-02
5.726758241653442383e-01
5.267825350165367126e-02
4.913947358727455139e-02
3.265498951077461243e-02
1.978605091571807861e-01
1.792709976434707642e-01
6.110700964927673340e-02
9.388237446546554565e-02
2.424122020602226257e-02
7.269992679357528687e-02
7.789259403944015503e-02
6.655767560005187988e-02
6.112674474716186523e-01
-6.242355331778526306e-03
3.088237941265106201e-01
1.123059689998626709e-01
-1.430374532938003540e-01
-1.132304668426513672e-01
7.363448143005371094e-01
8.140634745359420776e-02
6.177625060081481934e-02
-6.781084090471267700e-02
1.597032845020294189e-01
3.644512295722961426e-01
-5.865601301193237305e-01
-3.096758127212524414e-01
2.352652400732040405e-01
-1.956422775983810425e-01
3.538886010646820068e-01
2.672757506370544434e-01
2.564695775508880615e-01
1.758934110403060913e-01
1.940632164478302002e-01
1.046107336878776550e-01
4.513697698712348938e-02
-3.849212452769279480e-02
2.297662496566772461e-01
8.928728848695755005e-02
-3.067287206649780273e-01
1.954987645149230957e-01
1.296187788248062134e-01
1.588702499866485596e-01
4.037728607654571533e-01
-4.623930435627698898e-03
9.252865612506866455e-02
9.955328702926635742e-02
1.629296839237213135e-01
-3.831893950700759888e-02
1.872561573982238770e-01
1.473069489002227783e-01
5.242127925157546997e-02
3.722640872001647949e-02
-4.502396658062934875e-02
-5.924545601010322571e-02
4.281122684478759766e-01
-1.665689945220947266e-01
-9.635456651449203491e-02
-3.902137652039527893e-02
1.648654043674468994e-01
1.787234395742416382e-01
-3.850682452321052551e-02
-4.697963967919349670e-02
3.945324942469596863e-02
1.095355898141860962e-01
2.509886398911476135e-02
-5.445114150643348694e-02
-4.620087146759033203e-01
-2.762568891048431396e-01
8.265700191259384155e-02
7.475373893976211548e-02
1.257387250661849976e-01
-2.834509015083312988e-01
1.221879348158836365e-01
1.045542135834693909e-01
-1.665542274713516235e-01
4.058326482772827148e-01
-3.846993744373321533e-01
1.853875815868377686e-02
1.557074189186096191e-01
-4.525962471961975098e-01
1.366276592016220093e-01
7.120107859373092651e-02
4.916634261608123779e-01
4.036437254399061203e-03
5.561819672584533691e-02
-3.548862338066101074e-01
6.567834317684173584e-02
1.879818141460418701e-01
-2.388379424810409546e-01
3.584091663360595703e-01
1.350930184125900269e-01
1.512277126312255859e-01
2.132228314876556396e-01
-2.557879686355590820e-02
6.222366355359554291e-03
-1.786445640027523041e-02
-2.477772533893585205e-02
1.305854320526123047e-01
-1.355305165052413940e-01
1.999592185020446777e-01
6.508291233330965042e-03
2.863242030143737793e-01
7.589335739612579346e-02
1.930973827838897705e-01
5.966852903366088867e-01
1.356858611106872559e-01
9.887095540761947632e-02
3.366845101118087769e-02
1.058890894055366516e-01
1.070112455636262894e-02
-2.791256308555603027e-01
3.984329104423522949e-02
1.585355401039123535e-01
-1.942151933908462524e-01
-1.293703913688659668e-01
2.600314281880855560e-02
-2.240017801523208618e-02
2.238467633724212646e-01
-7.486688345670700073e-02
2.340078353881835938e-02
1.224652156233787537e-01
1.883417218923568726e-01
8.486505248583853245e-04
3.546775504946708679e-02
1.343576759099960327e-01
-2.652447670698165894e-02
9.056887775659561157e-02
2.194418609142303467e-01
1.286453604698181152e-01
-3.322761952877044678e-01
1.544674336910247803e-01
8.414026349782943726e-03
4.762119799852371216e-02
1.237358897924423218e-01
-2.548789083957672119e-01
2.730092965066432953e-02
-7.702896744012832642e-02
1.151165366172790527e-01
-4.867408890277147293e-03
8.313753455877304077e-02
-1.551730744540691376e-02
1.700388044118881226e-01
2.570078372955322266e-01
-3.341197371482849121e-01
-2.878729403018951416e-01
-1.460489630699157715e-01
1.688598990440368652e-01
1.073231361806392670e-02
1.645599752664566040e-01
-4.361923635005950928e-01
-2.182035893201828003e-01
1.182549372315406799e-01
-2.990333437919616699e-01
-6.106053665280342102e-02
2.593750953674316406e-01
2.082890272140502930e-01
1.569679826498031616e-01
-8.606271818280220032e-03
5.879483371973037720e-02
9.769164770841598511e-02
-4.337799269706010818e-03
8.788251876831054688e-02
1.584033854305744171e-02
5.686099082231521606e-02
-4.823462292551994324e-02
2.175097465515136719e-01
1.215934455394744873e-01
4.755487293004989624e-02
2.627851068973541260e-01
1.992141157388687134e-01
-5.356439948081970215e-02
8.419632166624069214e-02
1.114142909646034241e-01
2.090091109275817871e-01
-5.712163448333740234e-02
-1.357919424772262573e-01
1.675147116184234619e-01
3.693089634180068970e-02
2.257828265428543091e-01
7.056940346956253052e-02
-5.128212571144104004e-01
1.718744784593582153e-01
-1.200356259942054749e-01
-3.994055688381195068e-01
2.278778888285160065e-02
-6.451470851898193359e-01
-2.789729237556457520e-01
2.035615891218185425e-01
8.114819228649139404e-02
-1.605305820703506470e-01
5.612458586692810059e-01
-4.637856781482696533e-01
1.580253541469573975e-01
4.751342535018920898e-02
1.896391510963439941e-01
-1.893771141767501831e-01
5.903741344809532166e-02
-1.787098348140716553e-01
9.647972136735916138e-02
8.489327132701873779e-02
1.276884973049163818e-01
-1.249079331755638123e-01
1.079135611653327942e-01
-7.071130722761154175e-02
8.887165039777755737e-02
4.350126162171363831e-02
2.442138642072677612e-01
1.041858419775962830e-01
-1.126237511634826660e-01
1.276125162839889526e-01
-1.099419519305229187e-01
1.797641366720199585e-01
-3.946507871150970459e-01
-3.074324131011962891e-01
-1.732428818941116333e-01
2.440364472568035126e-02
-1.347042322158813477e-01
-1.343106329441070557e-01
6.808452308177947998e-02
-8.098226040601730347e-02
-1.248651556670665741e-02
6.513068079948425293e-02
-3.967922180891036987e-02
-1.158094778656959534e-01
5.532042682170867920e-02
4.383508488535881042e-02
-1.072941422462463379e-01
1.348670721054077148e-01
1.685182936489582062e-02
4.023103043437004089e-02
-5.386740434914827347e-03
-1.213983744382858276e-01
7.745663076639175415e-02
-2.555375732481479645e-02
-4.877311736345291138e-02
2.961706928908824921e-02
-9.479518048465251923e-03
-4.799030721187591553e-02
-1.749439686536788940e-01
-4.246688634157180786e-02
1.771814376115798950e-02
1.901867426931858063e-02
-1.106418222188949585e-01
3.260531276464462280e-02
7.320473343133926392e-02
-7.124558091163635254e-02
-1.130411326885223389e-01
-8.244198560714721680e-02
5.607679486274719238e-02
2.856899052858352661e-02
-2.068830579519271851e-01
-1.223477125167846680e-01
-3.041590377688407898e-02
-1.400547921657562256e-01
8.771873265504837036e-02
-1.012526266276836395e-02
1.123648956418037415e-01
2.208698168396949768e-02
-1.359165906906127930e-01
1.655685603618621826e-01
9.219244122505187988e-02
-1.148066744208335876e-01
6.087668612599372864e-02
4.803964495658874512e-02
8.874403685331344604e-02
-1.280056405812501907e-02
9.802292287349700928e-02
5.236198753118515015e-02
7.946576178073883057e-02
-5.371169000864028931e-02
-9.317105263471603394e-02
-1.377947721630334854e-02
-3.261867910623550415e-02
-1.042325980961322784e-02
-4.071053862571716309e-02
-1.548792868852615356e-01
-4.467445891350507736e-03
1.340389158576726913e-02
4.388192668557167053e-03
-1.541359722614288330e-01
-1.277839839458465576e-01
1.164470613002777100e-01
7.208816707134246826e-03
1.221287064254283905e-02
3.738275542855262756e-02
-1.949555985629558563e-02
5.126440525054931641e-02
6.620632857084274292e-02
5.464224889874458313e-02
9.978228807449340820e-02
7.265697419643402100e-02
8.939598500728607178e-02
-1.142824515700340271e-01
1.610761322081089020e-02
-5.352113768458366394e-02
1.399845182895660400e-01
-1.286711245775222778e-01
6.237245630472898483e-03
4.913511220365762711e-03
-1.672697626054286957e-02
-4.160017147660255432e-02
-9.851825982332229614e-02
8.017653971910476685e-02
1.488034240901470184e-02
-6.090730428695678711e-02
-4.850516095757484436e-02
-1.202507410198450089e-02
-9.567060321569442749e-02
-8.309334516525268555e-03
2.628935314714908600e-02
-2.775862254202365875e-02
6.934849661774933338e-04
-8.908422291278839111e-02
-4.045527055859565735e-02
6.237418577075004578e-02
-5.025670677423477173e-02
-1.030203653499484062e-03
-1.775489188730716705e-02
-6.922302301973104477e-03
2.975277416408061981e-02
2.125839516520500183e-02
-6.381421536207199097e-02
5.379611998796463013e-02
4.873586073517799377e-02
-9.443599730730056763e-02
3.071002848446369171e-02
8.470595628023147583e-02
-9.314924478530883789e-03
2.545734308660030365e-02
-5.940056964755058289e-02
1.819235086441040039e-01
6.263775378465652466e-02
5.690093338489532471e-02
-1.009555011987686157e-01
6.464485824108123779e-02
-1.244142353534698486e-01
8.196604996919631958e-02
6.416267901659011841e-02
4.989274218678474426e-02
-1.093862764537334442e-02
-3.296186402440071106e-02
-1.102565452456474304e-01
4.181961342692375183e-02
4.017704725265502930e-02
-1.135156452655792236e-01
1.017636153846979141e-02
-1.200231537222862244e-02
-1.019807383418083191e-01
-1.175597310066223145e-01
-5.781265720725059509e-02
3.223497793078422546e-02
-7.825500518083572388e-02
-3.286665305495262146e-02
-6.894963979721069336e-02
5.560537055134773254e-02
-1.101139932870864868e-01
-2.841196395456790924e-02
-9.096563793718814850e-03
3.934681043028831482e-02
-1.311679780483245850e-01
1.029572337865829468e-01
2.038262225687503815e-02
-6.427062209695577621e-03
6.377412378787994385e-02
-1.751737147569656372e-01
3.849391592666506767e-03
-1.035803109407424927e-01
-5.234823375940322876e-02
2.467959374189376831e-02
-6.684597581624984741e-03
-1.632636040449142456e-02
2.792728692293167114e-02
-3.779537975788116455e-02
-1.750909835100173950e-01
-5.604564398527145386e-02
-4.307977855205535889e-02
1.085230186581611633e-01
-4.334278404712677002e-02
-5.323081277310848236e-03
-6.088777445256710052e-03
7.721185218542814255e-03
-4.701329767704010010e-02
-1.469672322273254395e-01
1.701745688915252686e-01
-7.030817121267318726e-02
7.217650115489959717e-02
-6.481205672025680542e-02
-2.047253772616386414e-02
5.202667787671089172e-02
-1.212100777775049210e-02
-1.021241396665573120e-01
9.910871274769306183e-03
3.275720030069351196e-02
2.663678722456097603e-03
-3.969229385256767273e-02
4.095640778541564941e-02
-5.072814598679542542e-02
-8.732778951525688171e-03
2.147091366350650787e-02
-5.002782866358757019e-02
-6.868893653154373169e-02
-1.404771804809570312e-01
-1.288891881704330444e-01
7.767830044031143188e-02
1.265841443091630936e-02
3.617179393768310547e-02
7.147268205881118774e-02
8.501001447439193726e-02
-1.834513247013092041e-01
3.305963799357414246e-02
2.596350759267807007e-02
7.988101243972778320e-02
-1.990348398685455322e-01
-2.928094938397407532e-02
9.512077085673809052e-03
3.232546150684356689e-02
3.196816518902778625e-02
2.502741292119026184e-02
9.788970649242401123e-02
-1.170845795422792435e-02
-5.662703514099121094e-02
-2.730864845216274261e-02
-3.787130350247025490e-03
-4.507649689912796021e-02
-2.658442556858062744e-01
-4.182280227541923523e-02
9.627723135054111481e-03
1.097875013947486877e-01
-7.010576874017715454e-02
3.128219768404960632e-02
3.001940809190273285e-02
-5.116283893585205078e-02
2.497889101505279541e-02
3.942052274942398071e-02
1.150565519928932190e-01
1.654646918177604675e-02
-2.539226785302162170e-02
5.372322723269462585e-02
-2.996310777962207794e-02
5.088613554835319519e-02
-1.280788565054535866e-03
-5.924686044454574585e-02
-6.302240490913391113e-02
5.089223757386207581e-02
5.940591916441917419e-02
8.043997734785079956e-02
-6.228271499276161194e-02
1.081486046314239502e-01
-1.121650263667106628e-01
-3.269542707130312920e-03
-1.146913226693868637e-02
-6.325170397758483887e-02
-1.434297394007444382e-02
5.585622414946556091e-02
-2.008388377726078033e-02
-6.261755526065826416e-02
8.301396667957305908e-02
-1.320699453353881836e-01
-7.882686704397201538e-02
3.886938467621803284e-02
-4.850947111845016479e-02
-6.155502423644065857e-02
4.130998626351356506e-02
-6.986295431852340698e-02
-2.202255465090274811e-02
1.039663404226303101e-01
-1.031892225146293640e-01
-1.125022768974304199e-01
-1.082943603396415710e-01
6.961882114410400391e-02
1.070699468255043030e-02
-9.984086453914642334e-02
-3.171282634139060974e-02
3.395147249102592468e-02
-2.055848017334938049e-02
-2.308985739946365356e-01
-1.403350234031677246e-01
5.404926836490631104e-02
-7.048401981592178345e-02
8.118831366300582886e-02
1.365191787481307983e-01
-5.894105881452560425e-03
1.102230548858642578e-01
5.265442654490470886e-02
-9.764078259468078613e-02
1.001096144318580627e-01
-2.066498696804046631e-01
-2.258700877428054810e-02
-1.444378048181533813e-01
-2.226716652512550354e-02
5.151234567165374756e-02
-3.517305478453636169e-02
-6.551101803779602051e-02
5.715911835432052612e-02
-3.905484825372695923e-02
-6.894806027412414551e-02
-1.596562415361404419e-01
1.493955776095390320e-02
4.588876292109489441e-02
9.044344723224639893e-02
1.140046566724777222e-01
-1.508998870849609375e-02
-9.758270531892776489e-02
-1.285779327154159546e-01
8.016494661569595337e-02
7.475666701793670654e-02
-1.912650279700756073e-02
1.065762154757976532e-02
3.601769357919692993e-02
-7.915163040161132812e-02
-3.778503090143203735e-02
4.129618033766746521e-02
9.656407684087753296e-02
2.012587338685989380e-02
2.312116883695125580e-02
7.104898989200592041e-02
7.474040985107421875e-02
7.946357131004333496e-02
7.202006131410598755e-02
-2.868453413248062134e-02
-1.233652457594871521e-01
4.246214032173156738e-02
2.249470353126525879e-02
6.664250046014785767e-02
-2.916874736547470093e-02
-2.569158747792243958e-02
1.428817119449377060e-02
-1.140060648322105408e-02
-8.724178373813629150e-02
-9.781745076179504395e-02
-6.743841618299484253e-02
-9.874667041003704071e-03
5.018736049532890320e-02
4.766608588397502899e-03
-3.939184546470642090e-02
-1.650249585509300232e-02
-5.120581481605768204e-03
-5.411474779248237610e-02
4.887678846716880798e-02
-1.610038280487060547e-01
-1.502551976591348648e-02
-1.199978515505790710e-01
1.988382488489151001e-01
-3.809460438787937164e-03
-3.053972683846950531e-02
-1.386807560920715332e-01
-1.309126615524291992e-01
-1.162792593240737915e-01
-1.176441181451082230e-02
2.471795491874217987e-02
-1.416541785001754761e-01
3.721551969647407532e-02
4.632935672998428345e-02
3.054153732955455780e-02
3.124321997165679932e-02
1.071623805910348892e-02
-4.510356578975915909e-03
-1.897830748930573463e-03
-7.712023798376321793e-04
5.125258583575487137e-03
6.780533492565155029e-02
1.235175970941781998e-02
5.458361655473709106e-02
-3.929904848337173462e-02
1.165598630905151367e-01
-5.055576562881469727e-02
1.751835457980632782e-02
-8.600312471389770508e-02
1.094457134604454041e-01
-3.792871907353401184e-02
-3.618121845647692680e-04
-4.090718179941177368e-02
-7.270366698503494263e-02
2.026145905256271362e-01
7.399932295083999634e-02
4.523466154932975769e-02
-3.812550858128815889e-04
-1.063629314303398132e-01
-2.474685609340667725e-01
-6.112623959779739380e-02
-5.205401033163070679e-02
-8.350307494401931763e-02
7.947522401809692383e-02
4.303297027945518494e-02
-4.192054271697998047e-02
-5.158961936831474304e-02
-4.812733456492424011e-02
2.219344675540924072e-01
-4.606973007321357727e-02
5.295677110552787781e-02
-5.680047348141670227e-02
-1.066968888044357300e-01
5.133396014571189880e-03
-1.456596404314041138e-01
5.431698262691497803e-02
-6.652846187353134155e-02
-7.298069447278976440e-02
-1.824712753295898438e-01
4.941399767994880676e-02
1.508122589439153671e-02
-5.446284264326095581e-02
2.780957147479057312e-02
3.788137063384056091e-02
-2.871160022914409637e-02
-1.164893731474876404e-01
-3.880673274397850037e-02
1.570074409246444702e-01
-1.823486201465129852e-02
2.750972984358668327e-03
7.553445757366716862e-04
-7.497683167457580566e-02
1.194292400032281876e-02
-1.151866614818572998e-01
1.295816302299499512e-01
-1.749169081449508667e-01
1.471142321825027466e-01
-5.995406582951545715e-02
9.120047092437744141e-03
4.217196628451347351e-02
8.778597228229045868e-03
-2.333104051649570465e-02
-1.270423233509063721e-01
-9.123878926038742065e-02
7.684787362813949585e-02
4.913036897778511047e-02
-1.206024140119552612e-01
-1.087533533573150635e-01
-1.405830215662717819e-02
1.475870013236999512e-01
2.207906357944011688e-02
-4.343504458665847778e-02
4.872819408774375916e-02
-9.136985242366790771e-02
-1.985094510018825531e-02
2.873739227652549744e-03
-1.085476726293563843e-01
2.523627318441867828e-02
-4.644030705094337463e-02
6.729274988174438477e-02
-5.659528076648712158e-02
7.279989123344421387e-02
-4.528458416461944580e-02
2.208285499364137650e-03
3.281606733798980713e-02
5.267290771007537842e-02
2.784086763858795166e-02
-6.151911988854408264e-02
5.206638947129249573e-02
-6.905735936015844345e-03
1.134517565369606018e-01
-8.496871590614318848e-02
-2.724940702319145203e-02
-5.972622334957122803e-02
-1.211119368672370911e-01
1.083403229713439941e-01
-7.530206441879272461e-02
-1.427378356456756592e-01
-2.325177788734436035e-01
-1.007759571075439453e-01
-3.975053876638412476e-02
-1.583780720829963684e-02
-6.150907278060913086e-02
-1.442389488220214844e-01
9.277028730139136314e-04
-5.182004347443580627e-02
-2.320278249680995941e-02
9.079170972108840942e-02
-1.402180269360542297e-02
6.095269694924354553e-02
2.155372314155101776e-02
2.387992851436138153e-02
2.299465611577033997e-02
9.970466792583465576e-02
2.093107253313064575e-02
1.983455568552017212e-02
3.526064753532409668e-02
-5.608933046460151672e-02
6.669387221336364746e-02
1.664464361965656281e-02
-7.320163771510124207e-03
7.170090824365615845e-02
-1.295046065934002399e-03
-9.691952913999557495e-02
-1.724201440811157227e-01
9.201729297637939453e-02
5.921536684036254883e-02
-8.132256567478179932e-02
-1.739658117294311523e-01
7.204565405845642090e-02
-1.025533024221658707e-02
7.830563932657241821e-03
2.540487423539161682e-02
3.966009989380836487e-02
-9.662514179944992065e-02
-8.701967447996139526e-02
1.226746365427970886e-01
5.587665364146232605e-03
-4.730130732059478760e-02
-1.339753121137619019e-01
-6.233926862478256226e-02
3.982890862971544266e-03
-2.041357383131980896e-02
5.198144819587469101e-03
-6.957277655601501465e-02
3.943191096186637878e-02
5.162073299288749695e-02
6.871197372674942017e-02
-8.502034097909927368e-02
1.071417927742004395e-01
2.481550164520740509e-02
2.127361148595809937e-01
-1.654502190649509430e-02
-1.544078439474105835e-02
-1.156981959939002991e-01
-6.216358020901679993e-02
-5.902618542313575745e-02
1.721451058983802795e-02
-3.356788679957389832e-02
5.430956557393074036e-02
-3.345758840441703796e-02
-1.683219708502292633e-02
-3.747089207172393799e-02
7.298147678375244141e-02
-2.549749985337257385e-02
-2.214919477701187134e-01
6.566262245178222656e-02
-1.123275235295295715e-01
-1.156236678361892700e-01
-2.028462290763854980e-01
5.569872632622718811e-02
1.675347238779067993e-01
-9.778677485883235931e-03
-1.062693372368812561e-01
-1.348556280136108398e-01
3.805580362677574158e-02
6.843890249729156494e-02
6.138480827212333679e-02
6.562027335166931152e-02
-1.839965209364891052e-02
8.525236509740352631e-03
-1.195032820105552673e-01
3.407349810004234314e-02
-3.487809002399444580e-02
-3.656713366508483887e-01
6.285665184259414673e-02
4.735525697469711304e-02
-1.310462504625320435e-01
-1.261567473411560059e-01
2.244751751422882080e-01
-2.063410878181457520e-01
6.963904947042465210e-02
5.549895018339157104e-02
-1.675929129123687744e-01
1.167108044028282166e-01
4.791354387998580933e-02
-1.263670325279235840e-01
1.558134555816650391e-01
-1.902100890874862671e-01
-6.157898530364036560e-02
3.729832172393798828e-01
-6.547860801219940186e-02
-1.466662436723709106e-02
1.281230989843606949e-02
-6.647697836160659790e-02
2.765831351280212402e-01
-1.854322254657745361e-01
-1.810829639434814453e-01
1.662298291921615601e-01
1.005202978849411011e-01
1.695646345615386963e-02
-8.254629373550415039e-02
1.723912544548511505e-02
5.416944622993469238e-02
-7.896914333105087280e-02
9.085258096456527710e-02
1.141410097479820251e-01
-3.980436304118484259e-04
5.051137413829565048e-03
-8.680994808673858643e-02
-8.014445751905441284e-02
1.084178909659385681e-01
-2.272052615880966187e-01
-1.602029800415039062e-01
-1.527798026800155640e-01
1.406488846987485886e-02
-1.090966239571571350e-01
-1.570629775524139404e-01
-4.952755570411682129e-02
-7.847553491592407227e-02
-2.093629911541938782e-02
1.732227802276611328e-01
-2.310440838336944580e-01
-2.394429594278335571e-01
-4.042774066329002380e-02
-4.821076244115829468e-02
-2.350905677303671837e-03
5.867090076208114624e-03
7.862690836191177368e-03
2.898559272289276123e-01
8.981988765299320221e-03
1.605492830276489258e-01
-1.610479317605495453e-02
2.019373886287212372e-02
-3.367693722248077393e-01
-2.381234765052795410e-01
-8.197402581572532654e-03
-1.986309140920639038e-01
-1.181042641401290894e-01
-3.922037780284881592e-01
7.043743133544921875e-02
-3.387550264596939087e-02
1.160104051232337952e-01
5.072261765599250793e-02
-1.416307836771011353e-01
-4.095386248081922531e-03
-3.115574084222316742e-02
-1.738989502191543579e-01
1.942383199930191040e-01
-2.360961437225341797e-01
-1.249075308442115784e-01
-9.952303767204284668e-02
-1.941992491483688354e-01
-8.610500954091548920e-03
-2.701381919905543327e-03
-1.608021557331085205e-01
7.268629223108291626e-02
-7.594128698110580444e-02
1.529744639992713928e-02
2.509861588478088379e-01
1.738632172346115112e-01
-4.056722298264503479e-02
4.055815935134887695e-02
1.172780320048332214e-01
1.833083480596542358e-02
-1.190854460000991821e-01
1.996906660497188568e-02
-9.619130194187164307e-02
8.551203459501266479e-02
-3.742237389087677002e-02
9.384457021951675415e-02
2.293060719966888428e-02
3.738058730959892273e-02
8.100566267967224121e-02
2.067519277334213257e-01
9.275592863559722900e-02
6.593217700719833374e-02
-1.241810470819473267e-01
1.770976036787033081e-01
2.828433178365230560e-02
-9.351694583892822266e-02
-5.875438451766967773e-02
5.818148702383041382e-02
-1.212976314127445221e-02
-6.195785105228424072e-02
-1.392882019281387329e-01
1.987146884202957153e-01
-1.241146028041839600e-01
-1.721197515726089478e-01
2.278110086917877197e-01
-4.464024677872657776e-02
-7.565262261778116226e-03
-2.417483031749725342e-01
4.842175170779228210e-02
-1.516852378845214844e-01
1.857605427503585815e-01
2.658400833606719971e-01
-1.746382117271423340e-01
2.237229980528354645e-02
-1.600151360034942627e-01
-6.182451918721199036e-02
4.425520822405815125e-02
-1.697123795747756958e-01
8.153445273637771606e-02
-1.129450425505638123e-01
1.218911036849021912e-01
-8.284247666597366333e-02
-1.760567910969257355e-02
7.649549841880798340e-02
-3.877815604209899902e-02
-1.812140196561813354e-01
2.327907830476760864e-03
-1.816267706453800201e-02
-1.155802011489868164e-01
-1.830606013536453247e-01
1.858439110219478607e-02
-1.880228370428085327e-01
-7.119213789701461792e-02
2.007322162389755249e-01
1.538312733173370361e-01
3.072981350123882294e-02
-8.874728530645370483e-02
1.366266310214996338e-01
1.445054560899734497e-01
1.536238752305507660e-02
-6.159680709242820740e-02
-3.334859758615493774e-02
-4.369369149208068848e-02
4.911522939801216125e-02
1.058230847120285034e-01
1.376729011535644531e-01
1.886236816644668579e-01
-1.425545513629913330e-01
-2.772737443447113037e-01
4.172857403755187988e-01
5.867595598101615906e-02
5.463613197207450867e-02
-2.857470326125621796e-02
3.600000217556953430e-02
-1.851442754268646240e-01
3.190172836184501648e-02
9.064114093780517578e-02
1.692932099103927612e-01
1.863393746316432953e-02
-2.808856368064880371e-01
4.637516976799815893e-04
-1.687891036272048950e-01
1.531916204839944839e-03
1.698751598596572876e-01
-4.102263972163200378e-02
1.446998566389083862e-01
-4.096651673316955566e-01
1.076974906027317047e-02
-1.344150751829147339e-01
1.086327284574508667e-01
6.809219717979431152e-02
-7.690443843603134155e-02
-2.324898988008499146e-01
1.180102303624153137e-01
-1.422038227319717407e-01
-3.302091732621192932e-02
-6.263270974159240723e-02
4.359037056565284729e-02
-1.979682594537734985e-02
-1.538066565990447998e-01
3.662886470556259155e-02
-1.931700296700000763e-02
-5.376221612095832825e-02
-3.717555999755859375e-01
-6.573107093572616577e-02
1.578152179718017578e-02
-1.862941682338714600e-01
9.083873778581619263e-02
-1.642081290483474731e-01
-6.998831033706665039e-02
1.279740594327449799e-02
-3.442375734448432922e-02
-2.047374378889799118e-03
1.088760569691658020e-01
6.150880828499794006e-02
5.942349135875701904e-02
4.915209859609603882e-02
1.256474703550338745e-01
-4.505656287074089050e-02
-1.642877906560897827e-01
-1.509775873273611069e-02
-2.791395597159862518e-02
2.530898712575435638e-02
1.061139926314353943e-01
-8.714710921049118042e-02
-1.673500090837478638e-01
5.109773483127355576e-03
-2.338627539575099945e-02
3.665583580732345581e-02
-3.100333809852600098e-01
7.012880593538284302e-02
3.168330341577529907e-02
2.163867354393005371e-01
-1.197444349527359009e-01
1.285436451435089111e-01
4.073005542159080505e-02
-2.926814369857311249e-02
5.842336639761924744e-02
5.950365960597991943e-02
3.797080740332603455e-02
9.784454852342605591e-02
9.075557813048362732e-03
-1.029112040996551514e-01
1.389017999172210693e-01
-1.062364056706428528e-01
-7.095430791378021240e-02
1.140789911150932312e-01
-1.103355959057807922e-01
-2.247097492218017578e-01
-5.053172260522842407e-02
-2.573519945144653320e-02
-9.277543425559997559e-02
-6.873476505279541016e-02
-5.451791733503341675e-02
-1.859674155712127686e-01
1.127389743924140930e-01
1.055103540420532227e-01
5.238256976008415222e-02
4.335795715451240540e-02
8.414152264595031738e-02
-3.441371722146868706e-03
-5.280034616589546204e-02
-8.650666475296020508e-02
-8.550430089235305786e-02
-1.579159051179885864e-01
-1.591124385595321655e-01
-1.649523079395294189e-01
-1.707283593714237213e-02
9.577418118715286255e-02
7.398967444896697998e-02
-4.184396471828222275e-03
2.444867789745330811e-01
-1.049390658736228943e-01
-3.809635937213897705e-01
-4.712511436082422733e-04
1.985783278942108154e-01
-1.150463744997978210e-01
-2.668588887900114059e-03
-4.733184352517127991e-02
-3.172283247113227844e-02
9.504309296607971191e-02
-1.960131525993347168e-02
-1.628986597061157227e-01
1.806212216615676880e-01
6.098220124840736389e-02
1.275720745325088501e-01
-1.100608035922050476e-01
1.068569719791412354e-01
1.614017039537429810e-01
-3.947930037975311279e-02
-8.125007152557373047e-02
4.947869852185249329e-02
-7.870131731033325195e-02
6.583666801452636719e-02
2.729872763156890869e-01
-1.679264940321445465e-02
2.371420525014400482e-02
4.850926995277404785e-02
7.293353229761123657e-02
7.463552802801132202e-02
1.798522174358367920e-01
-1.085126250982284546e-01
-5.302777141332626343e-02
3.643269091844558716e-02
4.412862658500671387e-02
5.566088482737541199e-02
3.674141317605972290e-02
1.796835474669933319e-02
8.553785085678100586e-02
1.499720942229032516e-02
8.948978036642074585e-02
8.001223951578140259e-02
6.706249713897705078e-02
2.998700179159641266e-02
-6.833717226982116699e-02
-2.212173938751220703e-01
2.671254798769950867e-02
3.998453170061111450e-02
-3.459886088967323303e-02
-2.388497116044163704e-03
1.786107569932937622e-01
2.274163216352462769e-01
-4.853549599647521973e-02
-1.419270783662796021e-01
2.587272226810455322e-02
-1.856074184179306030e-01
-1.115987077355384827e-01
1.270510908216238022e-02
-1.438555717468261719e-01
-1.606495082378387451e-01
3.512742519378662109e-01
1.665229350328445435e-01
4.148547723889350891e-02
6.141101568937301636e-02
1.008231863379478455e-01
-8.920278400182723999e-02
1.569604128599166870e-01
-1.824847757816314697e-01
7.183931022882461548e-02
-9.091811254620552063e-03
2.116210162639617920e-01
2.525944262742996216e-02
3.835684433579444885e-02
-1.297175884246826172e-01
-1.199297681450843811e-01
-8.411348611116409302e-02
1.205664798617362976e-01
-1.692046970129013062e-01
6.618278473615646362e-02
-1.000821888446807861e-01
-1.119408160448074341e-01
7.864595949649810791e-02
1.022575572133064270e-01
1.762807555496692657e-02
1.940833777189254761e-02
2.160386443138122559e-01
-1.447877287864685059e-01
-3.509829193353652954e-02
-3.773655593395233154e-01
1.947817206382751465e-02
-1.143821030855178833e-01
4.673726484179496765e-02
7.777786254882812500e-02
-1.683306396007537842e-01
-7.228008657693862915e-02
2.507126890122890472e-02
3.367149829864501953e-02
-1.714526861906051636e-01
-8.384011685848236084e-03
-2.393345832824707031e-01
-3.232205659151077271e-02
-3.972392529249191284e-02
-3.129213675856590271e-02
4.268265143036842346e-02
2.087825089693069458e-01
-2.531886287033557892e-02
6.672433018684387207e-02
-2.225060947239398956e-02
-1.769504160620272160e-03
-1.250255852937698364e-01
1.161187067627906799e-01
5.611779168248176575e-03
-2.588939070701599121e-01
1.211906690150499344e-02
2.085152417421340942e-01
1.563675552606582642e-01
1.182384938001632690e-01
-5.934987962245941162e-02
-3.112717159092426300e-02
1.684767603874206543e-01
-1.845334023237228394e-01
1.149624586105346680e-01
4.264660552144050598e-02
-1.400295048952102661e-01
1.286574006080627441e-01
1.091999411582946777e-01
7.927021384239196777e-02
6.674077361822128296e-02
9.146987646818161011e-02
-1.295791119337081909e-01
-3.010180592536926270e-01
-1.243545338511466980e-01
1.345967687666416168e-02
-1.311301440000534058e-01
3.565213456749916077e-02
1.233787089586257935e-01
1.403809040784835815e-01
-3.066163510084152222e-02
3.461705520749092102e-02
7.674342393875122070e-02
-2.283405214548110962e-01
-3.549987375736236572e-01
3.599556162953376770e-02
-1.000066250562667847e-01
1.319479495286941528e-01
-3.041597306728363037e-01
8.269397169351577759e-02
-4.246155545115470886e-02
2.007085978984832764e-01
-6.331816315650939941e-02
5.274683237075805664e-02
-8.082630112767219543e-03
1.743362694978713989e-01
3.172612190246582031e-02
-4.735253453254699707e-01
1.189622748643159866e-02
-2.187733910977840424e-02
3.637741208076477051e-01
-1.220861896872520447e-01
-1.261881291866302490e-01
-7.496695965528488159e-02
-2.779259085655212402e-01
-6.599044799804687500e-02
-2.354589551687240601e-01
-9.530792385339736938e-02
-4.898652061820030212e-02
-2.332056127488613129e-02
9.787879884243011475e-02
2.917206659913063049e-02
-1.954357884824275970e-02
-1.073278188705444336e-01
1.190293431282043457e-01
-7.340443879365921021e-02
-7.925965636968612671e-02
2.085115574300289154e-02
-8.142948895692825317e-02
-1.283185929059982300e-01
2.560201883316040039e-01
-1.357272863388061523e-01
-1.841917037963867188e-01
-5.770848318934440613e-02
2.711942652240395546e-03
-4.551969096064567566e-02
3.938933014869689941e-01
-2.330199033021926880e-01
3.016623258590698242e-01
1.348627507686614990e-01
-5.512486770749092102e-02
7.987091690301895142e-02
-2.103065997362136841e-01
-7.651334255933761597e-02
-1.101763918995857239e-01
-1.678623110055923462e-01
2.140100598335266113e-01
-8.546844124794006348e-02
-1.248830705881118774e-01
-5.171951837837696075e-03
9.134392440319061279e-02
2.750832028687000275e-02
2.646996676921844482e-01
-1.474734544754028320e-01
-1.016846019774675369e-02
-3.245868682861328125e-01
-1.570564061403274536e-01
8.434888720512390137e-02
-7.941559702157974243e-02
1.494765281677246094e-01
-6.018288433551788330e-02
4.700510948896408081e-02
1.078235507011413574e-01
1.316358000040054321e-01
4.927374422550201416e-02
9.209609031677246094e-02
6.669755280017852783e-02
3.267602622509002686e-02
1.862684264779090881e-02
8.172608911991119385e-02
1.423534899950027466e-01
1.160597577691078186e-01
-6.314987689256668091e-02
9.491533041000366211e-02
-7.414638251066207886e-02
-2.905700542032718658e-02
-2.522308528423309326e-01
-2.330804057419300079e-02
3.020876832306385040e-02
-1.797544807195663452e-01
3.398526459932327271e-02
-2.184382081031799316e-01
-1.669408194720745087e-02
-4.367199912667274475e-02
1.419670693576335907e-02
-1.593493372201919556e-01
1.964397728443145752e-02
-7.234611362218856812e-02
-5.862804502248764038e-02
-7.195602357387542725e-02
-1.339614391326904297e-01
3.462017700076103210e-02
-2.302118539810180664e-01
6.642082333564758301e-02
1.317401379346847534e-01
-2.587405443191528320e-01
-6.237567588686943054e-02
1.561031793244183064e-03
-1.051183566451072693e-01
7.514307275414466858e-03
9.860751032829284668e-02
6.262605637311935425e-02
7.101119309663772583e-02
-1.337073277682065964e-02
6.247435510158538818e-02
-9.635014086961746216e-02
1.379434484988451004e-02
1.145398691296577454e-01
2.218862436711788177e-02
3.040439821779727936e-02
-3.435221314430236816e-02
-1.404781341552734375e-01
1.621475964784622192e-01
-3.942988067865371704e-02
6.143010035157203674e-02
9.263768792152404785e-02
3.580728545784950256e-02
1.771816238760948181e-02
1.225708201527595520e-01
1.384820695966482162e-02
-2.268041856586933136e-02
6.525528430938720703e-02
1.202357560396194458e-02
7.849378511309623718e-03
-2.084872424602508545e-01
-4.350834060460329056e-03
1.057777255773544312e-01
9.946337342262268066e-02
-1.254563033580780029e-01
-7.834210246801376343e-02
-1.855593058280646801e-03
-3.305932134389877319e-02
-8.048628270626068115e-02
-1.415400020778179169e-02
5.357882007956504822e-02
-1.434508115053176880e-01
8.672602474689483643e-02
6.768247112631797791e-03
9.400966763496398926e-02
-1.541000790894031525e-02
6.222197320312261581e-03
-1.521551758050918579e-01
-3.153592348098754883e-03
-9.974590688943862915e-02
5.788917466998100281e-02
-3.566741198301315308e-02
9.929247200489044189e-02
-7.977719604969024658e-02
-1.407772600650787354e-01
1.393839567899703979e-01
9.291458129882812500e-02
-2.345717884600162506e-02
1.197093576192855835e-01
-1.313095390796661377e-01
7.511860132217407227e-02
4.483793675899505615e-02
-1.488044019788503647e-02
7.425673305988311768e-02
-1.408417522907257080e-02
-1.676794514060020447e-02
9.515009075403213501e-02
-1.425019651651382446e-02
1.723316162824630737e-01
-1.381122916936874390e-01
-2.425330318510532379e-02
1.015704423189163208e-01
1.181956231594085693e-01
-4.478156566619873047e-02
-3.967725858092308044e-02
1.495499350130558014e-02
-1.752433627843856812e-01
1.100657880306243896e-01
-1.368335932493209839e-01
4.899135977029800415e-02
-1.303788125514984131e-01
1.199151575565338135e-02
-7.225846638903021812e-04
-2.977552078664302826e-02
-2.430997788906097412e-02
-1.630789716728031635e-03
3.273868560791015625e-02
5.000767111778259277e-02
3.858010843396186829e-02
2.331259399652481079e-01
5.735432729125022888e-03
6.718876212835311890e-02
2.545424550771713257e-02
5.765276029706001282e-02
1.354530826210975647e-02
1.270627677440643311e-01
-1.198640931397676468e-02
-7.974623143672943115e-02
-7.974825799465179443e-02
-6.543092429637908936e-02
-7.237869780510663986e-03
-1.617239117622375488e-01
3.203777596354484558e-02
-1.015295311808586121e-01
-2.128991857171058655e-02
-3.714609891176223755e-02
1.344190984964370728e-01
3.477578610181808472e-02
9.628827869892120361e-02
2.799494192004203796e-02
2.934946864843368530e-02
4.542190581560134888e-02
-6.525226868689060211e-03
2.718570642173290253e-02
-5.249643698334693909e-02
-7.971346378326416016e-02
-2.245401889085769653e-01
-1.028719916939735413e-01
7.974214106798171997e-02
6.840866804122924805e-02
1.725030392408370972e-01
1.038208827376365662e-01
6.276781857013702393e-02
1.003852859139442444e-01
2.719938382506370544e-02
-2.032614313066005707e-02
7.682301849126815796e-02
-4.778697341680526733e-02
3.508272394537925720e-02
4.159587249159812927e-02
6.128851324319839478e-02
-1.151027828454971313e-01
-7.695129513740539551e-02
-1.142320632934570312e-01
-9.170692414045333862e-02
2.497029118239879608e-02
-3.521944582462310791e-02
-6.938430666923522949e-02
6.458351761102676392e-02
-3.088185004889965057e-02
5.042433366179466248e-02
6.992786377668380737e-02
1.206787973642349243e-01
-4.547394067049026489e-02
-3.437285125255584717e-02
7.532187551259994507e-02
-3.720724210143089294e-02
1.207295954227447510e-01
4.582717642188072205e-02
-7.937391847372055054e-02
3.088135272264480591e-02
-1.437983363866806030e-01
-5.241636931896209717e-02
-3.873444721102714539e-02
2.781790867447853088e-02
-1.279290169477462769e-01
-9.927915036678314209e-02
1.260277032852172852e-01
-9.852506220340728760e-03
-1.754436641931533813e-02
7.992194592952728271e-02
-9.493374824523925781e-02
5.923706293106079102e-02
-2.151309326291084290e-02
-3.443374112248420715e-02
-9.932746738195419312e-02
8.708310127258300781e-02
7.369238138198852539e-02
2.223340049386024475e-02
1.182242706418037415e-01
-4.390305280685424805e-02
-3.646261990070343018e-02
1.050741448998451233e-01
6.887775845825672150e-03
9.324035793542861938e-02
-8.605108596384525299e-03
5.782790109515190125e-02
-1.763983964920043945e-01
-1.096184551715850830e-01
-8.463088423013687134e-03
7.058343291282653809e-02
2.172578126192092896e-02
-5.420242622494697571e-02
-3.089304268360137939e-02
-1.065725982189178467e-01
1.670548319816589355e-01
1.474654488265514374e-02
9.930552542209625244e-02
3.207043185830116272e-02
7.763631641864776611e-02
-8.616719394922256470e-02
8.701679855585098267e-02
8.061198890209197998e-02
1.446193605661392212e-01
-1.080704107880592346e-01
8.242662996053695679e-02
7.413054257631301880e-02
7.298647891730070114e-03
1.568603366613388062e-01
3.148775175213813782e-02
2.340188436210155487e-02
7.238774001598358154e-02
-1.973715871572494507e-01
-6.567616760730743408e-02
7.176136225461959839e-02
-6.066728383302688599e-02
9.730828553438186646e-02
1.198915764689445496e-01
2.738966606557369232e-02
-9.092947468161582947e-03
5.144245922565460205e-02
1.146080344915390015e-02
4.138206690549850464e-02
4.017721489071846008e-02
4.372769221663475037e-02
-3.342076763510704041e-02
2.010801583528518677e-01
-1.133119314908981323e-01
7.395122945308685303e-02
9.505459666252136230e-02
6.329052150249481201e-02
7.764641940593719482e-02
9.022727608680725098e-02
-3.141153976321220398e-02
-1.299205273389816284e-01
-4.357408732175827026e-02
-2.451921254396438599e-02
7.587724179029464722e-02
1.327572315931320190e-01
-2.292049117386341095e-02
4.176387190818786621e-02
9.746921807527542114e-02
-7.724558934569358826e-03
-6.502301245927810669e-02
-1.206774935126304626e-01
4.291924089193344116e-02
-4.628894478082656860e-02
1.376470029354095459e-01
-9.568206965923309326e-02
-7.484661042690277100e-02
1.414078474044799805e-02
6.429009605199098587e-03
-1.597809977829456329e-02
-2.192064560949802399e-02
7.094013690948486328e-02
4.863594844937324524e-02
1.153224408626556396e-01
-3.155273944139480591e-02
3.684346796944737434e-03
4.128007590770721436e-02
1.076467558741569519e-01
-7.883950322866439819e-02
7.449000328779220581e-02
-1.550295203924179077e-02
1.595766991376876831e-01
1.462642252445220947e-01
-3.334825858473777771e-03
-1.099792122840881348e-01
3.342384472489356995e-02
5.701182410120964050e-02
-1.438754200935363770e-01
4.235513880848884583e-02
1.107171997427940369e-01
-3.088838607072830200e-02
-1.057618334889411926e-01
5.638688057661056519e-02
3.099806606769561768e-02
2.822770178318023682e-02
-8.312018215656280518e-02
2.258546836674213409e-02
4.273658245801925659e-02
4.082826524972915649e-02
1.362553238868713379e-01
3.135464712977409363e-02
-6.304406374692916870e-02
-3.393760323524475098e-02
6.489558517932891846e-02
4.336156696081161499e-02
2.680653147399425507e-02
-7.905077934265136719e-02
-7.566975802183151245e-02
-1.847905963659286499e-01
-1.090992987155914307e-01
2.055386081337928772e-02
7.344257831573486328e-02
-8.359710872173309326e-02
1.427307426929473877e-01
3.504747152328491211e-02
-3.112902399152517319e-03
-4.353063181042671204e-02
-3.068383038043975830e-02
-1.229939311742782593e-01
-3.398520871996879578e-02
1.437257416546344757e-02
-9.882952272891998291e-02
6.133450567722320557e-02
2.199915945529937744e-01
-1.470872946083545685e-02
5.431339144706726074e-03
-9.108841419219970703e-02
1.706176400184631348e-01
-5.311655625700950623e-02
-4.630902409553527832e-02
-9.498613327741622925e-02
-3.894734382629394531e-02
8.455213904380798340e-02
1.001793593168258667e-01
7.820907235145568848e-02
4.531522840261459351e-02
1.617912668734788895e-03
1.381205469369888306e-01
1.618233695626258850e-02
-1.821293123066425323e-02
-8.357876539230346680e-02
-1.163279823958873749e-02
1.180503424257040024e-02
-6.986749917268753052e-02
3.000853024423122406e-02
-1.140371561050415039e-01
-9.079831838607788086e-02
-3.518635779619216919e-02
6.511443108320236206e-02
-3.494283184409141541e-02
-6.380043923854827881e-02
-5.573033541440963745e-02
2.940334379673004150e-02
-1.470320373773574829e-01
-2.791539952158927917e-02
3.251745551824569702e-02
1.065695732831954956e-01
1.993514895439147949e-01
5.222423747181892395e-02
8.150106668472290039e-02
-1.908892393112182617e-01
-3.759252279996871948e-02
6.361427903175354004e-02
-3.793473541736602783e-02
4.178371652960777283e-02
6.137597933411598206e-02
9.322115220129489899e-03
1.249312087893486023e-01
-5.995407328009605408e-02
8.267462253570556641e-03
6.648159027099609375e-02
-2.076928503811359406e-02
7.044756412506103516e-02
3.139488399028778076e-02
-1.459439098834991455e-01
3.585404157638549805e-02
1.427956074476242065e-01
-3.015134483575820923e-02
1.040708795189857483e-01
2.966426126658916473e-02
3.851886093616485596e-02
-1.495524588972330093e-02
-5.498901382088661194e-02
-9.842393547296524048e-02
-5.025660619139671326e-02
-4.978857934474945068e-02
4.641383886337280273e-02
1.183515265583992004e-01
6.085583940148353577e-02
2.252687327563762665e-02
-7.820374518632888794e-02
1.206338685005903244e-02
-4.339187592267990112e-02
-1.682981476187705994e-02
-7.110002636909484863e-02
3.355621173977851868e-02
8.148805052042007446e-02
1.388948112726211548e-01
2.128425426781177521e-02
2.576188556849956512e-02
2.236150018870830536e-02
-8.301668614149093628e-02
-1.004839688539505005e-01
-3.854695241898298264e-03
1.625528782606124878e-01
1.931346207857131958e-01
1.735743433237075806e-01
6.985182990320026875e-04
3.628713637590408325e-02
-1.069383844733238220e-01
9.620866179466247559e-02
-2.654115259647369385e-01
-1.526257954537868500e-02
-9.121613949537277222e-02
-1.181707456707954407e-01
-1.067739352583885193e-01
1.480801403522491455e-01
-1.140211448073387146e-01
6.841899454593658447e-02
4.891163855791091919e-02
-1.441729217767715454e-01
3.239354491233825684e-02
-8.814620971679687500e-02
5.677530169486999512e-02
-1.033401675522327423e-02
2.327483892440795898e-01
1.038356050848960876e-01
9.131477773189544678e-02
3.724769502878189087e-02
-8.051128685474395752e-02
-1.596644893288612366e-02
1.730840057134628296e-01
-1.680226922035217285e-01
-1.080173477530479431e-01
3.495262190699577332e-02
3.485624119639396667e-02
-4.598142579197883606e-02
3.210275433957576752e-03
-3.076063841581344604e-02
-1.104596909135580063e-02
1.759396195411682129e-01
-1.789287850260734558e-02
2.554709836840629578e-02
-1.945235766470432281e-02
1.225646138191223145e-01
9.548808634281158447e-02
5.541266128420829773e-02
9.707532823085784912e-03
3.371099010109901428e-02
-5.518290027976036072e-02
-3.004983626306056976e-02
-3.896510601043701172e-02
8.148483186960220337e-02
1.235202997922897339e-01
-3.676386177539825439e-02
5.422185361385345459e-02
1.808760315179824829e-01
1.201600581407546997e-01
8.024273812770843506e-02
3.619620949029922485e-02
2.467633411288261414e-02
-1.242336444556713104e-02
2.915461664088070393e-04
-7.620245963335037231e-02
2.675217017531394958e-02
6.011287868022918701e-02
8.332675695419311523e-02
-5.745979025959968567e-02
-3.046637028455734253e-02
5.793189629912376404e-02
9.532152861356735229e-02
-8.794396126177161932e-05
2.630301006138324738e-02
1.377900093793869019e-01
1.564167439937591553e-01
-5.937713757157325745e-02
8.030642569065093994e-02
1.361105218529701233e-02
1.801237016916275024e-01
2.636808715760707855e-02
5.856505129486322403e-03
-5.350077897310256958e-02
-7.673665881156921387e-02
-1.898928359150886536e-02
3.763151913881301880e-02
3.480615094304084778e-02
-5.059928074479103088e-02
-4.366558417677879333e-02
2.014997601509094238e-02
-1.484655737876892090e-01
-1.049456521868705750e-01
3.672434017062187195e-02
-4.242503270506858826e-02
-4.124607518315315247e-02
1.799298077821731567e-01
-4.632328450679779053e-02
1.320455074310302734e-01
-1.099863834679126740e-02
5.619946867227554321e-03
3.380192816257476807e-02
-6.015184894204139709e-02
3.181346133351325989e-02
3.364796563982963562e-02
-2.707090601325035095e-02
-4.412313282955437899e-04
-4.604898020625114441e-02
-8.123828098177909851e-03
6.930521875619888306e-02
-2.892890945076942444e-02
-1.098038032650947571e-01
1.571466475725173950e-01
-4.798058047890663147e-02
6.447426974773406982e-02
-1.035138741135597229e-01
-7.669701706618070602e-03
3.605163097381591797e-02
6.360144168138504028e-02
6.357043515890836716e-03
2.189126461744308472e-01
2.922188118100166321e-02
1.051679626107215881e-01
6.494485586881637573e-02
-5.382190644741058350e-02
6.581196188926696777e-02
-1.311832759529352188e-02
6.490097194910049438e-02
6.256375461816787720e-02
-8.674855530261993408e-02
-1.883008051663637161e-03
8.923216909170150757e-02
5.679786205291748047e-02
1.616618596017360687e-02
-1.319523453712463379e-01
-9.260528534650802612e-02
-1.348853409290313721e-01
2.935256063938140869e-01
-6.376315653324127197e-02
-5.339362099766731262e-02
-9.209280461072921753e-02
1.507372688502073288e-02
-2.085275501012802124e-01
-2.133514545857906342e-02
-5.221694707870483398e-02
-2.532688714563846588e-02
1.053235772997140884e-02
-1.468237303197383881e-02
5.178887862712144852e-03
-3.679620474576950073e-02
-3.085383474826812744e-01
8.481939136981964111e-02
-6.143776327371597290e-02
-7.805157452821731567e-02
-1.257902979850769043e-01
-7.396985590457916260e-02
-2.109200134873390198e-02
-2.676894702017307281e-02
3.836843743920326233e-02
-5.936887860298156738e-02
-1.301317960023880005e-01
-8.431752026081085205e-02
3.087223470211029053e-01
-2.395418435335159302e-01
1.480328291654586792e-01
4.063263162970542908e-02
-1.303836405277252197e-01
-5.917276069521903992e-02
2.395442575216293335e-01
3.388403356075286865e-01
1.433862596750259399e-01
-6.938282400369644165e-02
-2.978758327662944794e-02
2.466336041688919067e-01
-1.502027958631515503e-01
-8.374784141778945923e-02
-1.164310798048973083e-01
9.264966100454330444e-02
1.231199409812688828e-02
-1.348192095756530762e-01
8.361403644084930420e-02
-8.331048488616943359e-02
1.284643858671188354e-01
6.579126697033643723e-03
-3.134118393063545227e-02
-1.174268871545791626e-01
-6.165764061734080315e-04
-1.738540828227996826e-01
-4.875289648771286011e-02
-1.358703523874282837e-01
-9.557764977216720581e-02
4.268506169319152832e-02
-2.708768844604492188e-02
1.015107706189155579e-01
-4.132168591022491455e-01
4.708227701485157013e-03
-1.188934445381164551e-01
-9.510701894760131836e-02
-5.567117780447006226e-02
4.723426327109336853e-02
-4.474091343581676483e-03
-5.997728705406188965e-01
-2.281365841627120972e-01
-4.056319594383239746e-02
-1.479887682944536209e-02
-9.102362394332885742e-02
-7.319545000791549683e-02
-5.440703406929969788e-02
-2.528197690844535828e-02
1.017281506210565567e-02
-2.010946273803710938e-01
-2.919146716594696045e-01
-3.983905538916587830e-02
4.265656322240829468e-02
-5.670036748051643372e-02
-3.943752124905586243e-02
-2.794576883316040039e-01
-3.876686692237854004e-01
1.377431154251098633e-01
-1.328558325767517090e-01
-8.976630866527557373e-03
2.096428424119949341e-01
-2.025035172700881958e-01
-3.381371796131134033e-01
-4.644637927412986755e-02
-2.459759563207626343e-01
-2.025052756071090698e-01
-1.661281287670135498e-02
7.304427027702331543e-02
1.236252933740615845e-01
1.091286167502403259e-02
-1.513573992997407913e-02
-1.358376890420913696e-01
-3.427916020154953003e-02
4.059768468141555786e-02
1.643055528402328491e-01
3.406609222292900085e-02
4.951272532343864441e-02
3.558345735073089600e-01
-2.295015007257461548e-01
-1.014451012015342712e-01
-3.762095272541046143e-01
-1.674560643732547760e-02
-9.435524791479110718e-02
-5.862148478627204895e-02
-1.288199126720428467e-01
-8.185509592294692993e-02
-9.441421926021575928e-02
3.187688067555427551e-02
1.369821429252624512e-01
-3.973997235298156738e-01
1.880420558154582977e-02
3.283878043293952942e-02
2.882641740143299103e-03
-3.478232771158218384e-02
1.128503903746604919e-01
2.450869604945182800e-02
2.524168789386749268e-02
-3.633963689208030701e-02
-2.759330570697784424e-01
-1.142529919743537903e-01
4.544383659958839417e-02
1.659355163574218750e-01
-8.096823841333389282e-02
1.927514560520648956e-02
-1.306184083223342896e-01
-3.190390765666961670e-02
6.113986950367689133e-03
7.441848516464233398e-02
8.544091135263442993e-03
-1.059186235070228577e-01
1.052946597337722778e-01
1.020180881023406982e-01
-2.076349109411239624e-01
-3.031059205532073975e-01
4.153192788362503052e-02
-1.348256319761276245e-02
-9.805117733776569366e-03
1.684215813875198364e-01
-4.405294358730316162e-02
-9.590542316436767578e-02
-1.979847103357315063e-01
-1.175020262598991394e-01
5.598345026373863220e-02
6.884441524744033813e-02
-5.088161304593086243e-02
-1.107737142592668533e-02
1.431853026151657104e-01
-2.381642758846282959e-01
-1.680492460727691650e-01
2.113014012575149536e-01
-5.399804562330245972e-02
-2.372506111860275269e-01
-3.703239187598228455e-02
-3.694467479363083839e-03
-3.636586666107177734e-02
4.498782753944396973e-02
1.876370608806610107e-02
3.189957141876220703e-02
9.860789775848388672e-02
-5.287602543830871582e-02
-1.152099072933197021e-01
-2.167751044034957886e-01
-9.999959170818328857e-02
-2.182906866073608398e-02
1.149605214595794678e-01
-1.072912886738777161e-01
-2.405338548123836517e-02
-5.140217393636703491e-02
-1.765142753720283508e-02
-3.094173669815063477e-01
-7.513786666095256805e-03
-6.140227615833282471e-02
-6.947942823171615601e-02
-1.470433622598648071e-01
-2.257050573825836182e-01
-2.913562059402465820e-01
-2.798002213239669800e-02
-4.876984283328056335e-02
1.030347794294357300e-01
1.738321781158447266e-01
9.889522939920425415e-02
-1.835524737834930420e-01
-2.041445299983024597e-02
-3.630891442298889160e-02
-6.524602323770523071e-02
2.838528156280517578e-02
-5.762474983930587769e-02
5.857139080762863159e-02
8.192370831966400146e-02
-5.989975109696388245e-02
-1.592639833688735962e-01
8.534391969442367554e-02
-1.387598514556884766e-01
-1.335430145263671875e-02
1.956808753311634064e-02
7.374460995197296143e-02
4.391604661941528320e-01
-1.560324877500534058e-01
-1.286845952272415161e-01
-2.176526375114917755e-02
1.150274947285652161e-01
-8.060486614704132080e-02
-8.535397797822952271e-02
8.386137336492538452e-02
2.184012345969676971e-02
1.012350842356681824e-01
-1.253602504730224609e-01
1.868998259305953979e-01
-9.684687107801437378e-02
-1.068593785166740417e-01
-3.831382840871810913e-02
-1.238038763403892517e-01
1.085740104317665100e-01
-5.639649555087089539e-02
1.205853652209043503e-02
1.183392703533172607e-01
-1.252364069223403931e-01
-2.147723287343978882e-01
-1.028200890868902206e-02
8.754760771989822388e-02
1.365686655044555664e-01
-1.192769315093755722e-02
1.184216439723968506e-01
-6.528339534997940063e-02
2.929127514362335205e-01
-4.466634094715118408e-01
-1.507905721664428711e-01
9.428332746028900146e-02
-5.653305724263191223e-02
4.090101644396781921e-02
-3.143697679042816162e-01
-1.425534635782241821e-01
-1.337630003690719604e-01
-4.598178341984748840e-02
-1.475154608488082886e-01
-2.212560176849365234e-01
1.786546222865581512e-02
-2.662103809416294098e-02
-2.031134665012359619e-01
-5.930640548467636108e-02
-3.518574684858322144e-02
-2.709933221340179443e-01
-9.245882928371429443e-02
-1.158790066838264465e-01
2.428199164569377899e-02
1.716603524982929230e-02
4.822512343525886536e-02
-7.154484093189239502e-02
-2.967915534973144531e-01
-1.507264822721481323e-01
2.941349335014820099e-02
-2.029989659786224365e-02
2.779943682253360748e-02
1.283909082412719727e-01
-1.660902202129364014e-01
1.288834512233734131e-01
-6.162058934569358826e-02
-9.012713283300399780e-02
5.288197472691535950e-02
1.217282377183437347e-02
-1.836759299039840698e-01
-7.630758732557296753e-02
2.320801168680191040e-01
1.882038265466690063e-01
-2.831233739852905273e-01
6.482841074466705322e-02
-5.439420044422149658e-02
-1.667355298995971680e-01
-2.583694159984588623e-01
-1.259882599115371704e-01
-4.754726588726043701e-02
-2.166300825774669647e-02
-3.251155093312263489e-02
1.053422912955284119e-01
3.909978549927473068e-03
6.447429209947586060e-02
-1.095241308212280273e-02
-2.093679457902908325e-02
-1.710586100816726685e-01
-5.459816008806228638e-02
-9.521459788084030151e-02
1.077837217599153519e-02
-1.447445154190063477e-01
-4.041767865419387817e-02
1.537124961614608765e-01
-1.116820871829986572e-01
-2.899639867246150970e-02
-4.276507794857025146e-01
-2.007995247840881348e-01
-1.681046932935714722e-02
-2.372556179761886597e-02
-2.758336961269378662e-01
4.262245073914527893e-02
3.214664384722709656e-02
-1.388062983751296997e-01
-5.445627868175506592e-02
-3.802471980452537537e-02
3.428373252972960472e-03
6.892023142427206039e-03
-2.214004993438720703e-01
-2.090276032686233521e-02
-6.579279899597167969e-02
-1.489947829395532608e-02
-5.209149122238159180e-01
-8.657982200384140015e-02
-5.090716853737831116e-02
-1.171808391809463501e-01
8.551938086748123169e-02
-6.672672182321548462e-02
-2.134435474872589111e-01
-3.415032103657722473e-02
-1.102617979049682617e-01
1.189016848802566528e-01
-6.032456457614898682e-02
-1.921529769897460938e-01
3.189827501773834229e-01
2.090263515710830688e-01
4.339168313890695572e-03
-5.456413328647613525e-02
2.424947917461395264e-01
-4.692944139242172241e-02
1.487410664558410645e-01
2.647148258984088898e-02
5.577858909964561462e-02
3.430549800395965576e-01
7.975708693265914917e-02
-8.987458795309066772e-02
-1.471317410469055176e-01
4.163657873868942261e-02
4.778176918625831604e-02
-7.696555112488567829e-04
-4.530152678489685059e-02
3.637406043708324432e-03
-9.670718759298324585e-02
-1.115324124693870544e-01
-4.383381828665733337e-02
5.464193224906921387e-02
6.092652678489685059e-02
-1.590911746025085449e-01
-1.263742595911026001e-01
-2.514193393290042877e-02
7.251361012458801270e-02
-2.816566452383995056e-02
8.900165557861328125e-02
2.086810171604156494e-01
-2.429905235767364502e-01
2.110188901424407959e-01
-1.634595394134521484e-01
2.279551029205322266e-01
-6.710493937134742737e-03
-1.407088935375213623e-01
2.464126944541931152e-01
-3.936698287725448608e-02
-9.082932770252227783e-02
-3.352289646863937378e-02
1.146596204489469528e-02
4.789786785840988159e-02
2.973842322826385498e-01
-1.017952114343643188e-01
-1.456344425678253174e-01
-3.420830518007278442e-02
-6.856081541627645493e-03
-1.776379905641078949e-02
-1.938543170690536499e-01
-1.071684733033180237e-01
-9.368949569761753082e-03
-2.068848907947540283e-02
3.240967690944671631e-01
1.199016198515892029e-01
-2.261585183441638947e-02
-1.427857279777526855e-01
-2.606638669967651367e-01
-1.237361803650856018e-01
-3.190818428993225098e-02
-3.530099987983703613e-02
-3.491615876555442810e-02
-4.164586216211318970e-02
-1.146988756954669952e-02
-1.618580371141433716e-01
2.949530316982418299e-04
-5.766596272587776184e-02
-9.974186122417449951e-02
-1.212127357721328735e-01
-3.946513533592224121e-01
-1.235428303480148315e-01
9.648751467466354370e-02
1.747859455645084381e-02
-2.949907630681991577e-02
-1.427513360977172852e-01
-2.999340929090976715e-02
-5.405384674668312073e-02
1.996352896094322205e-02
-3.060536831617355347e-02
1.336260735988616943e-01
-7.895605266094207764e-02
-1.653931587934494019e-01
8.406205102801322937e-03
-8.562129735946655273e-02
-4.346140474081039429e-02
-7.035399973392486572e-02
-1.921899020671844482e-01
-1.870493218302726746e-02
-1.859241575002670288e-01
1.159059703350067139e-01
1.192270293831825256e-01
2.896953374147415161e-02
-3.625717014074325562e-02
2.648256719112396240e-01
-1.941161975264549255e-02
-1.516807731240987778e-02
4.804473370313644409e-02
1.258083283901214600e-01
-9.269119799137115479e-02
3.850254788994789124e-02
2.217962741851806641e-01
3.184568136930465698e-02
-9.875028580427169800e-02
-4.120938852429389954e-02
-1.753240525722503662e-01
-2.041397057473659515e-02
4.773792251944541931e-02
-1.293997932225465775e-02
-2.088413946330547333e-02
-4.146120697259902954e-02
3.072610311210155487e-02
-2.749665454030036926e-02
-2.666253224015235901e-02
6.232283264398574829e-02
-8.875569701194763184e-02
-3.022289872169494629e-01
3.017276227474212646e-01
3.632314875721931458e-02
9.674206376075744629e-03
-1.332966834306716919e-01
5.661761760711669922e-02
1.404761672019958496e-01
-7.369520515203475952e-02
-2.287992462515830994e-02
-2.909341752529144287e-01
-1.175932362675666809e-01
1.172202602028846741e-01
7.181590795516967773e-02
-5.782682448625564575e-02
2.314660400152206421e-01
7.771460711956024170e-02
8.095686137676239014e-02
-2.816339489072561264e-03
-6.946728378534317017e-02
-4.026621207594871521e-02
-1.141470298171043396e-01
-2.428508400917053223e-01
-7.381343841552734375e-02
-3.981302306056022644e-02
-1.377511024475097656e-01
-5.315564200282096863e-02
-1.632854714989662170e-02
-8.829769492149353027e-02
1.946800202131271362e-02
-3.408374637365341187e-02
-1.403589546680450439e-01
-1.333572268486022949e-01
-6.033158395439386368e-03
-7.075145840644836426e-02
-2.145974785089492798e-01
-1.241202428936958313e-01
3.859995678067207336e-02
-1.733026057481765747e-01
3.357328101992607117e-02
-2.962809428572654724e-02
-1.372946351766586304e-01
-1.038421597331762314e-02
1.924341917037963867e-01
9.592813253402709961e-02
4.994571954011917114e-02
-6.386568397283554077e-02
7.079765200614929199e-02
-5.527580622583627701e-03
6.005240976810455322e-02
-6.215734034776687622e-02
1.063917763531208038e-02
1.290384232997894287e-01
-2.405353039503097534e-01
8.246356993913650513e-02
-1.216823980212211609e-01
-8.336497098207473755e-02
-7.560940086841583252e-02
4.934752732515335083e-02
-1.056459546089172363e-01
2.449219375848770142e-01
-1.048160064965486526e-02
-4.962659999728202820e-02
-1.513031274080276489e-01
-6.736791878938674927e-02
-5.732215568423271179e-02
-1.189949084073305130e-02
1.425413787364959717e-01
-6.698939949274063110e-02
-1.951102316379547119e-01
-1.506967246532440186e-01
2.021452784538269043e-02
-1.263578683137893677e-01
3.875842392444610596e-01
-1.240840367972850800e-02
7.669458538293838501e-02
8.134340494871139526e-02
-2.374600991606712341e-02
-4.294513911008834839e-02
-1.494385153055191040e-01
6.111859157681465149e-02
1.566281318664550781e-01
-1.014575660228729248e-01
-1.317781358957290649e-01
-1.749287918210029602e-02
4.974811151623725891e-02
1.765850484371185303e-01
1.071895360946655273e-01
1.654625497758388519e-02
-4.475867003202438354e-02
-7.816099375486373901e-02
-6.456107646226882935e-02
1.810890436172485352e-01
-1.085037812590599060e-01
-5.844105966389179230e-03
4.813861474394798279e-02
2.702833712100982666e-01
2.579605206847190857e-02
-7.995276153087615967e-02
1.468428820371627808e-01
9.979101270437240601e-02
7.660761009901762009e-03
1.512615680694580078e-01
-8.628891408443450928e-02
1.458132266998291016e-01
2.141270600259304047e-02
9.338500676676630974e-04
9.171735495328903198e-02
3.716148436069488525e-02
2.355891838669776917e-02
1.814033985137939453e-01
2.261816710233688354e-02
-2.023690491914749146e-01
5.175376310944557190e-02
-3.971459716558456421e-02
2.700842320919036865e-01
-5.548015981912612915e-02
-8.311650156974792480e-02
-1.814738065004348755e-01
-1.467178761959075928e-01
-9.760221838951110840e-02
-1.950311101973056793e-02
-8.859839290380477905e-02
-1.755997091531753540e-01
1.642501801252365112e-01
9.452671557664871216e-02
-1.394257508218288422e-02
6.082439422607421875e-02
1.047314926981925964e-01
-5.809122323989868164e-02
-1.351615935564041138e-01
-1.194823086261749268e-01
-2.579892426729202271e-02
9.868901968002319336e-02
-1.354511827230453491e-01
-4.093522205948829651e-02
6.402960419654846191e-02
1.118360608816146851e-01
-7.629942893981933594e-02
-6.132007110863924026e-03
-1.662281453609466553e-01
7.338581606745719910e-03
-1.617424786090850830e-01
-8.132823556661605835e-02
-8.412747830152511597e-02
1.512477993965148926e-01
9.607544168829917908e-03
9.578488767147064209e-02
3.185486420989036560e-02
9.101171046495437622e-02
2.017411589622497559e-01
1.415089368820190430e-01
1.960181444883346558e-01
-2.635215520858764648e-01
3.853212343528866768e-03
6.304653733968734741e-02
-9.388510882854461670e-02
-1.503823697566986084e-01
-4.788051173090934753e-02
-1.017823666334152222e-01
-1.671708971261978149e-01
3.156456723809242249e-02
-6.898483633995056152e-02
1.404607743024826050e-01
-1.017972230911254883e-01
-2.488470077514648438e-02
3.313862904906272888e-02
-5.446497350931167603e-02
-1.229445263743400574e-01
-1.647751927375793457e-01
6.357026845216751099e-02
6.883346289396286011e-02
-1.347774267196655273e-01
1.124812141060829163e-01
-5.695657059550285339e-02
-6.088983640074729919e-02
1.025181636214256287e-01
1.378250718116760254e-01
8.644980192184448242e-02
1.641543060541152954e-01
4.196254536509513855e-02
-1.408999115228652954e-01
7.183914631605148315e-02
3.472905978560447693e-02
-6.608117371797561646e-02
-1.058270456269383430e-03
7.032158225774765015e-02
-3.238359699025750160e-03
-1.022666692733764648e-02
-1.950193643569946289e-01
8.107238262891769409e-02
1.023672968149185181e-01
-1.686885207891464233e-01
-2.977907657623291016e-01
2.267209142446517944e-01
1.515507102012634277e-01
8.310375362634658813e-02
-7.538240402936935425e-02
-1.632996201515197754e-01
6.003678590059280396e-02
-4.411275684833526611e-02
-9.588848799467086792e-02
-2.675549499690532684e-02
1.325161904096603394e-01
-1.783921383321285248e-02
-6.528984010219573975e-02
6.599351018667221069e-02
4.502329602837562561e-02
1.351455450057983398e-01
7.735523395240306854e-03
-7.972891628742218018e-02
-1.559672206640243530e-01
-6.316190958023071289e-02
4.920051246881484985e-02
-7.023622095584869385e-02
-1.336111426353454590e-01
-4.665687307715415955e-02
-3.817893564701080322e-02
1.489597558975219727e-02
-1.648089438676834106e-01
-1.153030693531036377e-01
3.319750353693962097e-02
6.373847275972366333e-02
1.468856185674667358e-01
1.024237051606178284e-01
1.813304796814918518e-02
-2.929134853184223175e-02
7.512986660003662109e-02
9.960312396287918091e-02
3.188064554706215858e-03
-2.340282797813415527e-01
1.962096393108367920e-01
-1.863122731447219849e-01
-1.584421470761299133e-02
3.581617027521133423e-02
-1.649549603462219238e-01
-8.907506614923477173e-02
1.185077503323554993e-01
8.478776365518569946e-02
-8.590153604745864868e-02
-1.113701388239860535e-01
5.721851438283920288e-02
-5.015376955270767212e-02
1.973613053560256958e-01
2.857463434338569641e-02
-9.478960186243057251e-02
2.948341146111488342e-02
9.329570457339286804e-03
1.261668056249618530e-01
2.454250492155551910e-02
2.826389670372009277e-01
5.651809275150299072e-02
-1.061248034238815308e-01
-1.055353209376335144e-01
1.217014044523239136e-01
-9.238989651203155518e-02
1.219225302338600159e-01
-1.348533015698194504e-02
2.619927749037742615e-02
-2.469663508236408234e-02
1.786822527647018433e-01
-1.030429452657699585e-01
-9.204943664371967316e-03
-1.635844558477401733e-01
-6.145108491182327271e-02
-1.236033737659454346e-01
1.327953487634658813e-01
2.766460645943880081e-03
1.003216877579689026e-01
1.126770898699760437e-01
-2.646574191749095917e-02
-1.011799350380897522e-01
2.496421709656715393e-02
-2.921519428491592407e-02
-6.123126298189163208e-02
-7.003340125083923340e-02
-6.890215445309877396e-05
-1.505072712898254395e-01
-1.269799023866653442e-01
1.530730724334716797e-02
3.005580604076385498e-02
-1.447899192571640015e-01
1.683010011911392212e-01
-2.220005244016647339e-01
-7.833386212587356567e-02
-8.151577785611152649e-03
8.847850561141967773e-02
-3.767006844282150269e-02
4.757199063897132874e-02
-2.575948275625705719e-02
1.910914927721023560e-01
-7.040362060070037842e-02
3.178386092185974121e-01
-3.719594562426209450e-03
6.034857034683227539e-02
-8.827550709247589111e-02
-8.479607850313186646e-02
-6.314057856798171997e-02
1.079992651939392090e-01
-1.746961027383804321e-01
4.037789255380630493e-02
-4.890051856637001038e-02
1.408805251121520996e-01
-9.610897302627563477e-02
-6.752144545316696167e-02
-2.220129072666168213e-01
-9.769756346940994263e-02
4.080874845385551453e-02
4.998926445841789246e-02
-2.740367949008941650e-01
1.349529996514320374e-02
-4.724400490522384644e-02
6.908676028251647949e-02
7.322570681571960449e-02
-9.883742779493331909e-02
3.873702883720397949e-02
-1.016241833567619324e-01
3.960161656141281128e-02
-5.188506096601486206e-02
-2.368489652872085571e-02
-7.263348996639251709e-02
4.171878844499588013e-02
-1.350588798522949219e-01
-1.887713074684143066e-01
-1.941945999860763550e-01
-1.484934389591217041e-01
7.811349630355834961e-02
4.027781635522842407e-02
4.658979363739490509e-03
2.147241681814193726e-02
-2.308838069438934326e-02
1.519906371831893921e-01
-1.492235362529754639e-01
3.858454897999763489e-02
-1.105934157967567444e-01
9.380849450826644897e-02
7.115854322910308838e-02
-1.519793123006820679e-01
6.755264848470687866e-02
-3.365804255008697510e-02
2.992100417613983154e-01
-1.759828478097915649e-01
6.527969241142272949e-02
-9.101664274930953979e-02
3.699698299169540405e-02
3.773929923772811890e-02
6.853958964347839355e-02
1.069581210613250732e-01
5.652081966400146484e-02
-6.758786737918853760e-02
-1.260168999433517456e-01
-1.516541689634323120e-01
-1.298902481794357300e-01
1.513923853635787964e-01
-2.910527586936950684e-02
9.719853848218917847e-02
2.214510291814804077e-01
2.889339253306388855e-02
-1.102978587150573730e-01
2.842591404914855957e-01
3.754794225096702576e-02
-1.326065808534622192e-01
1.525144875049591064e-01
5.201778933405876160e-02
-1.551563590764999390e-01
8.869617432355880737e-02
-1.260422766208648682e-01
-1.167081855237483978e-02
1.138175278902053833e-02
9.956270456314086914e-02
1.775318086147308350e-01
-1.563131511211395264e-01
-1.077617779374122620e-01
-1.002248600125312805e-01
-2.355419099330902100e-03
1.484056413173675537e-01
1.295443922281265259e-01
8.393295854330062866e-02
-1.287443041801452637e-01
2.917827963829040527e-01
-1.993995532393455505e-02
4.279552400112152100e-02
-1.848348528146743774e-01
-7.873562723398208618e-02
1.362203210592269897e-01
6.293527781963348389e-02
-1.068012937903404236e-01
1.186942830681800842e-01
-1.648071259260177612e-01
1.926767677068710327e-01
-1.868007928133010864e-01
-2.010926902294158936e-01
-1.763832420110702515e-01
6.775692105293273926e-02
1.045960113406181335e-01
1.218491494655609131e-01
-2.285225987434387207e-01
-1.440523471683263779e-02
-1.691768132150173187e-02
-8.203218877315521240e-02
-3.298307210206985474e-02
1.297759916633367538e-02
4.086121916770935059e-02
7.999330013990402222e-02
-3.839300572872161865e-02
-9.950040280818939209e-02
8.002791553735733032e-02
2.729829400777816772e-02
-1.749580502510070801e-01
9.339509904384613037e-02
-1.300391405820846558e-01
-1.150156604126095772e-03
1.025225073099136353e-01
-1.877192258834838867e-01
-5.907729640603065491e-02
