1.123776659369468689e-01
1.562959402799606323e-01
2.708864510059356689e-01
-2.452975809574127197e-01
-1.330826524645090103e-02
-1.927208304405212402e-01
-2.002972513437271118e-01
1.869323849678039551e-01
-1.213357448577880859e-01
-2.571776211261749268e-01
-2.665657997131347656e-01
1.092986240983009338e-01
-1.397793591022491455e-01
-2.239902317523956299e-01
-1.720588207244873047e-01
1.837329119443893433e-01
1.945507526397705078e-01
-2.737369835376739502e-01
-3.097465634346008301e-01
-1.517221778631210327e-01
-8.991851657629013062e-02
-2.344078272581100464e-01
1.191968619823455811e-01
7.400053739547729492e-02
-3.060632646083831787e-01
5.175161734223365784e-02
-1.864436566829681396e-01
-1.056816056370735168e-02
1.682879179716110229e-01
-2.107815742492675781e-01
2.366236597299575806e-02
-2.797853946685791016e-02
-2.151142805814743042e-01
-3.064035475254058838e-01
3.779221326112747192e-02
-1.523610353469848633e-01
2.099784016609191895e-01
-2.889295518398284912e-01
3.062956593930721283e-02
-6.866405159235000610e-02
-2.185230702161788940e-01
-8.533827215433120728e-02
4.820015653967857361e-02
1.371470987796783447e-01
5.194985866546630859e-02
1.942458562552928925e-02
7.158895954489707947e-03
5.467011779546737671e-02
-3.722587525844573975e-01
-2.545020878314971924e-01
-2.455371022224426270e-01
-4.878268018364906311e-02
3.849323838949203491e-02
2.876902185380458832e-02
1.477536261081695557e-01
1.965169608592987061e-01
-2.592999115586280823e-02
-2.541828155517578125e-01
9.788282960653305054e-02
1.259446591138839722e-01
2.431590110063552856e-01
-1.231901273131370544e-01
3.005814552307128906e-02
-2.555491030216217041e-01
4.274586215615272522e-02
2.211408615112304688e-01
1.493750959634780884e-01
-2.414518445730209351e-01
-1.226110383868217468e-01
-2.343041598796844482e-01
-2.405005395412445068e-01
-3.167472481727600098e-01
-2.430808693170547485e-01
-2.878839671611785889e-01
-1.927935481071472168e-01
9.076269716024398804e-02
2.124709188938140869e-01
1.226249113678932190e-01
-7.447957992553710938e-02
1.716644763946533203e-01
1.517310291528701782e-01
1.635333448648452759e-01
-3.993204236030578613e-02
-1.709393858909606934e-01
-4.456337168812751770e-02
-3.042878508567810059e-01
2.432994097471237183e-01
1.053387951105833054e-02
2.275203764438629150e-01
1.861370503902435303e-01
-2.175351232290267944e-01
-3.607843443751335144e-02
1.068834364414215088e-01
-1.209442168474197388e-01
2.231613099575042725e-01
-1.899796128273010254e-01
-1.198562085628509521e-01
1.314132362604141235e-01
-2.991551756858825684e-01
-2.394392788410186768e-01
-5.452650040388107300e-02
-2.759969532489776611e-01
-3.917199373245239258e-02
-1.271301060914993286e-01
1.170300692319869995e-01
-2.603582441806793213e-01
7.971283048391342163e-02
-6.072753574699163437e-03
-7.894385606050491333e-02
2.403204143047332764e-01
-6.204271316528320312e-02
-4.414607957005500793e-02
-2.723888754844665527e-01
-1.013706177473068237e-01
-1.272682845592498779e-01
1.370969042181968689e-02
-2.921993732452392578e-01
-3.251046240329742432e-01
-8.631953597068786621e-02
-1.044750288128852844e-01
-2.157886624336242676e-01
-1.992909312248229980e-01
-8.405007421970367432e-02
-6.507155299186706543e-02
5.287448875606060028e-04
-9.420461207628250122e-02
5.175939947366714478e-02
-2.819855511188507080e-01
-1.863467842340469360e-01
2.016092538833618164e-01
-9.253931790590286255e-02
-1.764107495546340942e-01
2.600063383579254150e-01
1.735441088676452637e-01
2.605225145816802979e-01
-1.987458616495132446e-01
2.635508775711059570e-01
-7.425611466169357300e-02
-7.021594047546386719e-02
-1.317710056900978088e-02
2.108784168958663940e-01
1.872944682836532593e-01
3.281934559345245361e-02
1.282862275838851929e-01
6.174741685390472412e-02
-1.155115365982055664e-01
1.208804249763488770e-01
-2.092460691928863525e-01
5.456110462546348572e-03
3.269484341144561768e-01
-1.151180043816566467e-01
1.200230717658996582e-01
2.898483872413635254e-01
-2.707515954971313477e-01
2.711780183017253876e-02
-2.259310781955718994e-01
7.986978441476821899e-02
1.227192953228950500e-01
4.872491583228111267e-02
2.307485491037368774e-01
-1.517861634492874146e-01
-7.872229069471359253e-02
4.308762494474649429e-03
-2.252859920263290405e-01
-1.671871095895767212e-01
-3.565890192985534668e-01
-2.898041307926177979e-01
7.381598651409149170e-02
-1.817624717950820923e-01
-4.053066298365592957e-02
8.772777020931243896e-02
-1.672017425298690796e-01
-3.942946493625640869e-01
-3.619857132434844971e-01
-1.089565176516771317e-02
1.325338482856750488e-01
-2.594637870788574219e-01
9.163372963666915894e-02
-3.142418861389160156e-01
-8.543366938829421997e-02
-6.020815297961235046e-02
5.399634316563606262e-02
-6.255457550287246704e-02
-1.800180673599243164e-01
4.157421365380287170e-02
2.420210652053356171e-02
4.506188258528709412e-02
-2.468848079442977905e-01
3.027313388884067535e-02
-4.004832357168197632e-02
-1.680268645286560059e-01
-7.974687218666076660e-02
-1.279561668634414673e-01
1.769077181816101074e-01
-2.547120451927185059e-01
-9.313376992940902710e-02
-1.844154447317123413e-01
1.868178546428680420e-01
-2.361148409545421600e-02
2.382589429616928101e-01
-1.028504520654678345e-01
-8.582612872123718262e-02
-2.930221706628799438e-02
-6.177015975117683411e-02
-3.514819443225860596e-01
1.505685746669769287e-01
-1.166110485792160034e-01
-2.300064563751220703e-01
1.709494441747665405e-01
1.208629682660102844e-01
2.612749338150024414e-01
2.013656646013259888e-01
-2.971077561378479004e-01
4.272087608114816248e-05
-7.612971216440200806e-02
-1.484447270631790161e-01
-8.281969279050827026e-02
-2.438732981681823730e-02
-1.797697991132736206e-01
-1.591898649930953979e-01
-2.960228025913238525e-01
1.102577671408653259e-01
-2.469900250434875488e-01
-6.357076764106750488e-02
-2.365064769983291626e-01
-1.852779388427734375e-01
6.705773621797561646e-02
1.226572096347808838e-01
-1.450098901987075806e-01
-2.817368209362030029e-01
-9.369947761297225952e-02
2.292267233133316040e-01
2.601536810398101807e-01
2.336513809859752655e-02
-2.884488105773925781e-01
-1.852613091468811035e-01
2.054496854543685913e-01
-1.898189783096313477e-01
1.850729137659072876e-01
-2.447192668914794922e-01
1.655086874961853027e-01
-2.160156816244125366e-01
6.729628145694732666e-02
3.977901767939329147e-03
-1.641203165054321289e-01
1.042934209108352661e-01
1.425800770521163940e-01
-9.889364987611770630e-02
1.403477638959884644e-01
-9.687967598438262939e-02
-1.888879537582397461e-01
1.583242416381835938e-01
-4.153367877006530762e-02
-1.952998936176300049e-01
5.884996429085731506e-02
9.994976967573165894e-02
3.175803646445274353e-02
1.062834113836288452e-01
-1.484739780426025391e-01
-8.168041706085205078e-02
3.545094653964042664e-02
2.045463919639587402e-01
-2.268283963203430176e-01
1.494614630937576294e-01
-2.754648029804229736e-01
-2.355181127786636353e-01
-1.697529852390289307e-01
-5.237591639161109924e-02
1.424276977777481079e-01
1.789024919271469116e-01
-1.190350130200386047e-01
1.151310466229915619e-02
1.039209514856338501e-01
1.485948562622070312e-01
1.664534658193588257e-01
-2.248016297817230225e-01
-2.540134489536285400e-01
-5.274218320846557617e-02
-3.032961487770080566e-01
-2.679550945758819580e-01
1.902972906827926636e-01
-3.140567988157272339e-02
-2.556547224521636963e-01
-8.029725402593612671e-03
3.094287030398845673e-02
-5.819586291909217834e-02
1.188040822744369507e-01
1.970227435231208801e-02
-1.224741861224174500e-01
-2.881494462490081787e-01
-2.969531714916229248e-01
-1.448889076709747314e-02
-3.075523078441619873e-01
-9.932009875774383545e-02
-6.055893748998641968e-02
-1.665063947439193726e-01
-3.313088789582252502e-02
4.900497943162918091e-02
-2.068421570584177971e-03
-2.056066244840621948e-01
1.170193478465080261e-01
-2.922303080558776855e-01
-2.619540393352508545e-01
-1.804339140653610229e-01
-1.970656774938106537e-02
-9.998872876167297363e-03
-2.865888476371765137e-01
-2.514126300811767578e-01
-1.518583893775939941e-01
1.378756016492843628e-01
6.192043051123619080e-02
-1.477901786565780640e-01
-1.522152870893478394e-01
-1.251908391714096069e-01
4.574770480394363403e-02
-4.236334934830665588e-02
-2.462241202592849731e-01
-2.408477216958999634e-01
5.759877711534500122e-02
-7.939897477626800537e-02
-2.241106331348419189e-02
5.909750238060951233e-03
7.602849602699279785e-02
-1.701491624116897583e-01
2.055490761995315552e-02
1.403911709785461426e-01
-1.492021530866622925e-01
-2.127777934074401855e-01
-1.334049999713897705e-01
1.783398985862731934e-01
1.767720133066177368e-01
3.205473721027374268e-02
6.553455442190170288e-02
4.289456084370613098e-02
-2.135671675205230713e-01
2.211699634790420532e-01
-1.231558248400688171e-01
-3.586503565311431885e-01
-4.246104061603546143e-01
-7.342316210269927979e-02
-1.395130008459091187e-01
-2.047606855630874634e-01
-4.885699972510337830e-02
-2.883678674697875977e-01
7.072622328996658325e-02
5.571202188730239868e-02
-1.513724625110626221e-01
-1.887377649545669556e-01
-1.100567504763603210e-01
-7.539643347263336182e-02
7.000325620174407959e-02
1.268793791532516479e-01
4.617993533611297607e-02
1.016470119357109070e-01
-7.710529118776321411e-02
-2.548106312751770020e-01
4.567135125398635864e-02
1.367177218198776245e-01
-1.397087275981903076e-01
-2.693706154823303223e-01
-1.080477014183998108e-01
-1.241289824247360229e-01
-1.227199435234069824e-01
2.540262937545776367e-01
1.020336896181106567e-01
2.220618277788162231e-01
-1.579516828060150146e-01
-1.797134429216384888e-01
3.121887519955635071e-02
1.342967450618743896e-01
-4.009596630930900574e-02
-2.243796177208423615e-02
-2.407493293285369873e-01
5.584290996193885803e-02
1.605950891971588135e-01
-1.137882545590400696e-01
4.863448813557624817e-02
8.641674369573593140e-02
4.153182730078697205e-02
-2.308688610792160034e-01
-5.505639128386974335e-03
-1.651725471019744873e-01
2.055628299713134766e-01
-3.075246214866638184e-01
-1.181890964508056641e-01
-2.360711619257926941e-02
-1.016166806221008301e-01
-2.193996757268905640e-01
-1.146593764424324036e-01
1.714379191398620605e-01
9.395734220743179321e-02
-2.041946798563003540e-01
-9.016057848930358887e-02
-1.648976057767868042e-01
-1.020021922886371613e-02
1.041351035237312317e-01
-2.381925880908966064e-01
1.721550375223159790e-01
-1.596578508615493774e-01
2.234616428613662720e-01
1.661589555442333221e-02
-7.795729488134384155e-02
-3.310314416885375977e-01
-2.567344307899475098e-01
-2.264915853738784790e-01
-4.011837840080261230e-01
5.585871636867523193e-02
2.259658575057983398e-01
8.081680536270141602e-02
-2.622845768928527832e-01
2.287244349718093872e-01
-6.140672788023948669e-02
-1.673258468508720398e-02
-2.508914470672607422e-01
-1.965345144271850586e-01
-1.302479207515716553e-01
-2.208236306905746460e-01
7.886256277561187744e-02
2.242280840873718262e-01
-1.501350849866867065e-01
-7.928202860057353973e-03
-3.545409739017486572e-01
1.945787221193313599e-01
-3.385675549507141113e-01
1.100140735507011414e-01
-3.066818416118621826e-01
-5.596568435430526733e-02
-2.915191352367401123e-01
1.506459861993789673e-01
-2.317759245634078979e-01
-2.212578356266021729e-01
2.839947044849395752e-01
-2.978282570838928223e-01
-1.104363426566123962e-01
-3.024915754795074463e-01
-1.210652738809585571e-01
-2.579652070999145508e-01
-7.653596997261047363e-02
-3.222951292991638184e-02
1.872719973325729370e-01
2.201137840747833252e-01
2.718316912651062012e-01
8.826651610434055328e-04
-8.734490722417831421e-02
-4.068062826991081238e-02
5.377582460641860962e-02
7.520776242017745972e-02
5.088463053107261658e-02
-2.774245738983154297e-01
6.512072682380676270e-02
3.950969874858856201e-02
-3.331290185451507568e-02
-2.779695689678192139e-01
-1.558105647563934326e-01
-2.464162260293960571e-01
1.792576164007186890e-02
1.961195282638072968e-02
-9.599133580923080444e-02
-2.540179193019866943e-01
6.642998009920120239e-02
-2.249738276004791260e-01
1.564504951238632202e-01
-3.265258073806762695e-01
-2.971400022506713867e-01
1.138745024800300598e-01
1.396829038858413696e-01
8.349777758121490479e-02
8.417303860187530518e-02
1.258778572082519531e-01
1.944977492094039917e-01
-1.843834370374679565e-01
8.156204223632812500e-02
2.792591154575347900e-01
-2.700464129447937012e-01
-9.509509056806564331e-02
-3.174924850463867188e-02
-2.951454222202301025e-01
1.244770586490631104e-01
-4.104233533143997192e-02
1.944230347871780396e-01
1.702634990215301514e-01
8.536782860755920410e-02
2.881231606006622314e-01
-1.581859588623046875e-01
-3.510607481002807617e-01
-1.964705735445022583e-01
-2.237343043088912964e-02
-2.940189838409423828e-02
1.631370186805725098e-01
-3.430171012878417969e-01
-1.104442253708839417e-01
-2.446196675300598145e-01
3.055495582520961761e-02
-2.823048233985900879e-01
-2.167178243398666382e-01
-1.548530161380767822e-01
-3.686070069670677185e-02
-1.989803314208984375e-01
-3.202598541975021362e-02
-1.505440622568130493e-01
3.914574161171913147e-03
-1.764213293790817261e-01
-1.196218430995941162e-01
1.029507257044315338e-02
-8.455082029104232788e-02
-7.325987517833709717e-02
1.680718064308166504e-01
-1.336468309164047241e-01
-2.774286828935146332e-02
2.061457782983779907e-01
4.446388036012649536e-02
8.336122334003448486e-02
