-2.121762633323669434e-01
-3.723801672458648682e-02
2.893414162099361420e-02
-8.008015155792236328e-02
-5.547868460416793823e-02
-2.184933982789516449e-02
-5.792465806007385254e-02
3.077046014368534088e-02
2.610706537961959839e-02
-3.026899099349975586e-01
-2.390992790460586548e-01
-9.194949269294738770e-02
-2.403153479099273682e-02
-6.052820011973381042e-02
-1.010781247168779373e-02
1.872276514768600464e-02
-4.868494346737861633e-02
-4.051080718636512756e-02
-2.961190976202487946e-02
-5.359166115522384644e-02
-9.936852753162384033e-02
-3.895901516079902649e-02
-1.125640608370304108e-02
1.278333459049463272e-02
6.671196781098842621e-03
-3.146794065833091736e-02
4.241224378347396851e-03
2.458614669740200043e-02
3.273738175630569458e-02
-4.088840633630752563e-02
3.237588703632354736e-02
-2.007999271154403687e-02
3.567256405949592590e-02
2.713354304432868958e-02
5.602494929917156696e-04
1.732512377202510834e-02
-1.668723225593566895e-01
-3.827241063117980957e-02
7.002534717321395874e-02
4.817597195506095886e-02
-6.719676405191421509e-02
-7.186143845319747925e-02
1.039872877299785614e-02
-9.694920480251312256e-02
-3.760534524917602539e-02
-3.841966018080711365e-02
-2.388443350791931152e-01
-3.443523123860359192e-02
-7.513267546892166138e-02
9.301654994487762451e-03
-5.513312667608261108e-02
8.182735741138458252e-02
5.949518457055091858e-02
2.714393101632595062e-02
-9.806632250547409058e-02
-5.689683184027671814e-02
-8.447160944342613220e-03
-2.178093232214450836e-02
3.376448899507522583e-02
-7.829614728689193726e-02
-1.129732504487037659e-01
1.220620609819889069e-02
4.486846178770065308e-02
-8.443542756140232086e-03
1.132478471845388412e-02
-6.252849847078323364e-02
-4.326852038502693176e-02
-2.806315012276172638e-02
-1.674388535320758820e-02
-5.251102522015571594e-02
-6.772698462009429932e-02
-4.461453855037689209e-02
7.278480101376771927e-03
4.925546236336231232e-03
6.743960827589035034e-02
-2.559617757797241211e-01
-1.476279180496931076e-02
2.975299768149852753e-02
-8.192973583936691284e-02
-5.136917531490325928e-02
-7.058684527873992920e-02
3.296232596039772034e-02
-2.483739256858825684e-01
-7.757949084043502808e-02
4.897368699312210083e-02
-2.394311316311359406e-02
-7.322596758604049683e-02
-2.130381464958190918e-01
1.646822318434715271e-02
-1.000524386763572693e-01
-1.068491637706756592e-01
3.014720045030117035e-02
-7.432708144187927246e-02
3.444373980164527893e-02
-5.420874804258346558e-03
-5.561488866806030273e-02
-1.350385248661041260e-01
-4.031933844089508057e-02
-2.590188011527061462e-02
-2.160287834703922272e-02
7.054010778665542603e-02
-1.679893583059310913e-01
-2.051913887262344360e-01
-1.528563648462295532e-01
3.029211051762104034e-02
-8.115079253911972046e-02
9.109594859182834625e-03
3.455247357487678528e-02
6.991980224847793579e-02
-1.534280460327863693e-02
-4.859573394060134888e-02
-9.218753874301910400e-02
-1.634642481803894043e-02
1.024754624813795090e-02
4.034777358174324036e-02
3.499788418412208557e-02
-7.346284389495849609e-02
-1.062510460615158081e-01
1.133407745510339737e-02
-2.845948189496994019e-02
2.646363899111747742e-02
-2.658742666244506836e-01
-8.040611445903778076e-02
-6.106133013963699341e-02
-2.039021626114845276e-02
-1.693671196699142456e-02
-4.333832114934921265e-02
-1.302970945835113525e-01
