[-0.1173002   0.17767717  0.13518995 -0.09166855 -0.04390738 -0.09468212
 -0.10949165  0.03392684  0.10610401  0.11609767 -0.04123718 -0.0794121
  0.0297873  -0.13319969 -0.09044216  0.09216925  0.04823044 -0.15112369
 -0.14260218  0.13845232 -0.04596118  0.0793254   0.04572469 -0.15992732
  0.08077799 -0.03778639  0.04057269  0.12564397  0.01780077 -0.02326522
 -0.12440673  0.00096007 -0.20223595 -0.1728136  -0.07426573 -0.02471463
 -0.13069925  0.14962123 -0.05313353  0.07492009  0.189274   -0.00974438
  0.02401331  0.01399377  0.14761347 -0.13060062 -0.02219391 -0.08759207
 -0.060459   -0.07263004 -0.12907319  0.16277787  0.10173174  0.10603178
  0.08506127  0.00115812  0.04378249 -0.1452094  -0.03078096 -0.05197959
  0.16466506 -0.04664648 -0.05426927 -0.09403832  0.07739215 -0.03234227
  0.152348    0.02044153  0.05550747  0.08618306 -0.06519709 -0.19636281
 -0.00642261 -0.09620851  0.05814137  0.02819544 -0.13964716 -0.06486961
  0.08686158 -0.17318897  0.09479258 -0.10502263  0.15417261  0.14481772
  0.01145665  0.14794004 -0.0203596  -0.06574655 -0.0027569   0.05501746
  0.10612068  0.12948479  0.05916381  0.07685018 -0.06914157  0.07435802
  0.01843874 -0.16743506 -0.00080316  0.026235    0.03820613 -0.02454032
  0.12346718  0.07851376  0.05866668  0.06137921  0.1604305   0.08397279
 -0.00970007  0.02411729 -0.04623282 -0.09921568 -0.16861555  0.14359368
  0.14498806  0.00950375  0.16693531 -0.10655421 -0.14013942  0.1226826
 -0.03935296 -0.04977898 -0.10087075 -0.08303573  0.13214715 -0.04287777
 -0.08814236  0.08002666 -0.05968134 -0.10349242  0.12844835 -0.11883764
 -0.11296128  0.08307707  0.13803361 -0.01663923 -0.10306031  0.14627083
  0.0910868  -0.15959834 -0.17935319  0.07812659 -0.00879005 -0.17823206
 -0.08282613  0.10577955  0.03585748 -0.04173348  0.08368481  0.03033493
 -0.1175062  -0.13276464  0.13317506 -0.06974313 -0.11302887 -0.04820292
 -0.07320806 -0.15652902 -0.13527201  0.18533505 -0.07584888 -0.00588958
 -0.03158776  0.11352966  0.07032499 -0.07344936  0.05371383  0.00772042
 -0.02466698  0.02489181  0.01137933  0.13773091 -0.09342116 -0.1004925
 -0.04758839  0.03720721 -0.15029553 -0.01620617 -0.00574248 -0.10115823
 -0.05118101  0.10407614  0.15361193  0.14073175 -0.07050955 -0.04278252
 -0.06401777 -0.01442052 -0.03881869 -0.0657053  -0.13517871  0.0409551
 -0.02348081 -0.06193514 -0.1355919   0.08758894  0.18118392 -0.08788183
 -0.01624284  0.09236807  0.06985608  0.02543277 -0.18518654  0.1379532
 -0.15053092 -0.00516991  0.02607842  0.00104177  0.00993772 -0.10483214
  0.17485717 -0.03020872  0.08542588 -0.07726985  0.09196416 -0.02066417
 -0.07178011  0.04666998  0.04004799 -0.04906731 -0.04107612 -0.16753556
  0.04401889 -0.01320184  0.10443675  0.16022089 -0.1302072  -0.06040977
  0.10375947 -0.09386639 -0.11735813 -0.16130489  0.01809963  0.05585296
 -0.00327817  0.09316558 -0.0104989   0.04035397  0.09607376  0.08731705
 -0.10704604  0.01346524 -0.0004797  -0.06783503  0.005067    0.06966433
 -0.01028721 -0.1445003  -0.05280238 -0.02479296  0.1111696  -0.04643054
  0.05897559  0.01323759  0.03331714 -0.1134441  -0.18614444 -0.04037486
 -0.11644261 -0.15870924  0.09939869  0.02326488 -0.13718171  0.02469727
  0.07139462 -0.05267616  0.16166434 -0.070156    0.10474665 -0.0101067
 -0.02363172  0.09564302 -0.13872218  0.02934949  0.08287468  0.08265156
 -0.058078   -0.04302115  0.01267476 -0.10273733  0.01558007  0.17610793
  0.0859237  -0.12580203 -0.17221843  0.0332539  -0.01825308  0.17687817
  0.044848   -0.04363107  0.10190081  0.06145977 -0.13904998  0.07469869
 -0.04864592 -0.13189003  0.04839706  0.1271447   0.10295408  0.1608103
  0.12052673 -0.06579411  0.16941178 -0.0959449   0.03345894  0.00751488
 -0.15421923  0.1011976  -0.06164029  0.12724915 -0.07377413  0.03393357
  0.02103164  0.04019631  0.15526636 -0.09081441 -0.09187606 -0.09637956
 -0.10536862  0.13845214  0.1051326   0.00459666 -0.05878895 -0.07596836
 -0.08202975  0.03865604  0.09474934 -0.02320785 -0.01970207 -0.09724509
 -0.03087404 -0.18255354  0.05485859  0.09230965  0.11215986  0.01621252
  0.18594797 -0.07352637 -0.04709379 -0.12867233 -0.01591629  0.03409027
 -0.16242066  0.19964918 -0.11531283 -0.10568085  0.1020686  -0.1754363
 -0.17129195 -0.14077094  0.02324497  0.1601185  -0.01377399  0.04324277
  0.14379506  0.07307544 -0.14776064  0.10811651  0.12343439  0.18815933
  0.01095486 -0.08865058 -0.12657763 -0.05646283 -0.08298519  0.15008296
 -0.04529258  0.03663893 -0.0671032   0.08462288  0.0280229  -0.10190507
 -0.04617175 -0.00422658 -0.09485191  0.12062033 -0.030552    0.0225556
 -0.03735565  0.10087255 -0.13253514 -0.00970575  0.12720442  0.07481397
 -0.06428163  0.02705332 -0.10846673  0.07433064 -0.10236114  0.04995331
 -0.14921287  0.01386202  0.14365347  0.01551204  0.1369666  -0.0644596
  0.1321479  -0.08979102  0.04469338  0.05011479 -0.13962276 -0.02027826
 -0.13669944  0.08322933  0.06566144  0.05680468 -0.01104302  0.15795906
 -0.07684004  0.13530007  0.10969807  0.05790389 -0.02896247  0.08858696
 -0.03421354 -0.01200078 -0.0352213   0.20293361 -0.1811713   0.20165192
  0.0106525   0.11973698  0.02834852 -0.005249    0.00692387  0.11687016
  0.00128376 -0.00914533 -0.0651762  -0.15772197  0.00571547  0.00025936
  0.04401504  0.04530745  0.09643219 -0.06943061 -0.01874543 -0.10299434
 -0.15772209  0.13628797  0.16588943 -0.12684105 -0.17737825  0.15913221
 -0.01353734  0.17173335 -0.02029315  0.148894   -0.07678297  0.14181787
  0.10552891 -0.0752666  -0.10876931 -0.16813736 -0.16806634  0.15709335
 -0.14999174 -0.10048784  0.02143332  0.02077991 -0.09341929 -0.07448718
  0.03035312 -0.04243377 -0.07467601 -0.11750958  0.06481273  0.13163355
 -0.02153093 -0.11010484 -0.14669068 -0.06867107  0.18118374  0.00454807
 -0.00570394  0.1441579  -0.15900299  0.15377589  0.05645079  0.03410814
 -0.00479899  0.1455697  -0.12383003 -0.03188238 -0.02843369 -0.08896635
  0.01875774  0.0473124  -0.03306074 -0.03540936 -0.04396626  0.01898022
 -0.18323639 -0.0681325  -0.01778971  0.14078242 -0.12775472  0.11598256
  0.13786533  0.04051282 -0.09923265  0.03359225 -0.12049004  0.15303773
 -0.05622786 -0.04610574  0.16550153 -0.03261207  0.10765294 -0.06630726
  0.02006683 -0.05804084]