[-0.091017   -0.02355744  0.02698646 -0.03192542  0.01907679 -0.00838751
 -0.06891691 -0.00465699 -0.00437586  0.0041065  -0.01541445 -0.05873851
  0.04673242  0.00613181 -0.00173031  0.01068971 -0.01353056 -0.08764137
 -0.02400807 -0.05392744 -0.07175246 -0.00204702 -0.01885736  0.02662809
 -0.0081174  -0.02944168 -0.0213822  -0.07831023 -0.05430357 -0.00202352
  0.02417933 -0.00657915 -0.03646792 -0.04618137 -0.03295465  0.00793862
 -0.05397089 -0.0389628  -0.07818706 -0.01103178 -0.04972371 -0.01729279
  0.01980978 -0.02069648 -0.08317844  0.03235019  0.00454603 -0.09000655
 -0.00630133 -0.0419279  -0.04107546 -0.07760575 -0.01864124  0.01409262
 -0.04926515 -0.07428349 -0.03586677  0.03851679  0.00808846 -0.03473937
 -0.02910674 -0.0545491  -0.0004884   0.00019378 -0.01548013 -0.11229592
 -0.13175456  0.02810014 -0.05182556  0.02033912 -0.03110871 -0.0592476
 -0.04737508 -0.06401974 -0.04774377 -0.04163998 -0.06114007  0.01842024
 -0.02940569 -0.02042826 -0.04156608 -0.01250197 -0.00134091 -0.03149434
  0.02273037  0.02795594  0.02924345  0.01737247 -0.03519775 -0.09192073
 -0.00977182 -0.09842661  0.02475458  0.02443736 -0.06981594  0.00263445
 -0.101775   -0.05028825  0.00251186 -0.0125223   0.01065759  0.03116755
 -0.03628323  0.01397261 -0.03492188 -0.05347477 -0.08428457  0.03012669
 -0.03758473 -0.05176198  0.01642116 -0.00986125 -0.00917233  0.01240366
  0.02080928  0.00884958 -0.00055655 -0.02825581  0.01628793  0.00904419
  0.00258385 -0.0427685  -0.01914798 -0.06366938 -0.00680655 -0.08099025
  0.03686404  0.01048851 -0.0804577  -0.06506424 -0.02893652  0.01932617
 -0.00235221  0.01172405 -0.05990167 -0.04495782  0.00554508 -0.04351517
  0.01342321  0.03435716 -0.02292863  0.00472946 -0.09271703 -0.00237242
  0.06616598  0.02452113  0.02523704 -0.04497916 -0.04103331 -0.02951757
 -0.03730391  0.01353644 -0.07305852 -0.01442947 -0.05761845 -0.01305738
  0.01596057 -0.08243578 -0.05820856 -0.07713838 -0.05524376  0.01932912
  0.02127579 -0.0244061  -0.04297422 -0.02370314  0.01820109 -0.05318179
 -0.04916034 -0.02580639 -0.02474646 -0.08099657 -0.04376685 -0.05638827
 -0.06396192  0.03000733  0.00113936  0.01788388 -0.05201622 -0.01227234
 -0.02603019 -0.03378411 -0.06115552 -0.0643695  -0.06342392 -0.09150197
  0.00373829 -0.00123221 -0.00277471 -0.05456404  0.00423811 -0.01117691
 -0.01227061  0.01918698  0.02123605  0.00940417 -0.03759486 -0.0143246
 -0.0150536   0.03140444 -0.00340984 -0.06159699 -0.07245822 -0.04320719
  0.00889378 -0.05973021 -0.04351195 -0.0425691  -0.05072183  0.03047338
 -0.00669442 -0.02421843 -0.05581418  0.00308663  0.05299154 -0.0385455
 -0.07400891 -0.04720787 -0.01858567 -0.04455871  0.00624107 -0.03110937
  0.03642064 -0.07577403 -0.04447989  0.01771138  0.03547335  0.01857187
  0.01912723  0.01067475 -0.04353394 -0.05125813  0.07276866 -0.07193141
  0.00180444  0.01105661 -0.0619253  -0.06917918 -0.00043116 -0.05532338
 -0.0253483  -0.02403657  0.02635733 -0.00362401 -0.04226392 -0.0800519
 -0.02446092 -0.00430638 -0.00266639  0.02029298 -0.0017285  -0.01041156
 -0.01665931  0.00487752  0.0362549  -0.03272827]