[-2.89510805e-02 -6.69544563e-02  2.93942858e-02  6.48910587e-04
 -2.47450881e-02  5.07382266e-02  1.87649729e-03  1.45661505e-02
 -5.03645167e-02 -7.84593374e-02 -4.14037239e-03  1.50928190e-02
 -9.51466411e-02  2.05000788e-02  5.38438261e-02 -1.08955353e-01
 -2.43926290e-02 -1.33094698e-01 -8.82237703e-02 -2.83284932e-02
 -4.06042635e-02  2.15523411e-02 -5.10829538e-02 -5.31373136e-02
 -1.09823784e-02 -4.05795388e-02  8.08638334e-03 -1.25638545e-02
  6.91400766e-02 -1.11663546e-02  4.05460503e-03 -6.91510737e-02
 -2.90263500e-02 -6.76712096e-02 -1.61326565e-02 -6.10230006e-02
 -8.63900706e-02  2.95319855e-02 -2.37147342e-02 -8.97081755e-03
  9.09632351e-03 -1.08592376e-01 -4.54865284e-02 -2.82096099e-02
  3.38250361e-02 -5.32756820e-02  3.07790004e-02 -1.07797809e-01
  4.57562320e-02 -7.47064129e-02  6.30152673e-02 -8.36189613e-02
 -4.14588191e-02  4.67063300e-02 -2.85216253e-02 -4.01193909e-02
 -7.87876323e-02 -7.85561278e-02 -4.87137549e-02 -4.89096157e-02
  5.39326929e-02 -1.12494878e-01  3.09327785e-02 -1.40984058e-02
  8.35431367e-03  4.75692749e-02  5.76151535e-02  5.90679422e-02
 -1.29922301e-01  6.43123537e-02 -1.58468168e-02 -8.81903525e-03
 -4.51321295e-03 -2.57793572e-02 -2.23229434e-02  4.38012332e-02
 -9.45305973e-02 -6.60800338e-02 -1.61128372e-01  3.50747369e-02
 -4.56529595e-02 -1.92949467e-03  2.26534829e-02 -4.12166044e-02
 -1.16748481e-04 -7.58450478e-02  1.43521028e-02 -4.21212390e-02
 -6.54356554e-02  3.20693217e-02 -9.14955977e-03 -1.13916866e-01
 -1.58520304e-02  3.18316408e-02 -1.06608421e-02  3.85127552e-02
 -5.47859184e-02  3.53742056e-02 -2.62396131e-03 -3.99033213e-03
  2.20225509e-02 -5.59594035e-02 -1.61594860e-02 -7.30815977e-02
 -3.55703644e-02  4.53628711e-02 -2.67981719e-02 -2.76692975e-02
  4.75008562e-02  3.35525908e-02 -2.81516369e-02 -1.87129248e-02
 -7.27525502e-02 -5.49235567e-02  4.92161326e-03 -3.01958527e-02
 -8.40876400e-02  3.87899615e-02 -7.39714429e-02  2.19591744e-02
  2.52966899e-02  2.45317654e-03 -3.92249748e-02  3.07620931e-02
  1.16532191e-03 -8.37132931e-02  4.32301126e-02 -3.58360186e-02]