[[-1.55094653e-01 -1.92999281e-02 -3.82168926e-02  8.31459984e-02
   7.53540695e-02 -4.24686670e-02 -6.27345918e-03 -1.26635998e-01
   6.00671396e-02 -2.68744514e-03 -3.76526602e-02  1.10746108e-01
  -6.21062778e-02  7.05112740e-02 -5.52919134e-02 -2.29078755e-02
  -7.65818357e-02 -5.84846921e-02 -1.16092721e-02  2.28813719e-02
   3.40298451e-02  2.28689257e-02 -1.69881177e-03  1.43681958e-01
  -7.42126703e-02  3.42018120e-02 -7.74724185e-02  3.64908911e-02
   2.93666497e-02 -1.13063470e-01 -9.35519859e-02 -5.44302817e-03
  -5.63202500e-02 -5.96481971e-02 -6.66476637e-02 -4.87371944e-02
  -9.74214543e-03 -5.90878427e-02  1.90809648e-02 -4.66839038e-02
  -7.62425512e-02 -4.21419361e-04 -3.26035172e-02 -7.16644898e-02
   2.30192710e-02  2.86961459e-02 -7.53526296e-03 -1.36554316e-02
   4.58481908e-02  4.46752757e-02 -2.85492744e-02  1.13509960e-01
   4.01281342e-02  1.04696698e-01  1.57189339e-01  9.70126316e-03
   2.42215917e-02  1.34675458e-01 -1.14347078e-01  1.26484095e-03
  -4.61508222e-02  4.55284044e-02  3.40602361e-02  3.55345793e-02
   1.04642004e-01 -8.92246440e-02  2.27016155e-02 -2.30199005e-02
   2.31793411e-02 -8.57349485e-02 -6.32695928e-02 -4.72823717e-02
  -8.70692451e-03 -1.07444860e-01  3.77917215e-02 -7.06282556e-02
  -5.44718392e-02 -4.09031026e-02  3.32412794e-02 -5.38986437e-02
   7.64619093e-03  5.19562513e-02  1.17878038e-02 -7.49827642e-03
  -1.63127724e-02 -8.07752833e-02  2.91896462e-02  4.44357395e-02
   6.84762225e-02 -9.65382264e-04 -1.51598863e-02  5.57599403e-02
   3.99168096e-02 -3.30626499e-03 -8.05565994e-03 -7.90857077e-02
   3.12036350e-02  9.00308974e-03  2.88185501e-03  1.11766579e-02
   6.15857132e-02 -2.65418161e-02 -4.63948399e-02  6.45759106e-02
   8.06923807e-02 -4.43057949e-03 -8.00776631e-02  4.04765736e-03
  -5.59934899e-02  7.83079416e-02 -7.78755918e-02  1.06222164e-02
  -4.12415201e-03  1.56098660e-02 -6.99423403e-02 -3.59369256e-02
   5.35885803e-02  1.02182396e-01 -2.92080604e-02  3.37481499e-02
  -7.19955042e-02  3.08443774e-02  4.17545252e-02  2.79235020e-02
   9.32308212e-02  1.00474946e-01 -1.12536319e-01  4.85853618e-03]
 [-1.90774873e-02 -4.00952715e-03 -6.24245815e-02  6.97752759e-02
  -5.44928350e-02 -2.26378739e-02  7.44182616e-02 -2.18142271e-02
  -6.48936257e-03 -7.77410492e-02  2.33835131e-02  2.93164179e-02
  -4.32424061e-02 -5.67274578e-02  2.82325912e-02  1.33051258e-02
  -4.35463227e-02 -4.67117764e-02 -1.03365844e-02 -8.77315477e-02
   1.23297565e-01  5.14104739e-02  5.73751666e-02  2.36442145e-02
  -6.07151091e-02  5.09412177e-02  3.67220417e-02  7.96176046e-02
  -6.96146190e-02 -3.37581523e-02  2.65382919e-02  5.80826728e-03
   1.64622441e-01 -4.00326326e-02  1.88954808e-02 -1.19432785e-01
   1.25042558e-01 -3.45914029e-02 -5.06308824e-02 -1.05435543e-01
   1.16590513e-02 -3.39156054e-02 -8.62559155e-02 -4.78275865e-02
   7.23848194e-02 -5.84794283e-02 -2.87048263e-03 -7.96313025e-03
   2.67402735e-02  7.31923571e-03  9.84380916e-02 -3.20358314e-02
  -6.61791787e-02 -1.84335723e-03  4.65282835e-02  3.75763327e-02
   3.15878429e-02  2.10056119e-02 -2.07966529e-02  2.92949583e-02
   1.05125271e-01  3.88475358e-02 -1.44734420e-02  9.59551781e-02
  -6.66530430e-03  3.60628441e-02  1.78663507e-02  9.26816661e-04
  -6.21724389e-02 -5.45051210e-02 -3.40453498e-02 -1.48986429e-01
   7.43267760e-02 -1.06547639e-01 -2.99668405e-02  9.52182710e-02
  -8.72522686e-03 -3.78765576e-02 -8.45734309e-03  5.36506064e-02
   4.25843969e-02 -1.34496927e-01  4.56214603e-03 -1.29521796e-02
  -1.67434979e-02  8.38233456e-02  8.74094442e-02 -2.55715009e-02
   1.08023301e-01  3.37253474e-02  1.98121704e-02  4.02437262e-02
  -1.59635376e-02  6.53509647e-02 -1.19588941e-01  2.51016375e-02
   1.31460205e-01 -2.45058872e-02  4.97376285e-02  2.60956176e-02
  -9.34677944e-02 -6.00081822e-03 -5.74555695e-02 -8.38126689e-02
  -6.57121614e-02 -6.39455859e-04  2.73926668e-02 -1.05498228e-02
  -6.39116950e-03  6.23163991e-02 -6.03698194e-02 -1.13912895e-01
   1.47568965e-02 -3.47396545e-02  1.00526176e-01  3.89501005e-02
  -2.60896422e-02 -1.02106924e-03 -4.99207824e-02 -4.98553999e-02
  -6.84623867e-02  4.96367887e-02  3.88247035e-02 -5.15268184e-02
  -7.12499171e-02  4.72813938e-03 -1.21907722e-02  5.00140116e-02]
 [-5.23981340e-02 -1.82803199e-02  2.72109415e-02 -5.49723990e-02
   3.81171033e-02  2.12174878e-02  9.37199220e-02 -2.95508802e-02
   1.09419718e-01 -6.56040385e-02 -7.24488869e-02  4.14814912e-02
  -4.83605936e-02  2.77410578e-02  9.50243026e-02 -8.35946053e-02
   1.47040915e-02 -2.01247081e-01 -7.84682408e-02  4.67179306e-02
  -6.22314736e-02  7.31727555e-02  1.76806971e-02 -3.14599015e-02
  -4.26008478e-02  9.18232091e-03 -3.27871330e-02 -2.34502256e-02
  -2.31444295e-02 -1.97154414e-02  2.35529873e-03 -6.53416291e-02
  -1.31393194e-01 -1.60531402e-02 -6.43960163e-02  3.59058604e-02
  -5.71962595e-02  4.67377864e-02  1.96392443e-02  4.71093729e-02
   1.03263906e-03 -2.00756304e-02 -5.49578853e-02 -5.20215929e-02
  -4.91093062e-02 -2.74607417e-04 -2.11906042e-02 -1.45720676e-01
   1.05130956e-01 -1.09055918e-02  2.40210854e-02 -4.23395112e-02
   9.11419243e-02  1.46795809e-02  5.49563952e-02 -3.46808918e-02
   3.30801532e-02 -2.03113873e-02 -7.89082944e-02 -4.02671658e-02
   1.73531026e-02 -9.90265161e-02 -1.31121743e-02 -4.10309993e-02
  -1.13344509e-02 -2.35276446e-02 -2.62709334e-02  1.14100359e-01
  -1.10680506e-01  6.63820282e-02  1.14741556e-01  7.26722106e-02
   7.49150366e-02  6.91760778e-02 -5.98323420e-02  2.25165095e-02
  -1.65317073e-01 -3.58452946e-02 -1.19947582e-01  5.29773720e-02
   8.09149444e-02 -4.21080366e-02 -3.76993651e-03 -5.08360378e-02
  -9.50065814e-03 -1.36298016e-01  5.56184500e-02 -1.23982411e-02
   1.12862930e-01 -4.39187838e-03  2.13871971e-02 -3.88293490e-02
   9.30840969e-02  2.36254302e-03 -1.53870732e-02  9.58106220e-02
  -7.74257025e-03  1.42668067e-02  1.04344939e-03 -5.66619374e-02
   1.11919895e-01  1.91498606e-03  6.64470776e-04 -4.83692512e-02
   8.74287486e-02 -2.08924711e-03 -2.68020406e-02 -1.85147375e-02
   1.22380611e-02 -1.29247434e-03 -9.85677633e-03  6.07315600e-02
   7.38133043e-02 -3.76289934e-02 -2.37007942e-02 -1.71586629e-02
   2.33683884e-02  6.17821887e-02 -6.13775365e-02 -2.99711786e-02
   1.20388925e-01  6.79659396e-02 -7.66673777e-03  3.62730063e-02
   2.01995224e-02 -4.72945906e-02  1.04199443e-03 -8.67158081e-03]
 [-5.24367690e-02 -7.53499195e-02 -3.89283523e-02 -4.01182733e-02
  -8.79493635e-03  8.66323113e-02 -2.63475012e-02  3.78925689e-02
   2.79938858e-02  5.07942885e-02 -2.64357068e-02 -9.32715535e-02
   9.58847639e-04  1.48369163e-01  1.00526668e-01 -3.33114564e-02
   1.49960704e-02 -8.45803171e-02  7.11721405e-02 -2.10616421e-02
  -6.95567280e-02 -5.60419681e-03  5.31461537e-02 -1.23729803e-01
  -7.08160847e-02  2.35226396e-02 -4.00649905e-02  3.21166068e-02
   6.57356828e-02  5.00445925e-02  4.14428599e-02  9.38913077e-02
  -7.24000037e-02 -1.81144720e-03 -1.74549203e-02  1.23411091e-03
   1.12825453e-01 -1.27030075e-01  1.51195507e-02 -1.89427957e-02
   8.90706293e-03 -9.97987464e-02 -1.03499345e-01 -3.16225924e-02
  -2.57150568e-02  3.50357220e-02 -5.54839782e-02 -7.02057928e-02
  -3.54773831e-03 -4.34284844e-02  4.14410494e-02 -1.22219503e-01
  -3.79368983e-04 -6.00695647e-02  2.94217318e-02  3.88430208e-02
   2.00855788e-02  4.03686799e-02 -3.50445807e-02 -5.60517423e-02
  -6.97772056e-02 -1.60498321e-02  1.58873145e-02 -1.15125716e-01
   1.35044067e-03 -5.26130721e-02  1.43226655e-02  8.64107609e-02
  -3.08781839e-03  9.83961299e-02 -5.97144099e-05  3.77699696e-02
   6.88547790e-02 -1.35819735e-02 -3.69739383e-02 -4.66424897e-02
  -4.33910191e-02  3.20775574e-03 -1.16370711e-02 -7.96661824e-02
   4.32386957e-02  8.04023147e-02  1.11695722e-01  3.06863226e-02
  -6.61006421e-02  3.14333253e-02 -1.00456439e-01  4.85966913e-03
   4.14552167e-02  1.64419301e-02  1.27066046e-01  1.02073796e-01
   1.00973593e-02 -7.51053914e-03  1.21566495e-02  2.81951129e-02
  -1.17731411e-02  5.29558919e-02  1.47427265e-02 -2.49181893e-02
   2.68739145e-02  6.00871220e-02  1.19867912e-02 -5.53411839e-04
  -1.01850539e-01 -6.89723641e-02 -2.86996905e-02  5.33739515e-02
   5.41140996e-02  1.28067611e-03 -8.68121535e-02  8.97254050e-02
   5.45114391e-02 -8.56942981e-02 -8.42588022e-03 -1.25436031e-03
   4.85220701e-02 -3.01328506e-02 -7.58713782e-02 -9.45793763e-02
  -9.84967649e-02  1.69783384e-02  6.22081310e-02  5.68464808e-02
  -1.21860780e-01 -1.11725412e-01 -4.64233644e-02 -1.05292080e-02]
 [-3.49250101e-02 -4.78525609e-02 -7.97461569e-02 -6.02981895e-02
   8.77986103e-03  4.63611539e-03  1.10133213e-03 -1.18740767e-01
   6.84322417e-02 -1.24359123e-01  3.53800692e-02 -1.01817362e-01
  -7.11305141e-02  1.40048983e-02  1.61760114e-02 -2.01477390e-02
   9.87041183e-03 -1.40919322e-02  4.36673649e-02  1.04050562e-01
  -6.45053312e-02  5.49439527e-02 -4.60644625e-02  7.14147761e-02
   2.85630324e-03  9.56112072e-02 -2.35921610e-02  1.53038979e-01
   1.11381821e-01 -5.38204350e-02 -1.52865350e-01 -4.19584513e-02
  -3.41281556e-02 -1.12587400e-02 -9.66984034e-02  1.38646513e-02
  -3.42944041e-02  7.00081140e-02 -6.36723218e-03 -1.01743639e-02
  -5.19909747e-02 -1.16083436e-02 -1.95412189e-02  1.96806472e-02
  -8.99043307e-03 -1.35286096e-02  4.72977795e-02  4.27239500e-02
   8.81081372e-02  6.15507513e-02  3.94907640e-03 -2.73201670e-02
   3.04435734e-02  8.41710903e-03  9.59920064e-02  5.33699850e-03
  -4.60245833e-02  3.74254561e-03  2.29050349e-02 -4.68695583e-03
   3.15307155e-02 -1.64027624e-02  2.11521075e-03 -4.41418914e-03
   7.66708925e-02  7.81152025e-02  1.06396526e-02 -2.57899333e-02
  -1.78513750e-02 -4.23194692e-02  1.24221323e-02 -2.39096973e-02
   1.07630633e-01  5.56699932e-04 -2.64762957e-02 -1.35870744e-02
  -4.02200408e-02  1.24094039e-01 -2.84140389e-02 -6.39658496e-02
  -1.35322422e-01 -7.69139454e-02  3.21434103e-02  1.06258921e-01
   2.33134981e-02  1.46310642e-01 -7.94570968e-02  1.09268250e-02
   1.25351688e-02  1.65422785e-03  6.78884163e-02 -4.86413129e-02
   4.27393578e-02  1.06286630e-01 -1.24714144e-01  9.82044637e-02
   1.86447531e-03 -1.63863860e-02 -7.13289827e-02  2.44296901e-02
   6.10506646e-02  2.90116435e-03  5.59927635e-02  8.02227780e-02
   8.17300081e-02  5.79064339e-03  1.28827766e-02 -1.00972354e-02
   8.52169469e-03  5.44670261e-02 -8.34455527e-03 -1.33567746e-03
  -8.31836164e-02 -1.31295584e-02 -5.01071252e-02 -3.36029120e-02
   5.32123111e-02 -1.02903895e-01  3.66967805e-02 -1.72294769e-02
  -8.76440108e-03 -6.73064068e-02 -1.82301179e-02  2.25567352e-02
   3.40289287e-02 -3.95427085e-02 -4.18018131e-03  3.44824046e-02]
 [ 3.39000411e-02  2.97989533e-03  1.66449733e-02 -6.18739426e-02
  -9.88739729e-02  9.19446126e-02 -4.76811342e-02 -8.40394720e-02
  -6.75272867e-02  4.66244444e-02  1.13486409e-01 -5.27269691e-02
   6.88193813e-02 -6.68584555e-02  1.14393897e-01 -4.30296771e-02
   3.35763991e-02  1.26174569e-01  3.05155031e-02 -6.46793693e-02
   2.20941287e-02  1.01721130e-01 -4.49184217e-02  4.98891883e-02
   5.31605333e-02 -1.23755811e-02 -4.82769161e-02 -1.15326084e-01
   4.20841835e-02  4.16758098e-03 -1.56647377e-02  4.65663075e-02
  -4.72443178e-02  4.56687324e-02  4.37062010e-02 -5.12773730e-03
  -2.19300091e-02  4.08405578e-03 -2.08813306e-02  1.77916978e-02
  -2.31384505e-02 -1.19395107e-02  4.15229760e-02  8.78244638e-02
   6.32013753e-02  4.48479280e-02  5.64808678e-03 -9.77937728e-02
  -1.48896175e-02  4.57355306e-02 -1.74217746e-02 -5.09185456e-02
  -2.33830940e-02  7.86225870e-02 -5.52809015e-02  2.66535506e-02
  -9.54152048e-02  2.29038410e-02  3.30309421e-02  1.19779982e-01
   7.54588097e-03 -1.84469894e-02  2.71428935e-02 -3.48352008e-02
  -3.78610753e-02  6.48493320e-02 -1.01440735e-02  5.69818309e-03
  -1.30787075e-01 -4.96322811e-02 -3.09875775e-02  8.64133760e-02
  -5.54499589e-02  5.50159700e-02  2.96198037e-02 -1.09055052e-02
   8.08358863e-02 -8.54665339e-02 -3.20277885e-02  8.08012486e-02
  -4.75566573e-02 -1.06666246e-02  1.21630393e-01 -4.67086919e-02
  -3.97756994e-02  5.12830019e-02 -7.06739072e-03  2.26557050e-02
  -3.30395997e-02  3.44599411e-02 -8.85292515e-02 -1.25168890e-01
   4.56166657e-04  1.88969541e-02 -2.44440753e-02 -3.73834968e-02
   1.23171791e-01  3.33252735e-02  6.17679209e-02 -1.97797026e-02
  -1.27219222e-02 -4.13693534e-03 -7.69250095e-02  4.26978804e-02
  -2.41818577e-02  7.55812526e-02  7.16442168e-02  6.34454265e-02
   8.17245618e-03 -1.55686568e-02  6.22984879e-02  1.03109628e-01
   5.19001260e-02 -1.15023687e-01  5.61371632e-02  3.98626104e-02
   1.01164430e-02  6.64103329e-02 -1.37532279e-02  5.27581945e-02
   4.57141399e-02 -2.10294873e-02  4.25435677e-02 -5.53195626e-02
   3.25879455e-02 -7.50640556e-02  1.27484463e-03 -6.29813671e-02]]