-1.149317547678947449e-01 -1.781190037727355957e-01 9.377636015415191650e-02 1.850588992238044739e-02 6.777466088533401489e-02 -9.023322165012359619e-02 -2.957359887659549713e-03 -7.412879914045333862e-02 8.199741691350936890e-02 -9.662310034036636353e-02 3.887672722339630127e-02 7.313005626201629639e-02 -9.080855548381805420e-02 1.935282796621322632e-01 3.428312391042709351e-02 -6.768903136253356934e-02 -5.141335353255271912e-02 7.980778068304061890e-02 5.501321703195571899e-02 6.952735036611557007e-02 2.523026661947369576e-03 -1.868287473917007446e-01 -7.772305607795715332e-02 2.504740655422210693e-02 1.963960006833076477e-02 2.514710649847984314e-02 5.194531753659248352e-02 5.465719476342201233e-02 -4.254363011568784714e-04 3.150328248739242554e-02 1.561218053102493286e-01 6.855944544076919556e-02 -8.717316389083862305e-02 6.135357916355133057e-02 -3.151821717619895935e-02 9.810077957808971405e-03 3.498208895325660706e-02 -9.378584474325180054e-02 -1.136872991919517517e-01 -1.293176114559173584e-01 1.914344877004623413e-01 -7.027594372630119324e-03 -9.101885557174682617e-02 -1.215838454663753510e-02 5.476221442222595215e-02 -9.345442801713943481e-02 5.114898085594177246e-02 -4.387905821204185486e-02 -4.994130879640579224e-02 -1.036155894398689270e-01 3.979032859206199646e-02 7.451539486646652222e-02 1.205258909612894058e-02 -7.629863917827606201e-02 -2.802317589521408081e-02 -2.867237478494644165e-02 1.511450558900833130e-01 4.164224490523338318e-02 4.384451359510421753e-02 1.067638695240020752e-01 -1.232351828366518021e-02 -8.015242964029312134e-02 6.235070154070854187e-02 -1.158194020390510559e-01 3.258140012621879578e-02 5.445615947246551514e-02 4.094866663217544556e-02 -2.626607380807399750e-02 2.342429570853710175e-02 -5.896740034222602844e-02 1.104910448193550110e-01 -8.088412880897521973e-02 8.961801230907440186e-02 2.081788145005702972e-02 6.446394254453480244e-04 5.880055576562881470e-02 2.571646869182586670e-02 -7.293590903282165527e-02 -2.236570976674556732e-02 -5.120533704757690430e-02 -7.091686874628067017e-02 1.034165099263191223e-01 -1.098655387759208679e-01 -4.194792360067367554e-03 -1.238171104341745377e-02 -1.691113412380218506e-02 -1.001595035195350647e-01 -2.193676866590976715e-02 -4.078417643904685974e-02 7.712074369192123413e-02 -1.101939827203750610e-01 -3.268150240182876587e-02 -9.346409887075424194e-02 5.929814185947179794e-03 4.133745282888412476e-02 -1.543792784214019775e-01 2.927602827548980713e-02 4.195771366357803345e-02 -1.819935739040374756e-01 1.841722242534160614e-02 -2.844764105975627899e-02 -3.318865597248077393e-02 1.497397944331169128e-02 4.395572002977132797e-03 -2.953350730240345001e-02 7.402923703193664551e-02 1.240934878587722778e-01 -3.696138784289360046e-02 7.931126654148101807e-02 2.435377240180969238e-02 2.187930606305599213e-02 1.700874604284763336e-02 -2.018405683338642120e-02 1.382378339767456055e-01 -9.435608237981796265e-02 -8.935644477605819702e-02 -8.851651847362518311e-02 -1.110209897160530090e-01 -2.403333038091659546e-01 8.402379602193832397e-02 -1.175198052078485489e-02 1.774659901857376099e-01 -7.785360515117645264e-02 -4.216529428958892822e-02 2.872531116008758545e-02 5.277340859174728394e-02 -1.249980181455612183e-01 5.139983072876930237e-02
6.270949542522430420e-02 5.698407441377639771e-02 3.141574189066886902e-02 3.092275559902191162e-02 -3.870799206197261810e-03 6.710119545459747314e-02 -2.566463313996791840e-02 -1.270334720611572266e-01 5.173132289201021194e-03 4.231430124491453171e-03 -2.318954840302467346e-02 7.006097584962844849e-02 -8.612044900655746460e-02 6.020228192210197449e-02 -3.121055290102958679e-02 -7.926151901483535767e-02 1.100816531106829643e-03 7.058797776699066162e-02 -2.597391605377197266e-03 -9.342483244836330414e-03 3.851454704999923706e-02 -4.419120959937572479e-03 -5.865725129842758179e-02 -2.633254975080490112e-02 -1.188190206885337830e-01 3.583673387765884399e-02 -1.429184246808290482e-02 -2.728437818586826324e-02 -4.267947748303413391e-02 3.631757944822311401e-02 -8.445510268211364746e-02 -1.082465052604675293e-01 1.514661032706499100e-02 6.491787731647491455e-02 -8.457452058792114258e-02 -7.828752510249614716e-03 6.077995896339416504e-02 -5.379255395382642746e-03 -4.817860946059226990e-02 2.731926739215850830e-02 9.917978197336196899e-02 2.446723543107509613e-02 7.475508749485015869e-02 2.543998323380947113e-02 2.199985459446907043e-02 -1.385787874460220337e-02 -4.886326193809509277e-02 -4.478619620203971863e-02 4.547049757093191147e-03 -2.382394392043352127e-03 -5.200984328985214233e-02 -1.105173751711845398e-01 -3.330893814563751221e-02 2.461771517992019653e-01 -6.900109350681304932e-02 8.104212582111358643e-02 4.905718937516212463e-02 3.824873268604278564e-02 2.236551791429519653e-02 -8.087162673473358154e-02 -1.217332109808921814e-01 3.459395142272114754e-03 -6.775439530611038208e-02 -5.014481395483016968e-02 7.063609361648559570e-02 6.111994758248329163e-02 -1.180848777294158936e-01 7.600450515747070312e-02 -6.135462969541549683e-02 1.058969125151634216e-01 -4.733663797378540039e-02 -7.828341424465179443e-02 6.621646881103515625e-02 2.877096878364682198e-03 -4.588511213660240173e-02 -1.123885158449411392e-02 -1.994811929762363434e-02 -9.261272102594375610e-02 -8.320362865924835205e-02 1.030724346637725830e-01 9.118512971326708794e-04 -1.004447937011718750e-01 1.064113453030586243e-01 -7.028575986623764038e-02 -1.154491454362869263e-01 -6.065283715724945068e-02 1.050765719264745712e-02 -1.659661158919334412e-02 -3.233963251113891602e-02 8.199232630431652069e-03 2.232063002884387970e-02 -1.459155045449733734e-02 -2.036939375102519989e-02 6.960903853178024292e-02 4.954322800040245056e-02 4.203309118747711182e-02 -2.727297507226467133e-02 2.568390779197216034e-02 1.186669990420341492e-02 -6.107257213443517685e-03 -6.385193672031164169e-03 -3.901594877243041992e-02 1.048818230628967285e-01 1.576029062271118164e-01 1.085043847560882568e-01 8.867179043591022491e-03 5.177723616361618042e-02 -1.481343992054462433e-02 -8.276126533746719360e-02 8.211410790681838989e-02 -9.978768974542617798e-02 -1.226242333650588989e-01 -3.891004994511604309e-02 -2.221622131764888763e-02 6.326874345541000366e-02 3.048140369355678558e-02 2.996478788554668427e-02 -6.077815219759941101e-02 -7.436812669038772583e-02 -1.803225576877593994e-01 2.741583995521068573e-02 2.648972347378730774e-02 2.081653662025928497e-02 8.349531143903732300e-02 2.066137492656707764e-01 6.272251158952713013e-02 -1.182139739394187927e-01 3.798382729291915894e-02
3.313244879245758057e-02 -1.506161503493785858e-02 -4.049117863178253174e-02 -2.201661281287670135e-02 1.506957225501537323e-02 3.620272502303123474e-02 -7.032161112874746323e-03 -2.691063098609447479e-02 -2.135351859033107758e-02 -1.905915327370166779e-02 3.582546487450599670e-02 3.151144087314605713e-02 -3.111789561808109283e-02 -2.621938660740852356e-02 4.192166496068239212e-03 2.297577075660228729e-02 6.124221719801425934e-03 3.599492460489273071e-02 9.544525295495986938e-03 -2.006609365344047546e-02 1.506894454360008240e-02 1.335368584841489792e-02 4.236508533358573914e-02 -4.718051850795745850e-02 -3.207394853234291077e-02 -2.820480987429618835e-02 -2.152039483189582825e-02 2.693462371826171875e-02 9.672715328633785248e-03 -1.740344800055027008e-02 -3.855808451771736145e-02 3.772868588566780090e-02 7.328968495130538940e-02 4.743480682373046875e-02 -3.853394836187362671e-02 -1.533518079668283463e-02 6.588789820671081543e-02 5.562637373805046082e-02 8.595840074121952057e-03 2.687455620616674423e-03 -1.104860752820968628e-02 -2.084402740001678467e-02 1.519725471735000610e-02 -2.461052499711513519e-02 2.721595810726284981e-03 -8.875139988958835602e-03 -4.575703351292759180e-04 -5.810537934303283691e-02 -4.460157826542854309e-02 1.067398861050605774e-02 -9.526199847459793091e-02 1.918913237750530243e-02 -1.071775704622268677e-02 7.952352985739707947e-03 2.109628543257713318e-02 -5.303606390953063965e-03 -3.796934336423873901e-02 -1.822483353316783905e-02 -3.326452895998954773e-02 8.884607814252376556e-03 -3.986182808876037598e-02 -2.034481428563594818e-02 1.899532228708267212e-02 1.121228840202093124e-02 2.909165062010288239e-02 3.345265612006187439e-02 3.217428550124168396e-02 2.001098543405532837e-01 7.350346277235075831e-05 4.772494733333587646e-02 -1.630677655339241028e-02 -8.982650935649871826e-03 -1.301844231784343719e-02 -5.998381879180669785e-03 -9.176645427942276001e-03 -1.520107313990592957e-02 5.572292488068342209e-03 -1.187525968998670578e-02 -2.264745300635695457e-03 2.814738079905509949e-03 6.716736126691102982e-03 6.957080215215682983e-03 1.829367876052856445e-02 -1.370192039757966995e-02 2.281136251986026764e-02 -3.816844895482063293e-02 2.397843450307846069e-02 -3.141301870346069336e-02 1.285430323332548141e-02 3.942650742828845978e-03 9.809319861233234406e-03 -2.604196034371852875e-02 1.748242531903088093e-03 8.047051727771759033e-03 1.637478545308113098e-02 5.031020939350128174e-02 3.825786523520946503e-03 -2.032799459993839264e-02 1.061170473694801331e-01 -8.064277470111846924e-03 -1.037157839164137840e-03 3.233731910586357117e-02 3.772711753845214844e-02 4.733501374721527100e-02 1.488538924604654312e-02 7.252930663526058197e-03 9.286632761359214783e-03 2.434056997299194336e-02 -7.122950046323239803e-04 2.248474769294261932e-02 -1.396569050848484039e-02 -1.053679138422012329e-01 -2.736531756818294525e-02 2.792838029563426971e-02 -1.346285268664360046e-02 -1.066736411303281784e-02 7.195304334163665771e-02 -1.123697776347398758e-02 -3.166139125823974609e-02 -2.112609567120671272e-03 9.920348413288593292e-03 -2.030792459845542908e-02 -3.236253187060356140e-02 3.222250565886497498e-02 7.936101406812667847e-02 -1.591736450791358948e-02 1.076750829815864563e-01 2.280535409227013588e-03
2.361101806163787842e-01 -1.493528112769126892e-02 -7.160601764917373657e-02 9.564040601253509521e-02 3.863729909062385559e-02 5.636761337518692017e-02 6.113221123814582825e-02 -8.799730986356735229e-02 -1.397712714970111847e-02 1.507785469293594360e-01 2.298422306776046753e-01 4.343140497803688049e-02 1.652591526508331299e-01 -1.078504510223865509e-02 8.071686327457427979e-02 4.826265946030616760e-02 1.148919835686683655e-01 -6.583751738071441650e-02 -1.579655893146991730e-02 -6.747503764927387238e-03 4.141550138592720032e-02 -1.390725225210189819e-01 -1.385290990583598614e-03 -1.150175258517265320e-01 7.368555665016174316e-02 -1.047151312232017517e-01 -1.058947220444679260e-01 -1.377991884946823120e-01 -7.815122604370117188e-02 -5.517799779772758484e-02 7.712879031896591187e-02 -7.432018220424652100e-02 5.119857192039489746e-02 -4.645780473947525024e-02 1.091935932636260986e-01 5.328594893217086792e-02 1.104860678315162659e-01 7.726888358592987061e-02 2.408578433096408844e-02 1.310749053955078125e-01 -6.228614225983619690e-02 1.652117818593978882e-02 1.259350683540105820e-03 1.354301273822784424e-01 -2.995264902710914612e-02 -4.966336861252784729e-02 5.263928696513175964e-02 2.192527242004871368e-02 6.127186492085456848e-02 -3.931384906172752380e-02 2.620327100157737732e-02 1.939708553254604340e-02 -4.094792157411575317e-02 -1.088182404637336731e-01 -7.074061781167984009e-02 9.221338480710983276e-02 -6.222442165017127991e-02 -1.584443449974060059e-02 5.870610475540161133e-02 5.999551154673099518e-03 5.645632743835449219e-02 -1.471703201532363892e-01 -5.715972930192947388e-02 1.698576472699642181e-02 2.571396715939044952e-02 7.531911134719848633e-02 -1.877946965396404266e-02 3.516356809996068478e-04 -7.669539749622344971e-02 8.817255496978759766e-02 -1.067295148968696594e-01 1.098659038543701172e-01 -1.047133374959230423e-02 -2.664771303534507751e-02 -7.774327695369720459e-02 7.385364174842834473e-02 -1.241299957036972046e-01 7.204045355319976807e-02 -1.016677394509315491e-01 -4.633513465523719788e-02 9.351713955402374268e-02 1.591476202011108398e-01 1.105224713683128357e-01 -1.560522317886352539e-01 7.127247005701065063e-02 -6.873819231986999512e-02 5.921147391200065613e-02 2.106312513351440430e-01 1.250113397836685181e-01 -2.993681840598583221e-02 -2.495710738003253937e-02 1.259067654609680176e-01 2.066413685679435730e-02 -1.317338049411773682e-01 7.121685147285461426e-02 -2.109222672879695892e-02 -9.054430760443210602e-03 -6.874766200780868530e-02 3.766271099448204041e-02 1.168100759387016296e-01 1.213752403855323792e-01 -9.936910867691040039e-02 1.705333739519119263e-01 -6.968116760253906250e-02 2.469189651310443878e-02 1.603408530354499817e-02 4.759355261921882629e-02 8.744337409734725952e-02 -3.482072427868843079e-02 4.178963601589202881e-02 -4.795194417238235474e-02 1.620322279632091522e-02 -1.164548546075820923e-01 -3.621569648385047913e-02 2.109270095825195312e-01 3.831097856163978577e-03 -1.212434843182563782e-01 1.049237996339797974e-01 2.455848269164562225e-02 1.994694471359252930e-01 2.451683580875396729e-02 -1.045025512576103210e-01 1.398580372333526611e-01 -4.391565546393394470e-02 5.634682998061180115e-02 3.051730245351791382e-02 5.814489349722862244e-02 -5.883976072072982788e-02
-3.463926538825035095e-02 -3.911919519305229187e-02 8.200284838676452637e-02 -5.780861899256706238e-02 -6.792906671762466431e-02 -6.452602148056030273e-02 1.361272782087326050e-01 -1.299939863383769989e-02 -1.086433753371238708e-01 5.336232949048280716e-03 -2.723731659352779388e-02 -9.672638960182666779e-03 3.655540570616722107e-02 -1.481868512928485870e-02 -7.900079339742660522e-02 1.664734445512294769e-02 8.137965202331542969e-02 9.007601439952850342e-02 1.894518733024597168e-02 2.706125564873218536e-02 -1.903064996004104614e-01 -7.026717066764831543e-02 -1.140751764178276062e-01 1.261987164616584778e-02 -1.128212958574295044e-01 7.069610804319381714e-02 -4.199989140033721924e-02 -1.346494257450103760e-01 -9.431660175323486328e-02 -4.755122587084770203e-02 -1.135876402258872986e-02 1.439844518899917603e-01 3.426904603838920593e-02 -9.549235552549362183e-02 -1.294778585433959961e-01 -2.025754451751708984e-01 -2.578016184270381927e-02 1.244313865900039673e-01 1.307369470596313477e-01 1.763593778014183044e-02 -7.244040071964263916e-02 1.669803559780120850e-01 -7.927187532186508179e-02 5.457440018653869629e-02 1.356454789638519287e-01 7.097560167312622070e-02 6.031887605786323547e-02 -2.037647962570190430e-01 -1.011419743299484253e-01 -1.116098165512084961e-01 1.955328136682510376e-02 -4.337584972381591797e-02 -6.359275430440902710e-02 4.511662945151329041e-02 -9.096522629261016846e-02 -1.572299599647521973e-01 -1.104538813233375549e-01 -2.523189410567283630e-02 -1.488902699202299118e-02 1.385312993079423904e-02 4.904709756374359131e-02 -1.104013994336128235e-01 4.860883578658103943e-02 4.370890557765960693e-02 6.680538505315780640e-02 6.603190302848815918e-02 1.013626828789710999e-01 4.144886881113052368e-02 -9.295257925987243652e-02 5.739084258675575256e-02 -1.637128442525863647e-01 6.247149035334587097e-02 -5.699966102838516235e-02 -2.163835763931274414e-01 -8.639352023601531982e-02 2.846146523952484131e-01 2.788469009101390839e-02 -1.174037307500839233e-01 5.168972909450531006e-02 1.633637701161205769e-03 7.266859710216522217e-02 1.366627067327499390e-01 -1.428682263940572739e-02 1.442316826432943344e-02 7.490454614162445068e-02 1.539851818233728409e-02 2.882272936403751373e-02 -1.122000906616449356e-02 2.282608486711978912e-02 -9.198328852653503418e-02 8.457669988274574280e-03 -1.226761266589164734e-01 -4.671932011842727661e-02 -3.046463616192340851e-02 -1.034290716052055359e-01 2.315023355185985565e-02 1.097062975168228149e-02 1.240129489451646805e-02 1.756674423813819885e-02 8.445621281862258911e-02 1.008832380175590515e-01 7.476580142974853516e-02 -1.768844760954380035e-02 1.741418056190013885e-02 -1.585465520620346069e-01 -6.678684614598751068e-03 -3.508662339299917221e-03 -6.539751589298248291e-02 -4.275830462574958801e-02 6.129492819309234619e-02 -1.850821636617183685e-02 2.786744013428688049e-02 3.555095940828323364e-02 -1.980490237474441528e-02 3.595985099673271179e-02 -1.597501784563064575e-01 -7.398420572280883789e-02 -8.268775045871734619e-02 8.863518387079238892e-02 -1.250014360994100571e-02 -1.744570136070251465e-01 -2.844982221722602844e-02 -1.471644360572099686e-02 -6.222427636384963989e-02 3.330541774630546570e-02 -1.926065422594547272e-02 5.169758200645446777e-02 9.876687079668045044e-02
2.879330888390541077e-02 4.590830951929092407e-02 8.756340481340885162e-03 6.320126354694366455e-02 2.130392566323280334e-02 -2.920409478247165680e-02 3.303004056215286255e-02 -2.535245846956968307e-03 -4.387599974870681763e-02 -1.685107126832008362e-02 -4.281086847186088562e-03 8.043687790632247925e-03 1.006424427032470703e-02 -1.622642204165458679e-02 -1.078925188630819321e-02 -1.560081448405981064e-02 4.890692234039306641e-02 1.185238081961870193e-02 -7.889182120561599731e-02 -5.900654476135969162e-03 1.886855065822601318e-02 -5.337602924555540085e-03 -2.099448256194591522e-02 3.176082670688629150e-02 -1.413075998425483704e-02 -2.834776882082223892e-03 1.773329079151153564e-02 -1.985263265669345856e-02 2.456743642687797546e-02 1.283137965947389603e-02 -3.214309737086296082e-02 4.086993169039487839e-03 -2.221764624118804932e-02 -1.946589909493923187e-02 9.977369569242000580e-03 -4.152046889066696167e-02 -2.721508266404271126e-03 7.524950895458459854e-03 -9.359944611787796021e-03 -9.066490456461906433e-04 -1.955838687717914581e-02 3.944857046008110046e-02 1.826530508697032928e-02 2.196368575096130371e-02 -1.064593810588121414e-02 3.415242582559585571e-02 -3.081799484789371490e-02 -1.434009075164794922e-01 1.123518589884042740e-02 3.357682749629020691e-02 -1.362055726349353790e-02 -2.202235534787178040e-02 -8.329539746046066284e-02 1.757139689289033413e-03 -4.572083801031112671e-02 -2.982854656875133514e-02 7.386161945760250092e-03 6.926406174898147583e-02 2.012947201728820801e-02 4.564594943076372147e-03 -9.148441604338586330e-04 -2.052759751677513123e-03 1.516668219119310379e-02 -2.743937075138092041e-02 -1.104218047112226486e-02 5.844514071941375732e-02 1.653889659792184830e-03 8.215901441872119904e-03 -4.604125022888183594e-02 4.321208223700523376e-02 6.436959654092788696e-02 -2.530974149703979492e-02 5.887500941753387451e-03 -3.429748490452766418e-02 -4.584059864282608032e-02 1.726531684398651123e-01 4.646022245287895203e-02 -4.309764504432678223e-02 -8.267733454704284668e-02 -1.060589496046304703e-02 4.621604748535901308e-04 2.778512425720691681e-02 -1.648019067943096161e-02 -3.413994982838630676e-02 2.223653346300125122e-02 -1.624682685360312462e-03 2.705691382288932800e-02 2.838262319564819336e-01 1.105498056858778000e-03 1.802304945886135101e-02 2.219229191541671753e-02 1.494714245200157166e-02 -1.410127896815538406e-02 1.730718277394771576e-02 -1.372614130377769470e-02 4.618578404188156128e-02 3.925864771008491516e-02 6.574267894029617310e-02 4.380438942462205887e-03 2.329348120838403702e-03 -2.649977989494800568e-02 2.190666086971759796e-02 2.102047204971313477e-02 2.243535406887531281e-02 4.735597223043441772e-02 9.210733324289321899e-02 -2.974816132336854935e-03 -2.364192157983779907e-02 -3.747533261775970459e-02 1.349711976945400238e-02 7.535425014793872833e-03 2.429731003940105438e-02 1.345331314951181412e-02 8.585146628320217133e-03 2.172347344458103180e-02 -2.025740221142768860e-02 -3.177130594849586487e-02 2.273402549326419830e-02 2.251051180064678192e-02 7.017747848294675350e-04 -4.213058203458786011e-02 5.088928341865539551e-02 -1.701285876333713531e-02 -2.036069333553314209e-02 1.959140645340085030e-03 1.882788352668285370e-02 2.282709814608097076e-03 -3.158103302121162415e-02
