-5.733730737119913101e-03
9.938763082027435303e-02
3.335759416222572327e-02
-1.373475939035415649e-01
-2.321005314588546753e-01
-6.105002388358116150e-02
-8.101098239421844482e-02
1.223515793681144714e-01
8.575158566236495972e-02
-9.547948092222213745e-02
-9.911204874515533447e-02
-1.824062434025108814e-03
1.014894396066665649e-01
-1.087305471301078796e-01
8.593770116567611694e-02
-1.027631536126136780e-01
-1.462352573871612549e-01
-1.295805573463439941e-01
-3.175733610987663269e-02
9.785354137420654297e-02
-1.054140329360961914e-01
4.597186297178268433e-02
-1.337937861680984497e-01
-2.795735001564025879e-02
-8.942347764968872070e-02
8.567839115858078003e-02
4.171830415725708008e-02
-1.457607150077819824e-01
-1.231344789266586304e-01
-2.175657153129577637e-01
-3.763344883918762207e-02
1.922862976789474487e-01
-1.599722802639007568e-01
1.951312064193189144e-03
9.902099519968032837e-02
-5.932988226413726807e-02
1.123088598251342773e-01
1.215216815471649170e-01
-7.800658792257308960e-02
-8.045812696218490601e-02
1.109145283699035645e-01
6.157159805297851562e-02
1.500431597232818604e-01
-4.943956062197685242e-02
3.793282434344291687e-02
1.714747026562690735e-02
1.892541050910949707e-01
-2.892349846661090851e-02
-3.060967288911342621e-02
1.786029785871505737e-01
-3.499407693743705750e-02
-2.097396180033683777e-02
-1.821028441190719604e-01
1.269854605197906494e-01
2.645425265654921532e-04
8.800480514764785767e-03
-1.195352151989936829e-01
-1.083917990326881409e-01
1.069079414010047913e-01
-1.032630950212478638e-01
-5.794391036033630371e-02
7.912643253803253174e-02
7.047478109598159790e-03
-7.816389203071594238e-02
-1.620722748339176178e-02
-9.841826558113098145e-02
-1.037981919944286346e-02
1.888691820204257965e-02
1.589038819074630737e-01
1.110316142439842224e-01
-1.598141938447952271e-01
-1.061664894223213196e-01
-3.025192581117153168e-02
-2.024902030825614929e-02
-1.059109810739755630e-02
-1.618098914623260498e-01
-1.336410343647003174e-01
4.360512644052505493e-02
1.762969195842742920e-01
9.786865115165710449e-02
-8.258803933858871460e-02
2.137259207665920258e-02
1.550704538822174072e-01
2.972937421873211861e-03
1.989916525781154633e-02
-6.200103089213371277e-03
-2.511784061789512634e-02
-1.713591045700013638e-03
-8.146656304597854614e-02
1.059411391615867615e-01
1.284305006265640259e-01
-2.496229670941829681e-02
-2.249295413494110107e-01
-7.565871626138687134e-02
-1.099470704793930054e-01
-2.604331970214843750e-01
2.276059687137603760e-01
-3.669705614447593689e-02
-3.172830492258071899e-02
-5.600682646036148071e-02
-1.442135870456695557e-01
-6.776677817106246948e-02
-1.166898608207702637e-01
-8.153691142797470093e-02
9.336662478744983673e-03
-5.827822908759117126e-02
-4.903119429945945740e-02
-2.191950231790542603e-01
-5.142363160848617554e-02
1.287118196487426758e-01
9.462302178144454956e-02
1.570770889520645142e-01
-1.660627722740173340e-01
-8.712000399827957153e-02
1.138361096382141113e-01
-2.439246624708175659e-01
-4.408841487020254135e-03
-1.863887012004852295e-01
-9.827273339033126831e-02
-5.234597995877265930e-02
-8.684141188859939575e-02
2.285414487123489380e-01
-2.381173819303512573e-01
-3.220814466476440430e-02
7.594206184148788452e-02
1.450732536613941193e-02
-1.672308295965194702e-01
-2.201326340436935425e-01
4.386095330119132996e-02
-5.538070574402809143e-02
7.174513489007949829e-02
3.050889633595943451e-02
-5.112520232796669006e-02
-3.835704177618026733e-02
4.296145960688591003e-02
-7.807251811027526855e-02
1.320417132228612900e-02
-8.027398586273193359e-02
-5.963939428329467773e-02
-6.024842336773872375e-02
-5.605794116854667664e-02
-2.680487930774688721e-01
1.423164904117584229e-01
1.276290565729141235e-01
-2.368744835257530212e-02
-9.941888600587844849e-02
8.415963500738143921e-03
-5.405986309051513672e-02
1.696333289146423340e-01
5.211481451988220215e-02
-8.402665704488754272e-02
-1.115636751055717468e-01
-7.342752069234848022e-02
-1.622060537338256836e-01
3.057456016540527344e-02
9.753251820802688599e-02
8.496776968240737915e-02
-1.355801522731781006e-01
6.990865617990493774e-02
-7.280781865119934082e-02
1.073196232318878174e-01
1.487609446048736572e-01
-2.311186939477920532e-01
-1.610316336154937744e-01
-4.868048802018165588e-02
-4.782500863075256348e-02
-2.424541562795639038e-01
-1.186500489711761475e-01
1.908074133098125458e-02
7.385430485010147095e-02
1.021862551569938660e-01
-1.177274622023105621e-03
-3.838318213820457458e-02
1.938034296035766602e-01
6.900130212306976318e-02
-1.395177096128463745e-01
-1.245695650577545166e-01
-4.263381287455558777e-02
1.243295371532440186e-01
-1.159235835075378418e-01
2.528310939669609070e-02
-1.055476069450378418e-01
1.167174056172370911e-01
-1.313274949789047241e-01
-1.364097297191619873e-01
-3.372741490602493286e-02
3.502740710973739624e-02
1.539224535226821899e-01
-6.022289395332336426e-02
-6.759245693683624268e-02
-9.616933763027191162e-02
-2.458302117884159088e-02
-2.398779056966304779e-02
8.800990879535675049e-02
-1.219110116362571716e-01
4.474246501922607422e-02
-5.895213782787322998e-02
-1.171387806534767151e-01
9.951549768447875977e-02
1.313740015029907227e-02
-9.018066525459289551e-02
-1.228307113051414490e-01
1.261254549026489258e-01
-1.732095032930374146e-01
-1.288555264472961426e-01
-2.764672040939331055e-02
1.956266760826110840e-01
-1.400334686040878296e-01
-9.709993004798889160e-02
6.354415416717529297e-02
-8.008439093828201294e-02
-1.630305349826812744e-01
4.357074946165084839e-02
8.563955873250961304e-02
-2.100681066513061523e-01
-1.021514367312192917e-02
1.424039900302886963e-01
-1.726455539464950562e-01
2.510696649551391602e-02
-1.042549908161163330e-01
1.024665310978889465e-01
-5.160007858648896217e-04
-3.662974759936332703e-02
1.540799438953399658e-01
-1.289542168378829956e-01
2.796238660812377930e-02
1.171139851212501526e-01
3.925318643450737000e-02
5.919010192155838013e-02
-2.070350646972656250e-01
7.905898988246917725e-02
3.209051117300987244e-02
7.884895056486129761e-02
-9.753884375095367432e-02
7.545740902423858643e-02
-1.210184618830680847e-01
9.925559163093566895e-03
3.339720517396926880e-02
-1.957043558359146118e-01
-8.688385784626007080e-02
2.127427607774734497e-01
-7.560323923826217651e-02
2.588006900623440742e-03
2.227900773286819458e-01
7.065344601869583130e-02
1.802879571914672852e-01
1.256835013628005981e-01
-9.793154150247573853e-02
-1.007447987794876099e-01
-2.496273070573806763e-02
-8.383751846849918365e-03
-5.342617258429527283e-02
8.117742836475372314e-02
-1.172078028321266174e-01
-8.925264328718185425e-02
6.504610925912857056e-02
2.660179734230041504e-01
1.825953125953674316e-01
-7.355470955371856689e-02
8.445473760366439819e-02
1.059269160032272339e-01
-1.106017157435417175e-01
2.398308180272579193e-02
8.264579623937606812e-02
1.519109010696411133e-01
-4.908303543925285339e-02
-8.633290976285934448e-02
-2.337998338043689728e-02
-1.096153706312179565e-01
1.202352344989776611e-01
1.303777843713760376e-01
2.067929357290267944e-01
-1.269540190696716309e-01
1.914657801389694214e-01
-1.260493546724319458e-01
5.954162403941154480e-02
-9.895299375057220459e-02
-6.093798577785491943e-02
-1.621550321578979492e-01
4.822581540793180466e-03
1.152090951800346375e-01
-1.530695557594299316e-01
-7.471268065273761749e-03
-3.429475799202919006e-02
-4.729187116026878357e-02
-5.320744961500167847e-02
-2.851567603647708893e-02
-1.129311323165893555e-01
1.727862656116485596e-01
-1.573490649461746216e-01
-4.097476974129676819e-02
-7.296821475028991699e-02
-1.946018934249877930e-01
1.562976539134979248e-01
-1.261083483695983887e-01
-1.152948513627052307e-01
-2.194421142339706421e-01
-5.418882146477699280e-02
-5.581192299723625183e-02
5.880625173449516296e-02
-1.128889992833137512e-01
8.580969646573066711e-03
-1.084428653120994568e-02
1.401778310537338257e-02
-1.368680447340011597e-01
-5.369036272168159485e-02
1.506054401397705078e-01
-1.239890083670616150e-01
-1.683710366487503052e-01
-1.620404273271560669e-01
1.085284650325775146e-01
1.400919705629348755e-01
1.615162342786788940e-01
-8.342467993497848511e-02
1.141877695918083191e-01
-1.269436925649642944e-01
1.091793999075889587e-01
-1.165061891078948975e-01
-8.690017461776733398e-02
-1.091900467872619629e-01
1.465638130903244019e-01
8.482520282268524170e-02
1.811576634645462036e-01
-8.090618997812271118e-02
-1.195158660411834717e-01
1.627996861934661865e-01
-2.947565913200378418e-02
7.796007394790649414e-02
-1.857872605323791504e-01
-6.488665193319320679e-02
-1.264350712299346924e-01
-1.182158365845680237e-01
1.564786583185195923e-01
-1.905754357576370239e-01
3.892483189702033997e-02
2.011444121599197388e-01
-2.122753560543060303e-01
-1.464600265026092529e-01
-6.797792017459869385e-02
3.715014085173606873e-02
-8.006948977708816528e-02
-1.414447575807571411e-01
6.355349719524383545e-02
-5.191322788596153259e-02
7.343928515911102295e-02
1.345525830984115601e-01
1.110234037041664124e-01
-6.878709048032760620e-02
-2.411907762289047241e-01
4.329128190875053406e-02
-2.066432535648345947e-01
-6.287898868322372437e-02
6.536226719617843628e-02
-5.484672635793685913e-02
-1.882886886596679688e-01
-1.490921899676322937e-02
1.562196314334869385e-01
-5.251494050025939941e-02
1.723075807094573975e-01
-6.162193045020103455e-02
4.190435633063316345e-02
2.111185938119888306e-01
4.525468125939369202e-02
-1.239531412720680237e-01
-1.389791518449783325e-01
-1.475381702184677124e-01
8.040633052587509155e-02
3.052352368831634521e-02
-1.593881100416183472e-02
1.792253255844116211e-01
1.033877730369567871e-01
4.482135921716690063e-02
1.646601557731628418e-01
6.576561182737350464e-02
1.493881735950708389e-02
8.966785669326782227e-02
-1.224637851119041443e-01
-2.073877863585948944e-02
2.844691090285778046e-02
5.191799625754356384e-02
6.731733679771423340e-02
4.150493443012237549e-02
2.140698134899139404e-01
-8.841937035322189331e-02
9.398624300956726074e-02
-9.897655248641967773e-02
-7.970353960990905762e-02
-6.855708360671997070e-02
-1.259117573499679565e-01
-1.471166778355836868e-02
-1.107970327138900757e-01
-1.631207019090652466e-01
-2.417351678013801575e-02
9.336915612220764160e-02
-3.266751766204833984e-02
-4.100097343325614929e-02
-4.020349588245153427e-03
-1.092675849795341492e-01
1.046378985047340393e-01
2.126335166394710541e-02
2.156047374010086060e-01
-5.572501197457313538e-02
-1.547605544328689575e-02
1.435028612613677979e-01
5.278007686138153076e-02
-9.776515513658523560e-02
6.915397942066192627e-02
1.408004947006702423e-02
3.348892554640769958e-02
-4.295595362782478333e-02
1.738481968641281128e-01
1.793947070837020874e-01
-8.239249140024185181e-02
7.873888313770294189e-02
-8.903788030147552490e-02
1.623950451612472534e-01
4.542584717273712158e-02
4.831590875983238220e-02
-3.211077302694320679e-02
-7.203423231840133667e-02
-5.827178061008453369e-02
-3.510967269539833069e-02
1.991260237991809845e-02
-1.378377346554771066e-04
1.190040037035942078e-01
-1.615524291992187500e-01
1.488954294472932816e-03
1.002134680747985840e-01
1.822816282510757446e-01
7.278229109942913055e-03
8.584642410278320312e-02
5.210272595286369324e-02
-2.275316864252090454e-01
1.759936064481735229e-01
-7.655490934848785400e-02
-2.310796827077865601e-02
9.216222912073135376e-02
8.769797533750534058e-02
-7.181362062692642212e-02
-1.062556281685829163e-01
9.483040869235992432e-02
6.473736837506294250e-03
-2.281193286180496216e-01
9.476796723902225494e-03
5.234096944332122803e-02
3.925848007202148438e-02
1.259660869836807251e-01
1.052622795104980469e-01
-1.057013869285583496e-01
-2.929231151938438416e-02
-6.463962793350219727e-02
-1.122534275054931641e-01
-5.720014683902263641e-03
-1.781721264123916626e-01
2.141992449760437012e-01
1.223484724760055542e-01
-1.980333477258682251e-01
-1.411212682723999023e-01
1.043259575963020325e-01
-1.988836377859115601e-01
2.664485201239585876e-02
-1.108308732509613037e-01
1.393766254186630249e-01
6.669574230909347534e-02
-2.028577029705047607e-01
-4.242599755525588989e-02
2.081911824643611908e-02
8.171604573726654053e-02
1.247620955109596252e-01
-9.731785207986831665e-02
-8.080413192510604858e-02
-3.800248727202415466e-02
1.355563551187515259e-01
1.165604740381240845e-01
-5.452742427587509155e-02
-1.728197783231735229e-01
-1.369693726301193237e-01
-6.641449034214019775e-02
-4.508282989263534546e-02
-5.624582245945930481e-02
-4.976339638233184814e-02
5.530192330479621887e-02
1.577306240797042847e-01
4.879477992653846741e-02
6.144274771213531494e-02
-1.025289371609687805e-01
-5.736308172345161438e-02
2.492606453597545624e-02
1.315237022936344147e-02
6.141000241041183472e-02
7.680238038301467896e-02
3.429200127720832825e-02
-7.171399146318435669e-02
-3.826313838362693787e-02
-6.074567884206771851e-02
-2.256641685962677002e-01
-1.731791943311691284e-01
8.556618541479110718e-02
-6.252790242433547974e-02
-1.691833138465881348e-01
-2.540477216243743896e-01
-8.515374362468719482e-02
-1.873068138957023621e-02
-1.405469179153442383e-01
1.739788651466369629e-01
-3.291364759206771851e-02
-3.264179080724716187e-02
-1.658560037612915039e-01
-1.240907609462738037e-01
1.838159398175776005e-03
-7.518448680639266968e-02
-1.737592816352844238e-01
