-1.938864737749099731e-01 -1.839331686496734619e-01 -1.481896340847015381e-01 1.417040377855300903e-01 8.611133694648742676e-02 -1.435886174440383911e-01 4.584131389856338501e-02 -9.780447930097579956e-02 -3.610097765922546387e-01 -1.085693389177322388e-01 8.345430344343185425e-02 1.050050035119056702e-01 3.573304042220115662e-02 7.151716202497482300e-02 3.860070928931236267e-02 1.193367689847946167e-01 8.798497170209884644e-02 -1.433063149452209473e-01 -2.150914259254932404e-02 -1.282611954957246780e-02 1.241549104452133179e-02 2.910396456718444824e-01 1.093392521142959595e-01 4.564668238162994385e-02 1.205126047134399414e-01 1.263594180345535278e-01 2.904546074569225311e-02 -1.470212638378143311e-01 -9.765393286943435669e-02 2.043172270059585571e-01 -3.070752918720245361e-01 -3.234386742115020752e-01 1.073080822825431824e-01 1.342978030443191528e-01 1.066363006830215454e-01 -5.116381868720054626e-02 -2.199695259332656860e-01 -8.258442394435405731e-03 2.376654930412769318e-02 -1.725444942712783813e-01 -1.053737848997116089e-01 1.392459720373153687e-01 8.481512963771820068e-02 -1.696467846632003784e-01 -2.365833520889282227e-01 -1.404318585991859436e-02 2.787310443818569183e-02 -2.236937135457992554e-01 -5.199094116687774658e-02 -2.603219635784626007e-02 -2.612265571951866150e-02 9.166265279054641724e-02 -9.099539369344711304e-02 -2.260106205940246582e-01 -2.677054703235626221e-01 1.375313699245452881e-01 -6.138828396797180176e-02 -1.704269945621490479e-01 1.651951819658279419e-01 -1.101514473557472229e-01 -1.130111366510391235e-01 -8.922059834003448486e-02 -9.741929173469543457e-02 1.142482981085777283e-01 8.974453806877136230e-02 6.801407039165496826e-02 -5.213259160518646240e-02 9.481782466173171997e-02 -1.871100962162017822e-01 -5.613252148032188416e-02 -7.438211236149072647e-03 -1.390878763049840927e-02 -3.881511837244033813e-02 2.423702329397201538e-01 5.966327711939811707e-02 1.093083769083023071e-01 -3.126311004161834717e-01 5.203360691666603088e-02 -3.968777135014533997e-02 4.475103691220283508e-02 -9.324118494987487793e-02 6.890584249049425125e-03 8.514951914548873901e-02 -1.746261715888977051e-01 1.569603532552719116e-01 -7.745817303657531738e-03 1.417363286018371582e-01 -8.795452117919921875e-02 -2.832413911819458008e-01 -3.077540099620819092e-01 -2.560173906385898590e-02 -2.101620435714721680e-01 7.879804819822311401e-02 -2.596617117524147034e-02 5.120026320219039917e-02 1.596363186836242676e-01 -3.768677115440368652e-01 1.147025674581527710e-01 5.842102691531181335e-02 -2.821314930915832520e-01 2.710955741349607706e-04 -1.801978796720504761e-01 1.253542304039001465e-01 1.751809120178222656e-01 -1.260734796524047852e-01 5.623434111475944519e-02 -2.874666638672351837e-02 -2.750505879521369934e-02 -1.151744090020656586e-02 -1.133371591567993164e-01 -1.305210888385772705e-01 2.892246656119823456e-02 -1.629112660884857178e-01 -1.732908487319946289e-01 1.319764554500579834e-01 -1.097697764635086060e-01 -2.434872239828109741e-01 1.400458812713623047e-02 2.467243000864982605e-02 7.693725638091564178e-03 -7.206047326326370239e-02 1.119902431964874268e-01 -1.097296774387359619e-01 -1.598502844572067261e-01 1.842802017927169800e-01 -2.109078913927078247e-01 -5.165523290634155273e-01 2.719360589981079102e-01 -7.197843492031097412e-02 4.484717175364494324e-02 1.166781410574913025e-01 1.178302317857742310e-01 -7.521499693393707275e-02 -2.377834025537595153e-04 8.919318020343780518e-02 6.509992480278015137e-02 -6.467121839523315430e-02 2.001749724149703979e-02 -3.867726027965545654e-02 7.071554660797119141e-02 9.806425869464874268e-02 1.996414549648761749e-02 1.097447723150253296e-01 -1.215241029858589172e-01 -1.378750205039978027e-01 2.612324357032775879e-01 -1.217512935400009155e-01 -3.348088264465332031e-02 9.658374637365341187e-02 1.109242532402276993e-02 -2.729047089815139771e-02 -3.370203077793121338e-01 3.668220043182373047e-01 6.798543781042098999e-02 1.840479671955108643e-01 4.323552176356315613e-02 -3.697986900806427002e-01 -3.128027319908142090e-01 2.312850207090377808e-03 -1.263796165585517883e-02 -2.559725642204284668e-01 1.501006335020065308e-01 5.232868343591690063e-02 -7.036390900611877441e-02 -3.934035822749137878e-02 -2.316020429134368896e-01 -1.553488671779632568e-01 -2.324267178773880005e-01 1.301930006593465805e-02 1.199547946453094482e-01 1.801070570945739746e-01 9.866024553775787354e-02 6.418417394161224365e-02 5.944894254207611084e-02 -2.792433500289916992e-01 2.194478958845138550e-01 -2.790289819240570068e-01 -5.296177417039871216e-02 -2.493576854467391968e-01 -1.042988449335098267e-01 -4.268789198249578476e-03 3.023345395922660828e-02 -6.460350751876831055e-02 -2.204369381070137024e-02 -2.130264490842819214e-01 3.985347971320152283e-02 4.230201244354248047e-02 2.652966789901256561e-02 -2.279774099588394165e-01 -4.857302829623222351e-02 -1.070500118657946587e-03 -2.013571560382843018e-01 -5.960723012685775757e-02 -4.662746191024780273e-02 3.354334086179733276e-02 4.796519875526428223e-02 -6.138724833726882935e-02 2.842936217784881592e-01 2.710770256817340851e-02 1.041134539991617203e-02 -1.051002368330955505e-01 -1.221052855253219604e-01 8.968027681112289429e-02 4.061082378029823303e-02 1.042699068784713745e-01 -5.124674737453460693e-02 -1.817830950021743774e-01 6.605366617441177368e-02 -1.285434886813163757e-02 -3.084533847868442535e-02 -1.536244153976440430e-01 6.531537324190139771e-02 -1.371569484472274780e-01 -7.024253159761428833e-02 1.635749265551567078e-02 -2.803475260734558105e-01 -6.945632398128509521e-02 9.960687905550003052e-02 -2.914211340248584747e-02 2.215788513422012329e-01 8.234504610300064087e-02 -7.499793171882629395e-02 2.023261412978172302e-02 -8.557879924774169922e-02 -6.399087905883789062e-01 -2.181876301765441895e-01 -1.345287263393402100e-01 3.996133804321289062e-02 -1.164337992668151855e-01 -1.589478552341461182e-01 1.382452622056007385e-02 -6.940576434135437012e-02 -1.378523856401443481e-01 -1.792404502630233765e-01 -9.681271761655807495e-02 -1.095911208540201187e-02 1.732229441404342651e-02 1.320160552859306335e-02 -9.565684013068675995e-03 -2.814239263534545898e-02 9.482388198375701904e-02 1.631122268736362457e-02 -8.745887130498886108e-02 2.099826931953430176e-02 -1.023558452725410461e-01 -7.592859864234924316e-02 -3.690328001976013184e-01 -8.639668673276901245e-02 -5.353975668549537659e-02 1.850111037492752075e-01 -1.891917735338211060e-01 -5.017488449811935425e-02 1.239555105566978455e-01 4.390677902847528458e-03 6.144725903868675232e-02 -2.987183816730976105e-02
1.374157965183258057e-01 -7.385353744029998779e-02 3.872140310704708099e-03 -2.340210601687431335e-02 -1.890748925507068634e-02 -1.501907221972942352e-02 1.387139856815338135e-01 1.138589903712272644e-01 -9.264185279607772827e-02 1.092867366969585419e-02 1.273570358753204346e-01 -9.639169275760650635e-02 -1.899146586656570435e-01 8.105466514825820923e-02 1.152391918003559113e-02 1.502375118434429169e-03 1.495061367750167847e-01 1.678545586764812469e-02 -2.090160101652145386e-01 7.340084761381149292e-02 -5.050511565059423447e-03 5.384343862533569336e-02 -1.683432012796401978e-01 -3.426171094179153442e-02 1.973465532064437866e-01 -5.303602293133735657e-02 -2.112963236868381500e-02 1.271660160273313522e-02 7.722712308168411255e-02 6.434153765439987183e-02 -5.082473531365394592e-02 -8.121168613433837891e-02 1.040648147463798523e-01 1.668377071619033813e-01 5.836975574493408203e-02 1.554669290781021118e-01 1.654758006334304810e-01 6.754668056964874268e-02 -1.882637292146682739e-01 -3.488709628582000732e-01 5.158778280019760132e-02 2.487253546714782715e-01 3.993039205670356750e-02 2.238976955413818359e-01 -1.868054457008838654e-02 1.771500892937183380e-02 9.958668798208236694e-02 7.831619679927825928e-02 5.708066164515912533e-04 2.235671877861022949e-01 1.615742444992065430e-01 1.202185824513435364e-02 -3.601846843957901001e-02 1.280224472284317017e-01 1.742032170295715332e-01 1.982873678207397461e-02 2.797283791005611420e-02 -6.218371540307998657e-02 -4.551284387707710266e-02 4.538333415985107422e-02 1.545161306858062744e-01 5.737460404634475708e-02 9.751733392477035522e-02 2.046358287334442139e-01 -3.844590857625007629e-02 2.719898521900177002e-01 -4.206322133541107178e-02 -7.927379570901393890e-03 -3.591928258538246155e-02 -2.067527361214160919e-02 2.071486413478851318e-02 -1.044066920876502991e-01 2.311319857835769653e-02 -5.913071706891059875e-02 -1.823776662349700928e-01 -2.023199945688247681e-01 -4.675837606191635132e-02 -1.684692688286304474e-02 1.159152761101722717e-01 1.047630514949560165e-02 -2.688505873084068298e-02 1.098338663578033447e-01 1.449014395475387573e-01 -6.422702968120574951e-02 1.167908310890197754e-01 2.146296501159667969e-01 -7.262499630451202393e-02 -1.770722419023513794e-01 -3.065868020057678223e-01 9.889304637908935547e-02 1.299853473901748657e-01 3.463254496455192566e-02 6.264013051986694336e-02 1.273037772625684738e-02 1.158717870712280273e-01 -1.485989615321159363e-02 1.142284423112869263e-01 1.301433295011520386e-01 -2.331257425248622894e-02 -3.979680314660072327e-02 -1.200905442237854004e-01 4.793637245893478394e-02 -1.341693401336669922e-01 -8.954960852861404419e-02 -1.516740322113037109e-01 3.081270866096019745e-02 2.418821007013320923e-01 -9.812392294406890869e-02 7.473392877727746964e-03 -4.669096693396568298e-02 3.313708677887916565e-02 -6.189601495862007141e-02 2.316065579652786255e-01 7.440080400556325912e-03 2.096405476331710815e-01 -7.276318222284317017e-02 -9.125173091888427734e-02 -7.029999792575836182e-02 -2.430133968591690063e-01 -9.834678471088409424e-02 -1.362481266260147095e-01 -6.355361640453338623e-02 -3.151634708046913147e-02 -6.318690627813339233e-02 1.244747415184974670e-01 6.946085393428802490e-02 6.477862596511840820e-02 7.897584140300750732e-02 -5.752651020884513855e-02 -2.680178917944431305e-02 5.986554082483053207e-03 -2.399549335241317749e-01 4.606865718960762024e-02 5.848671123385429382e-02 -9.047069400548934937e-02 1.291957646608352661e-01 1.239437684416770935e-01 7.098548114299774170e-02 -6.342808902263641357e-02 -3.204344213008880615e-02 1.573317199945449829e-01 1.869570016860961914e-01 1.513395011425018311e-01 6.396018713712692261e-02 -1.088812947273254395e-01 -1.470958888530731201e-01 -9.613678604364395142e-02 1.836679130792617798e-01 -5.049806460738182068e-02 -5.728960037231445312e-02 -2.352480590343475342e-01 -1.740052103996276855e-01 -5.722767859697341919e-02 6.452551577240228653e-03 -1.129766833037137985e-02 -5.958657339215278625e-02 1.285429596900939941e-01 3.964461386203765869e-02 3.329116478562355042e-02 8.659497648477554321e-02 -6.514583248645067215e-03 -1.794293784769251943e-04 1.407805681228637695e-01 5.460615828633308411e-02 -1.518955826759338379e-01 1.600683033466339111e-01 1.140027716755867004e-01 2.917501702904701233e-02 -1.323010325431823730e-01 -1.308312863111495972e-01 -4.442158341407775879e-02 -1.406208146363496780e-02 1.539610922336578369e-01 2.192290127277374268e-02 -7.866889238357543945e-03 -9.948555380105972290e-03 1.896629333496093750e-01 1.376340240240097046e-01 3.697564080357551575e-02 -5.916742235422134399e-02 -6.524389982223510742e-02 -1.569300144910812378e-01 -1.874125599861145020e-01 1.656721383333206177e-01 -4.161527007818222046e-02 2.654417790472507477e-02 1.797240823507308960e-01 -2.801332436501979828e-02 -7.995256036520004272e-02 -2.775706052780151367e-01 -7.274353504180908203e-02 -6.135479733347892761e-02 7.319801952689886093e-03 -1.804801076650619507e-01 -6.251967698335647583e-02 -6.089019402861595154e-02 -7.742214947938919067e-02 5.496691539883613586e-02 -8.339194953441619873e-02 1.819873601198196411e-02 -8.636014163494110107e-02 -1.294062938541173935e-02 -3.565717861056327820e-02 4.977118968963623047e-02 -7.019109278917312622e-02 1.587829738855361938e-01 -6.202670186758041382e-02 1.891979575157165527e-01 7.644982635974884033e-02 -6.950882822275161743e-02 9.026171639561653137e-03 2.500901371240615845e-02 1.089056506752967834e-01 -1.927383393049240112e-01 7.006230205297470093e-02 1.633250117301940918e-01 -1.118861511349678040e-01 -1.258573234081268311e-01 -7.868451625108718872e-02 -4.635455086827278137e-02 -1.156589575111865997e-02 -9.882190823554992676e-02 3.649157285690307617e-02 1.086444705724716187e-01 -7.049004733562469482e-02 1.093191727995872498e-01 -2.742940001189708710e-02 2.087927162647247314e-01 1.487794369459152222e-01 1.568284034729003906e-01 8.524044603109359741e-02 -5.057004466652870178e-02 -1.099008694291114807e-01 -1.744143106043338776e-02 1.607363969087600708e-01 -1.522240228950977325e-02 2.048976868391036987e-01 7.998410612344741821e-02 2.420078665018081665e-01 1.538553982973098755e-01 5.881915241479873657e-02 -3.447119891643524170e-02 1.406028717756271362e-01 -1.486090272665023804e-01 4.653805494308471680e-02 -6.185148656368255615e-02 2.180258370935916901e-02 1.063810568302869797e-02 2.944634109735488892e-02 -5.930965393781661987e-02 1.594243496656417847e-01 -1.371925026178359985e-01 -2.509198337793350220e-02 1.273514628410339355e-01 -3.599797561764717102e-02 -8.865574002265930176e-02
2.797210775315761566e-02 -1.097431704401969910e-01 3.870921954512596130e-02 1.172149553894996643e-01 1.509881764650344849e-02 2.952151000499725342e-02 2.705597877502441406e-02 1.794516742229461670e-01 -4.521221294999122620e-02 1.064729690551757812e-02 1.100083738565444946e-01 2.199518727138638496e-03 -1.183121744543313980e-02 -1.400279346853494644e-02 -1.216474846005439758e-01 3.666414692997932434e-02 1.303205937147140503e-01 -8.754578977823257446e-02 -1.470329463481903076e-01 -5.036970973014831543e-02 1.082537136971950531e-02 -5.412447080016136169e-02 5.296839028596878052e-02 -4.610839858651161194e-02 7.351092994213104248e-02 -3.949064016342163086e-02 -7.134781777858734131e-02 -8.542549610137939453e-02 8.964774757623672485e-02 1.745003834366798401e-02 -1.393471937626600266e-02 2.600469253957271576e-02 2.517049908638000488e-01 2.164897322654724121e-01 7.364711165428161621e-02 2.008541673421859741e-01 -1.386765092611312866e-01 -1.426117271184921265e-01 8.821514248847961426e-02 -1.844354420900344849e-01 9.917408227920532227e-02 1.111794188618659973e-01 -1.950891613960266113e-01 -7.912863790988922119e-02 -4.212348256260156631e-03 2.604381740093231201e-01 6.732551753520965576e-02 -1.739979684352874756e-01 -1.843045093119144440e-02 -2.304415963590145111e-02 -4.162013158202171326e-02 1.684270054101943970e-02 1.938939690589904785e-01 3.210468217730522156e-02 2.429158426821231842e-02 9.660707414150238037e-02 3.562285304069519043e-01 1.592337712645530701e-02 4.732935130596160889e-02 -2.387247681617736816e-01 -8.639375120401382446e-02 -1.285047829151153564e-02 4.630559310317039490e-02 -7.515943050384521484e-02 -6.724200397729873657e-02 -5.706555768847465515e-02 6.448291987180709839e-02 -4.743658006191253662e-02 -3.994806203991174698e-03 5.976903811097145081e-02 7.036864757537841797e-02 1.248458251357078552e-01 -3.056751191616058350e-01 1.084743067622184753e-01 8.172248490154743195e-03 3.281562030315399170e-02 -3.039914183318614960e-02 1.244108155369758606e-01 -1.992754265666007996e-02 3.686749190092086792e-02 2.817524038255214691e-02 -9.773743152618408203e-02 -2.784066200256347656e-01 -7.175238430500030518e-02 2.323634475469589233e-01 -5.460769683122634888e-02 -1.327779591083526611e-01 -1.298478841781616211e-01 2.167818695306777954e-01 2.048793733119964600e-01 6.487630307674407959e-02 -1.214168071746826172e-01 -2.513830550014972687e-03 1.240675002336502075e-01 -1.684287376701831818e-02 -1.571962386369705200e-01 9.910766780376434326e-02 -5.411931499838829041e-02 -4.820682108402252197e-02 -1.699966341257095337e-01 -2.646156353875994682e-04 3.589298203587532043e-02 -3.696834295988082886e-02 -4.611866176128387451e-02 -2.242034487426280975e-02 1.615462638437747955e-02 2.679545804858207703e-02 9.184810519218444824e-02 6.111190468072891235e-02 4.691156744956970215e-02 3.836658596992492676e-02 -8.587788045406341553e-02 -1.238724961876869202e-01 -5.264959484338760376e-02 9.619281627237796783e-03 -6.209464371204376221e-02 1.376027017831802368e-01 -4.367312416434288025e-02 9.134463965892791748e-02 -1.300564259290695190e-01 -1.387964934110641479e-01 -1.037787720561027527e-01 -1.537807583808898926e-01 -8.689272403717041016e-02 -1.068636681884527206e-02 3.978373855352401733e-02 -8.002654463052749634e-02 2.682031504809856415e-02 5.681215785443782806e-03 1.867079585790634155e-01 2.814254462718963623e-01 1.469496544450521469e-02 8.551669307053089142e-03 4.182975366711616516e-02 1.740112006664276123e-01 -2.511295676231384277e-02 4.318041354417800903e-02 2.071439325809478760e-01 -1.328907348215579987e-02 8.651936799287796021e-02 -1.126948278397321701e-02 -5.087571963667869568e-02 -3.111271001398563385e-02 1.071711108088493347e-01 2.219404280185699463e-01 1.451221555471420288e-01 9.513311088085174561e-03 1.734287105500698090e-02 1.702160537242889404e-01 1.029427275061607361e-01 -2.985902689397335052e-02 -3.315880000591278076e-01 1.895844340324401855e-01 -1.904373764991760254e-01 4.783704876899719238e-02 -4.402044042944908142e-02 -9.133669734001159668e-02 -2.048016786575317383e-01 1.132310479879379272e-01 1.134961396455764771e-01 -3.611356392502784729e-02 -3.735936433076858521e-02 1.003548502922058105e-01 -5.389316007494926453e-03 1.251336038112640381e-01 1.154226958751678467e-01 1.538396775722503662e-01 1.024264246225357056e-01 7.220170646905899048e-02 1.023721024394035339e-01 4.162445291876792908e-02 4.862137138843536377e-02 6.333299726247787476e-02 2.904977202415466309e-01 7.465774565935134888e-02 -7.055154442787170410e-02 6.798569858074188232e-02 -4.763981699943542480e-02 9.779767692089080811e-02 9.583999216556549072e-02 -3.457861603237688541e-04 -1.185621470212936401e-01 -1.314650103449821472e-02 1.064233481884002686e-01 8.142589032649993896e-02 2.914682403206825256e-02 2.508201301097869873e-01 -7.504069060087203979e-02 1.274341065436601639e-02 1.240615248680114746e-01 -4.962654039263725281e-02 1.722759008407592773e-02 -2.790988236665725708e-02 -5.675089359283447266e-02 -2.105562388896942139e-01 6.364717334508895874e-02 -2.503090910613536835e-02 1.044500693678855896e-01 2.285955250263214111e-01 -8.647929131984710693e-02 -8.896273374557495117e-02 -8.430290222167968750e-02 -1.340993195772171021e-01 1.054249107837677002e-01 -2.895401790738105774e-03 -9.388670325279235840e-02 -1.628729701042175293e-01 -8.756511844694614410e-03 -2.480996213853359222e-02 3.231391776353120804e-03 7.951304316520690918e-02 9.136639535427093506e-03 1.839136779308319092e-01 -7.676729001104831696e-03 -1.097085922956466675e-01 2.701702294871211052e-03 -1.754811257123947144e-01 -1.157295629382133484e-01 1.727960854768753052e-01 1.064789742231369019e-01 1.920700669288635254e-01 -1.761218458414077759e-01 -1.224511936306953430e-01 1.766372770071029663e-01 3.853127593174576759e-03 -1.283388137817382812e-01 2.242416702210903168e-02 -1.027458459138870239e-01 1.619623601436614990e-01 -1.038555800914764404e-01 3.729035705327987671e-02 -5.114844813942909241e-02 -6.392344832420349121e-02 -1.708840280771255493e-01 -8.268475532531738281e-02 -1.605410873889923096e-01 -6.133913621306419373e-02 6.496223062276840210e-02 2.848001569509506226e-02 -4.369629174470901489e-02 -1.312522143125534058e-01 -1.584045886993408203e-01 7.065174728631973267e-02 6.024247966706752777e-03 -2.585585713386535645e-01 -9.130011498928070068e-02 -1.001727879047393799e-01 2.619928121566772461e-01 -3.395717442035675049e-01 -3.589850291609764099e-02 1.423420477658510208e-02 -1.486039310693740845e-01 -2.300692796707153320e-01 -1.410659104585647583e-01 -1.418076269328594208e-02 -9.166244417428970337e-02
1.436385978013277054e-02 -8.458317071199417114e-02 -1.134870201349258423e-01 1.965023130178451538e-01 1.113473251461982727e-01 -8.553804457187652588e-02 -2.754709124565124512e-02 1.394489705562591553e-01 -1.757956594228744507e-01 -4.620280116796493530e-02 2.362898923456668854e-02 -4.984779749065637589e-03 -6.296821683645248413e-02 9.343234822154045105e-03 -8.843959122896194458e-02 2.909035682678222656e-01 -5.181544646620750427e-02 -1.049045696854591370e-01 -1.042120605707168579e-01 5.654865410178899765e-03 -1.145982742309570312e-01 -1.581434309482574463e-01 3.269964456558227539e-02 -3.079278022050857544e-02 1.273249685764312744e-01 -1.780375838279724121e-01 6.590542942285537720e-02 -9.330404549837112427e-02 -7.137344032526016235e-02 -1.140348315238952637e-01 -1.827965863049030304e-02 -1.843350566923618317e-02 1.593985706567764282e-01 -2.007027715444564819e-02 -2.048813737928867340e-02 3.353519141674041748e-01 1.035448834300041199e-01 -4.532463103532791138e-02 -5.066578462719917297e-02 -4.779031127691268921e-02 1.926012635231018066e-01 1.287123411893844604e-01 1.091821771115064621e-02 -1.420381758362054825e-02 -1.406728029251098633e-01 9.372999519109725952e-02 -5.987763404846191406e-02 -1.628863513469696045e-01 -5.155147612094879150e-02 1.502864062786102295e-01 -8.766527473926544189e-02 -1.204231083393096924e-01 7.733329385519027710e-02 5.290048569440841675e-02 7.350084930658340454e-02 -9.498932212591171265e-02 -1.317188795655965805e-02 -9.063176065683364868e-02 -1.253977566957473755e-01 5.258588120341300964e-02 5.801958963274955750e-02 -1.273306310176849365e-01 6.760910153388977051e-02 -3.613205999135971069e-02 5.675603449344635010e-02 1.051728874444961548e-01 -9.595494717359542847e-02 2.354958094656467438e-02 1.651194244623184204e-01 -7.849588245153427124e-02 -1.758143305778503418e-02 -1.245005114469677210e-04 -1.089186295866966248e-01 -8.202362060546875000e-02 1.468526385724544525e-02 -5.939429625868797302e-02 -1.560748815536499023e-01 9.014649689197540283e-02 2.247770689427852631e-02 5.711312219500541687e-02 -1.718077957630157471e-01 2.391442954540252686e-01 5.114468559622764587e-02 -1.099391058087348938e-01 1.944524347782135010e-01 2.962382882833480835e-02 -2.744065783917903900e-02 1.218349188566207886e-01 -9.541646391153335571e-02 1.910194754600524902e-01 8.222716301679611206e-02 -2.325188815593719482e-01 -5.119670927524566650e-02 -6.457217037677764893e-02 -6.237874180078506470e-02 -8.211553096771240234e-02 8.593917638063430786e-02 8.058850653469562531e-03 -5.327202379703521729e-02 6.745441816747188568e-03 9.564643353223800659e-02 -1.426891833543777466e-01 9.134332835674285889e-02 -1.857369244098663330e-01 -5.484742298722267151e-02 1.088537722826004028e-01 5.376653000712394714e-02 2.160223387181758881e-02 -3.694467991590499878e-02 -2.455461397767066956e-02 -6.643977016210556030e-02 7.845081388950347900e-02 -4.307701811194419861e-02 -1.171368733048439026e-01 -8.617165684700012207e-02 1.407388411462306976e-02 -3.833806514739990234e-01 -9.164607524871826172e-02 -8.445622771978378296e-02 2.374604903161525726e-02 5.224291980266571045e-02 -4.437214881181716919e-02 2.346105277538299561e-01 -1.349690407514572144e-01 -1.736078113317489624e-01 4.048996046185493469e-02 -1.218382045626640320e-01 6.114410609006881714e-02 1.408779621124267578e-01 7.698202040046453476e-03 -7.252492010593414307e-02 3.406089916825294495e-02 -3.001422584056854248e-01 1.990829259157180786e-01 -7.543495297431945801e-02 2.442094683647155762e-02 1.282189320772886276e-02 -8.747930824756622314e-02 1.622401624917984009e-01 -6.782669574022293091e-02 -1.625421941280364990e-01 1.757763773202896118e-01 1.282697468996047974e-01 2.212511934340000153e-02 4.365807399153709412e-02 -1.352822408080101013e-02 -3.110348284244537354e-01 -1.373718380928039551e-01 -5.650416761636734009e-02 -1.317946016788482666e-01 3.847388923168182373e-02 -2.587659358978271484e-01 -4.150447493884712458e-04 3.029905958101153374e-03 -2.083219438791275024e-01 1.921711415052413940e-01 -1.417784094810485840e-01 1.426245644688606262e-02 -6.392647325992584229e-02 1.574584841728210449e-02 -2.580282092094421387e-01 -7.835714146494865417e-03 1.393175870180130005e-01 -7.980864495038986206e-02 8.142765611410140991e-02 1.146667152643203735e-01 -1.396621167659759521e-01 9.300580620765686035e-02 -4.737167153507471085e-03 -1.514947712421417236e-01 1.991092860698699951e-01 1.062439903616905212e-01 -5.832609906792640686e-02 -1.861572265625000000e-01 5.339626595377922058e-02 -1.996278390288352966e-02 2.415035478770732880e-02 1.173060238361358643e-01 -1.678926050662994385e-01 -2.769839763641357422e-01 -8.106864988803863525e-02 -5.820251628756523132e-02 2.670446876436471939e-03 1.043130606412887573e-01 -1.059854179620742798e-01 2.049900591373443604e-01 -7.293221354484558105e-02 -4.484675824642181396e-02 -8.093240112066268921e-02 8.646992594003677368e-02 -8.894523605704307556e-03 -1.057007461786270142e-01 -5.419005081057548523e-02 7.050172984600067139e-02 -1.814239099621772766e-02 4.258817061781883240e-02 -1.546321213245391846e-01 3.641357272863388062e-02 1.325583606958389282e-01 -1.199031844735145569e-01 6.242431700229644775e-02 7.611980196088552475e-03 9.034222364425659180e-02 5.131821334362030029e-02 -1.028129458427429199e-01 3.578971605747938156e-03 3.253679722547531128e-02 -1.046770736575126648e-01 -8.656320720911026001e-02 -1.302513182163238525e-01 2.008959464728832245e-02 7.428842037916183472e-02 -5.722464993596076965e-02 -7.282595336437225342e-02 -8.282715454697608948e-03 -1.078852489590644836e-01 -8.014512807130813599e-02 -6.865946203470230103e-02 -1.103053167462348938e-01 1.417463123798370361e-01 1.131383329629898071e-02 2.642344869673252106e-02 -4.695188254117965698e-02 4.027583822607994080e-02 -5.007600411772727966e-02 -6.168738752603530884e-02 -7.739011198282241821e-02 -9.894360601902008057e-02 -1.376636773347854614e-01 2.179332077503204346e-02 -7.643667049705982208e-04 -1.539413817226886749e-02 -1.867102980613708496e-01 8.658182621002197266e-02 -8.028993010520935059e-02 1.841064542531967163e-02 -1.915416419506072998e-01 8.873473852872848511e-03 -7.881207764148712158e-02 -3.464008867740631104e-02 7.719396799802780151e-02 -7.496334612369537354e-02 -1.312049776315689087e-01 3.152240812778472900e-02 4.107209295034408569e-02 -5.474163964390754700e-02 -9.020964801311492920e-02 2.294116914272308350e-01 -2.942377924919128418e-01 -1.497312188148498535e-01 -6.424781680107116699e-02 -1.023928299546241760e-01 4.802892508450895548e-04 1.551959067583084106e-01 1.102533340454101562e-01 4.044071212410926819e-02
-4.454133659601211548e-02 -1.725268922746181488e-02 8.973854780197143555e-02 1.899654418230056763e-01 1.732288897037506104e-01 -4.957737028598785400e-02 -8.510838449001312256e-02 -2.182629406452178955e-01 -6.953617930412292480e-02 -1.412440389394760132e-01 1.303405463695526123e-01 -8.693497627973556519e-02 6.563106924295425415e-02 1.266516596078872681e-01 5.774791538715362549e-02 8.495658636093139648e-02 -7.474727928638458252e-02 -4.579429049044847488e-03 7.904205471277236938e-02 -1.286189854145050049e-01 -5.297535657882690430e-02 -3.648713231086730957e-02 1.139910817146301270e-01 -4.749177396297454834e-02 1.291253417730331421e-01 -2.698075771331787109e-02 -2.762776054441928864e-02 1.399349514394998550e-02 -3.869104757905006409e-02 -1.144067049026489258e-01 -1.196277067065238953e-01 4.349836707115173340e-02 1.023210817947983742e-03 1.116299419663846493e-03 -6.142571195960044861e-02 5.715427687391638756e-04 5.450756475329399109e-02 -5.465810373425483704e-02 7.473149150609970093e-02 5.117986723780632019e-02 4.503430053591728210e-02 5.487523227930068970e-02 -6.306532770395278931e-02 -1.459306776523590088e-01 1.279029548168182373e-01 -4.324502497911453247e-02 -1.436069905757904053e-01 -1.290324330329895020e-01 1.347069293260574341e-01 -3.727155923843383789e-02 2.049357630312442780e-02 -1.811365783214569092e-01 1.534190326929092407e-01 2.051519788801670074e-02 6.298000365495681763e-02 9.077826887369155884e-02 -2.021013200283050537e-02 -1.203006058931350708e-01 -8.545599877834320068e-02 4.392732307314872742e-02 1.126797944307327271e-01 -1.120568960905075073e-01 -1.004135087132453918e-01 -6.154516339302062988e-02 1.587718352675437927e-02 -7.276555895805358887e-02 -1.153489481657743454e-02 -2.064549550414085388e-02 1.796538531780242920e-01 1.406493014656007290e-03 -1.091141998767852783e-01 2.921528182923793793e-02 9.156101197004318237e-02 1.599154807627201080e-02 -7.964458316564559937e-02 6.667424738407135010e-02 -1.196560710668563843e-01 1.728496327996253967e-02 1.383654624223709106e-01 -7.338262349367141724e-02 2.615315280854701996e-02 6.977718323469161987e-02 2.571068517863750458e-02 -8.956965059041976929e-02 9.880087524652481079e-02 1.205258145928382874e-01 5.004370585083961487e-02 4.246728494763374329e-02 -3.478283062577247620e-02 -1.305331848561763763e-02 -1.101573333144187927e-01 -1.298787444829940796e-01 1.708874851465225220e-02 1.888060122728347778e-01 -1.126196235418319702e-01 -1.383277960121631622e-02 -2.441070824861526489e-01 -2.850878052413463593e-02 4.105859249830245972e-02 4.093018546700477600e-02 4.583824798464775085e-02 -1.222650110721588135e-01 -2.922832034528255463e-02 6.063288077712059021e-02 1.093746051192283630e-01 8.806357532739639282e-02 -6.204172968864440918e-02 7.012035697698593140e-02 -2.912614727392792702e-04 -6.292491406202316284e-02 -1.475993357598781586e-02 9.881326556205749512e-02 -5.732077360153198242e-02 -1.979303508996963501e-01 4.258057102560997009e-03 2.668800055980682373e-01 7.137240469455718994e-02 -1.381251662969589233e-01 1.456988602876663208e-01 1.023776605725288391e-01 1.310524791479110718e-01 -2.695111930370330811e-02 8.018317073583602905e-02 -1.337762027978897095e-01 -8.762749284505844116e-02 8.257672190666198730e-03 -8.766227960586547852e-02 6.184075772762298584e-02 -8.133587241172790527e-02 1.232301518321037292e-01 5.223830789327621460e-02 -5.048096925020217896e-02 4.356389120221138000e-02 1.684199869632720947e-01 -3.477444127202033997e-02 -1.259045749902725220e-01 -1.129677891731262207e-01 -6.184404715895652771e-02 1.445746049284934998e-02 -2.434173822402954102e-01 7.091040164232254028e-02 1.016928106546401978e-01 6.291023455560207367e-03 1.343588083982467651e-01 -1.472887098789215088e-01 9.012472629547119141e-02 -2.466750144958496094e-02 6.054895743727684021e-02 1.524692624807357788e-01 1.358164101839065552e-01 2.505081705749034882e-02 -1.708235964179039001e-02 -7.208095490932464600e-02 -4.530195519328117371e-02 2.021047621965408325e-01 2.490745633840560913e-01 5.939697846770286560e-02 -6.136433407664299011e-02 1.139938011765480042e-01 7.532734423875808716e-02 8.202756196260452271e-02 -2.258472293615341187e-01 -7.003796100616455078e-02 -1.004135329276323318e-02 1.065248921513557434e-01 4.710756614804267883e-02 1.195893138647079468e-01 -3.466472029685974121e-02 9.493778645992279053e-02 -7.089418172836303711e-02 1.956018656492233276e-01 -1.346588321030139923e-02 -4.609890654683113098e-02 -1.999920010566711426e-01 7.444088160991668701e-02 -5.309957265853881836e-02 6.569620221853256226e-02 2.672004327178001404e-02 -1.260133981704711914e-01 -1.461531072854995728e-01 -1.310607325285673141e-02 1.517452113330364227e-02 1.976427137851715088e-01 -2.487181499600410461e-02 5.562353134155273438e-02 1.659121215343475342e-01 1.447947323322296143e-01 2.144878730177879333e-02 -7.943931035697460175e-03 -4.890456050634384155e-02 2.080448716878890991e-01 2.114781737327575684e-01 1.729687862098217010e-02 -4.890355840325355530e-02 1.171485404483973980e-03 2.077180147171020508e-02 -1.714353915303945541e-03 -9.085789322853088379e-02 8.184444159269332886e-02 -1.014289408922195435e-01 1.423697024583816528e-01 1.100965961813926697e-01 3.324306011199951172e-02 5.081344768404960632e-02 -1.149205267429351807e-01 1.309723220765590668e-02 1.951957494020462036e-01 -1.716809347271919250e-02 -7.719016820192337036e-02 -1.139468178153038025e-01 9.065279364585876465e-02 -5.024160444736480713e-02 -5.455621704459190369e-02 2.154398709535598755e-02 7.354304194450378418e-02 1.808896288275718689e-02 7.632607221603393555e-02 1.052830833941698074e-02 3.408735617995262146e-02 1.498032212257385254e-01 -8.455757051706314087e-02 -2.430216223001480103e-02 -3.302993997931480408e-02 3.207606449723243713e-02 -8.505132049322128296e-02 -3.201676160097122192e-02 7.222490757703781128e-02 7.315225433558225632e-03 -1.129619181156158447e-01 -6.184269860386848450e-02 -2.576087601482868195e-02 -5.274738371372222900e-02 -7.487469352781772614e-03 1.156746819615364075e-01 -1.274313926696777344e-01 7.103522866964340210e-02 -1.555171608924865723e-01 1.036856472492218018e-01 9.639248251914978027e-02 1.187294423580169678e-01 6.685546040534973145e-02 -1.469851378351449966e-02 9.460425935685634613e-03 -4.670988302677869797e-03 4.959858953952789307e-03 -3.226806409657001495e-03 -1.603112071752548218e-01 3.116119094192981720e-02 3.597764298319816589e-02 1.705857552587985992e-02 6.078749895095825195e-02 4.528793320059776306e-02 5.691568180918693542e-02 4.707112908363342285e-02 1.032623555511236191e-02 4.586828872561454773e-02
4.411589726805686951e-02 -3.583520650863647461e-02 4.144052416086196899e-02 -2.105271220207214355e-01 -9.302248060703277588e-02 -7.408066093921661377e-02 2.640518248081207275e-01 -6.448343396186828613e-02 -3.154891431331634521e-01 -9.490063041448593140e-02 1.428515464067459106e-01 9.743087738752365112e-02 -1.243649870157241821e-01 1.098246946930885315e-01 -7.816273719072341919e-02 4.083255305886268616e-02 1.256740540266036987e-01 1.472882479429244995e-01 -1.584191173315048218e-01 1.563318818807601929e-01 6.512393057346343994e-02 7.403039187192916870e-02 -2.028618603944778442e-01 5.863027274608612061e-02 -6.545058637857437134e-02 6.488646566867828369e-02 -7.343890517950057983e-02 2.513499930500984192e-02 1.088807880878448486e-01 -1.752842962741851807e-01 9.012494236230850220e-02 -4.434837773442268372e-02 7.931777089834213257e-02 -2.461544796824455261e-02 -2.297601662576198578e-02 1.629081368446350098e-01 -8.689639717340469360e-02 -8.141353726387023926e-02 -6.454088538885116577e-02 -1.828119158744812012e-02 1.143848076462745667e-01 2.650025188922882080e-01 1.797894090414047241e-01 1.424993108958005905e-02 4.012451693415641785e-02 8.312161266803741455e-02 2.620400674641132355e-02 3.221780061721801758e-02 -2.696663513779640198e-02 2.397022396326065063e-01 -4.149881005287170410e-02 5.775133892893791199e-02 -2.064310610294342041e-01 8.819435536861419678e-02 3.807618468999862671e-02 1.269557792693376541e-02 1.715400665998458862e-01 9.130989760160446167e-02 -2.505330145359039307e-01 -1.436968147754669189e-02 4.342436417937278748e-02 -2.829822003841400146e-01 -1.886783242225646973e-01 -4.891764372587203979e-02 7.837756723165512085e-02 1.014267802238464355e-01 5.791149660944938660e-02 9.480060636997222900e-02 -2.065579965710639954e-02 2.376439282670617104e-03 2.970574498176574707e-01 6.516937166452407837e-02 3.044770564883947372e-03 5.701452121138572693e-02 -2.131097465753555298e-01 -2.470360100269317627e-01 -9.780611097812652588e-02 1.856110543012619019e-01 1.094174105674028397e-02 -1.274368017911911011e-01 7.647766172885894775e-02 -4.455774649977684021e-02 -6.730824708938598633e-02 -3.421458005905151367e-01 1.952427625656127930e-02 3.420053422451019287e-02 -2.479317039251327515e-01 -1.100807413458824158e-01 -7.537832856178283691e-02 8.380275964736938477e-02 -1.811501532793045044e-01 -7.099925726652145386e-02 1.666476726531982422e-01 5.226917937397956848e-02 -2.281915098428726196e-01 -9.552787989377975464e-02 -6.680706143379211426e-02 2.746778307482600212e-03 -1.534245312213897705e-01 1.710155457258224487e-01 1.241593956947326660e-01 -2.887246198952198029e-02 -7.511932402849197388e-02 -1.347693502902984619e-01 -1.415036469697952271e-01 2.549399156123399734e-03 2.171138226985931396e-01 5.904245190322399139e-03 -6.119017675518989563e-02 1.355733126401901245e-01 -1.011463999748229980e-01 -1.660846173763275146e-01 1.004079207777976990e-01 -1.198170036077499390e-01 -6.885750591754913330e-02 -1.395100802183151245e-01 -1.051895171403884888e-01 -2.398323416709899902e-01 -2.804526090621948242e-01 1.242676675319671631e-01 1.142693310976028442e-02 2.283865585923194885e-02 8.770532160997390747e-02 -1.043195351958274841e-01 4.463859647512435913e-02 1.668643765151500702e-02 -1.655484884977340698e-01 1.641379296779632568e-02 -7.516919635236263275e-03 9.830065537244081497e-04 -1.617625914514064789e-02 5.427028238773345947e-02 3.838064894080162048e-02 1.683408617973327637e-01 -8.981467783451080322e-02 5.118015781044960022e-02 1.356332376599311829e-02 -1.772877275943756104e-01 -2.452713437378406525e-02 1.753168106079101562e-01 -8.730316162109375000e-02 7.812040299177169800e-02 -1.007244735956192017e-01 9.530676901340484619e-02 -6.005113571882247925e-02 7.327286154031753540e-02 3.997512161731719971e-02 6.646431237459182739e-02 1.130570918321609497e-01 -6.289640814065933228e-02 4.964679479598999023e-02 6.166469305753707886e-02 -6.143286824226379395e-02 -2.980107907205820084e-03 2.029860764741897583e-01 -5.478021875023841858e-02 3.897343948483467102e-02 1.611142419278621674e-02 -1.400481164455413818e-01 -1.860079914331436157e-01 4.490170627832412720e-02 -4.956478625535964966e-02 2.207671254873275757e-01 1.839211136102676392e-01 5.370526760816574097e-02 1.862017959356307983e-01 1.133391782641410828e-01 1.430688649415969849e-01 1.402521580457687378e-01 1.327212452888488770e-01 -4.804272577166557312e-02 -1.253097206354141235e-01 -2.642323262989521027e-02 -1.031398493796586990e-02 9.349074214696884155e-02 -2.375139594078063965e-01 1.111875176429748535e-01 -1.188275367021560669e-01 -2.918561175465583801e-02 -1.455653011798858643e-01 9.148586541414260864e-02 -2.828307151794433594e-01 -1.215621381998062134e-01 -2.380329184234142303e-02 8.570196479558944702e-02 1.420705616474151611e-01 1.185278501361608505e-02 -2.598542869091033936e-01 1.014965698122978210e-01 -3.097210079431533813e-02 -2.825977653264999390e-02 1.285845488309860229e-01 4.137570410966873169e-02 -1.421982795000076294e-01 -1.035517305135726929e-01 -2.010964415967464447e-02 -4.609543085098266602e-02 2.301929146051406860e-01 -3.695015609264373779e-01 -6.031106784939765930e-02 -4.202507063746452332e-02 3.670016303658485413e-02 1.197141185402870178e-01 -1.365959048271179199e-01 -1.288894116878509521e-01 5.698181688785552979e-02 -5.088218674063682556e-02 3.576113656163215637e-02 -3.172092372551560402e-03 -2.728168964385986328e-01 6.537646800279617310e-02 1.255364865064620972e-01 -3.026581704616546631e-01 6.490172445774078369e-02 3.397964313626289368e-02 8.580416440963745117e-02 3.451429679989814758e-02 1.472801528871059418e-02 4.722575098276138306e-02 1.344198584556579590e-01 1.407118141651153564e-01 1.370573882013559341e-02 -2.141653746366500854e-01 2.001969143748283386e-02 -4.272082820534706116e-02 -2.005757838487625122e-01 3.546928288415074348e-03 1.350845992565155029e-01 1.395604759454727173e-02 7.849656790494918823e-02 1.822060905396938324e-02 -6.351568549871444702e-02 5.223792046308517456e-03 -6.377752870321273804e-02 -4.098569974303245544e-02 -1.239776611328125000e-02 9.774679690599441528e-02 1.754665374755859375e-02 1.440822482109069824e-01 1.474286317825317383e-01 -3.580837324261665344e-02 1.084346771240234375e-01 7.535723596811294556e-02 5.237847194075584412e-02 1.528422087430953979e-01 -2.080784551799297333e-02 1.245627179741859436e-02 -6.402041018009185791e-02 -3.717371076345443726e-02 -6.522945314645767212e-02 -8.017128705978393555e-02 1.289478987455368042e-01 1.791139692068099976e-02 1.185004562139511108e-01 1.029179915785789490e-01 -6.720320880413055420e-02
3.230168949812650681e-03 1.001437827944755554e-01 1.834598630666732788e-01 6.596071273088455200e-02 7.761311531066894531e-02 -1.458391696214675903e-01 -4.183008149266242981e-02 -3.594093490391969681e-03 -1.094499900937080383e-01 -3.022058680653572083e-02 -1.459913849830627441e-01 -2.002680487930774689e-02 7.069530338048934937e-02 1.191552504897117615e-01 -3.362968098372220993e-03 4.980885237455368042e-02 9.860365092754364014e-02 -3.151172772049903870e-02 2.054546959698200226e-02 -2.315022423863410950e-02 8.337979763746261597e-02 -1.125021949410438538e-01 9.784898161888122559e-02 3.669049963355064392e-02 -9.644233435392379761e-02 -2.111656405031681061e-02 -1.242366153746843338e-02 -7.168726064264774323e-03 -3.265651166439056396e-01 -1.838213577866554260e-02 1.383834332227706909e-01 -5.117410793900489807e-02 1.853903234004974365e-01 7.825933396816253662e-02 -2.334568649530410767e-02 -2.315223403275012970e-02 9.316628426313400269e-02 5.732851848006248474e-02 1.108804270625114441e-01 1.970084756612777710e-02 2.029626257717609406e-02 -7.094862312078475952e-02 1.227873340249061584e-01 -1.160225942730903625e-01 -1.226181164383888245e-01 -1.230263262987136841e-01 -1.158758476376533508e-01 4.316771402955055237e-03 2.791718812659382820e-03 -3.440516442060470581e-02 -1.471750587224960327e-01 1.332766562700271606e-01 -2.551479041576385498e-01 -1.447470337152481079e-01 1.058306768536567688e-01 9.258086234331130981e-02 -6.666438281536102295e-02 -2.677317522466182709e-02 -9.277459233999252319e-03 -6.358355283737182617e-02 -1.153944339603185654e-02 5.715782940387725830e-02 1.918270587921142578e-01 -6.935204565525054932e-02 1.350890100002288818e-01 -4.502083361148834229e-02 1.212571412324905396e-01 1.563003957271575928e-01 8.257461339235305786e-02 7.936377078294754028e-02 7.208298146724700928e-02 1.633859872817993164e-01 -3.111490979790687561e-02 -4.344132542610168457e-02 1.787973754107952118e-02 1.128493342548608780e-02 -4.584733769297599792e-02 7.922114431858062744e-02 -1.198825798928737640e-02 7.968384772539138794e-02 -1.925199478864669800e-01 1.833717972040176392e-01 2.616030871868133545e-01 -5.720954015851020813e-02 -6.601680070161819458e-02 -8.917497098445892334e-02 -1.155235245823860168e-01 1.982037536799907684e-02 -8.198436349630355835e-02 4.070965573191642761e-02 1.461335867643356323e-01 -3.958187997341156006e-02 -1.246422454714775085e-01 -9.086568839848041534e-03 -1.745186746120452881e-01 2.587020397186279297e-01 9.241854399442672729e-02 4.354429896920919418e-03 -4.849928990006446838e-02 1.486680954694747925e-01 1.114744022488594055e-01 -4.772396758198738098e-03 1.610262691974639893e-01 3.121531195938587189e-02 -1.757096201181411743e-01 -1.350687742233276367e-01 -7.217266410589218140e-02 1.923483759164810181e-01 -2.798410691320896149e-02 1.528231352567672729e-01 -1.616032719612121582e-01 -1.526595056056976318e-01 -8.621785044670104980e-02 -5.308730900287628174e-02 7.291039824485778809e-02 -1.894865334033966064e-01 -1.956247240304946899e-01 7.696886546909809113e-03 1.280664745718240738e-02 1.045330539345741272e-01 -4.346235468983650208e-02 1.200951859354972839e-01 3.640632331371307373e-01 -4.890789464116096497e-02 -1.650331467390060425e-01 -1.298424601554870605e-01 -1.530613750219345093e-01 2.401202172040939331e-02 6.386177241802215576e-02 -7.827495038509368896e-02 -1.188503205776214600e-01 -2.283388376235961914e-02 -1.575053781270980835e-01 -1.379343867301940918e-01 -9.330219589173793793e-03 -2.122629992663860321e-02 3.052467666566371918e-02 -1.245171204209327698e-01 2.600353062152862549e-01 -1.112574432045221329e-02 2.596852369606494904e-02 -1.106103211641311646e-01 7.723174244165420532e-02 3.612535074353218079e-03 -7.229416817426681519e-02 3.817583899945020676e-03 -1.328462958335876465e-01 -1.294693350791931152e-01 -3.287799954414367676e-01 1.506208330392837524e-01 1.360958814620971680e-01 -1.636041142046451569e-02 1.080612987279891968e-01 -8.221713453531265259e-02 1.521641016006469727e-01 -1.550392434000968933e-02 -3.247896581888198853e-02 -1.039855629205703735e-01 -2.030197829008102417e-01 1.637480556964874268e-01 -2.829702198505401611e-02 1.076375693082809448e-02 -1.133288890123367310e-01 1.765540800988674164e-02 2.391270846128463745e-01 1.454981565475463867e-01 1.690620183944702148e-02 3.306144475936889648e-02 1.648782938718795776e-01 1.056378185749053955e-01 1.338068544864654541e-01 5.285024270415306091e-02 2.277322486042976379e-02 -1.153996884822845459e-01 1.518654525279998779e-01 -1.642924360930919647e-02 3.912889584898948669e-02 -3.788785263895988464e-02 -1.761862486600875854e-01 -1.685686060227453709e-03 -2.531635761260986328e-01 -1.311208754777908325e-01 7.389265298843383789e-02 4.871805384755134583e-02 -1.379182189702987671e-01 -1.576170697808265686e-02 -7.801912724971771240e-02 -6.557519733905792236e-02 2.026404291391372681e-01 -1.269419025629758835e-02 -2.740192227065563202e-02 -4.036565124988555908e-02 1.343896687030792236e-01 1.598167270421981812e-01 3.142235800623893738e-02 -3.567832289263606071e-03 -5.781296268105506897e-02 8.119283244013786316e-03 9.810972958803176880e-02 -9.241823107004165649e-02 -7.793527841567993164e-02 -5.324918776750564575e-03 8.652104437351226807e-02 -7.630641013383865356e-02 -1.111268624663352966e-01 -3.113859705626964569e-02 2.058363519608974457e-02 -1.416252925992012024e-03 -8.026281744241714478e-02 -8.301099389791488647e-02 1.908269226551055908e-01 2.146543189883232117e-02 1.680748350918292999e-02 -1.337826345115900040e-02 -5.058784782886505127e-02 -2.466402761638164520e-02 3.723682090640068054e-02 6.028544530272483826e-02 2.137329578399658203e-01 -8.003792911767959595e-02 -1.171825220808386803e-03 -8.119054138660430908e-02 6.968153268098831177e-02 -3.446388617157936096e-02 -1.189313679933547974e-01 -1.784198284149169922e-01 -1.166705563664436340e-01 4.343403130769729614e-02 -1.079725474119186401e-01 -1.240400895476341248e-01 6.443186104297637939e-02 -2.886183746159076691e-02 -2.201273590326309204e-01 -1.052704825997352600e-01 2.415470778942108154e-02 -1.038153916597366333e-01 2.970303036272525787e-02 -2.852911315858364105e-02 3.413619101047515869e-02 6.209324672818183899e-02 -1.400120854377746582e-01 -8.747903257608413696e-02 -1.269966959953308105e-01 -1.632401198148727417e-01 -6.309352815151214600e-02 -2.407140098512172699e-02 -1.119741052389144897e-01 -2.103656530380249023e-02 -3.427390009164810181e-02 1.323940753936767578e-01 -6.021093949675559998e-02 -4.994067922234535217e-02 4.502611607313156128e-02 -4.570030421018600464e-02 -1.665010601282119751e-01 -3.903811052441596985e-02
-3.495446220040321350e-02 -5.719932168722152710e-02 1.237093135714530945e-01 1.539898365736007690e-01 5.993874371051788330e-02 2.662832848727703094e-02 3.880159556865692139e-02 1.413020640611648560e-01 5.446084961295127869e-02 -1.077212244272232056e-01 1.251647993922233582e-02 1.383421421051025391e-01 3.767315670847892761e-02 2.536142803728580475e-02 1.118479482829570770e-02 -5.199916660785675049e-02 6.553895026445388794e-02 -1.382673680782318115e-01 -1.807693839073181152e-01 4.783297702670097351e-02 5.103935487568378448e-03 2.443823665380477905e-01 1.262223161756992340e-02 -5.554517731070518494e-02 9.070874750614166260e-02 -8.562351763248443604e-02 -7.380878925323486328e-02 -7.439815998077392578e-02 -5.049704387784004211e-02 -3.739140555262565613e-02 1.558717433363199234e-02 1.664534211158752441e-02 -2.139796270057559013e-03 -1.701886355876922607e-01 -1.106267608702182770e-02 7.254389114677906036e-03 4.898205865174531937e-03 -4.492573812603950500e-02 -1.540444493293762207e-01 -5.989009886980056763e-02 -1.311935931444168091e-01 -1.522037945687770844e-02 7.282610237598419189e-02 1.607822924852371216e-01 -1.111253276467323303e-01 -8.234724402427673340e-02 -3.720879927277565002e-02 3.383037447929382324e-02 -1.825704425573348999e-01 -1.173473671078681946e-01 1.038469895720481873e-01 2.315779626369476318e-01 9.956763684749603271e-02 1.204340308904647827e-01 4.901938606053590775e-03 5.946796014904975891e-02 2.291989885270595551e-02 -4.814155399799346924e-02 1.444567590951919556e-01 -1.560929417610168457e-01 -1.179019361734390259e-01 -9.605848789215087891e-02 -6.678550504148006439e-03 8.758223848417401314e-04 -5.823654588311910629e-03 1.070105358958244324e-01 -1.425963360816240311e-02 -2.441786229610443115e-01 -1.360429525375366211e-01 -1.578227430582046509e-01 -1.555856913328170776e-01 6.223630905151367188e-02 -1.479887813329696655e-01 -9.978261590003967285e-02 -1.654021888971328735e-01 -9.801600128412246704e-03 -3.579121455550193787e-02 9.690722078084945679e-02 -3.741459548473358154e-01 3.030513413250446320e-02 -1.953906938433647156e-02 -7.694720476865768433e-02 1.662521660327911377e-01 1.179430261254310608e-02 1.675670892000198364e-01 -7.157541066408157349e-02 -2.867521941661834717e-01 -9.063181281089782715e-02 -4.945503175258636475e-02 -6.110073626041412354e-02 1.869250535964965820e-01 1.637588255107402802e-02 1.016610041260719299e-01 -2.419189549982547760e-02 6.193096935749053955e-02 2.167161256074905396e-01 1.763142794370651245e-01 1.400039494037628174e-01 -2.948455512523651123e-01 -4.923086762428283691e-01 1.788247376680374146e-02 -4.040957242250442505e-02 9.128241799771785736e-03 3.679420053958892822e-02 -1.782829910516738892e-01 -6.453801691532135010e-02 9.854686260223388672e-02 -1.480395048856735229e-01 -2.824448049068450928e-02 -5.307281389832496643e-02 -7.313539087772369385e-02 3.526907041668891907e-02 -1.125676110386848450e-01 -1.173844486474990845e-01 1.947602033615112305e-01 1.495642028748989105e-02 1.153477802872657776e-01 -9.161168336868286133e-02 3.222383931279182434e-02 -1.897117495536804199e-02 6.602620705962181091e-03 2.166024595499038696e-02 -7.849313318729400635e-02 -4.449199885129928589e-02 -7.201123237609863281e-02 -7.752169668674468994e-02 -2.072274535894393921e-01 8.821461349725723267e-02 2.731039524078369141e-01 -2.186507917940616608e-02 1.534735877066850662e-02 1.690899021923542023e-02 6.990421563386917114e-02 -4.398294538259506226e-02 -2.450734842568635941e-03 7.759694755077362061e-02 6.153631955385208130e-03 1.622121930122375488e-01 -7.193720340728759766e-02 -3.089022450149059296e-02 -6.153777614235877991e-02 -3.685529157519340515e-02 5.175421759486198425e-02 -2.091985046863555908e-01 -1.398146748542785645e-01 -1.962977647781372070e-01 -1.443263292312622070e-01 7.511994242668151855e-02 -1.556333005428314209e-01 -8.909711241722106934e-02 -3.164555877447128296e-02 -1.010450795292854309e-01 6.618678569793701172e-02 -1.223030239343643188e-01 1.765837967395782471e-01 -1.464573293924331665e-01 -3.500549197196960449e-01 -3.220994025468826294e-02 -1.276496499776840210e-01 1.981301903724670410e-01 -1.675508767366409302e-01 6.574399024248123169e-02 -9.122291207313537598e-02 -3.787514194846153259e-02 6.374437361955642700e-02 -1.258274912834167480e-02 -2.028236091136932373e-01 7.635504007339477539e-02 1.501391083002090454e-01 -3.550799936056137085e-02 7.407806813716888428e-02 5.877728387713432312e-02 7.988074421882629395e-02 -1.813345104455947876e-01 2.471469342708587646e-02 -1.235965788364410400e-01 -2.563606798648834229e-01 7.162458449602127075e-02 9.984686225652694702e-02 -9.371121972799301147e-02 3.648336132755503058e-05 1.316963285207748413e-01 1.504992842674255371e-01 3.331433981657028198e-02 -1.488200873136520386e-01 -2.157471626996994019e-01 5.190081149339675903e-02 -1.210339516401290894e-01 -1.218011695891618729e-02 7.364139892160892487e-03 1.100781336426734924e-01 -2.161938399076461792e-01 1.125831753015518188e-01 -1.369929313659667969e-01 -6.349962204694747925e-02 2.123014926910400391e-01 -8.017317950725555420e-02 1.777235120534896851e-01 -1.571217626333236694e-01 -1.791028771549463272e-03 -9.216824173927307129e-02 -3.490991145372390747e-02 2.899206988513469696e-02 1.981058567762374878e-01 -3.353675827383995056e-02 1.145837828516960144e-01 1.810803413391113281e-01 7.076662033796310425e-02 -1.297970563173294067e-01 -1.277561672031879425e-02 1.086705774068832397e-01 -1.285612136125564575e-01 6.623324006795883179e-02 2.932305820286273956e-02 -1.066886484622955322e-01 -6.999380886554718018e-02 -3.532117232680320740e-02 2.876962162554264069e-02 1.064643859863281250e-01 -3.204452618956565857e-02 8.398601412773132324e-02 -2.310526520013809204e-01 2.201984263956546783e-02 5.758950859308242798e-02 1.126955002546310425e-01 -2.231693826615810394e-02 -4.254015535116195679e-02 2.631988748908042908e-02 -1.832997798919677734e-01 -1.784014105796813965e-01 -1.543481796979904175e-01 -3.098764084279537201e-02 1.737830042839050293e-02 1.512384116649627686e-01 -1.276843696832656860e-01 2.549203038215637207e-01 -1.547898352146148682e-01 -2.116684019565582275e-01 -5.183588340878486633e-02 1.598228663206100464e-01 -6.605959683656692505e-02 -8.183233439922332764e-02 -9.559930302202701569e-03 -5.032353475689888000e-02 2.809655154123902321e-03 -4.845672287046909332e-03 -1.537565374746918678e-03 2.485238201916217804e-02 3.133544325828552246e-02 6.931526213884353638e-02 1.004244238138198853e-01 1.422984004020690918e-01 -2.272576652467250824e-02 -1.512906979769468307e-02 -3.862815722823143005e-02 -1.218711142428219318e-03
4.945678263902664185e-02 -2.924995869398117065e-02 -1.622222363948822021e-02 -9.121777117252349854e-02 -1.662017777562141418e-02 -5.701663717627525330e-02 1.733147352933883667e-01 -1.668301224708557129e-02 -5.502910539507865906e-02 4.629756510257720947e-02 1.863465607166290283e-01 -8.195456117391586304e-02 -1.157085001468658447e-01 2.463213913142681122e-02 -1.736249178647994995e-01 -3.599679097533226013e-02 -1.995810270309448242e-01 2.482787147164344788e-02 -7.455373648554086685e-03 1.127098947763442993e-01 1.706464588642120361e-01 -1.628457158803939819e-01 -9.892743825912475586e-02 -1.625604629516601562e-01 5.076679959893226624e-02 1.884725689888000488e-01 -1.285899132490158081e-01 -7.643097080290317535e-03 -6.591682881116867065e-02 5.203793942928314209e-02 6.969742476940155029e-02 3.106704913079738617e-02 2.546947263181209564e-02 2.371974885463714600e-01 -9.942291676998138428e-02 -1.625363081693649292e-01 4.601077735424041748e-02 -1.242088899016380310e-01 -4.858952015638351440e-02 -1.130459830164909363e-02 -8.487024903297424316e-02 -9.341382980346679688e-02 2.635792791843414307e-01 1.873302012681961060e-01 1.014727503061294556e-01 1.273798942565917969e-01 -1.168108284473419189e-01 1.417117863893508911e-01 5.202338472008705139e-02 5.058514885604381561e-03 -3.554570674896240234e-02 -7.527412474155426025e-02 7.595305144786834717e-02 7.933069765567779541e-02 -1.455525308847427368e-01 3.927247598767280579e-02 3.556817397475242615e-02 4.244009032845497131e-02 4.903252050280570984e-02 1.496707051992416382e-01 -4.329368099570274353e-02 2.390732169151306152e-01 -1.414835304021835327e-01 -4.621059447526931763e-02 1.440672725439071655e-01 -4.174426570534706116e-02 -7.746703922748565674e-02 -2.702868916094303131e-02 -1.118274703621864319e-01 3.492356836795806885e-02 -9.880939126014709473e-02 4.034532234072685242e-02 -1.823277175426483154e-01 -2.239453233778476715e-02 -1.089914962649345398e-01 5.519390478730201721e-02 8.671054989099502563e-02 1.407324969768524170e-01 -1.286939829587936401e-01 1.444203108549118042e-01 -7.783658057451248169e-02 -1.861781999468803406e-02 -5.757426843047142029e-02 -3.840700164437294006e-02 2.270361930131912231e-01 1.354628149420022964e-02 -1.584214903414249420e-02 -2.196586132049560547e-01 1.643671989440917969e-01 3.889612853527069092e-02 -1.187726631760597229e-01 3.301112353801727295e-02 5.617893114686012268e-02 -5.019458383321762085e-02 -1.809014976024627686e-01 -1.093225255608558655e-01 -1.411049440503120422e-02 -4.772952757775783539e-03 4.961198940873146057e-02 -2.679495513439178467e-02 -2.181229926645755768e-02 8.416439592838287354e-02 9.992015361785888672e-02 2.774467319250106812e-02 4.023528844118118286e-02 -1.073731109499931335e-01 -1.684319823980331421e-01 2.883015759289264679e-02 -8.635809272527694702e-02 -2.342071756720542908e-02 1.457599550485610962e-01 -7.803249359130859375e-02 -6.950899958610534668e-02 -2.544120512902736664e-02 -4.571332782506942749e-02 4.202856868505477905e-02 1.238384619355201721e-01 -1.202280297875404358e-01 -4.831625521183013916e-02 -2.820092067122459412e-02 6.839317828416824341e-02 -1.309468690305948257e-02 -1.001201011240482330e-02 -5.274701490998268127e-02 6.804230064153671265e-02 6.368125230073928833e-02 9.662926942110061646e-02 -3.980366047471761703e-03 -7.251533120870590210e-02 -1.603579670190811157e-01 -1.486604474484920502e-02 3.410008922219276428e-02 1.414964050054550171e-01 -3.270063607487827539e-04 -3.902459889650344849e-02 -7.054430246353149414e-02 -1.279788613319396973e-01 -1.206869632005691528e-01 9.140358120203018188e-02 -3.295856714248657227e-02 5.582091212272644043e-02 2.210614532232284546e-01 1.231172531843185425e-01 1.570334434509277344e-01 1.008589714765548706e-01 -2.675055712461471558e-02 -8.907468616962432861e-02 1.496088206768035889e-01 -7.635401934385299683e-02 1.089274231344461441e-02 -9.110499918460845947e-02 -3.040356747806072235e-02 8.021472953259944916e-03 1.364230513572692871e-01 -7.842199504375457764e-02 5.217682942748069763e-02 -2.792602479457855225e-01 -1.367535591125488281e-01 1.420866101980209351e-01 1.787514798343181610e-02 7.320725917816162109e-02 7.055747509002685547e-02 3.840112313628196716e-02 2.700266987085342407e-02 2.531611621379852295e-01 -4.488906264305114746e-02 1.999017149209976196e-01 2.355089411139488220e-03 2.848436683416366577e-02 5.170780047774314880e-02 -1.681685447692871094e-02 1.602392941713333130e-01 7.961291703395545483e-04 1.908951625227928162e-02 -4.496528580784797668e-02 -1.200219541788101196e-01 -1.440462917089462280e-01 8.460699021816253662e-02 -1.341122388839721680e-01 -5.221046507358551025e-02 -8.383233100175857544e-02 -1.560395359992980957e-01 -4.879837110638618469e-02 4.103843867778778076e-02 -3.806459484621882439e-03 -1.254850476980209351e-01 5.836999975144863129e-03 -3.875893354415893555e-02 3.091317415237426758e-02 -5.045697838068008423e-02 -2.534834481775760651e-02 7.887618243694305420e-02 2.385072782635688782e-02 1.264842748641967773e-01 6.107843667268753052e-02 -6.339448690414428711e-02 -8.770067244768142700e-02 4.590094089508056641e-02 3.733080253005027771e-02 9.233763813972473145e-02 4.725781828165054321e-02 5.916384980082511902e-03 -3.450511430855840445e-04 5.878625437617301941e-03 1.338067799806594849e-01 -1.327347904443740845e-01 4.340698069427162409e-04 -1.377252787351608276e-01 3.358096256852149963e-02 -6.819725036621093750e-02 7.866914570331573486e-02 4.871020466089248657e-02 -2.565148174762725830e-01 -4.062012210488319397e-02 3.792643110500648618e-05 3.920190967619419098e-03 9.120944142341613770e-02 -9.048296511173248291e-02 -3.089120984077453613e-02 -3.156970068812370300e-02 2.011205404996871948e-01 -8.195540308952331543e-02 9.949374198913574219e-02 4.766440019011497498e-02 -4.527018964290618896e-02 4.477058723568916321e-02 3.398596495389938354e-02 5.539424344897270203e-02 3.325380757451057434e-02 -6.301818788051605225e-02 -7.849851250648498535e-02 -9.655790776014328003e-02 -1.569139957427978516e-02 1.551972329616546631e-01 1.044622510671615601e-01 1.018963158130645752e-01 1.003322526812553406e-01 8.859002590179443359e-02 -8.158188313245773315e-02 -7.923667132854461670e-02 -1.564052850008010864e-01 -5.887705832719802856e-02 2.889942750334739685e-02 6.598742213100194931e-03 5.611850693821907043e-02 -4.097465053200721741e-02 -1.424561291933059692e-01 -1.123656630516052246e-01 -9.120076894760131836e-02 -8.605897426605224609e-02 -1.787969842553138733e-02 3.931216523051261902e-02 -7.053161039948463440e-03 4.620571434497833252e-02 -1.472120545804500580e-02 -1.662597656250000000e-01
1.946045085787773132e-02 -1.394816190004348755e-01 -1.182600930333137512e-01 -1.843152642250061035e-01 1.496599912643432617e-01 7.246533036231994629e-02 1.022923439741134644e-01 -4.158074036240577698e-02 -1.291532665491104126e-01 3.821070864796638489e-02 3.322817012667655945e-02 -9.290686994791030884e-02 8.806291967630386353e-02 -6.784959137439727783e-02 -9.128626435995101929e-02 6.336563080549240112e-02 4.525280371308326721e-02 -2.922096755355596542e-04 1.440778374671936035e-03 -8.448085188865661621e-02 -2.617863714694976807e-01 2.232723683118820190e-01 -5.934973061084747314e-02 -1.667358279228210449e-01 -1.830030605196952820e-02 -1.145124882459640503e-01 2.091833017766475677e-02 -1.134870797395706177e-01 -5.905029922723770142e-02 -1.464154273271560669e-01 -2.258528918027877808e-01 -2.224593162536621094e-01 -7.728900760412216187e-02 3.118549706414341927e-03 -1.744363754987716675e-01 -1.586162745952606201e-01 -7.812359929084777832e-02 2.323550134897232056e-01 3.126373887062072754e-02 -4.220782592892646790e-02 1.404538601636886597e-01 -5.404371768236160278e-02 5.232823267579078674e-02 5.590638890862464905e-02 2.679016292095184326e-01 -2.507528960704803467e-01 -1.115060504525899887e-02 -1.141442582011222839e-01 -1.347415000200271606e-01 -3.106135316193103790e-02 -1.015895754098892212e-01 -1.233798265457153320e-01 -1.256685853004455566e-01 -6.764816492795944214e-02 6.106915697455406189e-02 -7.000856846570968628e-02 1.037114858627319336e-01 -1.642056368291378021e-02 1.025724783539772034e-01 -1.442835181951522827e-01 -1.384275257587432861e-01 -1.718490570783615112e-02 -4.499433096498250961e-03 -1.222281306982040405e-01 1.772896014153957367e-02 -3.488877043128013611e-02 -4.882615432143211365e-02 -1.740245819091796875e-01 -4.028338566422462463e-02 -9.356848895549774170e-02 7.189873605966567993e-03 -6.341025978326797485e-02 1.115174889564514160e-01 -1.301736012101173401e-02 6.878595054149627686e-02 -1.809965074062347412e-01 -6.207964941859245300e-02 -3.216930925846099854e-01 -8.826842159032821655e-02 -5.323589220643043518e-02 -3.460521250963211060e-02 -7.791028171777725220e-02 -1.086492612957954407e-01 -5.313437059521675110e-02 -1.809187233448028564e-01 7.900141924619674683e-02 6.382409483194351196e-02 -1.082754954695701599e-01 -2.792359888553619385e-01 -2.072302252054214478e-01 -1.004316955804824829e-01 -5.151108279824256897e-02 8.630428463220596313e-02 2.405911870300769806e-02 1.023555919528007507e-01 -9.962324798107147217e-02 -1.082685962319374084e-01 2.918454706668853760e-01 -6.257820129394531250e-02 6.799710448831319809e-03 9.598512202501296997e-03 4.860382527112960815e-02 -5.210098344832658768e-03 -1.372351590543985367e-02 7.531664520502090454e-02 -2.026491165161132812e-01 9.319484978914260864e-02 8.947022259235382080e-02 -5.173720419406890869e-02 -1.980321295559406281e-02 -3.804099559783935547e-02 -7.807515561580657959e-02 -1.246804594993591309e-01 -6.468264013528823853e-02 1.470823884010314941e-01 1.263495981693267822e-01 -6.735605746507644653e-02 6.849101278930902481e-03 2.427060529589653015e-02 -7.992947846651077271e-02 -1.193178668618202209e-01 5.182640254497528076e-02 -3.453219309449195862e-03 -2.051132023334503174e-01 1.102758012712001801e-02 -4.359969496726989746e-02 -1.707292497158050537e-01 3.807695209980010986e-02 6.760666519403457642e-02 4.337863251566886902e-02 8.206891268491744995e-02 1.326659321784973145e-01 -1.849647313356399536e-01 9.469249844551086426e-02 -2.536327242851257324e-01 6.311634927988052368e-02 2.689820230007171631e-01 -1.286534816026687622e-01 -2.108921855688095093e-01 -6.819752603769302368e-02 -1.873493939638137817e-02 -2.009871751070022583e-01 1.140056848526000977e-01 1.220006346702575684e-01 1.109636500477790833e-01 9.528125822544097900e-02 3.107783012092113495e-02 -3.381292521953582764e-02 1.564051397144794464e-02 -1.597809344530105591e-01 8.405105024576187134e-02 -1.879120944067835808e-03 1.204800605773925781e-01 3.050468862056732178e-02 1.546357851475477219e-02 1.436886377632617950e-03 -1.680629849433898926e-01 -1.386970728635787964e-01 -2.059904113411903381e-02 -1.341589242219924927e-01 2.991196513175964355e-02 -1.809175163507461548e-01 9.344270825386047363e-02 -5.663010757416486740e-03 -1.045254692435264587e-01 -2.229205146431922913e-02 -7.550217211246490479e-02 -8.895012736320495605e-02 -4.733790829777717590e-02 -1.789622753858566284e-01 -1.091042235493659973e-01 -1.142274737358093262e-01 -1.666935831308364868e-01 -2.279054187238216400e-02 -3.972561657428741455e-02 -2.120689004659652710e-01 -1.753813624382019043e-01 4.872442688792943954e-03 -3.997385799884796143e-01 -1.463517695665359497e-01 1.097002625465393066e-01 2.242918591946363449e-03 -1.713957637548446655e-01 9.750332683324813843e-02 4.113275185227394104e-02 3.514015972614288330e-01 2.665242552757263184e-02 -3.390176594257354736e-02 6.302893906831741333e-02 -1.295681893825531006e-01 1.162979677319526672e-01 5.067684128880500793e-02 4.192422702908515930e-02 3.425769135355949402e-02 -8.119495958089828491e-02 1.353263109922409058e-01 -5.812038108706474304e-02 2.009368538856506348e-01 3.116519376635551453e-02 -9.939131885766983032e-02 2.166953310370445251e-02 3.060949966311454773e-02 -5.451216548681259155e-02 4.843209311366081238e-02 4.508646205067634583e-02 -1.925277858972549438e-01 1.337347477674484253e-01 -2.789981290698051453e-02 -1.115181520581245422e-01 -4.497926682233810425e-02 9.405027329921722412e-02 8.806497603654861450e-02 -1.958938241004943848e-01 -6.840707361698150635e-02 -1.038720714859664440e-03 -3.549745306372642517e-02 -6.342040002346038818e-02 -1.878308653831481934e-01 -3.030430972576141357e-01 8.042724430561065674e-02 2.063082158565521240e-01 -6.159815192222595215e-02 -1.791108101606369019e-01 8.334839716553688049e-03 -1.130191236734390259e-01 -1.664914041757583618e-01 -7.588386535644531250e-02 1.676432602107524872e-02 -1.305179297924041748e-01 -2.073357850313186646e-01 6.464775651693344116e-02 -1.700052022933959961e-01 -8.346904069185256958e-02 -1.415233612060546875e-01 2.166762016713619232e-02 -7.848177105188369751e-02 -3.329583629965782166e-02 -1.074590533971786499e-01 9.154633432626724243e-02 -1.348448544740676880e-01 -2.502393350005149841e-02 -5.339145287871360779e-02 7.696847617626190186e-02 5.634265393018722534e-02 6.055201962590217590e-02 1.232110410928726196e-01 -3.120220899581909180e-01 3.641233965754508972e-02 -4.055523499846458435e-02 9.148120135068893433e-02 -1.854517161846160889e-01 9.541000239551067352e-03 -9.515479207038879395e-03 2.469973564147949219e-01 -1.071344763040542603e-01 -1.870730891823768616e-02
-9.432667866349220276e-03 -3.330674767494201660e-01 -1.070782393217086792e-01 1.037387549877166748e-01 6.184788048267364502e-02 -2.093512713909149170e-01 1.135890930891036987e-01 8.744160830974578857e-02 -2.264762669801712036e-01 -8.353145420551300049e-02 -2.252398431301116943e-02 -1.207235455513000488e-01 -1.039010211825370789e-01 -4.344451799988746643e-02 3.348067402839660645e-02 -1.052591130137443542e-01 -2.435289323329925537e-01 -1.106948480010032654e-01 -4.726849868893623352e-02 1.187004148960113525e-01 -1.135082021355628967e-01 -2.232052013278007507e-02 -1.743669807910919189e-01 -1.388916224241256714e-01 1.376052349805831909e-01 -1.754655390977859497e-01 1.104820147156715393e-01 1.367215365171432495e-01 1.831174641847610474e-02 3.660544008016586304e-02 -2.256989926099777222e-01 1.615866124629974365e-01 5.829010531306266785e-02 1.014586836099624634e-01 2.346668043173849583e-04 1.916869878768920898e-01 1.095468997955322266e-01 -1.952748000621795654e-01 -7.774882763624191284e-02 6.473808735609054565e-02 -5.909099429845809937e-02 3.183646500110626221e-02 -1.955314353108406067e-02 6.327519658952951431e-03 -1.820802092552185059e-01 4.821868240833282471e-02 1.139753405004739761e-02 1.367850005626678467e-01 -3.107582964003086090e-02 1.823624223470687866e-01 2.065690159797668457e-01 -7.464859634637832642e-02 -1.384861022233963013e-01 1.391257494688034058e-01 -3.880032896995544434e-02 6.191801652312278748e-02 5.874226335436105728e-04 3.834632690995931625e-03 1.373089551925659180e-01 -1.666599810123443604e-01 6.567882746458053589e-02 8.815136551856994629e-02 2.164844051003456116e-02 -1.494148671627044678e-01 -1.293892040848731995e-02 -4.330481588840484619e-02 -2.393416166305541992e-01 -6.219251081347465515e-02 -1.241593733429908752e-01 1.054814737290143967e-02 -2.347983121871948242e-01 -1.705862283706665039e-01 3.608849644660949707e-02 -4.860186576843261719e-02 -9.576099365949630737e-02 -1.997909098863601685e-01 -1.165609583258628845e-01 -1.317942142486572266e-01 1.541700214147567749e-01 1.082942113280296326e-01 2.691243886947631836e-01 -2.061691135168075562e-02 -5.195376276969909668e-02 1.078015416860580444e-01 -1.020033098757266998e-02 1.093628406524658203e-01 -5.919792130589485168e-02 -2.240182757377624512e-01 -1.004288196563720703e-01 -9.621226042509078979e-02 9.398167580366134644e-02 8.128869533538818359e-02 2.518747188150882721e-02 -2.018764428794384003e-02 7.947964966297149658e-02 6.583230197429656982e-02 6.255497038364410400e-02 1.925768554210662842e-01 -2.022175639867782593e-01 1.567275822162628174e-01 4.918999969959259033e-02 1.706729084253311157e-01 -2.250642180442810059e-01 -3.397480025887489319e-02 -9.190213680267333984e-02 1.031211763620376587e-02 5.822182819247245789e-02 -8.055248111486434937e-02 -1.879647225141525269e-01 4.447151347994804382e-02 -5.836567655205726624e-02 1.497630961239337921e-02 -2.058755606412887573e-01 -3.253713250160217285e-02 8.553440868854522705e-02 8.064303547143936157e-02 2.070351541042327881e-01 2.461023628711700439e-01 -6.597127020359039307e-02 -4.278525710105895996e-03 1.367048323154449463e-01 6.444592028856277466e-02 1.050469945766963065e-04 -7.601872831583023071e-02 -9.444771707057952881e-02 -1.999448835849761963e-01 -2.810232341289520264e-01 1.772940754890441895e-01 -9.196495264768600464e-02 5.008191615343093872e-02 2.122635720297694206e-03 -2.811471223831176758e-01 -3.733299970626831055e-01 7.625724375247955322e-02 -1.493122875690460205e-01 -3.145178779959678650e-03 2.605913579463958740e-01 1.079343780875205994e-01 -1.443468630313873291e-01 -3.919959813356399536e-02 1.628327667713165283e-01 -8.662463724613189697e-02 2.052817493677139282e-01 4.444161430001258850e-02 1.377018839120864868e-01 -1.796868978999555111e-03 -1.093412516638636589e-03 -7.620038092136383057e-02 9.442877024412155151e-03 1.782385706901550293e-01 -1.089119166135787964e-01 -8.117537945508956909e-02 -8.929166197776794434e-02 3.948747739195823669e-02 -1.204731613397598267e-01 -1.251950860023498535e-01 1.339338440448045731e-02 -1.703765690326690674e-01 -1.180052408017218113e-03 2.154568582773208618e-01 1.657418161630630493e-02 -1.936458349227905273e-01 -1.695528775453567505e-01 -2.422451972961425781e-02 5.793777108192443848e-02 3.505549207329750061e-02 2.114889621734619141e-01 -7.843226194381713867e-03 -2.945510745048522949e-01 -1.719935983419418335e-02 -2.237604260444641113e-01 1.195485517382621765e-02 1.721936464309692383e-01 9.590686112642288208e-02 -1.708832532167434692e-01 -1.996463835239410400e-01 -2.306659333407878876e-02 1.637166887521743774e-01 6.979189347475767136e-03 -6.932868808507919312e-02 -2.114209532737731934e-01 -1.577499806880950928e-01 2.246146323159337044e-03 9.629845619201660156e-02 -6.195063516497612000e-02 2.415298484265804291e-02 -7.107395678758621216e-02 1.330017298460006714e-01 -8.618231862783432007e-02 -5.334232002496719360e-02 -2.228351123631000519e-02 9.096700698137283325e-02 1.416989713907241821e-01 2.616194821894168854e-02 2.605887316167354584e-02 1.488991547375917435e-02 -1.965574622154235840e-01 1.780653595924377441e-01 -1.481736265122890472e-02 -2.257767468690872192e-01 -5.965839605778455734e-03 1.938066184520721436e-01 -8.323458582162857056e-02 -2.621766924858093262e-02 6.131925061345100403e-02 2.652357215993106365e-04 8.395506441593170166e-02 1.434714794158935547e-01 1.669885218143463135e-01 1.458524726331233978e-02 8.522805571556091309e-02 -4.454661160707473755e-02 -6.406535953283309937e-02 -3.581900149583816528e-02 9.430863708257675171e-02 -3.911470249295234680e-02 1.599188446998596191e-01 1.349330600351095200e-02 -3.106696009635925293e-01 -8.938775956630706787e-02 -1.358150988817214966e-01 -1.277536302804946899e-01 6.875776499509811401e-02 6.653641350567340851e-03 -4.663700237870216370e-02 -9.620741754770278931e-02 1.714695692062377930e-01 1.632732152938842773e-01 -2.061805315315723419e-02 1.807858347892761230e-01 -1.279052942991256714e-01 -2.485943585634231567e-01 -3.890031203627586365e-02 -7.709822803735733032e-02 6.999365985393524170e-02 -2.986156940460205078e-02 -1.394419521093368530e-01 2.579397521913051605e-02 -3.295140713453292847e-02 -3.825703635811805725e-02 -8.504029363393783569e-02 -4.485093057155609131e-02 1.542602181434631348e-01 9.463676065206527710e-02 -1.254786644130945206e-02 -1.376745998859405518e-01 -1.821704395115375519e-02 -1.224123686552047729e-02 -1.075845807790756226e-01 2.047589719295501709e-01 1.162747852504253387e-03 3.898888081312179565e-02 -2.083594053983688354e-01 -8.721467852592468262e-02 -7.661135494709014893e-02 -2.041619867086410522e-01
-7.187110930681228638e-02 -3.000587783753871918e-02 1.257966160774230957e-01 1.876688450574874878e-01 -1.642853319644927979e-01 -1.231912709772586823e-02 1.361132599413394928e-02 1.024107635021209717e-01 -2.398548722267150879e-01 -8.590816706418991089e-02 1.062893867492675781e-01 -3.827025741338729858e-02 -1.905721984803676605e-02 1.912030391395092010e-02 -1.592193543910980225e-01 1.076097115874290466e-01 1.054985448718070984e-01 -1.523012062534689903e-03 -2.716237865388393402e-02 6.655927002429962158e-02 -9.633745998144149780e-02 1.947578601539134979e-02 4.796810448169708252e-02 -6.046900153160095215e-02 8.273758925497531891e-03 1.067857891321182251e-01 -8.565843105316162109e-02 -5.829793587327003479e-02 -4.828396439552307129e-02 1.766028068959712982e-02 -8.860583603382110596e-02 3.426071628928184509e-02 -3.099982254207134247e-02 6.266655027866363525e-02 -6.584557145833969116e-02 2.522534430027008057e-01 -4.849439486861228943e-02 -1.190530136227607727e-01 1.367691904306411743e-01 1.903556659817695618e-02 9.585694968700408936e-02 8.275021612644195557e-02 2.307349815964698792e-02 7.806414365768432617e-02 7.116737216711044312e-02 7.026996463537216187e-02 2.265062928199768066e-02 -3.397893160581588745e-02 2.225048243999481201e-01 4.710083454847335815e-02 1.035306155681610107e-01 4.504381120204925537e-02 -6.283184885978698730e-02 4.502111114561557770e-03 1.110457554459571838e-01 1.159785836935043335e-01 6.605806201696395874e-02 4.971939697861671448e-02 -1.995903812348842621e-02 -4.902005940675735474e-02 5.250126495957374573e-02 -8.778586983680725098e-02 9.564257413148880005e-02 -7.837314158678054810e-02 6.561601161956787109e-02 -6.245241314172744751e-02 3.636889532208442688e-02 1.122325956821441650e-01 1.074548927135765553e-03 9.313894808292388916e-02 9.846999309957027435e-03 2.038959227502346039e-02 -8.214040100574493408e-02 -2.676417678594589233e-02 -9.371893852949142456e-02 -4.935624450445175171e-02 -7.942108809947967529e-02 2.452036738395690918e-01 8.895815163850784302e-02 9.229250997304916382e-02 1.314974483102560043e-02 1.580090522766113281e-01 -1.215121243149042130e-02 -4.073624312877655029e-02 8.269423246383666992e-02 1.208816003054380417e-02 1.508958172053098679e-02 -4.160121083259582520e-03 -6.838584691286087036e-02 -4.442755505442619324e-02 8.386548608541488647e-02 -2.787134423851966858e-02 -2.820647694170475006e-02 -1.976438611745834351e-02 5.449097976088523865e-02 -3.831277415156364441e-02 1.464496403932571411e-01 9.514378011226654053e-02 2.934629796072840691e-03 1.317753046751022339e-01 1.069096773862838745e-01 8.532701432704925537e-02 5.247083678841590881e-02 9.952281415462493896e-02 -6.130249053239822388e-02 -5.461146682500839233e-02 9.740528464317321777e-02 3.954032808542251587e-02 -1.510383188724517822e-01 -4.238355532288551331e-02 -1.215251237154006958e-01 -1.686445325613021851e-01 -1.257495395839214325e-02 -1.177640780806541443e-01 1.192830968648195267e-02 -4.562567546963691711e-02 -1.259457767009735107e-01 7.756698876619338989e-02 1.739118620753288269e-02 4.698419570922851562e-02 2.592163980007171631e-01 1.010863259434700012e-01 1.509710997343063354e-01 -1.055502817034721375e-01 5.406987620517611504e-04 1.152219772338867188e-01 -5.306011065840721130e-02 2.684028632938861847e-02 3.896971791982650757e-02 1.371257752180099487e-02 1.862671412527561188e-02 -6.783317774534225464e-02 -3.836810216307640076e-02 -5.271287634968757629e-02 1.505853682756423950e-01 1.663306355476379395e-02 -1.942743174731731415e-02 3.782374039292335510e-02 2.458842284977436066e-02 -1.113648153841495514e-02 1.239576041698455811e-01 1.488926857709884644e-01 1.430138051509857178e-01 3.115594154223799706e-03 -8.764615654945373535e-02 2.012091726064682007e-01 -2.113722637295722961e-02 -1.518598794937133789e-01 -6.505701690912246704e-02 -9.074448794126510620e-02 1.645694375038146973e-01 -9.290392696857452393e-02 1.145628914237022400e-01 -4.441932588815689087e-02 1.089211627840995789e-01 3.604226931929588318e-02 -3.235288197174668312e-03 3.242675913497805595e-03 2.237586118280887604e-02 1.996605284512042999e-02 -5.161277367733418941e-04 -2.203477770090103149e-01 7.960788160562515259e-02 4.590331763029098511e-02 1.994274705648422241e-01 1.250678449869155884e-01 8.360158652067184448e-02 1.309713274240493774e-01 4.632850736379623413e-02 1.319197416305541992e-01 -7.314398139715194702e-02 2.639503031969070435e-02 -2.571926116943359375e-01 4.107086732983589172e-02 1.120079215615987778e-02 4.231426492333412170e-02 -8.666761219501495361e-02 3.910615295171737671e-02 -8.617698401212692261e-02 -1.264281272888183594e-01 -1.157083138823509216e-01 3.312644781544804573e-03 -3.219931153580546379e-03 8.121985197067260742e-02 7.013444602489471436e-02 3.037044964730739594e-02 -6.536499410867691040e-02 -1.040019560605287552e-02 -5.025196075439453125e-02 -1.413984410464763641e-02 -2.207940816879272461e-02 7.804308831691741943e-02 1.169871389865875244e-01 1.255328953266143799e-01 -4.302484914660453796e-02 5.065263062715530396e-02 -3.664590418338775635e-02 8.755061030387878418e-02 9.623721241950988770e-02 -8.115181326866149902e-02 3.534392639994621277e-02 -1.881016790866851807e-02 6.648547947406768799e-02 2.134118378162384033e-01 -4.101128317415714264e-03 -5.360991135239601135e-02 1.875970065593719482e-01 2.353991195559501648e-02 -7.461100071668624878e-02 -9.167406708002090454e-02 4.297609254717826843e-02 -4.996696487069129944e-02 7.301936298608779907e-02 -4.790408536791801453e-02 1.335154920816421509e-01 9.900481253862380981e-02 -9.989055246114730835e-02 -1.261352300643920898e-01 1.631346046924591064e-01 4.255055263638496399e-02 3.557175770401954651e-02 8.617721498012542725e-02 -1.063914671540260315e-01 2.959651686251163483e-02 -1.941794306039810181e-01 6.821000017225742340e-03 1.183282062411308289e-01 2.056737430393695831e-02 1.154000014066696167e-01 -1.668409258127212524e-01 1.667543128132820129e-02 -1.415702998638153076e-01 -1.763695180416107178e-01 -6.636036932468414307e-02 -1.171173378825187683e-01 2.415514886379241943e-01 -8.068217895925045013e-03 1.424999386072158813e-01 1.628005951642990112e-01 7.302004098892211914e-02 1.614231988787651062e-02 -1.378981024026870728e-01 1.675532162189483643e-01 7.187193632125854492e-02 -6.436075270175933838e-02 -1.599480584263801575e-02 -4.866255074739456177e-02 1.104211434721946716e-01 7.642034441232681274e-02 8.509933203458786011e-02 -1.028299517929553986e-02 1.215415596961975098e-01 1.629710081033408642e-03 -4.339057207107543945e-02 1.332423985004425049e-01 -9.241802617907524109e-03
1.985449641942977905e-01 -1.888695508241653442e-01 -9.048615396022796631e-02 8.382566273212432861e-02 -1.405250430107116699e-01 3.102772496640682220e-02 2.226566337049007416e-02 -1.444612350314855576e-02 -3.597203269600868225e-02 1.001140568405389786e-02 -2.062346339225769043e-01 8.089614659547805786e-02 4.680198803544044495e-02 -2.115281671285629272e-01 -1.299499571323394775e-01 1.046313866972923279e-01 -1.068499013781547546e-01 -1.025174558162689209e-01 1.385667920112609863e-01 6.010549888014793396e-02 -1.154619157314300537e-01 2.572437748312950134e-02 -2.930567599833011627e-02 -1.976586133241653442e-02 -6.614499539136886597e-02 1.282925833947956562e-03 -2.921967953443527222e-02 -4.263006616383790970e-03 -9.498563408851623535e-02 7.285720854997634888e-02 -2.409235201776027679e-02 6.639176607131958008e-02 8.255591988563537598e-02 -2.354170083999633789e-01 -3.316964209079742432e-02 -9.503354877233505249e-02 -2.175096124410629272e-01 -1.310528069734573364e-01 1.048953905701637268e-01 -7.182012498378753662e-02 -8.895673602819442749e-02 -1.125445961952209473e-01 3.500686213374137878e-02 1.522463746368885040e-02 5.089461058378219604e-02 -8.553913235664367676e-02 1.027583852410316467e-01 1.668143272399902344e-01 -1.846759207546710968e-02 6.010604277253150940e-02 1.256662011146545410e-01 1.448448300361633301e-01 -1.337377429008483887e-01 1.620520502328872681e-01 3.077127505093812943e-03 1.629354245960712433e-02 -2.193980291485786438e-02 4.783279728144407272e-03 1.050516292452812195e-01 -2.789558283984661102e-02 6.730438210070133209e-03 -1.587271094322204590e-01 -7.373692095279693604e-02 1.061213389039039612e-01 -4.841168224811553955e-02 7.364954054355621338e-02 -8.401469886302947998e-02 6.461016088724136353e-02 -1.796348989009857178e-01 -8.809849619865417480e-02 -1.209727749228477478e-01 1.108807548880577087e-01 1.207801103591918945e-01 -2.706787735223770142e-02 -7.524495571851730347e-02 1.392653733491897583e-01 5.744935572147369385e-02 -4.255187138915061951e-02 -1.063233241438865662e-02 3.167272731661796570e-02 -4.373091459274291992e-02 -5.177912116050720215e-02 2.616050094366073608e-02 -1.085964441299438477e-01 -1.314931213855743408e-01 -9.164357185363769531e-02 -3.456151112914085388e-02 8.323152363300323486e-02 6.567467004060745239e-02 -6.778407841920852661e-02 1.150101497769355774e-01 1.665887236595153809e-01 -4.707989096641540527e-02 2.722285501658916473e-02 -2.182886898517608643e-01 1.638409942388534546e-01 -1.295118592679500580e-02 -1.489962683990597725e-03 6.412153691053390503e-02 2.266832254827022552e-02 2.748180367052555084e-02 -2.166270315647125244e-01 -4.614907875657081604e-02 1.338721215724945068e-01 -8.946413174271583557e-03 4.493131488561630249e-02 1.300601363182067871e-01 -3.994774818420410156e-02 -4.940000548958778381e-02 1.522325277328491211e-01 7.696906570345163345e-03 4.053035005927085876e-02 1.403366774320602417e-01 -4.813138861209154129e-03 -1.100136414170265198e-01 -1.104497443884611130e-02 -1.715295910835266113e-01 8.249878138303756714e-02 -1.580252349376678467e-01 -6.208624690771102905e-02 -6.529585272073745728e-02 1.747104525566101074e-01 -1.161805633455514908e-02 3.631972894072532654e-02 2.553594484925270081e-02 6.892438977956771851e-02 -4.700972512364387512e-02 4.246916994452476501e-02 -1.803344190120697021e-01 -2.294433861970901489e-01 -1.519109159708023071e-01 -1.035678982734680176e-01 1.297627091407775879e-01 -1.118757799267768860e-01 -3.152716532349586487e-02 8.283845335245132446e-02 -3.872263431549072266e-01 -1.720612496137619019e-01 -2.977906726300716400e-02 6.761068850755691528e-02 -7.485482096672058105e-02 -9.988901764154434204e-02 -1.226777862757444382e-02 -2.289858907461166382e-01 1.647866815328598022e-01 -1.564572453498840332e-01 -6.062964908778667450e-03 -5.630026385188102722e-02 -3.055237531661987305e-01 9.528311342000961304e-02 -2.167051285505294800e-02 -2.543303966522216797e-01 -6.247524917125701904e-02 -2.268895953893661499e-01 -1.146980077028274536e-01 1.506374180316925049e-01 4.670710489153862000e-02 4.391992464661598206e-02 -2.826340124011039734e-02 -1.108712553977966309e-01 3.237633034586906433e-02 -1.508089154958724976e-02 2.345288731157779694e-02 -1.114954873919487000e-01 -1.327752619981765747e-01 -5.340637266635894775e-02 1.409225165843963623e-01 5.243333056569099426e-02 -2.153770476579666138e-01 1.648586690425872803e-01 -7.524417340755462646e-02 2.583414316177368164e-03 -9.672605246305465698e-02 -7.843863219022750854e-03 4.242875427007675171e-02 -6.294889748096466064e-02 -3.369848430156707764e-02 -5.288499221205711365e-02 -1.117009446024894714e-01 7.562240213155746460e-02 1.587017625570297241e-01 -1.241872087121009827e-01 7.280415296554565430e-02 -2.320231944322586060e-01 -2.441461682319641113e-01 -5.615770444273948669e-02 -4.029534012079238892e-02 -8.264105021953582764e-02 -9.830352663993835449e-02 8.156406879425048828e-02 -1.105863004922866821e-01 -1.387711018323898315e-01 1.004371196031570435e-01 -1.840237379074096680e-01 7.336337864398956299e-02 8.559177070856094360e-02 -6.326780468225479126e-02 -7.467414438724517822e-02 -7.809106260538101196e-02 7.253237813711166382e-02 -9.702900797128677368e-02 -2.113791853189468384e-01 -8.768489956855773926e-02 -1.580362953245639801e-02 -2.251280099153518677e-02 1.068122088909149170e-01 9.218044579029083252e-02 -7.866273820400238037e-02 -2.388848923146724701e-02 3.612473234534263611e-02 -5.297720432281494141e-02 -1.283127516508102417e-01 -3.591927140951156616e-02 -3.191746771335601807e-02 -9.297531843185424805e-02 1.483611017465591431e-01 -1.056564506143331528e-02 -5.353090912103652954e-02 -2.222873270511627197e-02 -2.780236005783081055e-01 4.925206303596496582e-03 5.928036570549011230e-02 -2.664892673492431641e-01 6.195655092597007751e-03 -1.917390525341033936e-01 -4.544312357902526855e-01 3.199962154030799866e-02 -4.409690201282501221e-02 5.686296895146369934e-02 6.057664752006530762e-02 1.326826810836791992e-01 4.132673144340515137e-02 3.950990736484527588e-02 1.537492871284484863e-01 8.149076253175735474e-02 4.150844179093837738e-03 1.560790389776229858e-01 -1.927682608366012573e-01 -2.076443284749984741e-01 -8.349172770977020264e-02 -1.541569828987121582e-01 -3.017507791519165039e-01 3.744336962699890137e-02 1.675235182046890259e-01 -1.444928646087646484e-01 1.230381950736045837e-01 7.230404019355773926e-02 -5.800772458314895630e-02 2.343728393316268921e-02 4.999335110187530518e-02 1.108846813440322876e-02 4.984727129340171814e-02 -1.898668855428695679e-01 -4.548849910497665405e-02 3.035558154806494713e-03 4.677872359752655029e-02
-1.328818351030349731e-01 7.198164612054824829e-02 1.546824257820844650e-02 -1.012221649289131165e-01 -2.394703216850757599e-02 -1.011197343468666077e-01 -5.275693535804748535e-02 6.283745169639587402e-02 6.419314444065093994e-02 -4.321249946951866150e-02 1.865259259939193726e-01 -2.215087115764617920e-01 -8.655272424221038818e-02 1.647403985261917114e-01 -1.084239780902862549e-01 1.318264100700616837e-02 1.550196260213851929e-01 -4.501987248659133911e-02 -1.066127121448516846e-01 1.183148752897977829e-02 -7.309321779757738113e-03 -3.402989357709884644e-02 -1.145289316773414612e-01 -2.556772828102111816e-01 -6.778246723115444183e-03 3.161201626062393188e-02 8.602602034807205200e-02 -1.281249374151229858e-01 2.984484732151031494e-01 5.282699596136808395e-03 9.583511203527450562e-02 -9.816301614046096802e-02 1.627150475978851318e-01 2.351938337087631226e-01 -1.895716488361358643e-01 -2.643089592456817627e-01 5.610001459717750549e-02 1.995573751628398895e-02 -8.252547681331634521e-02 -5.548265948891639709e-02 7.437197118997573853e-02 1.098403707146644592e-01 -4.743323847651481628e-02 -5.958271771669387817e-02 1.229688078165054321e-01 -5.211323127150535583e-02 -6.123772263526916504e-02 -1.826469898223876953e-01 4.547377303242683411e-02 6.805987656116485596e-02 -3.145947679877281189e-02 -1.515801250934600830e-01 1.797648966312408447e-01 2.633249759674072266e-02 -5.800384283065795898e-02 1.528983712196350098e-01 -6.727015972137451172e-02 -2.668465077877044678e-01 8.995012938976287842e-02 -1.293040812015533447e-01 -4.653916694223880768e-03 2.955129146575927734e-01 7.115051150321960449e-02 4.157486185431480408e-02 8.601458370685577393e-02 -2.116887085139751434e-02 1.573342531919479370e-01 1.512496024370193481e-01 3.500130772590637207e-02 -1.478559430688619614e-02 6.435506045818328857e-02 3.261774405837059021e-02 -3.571374714374542236e-01 -2.472848743200302124e-01 -2.485999315977096558e-01 1.617949455976486206e-02 -1.187271550297737122e-01 -8.414085954427719116e-02 -9.664583951234817505e-02 1.668026745319366455e-01 -2.368655651807785034e-01 7.953310012817382812e-02 1.556904762983322144e-01 -8.299477398395538330e-02 2.360418140888214111e-01 -2.129245549440383911e-02 1.430573016405105591e-01 -4.477607831358909607e-02 7.447955012321472168e-02 1.184326410293579102e-01 -6.700320541858673096e-02 -9.821113944053649902e-02 -1.061569377779960632e-01 4.400866571813821793e-03 1.238492317497730255e-02 1.638711057603359222e-02 -2.935495078563690186e-01 -2.005619257688522339e-01 1.920610517263412476e-01 -2.146569341421127319e-01 -2.580194361507892609e-02 -1.038205400109291077e-01 1.679727584123611450e-01 1.661610603332519531e-01 -1.198114454746246338e-01 -2.823430299758911133e-01 1.072512045502662659e-01 2.190273404121398926e-01 -6.350746750831604004e-02 1.195682361721992493e-01 1.162116304039955139e-01 -2.037748843431472778e-01 9.172063320875167847e-02 1.585718840360641479e-01 1.266412585973739624e-01 1.969881355762481689e-01 5.673502013087272644e-02 2.783879265189170837e-02 -1.664815992116928101e-01 8.922571688890457153e-02 1.012601926922798157e-01 6.982448697090148926e-02 2.316456586122512817e-01 -1.298523694276809692e-01 -4.878119006752967834e-02 1.081821024417877197e-01 1.716036200523376465e-01 2.233994007110595703e-01 -1.707053184509277344e-02 1.533309072256088257e-01 2.708460018038749695e-02 -7.110805809497833252e-02 3.794990479946136475e-02 -1.041942927986383438e-02 2.470269501209259033e-01 4.371268674731254578e-03 -1.039877235889434814e-01 1.458649486303329468e-01 1.953500956296920776e-01 1.079175248742103577e-01 1.897525601089000702e-02 9.750898182392120361e-02 -1.931394264101982117e-02 -2.463563345372676849e-02 -4.031956940889358521e-02 1.145095154643058777e-01 -2.508207261562347412e-01 1.171259060502052307e-01 1.174469143152236938e-01 1.058450713753700256e-01 -9.361281245946884155e-02 -3.413132131099700928e-01 -1.366276144981384277e-01 3.404365181922912598e-01 8.300842344760894775e-02 7.075673341751098633e-02 1.102189421653747559e-01 -1.076138392090797424e-01 -5.451660230755805969e-02 -5.541788414120674133e-02 -1.830020397901535034e-01 1.461647748947143555e-01 -9.553207457065582275e-02 2.843192964792251587e-02 2.592006921768188477e-01 2.127827890217304230e-02 -7.115322351455688477e-02 1.133063361048698425e-01 3.721084445714950562e-02 6.180582568049430847e-02 1.828909298637881875e-04 1.464489251375198364e-01 -1.956994682550430298e-01 -3.495206311345100403e-02 7.430654019117355347e-02 1.105171591043472290e-01 4.736249893903732300e-02 -1.374810487031936646e-01 1.216073408722877502e-01 -4.259287118911743164e-01 1.265993267297744751e-01 -6.929485499858856201e-02 -9.962577372789382935e-02 -1.945843175053596497e-02 -1.129536405205726624e-01 -4.901777952909469604e-02 3.857813775539398193e-02 -4.443975538015365601e-02 -1.124525070190429688e-01 7.156862318515777588e-02 1.078208312392234802e-01 -5.763665586709976196e-02 3.755028126761317253e-03 9.970837086439132690e-02 6.892583519220352173e-02 -3.541926294565200806e-02 -3.380179032683372498e-02 1.023707538843154907e-01 -5.634472891688346863e-02 -1.841301470994949341e-01 6.043144315481185913e-02 -4.630436375737190247e-02 -1.332842707633972168e-01 -8.238178491592407227e-02 -1.044183038175106049e-02 1.389939337968826294e-01 -1.664721220731735229e-01 3.266075998544692993e-02 -4.288198426365852356e-02 -4.698358476161956787e-02 3.381103277206420898e-02 8.527528494596481323e-03 9.807158261537551880e-02 1.749750375747680664e-01 6.679145246744155884e-02 -1.163793355226516724e-01 -7.155727595090866089e-02 -2.248488068580627441e-01 -9.625792503356933594e-02 1.524480525404214859e-02 1.572297327220439911e-02 -1.035501249134540558e-02 7.598165422677993774e-02 8.171737939119338989e-02 -3.915931582450866699e-01 -2.363832853734493256e-02 2.445747703313827515e-02 7.371108978986740112e-02 -9.254878759384155273e-02 -3.709835931658744812e-02 -4.594295751303434372e-03 -1.526118367910385132e-01 -6.378848850727081299e-02 9.836532920598983765e-02 9.474606066942214966e-02 7.719129789620637894e-03 1.315216273069381714e-01 6.728259474039077759e-02 -1.092515438795089722e-01 -7.994440943002700806e-02 -7.114701718091964722e-02 -2.697156071662902832e-01 -1.937146671116352081e-02 -9.224215149879455566e-02 -2.141459658741950989e-02 -1.412797272205352783e-01 -1.323480159044265747e-01 -1.001134514808654785e-02 -1.220630258321762085e-01 4.102201387286186218e-02 5.247990787029266357e-02 -1.067237928509712219e-01 2.117657475173473358e-02 5.828139372169971466e-03 -1.652843505144119263e-01 4.891299083828926086e-02
8.869065786711871624e-04 -1.435628384351730347e-01 6.242933124303817749e-02 -8.624558150768280029e-02 2.552788257598876953e-01 -6.186654791235923767e-02 1.375344395637512207e-01 -2.124810963869094849e-01 -1.450336724519729614e-01 -5.009664967656135559e-02 -2.147303894162178040e-02 1.155444048345088959e-02 -9.032246470451354980e-02 -1.396559737622737885e-02 7.758570462465286255e-02 4.379872977733612061e-02 -1.152456551790237427e-01 -9.499581903219223022e-02 2.231168374419212341e-02 1.473535150289535522e-01 3.110782057046890259e-02 -7.609080523252487183e-02 2.052142657339572906e-02 -7.543327659368515015e-02 2.228820323944091797e-02 4.114687442779541016e-02 -6.714618206024169922e-02 1.496501863002777100e-01 7.934298366308212280e-02 1.498338133096694946e-01 1.094689406454563141e-02 4.080133885145187378e-02 -9.269804507493972778e-02 -6.239226087927818298e-02 2.576636150479316711e-02 1.210797727108001709e-01 4.178123921155929565e-02 -1.080570556223392487e-02 4.856760147958993912e-03 7.499246299266815186e-02 -3.145369142293930054e-02 -3.600665554404258728e-02 1.071303933858871460e-01 -1.890526115894317627e-01 -1.968749314546585083e-01 2.764635533094406128e-02 -1.482231616973876953e-01 -2.282927744090557098e-02 5.627673119306564331e-02 1.610005833208560944e-02 -7.401967421174049377e-03 -3.254067897796630859e-02 1.086439266800880432e-01 -7.046165317296981812e-02 1.220952719449996948e-01 8.310146629810333252e-02 5.897516757249832153e-02 3.338691964745521545e-02 6.423030793666839600e-02 -3.861000016331672668e-02 6.383085250854492188e-02 6.847010552883148193e-02 -2.720935344696044922e-01 -7.421425729990005493e-02 1.220046654343605042e-01 1.768927425146102905e-01 -3.277525305747985840e-02 -1.051095575094223022e-01 -1.404555141925811768e-02 6.547684967517852783e-02 -9.210454672574996948e-02 -3.501129895448684692e-02 8.151574060320854187e-03 1.702319234609603882e-01 -1.122946515679359436e-01 5.424332246184349060e-02 3.592199832201004028e-02 1.605207771062850952e-01 6.954231113195419312e-02 5.870474874973297119e-02 -5.518229212611913681e-03 -1.252173632383346558e-01 1.278935670852661133e-01 -9.054964035749435425e-02 1.154404785484075546e-02 -6.745276600122451782e-02 5.182846635580062866e-02 6.219780817627906799e-02 1.142077520489692688e-01 -2.261304408311843872e-01 -1.518306583166122437e-01 5.701583251357078552e-02 -1.470328308641910553e-02 -1.893521398305892944e-01 -9.525684267282485962e-02 -2.845592796802520752e-02 -1.115404218435287476e-01 -2.492299489676952362e-02 -6.345281004905700684e-02 -2.924519777297973633e-02 5.574117600917816162e-02 -3.834689408540725708e-02 -8.421041816473007202e-02 6.064030155539512634e-02 1.341293454170227051e-01 -7.443119585514068604e-02 -3.377109766006469727e-02 -2.287435233592987061e-01 -1.643134653568267822e-01 -7.097724080085754395e-02 6.529751420021057129e-02 5.521764606237411499e-02 8.679369837045669556e-02 6.525787711143493652e-02 -3.967458009719848633e-02 -1.019515376538038254e-02 -6.389610469341278076e-02 1.837989501655101776e-02 4.442751780152320862e-02 -1.414507776498794556e-01 -1.608142256736755371e-02 9.113988280296325684e-02 2.057926356792449951e-01 1.495793014764785767e-01 6.692529469728469849e-02 -7.082051783800125122e-02 -6.761160213500261307e-03 2.651720941066741943e-01 7.633724063634872437e-02 -1.351636201143264771e-01 -2.879370935261249542e-02 -2.021946460008621216e-01 1.254198048263788223e-02 -1.391561585478484631e-03 -4.524799529463052750e-03 -5.635887384414672852e-02 4.031415656208992004e-02 -1.252869218587875366e-01 -4.333995282649993896e-02 -5.707420781254768372e-02 1.198703944683074951e-01 -1.211979240179061890e-01 3.079521842300891876e-02 1.111315563321113586e-01 9.039921313524246216e-02 7.977008819580078125e-02 -5.541052669286727905e-03 -7.945567369461059570e-02 2.991787903010845184e-02 2.365322262048721313e-01 8.722010254859924316e-02 7.484021782875061035e-02 -1.821693181991577148e-01 1.625051535665988922e-02 -8.487219363451004028e-02 4.221094027161598206e-02 2.612191811203956604e-02 -1.685024052858352661e-01 1.008082702755928040e-01 8.648613095283508301e-02 1.888243556022644043e-01 -6.015714630484580994e-02 3.853933513164520264e-02 2.491795271635055542e-02 5.108745535835623741e-04 -1.930307000875473022e-01 8.426363021135330200e-02 -2.106642127037048340e-01 -1.697324812412261963e-01 1.458586286753416061e-02 -8.548653125762939453e-02 2.016104459762573242e-01 1.890717297792434692e-01 -2.284438163042068481e-02 -2.901308052241802216e-02 -8.678373694419860840e-02 1.540447324514389038e-01 2.155979126691818237e-01 -1.124842762947082520e-01 -2.540171612054109573e-03 -2.569382190704345703e-01 9.759834967553615570e-03 4.552021250128746033e-02 1.844529509544372559e-01 9.049148857593536377e-02 1.119211390614509583e-01 5.125506222248077393e-02 1.394729763269424438e-01 -8.580431342124938965e-02 -3.742586076259613037e-02 1.064281612634658813e-01 9.211841225624084473e-02 -8.835154771804809570e-02 4.040846601128578186e-02 7.010775152593851089e-03 -9.381596744060516357e-02 -1.277594119310379028e-01 1.173274889588356018e-01 -3.454779833555221558e-02 6.957779079675674438e-02 1.110584884881973267e-01 2.612620592117309570e-02 1.642155349254608154e-01 -1.040455698966979980e-01 -1.410912573337554932e-01 -8.058453351259231567e-02 7.999691367149353027e-02 -7.313835620880126953e-02 1.067915465682744980e-02 -3.301284834742546082e-02 -8.888531476259231567e-02 3.916772827506065369e-02 -1.574909687042236328e-01 -4.495419189333915710e-02 -4.787301644682884216e-02 -1.145278885960578918e-01 -1.225708052515983582e-01 -1.121014133095741272e-01 2.086601257324218750e-01 2.860607951879501343e-02 -3.189343214035034180e-02 -7.874622941017150879e-02 -6.825611740350723267e-02 1.917851902544498444e-02 -1.755137443542480469e-01 2.490308508276939392e-02 -4.924390092492103577e-02 6.301344931125640869e-02 8.516418188810348511e-02 -1.089602708816528320e-01 3.775998717173933983e-03 -4.126374144107103348e-03 -1.251679360866546631e-01 9.729293733835220337e-02 9.979665279388427734e-02 1.024070754647254944e-01 -4.230611026287078857e-02 -6.841503549367189407e-03 -3.583931922912597656e-02 1.023410260677337646e-01 1.419284045696258545e-01 -1.361944824457168579e-01 1.397319287061691284e-01 4.074733331799507141e-02 1.260184049606323242e-01 1.460464112460613251e-02 -1.003283932805061340e-01 -7.255603373050689697e-02 -3.544075787067413330e-02 3.410342335700988770e-02 5.593269318342208862e-02 1.240935027599334717e-01 2.225874550640583038e-02 2.176915854215621948e-01 -2.699681222438812256e-01 6.599982082843780518e-02
