7.503005117177963257e-02 5.441961064934730530e-02 1.330807209014892578e-01 2.848343253135681152e-01 4.006151854991912842e-01 1.060139387845993042e-01 2.942710816860198975e-01 -4.578909575939178467e-01 -7.544300053268671036e-03 -2.193797007203102112e-02 -5.523176863789558411e-02 1.894859224557876587e-01 6.245787143707275391e-01 4.274717271327972412e-01 -4.241107404232025146e-02 8.116716146469116211e-02 -2.040422707796096802e-02 1.744896173477172852e-01 -3.780519664287567139e-01 -4.293203726410865784e-02 4.772020280361175537e-01 2.790157496929168701e-02 5.331016704440116882e-02 1.520550996065139771e-02 2.432812750339508057e-02 -3.434778004884719849e-02 2.627335861325263977e-02 1.711524464190006256e-02 -4.562441632151603699e-02
-4.097913503646850586e-01 1.292729079723358154e-01 -9.212833642959594727e-02 5.899222567677497864e-02 -6.776725649833679199e-01 -8.823896944522857666e-02 2.283487468957901001e-01 -1.082100868225097656e-01 1.778676658868789673e-01 -3.077412582933902740e-02 1.523397415876388550e-01 1.074178218841552734e-01 -5.286847800016403198e-02 -1.121851652860641479e-01 1.321830451488494873e-01 -1.634930670261383057e-01 2.269258350133895874e-01 5.429408550262451172e-01 -1.497554183006286621e-01 3.850338608026504517e-02 1.453290432691574097e-01 -1.774394661188125610e-01 6.920520961284637451e-02 -1.983499852940440178e-03 2.420629560947418213e-02 2.399792335927486420e-02 3.246897459030151367e-02 1.414653233950957656e-04 -1.910383440554141998e-02
-3.400389552116394043e-01 -4.354065060615539551e-01 -1.123294234275817871e-03 4.877448547631502151e-03 -1.452420800924301147e-01 -2.042083889245986938e-01 -2.213722318410873413e-01 1.922276169061660767e-01 -1.688373237848281860e-01 -9.409976750612258911e-02 9.778089821338653564e-02 3.627035319805145264e-01 -5.042143464088439941e-01 -4.427421987056732178e-01 8.559798449277877808e-02 2.318955063819885254e-01 1.024099960923194885e-01 2.523924410343170166e-01 -6.848315149545669556e-02 8.400809764862060547e-02 2.253493219614028931e-01 -2.079170346260070801e-01 8.627019077539443970e-02 -3.428913280367851257e-02 1.266795024275779724e-02 -8.129510097205638885e-03 2.995755523443222046e-02 1.419176440685987473e-02 -3.669034317135810852e-02
8.492528647184371948e-02 1.718696653842926025e-01 -2.329837679862976074e-01 7.100171595811843872e-02 -1.657934486865997314e-01 7.407587021589279175e-02 -1.175971627235412598e-01 -6.279599666595458984e-01 -4.917246848344802856e-02 -1.682063639163970947e-01 -8.327221125364303589e-02 -4.812767505645751953e-01 3.257668614387512207e-01 -6.445773690938949585e-02 9.947553277015686035e-02 -3.979735672473907471e-01 -5.374320745468139648e-01 -1.436408609151840210e-01 -3.201189041137695312e-01 1.412431001663208008e-01 -5.096218362450599670e-02 2.227477580308914185e-01 1.394608467817306519e-01 2.716861478984355927e-02 2.078677155077457428e-02 -2.021631458774209023e-03 -1.747296191751956940e-02 6.613627076148986816e-03 -4.539101943373680115e-02
2.721664309501647949e-02 -3.622748851776123047e-01 -5.735295359045267105e-03 1.418821513652801514e-01 -9.015117585659027100e-02 4.070688039064407349e-02 2.005830854177474976e-01 -3.510829806327819824e-02 -1.415195763111114502e-01 2.499564737081527710e-02 1.262209266424179077e-01 -7.302448898553848267e-02 -2.313674241304397583e-01 -6.272242870181798935e-03 5.893932580947875977e-01 -1.964477300643920898e-01 -4.137252271175384521e-01 -1.913755089044570923e-01 4.152292013168334961e-01 1.490101870149374008e-02 7.574083805084228516e-01 2.468256056308746338e-01 1.286894921213388443e-02 2.616943418979644775e-02 -2.729902788996696472e-02 8.092518150806427002e-02 -3.214408829808235168e-02 4.363878688309341669e-04 -1.364925056695938110e-01
9.986726194620132446e-02 -6.406012773513793945e-01 1.492211967706680298e-01 -8.479221723973751068e-03 -1.704208254814147949e-01 1.358027160167694092e-01 4.142352938652038574e-02 2.582183778285980225e-01 9.218312054872512817e-02 -1.195687353610992432e-01 4.853582009673118591e-02 -1.434506922960281372e-01 -2.213019430637359619e-01 1.159437373280525208e-01 -7.690205425024032593e-02 1.618271507322788239e-02 -6.005503609776496887e-02 -7.999507784843444824e-01 5.566986203193664551e-01 1.128671765327453613e-01 -1.949215233325958252e-01 -2.025923132896423340e-01 9.304183721542358398e-02 7.921156473457813263e-03 -1.767557114362716675e-02 -7.157957646995782852e-03 1.233819290064275265e-03 -1.280958415009081364e-03 -8.867308497428894043e-02
-7.296620607376098633e-01 8.338302373886108398e-02 -6.100813746452331543e-01 -1.042742878198623657e-01 -5.207982063293457031e-01 -1.490911692380905151e-01 -8.597985655069351196e-02 -1.007590442895889282e-01 -1.093999892473220825e-01 1.724247932434082031e-01 1.601968891918659210e-02 -3.714335560798645020e-01 -6.948428153991699219e-01 -3.478547632694244385e-01 4.045388102531433105e-01 -1.454742103815078735e-01 -3.667064905166625977e-01 -5.888469219207763672e-01 2.056685835123062134e-02 -1.362003833055496216e-01 1.098049655556678772e-01 -2.107743173837661743e-02 -1.859635114669799805e-01 1.967010647058486938e-02 -1.091189123690128326e-02 1.476206630468368530e-01 -7.579984515905380249e-02 4.947922006249427795e-02 1.006129477173089981e-02
-3.383307158946990967e-01 3.180586099624633789e-01 9.066780656576156616e-02 -7.071574777364730835e-02 -1.324525177478790283e-01 -1.214686594903469086e-02 -2.715592980384826660e-01 1.747711896896362305e-01 -9.038391709327697754e-02 1.416736245155334473e-01 1.530289798974990845e-01 2.912735342979431152e-01 3.519628643989562988e-01 3.182708621025085449e-01 1.329351812601089478e-01 -3.561510145664215088e-01 -8.153191953897476196e-02 -1.436659842729568481e-01 -3.053776174783706665e-02 2.186186909675598145e-01 -4.875583946704864502e-02 -8.613777905702590942e-02 2.411383241415023804e-01 -3.600753843784332275e-02 4.676541686058044434e-02 -2.682220377027988434e-02 -1.274973247200250626e-02 -3.062852844595909119e-02 -4.324921220541000366e-02
1.661323904991149902e-01 4.553219377994537354e-01 -2.209758460521697998e-01 -9.210218489170074463e-02 -1.467418074607849121e-01 -2.846543788909912109e-01 1.421884596347808838e-01 2.821621596813201904e-01 3.406263142824172974e-02 -1.575752645730972290e-01 8.411391079425811768e-02 -2.871093750000000000e-01 1.077705249190330505e-01 -1.784788072109222412e-01 -6.291826963424682617e-01 2.513329088687896729e-01 1.376286894083023071e-01 -6.000047922134399414e-01 -4.407563209533691406e-01 3.739837929606437683e-02 -3.210189044475555420e-01 2.136203646659851074e-01 -7.127074152231216431e-02 9.560382459312677383e-04 -2.351002069190144539e-03 1.706807315349578857e-02 -1.222196966409683228e-02 -2.255031606182456017e-03 7.327272742986679077e-02
1.886636391282081604e-02 1.485075801610946655e-01 -2.019947618246078491e-01 5.566922575235366821e-02 -5.240135639905929565e-02 -3.772494494915008545e-01 -6.184108182787895203e-02 -5.664927139878273010e-02 1.804462820291519165e-01 1.794428080320358276e-01 -6.968759745359420776e-02 -4.034257829189300537e-01 3.723335862159729004e-01 3.442095220088958740e-01 1.819099187850952148e-01 -4.956746101379394531e-01 1.466250121593475342e-01 1.114045530557632446e-01 3.056533038616180420e-01 4.552685841917991638e-02 4.277877211570739746e-01 -3.122010827064514160e-01 3.199566304683685303e-01 1.580922119319438934e-02 3.229699283838272095e-02 7.077113538980484009e-02 2.298508584499359131e-02 -3.857970004901289940e-03 2.804880402982234955e-02
1.292174160480499268e-01 -8.225080966949462891e-01 2.257640659809112549e-02 1.651186347007751465e-01 1.181981265544891357e-01 1.430996656417846680e-01 -6.062844395637512207e-02 -4.537792205810546875e-01 -8.833242207765579224e-02 -1.274932771921157837e-01 1.062304899096488953e-01 3.366608619689941406e-01 -3.700084388256072998e-01 -3.671329617500305176e-01 1.499727368354797363e-01 1.430445909500122070e-01 1.313032358884811401e-01 5.436018109321594238e-01 2.603064849972724915e-02 6.528842449188232422e-02 6.483283042907714844e-01 -7.700994014739990234e-01 -2.053244709968566895e-01 -2.837810292840003967e-02 -3.081823699176311493e-02 -3.857427090406417847e-02 -6.365177687257528305e-04 1.628671772778034210e-02 1.568135991692543030e-02
-2.051688283681869507e-01 -3.775036633014678955e-01 3.498472273349761963e-02 -4.043111205101013184e-01 1.204322576522827148e-01 -8.398716151714324951e-02 3.811397850513458252e-01 -2.448901236057281494e-01 -3.274261951446533203e-02 8.079771697521209717e-02 5.610563233494758606e-02 3.224168717861175537e-01 2.533536776900291443e-02 -2.276299707591533661e-02 -5.432971119880676270e-01 -1.446255445480346680e-01 1.398987919092178345e-01 3.771488368511199951e-01 -5.254678726196289062e-01 1.486453507095575333e-02 -6.642887592315673828e-01 1.051734834909439087e-01 -2.177245318889617920e-01 1.591325039044022560e-03 -1.333621796220541000e-02 -9.504572488367557526e-03 -1.676724478602409363e-02 -7.650292944163084030e-03 2.588141011074185371e-03
3.676733374595642090e-01 -4.488437175750732422e-01 2.150880396366119385e-01 6.120699644088745117e-02 2.387505620718002319e-01 7.848341763019561768e-02 1.304074674844741821e-01 -4.314560294151306152e-01 4.790171049535274506e-03 -1.208710521459579468e-01 -1.783970445394515991e-01 2.423941940069198608e-01 -1.413748711347579956e-01 -4.382806420326232910e-01 -3.576037585735321045e-01 3.756061494350433350e-01 -3.133414089679718018e-01 1.581304073333740234e-01 -3.658730685710906982e-01 -2.972718477249145508e-01 -4.477390646934509277e-02 6.607370972633361816e-01 1.481079310178756714e-01 3.478910773992538452e-02 8.566536009311676025e-03 -4.279215261340141296e-02 -7.056010421365499496e-03 4.072656109929084778e-02 -1.645927876234054565e-02
2.166678011417388916e-01 -3.772402405738830566e-01 -3.293706178665161133e-01 1.987883746623992920e-01 5.800082907080650330e-02 2.795212566852569580e-01 3.042972832918167114e-02 -2.912697494029998779e-01 1.316823363304138184e-01 -1.167288795113563538e-01 1.244635730981826782e-01 1.739393919706344604e-01 1.083623245358467102e-01 4.291851520538330078e-01 -5.204985663294792175e-02 4.303609430789947510e-01 5.195499062538146973e-01 3.744680583477020264e-01 2.789235711097717285e-01 2.394272983074188232e-01 -2.455901503562927246e-01 1.674067080020904541e-01 7.722888886928558350e-02 3.842777758836746216e-02 3.929099813103675842e-02 5.853050574660301208e-02 3.855439275503158569e-02 -3.272408619523048401e-02 -4.312381893396377563e-02
-3.824236989021301270e-01 1.234097853302955627e-01 3.546390235424041748e-01 -1.787078827619552612e-01 -1.752123236656188965e-01 -3.546331822872161865e-02 5.133686661720275879e-01 2.530866563320159912e-01 7.704757899045944214e-02 -1.089475378394126892e-01 3.509050933644175529e-03 -2.321505546569824219e-01 -2.554999887943267822e-01 -1.482055187225341797e-01 2.309676408767700195e-01 4.062975347042083740e-01 4.393543303012847900e-01 -4.540919363498687744e-01 -3.235935568809509277e-01 1.669916361570358276e-01 -1.375172734260559082e-01 -9.973769634962081909e-02 2.641488313674926758e-01 5.786221008747816086e-03 2.774114906787872314e-02 -2.337729791179299355e-03 2.711298130452632904e-02 2.114965766668319702e-02 -5.298086442053318024e-03
3.526840507984161377e-01 -4.328437745571136475e-01 -3.054811954498291016e-01 1.323741376399993896e-01 -3.470517112873494625e-04 -2.700990140438079834e-01 4.243662208318710327e-02 -2.685746848583221436e-01 9.059657156467437744e-02 9.263998270034790039e-02 3.366546705365180969e-02 4.592692255973815918e-01 1.802924424409866333e-01 2.100287377834320068e-01 9.827512502670288086e-02 7.382157444953918457e-01 3.338991403579711914e-01 5.912247896194458008e-01 3.843651115894317627e-01 -1.395463943481445312e-01 5.355962738394737244e-02 6.884367465972900391e-01 3.133545815944671631e-01 4.796069860458374023e-02 8.015296421945095062e-03 8.361222594976425171e-02 -4.875562712550163269e-02 -1.207424886524677277e-02 3.287540748715400696e-02
8.653622120618820190e-02 3.529524058103561401e-02 4.648727551102638245e-02 2.272320091724395752e-01 6.783058494329452515e-02 3.981437161564826965e-02 -1.932069808244705200e-01 3.876997232437133789e-01 1.516015529632568359e-01 -4.611419513821601868e-02 -6.079755350947380066e-02 3.654367923736572266e-01 -2.043151110410690308e-01 3.601560592651367188e-01 -8.039568364620208740e-02 1.940476894378662109e-01 1.509666591882705688e-01 -7.271304726600646973e-02 1.385334283113479614e-01 2.766192555427551270e-01 -5.066969618201255798e-02 -4.186698496341705322e-01 -3.278493881225585938e-02 -3.997737914323806763e-02 -7.365116477012634277e-02 -1.078042387962341309e-01 -1.629036851227283478e-02 -3.598864004015922546e-02 -8.502472192049026489e-02
4.790604114532470703e-01 -1.822218447923660278e-01 -1.767650395631790161e-01 1.788898408412933350e-01 1.995364427566528320e-01 2.785016894340515137e-01 5.125461220741271973e-01 -1.382225900888442993e-01 1.724861115217208862e-01 -8.402614295482635498e-02 1.528045814484357834e-02 -1.163851991295814514e-01 2.400508383288979530e-03 -7.872339338064193726e-02 2.747942507266998291e-01 1.752108633518218994e-01 8.999977260828018188e-02 5.804735422134399414e-01 8.060722798109054565e-02 -1.849532574415206909e-01 1.006671562790870667e-01 -1.818431168794631958e-02 1.054726094007492065e-01 -1.839684991864487529e-04 2.080165222287178040e-02 -4.628293216228485107e-02 -3.634421853348612785e-03 3.824788704514503479e-02 7.276419084519147873e-03
9.720116108655929565e-02 2.036895975470542908e-02 -2.345934212207794189e-01 -2.432561963796615601e-01 3.577461540699005127e-01 3.389716446399688721e-01 8.749412745237350464e-02 5.504038333892822266e-01 -6.230313703417778015e-02 -1.503512822091579437e-02 -1.158625725656747818e-02 1.357324272394180298e-01 -1.260616481304168701e-01 2.520697116851806641e-01 3.580044209957122803e-01 4.399095773696899414e-01 2.901344001293182373e-01 3.296798467636108398e-01 -2.980335950851440430e-01 -8.047824352979660034e-02 1.079105138778686523e-01 -2.808873355388641357e-01 -2.269797325134277344e-01 1.697188615798950195e-02 1.593579724431037903e-02 -6.524483114480972290e-02 -2.419107593595981598e-02 2.882129140198230743e-02 -6.390073895454406738e-02
-1.514509916305541992e-01 -3.782437443733215332e-01 9.855562448501586914e-02 1.748478412628173828e-02 -3.541599214076995850e-02 1.690048128366470337e-01 2.151593863964080811e-01 4.833110272884368896e-01 4.943599551916122437e-02 5.966188758611679077e-02 8.159184455871582031e-02 4.279704988002777100e-01 -2.874193787574768066e-01 2.716767229139804840e-02 -4.010864496231079102e-01 5.435619950294494629e-01 2.808849513530731201e-01 2.416626065969467163e-01 -8.330231904983520508e-01 -1.662139147520065308e-01 -4.060162976384162903e-02 1.117561236023902893e-01 8.286029100418090820e-03 4.878836218267679214e-03 -2.684458158910274506e-02 5.656512081623077393e-02 -9.081151336431503296e-03 2.363660000264644623e-02 1.300546247512102127e-02
-1.256820708513259888e-01 -2.102088034152984619e-01 -4.701957702636718750e-01 4.890125989913940430e-02 -5.356545448303222656e-01 1.859028339385986328e-01 -4.873360097408294678e-01 1.248030513525009155e-01 -1.271115541458129883e-01 2.101828157901763916e-01 1.786946058273315430e-01 3.915027379989624023e-01 -4.270990192890167236e-01 -1.359688788652420044e-01 4.734397307038307190e-02 -6.978084146976470947e-02 1.072808355093002319e-01 6.988225579261779785e-01 -3.174619972705841064e-01 5.995490122586488724e-03 -2.490199059247970581e-01 -3.618686497211456299e-01 -1.588146239519119263e-01 -1.830913871526718140e-02 6.493591237813234329e-03 3.104888089001178741e-02 3.203608468174934387e-02 1.508396677672863007e-02 2.507811412215232849e-02
-1.845912784337997437e-01 2.147262841463088989e-01 1.168427169322967529e-01 3.202101886272430420e-01 -1.238191723823547363e-01 1.912461966276168823e-01 -1.029792875051498413e-01 -3.745498657226562500e-01 1.593755036592483521e-01 -5.416893959045410156e-02 -1.833073645830154419e-01 -4.215257167816162109e-01 -3.176775574684143066e-01 -1.241432130336761475e-01 5.410021543502807617e-01 2.905780375003814697e-01 4.774466529488563538e-02 -5.396734476089477539e-01 2.862315773963928223e-01 -4.773556441068649292e-02 7.044150233268737793e-01 8.816814981400966644e-03 1.210832521319389343e-01 6.300067156553268433e-02 2.478578314185142517e-02 1.640146970748901367e-02 -2.408611774444580078e-02 -2.404906228184700012e-02 -4.615189507603645325e-02
-2.562885582447052002e-01 2.071479856967926025e-01 2.867818176746368408e-01 2.993704006075859070e-02 2.114515900611877441e-01 -4.767571762204170227e-02 -4.084559977054595947e-01 -5.268369987607002258e-02 -1.297636423259973526e-02 1.161411404609680176e-01 1.634799242019653320e-01 -1.032168790698051453e-01 1.538528967648744583e-02 -3.755979835987091064e-01 -2.720884233713150024e-02 -1.486226767301559448e-01 -1.430492997169494629e-01 -1.559649873524904251e-02 9.382701665163040161e-02 -2.193731367588043213e-01 -1.269371956586837769e-01 -6.543790102005004883e-01 8.266941457986831665e-02 2.130930079147219658e-04 6.539261434227228165e-03 2.231967635452747345e-02 -8.589841425418853760e-03 -2.923297462984919548e-03 -7.223673909902572632e-02
2.985098659992218018e-01 3.822126090526580811e-01 2.199280411005020142e-01 2.445612698793411255e-01 1.143087297677993774e-01 3.745944201946258545e-01 6.509972810745239258e-01 -3.834115266799926758e-01 1.007167249917984009e-01 -1.842197626829147339e-01 4.174092411994934082e-02 5.929696932435035706e-02 3.526400029659271240e-01 3.338939547538757324e-01 -3.123018741607666016e-01 -2.570393681526184082e-01 2.568669021129608154e-01 3.427485525608062744e-01 -4.707456529140472412e-01 -1.054972857236862183e-01 -6.882538199424743652e-01 3.484098613262176514e-02 -3.559306263923645020e-02 7.135122269392013550e-02 -3.752658888697624207e-02 2.112937509082257748e-04 2.516007795929908752e-02 -3.176148980855941772e-02 1.012625470757484436e-01
4.545448347926139832e-02 -7.125567793846130371e-01 5.228397250175476074e-02 1.302645951509475708e-01 5.333985202014446259e-03 1.871918886899948120e-01 -1.232299283146858215e-01 3.683131039142608643e-01 -2.979813702404499054e-02 -1.232201680541038513e-01 -8.432943373918533325e-02 -5.986768007278442383e-02 1.961750388145446777e-01 -5.199733003973960876e-02 -4.102363884449005127e-01 -4.280954599380493164e-02 -4.605983793735504150e-01 -2.313360273838043213e-01 2.532026767730712891e-01 2.600472271442413330e-01 -6.608948111534118652e-01 1.958970911800861359e-02 1.593066900968551636e-01 7.005647290498018265e-03 1.377110136672854424e-03 -1.184733398258686066e-02 6.732547283172607422e-02 3.172630676999688148e-03 -9.733748435974121094e-02
2.154057621955871582e-01 3.518195822834968567e-02 -1.712175309658050537e-01 7.956930249929428101e-02 -5.182834714651107788e-02 -1.176012009382247925e-01 4.058959782123565674e-01 -1.096023842692375183e-01 -6.033234298229217529e-03 -1.575999706983566284e-02 2.330821193754673004e-02 2.966057062149047852e-01 2.100802361965179443e-01 -3.797484561800956726e-02 4.148345589637756348e-01 -3.145312964916229248e-01 -2.868665754795074463e-02 7.080494165420532227e-01 4.999690055847167969e-01 -2.766254544258117676e-01 1.110280826687812805e-01 -1.024531871080398560e-01 -1.368370205163955688e-01 -7.609562575817108154e-02 7.702983915805816650e-02 -4.464358091354370117e-03 2.975125983357429504e-02 -1.216169632971286774e-02 2.521796384826302528e-03
-2.480190992355346680e-01 -4.821323752403259277e-01 2.708057165145874023e-01 1.097250506281852722e-01 3.812972903251647949e-01 1.929578036069869995e-01 9.842185676097869873e-02 1.956035047769546509e-01 3.465749695897102356e-02 5.396260693669319153e-02 1.818406432867050171e-01 -2.673031389713287354e-01 -1.447352580726146698e-02 4.793576896190643311e-02 6.425649523735046387e-01 1.094921752810478210e-01 -2.134992629289627075e-01 -3.007086515426635742e-01 -5.311813205480575562e-02 -5.733769387006759644e-02 9.038009643554687500e-01 1.169456988573074341e-01 -1.416221410036087036e-01 -3.101170994341373444e-02 -3.208622708916664124e-02 -3.757640719413757324e-02 4.029775410890579224e-02 4.698289092630147934e-03 6.890149414539337158e-02
2.508822679519653320e-01 -3.819529116153717041e-01 2.727941982448101044e-02 -2.746365964412689209e-01 4.350042343139648438e-01 -1.998867280781269073e-02 1.347717195749282837e-01 6.316266655921936035e-01 4.863266646862030029e-02 -8.179822564125061035e-02 1.133515462279319763e-01 -2.067754417657852173e-01 8.796668052673339844e-02 -2.492457330226898193e-01 -4.382079541683197021e-01 -1.840836852788925171e-01 -3.248609900474548340e-01 -5.023694410920143127e-02 -4.066113010048866272e-02 1.830231398344039917e-01 -4.474728107452392578e-01 1.642109602689743042e-01 6.458569318056106567e-02 9.109168313443660736e-03 -5.358984693884849548e-03 1.413934864103794098e-02 -9.558618068695068359e-03 2.123849652707576752e-02 -1.496475189924240112e-02
-1.383285969495773315e-01 -7.396170496940612793e-02 -2.709101140499114990e-01 4.348068684339523315e-02 8.492806553840637207e-02 1.112444251775741577e-01 -2.321256250143051147e-01 -4.791448414325714111e-01 -8.442196249961853027e-02 4.597198963165283203e-02 -9.360989928245544434e-02 -3.247607648372650146e-01 -4.820799529552459717e-01 -4.128423631191253662e-01 3.487881124019622803e-01 -2.405500710010528564e-01 5.208200961351394653e-02 1.937545537948608398e-01 -1.061621904373168945e-01 3.026708960533142090e-02 -7.176051288843154907e-02 -6.351069211959838867e-01 -2.962357401847839355e-01 6.163370329886674881e-03 3.477161377668380737e-02 -3.856831043958663940e-02 -1.549668260850012302e-03 3.146212175488471985e-02 1.006108708679676056e-02
1.309617906808853149e-01 2.231327146291732788e-01 1.934238523244857788e-01 -8.808999508619308472e-02 -1.444416493177413940e-01 2.193607836961746216e-01 -2.272203564643859863e-02 -7.770799100399017334e-03 1.879075020551681519e-01 1.311632394790649414e-01 -1.674457341432571411e-01 -5.005567669868469238e-01 2.547870874404907227e-01 4.034952223300933838e-01 1.152712628245353699e-01 3.563589155673980713e-01 2.999244630336761475e-01 -2.847809195518493652e-01 4.155391827225685120e-02 4.843589961528778076e-01 1.972462385892868042e-01 7.823632098734378815e-03 -7.106702029705047607e-02 2.363520301878452301e-02 6.686474662274122238e-03 3.362599760293960571e-02 5.220529437065124512e-02 1.863726065494120121e-03 7.352543622255325317e-02
-4.978215321898460388e-02 1.104664355516433716e-01 1.934587955474853516e-01 1.533204466104507446e-01 2.482976317405700684e-01 -2.528480589389801025e-01 -3.999343886971473694e-02 5.756977796554565430e-01 8.113595098257064819e-02 -2.427025511860847473e-02 2.885374240577220917e-02 3.030089288949966431e-02 -2.222623527050018311e-01 -3.536357283592224121e-01 -5.264273285865783691e-01 1.392228305339813232e-01 -9.325676411390304565e-02 -1.481326818466186523e-01 1.331818997859954834e-01 2.525691390037536621e-01 -5.577856898307800293e-01 -3.868640065193176270e-01 1.527834590524435043e-02 6.019993452355265617e-04 -1.587699726223945618e-02 7.006567716598510742e-02 -8.674505166709423065e-03 1.868473924696445465e-02 -1.020759567618370056e-01
2.370647042989730835e-01 3.067879974842071533e-01 -6.164784729480743408e-02 1.847123354673385620e-01 -5.171182379126548767e-02 -5.235806480050086975e-02 -3.376823663711547852e-02 -1.762246787548065186e-01 1.014260649681091309e-01 3.568642586469650269e-02 -8.207568526268005371e-02 5.223783850669860840e-01 2.225994467735290527e-01 4.891385436058044434e-01 -4.541280567646026611e-01 3.290319442749023438e-01 5.794551968574523926e-01 1.306690275669097900e-01 4.355449229478836060e-03 1.500888317823410034e-01 -3.649754226207733154e-01 4.596764743328094482e-01 2.436643391847610474e-01 3.923904523253440857e-02 -4.791386052966117859e-02 -2.139974571764469147e-02 -1.323785446584224701e-02 -3.963935375213623047e-02 3.248780965805053711e-02
-2.334762364625930786e-01 2.716782987117767334e-01 3.051788210868835449e-01 1.550102829933166504e-01 3.351796269416809082e-01 -1.275422796607017517e-02 -9.564539790153503418e-02 5.170941725373268127e-02 1.480398476123809814e-01 1.191859617829322815e-01 -1.460549533367156982e-01 -5.771166086196899414e-01 2.974061965942382812e-01 3.565947711467742920e-01 1.260832995176315308e-01 -3.149113655090332031e-01 -2.978797852993011475e-01 7.487610727548599243e-02 4.041239619255065918e-01 -2.217577546834945679e-01 8.328978717327117920e-02 3.123863041400909424e-01 3.914331197738647461e-01 5.001925677061080933e-02 -5.848115310072898865e-02 5.138376355171203613e-02 -7.562980055809020996e-03 -2.617633435875177383e-03 1.693642698228359222e-02
4.130340814590454102e-01 6.134398654103279114e-02 -1.920954883098602295e-01 3.787697479128837585e-02 -4.847455769777297974e-03 -6.215204298496246338e-02 -8.639605343341827393e-02 -7.745438814163208008e-02 1.352799683809280396e-01 2.350618243217468262e-01 -1.785205006599426270e-01 -3.475497663021087646e-02 4.629626274108886719e-01 5.665812492370605469e-01 1.278196275234222412e-01 -1.667507141828536987e-01 -8.248519734479486942e-04 -1.319326907396316528e-01 1.877532750368118286e-01 3.675827682018280029e-01 8.379165828227996826e-02 6.616679430007934570e-01 -3.177601099014282227e-01 6.773568689823150635e-03 -3.123115189373493195e-02 6.461872160434722900e-02 -4.104588180780410767e-03 -3.687192127108573914e-02 3.257966414093971252e-02
-4.305706173181533813e-02 -6.656008362770080566e-01 -2.707658410072326660e-01 2.230708450078964233e-01 -3.801909089088439941e-01 -9.888915717601776123e-02 -3.264963030815124512e-01 3.901650011539459229e-01 3.261507302522659302e-02 2.433710731565952301e-02 -1.450777947902679443e-01 3.245125338435173035e-02 -5.504465699195861816e-01 8.042550832033157349e-02 9.504280984401702881e-02 -9.599557518959045410e-02 1.429950743913650513e-01 7.428503781557083130e-02 5.237069353461265564e-02 -1.062939018011093140e-01 4.802170395851135254e-02 -4.175619482994079590e-01 1.113415230065584183e-02 -7.123220246285200119e-03 -3.779578953981399536e-02 1.624615117907524109e-02 -1.131929550319910049e-02 -8.046841248869895935e-03 -6.764899007976055145e-03
1.944843679666519165e-01 -1.246332079172134399e-01 1.652966439723968506e-01 -6.074313074350357056e-02 -7.186976820230484009e-02 2.494132965803146362e-01 -1.770620197057723999e-01 4.086778461933135986e-01 -5.638500303030014038e-02 -1.293228715658187866e-01 5.101308599114418030e-02 -1.958431303501129150e-01 -6.448663026094436646e-02 3.554110527038574219e-01 6.069445013999938965e-01 2.051740139722824097e-01 -9.987193346023559570e-02 -8.803744614124298096e-02 4.504192173480987549e-01 1.140426918864250183e-01 4.921314716339111328e-01 -5.614420771598815918e-01 -9.995845705270767212e-02 8.090563933365046978e-04 5.844310391694307327e-03 -7.499595172703266144e-03 3.861377248540520668e-03 -4.767765756696462631e-03 -1.901228539645671844e-02
1.308177262544631958e-01 -2.584967613220214844e-01 -1.707497537136077881e-01 -4.653999954462051392e-02 -5.577691644430160522e-02 6.116073578596115112e-02 3.165026903152465820e-01 1.406561434268951416e-01 7.119192159734666348e-04 -1.919352076947689056e-02 -7.197986543178558350e-02 7.982762157917022705e-02 -3.996469378471374512e-01 -4.440644383430480957e-01 3.725218176841735840e-01 1.219714581966400146e-01 -4.186834394931793213e-01 6.613136082887649536e-02 3.448620140552520752e-01 -5.587690323591232300e-02 1.160169765353202820e-02 1.114884093403816223e-01 -3.771678805351257324e-01 1.184819862246513367e-01 9.767164289951324463e-02 1.856302022933959961e-01 7.350720465183258057e-02 -1.323218829929828644e-02 -1.728338152170181274e-01
-1.038524359464645386e-01 -3.524340391159057617e-01 -9.732297062873840332e-02 -1.898648589849472046e-01 -3.197270259261131287e-02 2.259419113397598267e-01 -1.163642033934593201e-01 5.659741163253784180e-02 2.001726813614368439e-02 4.032687842845916748e-02 1.295051425695419312e-01 2.737112343311309814e-01 -3.422212004661560059e-01 6.493632793426513672e-01 -1.658785045146942139e-01 -3.209051117300987244e-02 7.695295810699462891e-01 1.091543138027191162e-01 -2.919159233570098877e-01 1.398069262504577637e-01 -1.438650488853454590e-01 -6.411514710634946823e-03 3.677413761615753174e-01 -2.290735580027103424e-02 -9.700634516775608063e-03 6.279397755861282349e-03 3.694727271795272827e-02 -1.019504852592945099e-03 -3.020765073597431183e-02
4.742687046527862549e-01 -1.917840093374252319e-01 -1.935748606920242310e-01 -2.801864407956600189e-02 6.266193930059671402e-03 -2.197244465351104736e-01 -5.030249357223510742e-01 -6.196969747543334961e-02 -1.138851791620254517e-01 -6.974095851182937622e-02 -1.551012843847274780e-01 3.541908562183380127e-01 -1.846899092197418213e-01 -1.506789922714233398e-01 -4.924603402614593506e-01 -2.687103152275085449e-01 -4.827179610729217529e-01 4.970028400421142578e-01 -3.231828510761260986e-01 -8.711347728967666626e-02 -9.861864149570465088e-02 -2.281494289636611938e-01 -3.360145166516304016e-02 3.488662466406822205e-02 -1.102291699498891830e-02 3.084136173129081726e-02 -2.176391147077083588e-02 -3.263438120484352112e-02 1.246542669832706451e-02
-2.344560623168945312e-02 -9.938595443964004517e-02 -2.051467448472976685e-01 9.216201305389404297e-02 -1.864319741725921631e-01 -1.442187130451202393e-01 2.106532081961631775e-02 -3.291867375373840332e-01 5.113210901618003845e-02 8.532672375440597534e-02 -1.439080536365509033e-01 1.209516450762748718e-01 5.770519375801086426e-02 7.252638787031173706e-02 -4.022006988525390625e-01 7.068013548851013184e-01 3.981582820415496826e-01 -1.435645073652267456e-01 3.287864923477172852e-01 -6.955588608980178833e-02 2.816045098006725311e-02 3.528398871421813965e-01 3.238663971424102783e-01 3.535686805844306946e-02 -3.875800967216491699e-02 9.390120953321456909e-02 1.321529410779476166e-02 -1.530836895108222961e-02 5.497739464044570923e-02
1.175059080123901367e-01 4.113886356353759766e-01 -1.262129992246627808e-01 -2.400263845920562744e-01 -1.024562865495681763e-01 -8.928547799587249756e-02 4.901633858680725098e-01 3.653756678104400635e-01 -1.158934757113456726e-01 1.390123516321182251e-01 7.311011105775833130e-02 -1.720790751278400421e-02 -2.180451154708862305e-01 2.298041433095932007e-01 -2.492890059947967529e-01 1.639789640903472900e-01 2.384585589170455933e-01 -4.076373279094696045e-01 -2.746347486972808838e-01 1.394235342741012573e-01 -3.241683840751647949e-01 -1.156348809599876404e-01 2.808638215065002441e-01 -2.925682440400123596e-02 1.008647456765174866e-01 5.522355437278747559e-02 -6.463591009378433228e-03 -2.070728503167629242e-02 -6.309754401445388794e-02
-9.495428949594497681e-02 -2.799564301967620850e-01 3.630374372005462646e-02 -2.716377973556518555e-01 -1.030152961611747742e-01 6.716627627611160278e-02 1.819278895854949951e-01 4.402997717261314392e-02 1.265292316675186157e-01 -1.329461038112640381e-01 -1.264973282814025879e-01 -5.106852650642395020e-01 4.313304722309112549e-01 3.578421175479888916e-01 -5.399513989686965942e-02 -4.411303997039794922e-01 5.380240827798843384e-02 -4.513464272022247314e-01 -8.817633241415023804e-02 -6.946779042482376099e-02 -5.775089189410209656e-02 -1.424348205327987671e-01 -2.579903006553649902e-01 -5.960486829280853271e-03 -4.884094814769923687e-04 -1.468134298920631409e-02 1.237186882644891739e-02 -6.457051262259483337e-03 6.226277723908424377e-02
2.257566899061203003e-02 6.296397745609283447e-02 4.439128935337066650e-01 -2.225886285305023193e-02 -3.042761385440826416e-01 4.891818165779113770e-01 2.670551240444183350e-01 -2.039877623319625854e-01 1.937137544155120850e-01 1.735044270753860474e-01 1.486240029335021973e-01 6.031198799610137939e-02 -1.487600952386856079e-01 6.635456085205078125e-01 -4.499028623104095459e-02 -6.115771830081939697e-03 7.410511970520019531e-01 2.111287117004394531e-01 -7.823389023542404175e-02 1.095126271247863770e-01 -1.396804600954055786e-01 1.783524602651596069e-01 2.256246954202651978e-01 -2.432259358465671539e-02 -4.791872203350067139e-02 -4.127455502748489380e-02 2.061733976006507874e-02 -1.172885950654745102e-02 4.727011173963546753e-02
4.902285337448120117e-01 -3.508595749735832214e-02 6.311221420764923096e-02 1.145527139306068420e-01 -1.969780474901199341e-01 1.325484663248062134e-01 4.317870736122131348e-01 1.390828341245651245e-01 1.895784437656402588e-01 4.961611330509185791e-02 -1.572949141263961792e-01 1.468023061752319336e-01 3.975720703601837158e-01 1.189603731036186218e-01 1.208284348249435425e-01 -2.725361287593841553e-02 -2.391083724796772003e-02 3.803275898098945618e-02 2.805540263652801514e-01 3.285945355892181396e-01 7.301958799362182617e-01 8.943026512861251831e-02 3.991097584366798401e-02 5.086178425699472427e-03 2.359140478074550629e-02 4.453838244080543518e-02 -1.717481017112731934e-02 -1.641910494072362781e-04 1.032439898699522018e-02
3.600749745965003967e-02 9.399463981389999390e-02 1.875434964895248413e-01 1.838546246290206909e-02 -2.470411211252212524e-01 4.078029468655586243e-02 -3.360388278961181641e-01 -5.185853317379951477e-02 -7.651320844888687134e-02 4.285128414630889893e-02 1.802331954240798950e-01 7.144361734390258789e-02 -5.088688731193542480e-01 3.997946977615356445e-01 -4.281726107001304626e-02 3.528202772140502930e-01 6.035748124122619629e-01 -5.049469321966171265e-02 1.843546777963638306e-01 -9.405406564474105835e-02 7.219970226287841797e-01 -4.700416028499603271e-01 4.404767975211143494e-02 -3.456178307533264160e-02 -4.506552591919898987e-02 1.414864882826805115e-02 1.660183444619178772e-02 -7.716128602623939514e-03 -9.784813039004802704e-03
-1.782530546188354492e-01 2.269775718450546265e-01 3.191211819648742676e-02 2.701267227530479431e-02 1.173577532172203064e-01 -3.163139224052429199e-01 1.525234431028366089e-01 -1.834235638380050659e-01 6.517794728279113770e-02 -2.765853703022003174e-02 8.198049850761890411e-03 -7.052830606698989868e-02 4.222275912761688232e-01 1.845931261777877808e-01 2.639629244804382324e-01 -4.418444931507110596e-01 -5.672466158866882324e-01 -6.109610944986343384e-02 1.875457018613815308e-01 1.920077651739120483e-01 2.988637089729309082e-01 -2.058313786983489990e-01 -5.906187742948532104e-02 -4.937855899333953857e-02 -2.833238430321216583e-02 1.341908052563667297e-02 -1.391896745190024376e-03 3.483977168798446655e-02 1.540149445645511150e-03
-1.034018304198980331e-02 4.542739689350128174e-01 -2.918289601802825928e-01 6.738077383488416672e-03 1.988165676593780518e-01 1.081754937767982483e-01 -4.427029192447662354e-01 1.085095107555389404e-01 1.341941654682159424e-01 -1.861024461686611176e-02 7.403983175754547119e-02 1.666824668645858765e-01 -3.344603478908538818e-01 -5.566209554672241211e-01 -1.495396196842193604e-01 -1.781158298254013062e-01 -3.858234286308288574e-01 3.908734396100044250e-02 -9.617444127798080444e-03 1.215222198516130447e-02 -3.889140486717224121e-01 -9.094645380973815918e-01 -1.161361262202262878e-01 -9.801406413316726685e-03 1.051965053193271160e-03 1.747548021376132965e-02 1.581172831356525421e-02 -1.401700731366872787e-02 -2.037616632878780365e-02
-2.561675310134887695e-01 -5.532971024513244629e-01 3.994125127792358398e-01 -7.293742895126342773e-02 2.354595214128494263e-01 -7.587318867444992065e-02 1.542367041110992432e-01 6.211408972740173340e-01 -6.464747339487075806e-02 5.271962285041809082e-02 9.094274789094924927e-02 4.105048775672912598e-01 -6.713751703500747681e-02 -2.253479212522506714e-01 -2.460802942514419556e-01 -4.497901201248168945e-01 -2.338644117116928101e-01 7.495335340499877930e-01 1.351522952318191528e-01 2.061426341533660889e-01 -3.877863585948944092e-01 -8.569844365119934082e-01 -9.168090671300888062e-02 1.977193541824817657e-02 -1.611624844372272491e-02 -1.671975851058959961e-02 -3.282830864191055298e-02 -5.518887192010879517e-02 -1.964677497744560242e-02
3.847613930702209473e-01 -7.635792344808578491e-02 -2.364279329776763916e-01 6.553515046834945679e-02 -3.004275560379028320e-01 3.477346599102020264e-01 -7.168783247470855713e-02 5.970405414700508118e-02 1.320658475160598755e-01 1.032480150461196899e-01 1.778390556573867798e-01 1.336689144372940063e-01 5.585729479789733887e-01 5.445972084999084473e-01 5.218622684478759766e-01 -1.403941065073013306e-01 -1.252415925264358521e-01 -7.316152006387710571e-02 2.298648804426193237e-01 3.778575062751770020e-01 6.714416742324829102e-01 -3.576132953166961670e-01 1.106838136911392212e-01 -7.568619213998317719e-03 1.846512593328952789e-02 3.179358690977096558e-02 2.767437137663364410e-02 -4.909329861402511597e-02 3.141645714640617371e-02
3.505306541919708252e-01 -3.535806536674499512e-01 -1.305951029062271118e-01 2.102115750312805176e-01 -1.132304817438125610e-01 1.403631921857595444e-02 1.010182574391365051e-01 4.518558084964752197e-01 2.307156473398208618e-01 1.580333262681961060e-01 1.601448208093643188e-01 3.467310369014739990e-01 -3.806608617305755615e-01 5.959962308406829834e-02 6.179575920104980469e-01 2.535594999790191650e-01 -3.020672798156738281e-01 2.562450468540191650e-01 9.934481233358383179e-02 -1.126686930656433105e-01 -1.801636666059494019e-01 -2.847174406051635742e-01 -2.204189449548721313e-01 -7.170760538429021835e-03 7.199915591627359390e-03 9.348383755423128605e-04 -1.957679353654384613e-02 7.737207692116498947e-03 5.847227200865745544e-02
-4.242520928382873535e-01 4.366107583045959473e-01 3.410428464412689209e-01 1.252068579196929932e-01 1.996531337499618530e-01 8.964268118143081665e-02 -3.657182157039642334e-01 6.483399122953414917e-02 -2.113841176033020020e-01 -1.925648301839828491e-01 1.520177572965621948e-01 -1.328291147947311401e-01 1.455233842134475708e-01 -3.073842823505401611e-01 -3.562546372413635254e-01 -4.009549021720886230e-01 -3.880998864769935608e-02 1.180303394794464111e-01 1.306339055299758911e-01 1.214179396629333496e-02 -1.104279011487960815e-01 -4.665407538414001465e-01 1.603863388299942017e-01 -4.781944211572408676e-03 5.831437185406684875e-03 3.079749643802642822e-02 -7.791947107762098312e-03 5.227716639637947083e-03 -7.846268266439437866e-02
-2.068682312965393066e-01 -5.968417525291442871e-01 8.959089219570159912e-02 -9.526825696229934692e-02 -3.991994261741638184e-01 -7.050563115626573563e-03 -1.299366652965545654e-01 2.979691326618194580e-01 -1.070288568735122681e-01 1.856682822108268738e-02 1.764396876096725464e-01 2.663089334964752197e-01 -6.592249125242233276e-02 -1.984990090131759644e-01 1.151150390505790710e-01 4.373806342482566833e-02 5.071459412574768066e-01 5.956345796585083008e-01 -2.157451212406158447e-01 -4.531902074813842773e-02 -2.772544622421264648e-01 1.212330311536788940e-01 2.991880774497985840e-01 -6.321175489574670792e-03 4.612736403942108154e-02 1.785257607698440552e-01 1.589364185929298401e-02 5.711027234792709351e-02 -8.132417686283588409e-03
1.739794760942459106e-01 -8.257409185171127319e-02 2.271456718444824219e-01 -2.710496187210083008e-01 9.578846395015716553e-03 3.705075383186340332e-02 4.518330693244934082e-01 -1.319357901811599731e-01 -4.236096516251564026e-02 9.057178348302841187e-02 -1.201340034604072571e-01 1.422254890203475952e-01 2.680932581424713135e-01 3.440208435058593750e-01 -4.102078974246978760e-01 -1.383689604699611664e-02 -1.155986115336418152e-01 5.881140828132629395e-01 -1.642286181449890137e-01 3.701770007610321045e-01 3.486292064189910889e-01 -9.852224588394165039e-02 -3.574763536453247070e-01 1.448225975036621094e-02 1.607366837561130524e-02 -6.051905453205108643e-02 -2.725631743669509888e-02 -4.248023964464664459e-03 2.408512495458126068e-02
1.151197496801614761e-02 1.860128343105316162e-01 -2.468765228986740112e-01 1.273278295993804932e-01 -7.489351183176040649e-02 -1.759518831968307495e-01 3.504393398761749268e-01 1.604761630296707153e-01 1.175588741898536682e-01 1.199456397444009781e-02 -1.057357117533683777e-01 2.254338562488555908e-01 1.601332612335681915e-02 -1.718912422657012939e-01 1.831093579530715942e-01 3.625059127807617188e-01 2.991368062794208527e-02 -4.603838324546813965e-01 -6.456054449081420898e-01 -4.312462732195854187e-02 2.034640759229660034e-01 -9.286748766899108887e-01 -6.309910863637924194e-02 -1.829159446060657501e-03 -1.439149864017963409e-02 -8.690061047673225403e-03 -2.065838687121868134e-02 9.025542531162500381e-04 -2.947830362245440483e-03
-2.867373824119567871e-01 -4.904803037643432617e-01 2.548392415046691895e-01 1.047471389174461365e-01 2.822052538394927979e-01 -1.869774609804153442e-01 3.365815281867980957e-01 6.783867627382278442e-02 -1.365071833133697510e-01 1.531680673360824585e-01 1.507142037153244019e-01 5.851782560348510742e-01 -4.081515073776245117e-01 -3.279445469379425049e-01 9.660376608371734619e-02 -1.703381687402725220e-01 -3.276682272553443909e-02 4.962000846862792969e-01 -1.568996161222457886e-01 -2.318629175424575806e-01 2.027440220117568970e-01 -1.150230020284652710e-01 1.499982327222824097e-01 -2.951195277273654938e-02 -1.789993979036808014e-02 -4.807337652891874313e-03 4.674181342124938965e-02 1.698290556669235229e-02 -3.105148114264011383e-02
-4.884358644485473633e-01 -9.503185749053955078e-02 -6.835127472877502441e-01 -5.970732308924198151e-03 -2.402917891740798950e-01 2.295254915952682495e-01 1.467882003635168076e-02 8.676967769861221313e-02 4.018509760499000549e-02 1.915377229452133179e-01 -1.020300686359405518e-01 -1.490942984819412231e-01 1.160419210791587830e-01 3.294010460376739502e-02 3.358153998851776123e-01 8.426090329885482788e-02 2.580536901950836182e-01 -3.076762892305850983e-02 5.612103343009948730e-01 6.458345055580139160e-02 -1.048793941736221313e-01 1.439127773046493530e-01 -1.797493733465671539e-02 1.742256991565227509e-02 -1.713745482265949249e-02 -4.715952277183532715e-02 -2.776282606646418571e-03 3.312499821186065674e-02 -8.357314392924308777e-03
-2.206388562917709351e-01 1.634504199028015137e-01 1.791024059057235718e-01 -2.102240920066833496e-02 2.497924417257308960e-01 2.546093761920928955e-01 1.594277471303939819e-01 2.440576702356338501e-01 2.278578728437423706e-01 -5.305042862892150879e-02 -4.026365652680397034e-02 -1.987792700529098511e-01 -8.409602940082550049e-02 7.099942117929458618e-02 1.153111085295677185e-01 8.941011130809783936e-02 4.783757030963897705e-01 -3.980567678809165955e-02 3.919705152511596680e-01 -4.482321441173553467e-02 7.460741698741912842e-02 -3.569263815879821777e-01 3.345289230346679688e-01 -1.464664470404386520e-03 6.943900138139724731e-03 1.088371202349662781e-01 2.082976326346397400e-02 8.277633227407932281e-03 4.943495243787765503e-02
4.163760840892791748e-01 -1.018227338790893555e-01 2.191070839762687683e-02 8.737409859895706177e-02 5.902928300201892853e-03 -4.597196877002716064e-01 -4.075702279806137085e-02 5.356725454330444336e-01 2.103402763605117798e-01 -1.250569373369216919e-01 1.104615256190299988e-01 -4.036153554916381836e-01 7.066144794225692749e-02 1.791438907384872437e-01 5.477237105369567871e-01 -1.953214108943939209e-01 -3.535200655460357666e-01 2.071271389722824097e-01 8.720412105321884155e-02 1.475268751382827759e-01 -1.684938669204711914e-01 -6.196551918983459473e-01 7.997043430805206299e-02 -1.193498913198709488e-02 -6.887771189212799072e-02 -3.403331711888313293e-02 -1.111600641161203384e-02 -2.621396444737911224e-02 -1.401401013135910034e-01
8.604807406663894653e-02 1.763409227132797241e-01 2.938780002295970917e-02 1.504091620445251465e-01 1.426042169332504272e-01 3.417057693004608154e-01 8.087435364723205566e-02 -1.692473292350769043e-01 -5.669230967760086060e-02 -1.329234838485717773e-01 5.670150741934776306e-02 1.084206551313400269e-01 -2.797868475317955017e-02 3.471224308013916016e-01 2.005846053361892700e-01 2.077730000019073486e-01 1.614405512809753418e-01 1.171639636158943176e-01 3.103162646293640137e-01 6.008259952068328857e-02 4.061237275600433350e-01 -1.446904540061950684e-01 1.083804965019226074e-01 2.801235392689704895e-02 4.116431344300508499e-03 -6.322048604488372803e-02 -2.018643543124198914e-02 1.626214385032653809e-02 -5.880356207489967346e-02
1.730639487504959106e-01 1.289592087268829346e-01 1.019108816981315613e-01 -8.612505346536636353e-02 -9.060797281563282013e-03 4.687312990427017212e-02 -2.073324620723724365e-01 -3.095671534538269043e-01 9.163568168878555298e-02 -7.370537612587213516e-03 8.992906659841537476e-02 1.176724731922149658e-01 2.905156910419464111e-01 -2.139937877655029297e-01 -1.483717858791351318e-01 -4.153033792972564697e-01 -4.813217222690582275e-01 1.546376645565032959e-01 6.543774008750915527e-01 1.699212044477462769e-01 -1.463842578232288361e-02 -3.547599911689758301e-01 -3.002768456935882568e-01 -4.160977527499198914e-02 -4.374306276440620422e-02 3.774554654955863953e-02 4.303411766886711121e-02 6.009921804070472717e-02 -1.297895014286041260e-01
1.078174784779548645e-01 -4.846674799919128418e-01 6.276390701532363892e-02 -9.683524072170257568e-02 -4.347951337695121765e-02 -2.364560365676879883e-01 2.333580404520034790e-01 -4.995384812355041504e-01 2.048627883195877075e-01 1.455977261066436768e-01 -1.207692772150039673e-01 2.769877314567565918e-01 2.667110860347747803e-01 -3.977996408939361572e-01 -2.935355007648468018e-01 2.810668647289276123e-01 -1.988941133022308350e-01 6.640696525573730469e-01 5.928577110171318054e-02 -2.528287470340728760e-01 -5.266481637954711914e-02 3.456996679306030273e-01 -1.815844178199768066e-01 -1.990675181150436401e-02 4.350992292165756226e-02 -2.718141116201877594e-02 -2.549421228468418121e-02 -4.749885946512222290e-02 8.928607404232025146e-02
3.141594231128692627e-01 6.357560753822326660e-01 -2.665551006793975830e-01 -2.227983325719833374e-01 -1.335205286741256714e-01 -2.091728746891021729e-01 -9.171847254037857056e-02 5.267750024795532227e-01 1.542268842458724976e-01 4.424811154603958130e-02 9.213715046644210815e-02 -1.824161112308502197e-01 1.160758882761001587e-01 -2.023874036967754364e-02 -1.587191522121429443e-01 -3.151632249355316162e-01 -1.653828769922256470e-01 -9.221767783164978027e-01 9.206171631813049316e-01 2.957755327224731445e-01 -2.940744459629058838e-01 -4.634447991847991943e-01 -1.430581361055374146e-01 -6.406089756637811661e-03 1.156064681708812714e-02 -1.379359862767159939e-03 -3.019417636096477509e-02 -8.087936788797378540e-03 3.657862916588783264e-02
-1.806059181690216064e-01 8.241379261016845703e-02 7.023745775222778320e-02 -8.310727775096893311e-02 -3.461923077702522278e-02 2.481667548418045044e-01 2.827034294605255127e-01 -3.221651911735534668e-02 1.979167312383651733e-01 -1.315835565328598022e-01 9.012874215841293335e-02 -4.127801060676574707e-01 -2.638627290725708008e-01 1.594749540090560913e-01 1.673246361315250397e-02 -1.912776082754135132e-01 5.353167057037353516e-01 -3.575439155101776123e-01 -3.917914330959320068e-01 6.638630479574203491e-02 1.656013131141662598e-01 -5.306859016418457031e-01 3.077237308025360107e-01 -3.725928068161010742e-02 -1.061810739338397980e-02 1.739680068567395210e-03 1.884422637522220612e-02 -1.160334050655364990e-02 -1.003223657608032227e-01
4.668767452239990234e-01 1.541569232940673828e-01 -2.969855964183807373e-01 -6.944296509027481079e-02 -2.854083664715290070e-03 1.965802311897277832e-01 1.100899800658226013e-01 -1.648976504802703857e-01 7.515890151262283325e-02 -1.973367929458618164e-01 1.132298186421394348e-01 -4.379910975694656372e-02 -3.604890108108520508e-01 -4.134381413459777832e-01 -3.165173530578613281e-02 -1.280336230993270874e-01 -1.868679523468017578e-01 3.321309983730316162e-01 7.619135826826095581e-02 2.451265603303909302e-02 2.897951006889343262e-01 4.831762611865997314e-01 1.563169211149215698e-01 1.453870348632335663e-02 -2.047690562903881073e-02 2.109965309500694275e-03 2.262990921735763550e-02 -2.475013397634029388e-02 7.840781472623348236e-03
4.432527348399162292e-02 3.840574324131011963e-01 -1.923661977052688599e-01 1.732465922832489014e-01 -1.710778176784515381e-01 2.606491371989250183e-02 -2.574150860309600830e-01 8.542475849390029907e-02 -6.935921311378479004e-02 1.844153553247451782e-02 -9.228650480508804321e-02 3.650428652763366699e-01 -1.411232054233551025e-01 -1.496429275721311569e-02 -2.119086682796478271e-01 -2.808322608470916748e-01 -3.450180590152740479e-01 7.723246216773986816e-01 -3.498635292053222656e-01 -1.601000688970088959e-02 3.267787396907806396e-01 1.386274099349975586e-01 3.154754638671875000e-01 2.364239655435085297e-03 1.063360273838043213e-02 1.421022787690162659e-02 5.197012796998023987e-03 7.234097924083471298e-03 -7.170972973108291626e-02
-4.108025431632995605e-01 -1.518259197473526001e-01 1.669449545443058014e-02 1.826873123645782471e-01 -2.139359414577484131e-01 -8.187112212181091309e-02 1.423234641551971436e-01 4.029529541730880737e-02 -8.887262642383575439e-02 -9.337195754051208496e-02 -1.405800133943557739e-01 -3.529397845268249512e-01 -8.964614570140838623e-02 -1.073755174875259399e-01 7.875641584396362305e-01 8.232612013816833496e-01 1.393209099769592285e-01 -9.999993443489074707e-02 1.009031832218170166e-01 -5.076607316732406616e-02 1.271991431713104248e-01 4.933567643165588379e-01 2.339082304388284683e-03 6.476051360368728638e-02 -1.023217942565679550e-02 5.783010646700859070e-02 -1.942943967878818512e-02 3.650483267847448587e-04 -7.541830837726593018e-02
1.515224575996398926e-01 -6.915659308433532715e-01 4.352359101176261902e-02 2.596466541290283203e-01 4.972073063254356384e-02 -8.031590282917022705e-02 1.942190527915954590e-01 -3.246479332447052002e-01 8.124992996454238892e-02 1.567341387271881104e-02 1.407554447650909424e-01 2.931725978851318359e-01 -2.122373580932617188e-01 1.120012719184160233e-02 9.646566212177276611e-02 4.256061911582946777e-01 4.972877204418182373e-01 1.718782931566238403e-01 -2.817056179046630859e-01 -5.998744815587997437e-02 -2.976226508617401123e-01 1.438297331333160400e-01 2.335048653185367584e-02 9.881217963993549347e-03 -4.749807994812726974e-03 1.035306695848703384e-02 7.541301194578409195e-03 -1.865127682685852051e-02 1.369226351380348206e-02
-7.890863418579101562e-01 1.062045767903327942e-01 1.667844355106353760e-01 6.629206985235214233e-02 -1.933062672615051270e-01 -2.219118922948837280e-02 -2.443426847457885742e-01 -1.305599212646484375e-01 -7.559219840914011002e-03 1.750463545322418213e-01 -3.022191673517227173e-02 3.412600755691528320e-01 -4.716463387012481689e-01 -1.841631978750228882e-01 8.209262788295745850e-02 -1.350147929042577744e-02 -4.040823876857757568e-01 1.197877824306488037e-01 -3.730702698230743408e-01 9.262719750404357910e-02 1.051448583602905273e-01 -1.346033066511154175e-01 -1.433601230382919312e-01 3.902046754956245422e-02 3.075005859136581421e-02 -3.118208050727844238e-02 -2.411325089633464813e-02 -2.197092399001121521e-02 5.532391369342803955e-02
3.059288859367370605e-01 -1.291696280241012573e-01 -4.103254675865173340e-01 2.212805673480033875e-02 2.369397878646850586e-01 -1.129632443189620972e-01 -3.099236451089382172e-02 -2.263844711706042290e-03 1.978234797716140747e-01 -1.792476028203964233e-01 4.963202774524688721e-02 1.957627981901168823e-01 2.856862545013427734e-01 4.609245657920837402e-01 -5.162376165390014648e-02 2.381808012723922729e-01 -4.614657163619995117e-01 2.434398531913757324e-01 3.213556110858917236e-01 3.689648807048797607e-01 2.180809825658798218e-01 3.645093739032745361e-01 1.189895346760749817e-01 -3.040137514472007751e-02 9.714549034833908081e-02 -6.258592754602432251e-02 4.208005964756011963e-02 -1.204242557287216187e-01 -6.977873295545578003e-02
8.705855906009674072e-02 5.744173005223274231e-02 -2.096466273069381714e-01 -1.676746904850006104e-01 1.419814825057983398e-01 3.261489048600196838e-02 1.022387221455574036e-01 8.420266211032867432e-02 1.967652291059494019e-01 -2.272971123456954956e-01 5.663872580043971539e-04 7.334695756435394287e-02 -1.144446656107902527e-01 -3.931832611560821533e-01 2.482656389474868774e-01 -2.675377428531646729e-01 -2.223225533962249756e-01 -5.002637505531311035e-01 1.789251267910003662e-01 -2.072803378105163574e-01 4.178382158279418945e-01 -1.182881742715835571e-01 -2.429369837045669556e-01 -2.197325043380260468e-02 -1.104498375207185745e-02 4.848394170403480530e-02 4.062925931066274643e-03 4.658496007323265076e-03 2.889471314847469330e-02
3.322294652462005615e-01 -1.036662757396697998e-01 -6.055112928152084351e-02 -7.668828219175338745e-02 -1.308352053165435791e-01 -8.869446814060211182e-02 1.520177274942398071e-01 -2.233278155326843262e-01 3.487816452980041504e-02 1.293230503797531128e-01 7.686199992895126343e-02 2.005784958600997925e-01 2.252601236104965210e-01 -2.447641193866729736e-01 5.186123773455619812e-03 3.769026696681976318e-01 -2.380298972129821777e-01 2.350967973470687866e-01 -1.728156954050064087e-01 -2.204309552907943726e-01 -4.905991256237030029e-01 5.029910802841186523e-01 -2.027536481618881226e-01 2.575018629431724548e-02 -2.254389971494674683e-02 4.033415392041206360e-02 -1.042282208800315857e-01 -1.639245264232158661e-02 -7.505032420158386230e-02
2.251891940832138062e-01 -1.217635627835988998e-02 -2.065049707889556885e-01 1.412082463502883911e-01 2.085794955492019653e-01 -8.528794161975383759e-03 -2.516566030681133270e-02 -2.048889994621276855e-01 -1.359655559062957764e-01 -1.216531451791524887e-02 -1.357001811265945435e-01 2.156089693307876587e-01 -4.047493040561676025e-01 -4.672114551067352295e-01 1.774577945470809937e-01 1.490087360143661499e-01 1.928483396768569946e-01 -2.847119271755218506e-01 3.157199919223785400e-01 -2.298030555248260498e-01 5.036523342132568359e-01 3.966194689273834229e-01 9.668440371751785278e-02 -7.256725803017616272e-03 -4.387920722365379333e-02 1.704018190503120422e-02 1.490113232284784317e-02 -1.952949911355972290e-02 4.542182013392448425e-02
-2.371780872344970703e-01 1.560914218425750732e-01 1.256298720836639404e-01 1.507645193487405777e-02 -3.737621903419494629e-01 -2.682158052921295166e-01 2.591680921614170074e-02 -2.193775326013565063e-01 -8.690920472145080566e-02 -2.183493673801422119e-01 1.828815042972564697e-01 -2.541518211364746094e-01 -3.826210796833038330e-01 2.726507373154163361e-03 2.297742366790771484e-01 4.342318475246429443e-01 3.898329138755798340e-01 1.091545745730400085e-01 4.502303898334503174e-02 -4.961478989571332932e-03 4.489361345767974854e-01 -1.699901372194290161e-01 1.891504675149917603e-01 1.029025111347436905e-02 -1.858635619282722473e-02 2.656299434602260590e-02 -2.510857209563255310e-02 1.799174398183822632e-02 -1.427067536860704422e-02
-1.972243636846542358e-01 1.554935518652200699e-02 2.641229629516601562e-01 -3.340754657983779907e-02 1.390756219625473022e-01 -9.507457166910171509e-02 5.799460411071777344e-01 1.883575320243835449e-01 2.606885135173797607e-02 1.403793320059776306e-02 8.944837003946304321e-02 1.395083367824554443e-01 4.186857938766479492e-01 1.035324335098266602e-01 -2.395249903202056885e-01 2.964941859245300293e-01 2.834420502185821533e-01 2.576012015342712402e-01 -2.118184864521026611e-01 1.584151200950145721e-02 3.528954461216926575e-02 4.686101973056793213e-01 2.428354695439338684e-02 -4.827085358556360006e-04 8.424048312008380890e-03 2.658088877797126770e-02 4.669263027608394623e-03 -3.220226848497986794e-03 2.239037305116653442e-02
-2.498733848333358765e-01 3.274804055690765381e-01 3.927137702703475952e-02 -9.791752696037292480e-02 -1.786372214555740356e-01 -5.407957360148429871e-02 -6.439386010169982910e-01 1.598851196467876434e-02 9.048037230968475342e-02 1.230348572134971619e-01 -6.557779759168624878e-02 -3.269912302494049072e-01 3.904577493667602539e-01 -3.606552183628082275e-01 1.169951781630516052e-01 -3.470464944839477539e-01 -1.056587621569633484e-01 -1.046040654182434082e-01 8.086074590682983398e-01 -9.157808125019073486e-02 1.662091761827468872e-01 -3.822110593318939209e-01 -1.522881984710693359e-01 -7.170655298978090286e-03 -2.629888430237770081e-02 6.504019349813461304e-02 3.386603668332099915e-03 -1.192121859639883041e-02 1.742331311106681824e-02
1.555588245391845703e-01 3.141975402832031250e-02 -7.065337151288986206e-02 3.712728321552276611e-01 -1.783540993928909302e-01 2.399944514036178589e-01 -2.982532232999801636e-02 -9.150384366512298584e-02 2.065621167421340942e-01 -1.397235393524169922e-01 -7.646562159061431885e-02 3.745525181293487549e-01 -1.196420714259147644e-01 2.680438943207263947e-02 3.997775912284851074e-01 3.779639005661010742e-01 2.681059241294860840e-01 5.318818241357803345e-02 3.381149843335151672e-02 1.851932108402252197e-01 3.578763008117675781e-01 -6.319706887006759644e-02 -2.060557752847671509e-01 2.792095020413398743e-02 1.172924041748046875e-01 -1.011482626199722290e-01 -9.962061792612075806e-02 -3.356449306011199951e-02 -1.154609546065330505e-01
-1.901261657476425171e-01 -4.221661388874053955e-01 1.043392941355705261e-01 -1.467860490083694458e-01 2.233155257999897003e-02 -8.229722082614898682e-02 -2.934977412223815918e-01 4.176196753978729248e-01 -8.082263916730880737e-02 -1.327586825937032700e-02 -9.115698188543319702e-02 -2.071220576763153076e-01 -8.282910287380218506e-02 -2.113673537969589233e-01 -2.110460586845874786e-02 -3.168799281120300293e-01 -3.383887410163879395e-01 -1.299809664487838745e-01 4.394830763339996338e-01 1.611048728227615356e-01 -3.176771998405456543e-01 5.992854833602905273e-01 8.050411194562911987e-02 -2.212248556315898895e-02 -4.033370688557624817e-02 -1.851902157068252563e-02 8.062506467103958130e-02 -2.120404876768589020e-02 -5.273255705833435059e-02
1.497696191072463989e-01 -1.973359733819961548e-01 3.140678703784942627e-01 2.363902479410171509e-01 1.389137357473373413e-01 3.038258850574493408e-01 1.105280071496963501e-01 -8.793946355581283569e-02 1.413466036319732666e-01 -2.286793589591979980e-01 1.016108840703964233e-01 1.732219606637954712e-01 -1.649133712053298950e-01 2.050708830356597900e-01 6.401047110557556152e-01 8.808926492929458618e-02 4.523642733693122864e-02 2.449441403150558472e-01 3.059751391410827637e-01 -6.276866048574447632e-02 4.616101682186126709e-01 -6.306937336921691895e-01 -2.024456560611724854e-01 -5.466393753886222839e-02 2.582799084484577179e-02 4.658078402280807495e-02 1.761554554104804993e-02 1.697785593569278717e-02 -3.545389696955680847e-02
-3.103369474411010742e-01 -1.133768483996391296e-01 -3.523746728897094727e-01 -3.129148781299591064e-01 -1.792428344488143921e-01 3.343991637229919434e-01 -1.234648153185844421e-01 1.641978137195110321e-02 2.096245624125003815e-02 -7.281818985939025879e-02 -7.534670829772949219e-02 3.328706324100494385e-01 -5.089994072914123535e-01 6.470098346471786499e-02 -4.989069700241088867e-02 2.095945924520492554e-02 2.548941671848297119e-01 8.291867375373840332e-02 2.980520129203796387e-01 1.554601639509201050e-01 1.502262353897094727e-01 -4.668448269367218018e-01 -1.920939385890960693e-01 -4.909178707748651505e-03 1.196954771876335144e-02 -1.363066304475069046e-02 3.826547414064407349e-03 -8.436057250946760178e-04 8.104521781206130981e-02
-2.890512645244598389e-01 3.955898806452751160e-02 -1.839346624910831451e-02 -4.818388074636459351e-02 1.404751688241958618e-01 1.543194055557250977e-01 -5.895391702651977539e-01 -3.614064306020736694e-02 4.667653888463973999e-02 -8.365522325038909912e-02 7.209847122430801392e-02 -2.815969660878181458e-02 -5.154039859771728516e-01 -2.584873139858245850e-01 6.070751231163740158e-03 -3.321287631988525391e-01 -1.616695523262023926e-01 -4.519582912325859070e-02 -4.633137285709381104e-01 -2.243544161319732666e-01 -3.809299170970916748e-01 5.324319005012512207e-01 2.016328275203704834e-01 -8.418997749686241150e-03 7.344711106270551682e-03 3.351455554366111755e-02 -2.366563305258750916e-03 1.281275507062673569e-02 -3.177983686327934265e-02
-2.997869849205017090e-01 2.054183036088943481e-01 -3.420007526874542236e-01 -2.744149416685104370e-02 -5.849510431289672852e-02 6.517007201910018921e-02 1.336445063352584839e-01 -1.310328394174575806e-01 1.209826543927192688e-01 5.411875993013381958e-02 -8.173805475234985352e-02 2.154412120580673218e-01 -9.893243014812469482e-02 -2.058351486921310425e-01 1.613303422927856445e-01 -2.101625502109527588e-01 -3.154288232326507568e-02 5.734238028526306152e-02 5.279803276062011719e-01 2.061558812856674194e-01 -1.755426228046417236e-01 -4.198212027549743652e-01 -1.459679007530212402e-01 5.878261290490627289e-03 -2.463506162166595459e-02 3.973542153835296631e-02 -2.468642778694629669e-03 3.035552427172660828e-02 3.399288281798362732e-02
5.652939081192016602e-01 7.078195810317993164e-01 -2.132795155048370361e-01 -1.728505641222000122e-01 3.170670866966247559e-01 -4.067057371139526367e-02 1.733645498752593994e-01 2.544218897819519043e-01 8.848016709089279175e-02 -1.867621541023254395e-01 -1.744744032621383667e-01 7.646149396896362305e-02 -2.054065018892288208e-01 -9.751033782958984375e-02 -3.372730910778045654e-01 7.391695678234100342e-02 1.615472733974456787e-01 -9.091384708881378174e-02 1.152159720659255981e-01 -5.195403471589088440e-02 -2.953730225563049316e-01 4.857196658849716187e-02 2.014188766479492188e-01 2.408228814601898193e-02 2.815799787640571594e-02 2.433095872402191162e-02 3.818037360906600952e-02 -2.037624828517436981e-02 1.586066745221614838e-02
-1.052462905645370483e-01 3.815900087356567383e-01 2.006756067276000977e-01 -1.197266578674316406e-01 2.488173693418502808e-01 -2.299216985702514648e-01 -4.660365357995033264e-02 1.448560208082199097e-01 1.242339387536048889e-01 3.946063667535781860e-02 -1.054586023092269897e-01 -8.575218170881271362e-02 -1.033916249871253967e-01 2.360176146030426025e-01 2.345560304820537567e-02 4.684000611305236816e-01 6.622276306152343750e-01 -4.128861725330352783e-01 -4.600105062127113342e-02 -1.439315974712371826e-01 1.581605970859527588e-01 1.375035196542739868e-01 4.060253202915191650e-01 1.609314419329166412e-02 7.296330295503139496e-03 4.040275886654853821e-02 -1.670389436185359955e-02 2.138732932507991791e-02 -3.395153209567070007e-02
-1.863969266414642334e-01 2.688274383544921875e-01 -2.323425114154815674e-01 2.623760402202606201e-01 3.465619981288909912e-01 -1.263071298599243164e-01 4.523008689284324646e-02 3.329885005950927734e-01 -8.651857823133468628e-02 -1.318771839141845703e-01 1.191005557775497437e-01 -3.109252154827117920e-01 -3.721039742231369019e-02 1.814308017492294312e-01 1.715493649244308472e-01 -2.333830744028091431e-01 -3.276357948780059814e-01 3.462136983871459961e-01 -3.221968710422515869e-01 -1.007847785949707031e-01 1.050918102264404297e-01 8.006953001022338867e-01 2.573854327201843262e-01 -3.692558035254478455e-02 -2.013571793213486671e-03 2.452430874109268188e-02 2.797161974012851715e-02 -4.315225873142480850e-03 1.999132893979549408e-02
-3.879097402095794678e-01 5.621051788330078125e-01 3.718585073947906494e-01 9.235120564699172974e-02 -3.397074639797210693e-01 -1.990270316600799561e-01 7.759214192628860474e-02 -1.908598542213439941e-01 -1.260137259960174561e-01 1.349869072437286377e-01 1.694207638502120972e-02 -1.260897219181060791e-01 -5.192542076110839844e-01 2.337064407765865326e-02 3.723329603672027588e-01 2.344184964895248413e-01 4.604060947895050049e-01 1.571054756641387939e-01 -6.780843138694763184e-01 -1.189876347780227661e-01 6.016629934310913086e-01 3.836583113297820091e-03 -6.563253700733184814e-02 -5.020982120186090469e-03 -1.470245886594057083e-02 -2.955760806798934937e-03 8.823387324810028076e-03 8.927532471716403961e-03 2.890937961637973785e-03
-5.941938608884811401e-02 -1.363955996930599213e-02 3.255924955010414124e-02 2.428287118673324585e-01 -3.029221892356872559e-01 -4.557370543479919434e-01 4.547038301825523376e-02 1.548584103584289551e-01 -9.418375045061111450e-02 -4.098585620522499084e-02 1.514428704977035522e-01 -3.135866671800613403e-02 1.816152334213256836e-01 6.611251235008239746e-01 4.116117656230926514e-01 -2.074108421802520752e-01 -4.569079279899597168e-01 1.014810651540756226e-01 -1.263019591569900513e-01 5.928106606006622314e-02 2.496100515127182007e-01 9.877247735857963562e-03 -2.709149420261383057e-01 2.401374839246273041e-02 4.644352197647094727e-02 1.661537587642669678e-02 8.228331804275512695e-02 1.114996224641799927e-01 9.494880214333534241e-03
-2.155753374099731445e-01 -3.830878138542175293e-01 1.705016791820526123e-01 1.203121319413185120e-01 7.819315791130065918e-02 -1.441269665956497192e-01 7.005563378334045410e-02 -2.785489894449710846e-02 -1.489652097225189209e-01 -1.278021633625030518e-01 4.716879874467849731e-02 -3.135898411273956299e-01 4.590418338775634766e-01 1.983303427696228027e-01 1.374164074659347534e-01 -1.023645401000976562e-01 -2.808597087860107422e-01 -3.970679640769958496e-02 2.269957214593887329e-02 1.378635913133621216e-01 2.033987343311309814e-01 3.576469421386718750e-01 -2.840198278427124023e-01 3.081272169947624207e-02 -2.849296294152736664e-02 2.916579693555831909e-02 -1.327770017087459564e-02 -2.920775488018989563e-02 -5.015267804265022278e-02
1.477044224739074707e-01 -2.699552178382873535e-01 5.257958173751831055e-02 -3.639396131038665771e-01 2.538686394691467285e-01 -1.156602203845977783e-01 4.357901215553283691e-01 4.289129376411437988e-01 -7.631524652242660522e-02 -2.067714035511016846e-01 -7.522183656692504883e-02 7.341855019330978394e-02 -2.286369055509567261e-01 -6.375284492969512939e-02 -1.612290591001510620e-01 2.001342475414276123e-01 2.275768220424652100e-01 -4.102524816989898682e-01 2.459479123353958130e-01 1.834560334682464600e-01 5.949494242668151855e-01 2.320116758346557617e-01 1.263959519565105438e-02 -3.243314847350120544e-02 -3.607682650908827782e-03 -1.391000486910343170e-02 1.169100962579250336e-02 -2.921314211562275887e-03 -4.453481361269950867e-02
-4.202871918678283691e-01 1.337391585111618042e-01 1.015009582042694092e-01 2.352931350469589233e-01 -5.179468393325805664e-01 1.275483891367912292e-02 -3.528586924076080322e-01 -3.919351845979690552e-02 -6.496024876832962036e-02 2.183677107095718384e-01 -1.109142154455184937e-01 1.844935119152069092e-01 -3.206174969673156738e-01 1.296284701675176620e-02 -5.471774563193321228e-02 7.608343362808227539e-01 1.622570306062698364e-01 4.311799407005310059e-01 -1.547673791646957397e-01 1.329105943441390991e-01 1.219424381852149963e-01 -3.002031706273555756e-02 -2.276335954666137695e-01 1.725399307906627655e-02 2.802341245114803314e-03 -4.883809387683868408e-02 1.222266331315040588e-01 -1.184941008687019348e-01 7.331544533371925354e-03
2.216462977230548859e-02 2.116397172212600708e-01 6.582114100456237793e-02 -3.042422980070114136e-02 -5.848520435392856598e-03 -1.480933129787445068e-01 1.707110255956649780e-01 4.426597356796264648e-01 -5.850159749388694763e-02 -1.950854212045669556e-01 2.802893146872520447e-02 -5.636899173259735107e-02 4.284158051013946533e-01 5.635057687759399414e-01 4.123238921165466309e-01 7.588756084442138672e-02 2.074083089828491211e-01 -2.642109692096710205e-01 -4.716693162918090820e-01 4.448517039418220520e-02 2.374867200851440430e-01 -2.856017351150512695e-01 1.159588247537612915e-01 -7.536354474723339081e-03 -2.963372133672237396e-02 -5.065622273832559586e-03 4.057780839502811432e-03 -1.079572178423404694e-02 1.275336835533380508e-02
-2.049783170223236084e-01 2.080031186342239380e-01 -3.795573711395263672e-01 -3.383346647024154663e-02 -1.779155284166336060e-01 -3.616068661212921143e-01 -1.359026730060577393e-01 2.420588284730911255e-01 -6.866872310638427734e-02 -1.505760997533798218e-01 -1.551367044448852539e-01 -2.554727494716644287e-01 -7.658481597900390625e-02 -1.790807992219924927e-01 -5.063583850860595703e-01 -1.138372272253036499e-01 -3.722311258316040039e-01 -2.813961505889892578e-01 2.750138752162456512e-02 -9.758094698190689087e-02 -5.065062046051025391e-01 1.322141736745834351e-01 -3.390839323401451111e-02 -1.078476384282112122e-02 -2.360716462135314941e-02 7.039081305265426636e-02 -4.395949468016624451e-02 1.635484397411346436e-02 -8.243299089372158051e-03
-2.005783170461654663e-01 3.017294965684413910e-02 -1.241484209895133972e-01 9.062726050615310669e-02 7.801420986652374268e-02 -1.307691447436809540e-03 -2.414007484912872314e-02 -3.033821880817413330e-01 -1.347461491823196411e-01 3.122701868414878845e-02 3.100677020847797394e-02 -1.561362147331237793e-01 -1.235211640596389771e-01 2.969949543476104736e-01 6.853919029235839844e-01 -6.820954382419586182e-02 2.914510667324066162e-01 -2.154709547758102417e-01 -6.250261068344116211e-01 -8.276443259092047811e-05 7.531801462173461914e-01 -8.294241875410079956e-02 -2.125681042671203613e-01 1.501874532550573349e-02 4.414288327097892761e-03 5.770527641288936138e-04 -4.396144766360521317e-03 -1.094209961593151093e-02 4.593313857913017273e-02
5.122307538986206055e-01 -5.096834301948547363e-01 2.040275931358337402e-01 1.805734783411026001e-01 1.907925307750701904e-01 -2.008139789104461670e-01 4.323057830333709717e-01 9.828356653451919556e-02 2.656702697277069092e-01 -7.850387692451477051e-02 -3.597150370478630066e-02 1.420746743679046631e-01 2.280766069889068604e-01 1.000351924449205399e-02 1.624390780925750732e-01 2.876676321029663086e-01 1.244581863284111023e-01 2.863732278347015381e-01 3.214064538478851318e-01 2.598797678947448730e-01 3.409263193607330322e-01 1.497870683670043945e-01 -3.256590366363525391e-01 -1.582487602718174458e-03 -4.307183902710676193e-03 2.521929442882537842e-01 -1.024509370326995850e-01 1.045523025095462799e-02 -1.383780241012573242e-01
-2.016942799091339111e-01 4.732135534286499023e-01 8.538105338811874390e-02 -1.329361796379089355e-01 -1.213769987225532532e-01 -3.356278240680694580e-01 -1.944896727800369263e-01 -2.202547043561935425e-01 3.009076975286006927e-02 -1.464408487081527710e-01 1.446564793586730957e-01 -4.174926504492759705e-02 5.532871559262275696e-02 -4.098225533962249756e-01 -1.898716539144515991e-01 -4.071660041809082031e-01 -1.255127042531967163e-01 -3.064753711223602295e-01 6.304364800453186035e-01 -1.264913678169250488e-01 -2.229185961186885834e-02 -3.765040636062622070e-01 -3.792224079370498657e-02 -5.329464003443717957e-02 4.663485102355480194e-03 1.972806639969348907e-02 8.825975470244884491e-03 5.755965132266283035e-03 -6.958774290978908539e-03
-3.370073437690734863e-01 -9.272699058055877686e-02 1.538102477788925171e-01 4.087888821959495544e-02 3.102014213800430298e-02 6.391671486198902130e-03 -2.564454972743988037e-01 -5.755117535591125488e-02 -1.258683949708938599e-01 1.338855475187301636e-01 1.572565287351608276e-01 3.686376288533210754e-02 6.158240139484405518e-02 -7.098005712032318115e-02 -3.364100456237792969e-01 -3.530507981777191162e-01 -2.350453585386276245e-01 4.506712555885314941e-01 -3.856203854084014893e-01 -1.652590371668338776e-02 -4.016355574131011963e-01 -7.566429972648620605e-01 -3.160542845726013184e-01 -1.614195853471755981e-02 3.377808257937431335e-02 1.234417874366044998e-02 1.869897730648517609e-02 3.888938808813691139e-03 -1.524816639721393585e-02
5.075823664665222168e-01 -2.895238697528839111e-01 -2.064425349235534668e-01 3.912056982517242432e-02 3.961454331874847412e-02 -1.846655905246734619e-01 1.871687769889831543e-01 -3.742795586585998535e-01 1.116442233324050903e-01 -4.114017263054847717e-02 1.166669279336929321e-01 -9.622295945882797241e-02 1.251611858606338501e-01 -3.656033277511596680e-01 1.572579592466354370e-01 2.843175530433654785e-01 3.267586231231689453e-01 1.823011487722396851e-01 7.477487437427043915e-03 -1.756103150546550751e-02 4.812516570091247559e-01 -1.119436770677566528e-01 4.552126824855804443e-01 -1.882009208202362061e-02 9.452643804252147675e-03 8.089923299849033356e-03 1.136661390773952007e-03 2.485161274671554565e-02 1.893754675984382629e-02
-6.840443611145019531e-02 -5.317906290292739868e-02 1.080357804894447327e-01 -4.376279190182685852e-02 -2.563839852809906006e-01 6.995767820626497269e-03 -9.672267735004425049e-02 -1.051726117730140686e-01 6.903219968080520630e-02 -1.181036680936813354e-01 1.811701953411102295e-01 2.478654235601425171e-01 1.970053613185882568e-01 5.065444111824035645e-01 -2.492649406194686890e-01 1.212567370384931564e-02 -3.918069601058959961e-01 4.793799221515655518e-01 -1.489425301551818848e-01 2.779427766799926758e-01 1.656451262533664703e-02 -3.776861131191253662e-01 -1.651984304189682007e-01 -5.347406840883195400e-04 -1.093751750886440277e-02 5.213689431548118591e-02 1.241574902087450027e-02 -3.470996022224426270e-02 -3.542146086692810059e-02
3.636445999145507812e-01 2.501151263713836670e-01 -3.102806955575942993e-02 4.380354657769203186e-02 -1.087924689054489136e-01 -1.751437634229660034e-01 3.229736909270286560e-02 -3.113145232200622559e-01 -9.382998943328857422e-02 2.048693299293518066e-01 -9.083119779825210571e-02 5.404420495033264160e-01 -4.100014641880989075e-02 2.436851114034652710e-01 -5.609564185142517090e-01 4.467753171920776367e-01 -6.281080842018127441e-02 9.438209235668182373e-03 7.115649580955505371e-01 1.270188987255096436e-01 -7.522439360618591309e-01 -2.546714432537555695e-02 1.147557795047760010e-01 2.378163114190101624e-02 -4.979586228728294373e-02 4.711056873202323914e-02 -7.875404320657253265e-03 1.304071955382823944e-02 -7.672916166484355927e-03
-1.357385367155075073e-01 -4.826877415180206299e-01 -1.516154501587152481e-02 1.175947934389114380e-01 -2.308422327041625977e-01 8.357793092727661133e-02 2.250640988349914551e-01 -2.999065816402435303e-01 2.610786445438861847e-02 -8.396582677960395813e-03 1.021770574152469635e-02 8.610436320304870605e-02 6.596750114113092422e-03 -4.546038806438446045e-02 -1.769737005233764648e-01 3.022192716598510742e-01 2.675533294677734375e-01 -7.407715916633605957e-02 -9.086721390485763550e-02 1.436021178960800171e-01 -3.096084296703338623e-01 -7.442303001880645752e-02 8.121339976787567139e-02 -3.321214579045772552e-03 2.263632975518703461e-02 3.560322523117065430e-02 2.580886706709861755e-02 -2.287858631461858749e-03 -2.696284279227256775e-02
-1.048222556710243225e-01 -2.471493035554885864e-01 -1.765230596065521240e-01 2.475353181362152100e-01 6.306127179414033890e-03 -8.089733123779296875e-02 4.859974980354309082e-01 -5.604977607727050781e-01 2.232289165258407593e-01 -1.329784840345382690e-01 1.080595031380653381e-01 -8.440787345170974731e-02 1.291218101978302002e-01 4.257515668869018555e-01 7.212401181459426880e-02 2.143405377864837646e-01 3.743009269237518311e-01 2.519965544342994690e-02 3.794633150100708008e-01 2.494504302740097046e-01 1.714916080236434937e-01 -7.657692581415176392e-02 4.275781214237213135e-01 2.331816218793392181e-02 4.209519922733306885e-02 7.096230983734130859e-02 5.585947632789611816e-02 -1.490121614187955856e-02 6.982487440109252930e-02
2.456524074077606201e-01 2.964689731597900391e-01 -2.422990053892135620e-01 -5.812066420912742615e-02 -1.710532754659652710e-01 -1.388827897608280182e-02 3.914100229740142822e-01 2.750709652900695801e-01 -1.246239244937896729e-02 7.659216225147247314e-02 2.775899693369865417e-02 -2.250557094812393188e-01 -3.202275335788726807e-01 -7.239244133234024048e-02 -9.880053997039794922e-02 5.308650135993957520e-01 3.945595920085906982e-01 -9.275836497545242310e-02 3.389609754085540771e-01 1.695693731307983398e-01 -1.577407717704772949e-01 2.954581379890441895e-01 -2.502147853374481201e-01 -1.724353805184364319e-02 -4.480478912591934204e-02 2.742965705692768097e-02 -1.178035698831081390e-02 -2.071650326251983643e-02 3.762505948543548584e-02
-4.235503822565078735e-02 -5.494828224182128906e-01 -2.598734200000762939e-01 -1.375381946563720703e-01 -3.475182130932807922e-02 -1.417538374662399292e-01 -9.939309954643249512e-02 2.426910698413848877e-01 -3.660431131720542908e-02 -1.963670402765274048e-01 8.925987780094146729e-02 9.262012690305709839e-02 -3.069453835487365723e-01 -2.577123045921325684e-01 8.823572844266891479e-02 6.015979498624801636e-02 2.696923911571502686e-01 -3.962794542312622070e-01 -1.662005931138992310e-01 -8.032968640327453613e-02 2.121184468269348145e-01 2.840057909488677979e-01 2.491675317287445068e-01 -1.135125663131475449e-02 1.549975760281085968e-02 4.888721928000450134e-02 3.841195255517959595e-02 7.656381465494632721e-03 -4.154107347130775452e-02
-3.798781037330627441e-01 -9.448880702257156372e-02 2.823315262794494629e-01 2.657367289066314697e-01 2.419967204332351685e-01 5.618612095713615417e-02 5.587011203169822693e-02 -2.908960916101932526e-02 -1.155920252203941345e-01 -8.801382035017013550e-02 -8.386904001235961914e-02 -6.607227027416229248e-02 -5.252890586853027344e-01 -2.009832561016082764e-01 6.208860501646995544e-02 1.170545816421508789e-02 -6.692265868186950684e-01 -6.757425516843795776e-02 -2.561628222465515137e-01 -4.252200201153755188e-02 1.737781614065170288e-01 1.619267910718917847e-01 -2.613904476165771484e-01 -3.163433074951171875e-02 7.548308372497558594e-02 2.349465712904930115e-02 -4.184194654226303101e-02 3.420912194997072220e-03 1.234269812703132629e-01
-2.663794159889221191e-01 -3.222471773624420166e-01 2.663344144821166992e-01 5.871509760618209839e-02 9.380153566598892212e-02 3.474663197994232178e-01 -2.354483902454376221e-01 2.755123376846313477e-01 8.981833606958389282e-02 2.264748662710189819e-01 -9.990108013153076172e-02 -1.532136052846908569e-01 2.232953161001205444e-01 2.994934618473052979e-01 -4.372057914733886719e-01 -1.656469553709030151e-01 2.138936221599578857e-01 6.058389320969581604e-02 1.336161978542804718e-03 2.622130215167999268e-01 1.154834553599357605e-01 1.382357031106948853e-01 1.287737637758255005e-01 -1.913095824420452118e-02 4.818669985979795456e-03 -1.114005222916603088e-02 3.699643164873123169e-02 -1.427422463893890381e-02 -3.252414986491203308e-02
1.318174302577972412e-01 6.981447339057922363e-02 -1.189252808690071106e-01 -5.287833884358406067e-02 -1.200776323676109314e-01 -1.237871050834655762e-01 4.868863224983215332e-01 1.454134285449981689e-01 8.182275295257568359e-02 4.248157888650894165e-02 -1.460988074541091919e-01 2.105221711099147797e-02 -1.697153747081756592e-01 9.991901367902755737e-02 3.973894119262695312e-01 -7.666605710983276367e-02 -3.095364272594451904e-01 -3.216265738010406494e-01 -2.850327789783477783e-01 7.650967687368392944e-02 6.322267055511474609e-01 6.339870393276214600e-02 -7.224020361900329590e-02 2.955647185444831848e-03 1.716573163866996765e-02 3.235975652933120728e-02 -5.771805997937917709e-03 1.603320240974426270e-02 -6.529545038938522339e-02
-2.252201139926910400e-01 -2.711425423622131348e-01 1.456983387470245361e-01 8.544889837503433228e-02 -1.094289794564247131e-01 -2.034786790609359741e-01 -4.351624548435211182e-01 -1.392534673213958740e-01 -1.905496567487716675e-01 1.570020616054534912e-01 -1.492125689983367920e-01 6.465206146240234375e-01 -4.578266758471727371e-03 -1.842560917139053345e-01 -6.538252234458923340e-01 -1.188691928982734680e-01 -2.074856460094451904e-01 6.065976023674011230e-01 -9.246063232421875000e-02 9.886496514081954956e-02 -2.128448188304901123e-01 -2.868674397468566895e-01 5.346419289708137512e-02 -3.506457200273871422e-03 1.760997995734214783e-02 -1.163975987583398819e-02 -1.228296197950839996e-02 -3.812875598669052124e-02 3.607095032930374146e-02
3.086769282817840576e-01 -1.561650726944208145e-02 -1.417011953890323639e-02 -5.712785292416810989e-03 -1.624145917594432831e-02 3.068666458129882812e-01 1.074940115213394165e-01 2.206269353628158569e-01 1.816462725400924683e-02 6.187188439071178436e-03 -3.105872496962547302e-02 1.880560256540775299e-02 4.285002350807189941e-01 2.638410329818725586e-01 3.293112814426422119e-01 9.580139070749282837e-02 2.353430986404418945e-01 -7.898026704788208008e-01 3.328400850296020508e-01 1.012303382158279419e-01 2.187531143426895142e-01 2.069588899612426758e-01 -3.641046285629272461e-01 1.325668301433324814e-02 -1.129998825490474701e-02 7.375475764274597168e-02 -3.096176497638225555e-02 -2.132740803062915802e-02 6.378257274627685547e-02
1.788497269153594971e-01 7.953810691833496094e-02 2.618693113327026367e-01 2.099969685077667236e-01 2.689116299152374268e-01 -9.990629553794860840e-02 3.168932497501373291e-01 3.760498464107513428e-01 -1.438349634408950806e-01 -2.363651543855667114e-01 1.844558417797088623e-01 -1.376422792673110962e-01 2.837808132171630859e-01 -2.270806394517421722e-02 4.924443364143371582e-02 1.412818580865859985e-01 -2.739227116107940674e-01 -2.468734681606292725e-01 8.032835125923156738e-01 1.978643983602523804e-01 1.015845462679862976e-01 -2.295920699834823608e-01 -2.499069571495056152e-01 4.414241295307874680e-03 9.595833718776702881e-03 1.762093789875507355e-02 2.763494662940502167e-02 1.961538754403591156e-02 -7.398100569844245911e-03
-2.801784574985504150e-01 -3.369041979312896729e-01 -1.506925821304321289e-01 2.187292277812957764e-01 -1.667336076498031616e-01 -7.407765835523605347e-02 2.666689157485961914e-01 2.105791717767715454e-01 -4.281089082360267639e-02 -9.657770395278930664e-02 5.636337026953697205e-02 4.776646494865417480e-01 1.961223632097244263e-01 -9.613786637783050537e-02 -4.764357209205627441e-01 -3.491505682468414307e-01 -3.536970317363739014e-01 7.498754262924194336e-01 -9.061839431524276733e-02 1.949495375156402588e-01 1.610815078020095825e-01 -1.620253920555114746e-01 -5.473904684185981750e-02 -3.768448531627655029e-02 2.368432469666004181e-02 3.720045462250709534e-02 3.618863597512245178e-02 7.105249911546707153e-03 -4.010624438524246216e-02
-3.207272589206695557e-01 -2.035464048385620117e-01 1.482199281454086304e-01 -1.701756864786148071e-01 -2.285172492265701294e-01 -3.119708299636840820e-01 -4.675616025924682617e-01 8.492818474769592285e-02 -1.013632193207740784e-01 4.766983911395072937e-03 6.013958901166915894e-02 1.799636930227279663e-01 -3.510442376136779785e-01 -9.609521366655826569e-03 -7.911246269941329956e-02 -2.843394875526428223e-01 -1.537787765264511108e-01 -1.681603193283081055e-01 3.696600469993427396e-05 -4.168804269284009933e-03 -4.876927435398101807e-01 -4.538321197032928467e-01 -2.194677293300628662e-01 1.706883893348276615e-03 -1.616515032947063446e-02 1.386635564267635345e-02 1.514924224466085434e-02 1.712839864194393158e-02 -2.001791633665561676e-02
-3.645132780075073242e-01 -3.072806894779205322e-01 2.047020792961120605e-01 -1.927931457757949829e-01 -1.996359229087829590e-01 -4.131693392992019653e-03 4.722683131694793701e-01 2.645948231220245361e-01 7.158878445625305176e-02 -2.679834701120853424e-02 2.763890661299228668e-02 3.456364870071411133e-01 -1.362144947052001953e-01 8.581693470478057861e-02 1.460081785917282104e-01 4.367295205593109131e-01 2.191979289054870605e-01 1.067739538848400116e-02 -9.106634259223937988e-01 -3.170929253101348877e-01 -5.438596382737159729e-02 2.764676809310913086e-01 -3.938263654708862305e-02 -1.295269560068845749e-02 -2.716860361397266388e-02 4.642378073185682297e-03 5.935197230428457260e-03 4.344289656728506088e-03 -1.440969016402959824e-02
-8.367835730314254761e-02 -2.704763710498809814e-01 5.343632027506828308e-02 1.235192790627479553e-01 1.850391030311584473e-01 1.674417257308959961e-01 4.053293541073799133e-02 1.862843185663223267e-01 2.055157124996185303e-01 1.114730834960937500e-01 1.049409657716751099e-01 2.856398820877075195e-01 -2.732008099555969238e-01 -2.136108428239822388e-01 1.648124456405639648e-01 5.236607789993286133e-01 3.879296779632568359e-01 6.971057057380676270e-01 -4.176155328750610352e-01 -8.593276888132095337e-02 8.222100138664245605e-02 3.435335457324981689e-01 -2.420493215322494507e-02 9.507210925221443176e-04 7.671312196180224419e-04 -2.112080110237002373e-03 1.395079027861356735e-02 5.254621151834726334e-03 2.511365711688995361e-02
4.617740213871002197e-02 6.031209602952003479e-03 8.084379881620407104e-02 7.675073295831680298e-02 1.130391582846641541e-01 -4.058337584137916565e-02 -4.461842402815818787e-02 4.077706113457679749e-02 -1.369037181138992310e-01 -6.266448646783828735e-02 1.620436906814575195e-01 3.348609432578086853e-02 -1.556894555687904358e-02 2.647756338119506836e-01 -1.262157857418060303e-01 1.347704380750656128e-01 -7.568349242210388184e-01 3.985263407230377197e-01 -1.090124808251857758e-02 3.912659734487533569e-02 1.681010425090789795e-01 -1.609687656164169312e-01 -1.737910509109497070e-01 8.721699938178062439e-03 4.325958341360092163e-02 -1.217436268925666809e-01 8.073686622083187103e-03 4.552059993147850037e-02 7.125128060579299927e-02
-3.036823272705078125e-01 6.060173511505126953e-01 1.368543356657028198e-01 5.687707662582397461e-02 3.330095112323760986e-02 -1.335715800523757935e-01 -6.673650741577148438e-01 -3.617315888404846191e-01 -1.752807646989822388e-01 -9.828724712133407593e-02 -9.719591587781906128e-02 3.000686168670654297e-01 -5.044256448745727539e-01 3.993009775876998901e-02 1.422566026449203491e-01 -1.159169375896453857e-01 -2.188605666160583496e-01 2.854680418968200684e-01 -5.688402056694030762e-01 -2.279561758041381836e-01 -3.961573541164398193e-01 2.883614003658294678e-01 -2.107209414243698120e-01 -1.604962348937988281e-02 2.750981785356998444e-02 -2.567038685083389282e-02 -8.582976297475397587e-04 -1.637888327240943909e-02 1.037204116582870483e-01
1.207473129034042358e-01 9.491362422704696655e-02 -2.500472962856292725e-01 -3.573400154709815979e-02 -2.341029345989227295e-01 1.501070708036422729e-01 -5.544769167900085449e-01 -2.421003282070159912e-01 5.464415624737739563e-02 7.463399320840835571e-02 -5.810295417904853821e-02 1.034109964966773987e-01 -3.004865646362304688e-01 2.557969093322753906e-01 1.494534760713577271e-01 -2.908393144607543945e-01 -1.897748210467398167e-03 2.978285215795040131e-02 -1.517706066370010376e-01 -3.022737801074981689e-02 2.417618483304977417e-01 -2.921257615089416504e-01 -3.955678045749664307e-01 1.778504252433776855e-02 -1.095323730260133743e-02 6.534922402352094650e-03 -5.583774182014167309e-04 -1.473260298371315002e-02 6.784734874963760376e-02
-2.990989387035369873e-01 -3.880998492240905762e-01 -1.345248054713010788e-02 2.418530583381652832e-01 -5.086530372500419617e-02 -1.997864544391632080e-01 1.725280582904815674e-01 -1.790684163570404053e-01 -6.665576249361038208e-02 1.116029545664787292e-01 4.958128929138183594e-02 4.174919724464416504e-01 -2.622953057289123535e-01 -3.925303518772125244e-01 2.544826269149780273e-01 9.602981805801391602e-02 -6.706238538026809692e-02 5.994985103607177734e-01 -5.977559462189674377e-02 1.977390944957733154e-01 5.882672071456909180e-01 4.680432006716728210e-02 2.672445178031921387e-01 -3.608683357015252113e-03 2.464941353537142277e-04 4.135064035654067993e-02 5.374382436275482178e-02 2.696811035275459290e-02 -5.274498462677001953e-02
7.619138062000274658e-02 -4.697391092777252197e-01 1.328475922346115112e-01 -1.258532404899597168e-01 -2.982569336891174316e-01 -4.850561916828155518e-02 -1.584326475858688354e-01 2.231794297695159912e-01 2.140798568725585938e-01 6.703100353479385376e-02 4.279360640794038773e-03 -2.317391186952590942e-01 -1.380897909402847290e-01 -7.984931021928787231e-02 3.847377598285675049e-01 1.059852242469787598e-01 -3.773514628410339355e-01 -6.794809550046920776e-02 -4.693859815597534180e-01 -3.346490859985351562e-01 5.110128968954086304e-02 6.473590731620788574e-01 -1.947392076253890991e-01 1.804290339350700378e-02 -5.639170855283737183e-02 9.772708266973495483e-02 -5.397684127092361450e-02 -4.996425658464431763e-02 -7.653549313545227051e-03
-3.000886142253875732e-01 6.757141947746276855e-01 3.053352534770965576e-01 -7.833930850028991699e-02 1.362489014863967896e-01 -1.333104223012924194e-01 -4.446619376540184021e-02 1.898097246885299683e-01 -1.391703486442565918e-01 2.121165953576564789e-02 -1.399604529142379761e-01 -1.002015769481658936e-01 -2.775596678256988525e-01 -7.415857911109924316e-01 4.684984311461448669e-02 -3.527701497077941895e-01 2.583703696727752686e-01 -3.495074436068534851e-02 2.119836211204528809e-01 -1.880974918603897095e-01 -4.097087979316711426e-01 -4.315396845340728760e-01 -2.900679223239421844e-02 1.609240658581256866e-03 2.291880175471305847e-02 2.425220981240272522e-02 6.660833209753036499e-02 -5.423438549041748047e-02 -3.588557988405227661e-02
4.170911610126495361e-01 -1.213847547769546509e-01 -1.256773471832275391e-01 -7.062424905598163605e-03 6.443682312965393066e-02 5.613231062889099121e-01 9.151135385036468506e-02 -4.131743609905242920e-01 -4.771747440099716187e-02 -2.816398069262504578e-02 -1.024258658289909363e-01 3.745105862617492676e-01 -1.464320928789675236e-03 3.224750459194183350e-01 -3.109354078769683838e-01 -7.154112309217453003e-02 -5.169501304626464844e-01 6.487134695053100586e-01 -2.533009052276611328e-01 -3.339947760105133057e-02 -3.727488219738006592e-01 3.490811586380004883e-01 -5.958547070622444153e-02 1.725296862423419952e-02 -3.819087892770767212e-02 1.465658564120531082e-02 -2.163371630012989044e-02 -1.592408120632171631e-02 4.751100018620491028e-02
9.510195255279541016e-02 2.096059620380401611e-01 -1.627487838268280029e-01 -1.428842097520828247e-01 -8.800660818815231323e-02 1.769400089979171753e-01 -1.486875712871551514e-01 2.814141102135181427e-02 -1.724597960710525513e-01 -2.309672534465789795e-01 -1.007490456104278564e-01 -3.791010379791259766e-01 -4.982618093490600586e-01 -5.894370004534721375e-02 -2.291198521852493286e-01 -5.316221341490745544e-02 -8.722556382417678833e-02 -1.066264212131500244e-01 -9.347524046897888184e-01 -2.427852153778076172e-01 -1.722956150770187378e-01 7.214730232954025269e-02 -4.346095770597457886e-02 -9.089309023693203926e-04 -1.591214723885059357e-02 -3.001541085541248322e-02 -7.506375014781951904e-02 3.812019526958465576e-02 4.056097939610481262e-02
3.561581075191497803e-01 2.027377784252166748e-01 -1.503691077232360840e-01 -2.704481035470962524e-02 -1.748452633619308472e-01 -1.575273275375366211e-01 -2.708996832370758057e-01 4.202914237976074219e-01 -1.282670199871063232e-01 2.164566330611705780e-02 8.818180114030838013e-02 -2.871286571025848389e-01 -4.848716780543327332e-02 1.129465177655220032e-01 -2.587808966636657715e-01 -2.474800795316696167e-01 4.580197855830192566e-02 -8.078271150588989258e-01 -3.399378061294555664e-01 2.912429161369800568e-02 -9.094484895467758179e-02 -1.615299135446548462e-01 -2.581806182861328125e-01 -2.087825676426291466e-03 -7.914322428405284882e-03 -8.984469808638095856e-03 1.410346850752830505e-02 -2.828781120479106903e-02 7.426586002111434937e-02
-7.279475778341293335e-02 -3.432642519474029541e-01 -2.638565003871917725e-01 -6.401179730892181396e-02 6.118623912334442139e-02 1.637219823896884918e-02 2.542127072811126709e-01 3.156946599483489990e-02 2.118983864784240723e-01 2.435024231672286987e-01 -2.355716004967689514e-02 4.118430912494659424e-01 2.242737263441085815e-01 3.909443914890289307e-01 -1.355925649404525757e-01 1.111140474677085876e-01 1.606963723897933960e-01 -1.118655800819396973e-01 1.357612013816833496e-01 1.085606291890144348e-01 3.327498137950897217e-01 2.009623683989048004e-02 1.822503358125686646e-01 -8.902635425329208374e-03 1.385242491960525513e-02 -1.476879697293043137e-02 1.464486820623278618e-03 6.579426582902669907e-03 1.827577501535415649e-02
-2.160483151674270630e-01 -2.712698578834533691e-01 -3.681636601686477661e-02 -1.628965586423873901e-01 3.045697137713432312e-02 3.763360157608985901e-02 -2.254747450351715088e-01 1.499390229582786560e-02 -1.408602148294448853e-01 9.377459436655044556e-02 -1.657430082559585571e-01 -2.548943161964416504e-01 -2.296863943338394165e-01 -4.360245168209075928e-01 2.042404413223266602e-01 -6.036040186882019043e-02 3.140706121921539307e-01 -4.152496159076690674e-01 4.426756203174591064e-01 5.371221527457237244e-02 1.676408201456069946e-01 -7.343708276748657227e-01 2.517487406730651855e-01 -1.195455156266689301e-02 -6.729666492901742458e-04 2.198150753974914551e-02 1.308180578052997589e-02 3.081169351935386658e-02 -8.688245713710784912e-02
-1.107392236590385437e-01 2.406449615955352783e-01 -6.037093400955200195e-01 6.678714603185653687e-02 8.665157854557037354e-02 -9.972318261861801147e-02 -3.911051154136657715e-01 2.393671721220016479e-01 2.824020758271217346e-02 2.294870615005493164e-01 1.621536314487457275e-01 -2.105516791343688965e-01 3.111270666122436523e-01 2.201916277408599854e-01 -6.085828542709350586e-01 2.862084507942199707e-01 9.899656288325786591e-04 3.989260271191596985e-02 -3.577520847320556641e-01 -1.680890917778015137e-01 -1.045503988862037659e-01 2.363436520099639893e-01 -9.521441906690597534e-02 -1.625382900238037109e-02 -3.408613801002502441e-02 -3.602954000234603882e-02 -2.485795319080352783e-02 -2.698881179094314575e-02 8.090579509735107422e-02
1.659175902605056763e-01 5.334630608558654785e-01 -3.106233477592468262e-01 -2.659161984920501709e-01 5.758137106895446777e-01 2.215878516435623169e-01 8.283143490552902222e-02 2.049224264919757843e-02 1.808347553014755249e-01 -7.597372680902481079e-02 1.973416656255722046e-02 -1.018167436122894287e-01 5.106962472200393677e-02 -1.263584047555923462e-01 -2.817848920822143555e-01 -9.246532572433352470e-04 2.433433681726455688e-01 -1.937431693077087402e-01 7.433550357818603516e-01 4.490278661251068115e-01 -1.896469593048095703e-01 -5.805200431495904922e-03 3.139514476060867310e-02 -1.907064346596598625e-03 3.814663738012313843e-03 -4.074907302856445312e-02 8.311781100928783417e-03 1.243610866367816925e-03 -2.440263144671916962e-02
2.937409281730651855e-01 2.983209192752838135e-01 -1.972445696592330933e-01 -1.819604486227035522e-01 -5.443276166915893555e-01 5.938607081770896912e-02 -8.686023950576782227e-02 -3.525173962116241455e-01 4.047541413456201553e-03 -1.291759312152862549e-01 -3.298684582114219666e-02 -1.543224323540925980e-03 -2.870710194110870361e-01 -1.722356230020523071e-01 -9.134207665920257568e-02 9.340111166238784790e-02 -4.432792216539382935e-02 -1.561074405908584595e-01 -3.462465405464172363e-01 7.169302552938461304e-02 1.864504367113113403e-01 4.716416597366333008e-01 2.896531522274017334e-01 2.307156845927238464e-02 -2.568149752914905548e-02 1.583181880414485931e-02 6.275531370192766190e-03 -3.284357860684394836e-02 -2.055308036506175995e-02
-7.239249348640441895e-02 -2.087342441082000732e-01 -2.404402941465377808e-02 -7.907929271459579468e-02 -4.372149705886840820e-01 1.009477227926254272e-01 -4.072665572166442871e-01 -1.348817050457000732e-01 -1.565376818180084229e-01 -3.976391628384590149e-02 -1.341441720724105835e-01 -2.600113116204738617e-02 -5.588530898094177246e-01 7.037925720214843750e-02 6.297640204429626465e-01 -5.052280426025390625e-01 1.922709047794342041e-01 -2.057505100965499878e-01 1.367947831749916077e-02 -2.146295309066772461e-01 6.282916665077209473e-01 6.003571301698684692e-02 2.143282294273376465e-01 -3.121286863461136818e-03 -1.292278990149497986e-02 -1.147100701928138733e-02 3.545479848980903625e-03 -4.759756848216056824e-03 7.864926010370254517e-03
3.224315941333770752e-01 -2.642189264297485352e-01 3.398440778255462646e-01 1.017882227897644043e-01 1.656409800052642822e-01 -2.789870202541351318e-01 2.785634696483612061e-01 -4.292527139186859131e-01 -1.124008521437644958e-01 -4.406115040183067322e-02 8.464755862951278687e-02 -9.311967343091964722e-02 1.282713264226913452e-01 1.916687488555908203e-01 3.747776746749877930e-01 3.046890161931514740e-02 -3.375516831874847412e-02 3.888020217418670654e-01 -4.129073321819305420e-01 -3.570728898048400879e-01 6.181046366691589355e-01 -3.771450519561767578e-01 -3.338081836700439453e-01 1.762446574866771698e-02 -8.244985714554786682e-03 7.765606045722961426e-03 -3.760669380426406860e-03 8.784931153059005737e-03 4.388456698507070541e-03
2.867273092269897461e-01 4.746682643890380859e-01 -2.392866276204586029e-02 1.325333863496780396e-01 2.703619599342346191e-01 -1.760858744382858276e-01 2.031562924385070801e-01 5.154921486973762512e-02 1.974573284387588501e-01 -1.126340851187705994e-01 -5.896373651921749115e-03 -4.929107725620269775e-01 -2.890735566616058350e-01 -4.979534447193145752e-02 6.181249618530273438e-01 1.981714218854904175e-01 4.518587514758110046e-02 -6.313497424125671387e-01 -2.270726710557937622e-01 3.331078216433525085e-02 6.597298979759216309e-01 -4.097463563084602356e-02 -1.323156654834747314e-01 1.942786946892738342e-02 -5.622124299407005310e-03 2.332801558077335358e-02 2.922852896153926849e-02 -1.823323327698744833e-05 5.782007053494453430e-02
3.948724865913391113e-01 -3.333510458469390869e-01 8.802247792482376099e-02 2.221105061471462250e-02 4.124298393726348877e-01 -1.564983427524566650e-01 2.678129374980926514e-01 -2.371569722890853882e-01 -1.118176430463790894e-02 -1.174228414893150330e-01 -1.341276913881301880e-01 -1.027140617370605469e-01 4.963597059249877930e-01 2.928914129734039307e-02 2.097976952791213989e-01 -4.137278795242309570e-01 -6.295055150985717773e-01 2.456575781106948853e-01 1.833485811948776245e-01 9.453618526458740234e-02 -8.980619907379150391e-02 -3.049932122230529785e-01 -2.054426074028015137e-01 -1.075548399239778519e-02 3.252751659601926804e-03 7.115802261978387833e-03 -2.139402553439140320e-02 -1.098033878952264786e-02 2.380788139998912811e-02
-1.338684111833572388e-01 -4.340516924858093262e-01 8.565950393676757812e-02 2.256492823362350464e-01 -3.034416735172271729e-01 -2.766565047204494476e-02 -3.639486730098724365e-01 -1.763607710599899292e-01 4.135704785585403442e-02 1.260931491851806641e-01 1.841418296098709106e-01 7.138748466968536377e-02 -2.963630557060241699e-01 -4.968895018100738525e-02 4.278740882873535156e-01 1.262004971504211426e-01 -3.547605276107788086e-01 2.019077390432357788e-01 -1.117468699812889099e-01 6.016961485147476196e-02 7.066368311643600464e-02 -4.215119183063507080e-01 -4.920806735754013062e-02 2.121074870228767395e-02 3.677393775433301926e-03 -2.558846399188041687e-02 3.608863428235054016e-02 -5.146544426679611206e-03 -4.973712190985679626e-02
-2.269103527069091797e-01 1.207830682396888733e-01 -3.451488316059112549e-01 2.485457621514797211e-02 -1.237362995743751526e-01 -1.261361688375473022e-01 1.008427739143371582e-01 6.646158695220947266e-01 -7.932543754577636719e-02 4.556911997497081757e-03 -6.308712065219879150e-03 -3.733480870723724365e-01 5.605636239051818848e-01 3.727338016033172607e-01 -1.945437937974929810e-01 -1.102641108445823193e-03 2.902654930949211121e-02 -7.059979438781738281e-01 4.930066764354705811e-01 9.948010742664337158e-02 -1.834033578634262085e-01 -6.855376809835433960e-02 7.934167236089706421e-02 -2.507268916815519333e-03 -3.081021830439567566e-02 -1.666690967977046967e-02 -5.015124008059501648e-02 9.593389928340911865e-03 -1.191500760614871979e-02
3.205074965953826904e-01 -2.731526792049407959e-01 5.284374952316284180e-02 5.560807883739471436e-02 1.235356554388999939e-01 1.791498996317386627e-02 4.086354076862335205e-01 -2.367592304944992065e-01 1.376435533165931702e-02 9.390237182378768921e-02 1.041219085454940796e-01 3.216505348682403564e-01 3.568526208400726318e-01 2.996363043785095215e-01 -1.722599118947982788e-01 -3.757244348526000977e-01 -5.392195582389831543e-01 4.554839730262756348e-01 1.155905798077583313e-01 3.653399273753166199e-02 1.010446846485137939e-01 -2.051134556531906128e-01 -2.055899202823638916e-01 1.062952680513262749e-03 -7.613316923379898071e-02 -1.563640385866165161e-01 -4.195471107959747314e-02 -3.781060129404067993e-02 1.194533929228782654e-01
-3.354020714759826660e-01 9.477164596319198608e-02 2.062503546476364136e-01 -1.372163146734237671e-01 -4.848545417189598083e-02 -3.384422659873962402e-01 -2.031350880861282349e-01 -1.655993759632110596e-01 6.704781204462051392e-02 -1.464862376451492310e-01 -1.840398907661437988e-01 1.062850933521986008e-02 -3.009416759014129639e-01 -2.809171676635742188e-01 1.126704290509223938e-01 -2.214538902044296265e-01 1.410130038857460022e-02 -1.381736695766448975e-01 -1.167074218392372131e-01 -1.044551208615303040e-01 1.287252157926559448e-01 -8.075172305107116699e-01 -1.258180737495422363e-01 -2.496134676039218903e-02 -1.558783091604709625e-02 1.545680016279220581e-01 3.891836479306221008e-02 3.916013985872268677e-02 -8.339754492044448853e-02
1.096601504832506180e-02 -3.050909563899040222e-02 -4.801655411720275879e-01 -2.512644827365875244e-01 3.016751408576965332e-01 -8.538879454135894775e-02 9.306134283542633057e-02 5.577252507209777832e-01 8.155693858861923218e-02 1.677709519863128662e-01 -8.508214354515075684e-02 -2.516269385814666748e-01 1.833800077438354492e-01 3.315785527229309082e-01 -2.004733830690383911e-01 2.143332809209823608e-01 3.702935278415679932e-01 -2.476231753826141357e-01 -1.156189516186714172e-01 -1.118026301264762878e-01 -5.232699513435363770e-01 -1.412618011236190796e-01 -2.413882017135620117e-01 3.563408181071281433e-02 -1.415067352354526520e-02 4.445203021168708801e-02 -1.275585126131772995e-02 1.944853924214839935e-03 6.038761511445045471e-02
