-7.626298815011978149e-02
-1.430225968360900879e-01
2.337443269789218903e-02
-5.536461994051933289e-02
-2.144946157932281494e-02
-1.621783711016178131e-02
-1.993585005402565002e-02
3.206164389848709106e-02
-8.628155291080474854e-02
-4.205830022692680359e-02
-3.070194646716117859e-02
-6.374513357877731323e-02
4.549793899059295654e-02
6.422652304172515869e-02
-1.335150301456451416e-01
-9.664016962051391602e-02
-1.601967662572860718e-01
8.516921848058700562e-02
1.968688517808914185e-02
5.375865846872329712e-02
-3.822799026966094971e-02
-5.636914074420928955e-02
-1.512294709682464600e-01
-4.489375278353691101e-02
-3.656182205304503441e-03
-5.436981096863746643e-02
2.717707073315978050e-03
2.812709286808967590e-02
-7.452619075775146484e-02
-1.214738413691520691e-01
-3.369829617440700531e-03
-3.841759264469146729e-02
-4.851021245121955872e-02
-8.928854018449783325e-02
2.311314642429351807e-02
-3.497766554355621338e-01
-1.140066515654325485e-02
7.081481814384460449e-02
5.648287758231163025e-02
-1.477188318967819214e-01
-6.216358020901679993e-02
4.535542335361242294e-03
-4.394561052322387695e-02
-3.803854063153266907e-02
-8.949626237154006958e-02
-4.789965227246284485e-02
-4.320105165243148804e-02
-2.120770663022994995e-01
-9.252315759658813477e-02
-9.358356893062591553e-02
-3.045165352523326874e-02
-5.470942333340644836e-02
-5.572651326656341553e-02
3.724650293588638306e-02
-2.147226035594940186e-02
-8.626731485128402710e-02
-4.459402337670326233e-02
-4.295657575130462646e-02
-1.509432680904865265e-02
-2.285177260637283325e-02
6.759507954120635986e-02
-1.685514599084854126e-01
1.190280262380838394e-02
4.230737686157226562e-02
3.646949306130409241e-02
-3.684551455080509186e-03
-5.605166032910346985e-02
-5.239543970674276352e-03
-3.818115592002868652e-02
-4.820047691464424133e-02
-7.260581851005554199e-02
2.728911675512790680e-02
9.493148326873779297e-02
-3.695664927363395691e-03
-1.048972904682159424e-01
-5.616389960050582886e-02
3.443634137511253357e-02
-8.043521642684936523e-02
3.933811560273170471e-02
-3.464758396148681641e-03
-7.057771086692810059e-02
-1.829508459195494652e-03
-2.236288972198963165e-02
7.466247770935297012e-03
-5.865428224205970764e-02
1.217414252460002899e-02
-1.518537700176239014e-01
-2.068056352436542511e-02
7.688128948211669922e-02
-8.868547528982162476e-02
-1.796685010194778442e-01
-6.508395820856094360e-02
4.709073528647422791e-02
-1.862558722496032715e-01
-4.897627234458923340e-02
-6.769268214702606201e-02
5.091623216867446899e-02
4.413933679461479187e-02
-1.010566651821136475e-01
2.102396450936794281e-02
1.467205770313739777e-02
-1.054052785038948059e-01
1.098180189728736877e-01
-8.086640387773513794e-02
-4.368074610829353333e-02
1.356493216007947922e-02
1.009040325880050659e-02
-2.032528258860111237e-02
-1.635544467717409134e-03
-1.073428913950920105e-01
-9.806931763887405396e-02
-6.110395118594169617e-02
3.335624188184738159e-02
-7.473552972078323364e-02
-1.605331897735595703e-01
7.406608015298843384e-02
-4.609219357371330261e-02
-8.438741788268089294e-03
-2.947768568992614746e-02
-1.139725744724273682e-01
-4.960850626230239868e-02
6.098027806729078293e-03
-1.834298074245452881e-01
3.546268912032246590e-03
-5.017179250717163086e-02
-3.609527274966239929e-02
-1.587199121713638306e-01
-5.459878966212272644e-02
