-1.233481839299201965e-01 -1.946917027235031128e-01 2.372646778821945190e-01 -8.882018923759460449e-02 -9.967901557683944702e-02 4.291547462344169617e-02 -8.268701285123825073e-02 -4.917644336819648743e-02 -1.239559128880500793e-01 3.321275860071182251e-02 6.157306954264640808e-02 3.263391554355621338e-01 -4.021754115819931030e-02 1.275705546140670776e-01 -1.842060089111328125e-01 -6.770527362823486328e-02 5.834473669528961182e-02 1.717193722724914551e-01 9.870768338441848755e-02 8.602272719144821167e-03 1.319173574447631836e-01 6.710325926542282104e-02 -1.890786439180374146e-01 -1.595705896615982056e-01 3.364728689193725586e-01 3.763388097286224365e-02 1.069186851382255554e-01 2.195177972316741943e-02 -7.315535843372344971e-02 2.587430477142333984e-01 -1.546728331595659256e-02 1.511812508106231689e-01 1.757902354001998901e-01 -8.824083209037780762e-02 -4.300864338874816895e-01 8.239744603633880615e-02 -4.496608674526214600e-02 5.491581186652183533e-02 -5.249591544270515442e-02 -2.176414057612419128e-02 3.208165466785430908e-01 2.677006721496582031e-01 -8.111754059791564941e-02 -3.859383985400199890e-02 9.970172494649887085e-02 5.591652542352676392e-02 1.493718028068542480e-01 -1.561620086431503296e-01 -7.790101319551467896e-02 -4.029443860054016113e-02 1.861869394779205322e-01 -3.009202182292938232e-01 -4.515531659126281738e-01 -1.688282191753387451e-01 7.008823007345199585e-02 1.103636249899864197e-01 1.294504255056381226e-01 1.668109595775604248e-01 1.696524769067764282e-02 1.972719132900238037e-01 1.833321005105972290e-01 -4.001665860414505005e-02 -1.160544157028198242e-01 1.724508255720138550e-01 1.107702404260635376e-01 -1.282854378223419189e-01 1.281543076038360596e-01 -1.872125416994094849e-01 -2.329911105334758759e-02 -9.387553483247756958e-02 -1.065905764698982239e-01 -5.985713377594947815e-02 1.282422989606857300e-01 -1.368592828512191772e-01 1.183815896511077881e-01 9.776307269930839539e-03 -6.761826574802398682e-02 5.559228733181953430e-02 1.696932502090930939e-02 1.427444517612457275e-01 -8.931736648082733154e-02 -2.235634028911590576e-01 3.526990860700607300e-02 1.369088143110275269e-01 -6.391068547964096069e-02 -8.118119835853576660e-02 -3.192391246557235718e-02 6.205271929502487183e-02 1.273138076066970825e-01 -6.145652383565902710e-02 2.387645095586776733e-01 3.172936737537384033e-01 5.635393410921096802e-02 1.769102066755294800e-01 -3.085229732096195221e-02 -6.439511477947235107e-02 -2.267440557479858398e-01 -8.934024721384048462e-02 9.067699313163757324e-02 1.155937649309635162e-02 -9.222202748060226440e-02 9.510534256696701050e-02 7.804290950298309326e-02 1.027901470661163330e-01 4.626196622848510742e-02 5.402032658457756042e-02 -7.944349944591522217e-02 -3.631268143653869629e-01 6.243414431810379028e-02 1.219433620572090149e-01 2.124181482940912247e-03 2.178139090538024902e-01 1.677012071013450623e-02 1.265823692083358765e-01 5.033355578780174255e-02 1.442074310034513474e-02 -4.873386621475219727e-01 6.078996695578098297e-03 2.156507074832916260e-01 -1.173542253673076630e-02 1.896228939294815063e-01 7.103212177753448486e-02 2.986117615364491940e-04 -1.051446273922920227e-01 1.760986447334289551e-01 -2.120845392346382141e-02 -2.216528654098510742e-01 2.856285870075225830e-01 9.845608472824096680e-02 -6.339843571186065674e-02 7.570885866880416870e-02 8.633769303560256958e-02 -1.742615848779678345e-01 1.845850348472595215e-01 6.644243001937866211e-02 5.021114349365234375e-01 -4.694092273712158203e-01 6.534526497125625610e-02 2.372671365737915039e-01 -1.171096414327621460e-01 1.072226464748382568e-01 -1.054806411266326904e-01 2.853598818182945251e-02 -4.440683871507644653e-02 1.381888389587402344e-01 9.528719633817672729e-02 -1.798280179500579834e-01 -1.551239788532257080e-01 1.276164203882217407e-01 1.790524572134017944e-01 5.629832297563552856e-02 7.767626643180847168e-02 -1.236087903380393982e-01 5.609057471156120300e-02 -9.430271387100219727e-02 -5.095927044749259949e-03 1.388447582721710205e-01 -5.785154644399881363e-03 -2.438433840870857239e-02 1.634297706186771393e-02 -1.960031986236572266e-01 1.016909033060073853e-01 8.216261118650436401e-02 -1.399223506450653076e-01 7.338196039199829102e-02 1.366303265094757080e-01 3.299135342240333557e-02 2.483403123915195465e-02 2.113396078348159790e-01 5.579919740557670593e-02 -5.095229670405387878e-02 1.777409166097640991e-01 1.307166554033756256e-02 1.979900896549224854e-01 -2.497913241386413574e-01 -1.156146377325057983e-01 3.222706168889999390e-02 4.557700455188751221e-02 -3.326487839221954346e-01 -1.194065213203430176e-01 -1.433618813753128052e-01 -1.116103455424308777e-01 2.139042504131793976e-02 1.664725393056869507e-01 4.672031849622726440e-02 2.919992208480834961e-01 1.343518346548080444e-01 -1.341630369424819946e-01 -8.919984847307205200e-02 -3.930764496326446533e-01 1.356580704450607300e-01 4.933825135231018066e-02 -2.965550124645233154e-01 -9.375289827585220337e-02 -4.396171867847442627e-01 -1.642878353595733643e-01 1.669246852397918701e-01 5.928164720535278320e-02 2.924438714981079102e-01 1.537241972982883453e-02 -4.102024137973785400e-01 1.333473026752471924e-01 -1.290036886930465698e-01 -3.187940269708633423e-02 -4.754036664962768555e-03 -2.477630786597728729e-02 1.490095555782318115e-01 7.722206413745880127e-02 5.379185825586318970e-02 1.594345271587371826e-01 9.444996714591979980e-02 -3.503870218992233276e-02 -1.615057587623596191e-01 8.833448402583599091e-03 -9.695500135421752930e-03 -1.061225607991218567e-01 -7.838855683803558350e-02 -2.509369514882564545e-02 -1.057428196072578430e-01 1.195601671934127808e-01 -6.518010050058364868e-02 8.610565960407257080e-02 -3.014848753809928894e-02 -4.249388724565505981e-02 -1.780560426414012909e-02 -1.330308765172958374e-01 1.781554222106933594e-01 9.245408326387405396e-02 -1.999740749597549438e-01 -3.788249939680099487e-02 -3.242805600166320801e-01 3.227524086833000183e-02 -1.177459433674812317e-01 -2.186369746923446655e-01 -4.436060488224029541e-01 -7.139124721288681030e-02 -1.893797814846038818e-01 -2.627934142947196960e-02 2.230679094791412354e-01 -2.732998728752136230e-01 8.965042233467102051e-02 4.306006059050559998e-02 5.009494349360466003e-02 -5.137215834110975266e-03 2.057028710842132568e-01 -2.308179251849651337e-02 -6.081585213541984558e-02 -2.228871136903762817e-01 2.389536472037434578e-03 -4.436274245381355286e-02 2.179633080959320068e-02 6.051874905824661255e-02 -3.482747673988342285e-01 -9.480149298906326294e-02 -2.959874272346496582e-01 9.069246053695678711e-02
1.336191408336162567e-02 2.848372235894203186e-02 3.176564723253250122e-02 -2.603674493730068207e-02 -2.210495471954345703e-01 -6.623674929141998291e-02 -9.430182725191116333e-02 3.555820509791374207e-02 -1.030051633715629578e-01 -1.251215487718582153e-01 -2.580647915601730347e-02 4.650937393307685852e-02 -6.549423933029174805e-02 -2.202482335269451141e-02 -2.167709544301033020e-02 8.603030815720558167e-03 -5.157153308391571045e-02 -4.924842622131109238e-03 3.270146995782852173e-02 3.613496199250221252e-03 7.992243766784667969e-02 -5.515665188431739807e-02 4.853176325559616089e-02 -7.481390982866287231e-02 7.971407845616340637e-03 6.605856120586395264e-02 6.321959197521209717e-02 2.154735103249549866e-02 -1.152934506535530090e-01 1.998344250023365021e-02 -3.639579191803932190e-02 9.044513851404190063e-02 -2.064470201730728149e-02 6.020989641547203064e-02 -1.828921842388808727e-03 -8.133541792631149292e-02 -5.258954316377639771e-02 3.226016089320182800e-02 1.418953016400337219e-02 7.259476184844970703e-02 -1.200738251209259033e-01 -1.909300088882446289e-01 -3.160813078284263611e-02 -2.532018721103668213e-02 -4.867353662848472595e-02 7.209058851003646851e-03 -1.065394654870033264e-01 -1.517652273178100586e-01 -1.946205087006092072e-02 -4.255559667944908142e-02 2.050713635981082916e-02 -2.493228390812873840e-02 -2.623924911022186279e-01 -2.573641836643218994e-01 2.016218937933444977e-02 1.426673084497451782e-01 1.987146586179733276e-02 1.095328573137521744e-02 -6.829637289047241211e-02 -1.246909727342426777e-03 2.382668294012546539e-02 -4.880008287727832794e-03 -1.700386404991149902e-01 -5.647954344749450684e-02 7.613678276538848877e-02 9.080135822296142578e-02 7.156428694725036621e-02 -4.202993214130401611e-02 -2.289208024740219116e-02 -1.976378262042999268e-02 -9.585360996425151825e-03 -1.383077204227447510e-01 -1.879477202892303467e-01 2.123324759304523468e-02 -5.790312960743904114e-02 9.521692246198654175e-02 -2.697619982063770294e-02 -1.962184440344572067e-03 9.210012108087539673e-02 -1.462107151746749878e-02 -7.236876059323549271e-03 3.518302366137504578e-02 -5.209049209952354431e-02 3.885492682456970215e-02 4.007539153099060059e-02 1.962559064850211143e-03 -1.372908353805541992e-01 8.920526504516601562e-02 -4.088630154728889465e-02 -1.671158522367477417e-01 1.667764037847518921e-01 9.413518127985298634e-04 2.042610757052898407e-02 -4.717583581805229187e-02 4.191401600837707520e-02 -3.723818436264991760e-02 -5.757001787424087524e-02 -1.446353737264871597e-02 -6.769197434186935425e-02 -1.739919185638427734e-01 -1.156766712665557861e-02 -1.274064332246780396e-01 8.347722142934799194e-02 7.040955871343612671e-02 -1.367742419242858887e-01 -5.213404074311256409e-02 -6.461686640977859497e-02 -1.444681882858276367e-01 -7.535301148891448975e-02 4.074142873287200928e-02 -1.133077125996351242e-02 -1.461705863475799561e-01 1.585227847099304199e-01 3.077607788145542145e-02 -1.344936620444059372e-02 4.986969288438558578e-03 -8.418610692024230957e-02 -3.005005232989788055e-02 -5.116573721170425415e-02 -4.380382597446441650e-02 -1.862185262143611908e-02 2.096881344914436340e-02 8.483599871397018433e-02 -1.290801018476486206e-01 -1.264249831438064575e-01 -7.409562170505523682e-02 1.516629103571176529e-02 -1.316898167133331299e-01 -4.071471840143203735e-02 -9.279526025056838989e-02 -2.684919722378253937e-02 5.018014460802078247e-02 -9.629228711128234863e-02 1.000958401709794998e-02 -1.353689730167388916e-01 -4.088150709867477417e-02 -2.695229351520538330e-01 -7.242265343666076660e-02 5.092088133096694946e-02 4.529853165149688721e-02 1.689468394033610821e-03 -9.567669034004211426e-02 -4.305472970008850098e-02 4.157526418566703796e-02 9.477729350328445435e-02 6.420873850584030151e-02 -1.616147309541702271e-01 -6.902894377708435059e-02 -1.116452291607856750e-01 -4.461842402815818787e-02 5.310004204511642456e-02 6.172773987054824829e-02 2.782297693192958832e-02 1.038359012454748154e-02 -4.064479842782020569e-02 4.578375071287155151e-02 -4.119883850216865540e-02 5.724983662366867065e-02 3.261824324727058411e-02 1.661531440913677216e-02 -8.599320426583290100e-03 9.269849956035614014e-02 -2.062625996768474579e-02 -5.498250946402549744e-02 -2.868279069662094116e-02 1.193698644638061523e-01 6.700509786605834961e-02 -5.502637475728988647e-02 -1.268189996480941772e-01 -4.402938112616539001e-02 -3.042912669479846954e-02 -1.619937084615230560e-02 -1.623277813196182251e-01 -1.835850626230239868e-01 2.035091863945126534e-03 -3.665433079004287720e-02 -1.962433755397796631e-01 -7.200549542903900146e-02 5.151277408003807068e-02 -2.077565491199493408e-01 1.460544485598802567e-02 -9.518199414014816284e-02 -1.013461593538522720e-02 -9.596562385559082031e-02 1.056950390338897705e-01 4.692362248897552490e-02 -7.116647809743881226e-02 -2.040456384420394897e-01 1.499604713171720505e-02 -1.353295892477035522e-01 -8.678453415632247925e-02 -7.246062904596328735e-02 -1.985051333904266357e-01 1.083542034029960632e-01 -2.094895243644714355e-01 -7.447078824043273926e-02 -2.239537537097930908e-01 -1.528657320886850357e-02 5.242903903126716614e-02 -7.814775407314300537e-02 -1.710909791290760040e-02 1.633754931390285492e-02 -4.137722135055810213e-05 5.315505713224411011e-02 -7.009270042181015015e-02 -1.710280217230319977e-02 -7.386238873004913330e-02 -2.101448923349380493e-02 -6.902290880680084229e-02 1.156922355294227600e-01 6.951339542865753174e-02 -1.353931277990341187e-01 9.658353030681610107e-02 9.207695722579956055e-03 8.641135692596435547e-02 4.788611829280853271e-02 1.128451526165008545e-02 -1.374932080507278442e-01 -8.006535354070365429e-04 -5.978463590145111084e-02 -5.005117878317832947e-02 -6.924791634082794189e-02 -4.335046932101249695e-02 -9.359964728355407715e-02 -6.975346803665161133e-02 -8.787678927183151245e-02 -1.462807646021246910e-03 -4.748722072690725327e-03 -9.423380345106124878e-02 -2.898535877466201782e-02 -1.409936100244522095e-01 -5.668472498655319214e-02 4.012078419327735901e-02 -9.075149148702621460e-02 -9.480416774749755859e-02 1.509290784597396851e-01 -2.059228718280792236e-02 -2.205828279256820679e-01 -5.139669030904769897e-02 -2.156446725130081177e-01 1.072414442896842957e-01 -2.481577172875404358e-02 2.093438757583498955e-03 -2.157411538064479828e-02 -3.918534517288208008e-02 -2.009209990501403809e-02 -5.563954263925552368e-02 -1.037670746445655823e-01 3.722707182168960571e-02 -3.859734162688255310e-02 -4.191813990473747253e-02 -1.596466079354286194e-02 -1.575835049152374268e-01 1.852119900286197662e-02 -1.038970202207565308e-01 -1.132133882492780685e-02
1.612595096230506897e-02 4.735112190246582031e-02 -4.779449664056301117e-03 -4.711996018886566162e-02 8.676595054566860199e-03 -3.358805552124977112e-02 8.895941078662872314e-02 -6.153644062578678131e-03 5.282298475503921509e-02 -5.585740879178047180e-02 5.154105648398399353e-02 8.176366239786148071e-02 -2.107373476028442383e-01 -4.225999861955642700e-02 3.505858033895492554e-02 -8.238952606916427612e-02 -7.849553599953651428e-03 3.628589212894439697e-03 -5.627747997641563416e-02 6.270303390920162201e-03 1.719299890100955963e-02 -3.570372983813285828e-02 -5.474846810102462769e-02 2.916766796261072159e-03 -3.327931463718414307e-01 -6.040171533823013306e-02 1.694076880812644958e-02 -4.590174928307533264e-02 1.093485113233327866e-02 -2.354294992983341217e-02 -2.987095117568969727e-01 -3.131631016731262207e-02 -1.033171825110912323e-02 -3.062667557969689369e-03 -1.530961394309997559e-01 8.806107938289642334e-02 -5.296072363853454590e-02 -4.421980411279946566e-04 -1.683382540941238403e-01 -2.902490459382534027e-02 -7.710701227188110352e-02 -1.327210105955600739e-02 6.959120184183120728e-02 4.062272608280181885e-02 1.346548050642013550e-01 -5.233453959226608276e-02 -1.029220372438430786e-01 -1.883255317807197571e-02 -5.396617203950881958e-02 3.890526667237281799e-02 -1.744117885828018188e-01 6.663724780082702637e-03 1.977917738258838654e-03 1.582994125783443451e-02 4.140567500144243240e-03 -1.294031972065567970e-03 -8.804979175329208374e-02 2.213209867477416992e-02 -4.214470088481903076e-02 -3.331359708681702614e-03 2.087768167257308960e-02 -1.022916138172149658e-01 -1.042128726840019226e-01 -1.923820190131664276e-02 -2.894235588610172272e-02 -9.426446631550788879e-03 1.560905389487743378e-02 -6.294230371713638306e-02 -9.168991446495056152e-02 1.211767271161079407e-01 -2.887309901416301727e-02 -4.534502048045396805e-03 -1.799656078219413757e-02 4.173690080642700195e-02 7.727264612913131714e-02 -6.162930279970169067e-03 -8.499073237180709839e-02 1.843495294451713562e-02 -1.595751941204071045e-01 -5.234771594405174255e-02 -8.947153389453887939e-02 -6.746849417686462402e-02 -8.408679813146591187e-02 5.775082483887672424e-02 1.507063396275043488e-03 -2.665575593709945679e-03 3.194678574800491333e-02 -3.411306440830230713e-02 -3.448421508073806763e-02 4.133277758955955505e-02 -6.750022619962692261e-02 -7.489584386348724365e-02 -2.121942676603794098e-02 -5.633418262004852295e-02 -9.108395129442214966e-02 -8.899504691362380981e-02 -1.020449548959732056e-01 6.460079923272132874e-03 2.623315900564193726e-02 1.522695831954479218e-02 -1.532279402017593384e-01 -1.048954129219055176e-01 -1.350813824683427811e-02 -1.200821325182914734e-01 2.898421883583068848e-02 -5.533776432275772095e-02 -3.813626617193222046e-02 4.252220317721366882e-02 -3.790259594097733498e-03 -3.792225942015647888e-02 5.663697049021720886e-02 -1.302713751792907715e-01 -9.821520186960697174e-03 -1.016396358609199524e-01 -3.450340405106544495e-02 -8.660791069269180298e-02 2.161450684070587158e-02 -1.451651602983474731e-01 9.774190187454223633e-02 -8.390157669782638550e-02 -1.427836269140243530e-01 4.290407523512840271e-03 -9.579496085643768311e-02 -6.200809776782989502e-02 -1.220732182264328003e-01 -4.395996034145355225e-02 -7.640184462070465088e-02 -4.455883055925369263e-02 -4.813029989600181580e-02 -3.653227351605892181e-03 -6.690749526023864746e-02 -5.368206184357404709e-03 6.496291141957044601e-03 1.507438253611326218e-02 -4.509636759757995605e-02 5.848864559084177017e-03 -7.561732083559036255e-02 -2.528293617069721222e-02 5.536455661058425903e-02 -4.763114079833030701e-02 -7.060980889946222305e-03 -4.305301606655120850e-02 -2.217640541493892670e-02 7.120441645383834839e-02 -3.392856568098068237e-03 -4.199445247650146484e-02 7.808078825473785400e-02 8.565341122448444366e-03 -5.276878550648689270e-02 1.099584251642227173e-02 -4.125311039388179779e-03 5.169634148478507996e-02 7.085828483104705811e-02 -8.064666390419006348e-02 1.096086353063583374e-01 -3.639286011457443237e-02 4.093055054545402527e-02 2.616622485220432281e-02 -1.696305871009826660e-01 -5.508225411176681519e-02 7.639754563570022583e-02 8.166860789060592651e-02 -6.197299063205718994e-02 -1.766206882894039154e-02 -6.695058196783065796e-02 4.055143147706985474e-02 -6.439137505367398262e-04 -5.054447799921035767e-02 7.529397308826446533e-02 -4.985438659787178040e-02 -1.809810549020767212e-01 -5.232761055231094360e-02 1.113889273256063461e-02 -6.168064847588539124e-02 4.818298295140266418e-02 -1.212318167090415955e-01 -1.969341188669204712e-03 3.207582607865333557e-02 -5.658216774463653564e-02 8.682365715503692627e-02 7.926002144813537598e-02 1.897751986980438232e-01 3.631243947893381119e-03 -2.801026776432991028e-02 2.150840684771537781e-02 6.943496316671371460e-02 -7.416077703237533569e-02 -8.466823399066925049e-02 -1.291933003813028336e-02 3.369645774364471436e-02 7.662853598594665527e-02 5.085828714072704315e-03 1.511913537979125977e-02 5.401175469160079956e-02 -3.279776126146316528e-02 -5.271079763770103455e-02 6.452682614326477051e-02 8.105005323886871338e-02 -7.949383929371833801e-03 1.004539579153060913e-01 7.661053538322448730e-02 -6.766410078853368759e-03 -1.486525870859622955e-02 -3.950251266360282898e-02 -1.075198650360107422e-01 -3.637759760022163391e-02 -1.437161117792129517e-01 1.092006787657737732e-01 -1.354160439223051071e-02 -4.329394921660423279e-02 -5.821353569626808167e-02 3.992931917309761047e-02 -1.363323181867599487e-01 -2.618476934731006622e-02 -3.649215400218963623e-02 -5.629371106624603271e-02 3.893785923719406128e-02 -8.351519703865051270e-02 7.013912312686443329e-03 1.478662888985127211e-04 4.847132135182619095e-03 -1.148545369505882263e-02 -1.566023826599121094e-01 1.202540248632431030e-01 -6.307797133922576904e-02 -3.064395673573017120e-02 -3.360072523355484009e-02 -4.614208266139030457e-02 -1.031996458768844604e-01 -6.216097995638847351e-02 -6.494405120611190796e-02 -2.550284005701541901e-02 1.182733029127120972e-01 -5.182684212923049927e-02 -5.307814106345176697e-02 -2.691199770197272301e-03 -1.022277474403381348e-01 -1.277590822428464890e-02 -1.186148375272750854e-01 6.579430401325225830e-02 5.454926937818527222e-02 6.238941848278045654e-02 -4.570468142628669739e-02 9.422198683023452759e-02 4.726597666740417480e-02 -5.225488916039466858e-02 8.292188867926597595e-03 4.906084388494491577e-02 -6.228110566735267639e-02 -9.828617423772811890e-02 5.394464358687400818e-02 -7.102559506893157959e-02 6.292623281478881836e-02 -6.191780790686607361e-02 -5.181634426116943359e-02 -2.128416001796722412e-01
-8.267537504434585571e-02 -1.071602255105972290e-01 -1.393173076212406158e-02 -1.219425126910209656e-01 -1.044498011469841003e-01 -5.191481485962867737e-02 2.931974595412611961e-03 1.062358245253562927e-01 3.598513454198837280e-02 -8.474526554346084595e-02 -3.747593238949775696e-02 1.242727320641279221e-02 -1.830447278916835785e-02 5.745584145188331604e-02 -3.734530508518218994e-02 -1.108152270317077637e-01 9.442698210477828979e-04 -1.078487262129783630e-01 -6.398887187242507935e-02 3.471118956804275513e-02 -2.060773596167564392e-02 -8.626934140920639038e-02 -1.113282069563865662e-01 -7.607950270175933838e-02 -2.063122391700744629e-02 -8.356039226055145264e-02 4.251875355839729309e-02 5.919576808810234070e-02 5.686210095882415771e-02 -7.693798840045928955e-02 7.560614496469497681e-02 -1.893024076707661152e-03 -6.028448045253753662e-02 7.528910785913467407e-02 2.578599564731121063e-02 3.672256134450435638e-03 -2.262370288372039795e-02 -1.198144480586051941e-01 1.148027740418910980e-02 -1.418585143983364105e-02 3.185442415997385979e-03 -5.311798676848411560e-02 1.881469652289524674e-04 -3.647884353995323181e-02 1.074933558702468872e-01 -8.242521435022354126e-03 -1.484062671661376953e-01 -8.346548676490783691e-02 -1.059454493224620819e-02 -1.092734858393669128e-01 4.384047165513038635e-02 -1.219949647784233093e-01 5.068883299827575684e-02 -4.675586707890033722e-03 5.161529779434204102e-02 3.696510940790176392e-02 1.239849720150232315e-02 -1.055045574903488159e-01 3.576701134443283081e-02 -5.228460580110549927e-02 3.791772946715354919e-02 4.094653204083442688e-02 3.983783721923828125e-02 7.423150539398193359e-02 2.971458062529563904e-02 -3.321997076272964478e-02 5.044695362448692322e-02 -5.037737637758255005e-02 7.063884288072586060e-02 -1.457420438528060913e-01 -2.897813729941844940e-02 -5.139530450105667114e-02 -9.736855328083038330e-02 -1.112164556980133057e-02 -5.103702843189239502e-02 1.512191910296678543e-02 2.110355533659458160e-03 -3.202303871512413025e-02 4.911734908819198608e-02 -1.409395933151245117e-01 -1.674509942531585693e-01 2.939424943178892136e-03 -1.085222214460372925e-01 6.955203413963317871e-02 1.241789385676383972e-02 8.129697293043136597e-02 -3.083971515297889709e-02 -3.342072293162345886e-02 1.224173530936241150e-01 -1.680742762982845306e-02 9.808966517448425293e-02 4.091934114694595337e-02 -7.964936643838882446e-02 -1.449973732233047485e-01 -8.422379195690155029e-02 3.157732263207435608e-02 -7.721363753080368042e-02 8.768413681536912918e-04 -6.848292890936136246e-03 -1.114091500639915466e-01 2.130672521889209747e-02 -6.336525827646255493e-02 -1.280716527253389359e-02 7.441467791795730591e-02 -4.666549712419509888e-02 -1.682610716670751572e-03 -1.004671826958656311e-01 -5.170056968927383423e-02 -4.620762541890144348e-03 -7.787919789552688599e-02 5.127892643213272095e-02 4.447900131344795227e-02 1.117861196398735046e-01 -2.958311885595321655e-02 -2.028443664312362671e-02 2.695893682539463043e-02 -1.894692331552505493e-01 2.921805344521999359e-02 5.997871514409780502e-03 -8.385571092367172241e-02 -5.099840462207794189e-02 -9.303823858499526978e-02 -5.678576603531837463e-02 -5.796857550740242004e-02 -7.687514275312423706e-02 3.572641685605049133e-02 1.884237676858901978e-01 -3.553713485598564148e-02 -2.473802119493484497e-02 -1.056737303733825684e-01 -4.151773080229759216e-02 1.420560292899608612e-02 6.111994758248329163e-02 -9.081462398171424866e-03 -5.755082145333290100e-02 -7.883626222610473633e-02 -1.362878233194351196e-01 3.799708187580108643e-02 1.619001664221286774e-02 6.365497410297393799e-02 4.809311404824256897e-02 -1.199196744710206985e-02 1.145314963650889695e-04 2.006910592317581177e-01 7.337880879640579224e-02 1.411197707056999207e-02 -6.118556857109069824e-02 2.752722799777984619e-02 -1.621831394731998444e-02 4.828345403075218201e-02 -7.119589298963546753e-02 -9.330236911773681641e-02 -9.074873477220535278e-02 -3.576388955116271973e-02 -5.972832813858985901e-02 5.920831859111785889e-02 4.374179244041442871e-02 6.637465953826904297e-02 1.122418642044067383e-01 -3.807130455970764160e-02 2.257067942991852760e-03 -5.728564411401748657e-02 -5.964483320713043213e-02 3.178245620802044868e-03 3.997398167848587036e-02 3.245392441749572754e-02 3.538876399397850037e-02 -6.354762706905603409e-03 1.241410896182060242e-01 -1.229267287999391556e-02 2.423603460192680359e-02 -2.292189560830593109e-02 -4.581793397665023804e-02 -1.079027131199836731e-01 -3.877213969826698303e-02 1.623380184173583984e-02 -3.345863521099090576e-02 -1.734308525919914246e-02 1.017533689737319946e-01 -5.866254121065139771e-02 6.369908154010772705e-02 5.413502454757690430e-02 -2.551415003836154938e-02 6.920683663338422775e-03 -1.234549679793417454e-03 -1.250201836228370667e-02 -5.163920670747756958e-02 -1.344482321292161942e-02 -1.840806333348155022e-03 1.161690130829811096e-01 -1.234540194272994995e-01 1.266899611800909042e-02 5.582201294600963593e-03 -3.922961279749870300e-02 -1.586364954710006714e-02 2.429200708866119385e-02 3.836891427636146545e-02 -1.156914979219436646e-01 -8.314874768257141113e-02 -4.337323084473609924e-02 9.411200135946273804e-02 -9.101086109876632690e-02 -1.125487387180328369e-01 1.952158100903034210e-02 -1.047023385763168335e-01 -1.012737303972244263e-02 7.319681026274338365e-05 2.786838635802268982e-02 -6.802874058485031128e-02 4.739801213145256042e-02 -1.975912414491176605e-02 4.073400050401687622e-03 -1.205135658383369446e-01 -1.373104453086853027e-01 9.877837449312210083e-02 -5.618290975689888000e-02 5.562650039792060852e-02 -3.927884623408317566e-02 -4.391901567578315735e-02 1.113531179726123810e-02 -6.137751787900924683e-02 -2.920538187026977539e-02 -1.639456003904342651e-01 -7.560463994741439819e-02 -1.251671314239501953e-01 -1.940166391432285309e-02 -1.082102069631218910e-03 -1.037187501788139343e-01 -1.364819556474685669e-01 -1.535150688141584396e-02 -1.925492286682128906e-02 -7.997717708349227905e-02 -1.067798063158988953e-01 -1.090583875775337219e-01 -1.379978656768798828e-02 -5.134921148419380188e-02 -1.685275137424468994e-01 -2.792113460600376129e-02 -2.060739323496818542e-02 9.349955618381500244e-02 -3.025824204087257385e-02 -1.207738742232322693e-01 -1.140107959508895874e-01 -5.821397155523300171e-02 -7.950686849653720856e-03 -5.758528783917427063e-02 6.575270742177963257e-02 -5.816658493131399155e-03 -5.365008115768432617e-02 5.591512843966484070e-02 -6.663671880960464478e-02 -2.737336419522762299e-02 -9.686399996280670166e-02 4.098575934767723083e-02 -1.754708737134933472e-01 4.978644847869873047e-02
-9.623569436371326447e-03 3.926238045096397400e-02 -6.937826424837112427e-02 -4.408877808600664139e-03 -4.132909327745437622e-02 7.934867590665817261e-02 8.642538636922836304e-02 8.851467631757259369e-03 -1.752785407006740570e-02 1.840990781784057617e-02 -4.490703810006380081e-03 3.602007776498794556e-02 -5.212012678384780884e-02 -1.187847275286912918e-02 -2.428444474935531616e-02 -1.264200638979673386e-02 -1.236137561500072479e-02 3.949446231126785278e-02 -1.939554326236248016e-02 -1.554664224386215210e-02 4.883214458823204041e-02 -1.008686348795890808e-01 7.114809751510620117e-02 -1.080950349569320679e-01 -1.029353681951761246e-02 2.694191411137580872e-02 4.687474668025970459e-02 3.544663265347480774e-02 1.400027424097061157e-03 3.081648144870996475e-03 -8.231055922806262970e-03 2.182770147919654846e-02 3.612683713436126709e-02 6.578092277050018311e-02 -5.917795002460479736e-03 9.867823682725429535e-03 -5.589828267693519592e-02 5.288203433156013489e-02 -1.912907510995864868e-02 -6.645166128873825073e-02 -6.870147585868835449e-02 -4.752047359943389893e-03 -2.247691899538040161e-02 6.043173000216484070e-02 3.009930253028869629e-02 9.886160492897033691e-03 1.162682846188545227e-02 -3.683787211775779724e-02 -6.184910982847213745e-02 -3.970887511968612671e-02 -1.008376106619834900e-02 -7.729044556617736816e-02 -1.311800032854080200e-01 -5.058299377560615540e-02 -1.723228953778743744e-02 4.933960270136594772e-03 -3.228060528635978699e-02 5.471683689393103123e-04 6.130760069936513901e-03 -3.219885006546974182e-02 1.411086064763367176e-03 -1.559482701122760773e-02 6.048934534192085266e-03 -1.739093475043773651e-02 3.769700601696968079e-02 -7.771329581737518311e-02 1.822631619870662689e-02 -6.384319067001342773e-02 -2.434170572087168694e-03 -9.780285507440567017e-02 2.339838631451129913e-02 2.148822881281375885e-02 -8.239892125129699707e-02 -7.034609466791152954e-02 1.244473177939653397e-02 3.977864235639572144e-02 -1.099144145846366882e-01 9.018277376890182495e-02 -1.973175629973411560e-02 -4.421507567167282104e-02 -4.652813076972961426e-03 7.412072736769914627e-03 -6.611846387386322021e-02 -7.226756215095520020e-02 8.819427341222763062e-02 -4.031182732433080673e-03 6.423173006623983383e-03 -3.836047276854515076e-02 2.439827471971511841e-02 -9.832274168729782104e-03 1.655168831348419189e-02 -1.187034789472818375e-02 -8.008438348770141602e-02 -4.899119958281517029e-02 1.400132328271865845e-01 -3.288713842630386353e-02 -2.947153523564338684e-02 -3.371305763721466064e-02 3.899437189102172852e-02 6.128827482461929321e-02 -8.941524475812911987e-02 -4.213374853134155273e-02 -9.925311803817749023e-02 1.348784118890762329e-01 -6.282354891300201416e-02 -4.545698314905166626e-02 1.853010058403015137e-02 -7.687268406152725220e-02 -2.863323129713535309e-02 3.788991272449493408e-02 -7.183907926082611084e-02 5.588191375136375427e-02 8.843158185482025146e-02 -3.398819640278816223e-02 -1.663831435143947601e-02 4.639023169875144958e-02 -4.118172451853752136e-02 -4.377396777272224426e-02 -5.703119095414876938e-03 2.123011276125907898e-02 -9.323352575302124023e-02 2.987950341776013374e-03 -6.820865720510482788e-02 -1.297013014554977417e-01 -4.058109223842620850e-02 2.456389740109443665e-02 -5.758213251829147339e-02 -4.477393254637718201e-02 -2.753433957695960999e-02 -2.482700161635875702e-02 2.784221805632114410e-02 2.633190713822841644e-02 -3.539104759693145752e-02 1.238835696130990982e-02 -1.959029398858547211e-02 7.819251157343387604e-03 -8.115793764591217041e-02 -1.257940009236335754e-02 -2.045699954032897949e-02 7.611108571290969849e-02 5.637883767485618591e-02 -3.994818311184644699e-03 2.985040470957756042e-02 4.127221181988716125e-02 9.873185306787490845e-02 4.092145711183547974e-02 -6.727293878793716431e-02 -5.047870427370071411e-02 -1.055524200201034546e-01 1.132517978549003601e-01 -2.577283978462219238e-02 -3.458078717812895775e-03 -5.039183795452117920e-02 -9.230578690767288208e-02 3.387777134776115417e-02 -3.883543424308300018e-03 4.032146825920790434e-04 2.928912080824375153e-02 2.113978005945682526e-02 -3.843028470873832703e-02 2.914555184543132782e-02 2.227199962362647057e-03 1.939507573843002319e-02 -1.093970015645027161e-01 1.249285489320755005e-01 7.834011688828468323e-03 6.543500721454620361e-02 -9.970014542341232300e-02 4.882162809371948242e-02 -3.970246389508247375e-02 -2.570184133946895599e-02 3.259437158703804016e-02 -9.102661907672882080e-02 6.559497863054275513e-02 6.604408472776412964e-02 -4.510713275521993637e-03 -1.165746375918388367e-01 3.631258755922317505e-02 3.764451667666435242e-02 -1.080766990780830383e-01 6.984905153512954712e-02 2.132232114672660828e-02 3.791563957929611206e-02 4.789294209331274033e-03 -1.803831197321414948e-02 2.027136646211147308e-02 -4.264520853757858276e-02 -4.915732890367507935e-02 -1.081958934664726257e-01 -8.550930023193359375e-02 3.692935034632682800e-02 -9.767108410596847534e-02 -1.460242271423339844e-02 6.963251531124114990e-02 -5.951886251568794250e-02 -1.096381694078445435e-01 -6.028535310178995132e-03 -5.289290845394134521e-02 3.386824391782283783e-03 -1.144842151552438736e-02 -2.850890904664993286e-02 -1.103783771395683289e-02 3.160667419433593750e-02 1.138214766979217529e-02 -6.005684286355972290e-02 -1.442384272813796997e-01 -1.441000401973724365e-02 -1.259232033044099808e-02 -3.506442159414291382e-02 9.875672310590744019e-02 -6.241773068904876709e-02 -1.214617025107145309e-02 7.322308141738176346e-03 -9.481083601713180542e-03 4.986446723341941833e-02 -3.988187015056610107e-02 -2.833816455677151680e-03 -5.077183619141578674e-02 -8.388696610927581787e-02 -1.777525432407855988e-02 -4.683884978294372559e-02 -4.974330216646194458e-02 -9.312976896762847900e-02 -4.710277915000915527e-02 -5.514454562216997147e-03 -6.125774234533309937e-02 2.873273100703954697e-03 -2.494112960994243622e-02 -8.230052143335342407e-02 -1.972894556820392609e-02 -1.185200810432434082e-01 8.917202241718769073e-03 2.263478934764862061e-02 -8.520813286304473877e-02 -5.477919057011604309e-02 -5.901853367686271667e-02 -2.518842741847038269e-02 -2.967578917741775513e-02 -9.176768362522125244e-03 4.503007978200912476e-03 -2.588314469903707504e-03 -7.075469940900802612e-02 -4.555081203579902649e-02 -2.427632361650466919e-02 -6.002408266067504883e-02 -5.256096646189689636e-02 -2.828532457351684570e-02 -6.589590013027191162e-02 -5.730700865387916565e-02 1.411604601889848709e-02 -3.351971134543418884e-02 1.813874021172523499e-02 -9.542697668075561523e-02 -1.054590493440628052e-01 2.547934185713529587e-03 1.918820431455969810e-03
1.318708062171936035e-01 3.944025933742523193e-02 1.226428244262933731e-02 -6.580879539251327515e-02 6.935369689017534256e-03 1.011363789439201355e-01 1.810304075479507446e-02 -6.513729225844144821e-03 4.692015703767538071e-03 5.959684774279594421e-02 -7.796741276979446411e-02 -2.422642335295677185e-02 -2.683597058057785034e-02 2.447899989783763885e-02 5.586615577340126038e-02 -9.414462000131607056e-02 -2.957023382186889648e-01 7.485185563564300537e-02 1.540897320955991745e-02 -2.081635594367980957e-01 -4.133128374814987183e-02 -6.529501639306545258e-03 -5.443650111556053162e-02 -7.590759545564651489e-02 -3.961830958724021912e-02 1.007034331560134888e-01 -1.055367011576890945e-02 -1.074484363198280334e-01 -1.202218048274517059e-02 -5.754651129245758057e-02 -7.509497925639152527e-03 -1.430275440216064453e-01 -4.243627935647964478e-02 9.715978987514972687e-03 4.147891327738761902e-02 -8.075472712516784668e-02 1.124523207545280457e-01 -1.039380207657814026e-01 -3.571559861302375793e-02 -9.526798129081726074e-02 -2.147063054144382477e-02 -9.372103959321975708e-02 -4.765301197767257690e-02 -5.283596739172935486e-02 -1.611497104167938232e-01 -1.155139729380607605e-01 -1.083710044622421265e-01 5.394257232546806335e-02 -9.176094084978103638e-02 -1.669919863343238831e-02 -4.129292443394660950e-02 6.757135689258575439e-02 -9.408012032508850098e-02 2.616435289382934570e-02 -1.248628944158554077e-01 -8.626872301101684570e-02 -1.003477443009614944e-02 -5.470744520425796509e-02 -4.521231725811958313e-02 -2.106206119060516357e-02 4.409013316035270691e-02 1.508637219667434692e-01 -2.965937368571758270e-02 -1.832881942391395569e-02 2.984731830656528473e-02 -5.751823540776968002e-03 5.490538850426673889e-02 -7.689293473958969116e-02 -7.747201621532440186e-02 -2.020227313041687012e-01 -8.342895656824111938e-03 6.411042064428329468e-02 2.452548779547214508e-02 -9.736703336238861084e-02 4.555028304457664490e-02 -1.636158116161823273e-02 4.424502328038215637e-02 3.811455145478248596e-02 -7.696322351694107056e-02 -3.469607532024383545e-01 4.286330938339233398e-02 -5.446849856525659561e-03 6.062001362442970276e-02 -1.813080161809921265e-01 1.490297764539718628e-01 -8.314203470945358276e-02 -3.165029287338256836e-01 5.536475777626037598e-02 -1.457321792840957642e-01 7.868484244681894779e-04 -8.199246972799301147e-02 -6.308633089065551758e-02 -1.190616637468338013e-01 -1.383177191019058228e-01 -5.697807669639587402e-02 -1.366092711687088013e-01 -1.654900163412094116e-01 -1.897322237491607666e-01 -1.328666806221008301e-01 -9.808128327131271362e-02 1.932645589113235474e-01 -1.430487930774688721e-01 6.970150768756866455e-02 -2.652256283909082413e-03 -1.377191245555877686e-01 -1.269972417503595352e-02 -1.520541459321975708e-01 -7.057521492242813110e-02 -2.065012231469154358e-02 1.934126392006874084e-02 -2.685127779841423035e-02 -1.137494295835494995e-02 -1.867215381935238838e-03 -7.390956580638885498e-02 -7.836458086967468262e-02 8.615848422050476074e-02 9.190175682306289673e-02 -4.820761829614639282e-02 -1.042172685265541077e-01 6.986624002456665039e-02 -3.220770955085754395e-01 -4.933712631464004517e-02 1.271222531795501709e-01 4.523900523781776428e-02 3.693757345899939537e-03 4.033719003200531006e-02 -5.108925327658653259e-02 9.948248416185379028e-02 1.050643771886825562e-01 -5.675482004880905151e-02 5.742484703660011292e-03 -8.382093161344528198e-02 4.193637147545814514e-02 -1.318785641342401505e-02 -7.993277162313461304e-02 4.867963865399360657e-02 7.291955407708883286e-03 -1.211582124233245850e-01 -3.543389216065406799e-02 -1.794810593128204346e-02 -9.422600269317626953e-02 -4.436780139803886414e-02 1.050394261255860329e-03 -6.658136099576950073e-02 2.948905108496546745e-03 1.972820609807968140e-02 -2.305309288203716278e-02 1.144825443625450134e-01 9.433249384164810181e-02 -4.127868637442588806e-02 -1.777289956808090210e-01 3.044133260846138000e-02 -6.533311307430267334e-02 -2.217033505439758301e-02 1.697618812322616577e-01 1.256112307310104370e-01 4.796427115797996521e-02 -1.109936740249395370e-02 -8.664151653647422791e-03 5.030295252799987793e-02 -1.253817826509475708e-01 2.831641957163810730e-02 4.203297570347785950e-02 -8.175595849752426147e-02 -8.977107703685760498e-02 1.866613700985908508e-02 -7.262007892131805420e-02 -1.181829422712326050e-01 -3.847278654575347900e-02 4.954529926180839539e-02 -1.296773254871368408e-01 -8.185086399316787720e-02 -5.589928850531578064e-02 -5.884735379368066788e-03 -1.231867000460624695e-01 -6.391216069459915161e-02 -5.154503509402275085e-02 -4.768462851643562317e-02 1.598251610994338989e-01 -4.278931766748428345e-02 4.090660437941551208e-02 -1.270948052406311035e-01 -3.057960048317909241e-02 7.934233546257019043e-02 -2.413602322340011597e-01 1.538745709694921970e-03 -2.272144332528114319e-02 9.971693903207778931e-02 -7.686182111501693726e-02 1.062836199998855591e-01 -1.851407997310161591e-02 -6.697452813386917114e-02 5.561795085668563843e-02 -1.277153044939041138e-01 -9.524157643318176270e-02 -3.526502549648284912e-01 -1.616662889719009399e-01 -1.972614377737045288e-01 6.403407454490661621e-02 -1.750358045101165771e-01 -7.628429681062698364e-02 -8.454571361653506756e-04 -7.577279955148696899e-02 1.191380918025970459e-01 1.526119410991668701e-01 7.735919952392578125e-02 -2.378725912421941757e-03 -1.391844451427459717e-01 3.234167769551277161e-02 3.684182837605476379e-02 8.119814097881317139e-02 -1.616841256618499756e-01 -1.412837803363800049e-01 -7.480289041996002197e-02 2.518560551106929779e-02 -7.824542000889778137e-03 9.704569354653358459e-03 -1.219064071774482727e-01 -1.475496683269739151e-02 -4.506997764110565186e-02 -3.197956457734107971e-02 -4.733199253678321838e-02 1.204375922679901123e-01 -3.239752352237701416e-02 -1.572763323783874512e-01 4.878689069300889969e-03 -1.322755683213472366e-02 -1.671056896448135376e-01 -1.422143280506134033e-01 -3.248119354248046875e-02 -4.568885639309883118e-02 -3.597650304436683655e-02 -9.249281883239746094e-02 -3.672675043344497681e-02 -6.185372173786163330e-02 1.364100258797407150e-02 -4.510341212153434753e-02 5.431786924600601196e-02 3.836770355701446533e-02 2.028242945671081543e-01 -9.465099871158599854e-02 -2.565456926822662354e-02 1.077015697956085205e-01 3.369522094726562500e-02 -1.739272177219390869e-01 1.333756744861602783e-01 -9.404474403709173203e-04 7.154201716184616089e-02 4.183075204491615295e-02 -1.589832752943038940e-01 5.314005911350250244e-02 -7.381861656904220581e-02 -7.970453053712844849e-02 1.274997740983963013e-02 5.124871432781219482e-02 -5.749912932515144348e-02
2.772344946861267090e-01 7.230373471975326538e-02 4.725455865263938904e-02 6.463043391704559326e-02 3.671562671661376953e-02 6.456783413887023926e-02 8.695103973150253296e-02 -6.105672568082809448e-02 4.665865004062652588e-02 -5.627931281924247742e-02 -8.448304980993270874e-02 8.429393172264099121e-02 1.164725124835968018e-01 7.037662714719772339e-02 -3.346938267350196838e-02 -9.358669072389602661e-02 -1.190442517399787903e-01 3.214276582002639771e-02 1.072019338607788086e-01 -1.394880563020706177e-01 -5.903507769107818604e-02 -6.592736393213272095e-02 2.571118064224720001e-02 -1.945664882659912109e-01 -1.660787463188171387e-01 2.720818817615509033e-01 1.097671985626220703e-01 -8.587634190917015076e-03 4.094040393829345703e-02 -7.912570983171463013e-02 -1.213087812066078186e-01 -1.192813217639923096e-01 8.887874335050582886e-02 6.136329844594001770e-02 -1.255197264254093170e-02 -1.531336307525634766e-01 -5.848845466971397400e-02 -1.292761862277984619e-01 -2.231609821319580078e-02 -2.840743660926818848e-01 -1.081454083323478699e-01 -9.510914981365203857e-02 1.834730990231037140e-02 3.834635391831398010e-02 4.172282293438911438e-02 -1.662322431802749634e-01 3.432757034897804260e-02 -1.022808328270912170e-01 -6.047689169645309448e-02 6.626943498849868774e-02 -7.214825600385665894e-02 4.023822769522666931e-02 -1.803800314664840698e-01 -5.888204276561737061e-02 -3.798412531614303589e-02 -1.503660380840301514e-01 -1.731442958116531372e-01 5.516850948333740234e-02 -1.939723640680313110e-01 -7.782260328531265259e-02 2.001679688692092896e-01 4.036492854356765747e-02 -9.487311542034149170e-02 -5.451942980289459229e-02 -1.344826668500900269e-01 4.798499867320060730e-02 -2.251530997455120087e-02 -4.203368350863456726e-02 -5.035674944519996643e-02 -2.167211920022964478e-01 4.894109442830085754e-02 1.003360599279403687e-01 -1.837661266326904297e-01 -1.115120127797126770e-01 6.269683688879013062e-02 -8.152729831635951996e-03 -1.473381668329238892e-01 -1.922974362969398499e-02 1.620368473231792450e-02 2.465269155800342560e-02 -3.807014971971511841e-02 1.070945858955383301e-01 -1.156155392527580261e-02 -8.541595935821533203e-02 1.765360534191131592e-01 8.513624221086502075e-02 -8.589725196361541748e-02 6.864076480269432068e-03 -2.413721680641174316e-01 -1.021415460854768753e-02 7.157609611749649048e-02 -1.754182428121566772e-01 1.953390054404735565e-02 1.645700074732303619e-02 2.427489683032035828e-02 -1.122100353240966797e-01 -1.524179577827453613e-01 -1.189599260687828064e-01 -2.057874947786331177e-01 -2.469613254070281982e-01 9.968844801187515259e-02 -3.731326386332511902e-02 2.918453142046928406e-02 -4.627926647663116455e-02 -9.026192873716354370e-02 -9.761538356542587280e-02 -4.770388081669807434e-02 -1.917428523302078247e-02 6.288300454616546631e-02 1.791539043188095093e-02 -2.337283641099929810e-01 -5.313229188323020935e-02 9.837535768747329712e-02 -2.343630790710449219e-01 -9.406261146068572998e-02 -7.208243012428283691e-02 2.586588859558105469e-01 4.743321612477302551e-02 -1.419630050659179688e-01 -1.817315965890884399e-01 -2.604815363883972168e-01 2.892343513667583466e-02 9.067613631486892700e-02 -1.371723413467407227e-01 -2.254706621170043945e-02 2.851101942360401154e-02 -4.426908493041992188e-02 8.896624296903610229e-02 4.178860411047935486e-02 -7.829957455396652222e-02 -1.232001651078462601e-02 -1.217035856097936630e-02 -3.650680929422378540e-02 4.970116913318634033e-02 -9.234412759542465210e-02 -1.121229380369186401e-01 -2.437146455049514771e-01 -3.831785870715975761e-03 2.179520949721336365e-02 4.878933355212211609e-02 8.922735229134559631e-03 -2.069044113159179688e-01 6.512591242790222168e-02 -4.515192657709121704e-02 8.985312283039093018e-02 -6.897281110286712646e-02 -1.635597087442874908e-02 6.668279320001602173e-02 1.680332869291305542e-01 -1.664972119033336639e-02 -3.340642154216766357e-02 -1.289891004562377930e-01 -8.665063977241516113e-02 -6.993218511343002319e-02 6.237972900271415710e-02 1.510289311408996582e-01 -1.355095058679580688e-01 -3.612258657813072205e-02 -1.118459459394216537e-02 -1.094538569450378418e-01 -1.135694235563278198e-01 -1.629916392266750336e-02 -1.111116111278533936e-01 -8.525843918323516846e-02 -3.111921809613704681e-02 1.753907464444637299e-02 -3.219780325889587402e-02 -1.028242632746696472e-01 -1.147340983152389526e-01 6.330117583274841309e-02 5.148366838693618774e-02 -9.030814468860626221e-02 1.213056221604347229e-02 2.522179670631885529e-02 -1.363669782876968384e-01 -7.271513342857360840e-02 -1.190171241760253906e-01 -1.996547728776931763e-01 2.072618454694747925e-01 -1.040231958031654358e-01 6.834398955106735229e-02 1.024181991815567017e-01 -2.084888517856597900e-01 1.410318911075592041e-01 1.235190927982330322e-01 -1.867315322160720825e-01 2.240870445966720581e-01 -6.196869164705276489e-02 -1.387370973825454712e-01 -6.049024872481822968e-03 6.547142751514911652e-03 -1.860709488391876221e-01 -2.463151514530181885e-02 -3.817162942141294479e-03 -1.359997093677520752e-01 -2.525319717824459076e-02 -1.173045188188552856e-01 -1.350763626396656036e-02 1.994697749614715576e-01 -2.636601924896240234e-01 -7.822042331099510193e-03 -5.080366507172584534e-02 8.506878465414047241e-02 1.381970196962356567e-02 1.400113105773925781e-01 7.955709472298622131e-03 -1.713499426841735840e-01 -1.818107366561889648e-01 -2.376023083925247192e-01 2.323711365461349487e-01 6.260582804679870605e-02 -1.503748297691345215e-01 -6.335510313510894775e-02 -3.196651488542556763e-02 -1.544602066278457642e-01 1.041703671216964722e-02 -4.093722254037857056e-02 -1.158705651760101318e-01 -1.161418482661247253e-01 4.151745885610580444e-02 -6.753390282392501831e-02 -3.174128010869026184e-02 6.517703086137771606e-02 -1.672649234533309937e-01 2.801298536360263824e-02 -9.586095064878463745e-02 -1.596618741750717163e-01 -1.404695659875869751e-01 -1.522327512502670288e-01 -4.996288195252418518e-02 -4.759216681122779846e-02 8.331798017024993896e-02 -5.020533874630928040e-02 -6.470119208097457886e-02 -1.769095659255981445e-01 -9.833626449108123779e-02 -6.838984042406082153e-02 -1.817559003829956055e-01 1.150006949901580811e-01 -1.464391350746154785e-01 -1.185490265488624573e-01 -8.208247274160385132e-02 -1.333988308906555176e-01 1.087133493274450302e-02 7.299931719899177551e-03 7.554019242525100708e-02 1.909093372523784637e-02 4.887582361698150635e-02 -6.949687004089355469e-02 -2.140045166015625000e-01 -9.495493024587631226e-03 1.010796725749969482e-01 -8.073760196566581726e-03 8.367587625980377197e-02 1.461265385150909424e-01 7.558286935091018677e-02
-9.818761795759201050e-02 6.370651721954345703e-02 -5.616804584860801697e-02 -8.192174136638641357e-02 1.453993916511535645e-01 -1.324705183506011963e-01 -5.377544462680816650e-02 -1.695854514837265015e-01 -1.960314577445387840e-03 1.107498630881309509e-02 5.933910235762596130e-02 2.282687835395336151e-02 -4.058380424976348877e-02 -8.703231811523437500e-02 -4.763945564627647400e-02 -2.136278748512268066e-01 8.860461413860321045e-02 -1.744098812341690063e-01 -2.980089746415615082e-02 3.051762282848358154e-02 -1.270591467618942261e-02 -2.866588532924652100e-02 -1.161072179675102234e-01 2.452738583087921143e-02 1.331600174307823181e-02 -1.678614467382431030e-01 4.773541912436485291e-02 -4.859903082251548767e-02 1.139263506047427654e-03 -4.407352581620216370e-02 -9.518486913293600082e-04 6.190470233559608459e-02 -8.672184497117996216e-02 1.163480337709188461e-03 -1.147904694080352783e-01 1.049370244145393372e-01 -4.703239351511001587e-02 -6.369327008724212646e-02 -8.825200796127319336e-02 -4.773422330617904663e-02 6.246288493275642395e-02 2.239716984331607819e-02 -1.021699234843254089e-02 -6.844535470008850098e-03 -2.794566005468368530e-02 -7.121836394071578979e-02 -4.780638962984085083e-02 -6.705073267221450806e-02 -8.721078187227249146e-02 -8.359514176845550537e-03 8.369909599423408508e-03 -2.682194113731384277e-02 -1.968207210302352905e-02 7.651460170745849609e-02 2.677989192306995392e-02 1.351094394922256470e-01 -1.821300573647022247e-02 -9.387985616922378540e-02 -1.469950079917907715e-01 -1.070412173867225647e-01 5.610496923327445984e-02 3.510851413011550903e-02 -1.092573162168264389e-02 5.118271335959434509e-02 -7.350166141986846924e-02 8.728446066379547119e-02 4.695044457912445068e-02 -2.226886712014675140e-02 -5.853776261210441589e-02 4.296355322003364563e-02 -1.126671861857175827e-02 2.697658492252230644e-03 5.666967015713453293e-03 1.758776903152465820e-01 -7.505704183131456375e-03 -6.491484493017196655e-02 -1.181526780128479004e-01 -6.508415192365646362e-02 -5.220462381839752197e-02 -3.946136683225631714e-02 -9.390223771333694458e-02 -3.958133514970541000e-03 -5.290289595723152161e-02 -1.500817388296127319e-01 4.855293780565261841e-02 2.649541199207305908e-02 6.664476357400417328e-03 -3.999397158622741699e-02 1.157829985022544861e-01 5.074602738022804260e-02 -6.858819723129272461e-02 -8.112287521362304688e-02 -6.717491894960403442e-02 1.473438553512096405e-02 -1.200798805803060532e-02 3.968140855431556702e-02 -1.146555542945861816e-01 -1.011952459812164307e-01 -6.152388453483581543e-02 -8.659076690673828125e-02 -1.142929419875144958e-01 1.057034134864807129e-01 -4.060937836766242981e-02 1.321144308894872665e-02 5.164167284965515137e-02 -5.725836381316184998e-02 1.050480380654335022e-01 -4.233970865607261658e-02 -8.732942864298820496e-03 -5.649035796523094177e-02 5.611043050885200500e-02 -8.499018847942352295e-02 -2.468937262892723083e-02 6.476314365863800049e-02 -4.205556958913803101e-02 -2.740391355473548174e-04 -4.847680032253265381e-02 -1.263965368270874023e-01 -5.704818293452262878e-02 -5.655707418918609619e-02 -2.906670980155467987e-02 -7.091810554265975952e-02 -1.021781116724014282e-01 -2.632368728518486023e-02 -4.603481665253639221e-02 -6.383036822080612183e-02 -1.292584240436553955e-01 -7.380823045969009399e-02 7.271661609411239624e-02 -3.609856590628623962e-02 -1.047139316797256470e-01 -8.188915997743606567e-02 -1.087267696857452393e-02 -8.890444412827491760e-03 1.778285205364227295e-02 -2.450224710628390312e-03 -1.207023337483406067e-01 -1.886288262903690338e-02 -1.374766528606414795e-01 3.423504158854484558e-02 -3.954974468797445297e-03 -2.726803906261920929e-02 -1.658027321100234985e-01 -3.049542009830474854e-02 4.385014995932579041e-02 9.321195632219314575e-02 -4.471623152494430542e-02 -3.851136937737464905e-02 -7.127835601568222046e-02 -2.194890938699245453e-02 -2.281398624181747437e-01 -2.993203699588775635e-02 -9.074999392032623291e-02 2.666896022856235504e-02 -2.399159967899322510e-02 -2.602170035243034363e-02 -4.916867613792419434e-02 -5.031181499361991882e-02 8.692304044961929321e-02 -1.543076783418655396e-01 6.346061080694198608e-02 -6.169291958212852478e-02 -3.510245680809020996e-01 -7.598606497049331665e-02 -4.021225869655609131e-02 -6.536199245601892471e-03 -7.948853075504302979e-02 -5.292830616235733032e-02 -1.510255038738250732e-02 3.899164870381355286e-02 -1.536130812019109726e-02 -1.575157418847084045e-02 2.885932661592960358e-02 1.678789965808391571e-02 5.424173176288604736e-02 -3.901970759034156799e-02 9.961963631212711334e-03 -5.554568767547607422e-02 3.023995459079742432e-02 2.653302159160375595e-03 1.036978233605623245e-02 2.838125266134738922e-02 -1.485895961523056030e-01 -7.556896656751632690e-02 -3.659616410732269287e-02 6.741853803396224976e-02 -1.083754375576972961e-01 -4.163317754864692688e-02 -5.332124605774879456e-02 8.820708841085433960e-02 -5.420838296413421631e-02 3.821279155090451241e-03 -2.822538139298558235e-03 -3.309560567140579224e-02 1.049998402595520020e-02 1.037883609533309937e-01 5.303395166993141174e-02 3.906897827982902527e-02 -9.179071523249149323e-03 -9.819678217172622681e-02 3.256243467330932617e-02 -3.816132992506027222e-02 -2.747617103159427643e-02 1.370852463878691196e-03 -6.979844532907009125e-03 -9.425851702690124512e-02 -9.547876566648483276e-02 7.694299519062042236e-02 -7.092785090208053589e-03 -1.025496944785118103e-01 -1.431356668472290039e-01 6.680002063512802124e-02 -1.660470068454742432e-01 -6.212004646658897400e-02 -5.580526776611804962e-03 -6.458849459886550903e-02 -8.778261393308639526e-02 -8.292113430798053741e-03 1.679451949894428253e-02 -3.300419449806213379e-02 -5.248400941491127014e-02 -1.368004735559225082e-02 -6.424970924854278564e-02 7.144643366336822510e-02 4.287121817469596863e-03 5.553936213254928589e-02 -1.512953545898199081e-02 -1.439695805311203003e-01 -3.035685047507286072e-02 5.410922318696975708e-02 1.370639819651842117e-02 -2.945517003536224365e-02 -9.064400941133499146e-02 -3.714634478092193604e-02 3.538478910923004150e-02 -5.212888866662979126e-02 -9.019573219120502472e-03 -4.350487515330314636e-02 1.554067479446530342e-03 2.792379260063171387e-02 -6.737370043992996216e-02 2.202308550477027893e-02 4.931591823697090149e-02 6.470551714301109314e-03 -1.112062633037567139e-01 -1.197627093642950058e-02 4.929636791348457336e-02 -1.009791996330022812e-02 -1.068413406610488892e-01 -1.451150607317686081e-02 -8.009757101535797119e-02 -4.810971766710281372e-02 -2.618102729320526123e-02 -9.666702151298522949e-02 2.657452598214149475e-02 -1.470543742179870605e-01
-9.697013348340988159e-02 5.227264016866683960e-02 -6.139079108834266663e-02 -8.729318529367446899e-02 6.923887878656387329e-02 2.398563623428344727e-01 -4.326988477259874344e-03 1.090569607913494110e-02 -7.368579506874084473e-02 -5.308461934328079224e-02 -2.892324328422546387e-02 6.312253326177597046e-02 2.990804426372051239e-02 -3.541210666298866272e-02 -5.977328494191169739e-02 -3.855231404304504395e-02 -1.086986139416694641e-01 -1.239566430449485779e-01 1.406595483422279358e-02 -3.955304250121116638e-02 -5.854183807969093323e-02 7.869353890419006348e-02 8.330253511667251587e-02 -1.172877848148345947e-01 -8.439552783966064453e-02 9.535457938909530640e-03 -5.541195347905158997e-02 3.632611781358718872e-02 -4.193429276347160339e-02 2.533294446766376495e-02 -8.412582427263259888e-02 -7.646124809980392456e-02 7.545366883277893066e-03 -2.489972626790404320e-03 3.121582232415676117e-02 -1.081761345267295837e-01 -5.393324885517358780e-03 -1.462929993867874146e-01 -7.160332519561052322e-03 -3.733169287443161011e-02 5.444265436381101608e-03 5.692278966307640076e-02 -6.285926699638366699e-02 -2.996840886771678925e-02 4.106247425079345703e-02 5.489800870418548584e-02 1.599235273897647858e-02 -1.321854256093502045e-02 -6.965245306491851807e-02 2.308414690196514130e-02 -8.252580463886260986e-02 -8.541709929704666138e-02 -2.251888811588287354e-02 3.618432965595275164e-04 -1.390198022127151489e-01 1.011202782392501831e-01 -6.378310173749923706e-02 -8.868523873388767242e-03 7.620865851640701294e-02 -9.271544963121414185e-02 8.933874219655990601e-02 -1.367348730564117432e-01 6.173271313309669495e-02 5.722945556044578552e-02 7.670518755912780762e-02 1.458469033241271973e-01 2.899320982396602631e-02 -2.185809016227722168e-01 -6.983967125415802002e-02 2.577910944819450378e-02 5.023411661386489868e-02 -7.888049632310867310e-02 7.641020417213439941e-02 1.369601786136627197e-01 4.783690348267555237e-02 1.067454554140567780e-02 4.089908674359321594e-02 -6.161534786224365234e-02 -3.805447369813919067e-02 1.033412218093872070e-01 -2.174186706542968750e-02 2.917305566370487213e-02 4.342792183160781860e-02 4.289964213967323303e-02 2.621600963175296783e-02 2.181415911763906479e-03 -2.701702527701854706e-02 5.072452872991561890e-02 -6.050897017121315002e-02 1.844168081879615784e-02 1.071800217032432556e-01 -1.361084729433059692e-01 -3.797306865453720093e-02 -1.729722507297992706e-02 2.402967773377895355e-02 -3.721458837389945984e-02 -4.933870397508144379e-03 -7.813006639480590820e-02 -5.761545896530151367e-02 -6.090840324759483337e-02 -1.196772530674934387e-01 5.672601982951164246e-02 -5.377360433340072632e-02 9.562508761882781982e-02 -1.636529713869094849e-01 -1.959147304296493530e-02 -1.225789785385131836e-01 -3.242539986968040466e-02 3.820831701159477234e-02 1.138472035527229309e-01 -7.837519049644470215e-02 2.016330882906913757e-02 -7.056353148072957993e-03 1.772569678723812103e-02 -9.606491774320602417e-02 1.233809739351272583e-01 3.419758006930351257e-02 1.035815551877021790e-01 1.903625875711441040e-01 1.157944276928901672e-01 1.273704916238784790e-01 1.821646839380264282e-02 1.349805388599634171e-02 -1.570457778871059418e-02 -2.813077904284000397e-02 -8.955267257988452911e-04 4.589702561497688293e-02 6.717114895582199097e-02 -1.222929432988166809e-01 -5.728049203753471375e-02 -5.991999804973602295e-02 4.278014972805976868e-02 -6.570006720721721649e-03 3.659440949559211731e-02 -1.440730225294828415e-02 3.283188119530677795e-02 3.827085951343178749e-03 -1.255800132639706135e-03 1.696955971419811249e-02 6.185783818364143372e-02 -1.175002194941043854e-03 -2.995435893535614014e-02 8.005166053771972656e-02 2.470862492918968201e-02 2.460826374590396881e-02 2.017501555383205414e-02 -2.618510127067565918e-01 -2.331664413213729858e-02 2.718667872250080109e-02 1.002194285392761230e-01 1.100688353180885315e-01 5.414890125393867493e-02 -8.900623023509979248e-02 -9.941248595714569092e-02 -7.918757200241088867e-02 3.157824510708451271e-03 6.543682515621185303e-02 5.711265653371810913e-02 4.236363619565963745e-02 1.061749011278152466e-01 -9.791105240583419800e-02 9.176372736692428589e-02 -8.362898975610733032e-02 -7.644834369421005249e-02 4.574623703956604004e-02 4.785335436463356018e-02 9.224475175142288208e-02 -5.284667015075683594e-02 -1.153255999088287354e-02 -1.113886982202529907e-01 -3.325898945331573486e-02 -4.599050432443618774e-02 -4.142268747091293335e-02 -6.827023625373840332e-02 -1.755686849355697632e-02 2.979539521038532257e-02 -4.173813387751579285e-03 -4.636260122060775757e-02 3.344052284955978394e-02 -5.329015199095010757e-03 -7.997245527803897858e-03 -1.171463504433631897e-01 5.719284713268280029e-02 7.062925491482019424e-03 -1.214313730597496033e-01 1.848457902669906616e-01 -2.857185155153274536e-02 -4.516146145761013031e-03 5.829327739775180817e-03 -7.194288540631532669e-03 8.373358845710754395e-02 -6.729673594236373901e-02 -4.417249187827110291e-02 8.154731988906860352e-02 -3.011360950767993927e-02 3.506227210164070129e-02 -1.828388571739196777e-01 5.869688000530004501e-03 -4.383777827024459839e-02 -4.134770482778549194e-02 5.926087126135826111e-02 -1.222766190767288208e-01 6.269543617963790894e-02 2.320602722465991974e-02 -1.232866719365119934e-01 5.062780901789665222e-02 -7.912556082010269165e-02 -1.012063324451446533e-01 1.787834987044334412e-02 3.839371725916862488e-03 9.982921183109283447e-02 1.614349521696567535e-02 -4.594949632883071899e-02 9.699771553277969360e-02 2.221005558967590332e-01 -2.560652792453765869e-02 -6.397598236799240112e-02 -2.821094356477260590e-03 -1.943081319332122803e-01 1.237582564353942871e-01 -1.128416322171688080e-02 -1.351474598050117493e-02 3.437656536698341370e-02 -1.046407520771026611e-01 2.564028277993202209e-02 -1.140990853309631348e-01 1.069020330905914307e-01 1.543923746794462204e-02 3.141051530838012695e-02 -7.704297453165054321e-02 -2.147435769438743591e-02 1.033334527164697647e-02 -1.173137221485376358e-02 1.302617937326431274e-01 3.207339718937873840e-02 -1.462206803262233734e-02 -3.240000829100608826e-02 -1.014564484357833862e-01 1.966813206672668457e-02 -2.442391961812973022e-02 4.608430713415145874e-02 -9.156526625156402588e-02 4.005284234881401062e-02 -1.973737031221389771e-03 -2.823300100862979889e-02 -2.101038843393325806e-01 -1.654714643955230713e-01 -9.151184000074863434e-03 2.523904852569103241e-02 -3.471525385975837708e-02 5.622787773609161377e-02 -1.943915635347366333e-01 -2.505967319011688232e-01 1.663480997085571289e-01 5.187648814171552658e-03 4.869294166564941406e-02
-1.611048355698585510e-03 6.955150049179792404e-03 -2.087065577507019043e-02 5.033205263316631317e-03 4.233754705637693405e-03 1.083685271441936493e-02 4.605462774634361267e-02 -5.267674848437309265e-02 -1.808405481278896332e-02 -6.103621423244476318e-02 1.605530977249145508e-01 5.097597371786832809e-03 -1.902146078646183014e-02 -1.596904359757900238e-02 1.536974962800741196e-02 -2.468052785843610764e-03 -6.824208050966262817e-02 -2.459769882261753082e-02 -9.681059420108795166e-02 -1.221236735582351685e-01 5.276647955179214478e-02 -4.389362037181854248e-02 -1.649705134332180023e-02 -4.397122561931610107e-02 -1.563416570425033569e-01 -6.013747304677963257e-02 2.194576710462570190e-02 4.043748602271080017e-02 -2.698232233524322510e-02 8.601221255958080292e-03 -9.264957159757614136e-02 -1.947700232267379761e-02 -4.723276942968368530e-02 -3.124878555536270142e-02 -3.936205990612506866e-03 -2.203759364783763885e-02 -1.059679761528968811e-01 -1.604928635060787201e-02 -7.203532010316848755e-02 -1.737154833972454071e-02 4.193852189928293228e-03 6.417908519506454468e-02 2.496814168989658356e-02 2.623919956386089325e-02 -1.118466854095458984e-01 1.111708488315343857e-02 -2.712515369057655334e-02 5.585115030407905579e-02 -1.625095903873443604e-01 -6.196044385433197021e-02 -1.716288155876100063e-03 -4.345471505075693130e-03 -1.445519626140594482e-01 -4.838987719267606735e-03 -6.580474227666854858e-02 -3.312931163236498833e-03 -3.059026412665843964e-02 5.376627296209335327e-02 4.738745465874671936e-02 2.375465584918856621e-03 -1.490376293659210205e-01 1.365450676530599594e-02 5.913276225328445435e-02 5.107716098427772522e-02 2.067107893526554108e-02 -2.959269098937511444e-02 -3.801319375634193420e-02 -1.508247386664152145e-02 2.561301179230213165e-02 7.759044319391250610e-02 -8.722793310880661011e-02 4.871127754449844360e-02 -1.260381340980529785e-01 5.962841585278511047e-02 1.146914586424827576e-01 1.246990263462066650e-01 -9.932541102170944214e-02 -3.152215853333473206e-02 -3.425272554159164429e-02 7.769928127527236938e-02 -1.287448406219482422e-01 5.749514326453208923e-02 -8.639304898679256439e-03 1.913884095847606659e-02 -7.599026709794998169e-02 1.113227754831314087e-02 -7.078438252210617065e-02 -9.500649571418762207e-02 -3.721603378653526306e-02 -1.084044575691223145e-01 2.163780108094215393e-02 -8.276289328932762146e-03 9.880589693784713745e-02 5.891428515315055847e-02 5.258332192897796631e-02 -1.033672541379928589e-01 -4.831260442733764648e-02 -1.107195392251014709e-01 -5.582151934504508972e-02 -1.313733160495758057e-01 -3.905925899744033813e-02 -9.481387585401535034e-02 1.243865489959716797e-02 -7.084777951240539551e-02 7.057363539934158325e-02 -1.244898512959480286e-01 -8.620028942823410034e-02 -6.145817041397094727e-02 -1.073351651430130005e-01 4.966234788298606873e-03 4.316645115613937378e-02 -5.308373644948005676e-02 1.694050282239913940e-01 1.008637472987174988e-01 -2.931992709636688232e-02 -3.751794248819351196e-02 -1.151219308376312256e-01 -5.079745128750801086e-02 -1.165638864040374756e-01 -1.605630037374794483e-03 -7.177510112524032593e-02 -3.237846493721008301e-02 2.676568180322647095e-02 6.111974641680717468e-02 -3.533844649791717529e-02 2.397987432777881622e-02 -4.803174361586570740e-02 6.037821248173713684e-02 -4.487178102135658264e-02 -3.081588074564933777e-02 -2.480347640812397003e-02 -5.310906562954187393e-03 -7.153777033090591431e-02 6.653312593698501587e-03 -6.570075452327728271e-02 1.912350766360759735e-02 5.963271483778953552e-02 -2.455940097570419312e-02 1.226526796817779541e-01 5.003225803375244141e-02 -3.706868737936019897e-03 -1.157076582312583923e-01 -3.840330615639686584e-02 1.165195256471633911e-01 5.423955991864204407e-02 1.230963971465826035e-03 -1.138295829296112061e-01 -1.155727542936801910e-03 -4.127653688192367554e-02 -6.932316347956657410e-03 -6.983326375484466553e-02 4.864111542701721191e-02 7.813374698162078857e-02 -1.190856564790010452e-02 -6.052924692630767822e-02 1.112399548292160034e-01 -2.395501174032688141e-02 3.194855526089668274e-02 7.566583156585693359e-02 -3.591693472117185593e-03 -4.612815007567405701e-02 2.146128565073013306e-03 -5.529836192727088928e-02 -5.247162282466888428e-02 -1.016725450754165649e-01 -1.231703814119100571e-02 8.830277621746063232e-02 -1.605086028575897217e-01 -2.141547948122024536e-02 -7.290882617235183716e-02 3.482527658343315125e-02 -5.182836949825286865e-02 -5.235738679766654968e-02 -1.241272017359733582e-01 3.303243964910507202e-02 -4.042498022317886353e-02 -8.193863928318023682e-02 7.169544696807861328e-02 5.377493333071470261e-03 -8.835641294717788696e-02 5.730993673205375671e-02 -1.073702871799468994e-01 4.477158188819885254e-02 -8.910837769508361816e-02 -3.770288825035095215e-02 2.374030277132987976e-02 2.258922718465328217e-02 1.152295693755149841e-01 -9.014733880758285522e-02 -6.685529649257659912e-02 -4.189445637166500092e-03 -1.077454239130020142e-01 6.467691808938980103e-02 1.434869505465030670e-02 2.691941335797309875e-02 -8.365146070718765259e-02 2.079919679090380669e-03 -1.710386388003826141e-02 -3.273477405309677124e-02 -2.857516147196292877e-02 3.018730506300926208e-02 3.994630649685859680e-02 -2.576832845807075500e-02 -1.199026219546794891e-02 -1.038871183991432190e-01 5.021843686699867249e-02 -1.257110089063644409e-01 -6.992823630571365356e-02 -8.559041656553745270e-03 8.212661743164062500e-02 -9.426314383745193481e-03 -8.298319578170776367e-02 -3.779535368084907532e-02 8.720637857913970947e-02 3.826098889112472534e-02 3.743252530694007874e-02 9.818122535943984985e-02 -7.260598242282867432e-02 9.822586551308631897e-03 3.576691448688507080e-02 -6.004044413566589355e-02 -3.249461576342582703e-02 9.162104129791259766e-02 -3.610908240079879761e-02 -1.609133332967758179e-01 4.179175943136215210e-02 -1.116509661078453064e-01 -4.725740477442741394e-02 -7.183094322681427002e-02 3.539056330919265747e-02 2.666507847607135773e-02 -1.896147429943084717e-02 4.814263060688972473e-02 -1.024735998362302780e-02 -8.053217083215713501e-03 1.025602295994758606e-01 -6.649746745824813843e-02 1.676815748214721680e-02 -6.193163990974426270e-02 -1.230063810944557190e-01 6.677721440792083740e-02 4.317665845155715942e-02 -1.214685812592506409e-01 -1.056042537093162537e-01 -4.764680564403533936e-02 -2.835701406002044678e-02 1.139989644289016724e-01 1.517408806830644608e-02 -6.092288345098495483e-02 -9.911686182022094727e-02 6.529193371534347534e-02 -2.310878131538629532e-03 -9.152057580649852753e-03 -1.046666204929351807e-01 -8.541114628314971924e-02 -6.848689168691635132e-03
-2.771974354982376099e-02 -2.788235060870647430e-02 -6.041080504655838013e-02 2.063637785613536835e-02 1.420864742249250412e-02 -3.063054755330085754e-02 -7.273473590612411499e-02 -9.386175125837326050e-02 -5.513929203152656555e-02 -9.140617400407791138e-02 -4.986664652824401855e-02 -5.637723580002784729e-02 4.107846692204475403e-02 -9.480828046798706055e-02 -2.488706074655056000e-02 -6.698271632194519043e-02 -9.542797505855560303e-02 -1.546086519956588745e-01 6.738340482115745544e-03 -5.281861871480941772e-02 -3.097529336810112000e-02 -1.635514199733734131e-01 -2.176709920167922974e-01 2.731430158019065857e-02 -1.935230493545532227e-01 -7.076297700405120850e-02 -5.176057294011116028e-02 -4.465043917298316956e-02 2.605241537094116211e-02 -3.758956864476203918e-02 -1.645417213439941406e-01 -2.039557993412017822e-01 -9.897338598966598511e-02 1.309936121106147766e-02 -9.803611785173416138e-02 8.085956797003746033e-03 -6.588190048933029175e-02 -5.677027627825737000e-02 -1.986674219369888306e-01 -2.115898765623569489e-02 -1.165457293391227722e-01 1.829222589731216431e-02 5.130196735262870789e-02 4.080846533179283142e-02 2.149172360077500343e-03 -3.622953966259956360e-02 4.116116464138031006e-02 -3.527144668623805046e-03 -9.455733746290206909e-02 3.220212087035179138e-02 -1.185103901661932468e-03 1.093491986393928528e-01 -1.191675215959548950e-01 9.544403292238712311e-03 1.579269999638199806e-03 1.789017207920551300e-02 -8.749294281005859375e-02 -1.116283237934112549e-01 -3.021655138581991196e-03 -5.561987310647964478e-02 2.173269540071487427e-02 -8.217605948448181152e-02 8.045958727598190308e-02 -7.073690742254257202e-02 -6.594069302082061768e-02 1.070443168282508850e-01 3.315492346882820129e-02 -7.208898663520812988e-02 -4.027588758617639542e-03 5.023720860481262207e-02 -9.189275652170181274e-02 5.234400182962417603e-02 -8.976469933986663818e-02 4.337162151932716370e-02 -3.222310170531272888e-02 -3.481304645538330078e-02 -1.192612871527671814e-01 -4.835548624396324158e-02 -9.213398396968841553e-02 4.925508052110671997e-02 -1.368460655212402344e-01 4.753007367253303528e-02 -2.766479738056659698e-02 -5.126441270112991333e-02 2.856337092816829681e-02 -7.362423837184906006e-02 8.464802056550979614e-02 8.292100392282009125e-03 -2.834742516279220581e-02 -2.464928105473518372e-02 -4.700819030404090881e-02 -9.338767081499099731e-02 -1.718763560056686401e-01 -1.009218618273735046e-01 7.359716575592756271e-03 -2.342254668474197388e-01 -9.146728366613388062e-02 4.002342000603675842e-02 4.429280385375022888e-02 4.067288339138031006e-02 -6.907461583614349365e-02 -1.790526807308197021e-01 -3.775036334991455078e-02 -1.038651987910270691e-01 -1.518361177295446396e-02 -1.029424816370010376e-01 -2.375080995261669159e-02 -8.232727996073663235e-04 9.385485202074050903e-02 -5.790748074650764465e-02 -7.858420163393020630e-02 -1.670667715370655060e-02 1.742701046168804169e-02 1.240737736225128174e-01 7.795882970094680786e-02 -8.220273256301879883e-02 -1.102054957300424576e-02 3.183808177709579468e-02 -2.704332210123538971e-02 -5.301097035408020020e-02 4.830633103847503662e-02 -3.396325185894966125e-02 -1.176833659410476685e-01 -7.411122322082519531e-02 -1.632309705018997192e-01 -1.358999311923980713e-01 -6.206168234348297119e-02 -6.063882028684020042e-04 -9.228226542472839355e-02 7.190680503845214844e-02 2.704455889761447906e-02 -6.510460376739501953e-02 -4.368625115603208542e-03 6.409288942813873291e-02 -4.222003743052482605e-02 -2.996423980221152306e-03 -1.449462678283452988e-02 -4.525907710194587708e-02 -1.518447846174240112e-01 6.082551181316375732e-02 -4.832965135574340820e-02 9.645473212003707886e-02 -7.113435119390487671e-02 4.026186093688011169e-02 4.221970960497856140e-02 1.529813930392265320e-02 -2.389465644955635071e-02 -1.480817496776580811e-01 -6.919996440410614014e-02 1.579179801046848297e-02 -6.348600983619689941e-02 6.639440078288316727e-03 3.767635673284530640e-02 7.355652749538421631e-02 -6.392888724803924561e-02 1.404721476137638092e-02 -6.989938020706176758e-02 -7.649704813957214355e-02 3.471550345420837402e-02 1.151820551604032516e-02 -1.065730154514312744e-01 -5.357827525585889816e-03 -1.345182955265045166e-02 7.060392946004867554e-02 1.342653483152389526e-02 -2.210920490324497223e-02 5.139853060245513916e-02 -6.551843881607055664e-02 -3.363266214728355408e-02 -1.171861588954925537e-01 7.634392380714416504e-02 -1.499443780630826950e-03 -2.777608297765254974e-02 -4.519027192145586014e-03 -4.554352909326553345e-02 -5.039531737565994263e-02 -8.754386752843856812e-02 -1.003926396369934082e-01 6.658082455396652222e-02 -1.591959595680236816e-02 5.098029226064682007e-02 -8.831796050071716309e-02 -1.732543855905532837e-01 -3.659464046359062195e-02 -6.998948752880096436e-02 -6.644245237112045288e-02 -1.181074827909469604e-01 -2.270838245749473572e-02 -6.212525814771652222e-02 -2.564169093966484070e-02 -1.339794546365737915e-01 1.239404827356338501e-02 4.640010744333267212e-02 -7.298353314399719238e-02 6.518129725009202957e-03 -9.549029916524887085e-02 1.205002237111330032e-02 -1.862572580575942993e-01 7.324509322643280029e-02 -2.418387979269027710e-01 -8.758491277694702148e-02 1.237523742020130157e-02 6.354466546326875687e-03 -3.558589518070220947e-02 -9.731408953666687012e-02 -3.405374288558959961e-02 -2.907096780836582184e-02 -1.034254655241966248e-01 -3.816033154726028442e-02 -6.683991290628910065e-03 -9.982135891914367676e-02 -1.502231955528259277e-01 -3.727787360548973083e-02 1.305604446679353714e-02 5.825864151120185852e-02 -4.092471674084663391e-02 -8.012307435274124146e-02 3.209274262189865112e-02 -1.619049608707427979e-01 -1.211408451199531555e-01 2.382210642099380493e-02 -7.941376417875289917e-02 -2.520476002246141434e-03 1.085283234715461731e-01 8.901059627532958984e-03 -2.187282964587211609e-02 -6.069272011518478394e-02 -3.313327580690383911e-02 -3.116996667813509703e-04 -2.607646211981773376e-02 1.330312248319387436e-02 -3.982415050268173218e-02 -8.361276984214782715e-02 1.054228469729423523e-02 -9.070751070976257324e-02 -1.488488540053367615e-02 -6.183131411671638489e-02 -1.262350529432296753e-01 8.959060534834861755e-03 -7.553691416978836060e-02 -7.428183406591415405e-02 -3.418355062603950500e-02 -7.713196426630020142e-02 3.147315233945846558e-03 -3.062023594975471497e-02 -1.194088906049728394e-01 -2.004645951092243195e-02 1.799232792109251022e-03 4.516317322850227356e-02 6.064419448375701904e-02 8.456411771476268768e-03 1.865631528198719025e-02 -7.788995746523141861e-03 -9.114407747983932495e-02 -5.143704358488321304e-03 -5.608351435512304306e-03
-1.229304168373346329e-02 5.826748441904783249e-03 3.825139999389648438e-02 -1.550605148077011108e-02 -3.863711357116699219e-01 -6.282299011945724487e-02 -5.923882499337196350e-02 -8.860913664102554321e-02 -8.975497633218765259e-02 -5.880552530288696289e-02 -9.417031705379486084e-02 1.806456595659255981e-02 -6.734713166952133179e-02 -8.192695677280426025e-02 -1.091682836413383484e-01 -3.543208539485931396e-02 -1.828795857727527618e-02 9.709941595792770386e-02 3.000790067017078400e-02 -6.699780351482331753e-04 4.353205207735300064e-03 -6.091715022921562195e-02 7.601930201053619385e-02 -1.053803116083145142e-01 -6.449478864669799805e-02 -6.859456747770309448e-02 2.754977904260158539e-02 1.369049120694398880e-02 -6.712740659713745117e-02 -1.055197641253471375e-01 -4.121635854244232178e-02 6.649864464998245239e-02 -1.659136614762246609e-03 4.148568585515022278e-02 -1.147897765040397644e-01 1.236165873706340790e-02 -4.341115429997444153e-02 -5.343423411250114441e-02 1.016330439597368240e-02 1.233430113643407822e-03 -9.730897098779678345e-02 -1.825615912675857544e-01 6.419345736503601074e-02 5.970820784568786621e-02 1.066046133637428284e-01 4.683961346745491028e-02 -9.663430601358413696e-02 -1.503008306026458740e-01 -2.571480348706245422e-02 -3.120286017656326294e-02 1.306914538145065308e-02 -1.019477173686027527e-01 -1.375367492437362671e-01 -3.585630953311920166e-01 3.435008600354194641e-02 1.034261509776115417e-01 5.127823725342750549e-02 9.828606620430946350e-03 7.169540971517562866e-02 -1.034393310546875000e-01 6.643669307231903076e-02 -1.030535921454429626e-01 -5.976737290620803833e-02 1.045374479144811630e-02 2.109152823686599731e-02 2.555342763662338257e-02 4.959578067064285278e-02 -4.881290346384048462e-02 -8.910506963729858398e-02 9.544266760349273682e-02 -3.183519095182418823e-02 -5.064941570162773132e-02 -2.156513184309005737e-02 4.005613178014755249e-02 2.958088181912899017e-02 -2.011858392506837845e-03 -4.904527589678764343e-02 2.347711846232414246e-02 -5.002824962139129639e-02 7.884057611227035522e-02 -1.965437456965446472e-02 -8.411011844873428345e-02 4.457676038146018982e-02 2.874308079481124878e-02 9.772547334432601929e-02 4.661685600876808167e-02 -1.577466726303100586e-01 2.045360952615737915e-02 -2.483184263110160828e-02 -3.767951577901840210e-02 1.426640152931213379e-01 -6.274847686290740967e-02 4.660766944289207458e-02 -4.838317260146141052e-02 9.659638255834579468e-02 -1.037888824939727783e-01 -6.785198301076889038e-02 2.789263799786567688e-02 -1.657398603856563568e-02 -3.768065944314002991e-02 -7.505822181701660156e-02 -7.396339625120162964e-02 -1.087980344891548157e-01 -3.312044590711593628e-02 -1.430659294128417969e-01 -4.948177933692932129e-02 -1.037030965089797974e-01 -1.375161558389663696e-01 -4.827447235584259033e-02 7.157199829816818237e-02 -1.124658435583114624e-02 -9.436617791652679443e-02 5.714318901300430298e-02 -5.252700671553611755e-02 -3.520608693361282349e-02 -4.480510205030441284e-02 -4.684741050004959106e-02 -7.456623017787933350e-02 -5.179716274142265320e-03 3.389160335063934326e-02 -4.351220279932022095e-02 -1.156298723071813583e-02 5.894871428608894348e-02 -6.865905970335006714e-02 3.866955637931823730e-02 -2.509344555437564850e-02 1.089878007769584656e-02 -1.860720962285995483e-01 -4.271055757999420166e-02 -2.130200900137424469e-02 -1.602725237607955933e-01 -9.043465368449687958e-03 -1.338612139225006104e-01 8.521123975515365601e-02 -1.598399430513381958e-01 -9.652580134570598602e-03 -2.018983364105224609e-01 -1.033605933189392090e-01 -3.966913372278213501e-02 3.281432017683982849e-02 -7.858844473958015442e-03 -7.440870255231857300e-02 -6.410556286573410034e-02 1.072899810969829559e-02 5.461090058088302612e-02 -5.650868639349937439e-03 -1.326342523097991943e-01 1.934790238738059998e-02 -9.206416457891464233e-02 -1.312179770320653915e-02 -2.846193872392177582e-02 3.077158518135547638e-02 -5.235382821410894394e-03 6.810212042182683945e-03 -3.777306899428367615e-02 -4.161869361996650696e-02 3.017679415643215179e-02 -2.912790700793266296e-02 4.213843122124671936e-02 1.003147754818201065e-02 7.544713094830513000e-03 1.090718656778335571e-01 2.957476675510406494e-02 -1.456810384988784790e-01 1.061309501528739929e-01 9.025284647941589355e-02 8.946207165718078613e-02 7.815698161721229553e-03 -1.346492320299148560e-01 -2.977574057877063751e-02 2.738701179623603821e-02 -5.916973948478698730e-02 -9.954395145177841187e-02 -7.966982200741767883e-03 3.150260075926780701e-02 -8.420193940401077271e-02 -2.410056442022323608e-01 -2.410858124494552612e-01 -4.463949427008628845e-02 -1.549502611160278320e-01 1.089715282432734966e-03 5.774405598640441895e-02 -6.504493299871683121e-03 -1.689206361770629883e-01 1.862692460417747498e-02 -8.699354529380798340e-02 -2.299428544938564301e-02 -1.307715773582458496e-01 4.912639409303665161e-02 -1.861882805824279785e-01 1.365767884999513626e-02 -1.202254649251699448e-02 -2.317396402359008789e-01 -2.598939836025238037e-02 -2.108819968998432159e-02 1.436371505260467529e-01 -2.082203030586242676e-01 1.390614919364452362e-02 3.587659448385238647e-02 5.140252411365509033e-02 -9.301731735467910767e-02 7.075030356645584106e-03 -1.562920957803726196e-02 7.328952848911285400e-02 4.008737578988075256e-02 -5.979394540190696716e-02 -3.653494268655776978e-02 -2.868539653718471527e-02 -6.490298360586166382e-02 -5.271418485790491104e-03 6.654217094182968140e-02 -1.240338012576103210e-01 -2.906847558915615082e-02 1.301674451678991318e-02 3.519681841135025024e-02 -4.792524129152297974e-02 2.958156913518905640e-02 -4.518379271030426025e-02 -9.141987189650535583e-03 -4.346321895718574524e-02 -4.082509502768516541e-02 -3.300361335277557373e-02 -3.925227746367454529e-02 -8.803948014974594116e-02 -6.390005350112915039e-02 -3.352989628911018372e-02 3.208751976490020752e-02 1.774772629141807556e-02 -1.281048506498336792e-01 -3.035377338528633118e-02 -1.568524390459060669e-01 -6.631009280681610107e-02 -4.445524420589208603e-03 3.566052019596099854e-02 -9.178370982408523560e-02 2.198010534048080444e-01 5.399707239121198654e-03 -1.083284094929695129e-01 -2.983396686613559723e-02 -2.517392933368682861e-01 1.005924791097640991e-01 -2.045660838484764099e-02 5.280638486146926880e-02 -1.653867959976196289e-02 -3.266303613781929016e-02 -1.363262981176376343e-01 -5.640779808163642883e-02 -3.081970289349555969e-02 -1.091034151613712311e-02 3.744732216000556946e-02 -1.447140052914619446e-02 3.644296526908874512e-02 -1.249742135405540466e-01 5.673632025718688965e-02 -6.312195956707000732e-02 3.078070282936096191e-02
4.729314520955085754e-02 1.573130302131175995e-02 9.893304668366909027e-04 1.764568500220775604e-02 -7.010167092084884644e-02 -5.601685866713523865e-02 -8.818916231393814087e-02 -9.759109467267990112e-02 -3.598961234092712402e-02 5.906150862574577332e-02 3.517132485285401344e-03 -3.133932948112487793e-01 -5.747710913419723511e-02 -1.212604194879531860e-01 2.460299246013164520e-02 -2.302212864160537720e-01 -5.869842134416103363e-03 1.963337697088718414e-02 1.154287811368703842e-02 3.271860256791114807e-02 4.409296810626983643e-02 -9.526848047971725464e-02 -1.259602308273315430e-01 -5.886650085449218750e-02 -3.307665288448333740e-01 -1.442127227783203125e-01 -5.051183700561523438e-02 2.196100726723670959e-02 -6.552379578351974487e-02 -8.425035327672958374e-02 -8.879896253347396851e-02 -5.060315597802400589e-03 -9.368906170129776001e-02 -8.066736906766891479e-02 -5.673893727362155914e-03 2.048429334536194801e-03 -1.011300552636384964e-02 -1.384633779525756836e-01 -3.671086207032203674e-02 -5.080805160105228424e-03 3.500477597117424011e-02 -3.079851716756820679e-02 4.997756332159042358e-02 -3.869181498885154724e-02 8.158698678016662598e-02 -2.928972011432051659e-03 -1.954842545092105865e-02 -9.043642319738864899e-03 4.364080727100372314e-02 4.184368625283241272e-02 1.650589518249034882e-03 5.076609179377555847e-02 1.027736365795135498e-01 -4.646109789609909058e-02 -5.447375401854515076e-02 6.706728041172027588e-02 3.700163587927818298e-02 -2.641158998012542725e-01 -6.508815288543701172e-02 -1.653728038072586060e-01 1.151750423014163971e-02 3.387383744120597839e-02 6.510938704013824463e-02 -2.613359689712524414e-02 -5.479357764124870300e-02 -3.062802553176879883e-02 8.124505402520298958e-04 -1.946208439767360687e-02 2.985395491123199463e-02 6.560781039297580719e-03 -3.436950221657752991e-02 5.303508043289184570e-02 -5.009611323475837708e-02 5.121125280857086182e-02 3.688199445605278015e-03 -3.103300631046295166e-01 -9.720347076654434204e-02 8.471411652863025665e-03 -6.232904642820358276e-02 -8.168055117130279541e-02 -5.171763896942138672e-02 -2.769010327756404877e-02 -9.052506089210510254e-02 -1.210602000355720520e-01 2.642240002751350403e-02 -1.175155714154243469e-01 8.321430534124374390e-02 -1.380659639835357666e-01 1.430258434265851974e-02 7.338150404393672943e-03 -9.662061929702758789e-02 -2.012946009635925293e-01 -2.331060469150543213e-01 -7.766074687242507935e-02 -2.008216679096221924e-01 -2.499072439968585968e-02 4.850021004676818848e-02 4.535182192921638489e-02 8.312711864709854126e-02 6.067574024200439453e-02 -5.623179674148559570e-02 -9.822404384613037109e-02 1.479698996990919113e-02 2.318052388727664948e-02 7.700656354427337646e-02 -9.558956325054168701e-02 1.007832065224647522e-01 1.219617389142513275e-02 -6.156641989946365356e-02 -3.082373365759849548e-02 8.961487561464309692e-02 -1.978819072246551514e-02 -6.042307615280151367e-02 -8.306594938039779663e-02 -1.917460747063159943e-02 5.514759570360183716e-02 7.001338154077529907e-02 -1.846369951963424683e-01 -8.419825136661529541e-02 -7.097907364368438721e-02 -1.910144463181495667e-02 4.061546176671981812e-03 -1.224466040730476379e-02 -3.821280971169471741e-02 -3.721942380070686340e-02 -1.042657569050788879e-01 -1.765652745962142944e-02 -1.402402855455875397e-02 -1.112210284918546677e-02 7.267127186059951782e-02 1.487320102751255035e-02 -4.743768647313117981e-02 -1.435571163892745972e-02 -5.371227487921714783e-02 7.549902051687240601e-02 -1.775834113359451294e-01 1.460974384099245071e-02 7.671110332012176514e-02 -1.202264875173568726e-01 -3.023248165845870972e-02 -5.432948842644691467e-02 -1.542743481695652008e-02 -7.500221580266952515e-02 6.834252923727035522e-02 -5.291520804166793823e-02 1.037545353174209595e-01 -4.301238432526588440e-02 -8.001205325126647949e-02 1.523202378302812576e-02 -4.819728434085845947e-03 -2.944566309452056885e-01 -1.311011761426925659e-01 -1.134435981512069702e-01 -6.454139202833175659e-02 7.323694229125976562e-02 -1.693626679480075836e-02 3.911224007606506348e-02 3.972471132874488831e-02 -3.295083995908498764e-03 -6.572276353836059570e-02 1.134674847126007080e-01 1.868701167404651642e-02 -1.714835613965988159e-01 7.606526464223861694e-02 1.725163869559764862e-02 -6.117797642946243286e-02 1.026220470666885376e-01 -1.637381874024868011e-02 -6.495776772499084473e-02 -5.250923335552215576e-02 -5.848646908998489380e-02 -3.949751611799001694e-03 6.813779473304748535e-02 1.793093048036098480e-02 -1.448567211627960205e-01 -2.773294970393180847e-02 5.079492181539535522e-02 -6.011906638741493225e-02 -2.981605008244514465e-02 -6.220832839608192444e-02 7.127792388200759888e-02 1.675074696540832520e-01 -2.124657481908798218e-02 -2.141072750091552734e-01 1.749465242028236389e-03 -1.369832456111907959e-02 -1.356714069843292236e-01 7.150982320308685303e-02 -3.501183539628982544e-02 -6.961460411548614502e-02 5.699798092246055603e-02 -3.985615819692611694e-02 -5.710614845156669617e-02 1.548311486840248108e-02 -1.288816332817077637e-02 1.597186736762523651e-02 -2.434544963762164116e-03 -2.489438205957412720e-01 -2.287114039063453674e-02 -1.157578919082880020e-02 -2.395423874258995056e-02 -4.200174659490585327e-02 -2.376823313534259796e-02 -2.546339109539985657e-02 2.204769663512706757e-02 2.697808295488357544e-02 5.134492367506027222e-02 9.772096574306488037e-02 -3.987274691462516785e-02 2.517325431108474731e-02 -4.769921302795410156e-02 3.090648725628852844e-02 6.234839675016701221e-04 -1.446480751037597656e-01 4.676749557256698608e-02 4.798780009150505066e-02 -3.833932802081108093e-02 -1.460963953286409378e-02 -1.665265858173370361e-02 -3.280561789870262146e-02 -3.295620158314704895e-02 -1.453814469277858734e-02 -8.412115275859832764e-02 -1.581254228949546814e-02 -1.720909401774406433e-02 9.007143229246139526e-02 -1.762935146689414978e-02 -5.010014027357101440e-02 2.028210833668708801e-02 1.373634189367294312e-01 4.427186772227287292e-02 8.034772425889968872e-02 -2.774557843804359436e-02 -1.931928656995296478e-02 5.263657495379447937e-02 -6.219962239265441895e-02 7.226831465959548950e-02 5.895411968231201172e-02 -3.337241336703300476e-02 4.499642550945281982e-02 4.379539564251899719e-02 3.727230010554194450e-03 6.331757456064224243e-02 -1.473629921674728394e-01 -1.798524558544158936e-01 -3.887376189231872559e-02 6.678146868944168091e-02 -1.306087127886712551e-03 2.344636945053935051e-03 -8.754103630781173706e-02 -1.836535036563873291e-01 3.503586724400520325e-02 4.652273282408714294e-02 -1.276624649763107300e-01 4.035159572958946228e-02 3.517683967947959900e-02
-1.565909385681152344e-01 -7.901921123266220093e-02 4.154143971391022205e-04 -1.269058585166931152e-01 -3.783004358410835266e-02 3.132382035255432129e-02 8.943999558687210083e-02 -6.989042460918426514e-02 4.616346210241317749e-02 -9.145876765251159668e-02 1.813637167215347290e-01 -1.377447787672281265e-02 -7.529596239328384399e-02 5.715799331665039062e-02 1.287461444735527039e-02 -1.265161037445068359e-01 7.570519298315048218e-02 7.628876715898513794e-03 -5.944801121950149536e-02 5.611630901694297791e-02 7.318856567144393921e-02 4.819645360112190247e-02 -1.293274909257888794e-01 -5.607227981090545654e-02 2.005435898900032043e-02 1.341281458735466003e-02 7.250418514013290405e-02 -3.511147946119308472e-02 1.779579184949398041e-02 1.469453275203704834e-01 -7.202340662479400635e-02 -1.060037612915039062e-01 3.617570549249649048e-02 -3.134740889072418213e-02 -1.594351083040237427e-01 6.519931368529796600e-03 5.626115947961807251e-02 -5.670867487788200378e-02 -1.298778038471937180e-02 7.569637149572372437e-02 7.888127118349075317e-02 5.799732636660337448e-03 -5.523507669568061829e-02 -1.091874167323112488e-01 -5.210725963115692139e-02 8.258206397294998169e-02 -1.388399749994277954e-01 -7.201573252677917480e-02 6.935011595487594604e-02 -3.704190952703356743e-03 -3.979496657848358154e-02 8.327079005539417267e-03 -7.240916788578033447e-02 2.241978421807289124e-02 4.300105571746826172e-02 3.548194840550422668e-02 -1.501161139458417892e-02 -3.948650509119033813e-02 -4.139301180839538574e-02 -5.434562265872955322e-02 1.384176909923553467e-01 -9.883623570203781128e-02 -5.540531128644943237e-02 6.465160101652145386e-02 3.532966074999421835e-04 6.641480326652526855e-02 -5.791669711470603943e-02 -1.092209294438362122e-02 -3.038235474377870560e-03 1.835817247629165649e-01 -6.444839388132095337e-02 8.865080773830413818e-03 5.361624807119369507e-02 -1.073174998164176941e-01 1.735165249556303024e-03 -2.494326606392860413e-02 1.376092899590730667e-02 5.701536778360605240e-03 2.563721686601638794e-02 -5.702395737171173096e-02 -2.500719018280506134e-02 -3.402416408061981201e-02 -7.186584174633026123e-02 -1.038507297635078430e-01 1.122688055038452148e-01 3.894788399338722229e-02 3.018376044929027557e-02 -5.524471402168273926e-02 -1.262556295841932297e-02 -4.260121285915374756e-02 9.437530301511287689e-03 1.199099943041801453e-01 -9.626293182373046875e-02 6.273432075977325439e-02 7.842624932527542114e-02 -4.584664106369018555e-02 -9.461050480604171753e-02 -5.121200531721115112e-02 9.879789315164089203e-03 -1.023052930831909180e-01 -8.323519676923751831e-02 -4.183825105428695679e-02 -6.266225129365921021e-02 -4.827149212360382080e-02 7.485694438219070435e-02 1.567903161048889160e-02 4.606718197464942932e-03 -1.857431419193744659e-02 2.547410130500793457e-02 7.218223810195922852e-02 1.057156473398208618e-01 1.612341776490211487e-02 8.521963842213153839e-03 -6.369964778423309326e-02 -1.150118857622146606e-01 -4.859881009906530380e-03 -3.092976100742816925e-02 1.171630923636257648e-03 -1.438237540423870087e-02 4.231134429574012756e-02 2.342926338315010071e-02 -3.535308176651597023e-03 6.959115713834762573e-02 -4.532049596309661865e-02 -1.451783115044236183e-03 1.192356273531913757e-01 -1.611270457506179810e-01 -8.104322850704193115e-02 3.528857836499810219e-03 4.356402531266212463e-02 4.484449978917837143e-03 2.652220055460929871e-02 -1.257226336747407913e-02 6.164864078164100647e-02 8.651774376630783081e-03 1.643404830247163773e-03 -8.577071130275726318e-02 -4.745879769325256348e-02 1.637525111436843872e-02 5.137478560209274292e-02 -2.683417312800884247e-02 6.277051754295825958e-03 -5.561315640807151794e-02 -6.855408102273941040e-02 2.900336682796478271e-02 2.068243548274040222e-02 -1.009545475244522095e-01 2.725181868299841881e-03 4.316206090152263641e-03 -7.781108724884688854e-04 2.589822188019752502e-02 1.905456483364105225e-01 1.768364012241363525e-02 5.306607857346534729e-02 6.034696102142333984e-02 4.372046142816543579e-02 -1.729104481637477875e-02 9.870074689388275146e-02 -7.919045537710189819e-02 1.500579435378313065e-02 -3.932090848684310913e-02 9.315854310989379883e-02 1.136701367795467377e-02 3.665756061673164368e-02 5.574283376336097717e-02 6.733542680740356445e-02 1.413798611611127853e-02 4.576501250267028809e-02 3.981659188866615295e-02 -1.190150063484907150e-02 2.192848175764083862e-02 -1.461925078183412552e-02 -6.809256970882415771e-02 3.405424579977989197e-02 -1.367674861103296280e-02 -2.042724750936031342e-02 4.345476999878883362e-02 -3.357271431013941765e-03 -6.601332873106002808e-02 1.635265164077281952e-02 1.240334473550319672e-02 -6.123116239905357361e-03 -3.152872249484062195e-02 8.554861880838871002e-03 -1.390390098094940186e-01 -3.165357280522584915e-03 -3.965311124920845032e-02 -3.431909158825874329e-02 2.677717246115207672e-02 -2.095717005431652069e-02 5.289991945028305054e-02 2.812020294368267059e-02 -1.770843751728534698e-02 -6.163015961647033691e-03 -7.103471457958221436e-02 -7.001982536166906357e-03 4.096785932779312134e-02 -1.293650120496749878e-01 5.117130279541015625e-02 1.071197986602783203e-01 6.688110530376434326e-02 8.711292594671249390e-02 -6.788340955972671509e-02 -4.078915715217590332e-02 -9.774892032146453857e-02 -1.018948778510093689e-01 7.008946035057306290e-03 1.102120354771614075e-01 1.028841212391853333e-01 2.137805894017219543e-02 -1.683486625552177429e-02 4.918243736028671265e-02 6.664904206991195679e-02 9.172688238322734833e-03 -8.224835991859436035e-02 -1.037190034985542297e-01 8.592414110898971558e-02 1.589154079556465149e-02 6.899008899927139282e-02 -3.289159759879112244e-02 -1.345635056495666504e-01 -2.850848995149135590e-02 3.820375353097915649e-02 -8.670219779014587402e-02 4.626030102372169495e-02 2.899938635528087616e-02 8.285994641482830048e-03 2.600681968033313751e-02 -3.228042274713516235e-02 -7.291433215141296387e-02 -1.344543974846601486e-02 2.438131486997008324e-03 -9.180931746959686279e-02 -2.447321452200412750e-02 -2.604723162949085236e-02 5.560982599854469299e-02 -3.920478373765945435e-02 -3.168961778283119202e-02 7.205334305763244629e-02 -3.891224041581153870e-02 7.932429015636444092e-02 3.173132613301277161e-02 2.305054478347301483e-02 -2.183616906404495239e-02 -1.371951866894960403e-02 -6.904578953981399536e-02 -7.521327584981918335e-02 3.668121248483657837e-02 1.265613269060850143e-02 3.428073227405548096e-02 3.454209119081497192e-02 -9.779180586338043213e-02 -5.845846608281135559e-02 1.371339196339249611e-03 -1.065101698040962219e-01 -9.067197144031524658e-02
-5.794895067811012268e-02 3.191576153039932251e-02 -9.936041384935379028e-02 -8.302572183310985565e-03 -2.223181724548339844e-01 4.416206106543540955e-02 -7.858438789844512939e-02 1.344010978937149048e-02 -5.724880099296569824e-02 -1.247144341468811035e-01 -9.886023402214050293e-02 5.160751566290855408e-02 4.493675008416175842e-02 1.861828379333019257e-02 -1.891137473285198212e-02 9.859276004135608673e-03 9.502436220645904541e-02 5.057269707322120667e-02 -4.945163801312446594e-02 -2.871089801192283630e-02 -2.193119563162326813e-02 -1.269524693489074707e-01 5.250854417681694031e-02 -2.394499480724334717e-01 6.699219346046447754e-02 -1.203758344054222107e-01 7.435011118650436401e-02 8.155937492847442627e-02 -1.445282697677612305e-01 -7.256229966878890991e-02 -4.867931827902793884e-02 -7.907242327928543091e-02 8.834057301282882690e-02 3.509268909692764282e-02 8.982187137007713318e-03 6.865981966257095337e-02 -1.107305288314819336e-01 -7.352197915315628052e-02 -5.101367831230163574e-02 -1.393000632524490356e-01 -1.210676878690719604e-02 -2.973267994821071625e-02 -1.197502091526985168e-01 -7.641545031219720840e-03 1.898680627346038818e-01 -3.270615264773368835e-02 8.564962446689605713e-02 -1.114456728100776672e-01 -5.569680407643318176e-02 -3.753569722175598145e-02 1.445816755294799805e-01 -5.950275436043739319e-02 -5.486134067177772522e-02 -1.041214913129806519e-01 7.094101049005985260e-03 1.802467405796051025e-01 7.942703552544116974e-03 6.541735678911209106e-02 7.513581775128841400e-03 3.313319757580757141e-02 -2.551544457674026489e-02 -3.286346793174743652e-02 -2.350826933979988098e-02 6.865973118692636490e-03 1.994147524237632751e-02 -1.776331365108489990e-01 -7.229495793581008911e-02 -2.273264974355697632e-01 -5.242228507995605469e-02 6.781680881977081299e-02 -4.404195584356784821e-03 -5.249543115496635437e-02 -1.852825880050659180e-01 1.697934791445732117e-02 4.828682169318199158e-02 -2.850257232785224915e-02 -9.442003071308135986e-02 8.776900917291641235e-02 -7.428974378854036331e-03 -6.321860849857330322e-02 -8.961239457130432129e-02 -8.132649213075637817e-02 -3.034590929746627808e-02 7.215365767478942871e-02 4.203216359019279480e-02 1.576713025569915771e-01 -3.275594208389520645e-03 -1.113822236657142639e-01 7.897417992353439331e-02 -4.282310605049133301e-02 5.056630074977874756e-02 -3.137553110718727112e-02 2.419652231037616730e-02 6.387801468372344971e-02 6.579817831516265869e-02 -4.704974219202995300e-02 -6.963170319795608521e-02 -1.075392216444015503e-02 4.344381019473075867e-02 3.366816788911819458e-02 -3.190547227859497070e-02 -4.388426244258880615e-02 -7.758881896734237671e-02 1.021591201424598694e-01 -7.305396348237991333e-02 -4.923339933156967163e-02 -3.177566826343536377e-02 -4.279668629169464111e-02 -6.158426403999328613e-02 -7.100983988493680954e-03 -1.228297725319862366e-01 1.023184880614280701e-02 2.952497452497482300e-02 -5.938054993748664856e-02 -1.576517969369888306e-01 -1.263322532176971436e-01 5.831459537148475647e-02 -7.095757126808166504e-02 3.636536747217178345e-02 -3.105717599391937256e-01 -7.735424488782882690e-02 -3.464554995298385620e-02 -8.233737200498580933e-02 -1.197892054915428162e-01 -1.275623589754104614e-01 -2.523327991366386414e-02 -4.222051054239273071e-02 -8.054697886109352112e-03 6.226662173867225647e-02 1.127192527055740356e-01 3.061240073293447495e-03 2.975665219128131866e-02 -9.065359085798263550e-02 -7.312918454408645630e-02 -9.161704033613204956e-02 -5.614281445741653442e-02 -1.833218485116958618e-01 6.288208812475204468e-02 -3.058425709605216980e-02 1.928524114191532135e-02 1.211701333522796631e-01 -8.422399312257766724e-02 6.589654088020324707e-02 2.886814624071121216e-02 1.540165543556213379e-01 1.407561451196670532e-01 -6.141844764351844788e-02 -5.574703682214021683e-03 -1.245844662189483643e-01 7.979703694581985474e-02 8.666063100099563599e-02 4.715512692928314209e-02 -3.774098679423332214e-02 1.899404637515544891e-02 4.914113879203796387e-02 -8.797804266214370728e-02 -9.250842966139316559e-03 8.548013865947723389e-03 -7.694616168737411499e-02 1.306139975786209106e-01 -9.776993095874786377e-02 -1.017085686326026917e-01 -8.430073410272598267e-02 -5.222528241574764252e-03 -2.480696514248847961e-02 4.172530025243759155e-02 1.383766978979110718e-01 -5.745648592710494995e-02 6.098287925124168396e-02 -7.014445960521697998e-02 -1.030288711190223694e-01 -1.775556989014148712e-02 -5.865621939301490784e-02 1.057973802089691162e-01 1.172509230673313141e-02 1.323494501411914825e-02 -1.785332113504409790e-01 1.466674497351050377e-03 -1.090216487646102905e-01 -5.330203101038932800e-02 8.814931660890579224e-02 4.244919493794441223e-02 2.503144182264804840e-02 -8.068031072616577148e-02 6.144629046320915222e-02 3.529693931341171265e-02 -1.277271509170532227e-01 1.714948751032352448e-02 -1.531288176774978638e-01 -2.710411511361598969e-02 -4.665526747703552246e-02 -1.156676635146141052e-01 -2.010832428932189941e-01 1.022301167249679565e-01 -1.339346170425415039e-01 2.124266512691974640e-02 2.243154868483543396e-02 -1.105916053056716919e-01 1.521328985691070557e-01 -8.525867015123367310e-03 -5.892040673643350601e-03 -8.402019739151000977e-02 3.384199365973472595e-02 2.278511412441730499e-02 -6.448509544134140015e-02 -1.341664046049118042e-02 -3.161617368459701538e-02 2.022344619035720825e-02 -1.488924771547317505e-01 2.689692974090576172e-01 -4.905721545219421387e-02 9.002362191677093506e-02 -2.983022108674049377e-02 4.407935962080955505e-02 1.493387110531330109e-02 -6.276146322488784790e-02 3.162313252687454224e-02 -1.056014522910118103e-01 -1.129167899489402771e-01 1.072053536772727966e-01 -3.701405227184295654e-02 -5.954850837588310242e-02 -1.270880997180938721e-01 -9.027357399463653564e-02 -2.430850453674793243e-02 -4.579652100801467896e-02 4.727761726826429367e-03 -8.639804273843765259e-02 -3.490111231803894043e-02 5.832798033952713013e-02 -9.447144716978073120e-02 4.705287050455808640e-03 -3.633855283260345459e-02 1.361295301467180252e-02 -1.831574589014053345e-01 -1.591749116778373718e-02 -5.934480205178260803e-02 -9.499500691890716553e-02 5.000001937150955200e-02 -9.113169461488723755e-02 8.528734557330608368e-03 -8.933324366807937622e-02 1.339546404778957367e-02 -3.214487805962562561e-02 -3.335326910018920898e-02 -2.487730979919433594e-02 -5.437285825610160828e-02 8.850370650179684162e-04 2.004437521100044250e-02 -1.679608076810836792e-01 -1.825539916753768921e-01 -8.257129788398742676e-02 -1.421281397342681885e-01 -9.189955145120620728e-02 -6.185295432806015015e-02 1.192542165517807007e-02
