2.575333043932914734e-02
-8.130755275487899780e-02
-1.256345957517623901e-01
-9.891253896057605743e-03
3.368477150797843933e-02
-1.130492053925991058e-02
-9.006688743829727173e-02
-1.271213889122009277e-01
2.806126140058040619e-02
9.356586262583732605e-03
1.355293113738298416e-02
-1.177066937088966370e-01
-6.609890609979629517e-02
1.667847856879234314e-02
-3.703487291932106018e-02
-1.654071360826492310e-01
-2.071962505578994751e-02
-1.005050390958786011e-01
-4.637517407536506653e-02
-2.020650170743465424e-02
-4.087718203663825989e-02
1.671433635056018829e-02
-1.622767597436904907e-01
7.727494090795516968e-02
-1.567742787301540375e-02
-7.996939867734909058e-02
-9.271601587533950806e-02
-6.295908987522125244e-02
6.327458471059799194e-02
-5.619104579091072083e-02
-3.105454333126544952e-02
-1.431675702333450317e-01
-6.940872967243194580e-02
-1.896925568580627441e-01
-5.752035230398178101e-02
-4.018528270535171032e-04
-3.962407819926738739e-03
-6.024266034364700317e-02
-1.434957515448331833e-02
3.025385923683643341e-02
-6.597981601953506470e-02
-6.792604923248291016e-02
-5.630509555339813232e-02
-9.813797660171985626e-03
-1.169269979000091553e-01
2.547236718237400055e-02
-4.946447908878326416e-03
-8.171428926289081573e-03
4.226764291524887085e-02
6.459936499595642090e-02
-2.738901041448116302e-02
-1.765853539109230042e-02
3.546632826328277588e-02
7.642634212970733643e-02
-5.925353243947029114e-02
-9.763681888580322266e-02
-7.857546210289001465e-03
-1.242435649037361145e-01
-1.352392435073852539e-01
-1.317935138940811157e-01
-4.687400534749031067e-02
6.060718372464179993e-02
-6.469794362783432007e-02
-1.020369529724121094e-01
-1.279364377260208130e-01
-4.949421156197786331e-03
-1.144341006875038147e-02
-5.798070877790451050e-02
-1.113102659583091736e-01
9.322635084390640259e-02
7.401793263852596283e-03
-6.070837005972862244e-02
3.995478898286819458e-02
-6.185204908251762390e-02
-1.117609515786170959e-01
-1.641753762960433960e-01
7.159628719091415405e-02
-5.605586804449558258e-03
-7.313764095306396484e-02
3.103728638961911201e-03
5.644764751195907593e-02
2.637848723679780960e-03
1.007939339615404606e-03
-1.647177040576934814e-01
-7.143077254295349121e-02
-1.884517371654510498e-01
4.941844567656517029e-02
2.363748289644718170e-02
-5.192266311496496201e-03
4.417864605784416199e-02
-2.896078489720821381e-02
-9.177809953689575195e-02
-1.503224670886993408e-01
-9.327383711934089661e-03
-2.823517322540283203e-01
-5.585116520524024963e-02
5.004346743226051331e-02
-3.308428451418876648e-02
2.044225111603736877e-02
-7.667637616395950317e-02
-3.462740406394004822e-02
-1.546781659126281738e-01
-5.508099868893623352e-02
-1.443176865577697754e-01
1.054188609123229980e-02
-4.251171834766864777e-03
8.026136085391044617e-03
5.509267095476388931e-03
7.805877178907394409e-02
1.407893956638872623e-03
-1.318468246608972549e-02
-6.279927492141723633e-02
-4.950843751430511475e-02
7.075324654579162598e-02
1.320393639616668224e-03
1.804452203214168549e-02
-8.239603787660598755e-02
-5.395551025867462158e-02
5.641526542603969574e-03
2.527930773794651031e-02
-1.507042627781629562e-02
1.767065748572349548e-02
7.618153840303421021e-02
1.703068241477012634e-02
-7.176195830106735229e-02
-2.090746536850929260e-03
-9.588029235601425171e-02
1.642532087862491608e-02
-1.798012107610702515e-02
-8.597581647336483002e-03
-1.633736118674278259e-02
-7.715316116809844971e-02
-7.908800989389419556e-02
-6.427181512117385864e-02
5.962829664349555969e-02
6.158748874440789223e-04
-8.533990383148193359e-02
-2.987349405884742737e-02
-8.835518360137939453e-02
-1.095714792609214783e-01
-6.339544057846069336e-02
-3.359292633831501007e-03
-1.898813098669052124e-01
-6.641349196434020996e-02
-7.597088813781738281e-02
-7.096233218908309937e-02
-1.400687638670206070e-02
1.908688247203826904e-02
7.572492957115173340e-02
-8.479487150907516479e-02
-2.480570524930953979e-01
1.430204417556524277e-02
-1.261267066001892090e-01
4.850579798221588135e-02
-7.278656959533691406e-02
-7.764294277876615524e-03
2.785373106598854065e-02
5.267051979899406433e-03
-1.217383425682783127e-02
4.396957810968160629e-04
-6.395499408245086670e-02
-4.990165680646896362e-02
-2.535280399024486542e-02
-6.486178841441869736e-03
-2.351337298750877380e-02
-9.375335276126861572e-02
-9.968139976263046265e-02
2.415612898766994476e-02
-8.486051857471466064e-02
-1.169874216429889202e-03
-1.268159039318561554e-02
-1.893097348511219025e-02
6.992328166961669922e-02
1.639600098133087158e-02
-3.084992170333862305e-01
3.189620096236467361e-03
4.997379705309867859e-02
-1.014902144670486450e-01
-1.299715340137481689e-01
7.930891960859298706e-02
-3.962175548076629639e-02
-2.599227242171764374e-02
-2.781318128108978271e-01
-8.292466402053833008e-02
5.798873305320739746e-02
-5.397532880306243896e-02
-7.596855610609054565e-02
-2.001682855188846588e-02
4.409404098987579346e-02
2.598531544208526611e-02
-2.341787517070770264e-02
8.761031180620193481e-02
-7.635399699211120605e-02
-4.882933944463729858e-02
4.070540890097618103e-03
-1.316338479518890381e-01
-5.565534159541130066e-02
-1.976044327020645142e-01
1.136135030537843704e-02
-5.496528465300798416e-03
6.740144640207290649e-02
-1.527179777622222900e-01
-1.490651220083236694e-01
2.765456400811672211e-02
2.598664350807666779e-02
5.316400900483131409e-02
-4.769821465015411377e-02
-4.955267161130905151e-02
9.115418791770935059e-02
-1.814568936824798584e-01
-3.234732896089553833e-03
3.552176803350448608e-02
-6.540498137474060059e-02
1.512197591364383698e-02
-1.994020044803619385e-01
-6.108900904655456543e-02
-4.276566579937934875e-02
5.215569213032722473e-02
1.099483296275138855e-01
-4.890605062246322632e-02
-9.984686970710754395e-03
5.109085887670516968e-02
5.004724860191345215e-02
-4.210687056183815002e-02
2.206482179462909698e-02
-4.598199576139450073e-02
1.281811576336622238e-02
-2.030773647129535675e-02
6.371363252401351929e-02
-6.086188182234764099e-02
-7.038006931543350220e-02
-3.363763215020298958e-03
5.283490754663944244e-03
-1.354850362986326218e-02
1.050967443734407425e-02
-2.119776047766208649e-02
3.007684461772441864e-02
-9.775454178452491760e-03
-2.120689675211906433e-02
-2.575341053307056427e-02
-1.172915175557136536e-01
-5.980790406465530396e-02
1.640519872307777405e-02
-1.522007733583450317e-01
-7.597509026527404785e-02
-4.694092553108930588e-03
-1.165850237011909485e-01
1.043940521776676178e-02
2.537447400391101837e-02
1.118086650967597961e-02
5.028832331299781799e-02
3.504369407892227173e-03
6.542589515447616577e-02
-2.814994566142559052e-02
1.059862039983272552e-02
-8.783047646284103394e-02
