8.769369125366210938e-02 -1.599013432860374451e-02 -2.110277535393834114e-03 5.513076204806566238e-03 -1.802369765937328339e-02 -3.405984863638877869e-02 -2.813008427619934082e-02 2.682332694530487061e-02 1.270115934312343597e-02 -1.542051695287227631e-02 -1.822744379751384258e-03 -2.204056829214096069e-02 7.047329097986221313e-02 -1.265745144337415695e-02 -3.412405773997306824e-02 -6.296037137508392334e-02 -1.029690448194742203e-02 -6.247490178793668747e-03 4.520217329263687134e-02 6.828247010707855225e-02 -3.725480928551405668e-05 -1.436665095388889313e-02 -1.529997289180755615e-01 -1.055385470390319824e-01 -2.833529375493526459e-02 -9.814614430069923401e-03 -2.192983170971274376e-03 -5.675563588738441467e-03 1.459189318120479584e-02 -2.957265265285968781e-02 3.167661279439926147e-02 3.998960833996534348e-03 -4.016147926449775696e-02 -6.934940069913864136e-02 -4.262678558006882668e-04 -5.675648897886276245e-02 -1.279820688068866730e-02 2.558524487540125847e-03 -5.305155366659164429e-02 1.455160509794950485e-02 -5.995155079290270805e-04 8.341675624251365662e-03 -3.324123471975326538e-02 -8.524746634066104889e-03 2.920707920566201210e-04 -1.056832447648048401e-02 1.404822571203112602e-03 -1.093874052166938782e-01 5.192908924072980881e-03 -2.252542972564697266e-02 1.970161311328411102e-02 -5.013705044984817505e-02 1.940361456945538521e-03 7.271863520145416260e-02 -2.085090614855289459e-02 -3.045957162976264954e-02 3.090524859726428986e-02 1.503203995525836945e-03 -4.627107456326484680e-02 -1.669108681380748749e-02 6.173478811979293823e-02 -6.108959019184112549e-02 -2.807455603033304214e-03 4.937858134508132935e-02 6.494327448308467865e-03 -3.745326772332191467e-02 3.038812428712844849e-02 8.999316924018785357e-05 -2.316340245306491852e-02 -8.048930205404758453e-03 2.894155681133270264e-02 -1.669464632868766785e-02 3.157459199428558350e-02 1.117201615124940872e-02 -4.345594719052314758e-02 -3.591944277286529541e-02 1.049900613725185394e-02 -2.320558950304985046e-02 2.781957946717739105e-02 -2.307790517807006836e-02 3.221448510885238647e-02 -3.565828502178192139e-02 1.242872211150825024e-03 6.426305323839187622e-02 -8.200475946068763733e-03 -3.511985391378402710e-02 -3.615453839302062988e-02 1.197697944007813931e-03 -8.487080922350287437e-04 -9.847068041563034058e-02 -8.967801928520202637e-02 -7.834357768297195435e-02 -4.010740667581558228e-03 -1.568621993064880371e-01 -6.179085746407508850e-02 1.695869490504264832e-02 -1.895077526569366455e-02 9.144074283540248871e-03 -4.157967865467071533e-03 -2.807513810694217682e-02 -6.700480729341506958e-02 -3.359471261501312256e-02 8.247623220086097717e-03 2.155988244339823723e-03 -2.319908671779558063e-04 1.216212869621813297e-03 3.651411086320877075e-02 -4.918820690363645554e-03 -3.959176689386367798e-02 -2.071643248200416565e-02 -2.590936422348022461e-02 -1.184093765914440155e-03 -5.794150638394057751e-04 -4.428637027740478516e-02 -1.683358550071716309e-01 2.406115829944610596e-02 2.850043773651123047e-02 3.673353791236877441e-02 1.305414456874132156e-02 -4.190051183104515076e-02 3.843737021088600159e-02 2.469910681247711182e-02 -4.449641704559326172e-02 -3.574194014072418213e-02 -3.367612510919570923e-02 -7.474183291196823120e-02 -9.261062741279602051e-02 -2.665108442306518555e-02
