2.533830404281616211e-01 3.208658397197723389e-01 5.247669219970703125e-01 -1.307115107774734497e-01 -1.779573410749435425e-01 -3.248280882835388184e-01 1.681123077869415283e-01 6.118155121803283691e-01 2.495322823524475098e-01 -1.074584946036338806e-02 7.436288893222808838e-02 -3.476132079958915710e-02 6.913306564092636108e-02 -2.350191622972488403e-01 2.054199427366256714e-01 2.517215907573699951e-01 6.798693537712097168e-02 -1.317411512136459351e-01 -3.150252103805541992e-01 8.737998455762863159e-02 -5.634860321879386902e-02 1.508385688066482544e-01 -8.260441012680530548e-03 1.709205284714698792e-02 8.257790468633174896e-03 -6.608293205499649048e-02 -2.800131589174270630e-02 1.416073273867368698e-02 1.990722492337226868e-02
-1.866830140352249146e-01 -1.838898211717605591e-01 2.721253968775272369e-02 -4.511449113488197327e-02 -8.104258775711059570e-02 4.002336561679840088e-01 -4.455638527870178223e-01 -1.766168475151062012e-01 -1.613150984048843384e-01 -1.625500619411468506e-02 -4.257976636290550232e-02 -1.909947209060192108e-02 -2.655725181102752686e-01 -1.713425666093826294e-01 -5.078855156898498535e-01 -2.166743576526641846e-01 -1.358094625174999237e-02 -1.697200983762741089e-01 -8.749846369028091431e-03 -1.483397781848907471e-01 -2.273135483264923096e-01 -1.878710687160491943e-01 -5.336158350110054016e-02 1.746569946408271790e-02 -7.082101702690124512e-02 1.579986885190010071e-02 -8.062908425927162170e-03 -4.687122628092765808e-02 -1.891470514237880707e-02
-1.416244953870773315e-01 4.794352054595947266e-01 3.648352324962615967e-01 3.408649936318397522e-02 1.314198225736618042e-01 3.114691972732543945e-01 -3.232409432530403137e-02 7.134401798248291016e-01 3.093847334384918213e-01 6.494065374135971069e-02 -1.630654931068420410e-01 -3.162509202957153320e-01 -9.449464082717895508e-02 3.430429995059967041e-01 2.542535066604614258e-01 -3.056658804416656494e-01 -2.171825617551803589e-01 -4.144231379032135010e-01 2.171281874179840088e-01 -1.865851692855358124e-02 3.414736688137054443e-02 9.741010516881942749e-02 -1.136178895831108093e-01 -7.492150180041790009e-03 6.335270125418901443e-03 8.144827187061309814e-02 -1.081355661153793335e-02 -2.175284363329410553e-02 3.727798163890838623e-02
-4.329392313957214355e-01 4.602424204349517822e-01 7.434392813593149185e-03 -1.366104185581207275e-01 7.177376002073287964e-02 4.424373805522918701e-02 -2.275150716304779053e-01 4.232041835784912109e-01 2.064414769411087036e-01 5.248639266937971115e-03 -5.159224383533000946e-03 -5.746453627943992615e-02 -2.923341691493988037e-01 1.695731654763221741e-03 1.657714881002902985e-02 -1.972734332084655762e-01 -2.203637957572937012e-01 5.726345255970954895e-02 1.476818025112152100e-01 1.166882440447807312e-01 -1.560105830430984497e-01 3.654064834117889404e-01 -9.584575891494750977e-02 6.817814428359270096e-03 -4.447130858898162842e-02 1.519866846501827240e-02 1.743192970752716064e-02 -2.265595644712448120e-02 5.084134638309478760e-03
1.388592123985290527e-01 -7.757918536663055420e-02 -4.735323414206504822e-02 -1.952833682298660278e-01 -6.945661269128322601e-03 -1.238647196441888809e-02 -9.466267377138137817e-02 -3.035461008548736572e-01 1.255802363157272339e-01 -2.839916646480560303e-01 -7.745451480150222778e-02 1.366008073091506958e-01 -1.200520917773246765e-01 1.408099979162216187e-01 6.429036259651184082e-01 -2.127625197172164917e-01 3.975290358066558838e-01 4.316058754920959473e-01 4.382460936903953552e-02 -9.715612977743148804e-02 1.829728484153747559e-03 -2.929849922657012939e-01 -1.028875485062599182e-01 -6.078047212213277817e-03 -3.847490251064300537e-02 -5.686671659350395203e-02 -1.557392906397581100e-02 1.362766511738300323e-02 6.406057626008987427e-02
-4.380121827125549316e-01 -1.701284646987915039e-01 -6.903932988643646240e-02 5.031061545014381409e-02 -1.900231838226318359e-01 1.491395980119705200e-01 -3.094260394573211670e-01 8.430296927690505981e-02 -9.608000516891479492e-02 -1.720057427883148193e-01 8.835980296134948730e-02 1.671449095010757446e-01 -2.122909873723983765e-01 2.040927484631538391e-02 4.051522314548492432e-01 2.717410027980804443e-01 1.338616758584976196e-01 4.507029056549072266e-02 3.111321628093719482e-01 9.238518774509429932e-02 1.907006353139877319e-01 1.783843040466308594e-01 -7.163210213184356689e-02 2.069680765271186829e-02 -2.513705519959330559e-03 -1.739034615457057953e-02 -7.658210117369890213e-03 -8.078712970018386841e-03 5.060454830527305603e-02
3.446874022483825684e-01 -7.856720127165317535e-03 1.046779155731201172e-01 7.373618427664041519e-03 7.285651285201311111e-03 -1.151420455425977707e-02 -1.759168058633804321e-01 -8.947783149778842926e-03 -1.219850629568099976e-01 -1.495086215436458588e-02 -7.472221553325653076e-02 3.868493735790252686e-01 -3.198471069335937500e-01 -3.379900157451629639e-01 -2.267471849918365479e-01 5.020385980606079102e-02 -3.469120860099792480e-01 -6.643813103437423706e-02 3.308576643466949463e-01 1.428692787885665894e-01 -2.024910791078582406e-04 -1.789714097976684570e-01 -4.672963917255401611e-02 -3.342257067561149597e-02 -3.010512143373489380e-02 -2.808319032192230225e-02 4.345995374023914337e-03 3.414546139538288116e-03 5.200562253594398499e-02
1.517781764268875122e-01 6.255313754081726074e-01 3.320192098617553711e-01 1.773033142089843750e-01 -2.971660792827606201e-01 2.814681231975555420e-01 4.660333991050720215e-01 -1.908019036054611206e-01 1.151940450072288513e-01 1.306814998388290405e-01 -6.889951229095458984e-02 1.761375665664672852e-01 4.967722296714782715e-01 1.638225764036178589e-01 4.854546487331390381e-01 3.483390808105468750e-02 -1.111928671598434448e-01 5.123679637908935547e-01 2.087213285267353058e-02 -1.003495380282402039e-01 -5.659579299390316010e-03 -8.659572154283523560e-02 -1.327554434537887573e-01 -5.654292181134223938e-04 -4.229571670293807983e-03 -1.870380528271198273e-02 -5.421926267445087433e-03 -4.559770692139863968e-03 3.123407997190952301e-02
7.019816339015960693e-02 1.084781214594841003e-01 -8.947377651929855347e-02 8.987535536289215088e-02 1.417369693517684937e-01 3.274052441120147705e-01 -1.193438377231359482e-02 -2.902606129646301270e-01 -1.250961273908615112e-01 -8.498249948024749756e-02 8.106975257396697998e-02 2.054820209741592407e-01 2.409438043832778931e-01 3.124529123306274414e-01 -2.385257035493850708e-01 -1.398350596427917480e-01 -2.501419484615325928e-01 2.687354683876037598e-01 2.130838632583618164e-01 8.264292031526565552e-02 4.354265034198760986e-01 -1.220807582139968872e-01 1.316967755556106567e-01 -4.216462839394807816e-03 1.365507766604423523e-02 -3.836892079561948776e-03 -2.551068319007754326e-03 -3.498116880655288696e-02 -7.668948173522949219e-02
1.808023899793624878e-01 -2.472582459449768066e-01 -1.429753303527832031e-01 1.643441021442413330e-01 -4.424861073493957520e-01 1.469433605670928955e-01 -3.575060963630676270e-01 -4.334464669227600098e-03 -1.552376151084899902e-01 -1.622687280178070068e-01 1.114279180765151978e-01 1.366604268550872803e-01 5.364583805203437805e-02 1.703866384923458099e-02 -2.427677437663078308e-02 8.783269440755248070e-04 -1.110149249434471130e-01 5.873936787247657776e-02 -5.857611447572708130e-02 -1.915260255336761475e-01 -8.030442893505096436e-02 2.865203022956848145e-01 -8.264658600091934204e-02 -6.006688252091407776e-02 8.138489723205566406e-02 1.300841420888900757e-01 -1.749584265053272247e-02 -1.112834922969341278e-02 3.140189126133918762e-02
4.926521480083465576e-01 1.882042437791824341e-01 1.138017177581787109e-01 8.030845224857330322e-02 -1.247181743383407593e-01 -1.314242631196975708e-01 1.138905212283134460e-01 2.634669542312622070e-01 2.206026315689086914e-01 -1.175587717443704605e-02 3.557824715971946716e-02 1.736093461513519287e-01 -1.872543990612030029e-01 -3.028536681085824966e-03 6.809182465076446533e-02 1.607904583215713501e-01 2.471533417701721191e-01 2.155501246452331543e-01 -1.983526796102523804e-01 -3.788288310170173645e-02 -3.112613409757614136e-02 -5.969101097434759140e-03 -1.317472159862518311e-01 4.261682741343975067e-03 1.606823690235614777e-02 2.518129348754882812e-02 -3.065208904445171356e-02 -4.484239965677261353e-03 3.041506558656692505e-02
-1.015131697058677673e-01 -2.867455780506134033e-01 -9.075324982404708862e-03 -1.086399257183074951e-01 -1.465766578912734985e-01 1.808269023895263672e-01 -3.497114777565002441e-01 -4.797181785106658936e-01 -1.717712432146072388e-01 -1.516461558640003204e-02 -1.182691529393196106e-01 4.562795162200927734e-01 1.119082327932119370e-02 2.498279809951782227e-01 -2.487856149673461914e-01 2.238409370183944702e-01 -1.012065559625625610e-01 1.935745030641555786e-01 3.556800484657287598e-01 6.479095667600631714e-02 1.491418778896331787e-01 -1.304927617311477661e-01 1.650379151105880737e-01 6.440898030996322632e-02 6.456859409809112549e-02 8.846214413642883301e-02 3.650135174393653870e-02 4.467556998133659363e-02 -2.420543506741523743e-02
-1.942286044359207153e-01 -2.689839005470275879e-01 -1.043230965733528137e-01 -1.674596220254898071e-01 -2.784772813320159912e-01 2.441143430769443512e-02 2.807060778141021729e-01 4.450823366641998291e-01 1.952737420797348022e-01 1.814153939485549927e-01 1.187466382980346680e-01 1.731484234333038330e-01 -1.193289607763290405e-01 2.567005753517150879e-01 -5.671395659446716309e-01 -2.914410233497619629e-01 -9.712595492601394653e-03 -1.671716123819351196e-01 1.815431565046310425e-01 2.659343415871262550e-03 -1.928647980093955994e-02 4.278920218348503113e-02 -6.780374050140380859e-02 -1.020916458219289780e-02 -4.104465991258621216e-02 1.156878098845481873e-02 -4.353930801153182983e-02 -4.203918203711509705e-02 -4.456738010048866272e-03
-1.313728243112564087e-01 -4.867083206772804260e-02 -1.062875762581825256e-01 -6.541470438241958618e-02 1.022416576743125916e-01 1.176410093903541565e-01 -4.670108854770660400e-01 -5.179812312126159668e-01 -1.491286419332027435e-02 5.365303717553615570e-03 6.956806033849716187e-02 1.379830688238143921e-01 -4.518274366855621338e-01 -1.642940789461135864e-01 2.292165458202362061e-01 9.176006913185119629e-02 -1.576004177331924438e-01 2.068897932767868042e-01 -8.810625411570072174e-03 1.843176186084747314e-01 2.343997359275817871e-01 -2.766710892319679260e-02 8.858285099267959595e-02 -1.352260541170835495e-02 4.815854504704475403e-02 2.777504269033670425e-03 -2.992806024849414825e-02 6.010466441512107849e-02 -1.143806576728820801e-01
-1.693019568920135498e-01 -4.660608470439910889e-01 -2.005725800991058350e-01 -1.408350169658660889e-01 1.437610089778900146e-01 9.408780932426452637e-02 7.356458902359008789e-02 -6.770914793014526367e-02 9.192423522472381592e-02 1.512677371501922607e-01 1.767234131693840027e-02 8.210168778896331787e-02 -4.514125883579254150e-01 -4.086316227912902832e-01 4.414424300193786621e-01 -2.733280062675476074e-01 -4.481011927127838135e-01 1.277706474065780640e-01 -1.135796085000038147e-01 -3.576994687318801880e-02 2.533949352800846100e-02 -6.755709182471036911e-03 4.972509667277336121e-02 1.391174830496311188e-02 3.695395588874816895e-02 -1.286875922232866287e-02 2.827929519116878510e-02 2.511687204241752625e-02 -6.982433609664440155e-03
6.633566319942474365e-02 1.573445647954940796e-01 8.777321130037307739e-02 3.307571867480874062e-03 6.680473685264587402e-02 1.783698052167892456e-01 -6.082770824432373047e-01 -1.483045369386672974e-01 -9.041501581668853760e-02 -2.065799012780189514e-02 7.847890257835388184e-02 -7.527989745140075684e-01 -6.418201606720685959e-03 5.239259079098701477e-02 -1.354518085718154907e-01 -3.661129176616668701e-01 -8.200625330209732056e-02 -6.938771158456802368e-02 -6.141331791877746582e-02 -6.513772159814834595e-02 1.573449373245239258e-01 1.713385581970214844e-01 4.600220918655395508e-02 2.472171792760491371e-03 2.118214406073093414e-02 4.552589263767004013e-03 7.273167837411165237e-03 -7.308994885534048080e-03 -1.297918986529111862e-02
2.213275730609893799e-01 -3.529593050479888916e-01 5.996716022491455078e-02 -9.031332284212112427e-02 -3.605639636516571045e-01 5.920082330703735352e-02 -6.368982046842575073e-02 6.058483123779296875e-01 -2.489211112260818481e-01 -1.098209246993064880e-01 1.487105488777160645e-01 -3.698163032531738281e-01 -3.802541643381118774e-02 2.650497555732727051e-01 6.552544832229614258e-01 -1.560416966676712036e-01 2.664728462696075439e-01 -2.526528239250183105e-01 -4.392783045768737793e-01 -4.831303283572196960e-02 -2.581533491611480713e-01 -1.953650265932083130e-01 -2.460200339555740356e-03 -8.078938699327409267e-04 -8.962230756878852844e-03 -1.069002412259578705e-02 9.144740179181098938e-03 -1.107401400804519653e-02 -4.373347014188766479e-02
-2.811235487461090088e-01 7.344018667936325073e-02 -3.770238161087036133e-02 -2.629787921905517578e-01 -1.463570147752761841e-01 -1.533427685499191284e-01 -4.988507628440856934e-01 3.470476567745208740e-01 -1.523831784725189209e-01 6.962228566408157349e-02 3.609263524413108826e-02 -2.819112129509449005e-02 -6.554664969444274902e-01 -2.514256536960601807e-01 -1.625455319881439209e-01 2.296334803104400635e-01 -7.855394482612609863e-02 -2.691490948200225830e-01 -1.968266665935516357e-01 -1.582232117652893066e-01 -7.734699547290802002e-02 8.570633828639984131e-02 2.718302654102444649e-03 -3.031012043356895447e-02 -8.648294210433959961e-02 9.961042553186416626e-02 4.647525027394294739e-02 1.024873182177543640e-02 -6.582962721586227417e-02
-9.409815818071365356e-02 -2.104996740818023682e-01 -1.650670468807220459e-01 -8.791939169168472290e-02 3.141918033361434937e-02 -1.794164627790451050e-01 7.156824693083763123e-03 -1.192440763115882874e-01 1.991643607616424561e-01 -2.084603756666183472e-01 -4.026266187429428101e-02 2.192159444093704224e-01 -3.429497480392456055e-01 1.524642854928970337e-01 -1.050824448466300964e-01 1.476200968027114868e-01 -3.224919736385345459e-01 2.540956139564514160e-01 8.625160902738571167e-02 -8.871244639158248901e-02 -2.338624596595764160e-01 1.950331032276153564e-01 -4.966785665601491928e-03 1.656019128859043121e-02 -1.014928985387086868e-02 1.960965804755687714e-03 -2.268254011869430542e-02 1.223248150199651718e-02 8.332975953817367554e-02
1.133867651224136353e-01 4.340827465057373047e-01 1.125276088714599609e-01 -2.261346876621246338e-01 -4.578160941600799561e-01 1.761122345924377441e-01 4.801749065518379211e-02 2.648139894008636475e-01 -1.534204334020614624e-01 1.556569039821624756e-01 1.446634531021118164e-01 5.143903195858001709e-03 3.116175830364227295e-01 1.960501074790954590e-02 1.121521294116973877e-01 -3.609061986207962036e-02 -2.107413299381732941e-02 -1.548227202147245407e-02 -1.717540323734283447e-01 1.143421232700347900e-01 -8.092097938060760498e-02 -3.205004036426544189e-01 -5.219120904803276062e-02 2.664955705404281616e-02 4.488989338278770447e-02 -4.462344571948051453e-02 -8.950255811214447021e-03 4.167566075921058655e-02 6.025745719671249390e-02
3.370971232652664185e-02 5.212324857711791992e-01 6.238225102424621582e-02 -1.894906163215637207e-01 1.631418019533157349e-01 -6.923052668571472168e-02 3.410636782646179199e-01 4.973294436931610107e-01 2.618676722049713135e-01 1.037176549434661865e-01 5.505071207880973816e-02 -1.447513513267040253e-02 3.461360931396484375e-01 2.577272951602935791e-01 3.678432479500770569e-02 -1.288228780031204224e-01 1.028369739651679993e-01 1.537349522113800049e-01 2.485596239566802979e-01 -2.633551694452762604e-02 2.188855260610580444e-01 3.142810985445976257e-02 6.628434639424085617e-03 1.471648737788200378e-02 -1.013341173529624939e-02 -1.178594529628753662e-01 -2.663552947342395782e-02 1.288170088082551956e-02 3.839318640530109406e-03
-3.118568062782287598e-01 -4.101689457893371582e-01 -1.774963140487670898e-01 9.301351010799407959e-02 4.094355180859565735e-02 4.945323243737220764e-02 -3.276339769363403320e-01 -5.049779266119003296e-02 -9.190668910741806030e-02 -2.201577126979827881e-01 -1.317855268716812134e-01 6.091139279305934906e-03 3.168666362762451172e-02 -2.045082449913024902e-01 7.846320271492004395e-01 -2.715683281421661377e-01 5.075115337967872620e-02 -2.247216552495956421e-01 -5.775629356503486633e-02 -1.134339347481727600e-01 3.216724470257759094e-02 -1.199528574943542480e-01 -2.420501969754695892e-02 1.826815889216959476e-03 -2.161164209246635437e-02 3.804709389805793762e-02 -1.140749640762805939e-02 3.175253048539161682e-03 4.993139952421188354e-02
-1.060347929596900940e-01 1.243778541684150696e-01 -2.341395467519760132e-01 1.469383388757705688e-01 -4.913540929555892944e-02 2.947213053703308105e-01 1.661207526922225952e-01 1.086450591683387756e-01 -1.792499981820583344e-02 1.027161478996276855e-01 -6.437414325773715973e-03 5.531921982765197754e-01 1.048141121864318848e-01 -1.721446365118026733e-01 -3.562602996826171875e-01 2.056980729103088379e-01 4.114716053009033203e-01 -2.024695575237274170e-01 -1.459715366363525391e-01 1.361395716667175293e-01 -7.202662527561187744e-02 8.750659972429275513e-02 -1.599135994911193848e-01 1.384933385998010635e-02 5.202886834740638733e-02 -3.898961842060089111e-02 3.471649950370192528e-03 4.239846486598253250e-03 -1.772887632250785828e-02
-3.272784650325775146e-01 3.072484731674194336e-01 -7.000839710235595703e-02 2.506760135293006897e-02 7.535859942436218262e-02 1.791086494922637939e-01 6.628724932670593262e-02 3.158277273178100586e-01 1.016472578048706055e-01 2.677664160728454590e-01 5.298383906483650208e-02 6.574612855911254883e-02 -3.535468280315399170e-01 1.478596180677413940e-01 -5.530075728893280029e-02 2.146213799715042114e-01 1.307929754257202148e-01 -1.673406958580017090e-01 4.314509779214859009e-02 -1.394295394420623779e-01 1.242291182279586792e-01 7.884612679481506348e-02 -2.182917147874832153e-01 3.003474511206150055e-02 -2.864054171368479729e-03 8.278342895209789276e-03 -3.802721574902534485e-02 -3.113572299480438232e-02 -1.523591484874486923e-02
-4.381049573421478271e-01 3.499637544155120850e-01 4.114273190498352051e-02 -5.537793040275573730e-01 1.008343845605850220e-01 2.540245838463306427e-02 -1.851611286401748657e-01 1.213373184204101562e+00 1.236808672547340393e-02 -1.385783255100250244e-01 -1.674109101295471191e-01 -6.127905249595642090e-01 -3.174394667148590088e-01 -2.271245867013931274e-01 3.309114873409271240e-01 2.488358914852142334e-01 1.202805042266845703e-01 -1.779134273529052734e-01 7.074391096830368042e-02 -5.670939013361930847e-02 -1.787581741809844971e-01 2.931600809097290039e-01 -1.114044189453125000e-01 3.384061157703399658e-02 -7.721390575170516968e-03 2.125711925327777863e-02 -1.647931709885597229e-02 1.141671650111675262e-02 1.097389012575149536e-01
-2.060925774276256561e-02 -9.246814250946044922e-02 -2.510285377502441406e-01 -1.418650299310684204e-01 1.080100834369659424e-01 6.230530142784118652e-01 1.402874886989593506e-01 3.526592850685119629e-01 5.204372107982635498e-02 -8.579086512327194214e-02 -8.865620940923690796e-02 -9.019413590431213379e-02 -2.881478667259216309e-01 -2.185386866331100464e-01 -2.436738461256027222e-01 -3.579632341861724854e-01 -3.956230580806732178e-01 -1.858753412961959839e-01 2.815793268382549286e-03 7.057112641632556915e-03 -1.814351081848144531e-01 2.505689561367034912e-01 1.032644808292388916e-01 2.823526039719581604e-02 -1.214284449815750122e-02 8.055296540260314941e-02 -2.505664527416229248e-02 1.670298352837562561e-02 -5.945799127221107483e-02
1.337687969207763672e-01 3.419523835182189941e-01 -2.211788743734359741e-01 -1.029543504118919373e-01 5.424638837575912476e-02 4.075665399432182312e-02 2.074652314186096191e-01 3.438529372215270996e-01 1.658731549978256226e-01 -8.464413136243820190e-02 -4.865480586886405945e-02 -3.718509972095489502e-01 -1.335803270339965820e-01 1.749089919030666351e-02 -2.986816465854644775e-01 -2.622486650943756104e-01 -2.367517352104187012e-01 4.009379819035530090e-02 -7.439486682415008545e-02 -9.100975841283798218e-02 -2.459945082664489746e-01 -1.377047002315521240e-01 -3.686902346089482307e-03 -3.875251486897468567e-02 3.781713172793388367e-02 1.071732491254806519e-01 1.174656674265861511e-03 -5.068145692348480225e-02 -6.621365994215011597e-02
1.135380119085311890e-01 3.599015474319458008e-01 1.295909434556961060e-01 3.635973110795021057e-02 -8.485160768032073975e-02 4.871695116162300110e-02 -1.729432493448257446e-01 1.966573894023895264e-01 1.496282070875167847e-01 1.402703374624252319e-01 1.081860139966011047e-01 -2.507058084011077881e-01 7.122432440519332886e-02 -2.885792404413223267e-02 -9.675510227680206299e-02 -2.996671497821807861e-01 -1.492705792188644409e-01 4.416693747043609619e-02 -3.258955776691436768e-01 -4.824184253811836243e-02 2.077706158161163330e-01 -3.593031167984008789e-01 -5.837086588144302368e-02 -2.244301140308380127e-02 2.407992072403430939e-02 8.543262630701065063e-02 -5.066169425845146179e-02 -1.430073380470275879e-02 3.307266905903816223e-02
2.505643106997013092e-02 -1.137779280543327332e-01 3.197020618245005608e-03 4.215909913182258606e-02 -6.952159106731414795e-02 -4.417018890380859375e-01 1.430164426565170288e-01 5.870196819305419922e-01 7.830962538719177246e-02 -6.802924722433090210e-02 -7.205209136009216309e-02 -1.127642616629600525e-01 1.403041779994964600e-01 4.353626072406768799e-01 -2.360106259584426880e-01 3.185984194278717041e-01 3.090310394763946533e-01 -2.246284335851669312e-01 1.557233370840549469e-02 -5.412684008479118347e-02 -6.100703775882720947e-02 8.882049471139907837e-02 1.848608255386352539e-01 2.071686647832393646e-02 -1.327259093523025513e-02 4.239524155855178833e-02 -1.450460497289896011e-02 -1.712484844028949738e-02 8.958883117884397507e-04
-1.882699280977249146e-01 -6.232315674424171448e-02 -1.703817993402481079e-01 1.528260409832000732e-01 -2.955804392695426941e-02 1.689878255128860474e-01 1.980749666690826416e-01 2.291135936975479126e-01 1.152855455875396729e-01 -1.273289695382118225e-02 1.779209822416305542e-01 7.996623963117599487e-02 -3.131076693534851074e-01 -1.958896070718765259e-01 1.081754341721534729e-01 1.729855388402938843e-01 2.788179814815521240e-01 2.671074867248535156e-01 -2.376932464540004730e-02 -1.224559471011161804e-01 2.917904034256935120e-02 8.804497309029102325e-03 9.711274504661560059e-02 -1.630085147917270660e-02 -2.874201722443103790e-02 -1.112185232341289520e-02 -5.806442815810441971e-03 9.188873693346977234e-03 2.331041917204856873e-02
5.806678161025047302e-02 -2.693235874176025391e-01 -6.211581081151962280e-02 2.968930080533027649e-02 2.094978541135787964e-01 1.316869724541902542e-02 6.391252577304840088e-02 -1.594651937484741211e-01 3.688642680644989014e-01 -1.715354472398757935e-01 -1.959665492177009583e-02 1.984487324953079224e-01 2.606390714645385742e-01 -2.913340628147125244e-01 7.081465423107147217e-02 -2.171263396739959717e-01 -1.612521260976791382e-01 1.072289198637008667e-01 1.230455935001373291e-01 1.514662653207778931e-01 -1.813585907220840454e-01 1.658215820789337158e-01 8.250612020492553711e-02 4.670320823788642883e-02 2.108000963926315308e-02 9.501315653324127197e-03 -7.614373229444026947e-03 -9.478102438151836395e-03 -3.604108095169067383e-02
2.061920426785945892e-02 1.435195058584213257e-01 -9.993787109851837158e-02 -3.838799893856048584e-02 -2.165278792381286621e-01 9.037849307060241699e-02 -3.495751321315765381e-01 -2.848985493183135986e-01 2.711198925971984863e-01 -1.531214802525937557e-03 -7.198280841112136841e-02 3.042638301849365234e-01 4.508721828460693359e-01 2.385373413562774658e-01 1.283847242593765259e-01 -4.009251892566680908e-01 -7.252674084156751633e-03 1.306886374950408936e-01 -4.093314707279205322e-01 -1.130718886852264404e-01 -1.523577868938446045e-01 -2.725303471088409424e-01 -1.957792490720748901e-01 -1.935611106455326080e-02 -1.182432286441326141e-03 -3.697938099503517151e-02 3.962544258683919907e-03 -6.328546442091464996e-03 7.516130059957504272e-02
-1.805687993764877319e-01 -5.250489711761474609e-01 5.900407955050468445e-02 -7.466374337673187256e-02 -2.163906693458557129e-01 -1.969030797481536865e-01 -1.526735424995422363e-01 -6.632652282714843750e-01 3.310540318489074707e-01 6.805615872144699097e-02 -1.265507936477661133e-01 -2.971493601799011230e-01 -7.009581197053194046e-03 1.648976951837539673e-01 2.860454320907592773e-01 -3.884417414665222168e-01 -2.555053532123565674e-01 -2.610379457473754883e-01 -3.549023568630218506e-01 1.088516041636466980e-02 4.422966018319129944e-02 -4.176677763462066650e-01 -1.511685252189636230e-01 -4.835969593841582537e-04 6.478921510279178619e-03 1.295800413936376572e-02 -2.154872007668018341e-02 5.097256507724523544e-04 2.452695742249488831e-02
-3.281932771205902100e-01 1.587536782026290894e-01 1.659493148326873779e-02 -6.481271237134933472e-02 -2.938126027584075928e-01 4.164257049560546875e-01 1.697453483939170837e-02 4.003577232360839844e-01 -2.033361941576004028e-01 7.868047058582305908e-02 -1.836001500487327576e-02 2.782710492610931396e-01 -9.524525701999664307e-02 8.907661586999893188e-02 -4.370619952678680420e-01 7.901292294263839722e-02 4.584600031375885010e-02 6.530234124511480331e-03 -1.462963521480560303e-01 1.037393417209386826e-02 9.096203744411468506e-02 -4.002107772976160049e-03 4.762113094329833984e-02 -5.011997651308774948e-03 -3.346925601363182068e-02 -3.269759193062782288e-02 -5.152329057455062866e-02 -1.824506558477878571e-02 -5.266771093010902405e-02
-2.600886225700378418e-01 2.720706462860107422e-01 2.335286885499954224e-02 -2.746991813182830811e-02 -2.678660750389099121e-01 4.812574982643127441e-01 -5.444473028182983398e-01 -1.912919920869171619e-03 -2.756745927035808563e-02 -1.636839061975479126e-01 -1.812304258346557617e-01 -2.763942182064056396e-01 -1.967334449291229248e-01 -5.504788365215063095e-03 -4.052356481552124023e-01 -2.713274359703063965e-01 3.709674477577209473e-01 5.427462235093116760e-02 -1.180596575140953064e-01 8.722035563550889492e-04 1.503737177699804306e-02 -2.083422243595123291e-01 -1.172488480806350708e-01 -5.284509062767028809e-02 -3.526722639799118042e-02 -3.367365524172782898e-02 -1.840436714701354504e-03 -5.782932415604591370e-02 1.883034221827983856e-02
2.782403826713562012e-01 3.315078020095825195e-01 2.163718193769454956e-01 -5.329744517803192139e-02 1.710683405399322510e-01 -1.018646806478500366e-01 -9.849756956100463867e-03 1.776314377784729004e-01 2.245236486196517944e-01 -1.219986379146575928e-01 -1.484718918800354004e-01 -3.433844745159149170e-01 -1.444714367389678955e-01 1.976138651371002197e-01 2.786575257778167725e-01 1.282593049108982086e-02 -1.512297838926315308e-01 -1.397837232798337936e-02 1.964961588382720947e-01 1.293746083974838257e-01 2.470617294311523438e-01 8.291364461183547974e-02 1.979234069585800171e-01 -3.473144024610519409e-02 1.204203348606824875e-03 3.139554709196090698e-02 -2.525229752063751221e-02 1.620510220527648926e-02 4.218667279928922653e-03
2.063970714807510376e-01 -1.289559528231620789e-02 4.380475357174873352e-02 -4.147747159004211426e-01 2.018815726041793823e-01 1.564602106809616089e-01 1.217250227928161621e-01 -2.769765555858612061e-01 2.234155535697937012e-01 5.483236163854598999e-02 -7.105836272239685059e-02 5.448098778724670410e-01 2.538044750690460205e-02 2.349020689725875854e-01 1.679465323686599731e-01 1.470927707850933075e-02 2.929930686950683594e-01 -2.030474096536636353e-01 -2.510704696178436279e-01 1.896929740905761719e-02 2.429984360933303833e-01 -2.092366069555282593e-01 -7.570503652095794678e-02 6.087644491344690323e-03 5.442772805690765381e-02 -5.538045242428779602e-02 6.386180967092514038e-02 -4.995704162865877151e-03 4.838159307837486267e-02
1.658766418695449829e-01 -1.447690576314926147e-01 -1.830748766660690308e-01 6.766599602997303009e-03 -1.682159751653671265e-01 8.327766507863998413e-02 -5.284607410430908203e-01 -2.257596403360366821e-01 4.951887577772140503e-02 -2.422852218151092529e-01 -4.756103456020355225e-02 9.077379107475280762e-02 4.853429794311523438e-01 1.393676251173019409e-01 1.613212823867797852e+00 -3.835357129573822021e-01 1.066004410386085510e-01 -2.727344334125518799e-01 1.933978199958801270e-01 -2.403913624584674835e-02 -3.904050588607788086e-01 -3.313651382923126221e-01 1.513836253434419632e-02 1.278559491038322449e-02 -1.462640240788459778e-02 -1.912908814847469330e-02 -2.077901363372802734e-02 9.100311435759067535e-03 -2.377335540950298309e-02
1.499719321727752686e-01 9.135217219591140747e-02 -6.756530702114105225e-02 1.180131882429122925e-01 -1.759943962097167969e-01 1.038678526878356934e+00 3.123287558555603027e-01 -1.139364361763000488e+00 2.842168807983398438e-01 2.177918851375579834e-01 -9.532749652862548828e-02 4.558077156543731689e-01 4.295975714921951294e-02 -6.484235823154449463e-02 3.359358906745910645e-01 1.749501824378967285e-01 3.999694436788558960e-02 2.677893936634063721e-01 4.658321291208267212e-02 -1.209579035639762878e-01 -3.856354057788848877e-01 -6.216542422771453857e-02 1.666452139616012573e-01 2.254365943372249603e-02 -3.030094318091869354e-02 1.974470727145671844e-02 3.970597870647907257e-03 3.448324650526046753e-02 -6.561861187219619751e-02
-3.532275855541229248e-01 1.237608790397644043e-01 -4.716844484210014343e-02 -4.953143186867237091e-03 -5.694743711501359940e-03 -6.557730585336685181e-02 -7.696598023176193237e-02 6.264527887105941772e-02 -1.351674646139144897e-01 -9.846214950084686279e-02 -1.105293259024620056e-01 -3.487005364149808884e-03 -2.294345349073410034e-01 -2.797862589359283447e-01 -5.554162263870239258e-01 -2.857328951358795166e-01 3.228601813316345215e-02 7.828475534915924072e-02 1.819940507411956787e-01 -7.200321555137634277e-02 1.314518153667449951e-01 1.799271106719970703e-01 -4.542230628430843353e-03 -3.999069333076477051e-03 -7.490389049053192139e-02 -3.480775654315948486e-02 -2.303089387714862823e-02 2.575713396072387695e-02 -2.874320372939109802e-02
3.317859470844268799e-01 -1.360883265733718872e-01 6.677809637039899826e-03 -1.949270069599151611e-01 -1.043953225016593933e-01 -9.931068122386932373e-02 -1.073924079537391663e-01 -1.934588700532913208e-01 -1.353704929351806641e-01 -1.612931191921234131e-01 -1.727538257837295532e-01 -2.749868035316467285e-01 -3.617581352591514587e-02 -4.060792624950408936e-01 4.045959413051605225e-01 1.384259164333343506e-01 2.398156970739364624e-01 -2.825587689876556396e-01 -1.722106039524078369e-01 7.100446522235870361e-02 7.926228642463684082e-02 -1.706114113330841064e-01 6.659417599439620972e-02 2.461719699203968048e-02 1.062259310856461525e-03 1.649669557809829712e-02 2.514176070690155029e-03 2.114982157945632935e-02 -3.218215703964233398e-02
5.736345052719116211e-01 9.650333970785140991e-02 2.717034518718719482e-01 -5.941753834486007690e-02 4.428576678037643433e-02 -3.319450095295906067e-02 5.147764086723327637e-02 2.892481386661529541e-01 8.148445934057235718e-02 1.466172337532043457e-01 2.328131534159183502e-02 6.619060784578323364e-02 2.279942780733108521e-01 2.357659190893173218e-01 -3.818027377128601074e-01 -4.198441207408905029e-01 -1.544505506753921509e-01 -1.375902593135833740e-01 3.731458447873592377e-03 -1.830997318029403687e-02 -3.606658428907394409e-02 -1.985975950956344604e-01 -6.063673272728919983e-02 4.783837869763374329e-02 -4.658794030547142029e-02 9.736146777868270874e-02 -1.564140245318412781e-02 4.067165032029151917e-02 5.898097902536392212e-02
1.177994981408119202e-01 2.545938640832901001e-02 -3.853896260261535645e-02 -2.100761048495769501e-02 2.129676342010498047e-01 -2.330280542373657227e-01 1.880617886781692505e-01 6.421374678611755371e-01 -2.428672462701797485e-01 -1.189180761575698853e-01 -1.649210304021835327e-01 -6.674801111221313477e-01 7.545229196548461914e-01 4.465823769569396973e-01 -3.382852673530578613e-02 -9.534000419080257416e-03 1.235418170690536499e-01 -3.980478048324584961e-01 1.992860883474349976e-01 3.049104213714599609e-01 -1.164200082421302795e-01 2.473632544279098511e-01 -2.796498686075210571e-02 -2.098836936056613922e-03 -5.098113324493169785e-03 8.430710062384605408e-03 -2.323912223801016808e-03 -8.793029002845287323e-03 -1.918189600110054016e-02
1.280413269996643066e-01 4.618538320064544678e-01 -1.434071213006973267e-01 -9.308900684118270874e-03 -2.103880979120731354e-02 1.825797557830810547e-01 -6.284605860710144043e-01 -1.894107460975646973e-01 -1.317742466926574707e-01 -9.109156578779220581e-02 -8.923167735338211060e-02 2.721583247184753418e-01 -5.112625956535339355e-01 -1.386671811342239380e-01 -1.214351579546928406e-01 3.789683058857917786e-02 -6.637776643037796021e-02 1.814183741807937622e-01 3.148731961846351624e-02 -1.984308511018753052e-01 -1.548107713460922241e-01 -8.925791084766387939e-02 -3.916852176189422607e-02 -2.599564008414745331e-02 -3.760177642107009888e-02 1.784080266952514648e-02 1.178868301212787628e-02 -6.275567691773176193e-03 2.984142163768410683e-03
-4.297363571822643280e-03 -6.408460736274719238e-01 4.128504171967506409e-02 -1.056154817342758179e-01 -1.046735867857933044e-01 -3.912229090929031372e-02 -2.634081244468688965e-01 4.046397507190704346e-01 -2.343236505985260010e-01 -1.700060218572616577e-01 -7.524908334016799927e-02 3.960779309272766113e-01 -2.846929430961608887e-01 1.359148621559143066e-01 -4.065498709678649902e-01 -3.167392313480377197e-01 -6.516718119382858276e-02 1.032754033803939819e-01 1.122058928012847900e-01 5.654241517186164856e-02 -2.601644396781921387e-01 -3.472275137901306152e-01 -8.539958298206329346e-02 -1.544278115034103394e-03 -2.838827297091484070e-02 1.800092868506908417e-02 -4.234766587615013123e-03 1.390783116221427917e-02 1.601205585757270455e-04
-4.073688015341758728e-02 -1.551322638988494873e-01 -7.366971671581268311e-02 -3.392511978745460510e-02 1.925934106111526489e-02 1.261616498231887817e-01 5.230072885751724243e-02 2.476577088236808777e-02 6.366352736949920654e-02 -2.544042170047760010e-01 -1.799684464931488037e-01 -3.100120425224304199e-01 -1.510731875896453857e-01 2.472163550555706024e-02 1.579334139823913574e-01 -1.166062951087951660e-01 -3.442184031009674072e-01 1.941103637218475342e-01 -6.234023720026016235e-02 4.761777445673942566e-02 -1.686990112066268921e-01 5.206150468438863754e-03 9.180567413568496704e-02 3.655235469341278076e-02 7.417785376310348511e-02 -6.228256598114967346e-02 -2.276758663356304169e-02 -2.156543778255581856e-03 -1.920227520167827606e-02
-1.456161737442016602e-01 -5.118935182690620422e-02 -3.153648227453231812e-02 -1.125667616724967957e-02 1.698289215564727783e-01 3.674121201038360596e-01 1.028558015823364258e-01 -2.376236170530319214e-01 4.101771116256713867e-01 3.857724834233522415e-03 1.092695370316505432e-01 -1.713144481182098389e-01 -8.829989284276962280e-02 -4.479230344295501709e-01 1.087588369846343994e-01 -1.675703749060630798e-02 2.020327840000391006e-03 -1.075824797153472900e-01 -9.079138189554214478e-02 -9.268558770418167114e-02 -1.966873556375503540e-01 1.270085722208023071e-01 -1.239864230155944824e-01 -2.635139971971511841e-03 -1.235851086676120758e-03 4.470526054501533508e-02 -1.472906791605055332e-03 2.729122759774327278e-03 3.953469544649124146e-02
3.092106878757476807e-01 -5.469832196831703186e-02 -5.865220446139574051e-04 -7.415782660245895386e-02 -3.185233846306800842e-02 1.177577972412109375e-01 -8.778996020555496216e-02 4.400143399834632874e-02 5.474912002682685852e-02 -1.044782027602195740e-01 1.114883050322532654e-01 2.228902578353881836e-01 3.666344881057739258e-01 1.812933832406997681e-01 1.140495240688323975e-01 -4.497298300266265869e-01 5.818885564804077148e-02 7.677955180406570435e-02 -3.002438247203826904e-01 -1.172470822930335999e-01 -5.865268036723136902e-02 -2.234425209462642670e-02 6.158733740448951721e-02 -2.996431896463036537e-03 4.249349236488342285e-03 4.883332177996635437e-02 -1.217814162373542786e-03 -1.049998332746326923e-03 -4.607143346220254898e-03
1.374108437448740005e-02 1.346302479505538940e-01 -2.535064816474914551e-01 5.216556601226329803e-03 2.244645208120346069e-01 -3.876976296305656433e-02 -1.917319721542298794e-03 9.172268211841583252e-02 1.495860964059829712e-01 -4.792337492108345032e-02 1.391190439462661743e-01 -6.718317419290542603e-02 -2.964231073856353760e-01 -3.966491222381591797e-01 1.562195718288421631e-01 1.107607036828994751e-02 -3.000509440898895264e-01 -1.623583436012268066e-01 4.213411808013916016e-01 -9.716612100601196289e-02 1.451065838336944580e-01 1.548442896455526352e-02 -5.500854924321174622e-02 -4.933487623929977417e-03 -1.099400036036968231e-02 5.004534870386123657e-02 -8.939738385379314423e-03 2.228273078799247742e-02 3.299291059374809265e-02
2.553040087223052979e-01 2.276516854763031006e-01 -5.062508955597877502e-02 1.165514588356018066e-01 -2.924199402332305908e-02 -8.066343516111373901e-02 -1.800342053174972534e-01 3.581225574016571045e-01 -4.331789016723632812e-01 -1.773724853992462158e-01 1.638985611498355865e-02 8.897824585437774658e-02 2.525281012058258057e-01 8.777567744255065918e-02 -1.544288843870162964e-01 -2.012393623590469360e-01 -7.264588773250579834e-02 9.436256438493728638e-02 -2.295655459165573120e-01 2.793488278985023499e-02 1.738472729921340942e-01 -8.924272656440734863e-02 4.293055832386016846e-02 1.025652885437011719e-02 2.309282682836055756e-02 3.448913991451263428e-02 3.749842196702957153e-02 2.276031766086816788e-03 7.546724379062652588e-02
4.424229562282562256e-01 -2.107324004173278809e-01 -1.012170910835266113e-01 -8.142886683344841003e-03 1.490435749292373657e-01 1.059050187468528748e-01 1.155651435256004333e-01 1.367543488740921021e-01 1.753031164407730103e-01 1.189199984073638916e-01 1.492153704166412354e-01 -1.097062751650810242e-01 1.869563013315200806e-01 -1.705345958471298218e-01 -1.810370385646820068e-01 3.589542210102081299e-02 3.164673745632171631e-01 -1.664659976959228516e-01 7.132423669099807739e-02 1.536770462989807129e-01 1.819964200258255005e-01 -1.789780519902706146e-02 -1.869676634669303894e-02 2.861377038061618805e-02 1.951225660741329193e-02 -6.706763524562120438e-03 5.378650501370429993e-02 -3.275854140520095825e-02 -3.731974959373474121e-02
-1.989100575447082520e-01 -6.778495907783508301e-01 1.098428145051002502e-01 -1.013233512639999390e-01 -1.748745590448379517e-01 -4.325616657733917236e-01 -6.852635741233825684e-02 -4.036320447921752930e-01 1.883000433444976807e-01 9.369187057018280029e-02 -1.471158564090728760e-01 -9.007645398378372192e-02 3.414745926856994629e-01 -1.467474251985549927e-01 -4.933590888977050781e-01 -3.477544486522674561e-01 -8.868476748466491699e-02 -1.502841711044311523e-01 -2.262722700834274292e-02 -7.205453515052795410e-02 -5.091964602470397949e-01 1.052198261022567749e-01 8.907178416848182678e-03 1.276421826332807541e-02 -4.118752200156450272e-03 -4.581788182258605957e-02 -5.830071400851011276e-03 -1.776484027504920959e-02 -4.296773672103881836e-02
8.020308613777160645e-02 -2.782089412212371826e-01 3.653406500816345215e-01 6.995923072099685669e-02 -1.638569980859756470e-01 -9.541808813810348511e-02 5.919194817543029785e-01 -6.745245456695556641e-01 -3.390035405755043030e-02 7.458875328302383423e-02 1.322176903486251831e-01 -2.645616531372070312e-01 3.187477886676788330e-01 -1.097250357270240784e-01 3.722217977046966553e-01 -2.202289551496505737e-01 -2.638426423072814941e-01 -6.183338537812232971e-02 -3.145181834697723389e-01 -1.857817023992538452e-01 -1.851066946983337402e-01 -1.017164513468742371e-01 7.338005304336547852e-02 7.572995964437723160e-03 1.208416838198900223e-02 -1.265814807265996933e-02 -4.313229292165488005e-04 -1.105502247810363770e-02 -3.158975765109062195e-02
2.307432144880294800e-01 -1.105386912822723389e-01 1.649423539638519287e-01 1.409422755241394043e-01 -1.128957420587539673e-01 5.391885340213775635e-02 -4.532386362552642822e-01 3.697548806667327881e-01 -1.086928099393844604e-01 -6.403742730617523193e-02 -6.459929794073104858e-02 4.916592687368392944e-02 1.113001406192779541e-01 -1.987537741661071777e-01 -5.331203937530517578e-01 -2.106816023588180542e-01 1.632399410009384155e-01 3.667281568050384521e-02 -3.731998205184936523e-01 -7.202854007482528687e-02 -1.456082016229629517e-01 -1.708539873361587524e-01 1.102464646100997925e-01 5.011215340346097946e-03 3.357748687267303467e-02 -1.696392777375876904e-03 -5.364742130041122437e-02 -3.845863044261932373e-03 -7.572107762098312378e-02
3.217894136905670166e-01 2.295293062925338745e-01 -1.077595204114913940e-01 1.334938257932662964e-01 -8.862560242414474487e-02 7.749184221029281616e-02 -1.537157744169235229e-01 -1.302627772092819214e-01 -2.836805582046508789e-01 -1.019031628966331482e-01 3.997971117496490479e-02 -5.393744111061096191e-01 9.135495126247406006e-02 -3.715625703334808350e-01 -5.241485238075256348e-01 -2.414396107196807861e-01 1.507181078195571899e-01 2.091865539550781250e-01 -8.176943659782409668e-02 -1.894252002239227295e-02 -2.678056806325912476e-02 8.773369714617729187e-03 -4.660181701183319092e-02 -4.718003328889608383e-03 1.810893043875694275e-02 6.720497459173202515e-02 1.809710450470447540e-02 -1.243301015347242355e-02 -2.373916469514369965e-02
2.365277856588363647e-01 6.634617596864700317e-02 1.773714423179626465e-01 -6.795973330736160278e-02 -2.766737015917897224e-03 2.756708562374114990e-01 -1.438125222921371460e-01 -9.918147325515747070e-02 -1.387340575456619263e-01 -7.653733342885971069e-02 -1.287554204463958740e-01 1.308557949960231781e-02 9.573792666196823120e-02 9.665963053703308105e-02 2.101108431816101074e-01 -1.209149230271577835e-02 1.387363523244857788e-01 -1.202155202627182007e-01 5.578114464879035950e-02 -2.193112224340438843e-01 -8.785936981439590454e-02 1.032902896404266357e-01 -1.740054413676261902e-02 4.352242872118949890e-02 4.930133745074272156e-02 4.428011924028396606e-02 7.066346704959869385e-02 -4.627320915460586548e-02 1.251011192798614502e-01
1.239368468523025513e-01 4.681433364748954773e-02 -2.979334210976958275e-03 -6.314259022474288940e-02 5.945921689271926880e-02 -1.131060793995857239e-01 -1.084340959787368774e-01 -1.263112723827362061e-01 1.951606273651123047e-01 9.273836761713027954e-02 2.469349838793277740e-02 1.163953915238380432e-01 -7.469499111175537109e-02 -4.119761884212493896e-01 -2.837888598442077637e-01 3.611790537834167480e-01 1.724623590707778931e-01 -9.774564951658248901e-02 -3.950821235775947571e-02 -1.248891279101371765e-01 2.606074325740337372e-03 2.487784028053283691e-01 1.549765616655349731e-01 -1.051058992743492126e-02 -2.472120150923728943e-02 5.472959950566291809e-02 -8.054194040596485138e-03 7.256340235471725464e-03 6.304070353507995605e-02
-1.453122496604919434e-01 2.208050042390823364e-01 -7.937768101692199707e-02 1.253878921270370483e-01 -2.187212854623794556e-01 2.799783051013946533e-01 4.407934248447418213e-01 1.620244234800338745e-01 -1.762535539455711842e-03 -2.290891855955123901e-01 8.965021371841430664e-02 4.102322161197662354e-01 -2.407186478376388550e-01 -4.585780799388885498e-01 -4.786506891250610352e-01 -3.447868674993515015e-02 -1.751404628157615662e-02 1.636447198688983917e-02 -7.269947230815887451e-02 1.338140666484832764e-01 8.526267111301422119e-02 -3.084541857242584229e-01 -2.048051059246063232e-01 -6.489584222435951233e-03 1.376259513199329376e-02 -5.099387466907501221e-02 -2.152662165462970734e-02 -3.072179155424237251e-03 -6.973597407341003418e-02
1.011597812175750732e-01 3.400349318981170654e-01 7.724907249212265015e-02 1.094703897833824158e-01 7.651499658823013306e-02 -1.392266303300857544e-01 1.736617763526737690e-03 6.832222938537597656e-01 -1.196640077978372574e-02 -4.854581132531166077e-02 9.834513813257217407e-02 -4.154426753520965576e-01 -1.526769250631332397e-03 -4.051842093467712402e-01 6.090714037418365479e-02 -9.932556003332138062e-02 1.366654932498931885e-01 5.229416117072105408e-02 -6.236024573445320129e-02 6.832636147737503052e-02 2.445973008871078491e-01 -8.659456670284271240e-02 2.241920307278633118e-02 -1.057861745357513428e-02 2.886810339987277985e-03 -6.831921637058258057e-02 2.862747944891452789e-02 1.598223671317100525e-02 2.997649833559989929e-02
-4.196958616375923157e-02 2.910212576389312744e-01 1.114537343382835388e-01 1.710655391216278076e-01 2.845305576920509338e-02 2.873726487159729004e-01 1.876251399517059326e-01 -1.540066003799438477e-01 1.050323396921157837e-01 9.509519487619400024e-02 8.128717541694641113e-02 -7.051616907119750977e-02 8.695068210363388062e-02 2.001840919256210327e-01 1.013897955417633057e-01 -1.700945198535919189e-02 5.203197710216045380e-03 2.406466454267501831e-01 -7.713822275400161743e-02 1.527953445911407471e-01 1.043436527252197266e-01 -5.478778108954429626e-02 -1.129467114806175232e-01 5.374211445450782776e-02 8.912820369005203247e-02 2.038196846842765808e-02 5.181208252906799316e-02 1.108590420335531235e-02 3.405579552054405212e-02
-2.613291144371032715e-01 1.361050158739089966e-01 2.696374617516994476e-02 1.822338253259658813e-01 -1.810674369335174561e-02 1.093293055891990662e-01 2.045719698071479797e-02 -4.733816981315612793e-01 6.482229381799697876e-02 1.324115246534347534e-01 -2.068223402602598071e-04 2.669495344161987305e-01 -8.040891587734222412e-02 -2.038141489028930664e-01 1.188384369015693665e-02 3.766435757279396057e-02 5.865977704524993896e-02 -1.903496831655502319e-01 -1.983098983764648438e-01 -4.398282989859580994e-02 2.212879359722137451e-01 -1.204048767685890198e-01 -1.743528842926025391e-01 6.209214031696319580e-02 3.514486178755760193e-02 -1.257080435752868652e-01 2.543520182371139526e-02 1.487432140856981277e-02 -2.655004337430000305e-02
-1.206237226724624634e-01 -1.125496551394462585e-01 1.907794326543807983e-01 -4.003008082509040833e-02 1.178506612777709961e-01 -1.352813839912414551e-01 1.309792101383209229e-01 4.251017794013023376e-02 3.091266155242919922e-01 -9.256319701671600342e-02 -1.142446696758270264e-01 3.750350698828697205e-02 -1.284171175211668015e-02 3.137632310390472412e-01 -2.977623641490936279e-01 -2.007279098033905029e-01 3.213782608509063721e-01 -2.634631991386413574e-01 -1.692177206277847290e-01 -7.997360080480575562e-02 9.794948995113372803e-02 -1.443493962287902832e-01 -2.982118539512157440e-02 -1.389551535248756409e-02 -3.015342168509960175e-02 6.886346638202667236e-02 3.608593717217445374e-02 -2.474424615502357483e-02 -2.936632605269551277e-03
-3.166310861706733704e-02 -8.271642029285430908e-02 -2.058249711990356445e-01 5.466838553547859192e-02 -6.636758148670196533e-02 -3.179703950881958008e-01 5.125582814216613770e-01 -1.414961963891983032e-01 -3.804146870970726013e-02 9.383589774370193481e-02 1.371336877346038818e-01 -2.780779004096984863e-01 -9.346045553684234619e-02 -2.054531723260879517e-01 3.680939972400665283e-02 4.403964281082153320e-01 2.607680261135101318e-01 -2.969207987189292908e-02 -2.015101462602615356e-01 9.466446936130523682e-02 -3.309821337461471558e-02 4.382428526878356934e-02 -2.167256921529769897e-02 5.312234861776232719e-04 -2.461906056851148605e-03 -3.804354369640350342e-02 8.951744064688682556e-03 -1.916862465441226959e-02 -5.786810442805290222e-02
2.168674580752849579e-02 1.206376776099205017e-02 1.024967879056930542e-01 5.767353251576423645e-02 3.587783277034759521e-01 1.611646115779876709e-01 2.959251031279563904e-02 -1.212466433644294739e-01 1.873991638422012329e-01 2.380429022014141083e-02 8.570256829261779785e-02 2.578285038471221924e-01 1.671264916658401489e-01 1.989916712045669556e-01 -3.870055675506591797e-01 3.617253899574279785e-01 -9.791921824216842651e-02 5.711586773395538330e-02 3.041608333587646484e-01 1.041005179286003113e-01 -3.774834871292114258e-01 1.432092934846878052e-01 1.840416789054870605e-01 -4.393454268574714661e-02 2.969002351164817810e-02 2.517400495707988739e-02 6.083169486373662949e-03 -4.096403717994689941e-02 4.348038695752620697e-03
-2.114736884832382202e-01 -8.447030186653137207e-02 -1.413392424583435059e-01 4.355818033218383789e-03 1.134607642889022827e-01 1.027893200516700745e-01 1.127307936549186707e-01 -1.525599360466003418e-01 1.461891978979110718e-01 -9.776467084884643555e-02 -1.650620400905609131e-01 9.898162633180618286e-02 7.517307996749877930e-03 1.607630401849746704e-01 -9.548386931419372559e-02 1.851898282766342163e-01 -2.342744618654251099e-01 -4.248043149709701538e-02 1.057101637125015259e-01 -1.032573059201240540e-01 -1.700368523597717285e-01 -1.237016543745994568e-02 1.184797808527946472e-01 -1.703143119812011719e-02 7.559571880847215652e-03 -2.250961773097515106e-02 5.425161868333816528e-02 -2.467917464673519135e-02 -1.456002146005630493e-02
-5.621155351400375366e-02 4.312853515148162842e-01 6.436779350042343140e-02 9.443756192922592163e-02 9.781351685523986816e-02 6.928850710391998291e-02 -1.461069732904434204e-01 3.831221461296081543e-01 1.303658038377761841e-01 -2.124175876379013062e-01 1.237771362066268921e-01 -7.685157656669616699e-01 -7.177825272083282471e-02 -2.126826206222176552e-03 1.702574044466018677e-01 -1.520833373069763184e-01 -2.437387108802795410e-01 1.547046899795532227e-01 1.339994668960571289e-01 -2.109830034896731377e-03 2.747104763984680176e-01 -2.553188940510153770e-03 1.208783313632011414e-02 3.651983663439750671e-02 1.039915345609188080e-02 1.458161789923906326e-02 2.958697453141212463e-02 2.314358390867710114e-02 1.855098269879817963e-02
8.067812770605087280e-02 3.546672761440277100e-01 5.621884763240814209e-02 -2.428128719329833984e-01 1.921654865145683289e-02 -9.197691828012466431e-02 1.417657285928726196e-01 3.169486522674560547e-01 -1.998995393514633179e-01 -1.426243688911199570e-02 9.329522401094436646e-02 -2.225540280342102051e-01 1.369701623916625977e-01 -4.783493280410766602e-02 -1.380440741777420044e-01 5.818902701139450073e-02 -3.823501989245414734e-02 3.913910686969757080e-01 1.661915332078933716e-01 -1.632278598845005035e-02 8.260071277618408203e-02 -5.077630281448364258e-02 2.971491217613220215e-01 3.544045146554708481e-03 1.990199461579322815e-02 -3.696154057979583740e-02 1.482490357011556625e-02 7.288064807653427124e-02 3.099954873323440552e-02
-9.874839335680007935e-03 -1.859431266784667969e-01 3.327583894133567810e-02 -2.231326550245285034e-01 -1.219693049788475037e-01 4.977631941437721252e-02 -1.664381325244903564e-01 -2.278260588645935059e-01 1.158986538648605347e-01 1.311993449926376343e-01 8.004978299140930176e-02 2.224115431308746338e-01 -4.473715126514434814e-01 3.166248500347137451e-01 1.863500326871871948e-01 3.492362201213836670e-01 2.845273613929748535e-01 8.844012767076492310e-02 -1.292620599269866943e-01 -4.202914983034133911e-02 -1.651149392127990723e-01 1.947654187679290771e-01 -2.131323963403701782e-01 7.129610050469636917e-03 -2.219699509441852570e-02 6.418461445719003677e-03 -1.271431706845760345e-02 6.797804962843656540e-03 4.082916676998138428e-02
-1.860014051198959351e-01 4.091418087482452393e-01 -3.500679880380630493e-02 -2.204829305410385132e-01 -9.331917762756347656e-02 -5.539423823356628418e-01 -2.528065145015716553e-01 5.883495807647705078e-01 1.795313805341720581e-01 2.046836726367473602e-02 4.612614214420318604e-02 3.809238225221633911e-02 -3.809489682316780090e-02 -1.291967630386352539e-01 -5.328428372740745544e-02 1.923754960298538208e-01 8.289101719856262207e-02 -2.029837816953659058e-01 6.323941051959991455e-02 -1.146826520562171936e-01 -6.433710455894470215e-02 -1.681139320135116577e-01 9.417603909969329834e-02 -2.748222276568412781e-02 9.335556998848915100e-03 1.985496468842029572e-02 -2.174223959445953369e-02 -7.988401688635349274e-03 -2.444322593510150909e-02
-7.147731631994247437e-02 2.663642540574073792e-02 -1.775485873222351074e-01 -6.830607354640960693e-02 -4.008091613650321960e-02 -5.003893002867698669e-02 2.934062182903289795e-01 -3.049879074096679688e-01 -2.889034748077392578e-01 1.506481915712356567e-01 -2.093797735869884491e-02 1.098365560173988342e-01 -3.168068826198577881e-01 -5.499804392457008362e-02 -1.342814713716506958e-01 2.737981677055358887e-01 1.278609335422515869e-01 1.746916919946670532e-01 -2.557599917054176331e-02 -1.038328781723976135e-01 -1.175532341003417969e-01 7.286705076694488525e-02 4.947792273014783859e-03 1.988703012466430664e-02 2.874242328107357025e-02 -4.983111843466758728e-02 -6.147811189293861389e-02 1.395202707499265671e-03 -1.024161186069250107e-02
1.443801168352365494e-02 -1.509724557399749756e-01 1.093543544411659241e-01 2.645407617092132568e-01 5.064869299530982971e-02 2.923121750354766846e-01 3.632638752460479736e-01 -7.026814222335815430e-01 1.134516820311546326e-01 1.784659624099731445e-01 1.652225665748119354e-02 -2.699658572673797607e-01 -1.689406335353851318e-01 1.822494417428970337e-01 6.136955022811889648e-01 6.029836535453796387e-01 1.706249266862869263e-01 2.120787948369979858e-01 2.711639367043972015e-02 5.511221289634704590e-02 -3.233638778328895569e-02 1.126908659934997559e-01 5.531949549913406372e-02 -2.347942069172859192e-02 -2.704005688428878784e-02 1.111441478133201599e-02 3.991175815463066101e-02 -2.965755760669708252e-02 1.560236606746912003e-02
6.673769652843475342e-02 1.046411320567131042e-01 -1.216838508844375610e-01 -1.586911976337432861e-01 -5.565487220883369446e-02 5.642450973391532898e-02 1.876960396766662598e-01 8.049019575119018555e-01 1.575968265533447266e-01 1.858217865228652954e-01 -1.140088513493537903e-01 -9.289473891258239746e-01 2.089870274066925049e-01 3.766134083271026611e-01 -1.103957369923591614e-01 -1.963434219360351562e-01 -7.421499490737915039e-02 -3.234370052814483643e-01 4.251618683338165283e-01 -2.021173238754272461e-01 2.251276820898056030e-01 2.705994248390197754e-01 1.205538213253021240e-01 -6.287790834903717041e-03 -5.765937641263008118e-02 5.337191373109817505e-02 2.499761991202831268e-02 1.352390972897410393e-03 -4.567138105630874634e-02
1.804505884647369385e-01 8.206463605165481567e-02 1.839705705642700195e-01 5.086991563439369202e-02 2.502896636724472046e-02 -1.341949552297592163e-01 -2.844517827033996582e-01 1.540151517838239670e-02 -2.551804780960083008e-01 -1.485389191657304764e-02 -1.038616746664047241e-01 3.719891905784606934e-01 -5.846797488629817963e-03 1.719900816679000854e-01 -9.344071894884109497e-02 -8.891941606998443604e-02 1.544692218303680420e-01 8.734567463397979736e-02 -4.264349490404129028e-02 -2.148758620023727417e-01 -6.725670397281646729e-02 1.973272562026977539e-01 -1.506378799676895142e-01 2.405112423002719879e-02 -7.604192197322845459e-02 1.372823268175125122e-01 -7.465229928493499756e-02 7.244358956813812256e-02 1.164163798093795776e-01
-3.045392632484436035e-01 2.648811638355255127e-01 1.914346963167190552e-01 1.540125608444213867e-01 -8.097979240119457245e-03 3.148695826530456543e-01 -1.738988906145095825e-01 -4.242057725787162781e-02 -2.329918891191482544e-01 7.008397579193115234e-02 -4.021790251135826111e-02 5.666639283299446106e-02 1.095393486320972443e-02 5.143187567591667175e-02 -2.464425750076770782e-02 -4.009796679019927979e-02 -6.111644208431243896e-02 4.972812905907630920e-02 1.574801504611968994e-01 1.025654226541519165e-01 1.106331795454025269e-01 2.997170574963092804e-02 4.981809854507446289e-02 1.296915952116250992e-02 -6.589404493570327759e-02 -2.429844625294208527e-02 -3.020216897130012512e-02 5.260878428816795349e-02 4.104166105389595032e-02
3.052919507026672363e-01 -1.391880512237548828e-01 4.574606120586395264e-01 1.929066926240921021e-01 -4.228791296482086182e-01 -2.990446984767913818e-01 8.751471638679504395e-01 -1.264799118041992188e+00 1.705624461174011230e-01 -4.205425456166267395e-02 3.322621062397956848e-02 1.021192818880081177e-01 1.024770289659500122e-01 -8.917718194425106049e-03 5.001934766769409180e-01 3.981015980243682861e-01 7.901298999786376953e-02 3.624208569526672363e-01 -4.748011380434036255e-02 -2.482050508260726929e-01 3.861161470413208008e-01 4.694557283073663712e-03 -2.264532493427395821e-03 5.205768160521984100e-03 -3.063573874533176422e-02 1.069114282727241516e-01 1.783943735063076019e-02 -1.845004968345165253e-02 -2.605273039080202579e-04
-2.662584483623504639e-01 -4.783789440989494324e-02 -4.557872191071510315e-02 -5.741070955991744995e-02 -3.870292007923126221e-02 8.740758150815963745e-02 -1.061370149254798889e-01 2.229937911033630371e-01 -1.922244876623153687e-01 1.976916044950485229e-01 -6.445523351430892944e-02 3.861483633518218994e-01 1.979633420705795288e-02 -3.910887986421585083e-02 6.607474386692047119e-02 -1.264090240001678467e-01 8.214505761861801147e-02 -7.929112017154693604e-02 -3.595006093382835388e-02 1.208377853035926819e-01 1.819282770156860352e-02 -1.591770052909851074e-01 7.976023107767105103e-02 4.420420154929161072e-02 5.076706036925315857e-02 -8.448272198438644409e-02 -5.619727820158004761e-02 3.881308063864707947e-02 3.103235550224781036e-02
8.324315398931503296e-02 -2.113776504993438721e-01 -2.271834462881088257e-01 9.770800918340682983e-02 -2.225769907236099243e-01 -1.530538592487573624e-02 -3.649545460939407349e-02 8.990373611450195312e-01 -5.196235142648220062e-04 1.830976903438568115e-01 -8.370954543352127075e-02 -9.028712511062622070e-01 3.841855823993682861e-01 4.662219583988189697e-01 -3.602797687053680420e-01 3.332233428955078125e-01 3.054122328758239746e-01 -3.873083591461181641e-01 -3.215913474559783936e-01 -2.005226165056228638e-01 -3.068040311336517334e-02 -2.696731388568878174e-01 -3.078721463680267334e-01 5.024774000048637390e-03 -4.509863257408142090e-02 -7.526716683059930801e-03 5.601544398814439774e-03 -1.272936351597309113e-02 4.537794739007949829e-03
-2.550530433654785156e-01 2.809160947799682617e-01 2.677344977855682373e-01 -1.290188878774642944e-01 -2.847824394702911377e-01 -1.633692085742950439e-01 6.452372670173645020e-02 4.484384059906005859e-01 -9.543169289827346802e-02 1.812373101711273193e-01 -1.104466691613197327e-01 -2.723831236362457275e-01 -5.972999706864356995e-02 2.558636069297790527e-01 -2.873243298381567001e-03 1.861850172281265259e-01 -6.814402341842651367e-02 7.532402873039245605e-02 2.122403532266616821e-01 2.045399695634841919e-02 -2.457745671272277832e-01 -2.474981360137462616e-02 1.673709973692893982e-02 1.835848204791545868e-02 4.550688341259956360e-02 -2.252438850700855255e-02 -2.337333932518959045e-02 9.258620440959930420e-03 -4.140537604689598083e-02
2.599172294139862061e-01 -7.965545170009136200e-03 -2.057100087404251099e-01 -1.987912356853485107e-01 -5.709845572710037231e-02 2.239248156547546387e-01 -3.125642538070678711e-01 -3.059277832508087158e-01 -1.269568651914596558e-01 -1.060666739940643311e-01 1.313526630401611328e-01 5.469694137573242188e-01 2.903236448764801025e-01 -1.329195406287908554e-02 1.501691192388534546e-01 2.248401492834091187e-01 1.484718918800354004e-01 2.855805754661560059e-01 -2.668437957763671875e-01 -7.690314948558807373e-02 -1.253217011690139771e-01 -1.324977576732635498e-01 -5.311577394604682922e-02 -2.079473622143268585e-02 4.082078114151954651e-02 8.341817557811737061e-02 -3.890968114137649536e-02 -4.172894358634948730e-02 -3.426389023661613464e-02
3.402097225189208984e-01 3.197684884071350098e-01 -1.347566992044448853e-01 -2.446407638490200043e-02 4.970017448067665100e-02 -2.131478637456893921e-01 1.076378151774406433e-01 5.123930573463439941e-01 -3.931571841239929199e-01 -2.757392451167106628e-02 6.016198918223381042e-02 -4.971142113208770752e-01 -1.063084695488214493e-02 -1.008207164704799652e-02 -4.851576685905456543e-01 -1.041417121887207031e-01 1.599445641040802002e-01 -4.636685550212860107e-02 3.080796897411346436e-01 2.170266956090927124e-01 -2.588187754154205322e-01 9.781648218631744385e-02 -1.715794503688812256e-01 -1.645411178469657898e-02 4.083231091499328613e-02 -1.140895411372184753e-01 -5.597244016826152802e-03 -3.350385278463363647e-02 1.234675059095025063e-03
-2.544839978218078613e-01 1.907610334455966949e-02 2.764310240745544434e-01 1.055721044540405273e-01 2.780733406543731689e-01 -2.159682810306549072e-01 4.328129291534423828e-01 5.903810262680053711e-01 1.316200494766235352e-01 1.936047822237014771e-01 -8.849331177771091461e-03 -8.028211593627929688e-01 1.326909810304641724e-01 1.598495617508888245e-02 5.367844104766845703e-01 3.464892506599426270e-01 1.710622161626815796e-01 7.400376349687576294e-02 -9.557286649942398071e-02 -1.137256715446710587e-02 3.829725980758666992e-01 4.156374186277389526e-02 -2.276241593062877655e-02 7.225522771477699280e-03 3.011323697865009308e-02 3.613597946241497993e-03 1.022867206484079361e-02 2.624831534922122955e-02 8.130333386361598969e-03
3.267320245504379272e-02 5.585637409240007401e-03 1.262458264827728271e-01 9.264229983091354370e-02 -3.506964743137359619e-01 -3.836238980293273926e-01 -4.342471361160278320e-01 -1.060764789581298828e-01 7.713083177804946899e-02 1.115538850426673889e-01 -6.876826286315917969e-02 1.887196749448776245e-01 1.560850143432617188e-01 1.676783114671707153e-01 2.184362858533859253e-01 1.225598677992820740e-01 -2.105168849229812622e-01 -6.923618912696838379e-02 -3.118133544921875000e-01 -1.621619760990142822e-01 -8.201059699058532715e-02 -4.368216097354888916e-01 5.157812312245368958e-02 1.679746434092521667e-02 -2.298754267394542694e-02 4.482955485582351685e-02 1.316691190004348755e-02 2.530281897634267807e-03 -8.701107650995254517e-02
-2.449011653661727905e-01 -4.805738627910614014e-01 1.335457712411880493e-01 -9.843586385250091553e-02 -3.985718637704849243e-02 1.860823482275009155e-02 3.955389857292175293e-01 -3.171259462833404541e-01 2.875809371471405029e-01 1.089133992791175842e-01 -4.421969130635261536e-02 -4.365938901901245117e-01 2.550334036350250244e-01 -1.548245698213577271e-01 4.029721021652221680e-02 -2.365638315677642822e-01 2.085274457931518555e-01 -1.187780350446701050e-01 1.164554432034492493e-02 1.167951822280883789e-01 -2.826760709285736084e-01 -1.761687844991683960e-01 -1.541115641593933105e-01 4.982739221304655075e-03 4.350411146879196167e-02 -6.709716469049453735e-02 5.940640345215797424e-03 5.272497422993183136e-03 5.250978842377662659e-02
3.352415263652801514e-01 -2.583996653556823730e-01 1.397795528173446655e-01 3.094109594821929932e-01 1.850798279047012329e-01 -1.108106374740600586e-01 5.704810023307800293e-01 -6.979571580886840820e-01 1.920194923877716064e-01 -1.083809882402420044e-01 -1.922520226798951626e-03 -2.550657391548156738e-01 -1.312257647514343262e-01 -1.636215299367904663e-01 4.235582947731018066e-01 1.126476749777793884e-01 -2.708461582660675049e-01 -2.743529677391052246e-01 1.538648549467325211e-02 2.861333489418029785e-01 -8.499848842620849609e-02 6.892599165439605713e-03 2.646295130252838135e-01 -1.683737151324748993e-03 -2.427048236131668091e-02 -3.945152834057807922e-02 2.271429821848869324e-02 1.600262708961963654e-02 1.436721999198198318e-02
-1.071498468518257141e-01 1.447505801916122437e-01 1.513233333826065063e-01 1.419843640178442001e-02 -1.811854839324951172e-01 2.282369509339332581e-02 4.892555177211761475e-01 -5.269038081169128418e-01 1.720526665449142456e-01 3.483886271715164185e-02 8.836148679256439209e-02 4.292653203010559082e-01 2.624129354953765869e-01 2.189396917819976807e-01 -2.729803919792175293e-01 5.075165629386901855e-01 2.526274025440216064e-01 6.119219064712524414e-01 -7.301649451255798340e-02 -8.997050672769546509e-02 -1.580301672220230103e-01 -9.932597726583480835e-02 -4.275463894009590149e-02 -5.794565659016370773e-03 -1.357115525752305984e-02 2.331300638616085052e-03 -2.421573176980018616e-02 -1.446002814918756485e-02 1.198166515678167343e-02
4.665270149707794189e-01 9.444886445999145508e-02 3.538606464862823486e-01 4.551508650183677673e-02 1.664841026067733765e-01 7.437276840209960938e-02 2.317188829183578491e-01 2.371929287910461426e-01 1.945507526397705078e-02 8.987505733966827393e-02 1.778297573328018188e-01 2.313764691352844238e-01 4.747596383094787598e-02 -2.849190495908260345e-03 -2.494768947362899780e-01 -3.276216238737106323e-02 -8.980325609445571899e-02 1.746608167886734009e-01 -5.856292694807052612e-02 -9.005702286958694458e-02 -9.002334624528884888e-02 -1.424275934696197510e-01 -4.607132449746131897e-02 -1.785481465049088001e-03 1.044648513197898865e-02 5.653271079063415527e-02 3.238438069820404053e-02 1.597977429628372192e-02 3.424059599637985229e-02
-5.055463910102844238e-01 1.740123033523559570e-01 4.685083031654357910e-02 3.000317811965942383e-01 -1.410079449415206909e-01 3.557115197181701660e-01 -6.007645130157470703e-01 -9.487970173358917236e-02 8.035188540816307068e-03 1.112327724695205688e-01 4.039167612791061401e-02 -4.443991482257843018e-01 -1.165414676070213318e-01 -2.005283236503601074e-01 -2.405100017786026001e-01 -2.448491305112838745e-01 -2.690489776432514191e-02 -3.858824074268341064e-02 2.446940541267395020e-01 -1.005115881562232971e-01 2.247645854949951172e-01 -2.760696113109588623e-01 8.934333920478820801e-02 -1.426938921213150024e-02 3.124837204813957214e-02 4.723587539047002792e-03 2.092976681888103485e-02 -1.755312457680702209e-02 -7.029640674591064453e-02
4.538086056709289551e-01 2.670480906963348389e-01 7.724113762378692627e-02 5.376021191477775574e-02 -1.936391554772853851e-02 -6.591816991567611694e-02 -5.357917770743370056e-02 1.308329254388809204e-01 2.497293800115585327e-01 -1.464089564979076385e-02 1.309163719415664673e-01 4.076870381832122803e-01 -4.114976897835731506e-02 -2.113144472241401672e-02 -4.666968882083892822e-01 -9.002431482076644897e-02 -1.892088502645492554e-01 1.769184693694114685e-02 -1.222919225692749023e-01 -4.264632612466812134e-02 1.224834769964218140e-01 -2.350589185953140259e-01 5.652251094579696655e-02 -4.882661625742912292e-03 2.028148993849754333e-02 -2.915094234049320221e-02 1.448572985827922821e-02 -3.574809525161981583e-03 -4.729421064257621765e-02
1.755420714616775513e-01 2.046376094222068787e-02 3.250742256641387939e-01 2.777132764458656311e-02 -6.559123843908309937e-02 -1.184433996677398682e-01 2.871287465095520020e-01 2.011794149875640869e-01 -1.971713006496429443e-01 -6.283817440271377563e-02 3.528659418225288391e-02 -4.292155802249908447e-01 4.366740882396697998e-01 1.529895067214965820e-01 1.839385479688644409e-01 1.249756962060928345e-01 -1.214752495288848877e-01 -2.655049860477447510e-01 3.130819499492645264e-01 3.158917725086212158e-01 -1.268965899944305420e-01 -2.176036983728408813e-01 -7.299316674470901489e-02 -1.545437891036272049e-02 1.815091446042060852e-02 5.409608781337738037e-02 -1.273800060153007507e-02 2.184362895786762238e-02 6.900895852595567703e-03
6.957280635833740234e-02 -1.991824060678482056e-01 2.473699003458023071e-01 4.053927212953567505e-02 4.585568979382514954e-02 2.085754573345184326e-01 -2.699633538722991943e-01 -2.826353907585144043e-01 -2.875580787658691406e-01 2.074650861322879791e-02 6.215302273631095886e-02 -1.252467036247253418e-01 3.492267802357673645e-02 1.399575173854827881e-01 2.371426969766616821e-01 -7.715099304914474487e-02 -7.773236930370330811e-02 -1.037932112812995911e-01 1.846787482500076294e-01 1.776622235774993896e-01 1.671961136162281036e-02 -3.696288540959358215e-02 -5.025647953152656555e-02 9.156507439911365509e-03 -1.389181986451148987e-02 -5.080047249794006348e-02 -8.847573772072792053e-03 3.147293580695986748e-03 3.405190631747245789e-02
-7.811686396598815918e-02 1.844991743564605713e-01 -9.749758988618850708e-03 3.375018760561943054e-02 -8.632576093077659607e-03 5.360967293381690979e-02 -6.935458630323410034e-02 1.073217913508415222e-01 1.420091539621353149e-01 -2.304700016975402832e-02 -1.404112279415130615e-01 9.446081519126892090e-02 1.006892919540405273e-01 -3.992344066500663757e-02 6.825171113014221191e-01 -2.555839717388153076e-02 3.556103706359863281e-01 1.850311905145645142e-01 -2.821177244186401367e-01 -2.130594803020358086e-03 4.021150469779968262e-01 1.664336323738098145e-01 -1.828706115484237671e-01 1.460610330104827881e-02 -8.290456607937812805e-04 -2.977813035249710083e-02 1.009746082127094269e-02 6.833600345999002457e-03 -4.599572345614433289e-02
-2.143956869840621948e-01 4.097765088081359863e-01 -5.831271037459373474e-02 3.149679601192474365e-01 2.845058403909206390e-02 -1.908511966466903687e-01 8.010733872652053833e-02 -4.727574884891510010e-01 2.752622663974761963e-01 9.123039245605468750e-02 7.375907152891159058e-02 1.757612526416778564e-01 -2.673850953578948975e-01 1.089876294136047363e-01 1.319708526134490967e-01 1.789253205060958862e-01 2.289391309022903442e-01 2.955338954925537109e-01 -1.172825619578361511e-01 2.090555280447006226e-01 5.803304538130760193e-02 5.285641923546791077e-02 -3.803228028118610382e-03 4.997485503554344177e-02 1.919905282557010651e-02 -2.670884365215897560e-03 1.738236099481582642e-02 -5.202346947044134140e-03 -3.474779799580574036e-02
2.391282618045806885e-01 1.777390241622924805e-01 -9.109854698181152344e-02 -1.680780947208404541e-02 -6.139744073152542114e-02 -6.090400367975234985e-02 2.150401622056961060e-01 1.666099280118942261e-01 2.142058312892913818e-01 -3.162183612585067749e-02 -1.459040492773056030e-01 1.503180265426635742e-01 9.915552288293838501e-02 3.054160475730895996e-01 -2.291368395090103149e-01 7.709838449954986572e-02 2.450772076845169067e-01 2.923567295074462891e-01 1.855952739715576172e-01 -2.642731554806232452e-02 -1.443165121600031853e-03 -2.949835360050201416e-01 -8.167611062526702881e-02 -4.141952469944953918e-02 -1.929851062595844269e-02 -4.221524298191070557e-02 7.222128333523869514e-04 -1.654660142958164215e-02 -6.573124974966049194e-02
1.031280215829610825e-02 -8.079475909471511841e-02 -8.578329288866370916e-05 6.151766516268253326e-03 1.656795889139175415e-01 -5.643603578209877014e-02 5.554202944040298462e-02 7.837279886007308960e-02 1.962360888719558716e-01 -1.541110593825578690e-02 -2.034863457083702087e-03 -4.257000982761383057e-01 3.959135711193084717e-01 -4.391032159328460693e-01 9.083081781864166260e-02 -1.580527424812316895e-01 -2.924742698669433594e-01 8.844123780727386475e-02 9.780606627464294434e-02 5.704125505872070789e-04 -1.727179065346717834e-02 2.335777431726455688e-01 5.868823826313018799e-02 -4.610441159456968307e-03 1.289228722453117371e-02 3.662612661719322205e-02 1.307186111807823181e-02 3.591815754771232605e-02 6.018529832363128662e-02
-1.727382540702819824e-01 -6.532531231641769409e-02 2.348663955926895142e-01 -1.243560947477817535e-02 -5.365951918065547943e-03 -1.013165935873985291e-01 3.304812312126159668e-01 -1.584720909595489502e-01 4.220799505710601807e-01 -1.348101645708084106e-01 5.083738639950752258e-02 1.007956564426422119e-01 1.049270480871200562e-01 2.235180139541625977e-01 -1.527794003486633301e-01 2.155793458223342896e-01 -1.132616698741912842e-01 1.118603497743606567e-01 5.348815023899078369e-02 1.799758374691009521e-01 2.222600579261779785e-01 2.567681968212127686e-01 1.594878584146499634e-01 4.931638389825820923e-02 -1.377852354198694229e-02 3.718963637948036194e-02 9.666727419244125485e-05 -9.607295505702495575e-03 7.638194598257541656e-03
-2.823352515697479248e-01 -1.028059050440788269e-01 5.386974662542343140e-02 -3.922804445028305054e-02 -1.289858818054199219e-01 -5.524082854390144348e-02 -1.744186133146286011e-01 -6.938497535884380341e-03 9.306383877992630005e-02 -2.503883540630340576e-01 3.418350592255592346e-02 1.956046968698501587e-01 -1.232336759567260742e-01 2.975296080112457275e-01 -1.738453507423400879e-01 -2.085793167352676392e-01 7.014996558427810669e-02 -1.630945354700088501e-01 -1.588979386724531651e-03 2.819838188588619232e-02 -5.187969282269477844e-02 -2.714052200317382812e-01 1.219304129481315613e-01 1.411712635308504105e-02 -2.011017687618732452e-02 -5.201598629355430603e-02 -1.374366413801908493e-02 3.876695036888122559e-02 8.133889641612768173e-04
1.121894791722297668e-01 1.767148729413747787e-03 2.550167441368103027e-01 -5.834588408470153809e-02 -1.964593380689620972e-01 -8.414438366889953613e-02 -9.483941644430160522e-02 -3.507208079099655151e-02 -2.396468669176101685e-01 -1.001242101192474365e-01 1.629948467016220093e-01 -3.339532017707824707e-02 -2.040334641933441162e-01 -1.276857405900955200e-01 3.979431092739105225e-01 1.778995245695114136e-01 9.693410992622375488e-02 1.766094267368316650e-01 -4.366201758384704590e-01 -2.091575227677822113e-02 3.939212486147880554e-02 -1.622445732355117798e-01 -5.173397716134786606e-03 -4.309098236262798309e-03 2.496538916602730751e-03 -1.894383318722248077e-02 2.025095745921134949e-03 4.017141473013907671e-04 -1.954542845487594604e-02
-1.135852038860321045e-01 -3.222925662994384766e-01 -2.173988893628120422e-02 7.845987565815448761e-03 -1.392117291688919067e-01 1.288197189569473267e-01 -5.608524680137634277e-01 -2.905896902084350586e-01 1.760403811931610107e-01 -4.415134340524673462e-02 7.232990860939025879e-02 2.878700196743011475e-01 -1.552422642707824707e-01 -2.330187261104583740e-01 -4.062439501285552979e-01 -2.569903135299682617e-01 -1.504626870155334473e-01 -1.338082402944564819e-01 -4.816830158233642578e-02 -1.469111740589141846e-01 8.470530807971954346e-02 -3.667947947978973389e-01 -3.749426081776618958e-02 -5.168085917830467224e-03 -3.839005529880523682e-02 1.950278878211975098e-02 -2.871036529541015625e-02 1.798935048282146454e-02 -3.129651769995689392e-02
5.702085793018341064e-03 -2.336890697479248047e-01 1.999751031398773193e-01 1.553521212190389633e-02 -2.041192948818206787e-01 -4.308595657348632812e-01 1.346034929156303406e-02 -2.689615786075592041e-01 9.175454825162887573e-02 9.875035285949707031e-02 1.172876805067062378e-01 1.033817678689956665e-01 1.764519214630126953e-01 1.675404012203216553e-01 -8.427769690752029419e-02 1.873667687177658081e-01 2.259098291397094727e-01 -1.085907369852066040e-01 -3.856985569000244141e-01 -3.894473910331726074e-01 3.853726759552955627e-02 1.531297620385885239e-02 -2.345639169216156006e-01 3.096107393503189087e-02 -5.285826046019792557e-03 1.058694869279861450e-01 1.978414505720138550e-02 5.725475493818521500e-03 5.584142729640007019e-02
-4.324491024017333984e-01 4.146080911159515381e-01 -5.860390886664390564e-02 1.069606244564056396e-01 1.822376251220703125e-01 5.800265669822692871e-01 -1.504807323217391968e-01 5.585373044013977051e-01 -2.986287772655487061e-01 9.617856144905090332e-02 2.526473253965377808e-02 -2.670532464981079102e-01 -2.578711807727813721e-01 -9.114372730255126953e-02 -7.954944670200347900e-02 -8.608689159154891968e-02 -6.670368462800979614e-02 -4.715906083583831787e-02 2.526500225067138672e-01 -1.338724792003631592e-01 3.511196076869964600e-01 -5.143830180168151855e-02 1.981150731444358826e-02 4.441768303513526917e-02 -3.108196333050727844e-02 1.047215424478054047e-03 -5.787838716059923172e-03 -9.680248796939849854e-03 -3.539910912513732910e-02
5.798704177141189575e-02 1.868001520633697510e-01 -1.526843309402465820e-01 -1.286024600267410278e-01 -4.162147939205169678e-01 -1.710721105337142944e-01 5.941449403762817383e-01 -1.848347485065460205e-01 -2.465001493692398071e-01 -5.707690119743347168e-02 1.213522255420684814e-01 -3.516314029693603516e-01 -2.329744398593902588e-01 -3.798141181468963623e-01 3.505382537841796875e-01 2.784021198749542236e-01 1.055943071842193604e-01 2.563149929046630859e-01 -2.721850275993347168e-01 -1.334335356950759888e-01 -2.391797453165054321e-01 -1.494261622428894043e-02 -3.982504829764366150e-03 -1.310126483440399170e-02 -2.778360247611999512e-02 1.378840114921331406e-02 -4.919882118701934814e-02 9.801555424928665161e-03 -3.099118173122406006e-02
2.348979562520980835e-01 5.477747321128845215e-01 1.141791604459285736e-02 -2.349182963371276855e-01 -1.153256744146347046e-01 -5.538674816489219666e-02 -1.781505793333053589e-01 5.759100914001464844e-01 -6.640906631946563721e-02 1.809496618807315826e-02 1.688818782567977905e-01 -1.003209233283996582e+00 3.080384135246276855e-01 -1.840487681329250336e-02 -1.101179495453834534e-01 -2.239059060811996460e-01 3.136029839515686035e-01 4.600388184189796448e-02 -2.404934763908386230e-01 3.237619251012802124e-02 2.039674669504165649e-01 5.702149122953414917e-02 -1.854952424764633179e-01 7.115066796541213989e-02 4.102576151490211487e-02 3.469532821327447891e-03 -8.240526542067527771e-03 -8.137635886669158936e-03 1.150721684098243713e-01
3.845444023609161377e-01 5.197154283523559570e-01 9.574265033006668091e-02 -1.967597054317593575e-04 -3.115783333778381348e-01 1.997517645359039307e-01 3.308574259281158447e-01 9.651305079460144043e-01 8.207449316978454590e-02 -1.098939925432205200e-01 1.450767815113067627e-01 -1.477602422237396240e-01 -2.651565521955490112e-02 -4.787774011492729187e-02 2.831056416034698486e-01 -2.153992652893066406e-01 -2.018189579248428345e-01 -1.334079802036285400e-01 -3.705372214317321777e-01 6.719602271914482117e-03 2.469621896743774414e-01 -1.946202516555786133e-01 9.008379280567169189e-02 1.439112937077879906e-03 -8.663196931593120098e-04 5.174186080694198608e-03 1.096031162887811661e-03 3.707244992256164551e-03 -5.399224162101745605e-02
-2.358395047485828400e-02 -2.134452760219573975e-01 -3.123948276042938232e-01 1.199376806616783142e-01 -5.739287286996841431e-02 1.960378438234329224e-01 1.856774091720581055e-01 -9.477020055055618286e-02 8.701953291893005371e-02 1.112636104226112366e-01 -7.631792873144149780e-02 8.320549130439758301e-02 2.670885920524597168e-01 5.006473660469055176e-01 2.596813142299652100e-01 4.914185106754302979e-01 4.472000598907470703e-01 1.121786981821060181e-01 -1.726177036762237549e-01 -1.607939898967742920e-01 9.662570059299468994e-02 -1.659989207983016968e-01 1.411429196596145630e-01 8.641566964797675610e-04 2.966786967590451241e-03 -3.213980048894882202e-02 -7.257483433932065964e-03 6.400342565029859543e-03 -7.785366475582122803e-02
3.641053289175033569e-02 4.626373946666717529e-02 -8.975028991699218750e-02 1.098017469048500061e-01 -2.251558154821395874e-01 2.405169457197189331e-01 6.793633103370666504e-01 4.458012878894805908e-01 4.363132640719413757e-02 1.576759964227676392e-01 1.511642783880233765e-01 7.211997359991073608e-02 -1.983069181442260742e-01 -5.049926638603210449e-01 -1.015252247452735901e-01 -3.108826279640197754e-01 -4.576144814491271973e-01 2.128397673368453979e-01 -1.743513345718383789e-01 -1.138710379600524902e-01 -1.448943763971328735e-01 1.255841553211212158e-01 -6.157723441720008850e-02 -9.340949356555938721e-03 -1.190071459859609604e-02 1.886672899127006531e-02 -3.284250618889927864e-03 -4.211012739688158035e-03 4.469028115272521973e-02
-1.310014072805643082e-02 2.233831584453582764e-01 -3.438994288444519043e-02 1.152651105076074600e-02 -1.219463185407221317e-03 1.216952726244926453e-01 -3.912360370159149170e-01 -2.018259316682815552e-01 4.244757816195487976e-02 -2.337236255407333374e-01 6.638786941766738892e-02 -6.512869000434875488e-01 -2.474775016307830811e-01 -1.916425973176956177e-01 -7.134633660316467285e-01 -1.928070634603500366e-01 -2.738892436027526855e-01 2.597382664680480957e-01 -2.236432582139968872e-01 3.816795349121093750e-02 -2.596137523651123047e-01 2.753289937973022461e-01 -2.222766727209091187e-01 -1.564890518784523010e-02 -1.814834587275981903e-02 1.557835005223751068e-02 -1.627534278668463230e-03 -3.289697458967566490e-03 7.367891725152730942e-03
-9.814468771219253540e-02 3.161594271659851074e-01 -2.273624762892723083e-02 7.294326275587081909e-02 9.233908355236053467e-02 9.702397137880325317e-02 1.266052126884460449e-01 2.722970545291900635e-01 3.145308792591094971e-01 -2.001761645078659058e-01 5.850041657686233521e-02 1.207736730575561523e-01 -1.229815185070037842e-01 3.568972945213317871e-01 -3.779360093176364899e-03 -3.900045156478881836e-01 1.636606603860855103e-01 2.616748809814453125e-01 2.911789119243621826e-01 2.309927195310592651e-01 2.244150787591934204e-01 -6.862960010766983032e-02 6.082709133625030518e-02 -3.207885846495628357e-02 -2.273898571729660034e-02 -9.935228154063224792e-03 4.303654190152883530e-03 -3.710007295012474060e-02 4.676082730293273926e-02
3.483540117740631104e-01 2.295788824558258057e-01 -6.390210986137390137e-02 -1.459833085536956787e-01 3.577634990215301514e-01 -1.706400811672210693e-01 7.600849121809005737e-02 -7.735930383205413818e-02 -2.743658721446990967e-01 -1.382994055747985840e-01 -1.761724352836608887e-01 1.260670721530914307e-01 5.284110307693481445e-01 2.315159291028976440e-01 2.125723846256732941e-02 -9.221326559782028198e-02 1.896406337618827820e-02 2.889172919094562531e-02 -1.850145682692527771e-02 -5.662332102656364441e-02 7.947390899062156677e-03 3.473954647779464722e-02 -3.071398474276065826e-03 1.232712646014988422e-03 -1.182019524276256561e-02 -1.124373003840446472e-01 -5.235462449491024017e-03 7.728829514235258102e-03 -1.904592034406960011e-03
4.323447942733764648e-01 7.342655956745147705e-02 -1.702079176902770996e-02 3.736916929483413696e-02 6.875050067901611328e-02 -8.439652621746063232e-02 -3.630910217761993408e-01 -1.085633561015129089e-01 -1.131533682346343994e-01 2.615325897932052612e-02 1.246614307165145874e-01 2.665328085422515869e-01 -1.018150448799133301e-01 -2.022576481103897095e-01 5.480403825640678406e-02 1.889879405498504639e-01 3.663928508758544922e-01 2.188055068254470825e-01 -8.051944524049758911e-02 -4.940833151340484619e-02 -1.215000674128532410e-01 -2.029597610235214233e-01 5.326251313090324402e-02 -2.782585471868515015e-02 7.957720197737216949e-03 1.455345074646174908e-03 1.671037822961807251e-02 -7.181752938777208328e-03 -4.311369732022285461e-02
9.829491376876831055e-02 1.821300238370895386e-01 2.919191718101501465e-01 1.623308472335338593e-02 -6.317677348852157593e-02 -3.248762190341949463e-01 1.826538592576980591e-01 -1.414600759744644165e-01 2.839944958686828613e-01 -5.868906155228614807e-03 7.105353474617004395e-02 3.362227678298950195e-01 3.256108239293098450e-02 8.634015917778015137e-02 -2.577544450759887695e-01 -5.392316728830337524e-03 -3.932706639170646667e-02 3.484773933887481689e-01 -2.748602330684661865e-01 -2.204485386610031128e-01 1.268484722822904587e-02 -1.112217307090759277e-01 -1.213540509343147278e-01 1.432840526103973389e-02 2.375053986907005310e-02 1.170369833707809448e-01 -7.027906831353902817e-04 1.527880690991878510e-02 1.532974187284708023e-02
3.382103983312845230e-03 2.924430668354034424e-01 8.748457767069339752e-03 6.147629395127296448e-02 -7.303593307733535767e-02 2.484422326087951660e-01 -1.046632751822471619e-01 8.957549184560775757e-02 -5.365825891494750977e-01 -2.221336364746093750e-01 -6.541000306606292725e-02 -9.032237529754638672e-01 2.005914747714996338e-01 1.029354482889175415e-01 -1.233235001564025879e-01 -2.170440703630447388e-01 5.053687840700149536e-03 1.689651906490325928e-01 -6.853445172309875488e-01 -1.185109019279479980e-01 3.489669859409332275e-01 -3.279640078544616699e-01 -1.453667134046554565e-01 1.292903791181743145e-03 -2.804171526804566383e-03 -3.678024560213088989e-02 1.847309805452823639e-02 -1.038889028131961823e-02 -1.848156331107020378e-03
1.227371469140052795e-01 1.234392747282981873e-01 -2.677161246538162231e-02 1.882316172122955322e-02 -1.458912193775177002e-01 6.012159399688243866e-03 -3.745554983615875244e-01 2.635385096073150635e-02 -2.981394231319427490e-01 3.952519223093986511e-02 -1.167522147297859192e-01 -7.837227731943130493e-02 2.208255827426910400e-01 2.786565124988555908e-01 3.146704733371734619e-01 -3.104406297206878662e-01 -5.407240241765975952e-02 4.767960608005523682e-01 -4.366876929998397827e-02 -1.562441140413284302e-01 2.048323303461074829e-02 1.093925610184669495e-01 1.617191433906555176e-01 1.584776118397712708e-02 1.772792451083660126e-02 -5.013176053762435913e-02 -1.137852016836404800e-02 -1.396967098116874695e-02 9.509736672043800354e-03
-3.359694182872772217e-01 -1.517000347375869751e-01 -1.732774451375007629e-02 -5.278584361076354980e-02 -8.026883751153945923e-02 1.186115294694900513e-01 -7.665083557367324829e-02 1.106908395886421204e-01 1.873978599905967712e-02 -2.919651567935943604e-01 1.698778867721557617e-01 2.787154316902160645e-01 3.466259688138961792e-02 -2.312233597040176392e-01 -2.131277471780776978e-01 7.297954708337783813e-02 -7.789169251918792725e-02 1.309163421392440796e-01 5.604445561766624451e-02 -5.764550715684890747e-02 2.697458565235137939e-01 -1.316687315702438354e-01 -1.350035220384597778e-01 6.404201965779066086e-03 -5.143220070749521255e-03 9.809304028749465942e-03 3.862479934468865395e-03 -1.238606404513120651e-02 -7.908321917057037354e-03
-3.534773588180541992e-01 -2.567023336887359619e-01 2.469007074832916260e-01 -3.156974911689758301e-02 2.834024131298065186e-01 -1.752491593360900879e-01 5.547083914279937744e-02 -2.808141410350799561e-01 -1.196140572428703308e-01 3.831000626087188721e-02 -7.420366257429122925e-02 2.888594865798950195e-01 -3.660400956869125366e-02 2.853117883205413818e-01 5.791582465171813965e-01 -6.745699793100357056e-02 -4.349521100521087646e-01 3.634911179542541504e-01 -2.558502741158008575e-02 -3.565231859683990479e-01 -8.968863636255264282e-02 1.556048244237899780e-01 -7.704657502472400665e-03 -5.013730842620134354e-03 -2.059696614742279053e-02 7.095607370138168335e-02 -2.332925237715244293e-02 -6.008236203342676163e-03 -1.061567515134811401e-01
3.736732006072998047e-01 -1.827222108840942383e-01 2.627010690048336983e-03 -6.578400731086730957e-02 -1.772332191467285156e-01 -1.671205759048461914e-01 -1.348035782575607300e-02 2.796052992343902588e-01 -2.432415932416915894e-01 3.864395618438720703e-02 -8.679051697254180908e-02 -3.159980475902557373e-01 -3.323830366134643555e-01 -5.854627862572669983e-02 7.370208501815795898e-01 4.630134999752044678e-01 1.892839223146438599e-01 -1.572398096323013306e-01 -3.834902644157409668e-01 -6.355205923318862915e-02 1.953894644975662231e-01 1.795680671930313110e-01 6.101622059941291809e-02 -3.283807309344410896e-03 -2.414051070809364319e-02 -1.116067729890346527e-02 -6.516575813293457031e-03 2.164469915442168713e-04 -3.298816829919815063e-02
1.258466541767120361e-01 -4.729300737380981445e-02 -1.958749741315841675e-01 1.404106020927429199e-01 1.940655112266540527e-01 6.335370987653732300e-02 2.392632514238357544e-01 -1.266838610172271729e-01 -2.927542328834533691e-01 2.245518006384372711e-02 -1.742733269929885864e-01 1.882501393556594849e-01 4.513519257307052612e-02 -1.850531995296478271e-01 -4.352521002292633057e-01 3.249196112155914307e-01 6.498725414276123047e-01 8.827035129070281982e-02 2.419234067201614380e-01 -1.198221445083618164e-01 -1.984281837940216064e-01 1.386729627847671509e-01 2.716184556484222412e-01 -1.205272506922483444e-02 -8.330401033163070679e-03 -1.134390942752361298e-02 -1.858244836330413818e-02 -1.160030066967010498e-02 9.312754124402999878e-02
-1.381837576627731323e-01 -2.463011443614959717e-01 -8.369492739439010620e-02 -6.477713584899902344e-02 2.222160398960113525e-01 -1.591907069087028503e-02 -1.240522041916847229e-02 1.188377663493156433e-01 3.836710751056671143e-01 -8.192551322281360626e-03 -2.640897408127784729e-02 -3.634384572505950928e-01 2.426241040229797363e-01 -2.009179145097732544e-01 2.338826358318328857e-01 -2.038970738649368286e-01 2.000641077756881714e-02 -2.163518667221069336e-01 2.444896250963211060e-01 5.489257723093032837e-02 -1.204011216759681702e-01 1.413724478334188461e-02 1.128881610929965973e-02 -3.904947265982627869e-02 1.041681971400976181e-02 1.475189439952373505e-02 -1.505575142800807953e-02 -3.669404610991477966e-02 1.364078745245933533e-02
2.376835197210311890e-01 6.602481752634048462e-02 -2.416415959596633911e-01 1.377483904361724854e-01 1.197319254279136658e-01 2.602830529212951660e-01 3.619408607482910156e-01 2.284882962703704834e-02 1.134975031018257141e-01 3.159868717193603516e-02 -4.633966833353042603e-03 1.944586485624313354e-01 2.341486960649490356e-01 2.601251006126403809e-01 2.577890455722808838e-01 3.556157052516937256e-01 1.225848942995071411e-01 -2.203385084867477417e-01 -2.075492292642593384e-01 -1.369843035936355591e-01 -2.721730470657348633e-01 1.221019625663757324e-01 5.101289972662925720e-02 1.439332496374845505e-02 -1.943976618349552155e-02 -4.787599667906761169e-03 3.141701221466064453e-02 1.465245801955461502e-02 6.141300126910209656e-02
2.967403233051300049e-01 7.026567310094833374e-02 -7.745075970888137817e-02 -1.026559844613075256e-01 -6.835224479436874390e-02 5.406735464930534363e-02 -5.799695104360580444e-02 3.479519486427307129e-01 2.811048738658428192e-02 9.684234857559204102e-02 -9.793698787689208984e-02 -4.376484751701354980e-01 5.157345533370971680e-01 4.451430439949035645e-01 1.706329882144927979e-01 2.684257030487060547e-01 1.642179489135742188e-01 -1.897235363721847534e-01 -1.282276362180709839e-01 -1.793761104345321655e-01 -8.396755903959274292e-02 -1.146426424384117126e-01 -3.202587738633155823e-02 1.263676863163709641e-02 -6.392290815711021423e-03 -7.492850720882415771e-02 -1.514255721122026443e-02 1.245061215013265610e-02 -5.149161070585250854e-02
-9.648174978792667389e-03 2.146892547607421875e-01 -2.691520154476165771e-01 2.059935033321380615e-01 9.378701448440551758e-03 -6.206472516059875488e-01 1.720065176486968994e-01 2.346132844686508179e-01 2.467406988143920898e-01 1.119429096579551697e-01 1.203917153179645538e-02 1.078795567154884338e-01 2.917951643466949463e-01 -1.377383768558502197e-01 -3.574354052543640137e-01 1.496394872665405273e-01 1.257405877113342285e-01 2.862943410873413086e-01 -1.802032738924026489e-01 6.538216024637222290e-02 -9.650240093469619751e-02 2.016939073801040649e-01 1.555031687021255493e-01 1.220565009862184525e-02 6.194736808538436890e-03 -3.736236318945884705e-02 4.246658179908990860e-03 -7.642074022442102432e-03 -1.687413454055786133e-02
-1.473009865731000900e-02 -1.043280363082885742e-01 3.105461597442626953e-01 -1.252675950527191162e-01 -4.756703972816467285e-02 -2.021646052598953247e-01 6.443674117326736450e-02 1.900837868452072144e-01 -2.721313834190368652e-01 -1.605150401592254639e-01 1.101803481578826904e-01 -4.766620695590972900e-01 4.623078107833862305e-01 2.982557415962219238e-01 -2.890667645260691643e-03 -7.468079030513763428e-02 -4.576047137379646301e-02 3.657619655132293701e-01 1.586735397577285767e-01 -1.160840764641761780e-01 6.314106285572052002e-02 7.079441845417022705e-02 4.387904703617095947e-02 8.079349063336849213e-03 5.013972055166959763e-03 -3.236262127757072449e-02 9.606290608644485474e-03 3.160974476486444473e-03 3.261144505813717842e-03
-4.804643392562866211e-01 3.023817539215087891e-01 1.635290533304214478e-01 7.899262011051177979e-02 -1.226384937763214111e-01 8.017329126596450806e-02 -2.591219544410705566e-01 -5.442647635936737061e-02 1.201756969094276428e-01 -9.716945886611938477e-02 7.494269311428070068e-02 -9.580251574516296387e-02 2.003106325864791870e-01 -2.256109118461608887e-01 -2.474208362400531769e-02 -2.589438855648040771e-01 4.758180677890777588e-02 -3.866549581289291382e-02 2.496463209390640259e-01 -8.142501860857009888e-02 1.597555577754974365e-01 -1.497820913791656494e-01 5.178532376885414124e-02 -1.892268657684326172e-02 1.582697033882141113e-02 1.902046240866184235e-02 1.544807478785514832e-02 2.413953468203544617e-02 -2.255068346858024597e-02
8.783730864524841309e-02 -2.989525794982910156e-01 -3.383612632751464844e-01 2.814142405986785889e-01 -3.866550028324127197e-01 8.945055305957794189e-02 -8.016865253448486328e-01 -5.831236243247985840e-01 -2.949642017483711243e-02 1.551102548837661743e-01 1.066278386861085892e-02 5.716679096221923828e-01 4.554581642150878906e-02 -2.874083518981933594e-01 4.877764582633972168e-01 -2.751009762287139893e-01 -2.591502070426940918e-01 3.526139557361602783e-01 7.461371272802352905e-02 -2.209773287177085876e-03 2.548780143260955811e-01 -4.204081594944000244e-01 -1.149490028619766235e-01 -3.532160073518753052e-02 3.189986199140548706e-02 3.129639476537704468e-02 1.522814482450485229e-02 1.884486526250839233e-02 2.698402479290962219e-02
2.500709593296051025e-01 3.084074892103672028e-02 2.469402402639389038e-01 -3.684736322611570358e-03 -1.111010834574699402e-01 -4.157600179314613342e-02 -9.884281456470489502e-02 2.674824893474578857e-01 -1.761978305876255035e-02 -4.755414556711912155e-03 -9.712512791156768799e-02 -1.086728945374488831e-01 -7.959361374378204346e-02 -8.599345386028289795e-02 5.333808809518814087e-02 8.613307029008865356e-02 -9.294748306274414062e-02 3.282054960727691650e-01 -2.911063134670257568e-01 1.348891705274581909e-01 -1.750429123640060425e-01 -1.309064477682113647e-01 4.066433757543563843e-02 -9.719388559460639954e-03 -7.253203075379133224e-03 -1.156287416815757751e-01 3.808418661355972290e-02 -2.504222095012664795e-03 -6.072502583265304565e-02
1.425425857305526733e-01 -1.565598100423812866e-01 3.270938694477081299e-01 5.446713045239448547e-02 -4.682515561580657959e-02 2.275293767452239990e-01 3.073479281738400459e-03 8.813992887735366821e-02 -7.692042738199234009e-02 -4.657252877950668335e-02 9.774007648229598999e-02 -4.616959765553474426e-02 4.104566276073455811e-01 1.595797538757324219e-01 -5.179370194673538208e-02 -3.689863979816436768e-01 1.776290498673915863e-02 1.281937062740325928e-01 2.839660346508026123e-01 -1.694472283124923706e-01 -4.347887262701988220e-02 -1.139941662549972534e-01 -6.878128647804260254e-02 -5.036535672843456268e-03 7.369800005108118057e-03 -9.669144637882709503e-03 -3.788968548178672791e-02 1.728835701942443848e-02 7.653290405869483948e-03
-2.224559634923934937e-01 1.965907365083694458e-01 1.505760252475738525e-01 1.993594020605087280e-01 1.582282185554504395e-01 -1.601546108722686768e-01 3.262347280979156494e-01 5.657615065574645996e-01 -1.196591928601264954e-01 -9.785449504852294922e-02 -1.413505971431732178e-01 -2.213598638772964478e-01 2.964422106742858887e-01 5.621816590428352356e-02 3.656347990036010742e-01 4.641032516956329346e-01 3.306737840175628662e-01 -8.306824415922164917e-02 -3.768204897642135620e-02 -5.378366634249687195e-02 -4.900242015719413757e-02 5.179527401924133301e-01 6.801413744688034058e-02 9.627914987504482269e-03 -2.655016258358955383e-02 1.773126237094402313e-02 1.609200052917003632e-02 2.458699978888034821e-02 -5.542958970181643963e-04
1.953803598880767822e-01 -3.900607526302337646e-01 3.033556938171386719e-01 -6.388917565345764160e-02 -1.533007919788360596e-01 -4.680758118629455566e-01 1.069832816720008850e-01 4.910795092582702637e-01 2.533139288425445557e-01 1.786197423934936523e-01 8.626025915145874023e-02 2.446400374174118042e-01 3.780999481678009033e-01 3.858962059020996094e-01 -5.669488906860351562e-01 -2.555933892726898193e-01 8.986811339855194092e-02 -2.842758782207965851e-02 -2.886209785938262939e-01 -2.336372137069702148e-01 -7.401166856288909912e-02 -2.440757304430007935e-01 -2.156382352113723755e-01 2.116246894001960754e-02 3.787161549553275108e-03 7.854446023702621460e-02 -2.523051388561725616e-02 -4.220114089548587799e-03 2.209244109690189362e-02
4.588471725583076477e-02 -2.844355404376983643e-01 -4.310999810695648193e-02 7.266654819250106812e-02 -1.652562618255615234e-01 2.347532808780670166e-01 -6.264451742172241211e-01 -6.465526819229125977e-01 -8.042014390230178833e-02 -2.010501623153686523e-01 -5.159689579159021378e-03 3.836235776543617249e-02 -2.699349820613861084e-01 1.193072721362113953e-01 5.555731058120727539e-01 -2.152160108089447021e-01 4.050844907760620117e-02 -4.776624590158462524e-02 -3.302759230136871338e-01 3.817998245358467102e-02 9.301521629095077515e-02 -3.462602496147155762e-01 -5.820302292704582214e-02 2.459875866770744324e-02 6.076247896999120712e-03 -9.318751841783523560e-02 3.273823764175176620e-03 2.467827685177326202e-02 4.757755622267723083e-02
2.425824105739593506e-02 -3.771542608737945557e-01 -1.780101330950856209e-03 -1.237218081951141357e-01 1.664115488529205322e-01 4.688558354973793030e-02 3.414420485496520996e-01 1.710983514785766602e-01 2.535064518451690674e-01 1.460362672805786133e-01 1.155637055635452271e-01 -1.438142806291580200e-01 2.214349955320358276e-01 2.509437799453735352e-01 -1.918627768754959106e-01 -3.029787354171276093e-02 -3.299473524093627930e-01 -3.876741528511047363e-01 -9.035905450582504272e-02 -2.266608774662017822e-01 1.026649028062820435e-01 -3.802962601184844971e-02 -1.469690054655075073e-01 -2.128863520920276642e-02 -1.347210351377725601e-02 8.083245716989040375e-03 -3.135713981464505196e-03 -1.277145463973283768e-02 5.085890367627143860e-02
1.890477351844310760e-02 -3.886809200048446655e-02 1.105201616883277893e-01 1.951831392943859100e-02 2.131249308586120605e-01 -2.586183249950408936e-01 -3.963486850261688232e-01 -3.063561618328094482e-01 3.520247340202331543e-01 -9.679034352302551270e-02 -1.595168262720108032e-01 4.091121256351470947e-01 -4.840174913406372070e-01 1.398074477910995483e-01 -9.943304210901260376e-02 1.093192305415868759e-02 -2.836536765098571777e-01 8.718752302229404449e-03 2.369786947965621948e-01 -5.525276437401771545e-02 -3.008957803249359131e-01 -1.821713149547576904e-02 1.284781284630298615e-02 -2.236313931643962860e-02 -6.544038653373718262e-02 1.011874899268150330e-02 -2.803588472306728363e-02 7.887171208858489990e-02 3.888195008039474487e-02
-1.779000461101531982e-01 4.406795501708984375e-01 -2.344481414183974266e-03 -1.819241493940353394e-01 8.443750441074371338e-02 5.266952887177467346e-02 -2.751072943210601807e-01 3.453600108623504639e-01 -1.404620800167322159e-02 -8.329118043184280396e-02 1.736258417367935181e-01 -1.154945373535156250e+00 3.701950311660766602e-01 1.784351654350757599e-03 -5.333154648542404175e-02 -3.252020478248596191e-01 4.056521356105804443e-01 1.832588911056518555e-01 3.381205797195434570e-01 -6.690815836191177368e-02 2.216558754444122314e-01 1.950295865535736084e-01 5.742266774177551270e-02 -3.444635774940252304e-03 -3.742899745702743530e-02 5.010249093174934387e-02 -9.302249178290367126e-03 -3.631474450230598450e-02 -2.840640023350715637e-02
-1.860320270061492920e-01 -8.944385498762130737e-02 -9.041491150856018066e-02 3.450036048889160156e-02 1.153474748134613037e-01 4.541030898690223694e-02 4.635573923587799072e-01 3.713179230690002441e-01 1.394274234771728516e-01 5.512043368071317673e-03 -1.220588292926549911e-02 1.078019589185714722e-01 2.248570472002029419e-01 5.068021416664123535e-01 1.272821426391601562e-01 -2.343783676624298096e-01 -9.486508369445800781e-02 -5.729667544364929199e-01 3.643600046634674072e-01 4.308344796299934387e-02 6.959757208824157715e-02 1.813203245401382446e-01 -1.308231707662343979e-02 -1.246310491114854813e-02 -3.905982710421085358e-03 9.171212092041969299e-03 1.086911559104919434e-02 -9.329086169600486755e-03 2.016525343060493469e-02
-1.431116312742233276e-01 -1.336253881454467773e-01 -2.459730803966522217e-01 -1.222207918763160706e-01 2.876341640949249268e-01 -5.364751815795898438e-01 6.780298054218292236e-02 5.626431107521057129e-01 -2.630539610981941223e-02 1.174182146787643433e-01 -1.827539503574371338e-01 -3.794567584991455078e-01 4.009180665016174316e-01 1.216451376676559448e-01 -4.244500696659088135e-01 -7.180002983659505844e-03 3.079340159893035889e-01 -2.100957632064819336e-01 -1.726665794849395752e-01 -1.227355897426605225e-01 5.451103672385215759e-02 -8.003355562686920166e-02 -7.710291445255279541e-02 1.610971614718437195e-02 6.854569166898727417e-02 -1.241077296435832977e-02 -8.639676496386528015e-03 2.549955621361732483e-02 1.377777382731437683e-02
-2.484788149595260620e-01 -2.550951540470123291e-01 7.557642180472612381e-03 -6.384312361478805542e-02 -1.314588487148284912e-01 -1.351202130317687988e-01 1.425618827342987061e-01 1.564087569713592529e-01 2.160930633544921875e-01 -6.964699923992156982e-02 -1.374961286783218384e-01 -9.493799507617950439e-02 1.430313140153884888e-01 1.507127285003662109e-01 3.039489388465881348e-01 -6.294055283069610596e-02 -7.869799435138702393e-02 1.191178113222122192e-01 3.955053538084030151e-02 -6.080924719572067261e-02 2.730926573276519775e-01 8.709549903869628906e-02 -1.108512505888938904e-01 3.579320851713418961e-03 -5.332140251994132996e-02 -3.371351212263107300e-02 1.550619024783372879e-02 1.970634621102362871e-04 7.190436124801635742e-02
1.873703598976135254e-01 -1.618598774075508118e-02 -1.293077170848846436e-01 -3.498511761426925659e-02 -7.272914052009582520e-02 -1.281272768974304199e-01 3.691170513629913330e-01 -2.900369167327880859e-01 3.808358907699584961e-01 -1.938256472349166870e-01 -5.649269372224807739e-02 -3.293898999691009521e-01 4.105644524097442627e-01 -2.757557630538940430e-01 6.651609390974044800e-02 -2.018635272979736328e-01 1.097014266997575760e-02 -8.029085397720336914e-02 -1.847374588251113892e-01 -1.452917754650115967e-01 2.169995009899139404e-01 -8.941237628459930420e-02 -1.185085549950599670e-01 2.915875613689422607e-02 2.085871528834104538e-03 -1.021890994161367416e-02 -4.200838506221771240e-02 -1.667578890919685364e-02 5.323482211679220200e-03
