1.938812285661697388e-01
-6.890936940908432007e-02
-6.097792834043502808e-02
7.674730569124221802e-02
-6.074567511677742004e-02
-1.400851458311080933e-02
-1.543585509061813354e-01
4.933987185359001160e-02
2.279775291681289673e-01
3.706234320998191833e-02
7.940289378166198730e-02
1.771943420171737671e-01
6.413181126117706299e-02
1.564540416002273560e-01
4.911165684461593628e-02
-8.776905015110969543e-03
-1.762836277484893799e-01
-4.987405613064765930e-02
-2.568863332271575928e-01
1.037560328841209412e-01
1.214151363819837570e-02
-1.777906566858291626e-01
-1.897730380296707153e-01
2.626265883445739746e-01
1.276120096445083618e-01
8.396597206592559814e-02
-1.050781011581420898e-01
-6.628352403640747070e-02
5.708882585167884827e-02
-4.105559736490249634e-02
1.033397912979125977e-01
2.535558342933654785e-01
8.255740255117416382e-02
1.096593812108039856e-01
-2.078946121037006378e-02
-1.118613481521606445e-01
3.321437537670135498e-02
-9.050191193819046021e-02
7.842707633972167969e-02
4.136770963668823242e-02
-1.324683874845504761e-01
1.088590696454048157e-01
-1.816269941627979279e-02
6.231337413191795349e-02
7.232537120580673218e-02
-2.311274111270904541e-01
8.531817048788070679e-02
-7.411547750234603882e-02
-1.660782098770141602e-01
-1.538811773061752319e-01
-9.704610705375671387e-02
1.401164829730987549e-01
-1.233333274722099304e-01
3.445038944482803345e-02
-2.453430145978927612e-01
1.041471883654594421e-01
-1.956332027912139893e-01
2.169910818338394165e-02
-1.898945868015289307e-01
1.947554647922515869e-01
1.789629608392715454e-01
-1.071368455886840820e-01
7.871241122484207153e-02
1.508330851793289185e-01
1.952306367456912994e-02
-1.499593853950500488e-01
1.348415613174438477e-01
8.039333671331405640e-02
-6.118981167674064636e-02
5.291901156306266785e-02
-1.209340766072273254e-01
1.002081111073493958e-01
2.045082598924636841e-01
5.825047194957733154e-02
2.010014355182647705e-01
1.781962960958480835e-01
1.941392123699188232e-01
4.206148162484169006e-02
-5.245975404977798462e-02
-5.261601507663726807e-02
8.336312323808670044e-02
1.409214735031127930e-01
1.997119002044200897e-02
-8.344797790050506592e-02
1.825336366891860962e-01
-1.775593012571334839e-01
-7.345014810562133789e-02
-1.306336373090744019e-01
-1.121451854705810547e-01
-8.163329213857650757e-02
-1.715838909149169922e-01
8.289143443107604980e-02
-1.589780747890472412e-01
-2.123018652200698853e-01
1.213799491524696350e-01
-2.591201364994049072e-01
-2.083165794610977173e-01
1.238174811005592346e-01
1.034608110785484314e-01
-1.009231060743331909e-01
-1.315090209245681763e-01
-2.006126791238784790e-01
1.773669719696044922e-01
1.321114897727966309e-01
-6.952729076147079468e-02
-1.506352722644805908e-01
-4.779108613729476929e-02
-1.557955592870712280e-01
-8.830253034830093384e-02
1.081086397171020508e-01
-1.690803468227386475e-01
-8.235493302345275879e-02
-2.491064369678497314e-01
8.770403452217578888e-03
-1.088048592209815979e-01
-1.261422634124755859e-01
1.263979971408843994e-01
1.863017119467258453e-02
-3.583469614386558533e-02
1.307220906019210815e-01
-3.711459040641784668e-02
-1.286504119634628296e-01
-1.515884138643741608e-02
-1.139267254620790482e-02
-9.592727571725845337e-02
-5.689820274710655212e-02
-1.130942488089203835e-03
-1.390150934457778931e-01
2.259667962789535522e-02
5.914464220404624939e-02
-1.190357562154531479e-02
2.603020966053009033e-01
1.195548027753829956e-01
-1.987798810005187988e-01
7.252075523138046265e-02
1.346922367811203003e-01
3.172093033790588379e-01
2.183903753757476807e-01
2.670155838131904602e-02
-4.679949209094047546e-02
7.663413137197494507e-02
-4.698744043707847595e-02
-5.248753726482391357e-02
2.169734090566635132e-01
-1.584158092737197876e-01
4.373736679553985596e-02
7.182805985212326050e-02
6.595203280448913574e-02
3.742662072181701660e-02
-6.037547439336776733e-02
2.969363145530223846e-02
5.809180438518524170e-02
1.415575891733169556e-01
-1.252115517854690552e-01
1.208763048052787781e-01
-1.470419168472290039e-01
2.229263633489608765e-01
-1.779457181692123413e-01
1.442166864871978760e-01
3.793061152100563049e-02
2.286746725440025330e-02
-3.294097632169723511e-02
1.625664159655570984e-02
1.081174686551094055e-01
-1.489435881376266479e-01
-3.752917749807238579e-03
-1.502825766801834106e-01
-1.851671636104583740e-01
-1.113972663879394531e-01
-4.269884154200553894e-02
-7.387516647577285767e-02
4.860305041074752808e-02
-3.044036403298377991e-02
-9.011424332857131958e-02
2.916108630597591400e-02
1.013884227722883224e-02
1.835715621709823608e-01
-8.147550374269485474e-02
-7.996715605258941650e-02
5.027297884225845337e-02
1.908923834562301636e-01
8.628643117845058441e-03
-1.290163993835449219e-01
1.088017821311950684e-01
-2.583034932613372803e-01
3.201695904135704041e-02
9.229391813278198242e-02
-1.782854646444320679e-01
-1.616876125335693359e-01
-2.147852927446365356e-01
1.870800554752349854e-02
-5.027285963296890259e-02
-1.805823743343353271e-01
-4.345187172293663025e-02
1.095921844244003296e-01
-8.630697615444660187e-03
-6.936570256948471069e-02
-1.548144221305847168e-01
-1.746264286339282990e-02
-5.543313920497894287e-02
7.178202271461486816e-03
-1.488833725452423096e-01
1.700944453477859497e-01
1.118417158722877502e-01
-2.050027102231979370e-01
-1.005131378769874573e-02
-1.675508469343185425e-01
-2.473408281803131104e-01
1.035150662064552307e-01
1.532541662454605103e-01
8.424454182386398315e-02
-1.549664437770843506e-01
-1.241821646690368652e-01
3.796001430600881577e-03
2.360264211893081665e-02
-1.304797232151031494e-01
-1.987559646368026733e-01
-2.059407830238342285e-01
-9.253182262182235718e-02
-7.667458802461624146e-02
-8.202875033020973206e-03
-1.455534249544143677e-01
-9.347061067819595337e-02
-1.729406863451004028e-01
8.633036911487579346e-02
1.397142112255096436e-01
-7.864391058683395386e-02
-2.064256072044372559e-01
1.839167065918445587e-02
1.156538650393486023e-01
1.632454097270965576e-01
5.709343403577804565e-02
-2.060126215219497681e-01
1.717447936534881592e-01
-6.605478376150131226e-02
8.375996351242065430e-02
8.221723139286041260e-02
1.146144494414329529e-01
-1.637398153543472290e-01
1.211382597684860229e-01
-5.131385475397109985e-02
-2.863974571228027344e-01
9.394861012697219849e-02
-6.050748750567436218e-02
-1.850402802228927612e-01
1.737382411956787109e-01
1.167277544736862183e-01
-7.106832414865493774e-02
-5.649943370372056961e-03
-1.485260277986526489e-01
-1.663415133953094482e-01
9.365024417638778687e-02
1.613916009664535522e-01
-3.240266442298889160e-02
1.191242411732673645e-02
-2.024189941585063934e-02
-1.032447963953018188e-01
-9.071661531925201416e-02
1.980699598789215088e-01
7.096639275550842285e-02
1.062925234436988831e-01
-9.385169297456741333e-02
1.351466868072748184e-03
2.083678245544433594e-01
9.280261397361755371e-02
-3.325191512703895569e-02
-1.196623072028160095e-01
1.057003512978553772e-01
-1.239534467458724976e-01
-1.674966216087341309e-01
-1.142613068222999573e-01
7.187131047248840332e-02
4.011558368802070618e-02
-2.747412621974945068e-01
2.132281661033630371e-01
-8.250074088573455811e-02
-1.776141375303268433e-01
1.200321465730667114e-01
-1.332535892724990845e-01
2.494003474712371826e-01
1.294894218444824219e-01
-4.302487708628177643e-03
3.792677074670791626e-02
-1.944467276334762573e-01
1.633178256452083588e-02
-1.408455520868301392e-01
-1.173434779047966003e-01
-9.972468018531799316e-02
-2.412787079811096191e-01
-1.214229911565780640e-01
1.277381479740142822e-01
-1.641002446413040161e-01
1.618317961692810059e-01
-9.193763881921768188e-02
-1.666546016931533813e-01
-3.815905004739761353e-02
-1.211336478590965271e-01
1.645841449499130249e-01
-1.293593943119049072e-01
-7.393933832645416260e-02
-1.962047815322875977e-01
-1.482921391725540161e-01
1.347196102142333984e-01
4.386267811059951782e-02
3.249988704919815063e-02
3.181773424148559570e-02
3.611100092530250549e-02
6.141752004623413086e-02
1.291097998619079590e-01
1.165167056024074554e-02
-5.023436620831489563e-02
8.367609977722167969e-02
2.572429478168487549e-01
-1.109011694788932800e-01
-7.262242585420608521e-02
1.254458874464035034e-01
1.545102000236511230e-01
2.054135203361511230e-01
1.519528627395629883e-01
-7.311904430389404297e-02
1.346829831600189209e-01
-1.251445263624191284e-01
2.034425139427185059e-01
6.437096744775772095e-02
-2.352791428565979004e-01
1.107860431075096130e-01
6.818269938230514526e-02
8.605465292930603027e-02
9.847218543291091919e-02
1.404926180839538574e-02
-1.123182401061058044e-01
-1.180066540837287903e-01
6.156388297677040100e-02
-1.327908784151077271e-01
-2.155125699937343597e-02
-1.800570636987686157e-01
-1.664859205484390259e-01
1.364089846611022949e-01
3.042818233370780945e-02
-9.245564043521881104e-02
-1.314978748559951782e-01
1.404845118522644043e-01
1.821436434984207153e-01
-1.365883499383926392e-01
-3.069286607205867767e-02
-1.904371082782745361e-01
4.582225903868675232e-02
5.933945998549461365e-02
7.975339889526367188e-02
6.694489717483520508e-02
2.593087553977966309e-01
-2.610528469085693359e-01
3.720487654209136963e-02
-2.362184375524520874e-01
3.272246941924095154e-02
-1.328790485858917236e-01
-5.531796067953109741e-02
-7.866541272960603237e-04
2.073048986494541168e-02
2.013759911060333252e-01
1.036497578024864197e-01
4.639666154980659485e-02
7.451636483892798424e-04
1.982638612389564514e-02
-3.845560550689697266e-02
7.708548754453659058e-02
1.122150570154190063e-01
1.303545832633972168e-01
1.898228973150253296e-01
-2.545894682407379150e-01
1.625877320766448975e-01
8.499428629875183105e-02
-2.090095132589340210e-01
-1.853284426033496857e-02
-1.097425296902656555e-01
-1.487483233213424683e-01
-1.719557307660579681e-02
-1.773501038551330566e-01
-2.294863760471343994e-02
7.705219835042953491e-02
7.737625390291213989e-03
-2.779332995414733887e-01
3.338657319545745850e-02
4.908829554915428162e-02
2.285102754831314087e-01
2.544270753860473633e-01
5.019492283463478088e-02
-1.546838283538818359e-01
-1.019525825977325439e-01
-2.053138464689254761e-01
2.569368481636047363e-01
1.070004999637603760e-01
-1.412396132946014404e-01
1.331540942192077637e-01
-1.709915995597839355e-01
-2.141994982957839966e-01
-1.333633512258529663e-01
-1.438827216625213623e-01
-1.295877993106842041e-01
-7.485967129468917847e-02
1.046124938875436783e-02
-1.390294916927814484e-02
-6.167313084006309509e-02
-1.360756009817123413e-01
1.083493456244468689e-01
1.103065088391304016e-01
-2.185323834419250488e-01
1.494003385305404663e-01
6.964713335037231445e-02
4.888605698943138123e-02
2.059521228075027466e-01
-3.177516534924507141e-02
2.252023667097091675e-01
1.795557737350463867e-01
8.360908925533294678e-02
3.336520865559577942e-02
1.001806557178497314e-02
1.739627122879028320e-01
2.481573075056076050e-01
-1.891191005706787109e-01
-2.299168258905410767e-01
-2.148004621267318726e-02
2.210285216569900513e-01
8.059933036565780640e-02
1.743082106113433838e-01
-4.531878978013992310e-02
1.031986102461814880e-01
-1.676259338855743408e-01
-1.576595157384872437e-01
1.385491937398910522e-01
6.788098067045211792e-02
-5.359393730759620667e-02
-1.027524769306182861e-01
-2.375031113624572754e-01
1.427542418241500854e-01
1.522527933120727539e-01
-1.014369204640388489e-01
1.050182245671749115e-02
-1.206998080015182495e-01
-2.110876739025115967e-01
1.657459326088428497e-02
-1.064454466104507446e-01
-1.030578166246414185e-01
-1.302765756845474243e-01
1.798128709197044373e-02
-1.036146879196166992e-01
2.147983759641647339e-01
-1.526960283517837524e-01
2.363757044076919556e-02
2.690602280199527740e-02
8.280763030052185059e-02
-1.281438618898391724e-01
1.519162207841873169e-01
1.914693266153335571e-01
-8.524378389120101929e-02
3.153423592448234558e-02
4.114038124680519104e-02
2.085436321794986725e-02
8.685936778783798218e-02
-1.390723325312137604e-02
1.708724945783615112e-01
-1.410007327795028687e-01
2.119313925504684448e-01
1.477387845516204834e-01
6.599077582359313965e-02
-1.071768812835216522e-02
-2.641502320766448975e-01
1.570627540349960327e-01
-2.916938997805118561e-02
-9.598095715045928955e-02
1.801687479019165039e-01
1.332035213708877563e-01
1.085549890995025635e-01
-1.048322468996047974e-01
-1.429082602262496948e-01
1.655610501766204834e-01
1.997342556715011597e-01
1.756037026643753052e-01
-1.454645246267318726e-01
2.363886125385761261e-02
1.486634910106658936e-01
1.286767125129699707e-01
-2.670433223247528076e-01
-1.270319521427154541e-02
1.967585459351539612e-02
1.749023050069808960e-02
2.043231129646301270e-01
-9.813477098941802979e-02
-9.041863679885864258e-02
-1.417244076728820801e-01
-2.545318603515625000e-01
-4.220031574368476868e-02
2.617732807993888855e-02
9.828211367130279541e-02
2.666050493717193604e-01
2.056096345186233521e-01
1.401884853839874268e-01
-8.857299387454986572e-02
-1.947567760944366455e-01
-3.879897529259324074e-03
1.204203814268112183e-01
-3.090127743780612946e-02
5.351820588111877441e-02
2.117460221052169800e-02
1.610255241394042969e-01
6.475848704576492310e-02
6.539917737245559692e-02
-6.178620737046003342e-03
1.677537858486175537e-01
1.109991371631622314e-01
-6.588419526815414429e-02
8.553001284599304199e-02
