-2.190619148313999176e-02 2.182952687144279480e-02 -3.052173927426338196e-02 -2.946208044886589050e-02 -2.770888619124889374e-02 -6.426964420825242996e-03 -3.169864416122436523e-02 7.787074893712997437e-02 1.068319752812385559e-01 -3.378574550151824951e-02 -1.502382606267929077e-01 -9.740646928548812866e-03 2.052131108939647675e-02 -3.335848078131675720e-02 -7.435643672943115234e-02 -5.329198762774467468e-02 -9.492314606904983521e-02 -1.345208734273910522e-01 -3.884365037083625793e-02 -4.050262644886970520e-02 3.983838483691215515e-02 -1.141438074409961700e-02 1.848243363201618195e-02 -1.781159080564975739e-02 -6.760934740304946899e-02 -6.502349395304918289e-03 -5.487836152315139771e-02 1.955416239798069000e-02 -1.886292477138340473e-03 -8.880157768726348877e-02 7.721643149852752686e-02 9.881410747766494751e-02 -3.578610718250274658e-02 2.498283609747886658e-02 5.946230515837669373e-02 -4.269449412822723389e-02 -1.086526270955801010e-02 1.174474358558654785e-01 -7.539582252502441406e-02 1.573949865996837616e-02 -1.203559786081314087e-01 7.175721228122711182e-02 4.833669960498809814e-02 -1.253200173377990723e-01 -1.587369851768016815e-02 -7.237084209918975830e-02 -9.238949045538902283e-03 1.116276085376739502e-01 -9.441741555929183960e-02 1.221733726561069489e-02 -5.353638529777526855e-02 5.205717310309410095e-02 9.555613994598388672e-02 2.880154922604560852e-02 -5.522001907229423523e-02 1.165459305047988892e-02 -1.973755657672882080e-02 -6.525757908821105957e-02 -8.744764141738414764e-03 5.025373771786689758e-03 1.561893150210380554e-02 3.851411864161491394e-02 -5.255471169948577881e-02 5.555956065654754639e-02 -4.567610844969749451e-02 -7.120436429977416992e-02 1.518737524747848511e-02 -1.315713673830032349e-01 2.675316762179136276e-03 -6.502880901098251343e-02 -1.172218769788742065e-01 -1.376948319375514984e-03 2.687006816267967224e-02 3.116701357066631317e-02 -6.691484153270721436e-02 3.359745070338249207e-02 -2.975214645266532898e-02 -1.145232561975717545e-02 -1.527205295860767365e-02 1.424648240208625793e-02 3.882785886526107788e-02 4.146427288651466370e-02 8.611177653074264526e-02 2.921788953244686127e-02 2.807903289794921875e-02 6.337080150842666626e-02 -3.389272838830947876e-03 3.925707191228866577e-02 4.474016651511192322e-02 2.286916412413120270e-02 -3.138483315706253052e-02 -6.530524790287017822e-02 1.075086183845996857e-02 2.119986154139041901e-02 6.392476614564657211e-03 -1.009525917470455170e-02 -6.619322299957275391e-02 -9.941496886312961578e-03 -1.053717918694019318e-02 -2.428532345220446587e-03 -1.244788989424705505e-01 6.577432155609130859e-02 -4.255387932062149048e-02 -9.506868571043014526e-02 4.581602755934000015e-03 -7.924887537956237793e-02 5.447241291403770447e-02 1.447208821773529053e-01 -3.227864578366279602e-02 -1.234710682183504105e-02 2.199336141347885132e-02 -3.321616910398006439e-03 -4.469085857272148132e-02 8.255249261856079102e-02 -1.685716956853866577e-01 -8.658333099447190762e-04 7.176791876554489136e-02 1.303227711468935013e-02 -1.366685424000024796e-02 2.629630500450730324e-03 7.844986021518707275e-02 -3.021543612703680992e-03 -1.739667356014251709e-02 7.396289613097906113e-03 1.397458612918853760e-01 4.819530621170997620e-02 1.127073764801025391e-01 -9.322080761194229126e-02 6.111159548163414001e-02 5.209042690694332123e-03 6.807736307382583618e-02 1.303258389234542847e-01 8.238783478736877441e-02 -3.390628471970558167e-02 -1.923308335244655609e-02 1.431064307689666748e-02 -7.371784001588821411e-02 1.531422953121364117e-03 -6.239358335733413696e-02 -4.727946221828460693e-02 2.085427381098270416e-02 3.997904714196920395e-03 -4.614908713847398758e-03 8.688195049762725830e-02 -8.874139189720153809e-02 6.408920884132385254e-02 2.723381109535694122e-02 4.084706306457519531e-02 6.553912907838821411e-02 2.361930906772613525e-02 3.357433900237083435e-02 -3.092138655483722687e-02 2.072544535622000694e-03 -5.155995488166809082e-02 7.054690271615982056e-03 -4.209574311971664429e-02 5.107968673110008240e-02 2.158972993493080139e-02 6.983592361211776733e-02 3.623868897557258606e-02 3.887186199426651001e-02 -8.134703338146209717e-02 -1.134646311402320862e-02 -7.290140492841601372e-04 -7.046324014663696289e-02 -7.888076826930046082e-03 2.368461340665817261e-02 -5.948172882199287415e-02 -1.145102381706237793e-01 -5.306087806820869446e-02 -7.856085151433944702e-02 -5.749724432826042175e-02 -4.659495130181312561e-02 -8.379648625850677490e-02 -5.952281504869461060e-02 -5.546323955059051514e-02 -6.820166856050491333e-02 -4.512063413858413696e-02 -3.607939928770065308e-03 -1.334187090396881104e-01 -2.022718638181686401e-02 7.972300052642822266e-03 5.152469873428344727e-02 -7.910806685686111450e-02 -5.464378371834754944e-02 -1.219630427658557892e-02 2.361363545060157776e-02 5.294188484549522400e-02 -2.212519384920597076e-02 4.151742160320281982e-02 9.374179877340793610e-03 2.367702685296535492e-02 7.420755457133054733e-03 -2.538926526904106140e-02 -1.004081070423126221e-01 4.896823689341545105e-02 -1.112495362758636475e-02 -3.896248713135719299e-02 -1.721045002341270447e-02 5.069324374198913574e-02 5.928655341267585754e-02 1.528184628114104271e-03 -4.932209383696317673e-03 4.666581749916076660e-02 -2.876565977931022644e-02 9.734783321619033813e-02 -3.923116251826286316e-02 -7.317686080932617188e-02 3.427607938647270203e-02 -4.118365049362182617e-02 3.549294546246528625e-02 3.399455547332763672e-02 -3.896427527070045471e-02 -4.300620779395103455e-02 3.711548075079917908e-02 -8.926983922719955444e-02 1.376715488731861115e-02 3.438957780599594116e-02 -6.745289266109466553e-02 -9.380683302879333496e-02 3.654790297150611877e-02 -1.088401153683662415e-01 3.016978502273559570e-02 -7.255312800407409668e-02 -2.769288839772343636e-04 3.942752629518508911e-02 -9.028719365596771240e-02 -1.670682453550398350e-03 3.241731598973274231e-02 5.485182255506515503e-02 -9.628494270145893097e-03 1.016344055533409119e-01 8.424767875112593174e-04 1.198089029639959335e-02 7.931709289550781250e-03 1.165243983268737793e-02 2.735261805355548859e-02 -6.291083246469497681e-02 5.811810120940208435e-02 -7.288801670074462891e-02 -3.697916120290756226e-02 -2.979831025004386902e-02 1.066576316952705383e-02 -2.428386732935905457e-02 4.107498377561569214e-02 1.168976444751024246e-02 7.531172782182693481e-02 -8.290728181600570679e-02 5.425750836730003357e-02 -2.793630771338939667e-02 8.266201242804527283e-03 2.095714211463928223e-02 6.965893320739269257e-03 -1.194893755018711090e-02 -2.314172871410846710e-02 6.354323029518127441e-02 -7.813628762960433960e-02 -6.151045858860015869e-02 2.036040090024471283e-02 4.427073150873184204e-02 -7.073811255395412445e-03 -6.494206935167312622e-02 -4.104656353592872620e-02 4.353479668498039246e-02 2.862329222261905670e-02 -1.376813352108001709e-01 9.296658635139465332e-02 8.009516447782516479e-02 8.626895025372505188e-03 -5.574315041303634644e-02 -1.481385529041290283e-01 -8.630006760358810425e-02 -1.636857911944389343e-02 -5.398066341876983643e-02 1.747053861618041992e-02 3.145357966423034668e-02 -1.893115788698196411e-02 6.864164769649505615e-02 -1.226405873894691467e-01 8.260785788297653198e-02 2.415688335895538330e-02 -4.095077514648437500e-02 6.593921035528182983e-02 9.168510884046554565e-02 -7.881479710340499878e-02 -5.555000528693199158e-02 -6.711293011903762817e-02 -2.279337681829929352e-02 -6.263141334056854248e-02 -4.135715216398239136e-02 -4.649954847991466522e-03 -7.212340831756591797e-02 -4.314771667122840881e-02 1.653526574373245239e-01 4.056913405656814575e-02 -4.271779581904411316e-02 4.816031455993652344e-02 -2.115098014473915100e-02 1.483287010341882706e-02 8.347821421921253204e-03 -3.376087918877601624e-02 9.846463799476623535e-02 1.226695347577333450e-02 1.543544679880142212e-01 -1.696574129164218903e-02 -6.018470600247383118e-02 -6.761419028043746948e-02 8.609241992235183716e-02 6.736735999584197998e-02 -4.081913270056247711e-03 6.184720993041992188e-02 -7.046431303024291992e-02 6.079700216650962830e-02 1.251942850649356842e-02 -2.408400550484657288e-02 9.394372999668121338e-02 3.837338089942932129e-02 2.154394425451755524e-02 -3.077743947505950928e-02 6.352062523365020752e-02 4.415009170770645142e-02 1.593321934342384338e-02 -4.307781532406806946e-02 1.764617487788200378e-02 1.545756938867270947e-03 -4.800838977098464966e-02 2.358251623809337616e-02 -4.602614045143127441e-02 4.868448153138160706e-02 3.551885485649108887e-02 -5.145134404301643372e-02 2.881326479837298393e-03 -1.007017120718955994e-02 -5.689713358879089355e-02 -1.797922328114509583e-02 2.387621905654668808e-03 4.185781348496675491e-03 -1.511018816381692886e-02 5.487024039030075073e-02 -1.055490672588348389e-01 -2.942007035017013550e-02 8.190476149320602417e-02 2.778084762394428253e-02 -4.841661453247070312e-02 1.264533996582031250e-01 2.114014234393835068e-03 1.230947226285934448e-01 1.766104996204376221e-02 -1.012632809579372406e-02 1.387487258762121201e-02 1.540996041148900986e-02 -7.190861552953720093e-02 -2.263555070385336876e-03 -2.653226256370544434e-03 -3.149638697504997253e-02 -1.117848078138194978e-04 -4.910217225551605225e-02 2.889883937314152718e-03 1.027667149901390076e-02 2.106485329568386078e-02 -2.964883483946323395e-02 2.000257745385169983e-02 1.292689330875873566e-02 -5.384868709370493889e-04 -2.072115987539291382e-02 5.085609108209609985e-02 -7.899240404367446899e-02 -2.576490119099617004e-02 4.812601581215858459e-02 -2.120900526642799377e-02 -6.639739871025085449e-02 9.367613494396209717e-02 -5.810284987092018127e-02 -3.591777291148900986e-03 -3.920220583677291870e-02 -2.766141202300786972e-03 -2.323679998517036438e-02 -4.289862886071205139e-02 -1.117080003023147583e-01 -1.101257000118494034e-02 1.217081118375062943e-02 -6.510213017463684082e-02 -5.913113057613372803e-02 1.245010346174240112e-01 3.729506209492683411e-02 1.758281514048576355e-02 5.843698978424072266e-02 -7.985678315162658691e-02 -1.397122293710708618e-01 -6.152798235416412354e-02 4.033510759472846985e-02 9.766568988561630249e-02 -7.663621008396148682e-02 -4.457944631576538086e-02 -1.225140169262886047e-01 -6.937312334775924683e-02 1.802489906549453735e-02 -1.577617414295673370e-02 1.699904724955558777e-02 1.494066882878541946e-02 2.103097736835479736e-03 1.052554696798324585e-01 -4.593086615204811096e-02 -2.895165048539638519e-02 -7.580537348985671997e-02 -2.706230990588665009e-02 -7.408540695905685425e-02 3.662572056055068970e-02 -9.012201428413391113e-02 5.416738614439964294e-02 1.038465648889541626e-01 -2.743775583803653717e-02 7.882745005190372467e-03 -5.013522505760192871e-02 7.859426736831665039e-02 -1.224834378808736801e-02 1.235013268887996674e-02 7.053795852698385715e-04 1.478103697299957275e-01 -1.324920803308486938e-01 7.989936508238315582e-03 2.238832786679267883e-02 7.237735390663146973e-02 -2.647165767848491669e-02 6.434261053800582886e-02 -1.874583773314952850e-02 -4.038893058896064758e-02 -2.450044266879558563e-02 -1.255844384431838989e-01 -9.500039368867874146e-02 3.135399147868156433e-02 -3.414097009226679802e-03 -7.423006743192672729e-02 -1.678180508315563202e-02 2.139605954289436340e-02 -5.319518037140369415e-03 -9.877754375338554382e-03 -2.319573611021041870e-02 1.020800769329071045e-01 -5.127512663602828979e-02 1.209798008203506470e-01 -9.929744899272918701e-02 -2.012026309967041016e-02 2.576476521790027618e-02 -1.333425939083099365e-02 8.001093566417694092e-02 -6.863518804311752319e-02 -2.979134954512119293e-02 -6.032301113009452820e-02 -8.033426851034164429e-02 -8.024155162274837494e-03 -4.547256231307983398e-02 3.441114723682403564e-02 3.240640088915824890e-02 -1.151306107640266418e-01 8.898023515939712524e-03 2.292076498270034790e-02 -3.262073034420609474e-03 -4.393247142434120178e-02 6.191801279783248901e-03 -1.976460218429565430e-02 -1.205118023790419102e-03 -2.899838797748088837e-02 3.038427792489528656e-02 1.265259645879268646e-02 1.936780847609043121e-02 4.006411507725715637e-02 -4.162761569023132324e-02 -5.658844113349914551e-02 -1.976386643946170807e-02 -3.146946430206298828e-02 -3.774149343371391296e-02 2.518814057111740112e-02 -8.499637991189956665e-02 -9.131894446909427643e-03 1.270764740183949471e-03 4.673677682876586914e-02 -5.099054425954818726e-02 1.520807147026062012e-01 -2.401731908321380615e-03 -5.243375152349472046e-02 6.409257650375366211e-02 6.368815153837203979e-02 -3.442079946398735046e-02 -1.117449328303337097e-01 -2.033743262290954590e-02 6.782066076993942261e-02 1.104993447661399841e-01 -1.069579739123582840e-02 5.646612029522657394e-03 -4.511151462793350220e-02 -3.186120837926864624e-02 -2.934227511286735535e-02 -5.797763913869857788e-02 -9.968999773263931274e-03 7.458552718162536621e-02 -2.549347467720508575e-02 6.170923355966806412e-03 -7.640878111124038696e-02 -1.048917174339294434e-01 -4.281569272279739380e-02 6.384517252445220947e-02 -1.316897850483655930e-02 6.786195933818817139e-02 4.468373488634824753e-03 -4.946500435471534729e-02 1.953619569540023804e-01 -4.611634090542793274e-02 2.023200877010822296e-02 7.976818084716796875e-02 1.232170462608337402e-01 -1.053156852722167969e-01
-1.112626641988754272e-01 -1.137973461300134659e-02 4.107093065977096558e-02 -4.268507659435272217e-02 4.980948567390441895e-02 1.797363162040710449e-02 -6.526547670364379883e-02 -1.002108454704284668e-01 -1.720218919217586517e-02 2.649839967489242554e-02 1.964086852967739105e-02 -1.739445514976978302e-02 -2.139903046190738678e-02 4.865576326847076416e-02 -5.743953213095664978e-02 1.246032305061817169e-02 5.845984444022178650e-02 -1.308686733245849609e-01 -5.440210807137191296e-04 -1.091136857867240906e-01 5.696300789713859558e-02 8.864966779947280884e-02 1.517675723880529404e-02 -2.067745663225650787e-02 -8.116205036640167236e-02 -7.510280609130859375e-02 -1.231405697762966156e-02 -5.380679666996002197e-02 7.018065452575683594e-02 3.466398641467094421e-02 -4.470927640795707703e-02 3.261806070804595947e-02 -9.099966846406459808e-03 -7.327592372894287109e-02 1.732565648853778839e-02 8.403792977333068848e-02 1.095221564173698425e-01 2.302723228931427002e-01 -4.900323972105979919e-02 -3.372929990291595459e-02 4.943289607763290405e-02 9.420385584235191345e-03 2.293058484792709351e-01 -8.803091943264007568e-02 2.466667443513870239e-02 2.150404825806617737e-02 -7.574683427810668945e-02 1.450212597846984863e-01 5.057303607463836670e-02 -7.468936499208211899e-03 8.526182174682617188e-02 -6.103443726897239685e-02 -1.248892247676849365e-01 2.315285615622997284e-03 1.007817313075065613e-01 -1.571457646787166595e-02 3.856265917420387268e-02 -8.445236086845397949e-02 -2.873199991881847382e-02 -6.022801622748374939e-02 -8.532711863517761230e-02 1.741813309490680695e-02 -3.602962195873260498e-02 -1.667162217199802399e-02 -7.242549210786819458e-02 2.053954824805259705e-02 -8.902914077043533325e-02 1.925735361874103546e-02 -1.535826548933982849e-02 -1.023765355348587036e-01 4.948464687913656235e-03 -7.066770456731319427e-03 4.669478163123130798e-03 9.157749824225902557e-03 -2.447740137577056885e-01 -4.963422566652297974e-02 6.424728780984878540e-02 7.465368136763572693e-03 -2.444141916930675507e-02 1.181112527847290039e-01 -7.780499756336212158e-02 4.969095438718795776e-02 -3.218233585357666016e-02 -3.614139277487993240e-03 -1.114028617739677429e-01 -8.325876551680266857e-04 -9.859554469585418701e-03 -1.195016899146139622e-03 3.834713995456695557e-02 9.719083458185195923e-02 1.064512506127357483e-02 -5.826975405216217041e-02 3.657716512680053711e-02 -3.406263515353202820e-02 -4.001618549227714539e-02 9.481054544448852539e-02 -9.780263155698776245e-02 -5.970680713653564453e-02 -7.488533109426498413e-02 3.322409000247716904e-03 -1.053007319569587708e-01 -3.444212675094604492e-02 -1.083701029419898987e-01 3.781462833285331726e-02 -2.058381587266921997e-01 1.530269253998994827e-02 5.256148800253868103e-02 7.739022374153137207e-02 1.597142070531845093e-01 -1.494359970092773438e-01 -2.681255713105201721e-02 -2.056411281228065491e-02 4.614281654357910156e-02 -4.112748429179191589e-02 7.342794910073280334e-03 9.406434372067451477e-03 7.835943996906280518e-02 -4.728892352432012558e-03 1.194823160767555237e-01 -1.394116282463073730e-01 -6.872128695249557495e-03 4.812269657850265503e-02 1.287817861884832382e-02 -1.112004835158586502e-02 8.236853778362274170e-02 2.830894477665424347e-02 5.357949808239936829e-02 6.580249965190887451e-02 -4.346194118261337280e-02 3.089695051312446594e-02 -4.201409406960010529e-03 4.076088219881057739e-02 1.680943556129932404e-02 3.161996603012084961e-02 -3.848668187856674194e-02 5.275280680507421494e-03 -2.797046676278114319e-02 -4.526270180940628052e-02 -1.376222702674567699e-03 5.033012479543685913e-02 -6.494659930467605591e-02 2.053130604326725006e-02 1.877173222601413727e-02 1.120353024452924728e-02 -8.597540669143199921e-03 1.857796800322830677e-03 -6.009738147258758545e-02 6.536744534969329834e-02 -1.357903182506561279e-01 7.555785030126571655e-02 7.082442939281463623e-02 -4.270024597644805908e-02 -5.844386667013168335e-02 -1.371876746416091919e-01 1.012828294187784195e-02 -7.637265138328075409e-03 -5.092833191156387329e-02 1.491084136068820953e-02 -1.673972010612487793e-01 -2.776678837835788727e-02 2.054455317556858063e-02 -6.274256110191345215e-02 -1.507211327552795410e-01 4.882417153567075729e-03 -2.159995958209037781e-02 5.475804582238197327e-02 -7.350984215736389160e-02 1.023069396615028381e-02 -8.775862306356430054e-02 2.237140387296676636e-02 4.290130455046892166e-03 -5.367235094308853149e-02 1.081741135567426682e-02 8.296693861484527588e-02 -6.715720146894454956e-02 -4.311374947428703308e-02 -1.193187460303306580e-01 5.161036178469657898e-02 -4.724004492163658142e-02 9.498011320829391479e-02 5.204395204782485962e-02 -8.011335879564285278e-02 4.914174228906631470e-02 -5.648063123226165771e-02 5.202730372548103333e-02 -6.359040271490812302e-03 -3.355835378170013428e-02 5.429932847619056702e-02 4.975724220275878906e-02 9.487174451351165771e-02 -4.637282341718673706e-02 -2.052490040659904480e-02 5.020479205995798111e-03 -1.548115443438291550e-02 8.086199872195720673e-03 7.101115584373474121e-02 1.748568378388881683e-02 2.321315743029117584e-02 -3.539643436670303345e-02 4.583356902003288269e-02 -6.730055809020996094e-02 1.187971457839012146e-01 8.175159245729446411e-02 1.421933434903621674e-02 4.302297905087471008e-02 -4.199321568012237549e-02 1.201249212026596069e-01 -4.191570729017257690e-02 1.808966137468814850e-02 5.668907612562179565e-02 -1.056792065501213074e-01 3.004443831741809845e-02 -5.758103355765342712e-02 -3.167152032256126404e-02 2.511345595121383667e-02 -8.337119966745376587e-02 1.992731355130672455e-02 5.200486257672309875e-02 5.361985415220260620e-02 4.995237663388252258e-02 2.140399627387523651e-02 -5.244541540741920471e-02 2.524401992559432983e-02 9.794114157557487488e-03 2.802137657999992371e-02 -1.225693598389625549e-01 -1.251255348324775696e-02 1.968113705515861511e-02 -3.572376072406768799e-02 3.074371255934238434e-02 -9.409118443727493286e-02 2.665288373827934265e-02 4.978505149483680725e-02 -1.292483359575271606e-01 -4.021450504660606384e-02 -3.894348070025444031e-02 -4.699965566396713257e-02 -2.567973919212818146e-02 1.336092315614223480e-02 3.945609182119369507e-02 -1.426527053117752075e-01 1.314481943845748901e-01 4.757069982588291168e-04 5.023625120520591736e-02 7.337511330842971802e-02 1.939920037984848022e-01 -1.052745338529348373e-02 8.972236514091491699e-02 4.594977945089340210e-03 9.277442842721939087e-02 6.349824368953704834e-02 -4.947986919432878494e-03 -1.070918738842010498e-01 4.375040531158447266e-02 3.604835644364356995e-02 -4.206971451640129089e-02 -9.743023663759231567e-02 5.471045896410942078e-02 -6.695361435413360596e-02 -3.533789515495300293e-02 -9.269803017377853394e-02 -9.554404765367507935e-02 -5.909590795636177063e-02 -1.093090139329433441e-02 -6.912304461002349854e-02 -9.776106476783752441e-02 4.275076836347579956e-02 -1.963249174878001213e-03 5.120730027556419373e-02 6.049876660108566284e-02 4.100060462951660156e-02 -9.426517412066459656e-03 -9.833537042140960693e-02 1.578513830900192261e-01 -5.060283467173576355e-02 6.818450987339019775e-02 4.704339057207107544e-02 1.465175766497850418e-03 -1.314194779843091965e-02 -2.830053307116031647e-02 2.086849696934223175e-02 2.356684207916259766e-02 -1.049363911151885986e-01 1.064844876527786255e-01 -4.632945731282234192e-02 6.133141741156578064e-02 -1.109459903091192245e-02 -5.531352013349533081e-02 -1.752657070755958557e-02 -9.723101742565631866e-03 -6.615771446377038956e-03 7.231380324810743332e-03 -4.274676740169525146e-02 8.932049572467803955e-02 -5.194455757737159729e-02 -1.287233978509902954e-01 -2.046016976237297058e-03 -2.446832321584224701e-02 -2.584124216809868813e-03 8.203811943531036377e-02 6.285625696182250977e-02 -6.283706426620483398e-02 -3.729574754834175110e-02 -8.709004521369934082e-02 -5.430709943175315857e-02 -5.473220348358154297e-02 -6.793312728404998779e-02 6.306897103786468506e-02 -7.269112765789031982e-02 5.992450192570686340e-02 -3.955640643835067749e-02 -7.796215941198170185e-04 -1.740765012800693512e-02 1.040334478020668030e-01 4.550043866038322449e-02 -8.274047635495662689e-03 -1.785909757018089294e-02 -5.659432336688041687e-02 2.206002548336982727e-02 -2.202767692506313324e-02 3.080240078270435333e-02 -3.352362662553787231e-02 -1.033165156841278076e-01 -6.732593476772308350e-02 3.273005038499832153e-02 -6.056476011872291565e-02 -2.376251481473445892e-02 -9.800467640161514282e-03 1.258453447371721268e-02 2.155405469238758087e-02 7.492174953222274780e-02 -8.205194026231765747e-02 -1.009590327739715576e-01 1.346989441663026810e-02 7.929261028766632080e-02 9.526637196540832520e-02 -3.020545840263366699e-02 -4.773426428437232971e-02 -9.278324991464614868e-02 -7.728758500888943672e-04 4.138758871704339981e-03 -6.051537394523620605e-02 2.905718609690666199e-02 -3.058044984936714172e-02 4.304365068674087524e-02 -2.811817638576030731e-02 4.099566116929054260e-02 4.555284604430198669e-02 6.224328279495239258e-02 -1.796144805848598480e-02 -6.666621565818786621e-02 1.102901622653007507e-01 -1.499993447214365005e-02 1.030461862683296204e-01 -9.764896333217620850e-02 -7.510880939662456512e-03 -5.889033153653144836e-02 9.647983312606811523e-02 5.971707403659820557e-02 -5.615042522549629211e-02 -6.782560050487518311e-02 -6.057929247617721558e-02 -1.358599066734313965e-01 1.262762304395437241e-02 1.697727106511592865e-02 1.355769112706184387e-02 -7.225903216749429703e-03 -5.184410512447357178e-02 -4.370367899537086487e-02 8.841933310031890869e-02 -4.973223060369491577e-02 5.011325702071189880e-02 5.020327866077423096e-02 1.697561331093311310e-02 -2.419943735003471375e-02 3.754406794905662537e-02 -3.866522386670112610e-02 2.266556955873966217e-02 1.329817622900009155e-02 -6.837485730648040771e-02 -2.449843101203441620e-02 2.956778928637504578e-02 2.892514131963253021e-02 5.091853812336921692e-02 1.304409001022577286e-02 -6.758580356836318970e-02 2.819778397679328918e-02 9.558226913213729858e-02 -3.544692322611808777e-02 2.989997342228889465e-02 6.045953556895256042e-02 -6.203101016581058502e-03 -1.657433807849884033e-02 -8.049947023391723633e-02 -3.853786736726760864e-02 1.334210019558668137e-02 -5.745057016611099243e-02 -1.595421507954597473e-02 -4.264711588621139526e-02 -3.759763389825820923e-02 2.920300001278519630e-03 -8.093303442001342773e-02 -2.333559654653072357e-02 -3.109930828213691711e-02 -6.712871044874191284e-02 -1.355783641338348389e-01 -1.198240183293819427e-02 9.100282564759254456e-03 -5.010358989238739014e-02 -9.901750087738037109e-02 -4.408729076385498047e-02 -3.798352554440498352e-02 -7.025050371885299683e-02 -1.125636138021945953e-02 -6.451745331287384033e-02 2.425725385546684265e-02 1.747639477252960205e-01 -7.498276233673095703e-02 6.878958642482757568e-02 -2.424584235996007919e-04 5.615156516432762146e-02 -4.600923135876655579e-02 5.542039498686790466e-02 -3.985198959708213806e-02 -2.657729201018810272e-02 1.564704999327659607e-02 -1.723766699433326721e-02 2.933777309954166412e-02 5.545114725828170776e-02 -4.477306455373764038e-02 1.088929828256368637e-02 1.167203485965728760e-01 -1.009714603424072266e-01 2.612670883536338806e-02 -1.172400116920471191e-01 -3.816499561071395874e-02 7.985580014064908028e-04 -6.321672350168228149e-02 5.819572508335113525e-02 1.165224015712738037e-01 -1.160937082022428513e-02 -9.596650488674640656e-03 2.965771406888961792e-02 4.682873189449310303e-02 5.125507339835166931e-02 7.715686410665512085e-02 -3.099237941205501556e-02 -3.124872595071792603e-02 1.603876426815986633e-02 -7.978193461894989014e-02 2.961977384984493256e-02 1.400003433227539062e-01 -1.070159375667572021e-01 5.992068722844123840e-02 -4.217099398374557495e-02 -1.113628596067428589e-01 1.093447301536798477e-02 7.364838570356369019e-02 1.041791285388171673e-03 5.610923096537590027e-02 -1.224028989672660828e-01 -6.034698709845542908e-02 -5.603916943073272705e-02 -2.931771799921989441e-02 -3.389087691903114319e-02 9.082259610295295715e-03 9.289941936731338501e-02 -9.922870993614196777e-02 3.026133961975574493e-02 1.005808264017105103e-01 1.620673458091914654e-03 4.697584360837936401e-02 9.632616490125656128e-02 -3.297105431556701660e-03 3.500658646225929260e-02 -2.515826560556888580e-02 -8.481415361166000366e-02 -6.955657899379730225e-02 1.097233295440673828e-01 3.771475329995155334e-02 5.494585633277893066e-02 -2.249569073319435120e-02 1.815225929021835327e-01 5.750295892357826233e-02 -6.902427226305007935e-02 -6.050881929695606232e-03 1.961776800453662872e-02 5.674052983522415161e-02 8.386385440826416016e-02 2.243308536708354950e-02 1.077301725745201111e-01 -7.649172842502593994e-02 -6.548074632883071899e-02 -8.157762140035629272e-02 5.649642646312713623e-02 -8.381385356187820435e-03 -5.622294172644615173e-02 -3.914616629481315613e-02 4.298219457268714905e-02 -1.372144669294357300e-01 -8.119421452283859253e-02 -4.529738426208496094e-02 -1.398580968379974365e-01 2.584652788937091827e-02 5.461667105555534363e-02 -1.376751717180013657e-02 -3.189845383167266846e-02 -5.585913360118865967e-02 4.188300669193267822e-02 9.290476888418197632e-02 -4.655768349766731262e-02 1.082801520824432373e-01
9.287215769290924072e-02 -1.670762524008750916e-02 -3.114610444754362106e-03 -2.033730745315551758e-01 -1.406371034681797028e-02 -1.296520233154296875e-01 6.388144101947546005e-03 2.585146427154541016e-01 -2.095729112625122070e-03 -9.336628019809722900e-02 -5.454894900321960449e-02 -1.357452571392059326e-01 2.116971090435981750e-02 -2.377838194370269775e-01 -1.723291166126728058e-02 -1.949634552001953125e-01 -2.910782583057880402e-02 -2.879061698913574219e-01 -9.227137267589569092e-02 3.329680487513542175e-02 1.195661202073097229e-01 -1.196026653051376343e-01 -1.591962575912475586e-02 -2.929932624101638794e-02 -4.682101309299468994e-02 -2.419851487502455711e-03 9.677948802709579468e-02 1.053614988923072815e-01 -1.231990158557891846e-01 -9.129219502210617065e-02 3.380227461457252502e-02 -2.027874886989593506e-01 -1.283498108386993408e-01 -1.603848636150360107e-01 -6.264059990644454956e-02 -7.470925152301788330e-02 1.491308361291885376e-01 -1.133441627025604248e-01 1.535345762968063354e-01 -4.885265976190567017e-02 1.547506004571914673e-01 1.147577464580535889e-01 -3.660585731267929077e-02 -1.703087091445922852e-01 -9.638638049364089966e-02 2.812934294342994690e-02 -2.073126100003719330e-02 1.129096001386642456e-01 -3.936417773365974426e-02 -2.881050109863281250e-02 2.231712192296981812e-01 3.633748367428779602e-02 1.940258294343948364e-01 3.235449269413948059e-02 1.096965819597244263e-01 9.802845865488052368e-02 2.097863331437110901e-02 1.662825793027877808e-01 2.412735819816589355e-01 3.287719562649726868e-02 3.028104268014431000e-02 -4.683607257902622223e-03 8.990269154310226440e-02 7.132777571678161621e-02 -7.165034115314483643e-02 -2.085235342383384705e-02 -2.102505788207054138e-02 -2.296295464038848877e-01 -5.830412730574607849e-02 8.205844089388847351e-03 -2.471708320081233978e-02 6.694429367780685425e-02 -3.495900705456733704e-02 -7.890902459621429443e-02 1.076099947094917297e-01 -2.530291303992271423e-02 -4.749618470668792725e-02 -1.114313956350088120e-02 -1.123907417058944702e-01 1.527775451540946960e-02 1.413329392671585083e-01 -9.210306406021118164e-02 9.849484264850616455e-02 1.720212697982788086e-01 8.246936649084091187e-02 1.447606682777404785e-01 -1.170643121004104614e-01 9.525553882122039795e-02 4.180958867073059082e-01 2.234282158315181732e-02 -1.504307538270950317e-01 -1.020088866353034973e-01 3.019911237061023712e-02 1.672258675098419189e-01 -5.998138338327407837e-02 5.371460691094398499e-02 9.880519658327102661e-02 -8.136826008558273315e-02 -4.722519218921661377e-02 1.191918831318616867e-02 8.607693016529083252e-02 4.563000425696372986e-02 -1.118248235434293747e-02 -9.468635916709899902e-02 1.059851795434951782e-02 -9.372524172067642212e-02 9.253043681383132935e-03 1.364670842885971069e-01 -1.312788873910903931e-01 4.184475541114807129e-02 -5.284832790493965149e-02 -5.006749182939529419e-02 4.674086347222328186e-02 -1.229726970195770264e-01 -3.065989352762699127e-03 1.882000640034675598e-02 2.172193489968776703e-02 -3.839861601591110229e-02 8.155538886785507202e-02 -9.420797973871231079e-02 2.217155843973159790e-01 1.816664822399616241e-02 -1.257851868867874146e-01 1.635468155145645142e-01 2.758312225341796875e-01 -6.699674576520919800e-02 4.299874976277351379e-02 -1.472219079732894897e-01 4.101164638996124268e-02 -6.737057119607925415e-02 2.658335492014884949e-02 9.169202297925949097e-02 -7.908634841442108154e-02 8.404919505119323730e-02 1.396664381027221680e-01 1.023644581437110901e-01 -3.978128731250762939e-02 -5.384753271937370300e-02 4.035245254635810852e-02 1.082883104681968689e-01 -1.252309530973434448e-01 7.997214794158935547e-02 3.279767930507659912e-02 -2.027480453252792358e-01 -1.888369321823120117e-01 8.738864958286285400e-02 -1.349525004625320435e-01 -1.609700024127960205e-01 1.849120855331420898e-01 1.349636316299438477e-01 6.514651328325271606e-02 6.963436305522918701e-02 -8.597823977470397949e-02 -2.893625758588314056e-02 -8.648862689733505249e-02 2.532409876585006714e-02 1.345996856689453125e-01 8.602047711610794067e-02 1.707544364035129547e-02 2.939343638718128204e-02 -4.943086951971054077e-02 1.350181177258491516e-02 6.468381732702255249e-02 1.306701302528381348e-01 -1.077784001827239990e-01 -3.365623578429222107e-02 1.049865335226058960e-01 -4.366837907582521439e-03 -2.549384534358978271e-01 1.591521948575973511e-01 7.310157269239425659e-02 -4.572890326380729675e-02 -1.093704178929328918e-01 2.836574241518974304e-02 9.117379784584045410e-02 -1.023724451661109924e-01 -1.270722504705190659e-02 -1.139910593628883362e-01 6.809821724891662598e-02 -1.444657891988754272e-01 4.759764671325683594e-02 3.026494085788726807e-01 -3.634797409176826477e-02 4.238158836960792542e-02 -4.959375411272048950e-02 1.260939389467239380e-01 -5.526083521544933319e-03 -8.145174384117126465e-02 1.183315441012382507e-01 -2.472393028438091278e-02 1.253255307674407959e-01 2.043653838336467743e-02 -7.483088970184326172e-02 -3.743885830044746399e-02 -2.365226112306118011e-02 -2.482265420258045197e-02 7.036712020635604858e-02 3.194797318428754807e-03 -1.581711322069168091e-01 2.210908010601997375e-02 4.345090314745903015e-02 4.617712646722793579e-02 -2.260718494653701782e-01 -1.334460377693176270e-01 -1.231890358030796051e-02 4.643003642559051514e-01 1.122639849781990051e-01 9.967075660824775696e-03 4.207234829664230347e-02 -4.584781825542449951e-03 1.091591194272041321e-01 8.491023629903793335e-02 2.735043466091156006e-01 2.267047613859176636e-01 -3.494368633255362511e-03 7.408552803099155426e-03 3.420207276940345764e-02 1.207875981926918030e-01 1.050323843955993652e-01 1.033228486776351929e-01 8.829440921545028687e-02 2.449186332523822784e-02 -5.441439524292945862e-02 -1.002792790532112122e-01 -5.778815224766731262e-02 2.665225863456726074e-01 -1.638050563633441925e-02 2.358613535761833191e-02 -2.384423613548278809e-01 4.280050285160541534e-03 -4.018092155456542969e-02 5.403794348239898682e-02 -2.082119323313236237e-02 6.881792843341827393e-02 -5.636531859636306763e-02 1.797049939632415771e-01 -6.324870139360427856e-02 -2.373583801090717316e-02 5.999408662319183350e-02 7.485911250114440918e-02 -9.017439931631088257e-02 1.057587862014770508e-01 3.343196958303451538e-02 -9.738709777593612671e-02 -6.540451943874359131e-02 6.206339225172996521e-02 -1.312592923641204834e-01 9.551330655813217163e-02 2.562018297612667084e-02 7.537816464900970459e-02 1.409455761313438416e-02 -9.932076930999755859e-02 -2.320904433727264404e-01 -1.518505811691284180e-01 1.150076538324356079e-01 -9.151301532983779907e-02 -1.888411343097686768e-01 -1.338999122381210327e-01 -4.591109976172447205e-02 3.979672491550445557e-02 3.452899158000946045e-01 3.406162261962890625e-01 -1.629025340080261230e-01 -1.267822980880737305e-01 -1.354622691869735718e-01 8.919057995080947876e-02 1.551949679851531982e-01 1.327084451913833618e-01 1.913315616548061371e-02 -3.789229318499565125e-02 -1.439951509237289429e-01 2.817431464791297913e-02 1.470526009798049927e-01 1.849043928086757660e-02 -3.187606856226921082e-02 -1.210874319076538086e-02 1.129979789257049561e-01 -5.402949824929237366e-02 -2.677165865898132324e-01 1.117245778441429138e-01 9.493397176265716553e-02 9.083551913499832153e-02 1.572468131780624390e-01 5.104499310255050659e-02 -1.540456414222717285e-01 -1.895529334433376789e-03 2.684069238603115082e-02 6.210761517286300659e-02 7.942138612270355225e-02 1.294826269149780273e-01 -3.756971284747123718e-02 -1.664570569992065430e-01 -1.324587911367416382e-01 -1.874469369649887085e-01 2.325716018676757812e-01 1.947408765554428101e-01 9.168159961700439453e-02 -1.351054161787033081e-01 -1.680380664765834808e-02 -2.235822081565856934e-01 3.362905979156494141e-02 2.408519834280014038e-01 -7.247470319271087646e-02 -6.656799465417861938e-02 -4.364536702632904053e-02 4.153028130531311035e-02 1.940378732979297638e-02 -1.895447447896003723e-02 3.355103731155395508e-02 4.004593007266521454e-03 1.410799622535705566e-01 7.555326819419860840e-02 5.170914903283119202e-02 9.177257120609283447e-02 4.975000023841857910e-02 -5.797111243009567261e-02 -7.577000558376312256e-02 -6.666275858879089355e-02 -1.182291209697723389e-01 -1.829297654330730438e-02 -4.881344363093376160e-02 -9.506575763225555420e-02 7.314968854188919067e-02 5.289477109909057617e-02 1.023041605949401855e-01 -2.154844105243682861e-01 -7.920952886343002319e-02 -7.863509654998779297e-02 5.948187410831451416e-02 -6.823291629552841187e-02 1.432356387376785278e-01 -3.429661318659782410e-02 -7.498992234468460083e-02 6.494897603988647461e-02 -4.671891406178474426e-02 7.295411080121994019e-02 -1.382906138896942139e-01 -6.943808495998382568e-02 2.949161231517791748e-01 -2.174793928861618042e-01 -1.690313406288623810e-02 -1.070055887103080750e-01 9.206100553274154663e-02 1.707275658845901489e-01 1.105913966894149780e-01 -2.209471911191940308e-02 9.204641729593276978e-02 -4.350572451949119568e-02 -6.534368544816970825e-02 1.257145702838897705e-01 -1.859217882156372070e-01 4.601829219609498978e-03 -6.795926392078399658e-02 -7.561987731605768204e-04 2.456939816474914551e-01 -2.501457929611206055e-02 7.049379497766494751e-02 8.257742971181869507e-02 1.838055849075317383e-01 1.355472654104232788e-01 4.860297217965126038e-02 -9.364091604948043823e-02 8.466760627925395966e-03 -1.409607976675033569e-01 6.971465051174163818e-02 -9.480420500040054321e-02 -6.209583207964897156e-02 -1.445771902799606323e-01 9.270442649722099304e-03 -8.255047351121902466e-02 5.093396455049514771e-02 2.513425648212432861e-01 -5.881230533123016357e-02 -4.307887051254510880e-03 -3.847779333591461182e-02 -3.804308548569679260e-02 -9.792055189609527588e-02 -1.669086664915084839e-01 -1.202724054455757141e-01 -1.430184692144393921e-01 6.346708536148071289e-02 -1.152683794498443604e-01 -2.887511998414993286e-02 1.640470772981643677e-01 2.120127528905868530e-01 1.463249027729034424e-01 6.229370459914207458e-02 -2.438837848603725433e-02 -9.769438207149505615e-02 3.317379206418991089e-02 4.708842374384403229e-03 3.880538279190659523e-03 -1.886777393519878387e-02 3.887723013758659363e-02 4.248350113630294800e-02 5.189896328374743462e-04 1.662073582410812378e-01 -6.960418540984392166e-03 2.664615958929061890e-02 1.591347754001617432e-01 -2.388145625591278076e-01 1.613302677869796753e-01 -7.101915776729583740e-02 1.824754662811756134e-02 -1.394416391849517822e-01 -7.546535879373550415e-02 -5.636058375239372253e-02 -1.526142954826354980e-01 -1.912097632884979248e-01 2.268596552312374115e-02 -1.820151507854461670e-01 3.605348244309425354e-02 3.973699733614921570e-02 2.049742639064788818e-02 1.539912372827529907e-01 -5.381047260016202927e-03 1.256845444440841675e-01 -4.114252328872680664e-02 1.460479497909545898e-01 6.937172263860702515e-02 3.425744175910949707e-02 6.725139915943145752e-02 1.471126265823841095e-02 -1.012273505330085754e-01 -1.379586458206176758e-01 1.128435600548982620e-02 -7.356585562229156494e-02 -6.349545717239379883e-02 -1.277470290660858154e-01 -1.506695449352264404e-01 -2.656986936926841736e-02 3.683438152074813843e-02 -3.167342022061347961e-02 2.099785581231117249e-02 2.615336515009403229e-02 -1.249446794390678406e-01 2.716225385665893555e-02 -1.011976897716522217e-01 9.282612241804599762e-03 1.558404713869094849e-01 -2.089359462261199951e-01 -2.105504721403121948e-01 -4.140305146574974060e-02 5.476094782352447510e-02 -1.639256179332733154e-01 6.877379119396209717e-02 3.834445774555206299e-02 -2.480075880885124207e-02 2.886562794446945190e-02 -2.722970247268676758e-01 1.524360030889511108e-01 1.541946530342102051e-01 -2.175340428948402405e-02 -8.073889464139938354e-02 -8.072671294212341309e-02 -7.959433645009994507e-02 -1.102980822324752808e-01 -8.526206761598587036e-02 -2.635877728462219238e-01 5.878366902470588684e-02 -4.915811121463775635e-02 -3.502243757247924805e-02 -8.421435952186584473e-02 -1.976355612277984619e-01 -6.521950662136077881e-02 -6.719958037137985229e-03 -5.491516087204217911e-03 -3.458604589104652405e-02 -4.729822278022766113e-02 -7.375758141279220581e-02 -8.041928708553314209e-02 1.020838171243667603e-01 9.570057690143585205e-02 1.521234363317489624e-01 7.209251821041107178e-02 1.421270966529846191e-01 3.453243291005492210e-03 -6.324230134487152100e-02 1.328903883695602417e-01 -2.139253728091716766e-02 -4.180610924959182739e-02 -1.970687322318553925e-02 1.764203794300556183e-02 -6.396296899765729904e-03 1.036833301186561584e-01 -2.844907641410827637e-01 -1.425489690154790878e-02 -2.205394953489303589e-01 -1.615843474864959717e-01 1.689928919076919556e-01 6.796735525131225586e-02 3.679644688963890076e-02 1.874817460775375366e-01 -1.934987455606460571e-01 -1.289319340139627457e-02 -1.981137692928314209e-02 4.415417835116386414e-02 -9.979797154664993286e-02 3.195070102810859680e-02 2.073115259408950806e-01 -6.400833372026681900e-03 2.935972250998020172e-02 -1.086119338870048523e-01 2.249369025230407715e-01 -2.224886231124401093e-02 -7.642346620559692383e-02 1.490570902824401855e-01 1.139837056398391724e-01 -2.535650320351123810e-02 2.895649056881666183e-03 -7.000161707401275635e-02 -1.454809755086898804e-01
-2.233731793239712715e-04 -9.543254226446151733e-02 -5.881312862038612366e-02 -1.557079851627349854e-01 -4.087725654244422913e-02 -1.281305868178606033e-02 -3.770386055111885071e-02 2.677448466420173645e-02 7.478293031454086304e-02 -3.377043455839157104e-02 -1.299140788614749908e-02 4.564101248979568481e-02 2.092655375599861145e-02 -6.712493300437927246e-02 -1.179800108075141907e-01 -8.372274786233901978e-02 1.198773551732301712e-02 -1.822014003992080688e-01 -6.905044615268707275e-02 -5.938701797276735306e-03 5.906717851758003235e-02 -6.581635773181915283e-02 -1.015164609998464584e-02 -7.326683402061462402e-02 -9.723253548145294189e-02 -1.512064635753631592e-01 -1.028637290000915527e-01 -5.495592951774597168e-02 1.172346398234367371e-01 -1.494238525629043579e-01 -3.781165927648544312e-03 2.024008147418498993e-02 -3.634417429566383362e-02 -9.902793169021606445e-02 -5.387352406978607178e-02 7.848469913005828857e-02 9.644128382205963135e-03 2.892909385263919830e-02 -1.929435692727565765e-02 -4.102382808923721313e-02 -4.713398590683937073e-02 5.282123386859893799e-02 3.221560418605804443e-01 -1.904425472021102905e-01 -6.912843137979507446e-02 -2.724579162895679474e-02 -4.293922334909439087e-02 8.601079136133193970e-02 -9.936907142400741577e-02 -3.906542807817459106e-02 5.587012320756912231e-02 -7.556132227182388306e-02 1.504102442413568497e-02 -5.376011133193969727e-02 -6.513961404561996460e-02 9.978405199944972992e-03 6.916370708495378494e-03 -1.308974921703338623e-01 -1.181243732571601868e-01 -2.246871776878833771e-02 -2.399171702563762665e-02 -5.825985595583915710e-02 4.267328605055809021e-02 6.274595111608505249e-02 -4.498551785945892334e-02 -3.743382915854454041e-02 -1.351570431143045425e-02 2.704312652349472046e-02 -9.111332893371582031e-02 -4.209559783339500427e-02 2.148764207959175110e-02 2.976808138191699982e-02 1.057220622897148132e-02 -1.531862653791904449e-02 1.560475025326013565e-02 -8.897357620298862457e-03 1.304715573787689209e-01 -6.748762726783752441e-02 3.702894970774650574e-02 5.608351156115531921e-02 5.770577862858772278e-02 -6.363010033965110779e-03 1.672758162021636963e-02 4.549882933497428894e-02 1.605177880264818668e-03 5.765738338232040405e-02 -2.258515655994415283e-01 8.349249511957168579e-02 1.170207038521766663e-01 9.251828491687774658e-02 -6.284192204475402832e-02 -6.581450998783111572e-02 4.722261056303977966e-02 9.004449471831321716e-03 2.807687781751155853e-02 -1.984854228794574738e-02 -7.643727958202362061e-02 -1.412865668535232544e-01 2.326110407011583447e-04 -1.425337344408035278e-01 -4.808148369193077087e-02 2.273308299481868744e-02 -7.623405009508132935e-02 1.563876569271087646e-01 -1.080403327941894531e-01 -4.120260477066040039e-02 4.688747227191925049e-02 8.126210421323776245e-02 2.728419005870819092e-02 -1.114103198051452637e-01 -7.559304591268301010e-03 -3.453645110130310059e-02 -5.328706465661525726e-03 -4.736952856183052063e-02 -5.578041542321443558e-03 6.600288301706314087e-02 -2.076429873704910278e-02 6.184828653931617737e-02 7.312335073947906494e-02 -2.846409566700458527e-03 2.916315197944641113e-02 -1.102962940931320190e-01 -1.418785154819488525e-01 8.423876017332077026e-02 6.562269479036331177e-02 -2.898976951837539673e-02 4.587935656309127808e-02 -6.174495071172714233e-02 8.838910609483718872e-02 -2.226149104535579681e-02 -6.018194183707237244e-02 8.738394826650619507e-02 1.092891115695238113e-02 5.606479570269584656e-02 -3.977283835411071777e-02 -1.487966906279325485e-02 4.641539126168936491e-04 4.361692443490028381e-02 -7.385252416133880615e-02 9.800991043448448181e-03 -7.111063599586486816e-02 5.946257337927818298e-02 -8.362648636102676392e-02 -2.903493586927652359e-03 -8.300350606441497803e-02 -5.874847248196601868e-02 -4.097567871212959290e-02 -3.385217860341072083e-02 -1.827721111476421356e-02 -5.837593600153923035e-02 2.271912097930908203e-01 -4.120009951293468475e-03 1.667418517172336578e-02 -7.533891499042510986e-02 1.865540258586406708e-02 -1.585550792515277863e-02 -2.529411017894744873e-02 3.492536768317222595e-02 8.792462944984436035e-02 -3.753912448883056641e-02 -4.059304948896169662e-03 -1.302808672189712524e-01 -1.102176830172538757e-01 6.226206198334693909e-02 -3.214496001601219177e-02 2.382023446261882782e-02 8.875357918441295624e-03 2.075925283133983612e-02 -1.274077892303466797e-01 4.443191364407539368e-02 8.967770636081695557e-02 6.572375539690256119e-03 -2.803126536309719086e-02 -4.671854153275489807e-02 -6.642111390829086304e-02 -1.347981244325637817e-01 -1.118706353008747101e-02 4.415161535143852234e-02 5.705695226788520813e-02 4.507183283567428589e-02 -2.152124978601932526e-02 1.025847792625427246e-01 -1.828721351921558380e-02 4.535862430930137634e-02 -3.483230248093605042e-02 7.507491111755371094e-02 2.808786742389202118e-02 6.428773701190948486e-02 -2.437540329992771149e-02 -3.478212654590606689e-02 8.215682953596115112e-02 -1.846148520708084106e-01 -1.032678261399269104e-01 -1.190961152315139771e-01 7.533720694482326508e-03 -2.120475471019744873e-02 1.727614253759384155e-01 2.952243760228157043e-02 -8.561004698276519775e-02 1.325458171777427197e-03 -4.387867823243141174e-02 4.301126301288604736e-02 -1.521887443959712982e-02 1.125962585210800171e-01 -7.008826732635498047e-02 3.483834490180015564e-02 -1.048046909272670746e-02 -3.360483050346374512e-02 2.901936508715152740e-02 1.138013303279876709e-01 -5.626217648386955261e-02 4.041097313165664673e-02 3.405874967575073242e-02 2.464590407907962799e-02 4.784315451979637146e-02 -5.923980474472045898e-02 -1.346126943826675415e-01 3.519060323014855385e-03 -2.995673939585685730e-02 1.064333785325288773e-02 -5.333355069160461426e-02 -3.708882257342338562e-03 -7.402053475379943848e-02 -5.129270628094673157e-02 -4.941137135028839111e-02 -2.106653898954391479e-02 -1.205185353755950928e-01 1.782594621181488037e-02 -6.441170722246170044e-02 3.759495541453361511e-02 -5.176971107721328735e-02 8.536706864833831787e-02 -3.459091763943433762e-03 4.456646367907524109e-02 -1.989118568599224091e-02 5.494694784283638000e-02 1.797326281666755676e-02 9.660189971327781677e-03 -4.250495880842208862e-02 -9.103396907448768616e-03 -2.198198884725570679e-01 -3.266042331233620644e-04 -7.114520296454429626e-03 -7.176562398672103882e-02 -1.874419003725051880e-01 9.713094681501388550e-03 2.069617249071598053e-02 7.172238826751708984e-02 -3.437181562185287476e-02 -9.185054339468479156e-03 -3.290726244449615479e-02 -1.613757573068141937e-02 -1.413266174495220184e-02 -7.182566076517105103e-02 6.371698528528213501e-02 -8.776903897523880005e-02 -9.559761732816696167e-02 8.970791101455688477e-02 1.098165288567543030e-02 2.189984545111656189e-02 4.038127139210700989e-02 -3.860236331820487976e-02 -4.700895771384239197e-02 3.131888806819915771e-02 1.163062006235122681e-01 -8.672366291284561157e-02 8.072139322757720947e-02 -7.758199237287044525e-03 1.064464822411537170e-01 6.706946063786745071e-03 -1.113910898566246033e-01 7.365839183330535889e-02 -3.311770781874656677e-02 -1.323821842670440674e-01 -1.746110804378986359e-02 -8.500820398330688477e-02 5.836986470967531204e-03 -9.356871247291564941e-03 -1.318607032299041748e-01 1.860889494419097900e-01 6.784560531377792358e-02 1.178645938634872437e-01 3.916657343506813049e-02 -1.174209192395210266e-01 3.756204992532730103e-02 2.375295013189315796e-02 1.271781045943498611e-02 -5.439728870987892151e-02 -7.505514472723007202e-02 -8.879545331001281738e-02 9.096318483352661133e-02 -8.653094619512557983e-02 -7.142503559589385986e-02 9.076156467199325562e-02 -6.419058889150619507e-02 1.859031990170478821e-02 -4.800541326403617859e-02 1.094413697719573975e-01 4.425305873155593872e-03 -4.572897218167781830e-03 2.048974111676216125e-02 -9.117409586906433105e-03 -1.832539029419422150e-02 8.162610232830047607e-02 4.778505302965641022e-03 -2.524719759821891785e-02 -5.154756456613540649e-02 7.034450024366378784e-02 -1.503105554729700089e-02 -1.052304133772850037e-01 1.236913576722145081e-01 -5.733746290206909180e-02 8.496043831110000610e-02 -1.988013274967670441e-03 -3.204227983951568604e-02 7.392212748527526855e-02 7.615394145250320435e-02 3.817817196249961853e-02 -1.812198571860790253e-02 1.130361258983612061e-01 4.024502262473106384e-02 -1.123251467943191528e-01 9.964182227849960327e-02 1.719425991177558899e-02 -3.773068601731210947e-04 -7.626193016767501831e-02 2.040841616690158844e-03 4.310565069317817688e-02 1.193823292851448059e-01 1.625828444957733154e-02 9.114310145378112793e-02 -7.700688205659389496e-03 -2.731799334287643433e-02 7.011754903942346573e-03 -2.094234228134155273e-01 6.176900118589401245e-02 -8.471632748842239380e-02 -1.050025783479213715e-02 8.465000987052917480e-02 -2.277541905641555786e-01 -4.643448442220687866e-02 -6.849523633718490601e-02 8.627252280712127686e-02 -9.771020710468292236e-02 6.725788116455078125e-02 1.878805458545684814e-02 9.088483452796936035e-02 6.537527590990066528e-02 -4.105325415730476379e-02 -1.071396190673112869e-02 -1.016782820224761963e-01 -1.291852910071611404e-02 -7.686685770750045776e-03 5.268876627087593079e-02 1.100698765367269516e-02 -1.107559129595756531e-01 -1.151190791279077530e-02 1.055473610758781433e-01 -8.491459302604198456e-03 -6.484799832105636597e-02 -9.399288892745971680e-02 -2.696499042212963104e-02 -8.520808070898056030e-02 -7.081890478730201721e-03 -5.873067304491996765e-02 5.069002043455839157e-03 2.796566113829612732e-02 3.400247916579246521e-02 -4.712073877453804016e-02 3.230075165629386902e-02 1.016582176089286804e-01 1.724893301725387573e-01 -1.699841022491455078e-02 6.442794203758239746e-02 -6.065990403294563293e-02 -1.250276416540145874e-01 -8.517722785472869873e-02 -9.952150285243988037e-02 -6.529777497053146362e-02 -2.063674107193946838e-02 9.632944315671920776e-02 -2.600248344242572784e-02 -1.008671522140502930e-01 6.573424488306045532e-02 2.438834905624389648e-01 4.269355535507202148e-02 1.665761172771453857e-01 -3.316450864076614380e-03 -8.296182006597518921e-02 -6.729958951473236084e-02 3.457368165254592896e-02 -4.772743955254554749e-02 -9.718241542577743530e-02 -3.066538646817207336e-02 -3.243448585271835327e-02 -9.936722368001937866e-02 4.580711200833320618e-02 -3.046075440943241119e-02 -7.014328148216009140e-03 4.005157947540283203e-02 1.313226763159036636e-02 1.020341739058494568e-01 -1.288230419158935547e-01 -6.722775846719741821e-02 -1.027016267180442810e-01 -9.059471078217029572e-03 -2.725528180599212646e-02 -2.618780545890331268e-02 -1.484233587980270386e-01 -1.260651051998138428e-01 4.460265114903450012e-02 -1.263652890920639038e-01 -8.495594374835491180e-03 2.650796435773372650e-02 5.681664496660232544e-02 -1.659118942916393280e-02 5.148782208561897278e-02 -7.217886298894882202e-02 5.330007895827293396e-02 -1.587763428688049316e-01 -6.173070892691612244e-02 -1.597049646079540253e-02 3.776233643293380737e-02 -6.754025071859359741e-02 1.893476396799087524e-02 -9.894095361232757568e-02 6.642703711986541748e-02 -9.310062974691390991e-02 -1.283383220434188843e-01 -9.282805025577545166e-02 1.238280758261680603e-01 -8.661143481731414795e-03 -7.111427932977676392e-02 -7.133360952138900757e-02 2.010971494019031525e-02 -7.870319485664367676e-02 -2.182046510279178619e-02 -5.463084951043128967e-02 -4.692553356289863586e-02 -5.260314419865608215e-02 5.260611325502395630e-02 -1.878204643726348877e-01 6.191539578139781952e-03 9.217285364866256714e-02 1.637711077928543091e-01 -5.038946121931076050e-02 6.884586066007614136e-02 -4.302881285548210144e-02 8.661609143018722534e-02 -5.397533997893333435e-02 1.176109313964843750e-01 1.177794858813285828e-01 2.593125775456428528e-02 6.953062862157821655e-02 8.015980944037437439e-03 2.277651242911815643e-02 8.174623362720012665e-03 -3.498011827468872070e-02 5.913610756397247314e-02 9.311032295227050781e-02 -1.602124981582164764e-02 -6.669512391090393066e-02 4.964404553174972534e-02 -9.056621789932250977e-02 2.905854023993015289e-02 -6.606172025203704834e-02 -3.533566370606422424e-02 4.366888199001550674e-03 -1.369379907846450806e-01 -1.379443109035491943e-01 -2.383819781243801117e-03 1.129839494824409485e-01 7.772464305162429810e-02 4.016018938273191452e-03 -6.815961003303527832e-02 2.559719607234001160e-02 2.039820142090320587e-02 3.464357554912567139e-02 2.055909484624862671e-02 -7.365454221144318581e-04 -1.356977373361587524e-01 3.829364851117134094e-02 4.473690316081047058e-02 9.455806761980056763e-02 -7.739173452137038112e-05 6.790707260370254517e-02 5.447357892990112305e-02 -4.018031433224678040e-02 -4.155393317341804504e-02 7.175790145993232727e-03 3.557401895523071289e-02 -1.653624512255191803e-02 -3.518632054328918457e-02 -5.559695512056350708e-02 4.876685887575149536e-02 7.178387790918350220e-02 -4.925275966525077820e-02 -2.530279383063316345e-02 -3.923992440104484558e-02 7.833272218704223633e-02 -1.725451275706291199e-02 -1.418529003858566284e-01 5.171089433133602142e-03 5.139198526740074158e-02 1.091037169098854065e-01 -4.451435059309005737e-02 1.751803457736968994e-01 8.356545865535736084e-02 9.961039572954177856e-02 1.431796140968799591e-02 8.291761390864849091e-03 -7.189063727855682373e-02
3.279271721839904785e-02 2.168064005672931671e-02 -1.592033803462982178e-01 -8.105099201202392578e-03 6.596691161394119263e-02 6.635728478431701660e-02 2.813665010035037994e-02 -1.805153489112854004e-01 6.617954000830650330e-03 3.100224211812019348e-02 3.836564347147941589e-02 1.078505665063858032e-01 -9.446534514427185059e-02 8.307021111249923706e-02 5.085203424096107483e-02 -6.000550836324691772e-02 1.456540822982788086e-01 7.887286692857742310e-02 -8.183846622705459595e-02 5.474296957254409790e-02 -7.068889588117599487e-02 2.002967447042465210e-01 -6.952031701803207397e-02 -8.388582617044448853e-02 1.853553056716918945e-01 -7.347723096609115601e-02 -7.043285667896270752e-02 -2.037857286632061005e-02 -1.536806821823120117e-01 -1.567349955439567566e-02 7.087542116641998291e-02 -1.598291099071502686e-02 -1.209727954119443893e-02 -1.979990117251873016e-02 -1.159655526280403137e-01 -3.064709156751632690e-02 4.750912263989448547e-02 1.708489060401916504e-01 2.715780027210712433e-02 -6.030495464801788330e-02 2.395491153001785278e-01 -1.514942049980163574e-01 3.292926773428916931e-02 -4.346631467342376709e-02 3.544783219695091248e-02 -5.984253063797950745e-02 -2.514804713428020477e-02 -6.903735455125570297e-03 8.974223583936691284e-02 -2.166126668453216553e-02 7.455730438232421875e-02 -1.132606789469718933e-01 -7.028117775917053223e-02 -1.863389089703559875e-02 -2.201537601649761200e-02 6.647969782352447510e-02 -1.166132651269435883e-02 -3.697382658720016479e-02 -2.991470880806446075e-02 -6.726440042257308960e-02 -6.169046834111213684e-02 -1.835873872041702271e-01 1.163945123553276062e-01 -1.638944596052169800e-01 -1.328914612531661987e-02 -1.122706569731235504e-02 7.394516468048095703e-02 -1.884843967854976654e-02 8.854007720947265625e-02 7.638969272375106812e-02 -2.997767180204391479e-02 -1.076869815587997437e-01 -1.634217053651809692e-02 -5.212380364537239075e-02 -1.167574226856231689e-01 2.506382577121257782e-02 -8.460061252117156982e-02 -5.533184111118316650e-02 1.351678371429443359e-01 -1.020861417055130005e-02 8.466953039169311523e-02 2.271377667784690857e-02 2.331397496163845062e-02 -6.247777491807937622e-02 -1.959245055913925171e-01 -7.461538910865783691e-02 -1.771555468440055847e-02 -1.193259432911872864e-01 -1.656481064856052399e-02 7.444832473993301392e-03 4.101303964853286743e-02 -1.551526188850402832e-01 -1.212884560227394104e-01 9.287132881581783295e-03 -1.904359757900238037e-01 -5.783097073435783386e-02 2.118401080369949341e-01 2.270286343991756439e-02 -8.659727871417999268e-02 3.749861195683479309e-02 1.101932451128959656e-01 -8.448746986687183380e-03 2.507549151778221130e-02 1.576435118913650513e-01 -1.201682351529598236e-02 -1.696382462978363037e-01 -1.929271668195724487e-01 -9.690676629543304443e-02 1.673241704702377319e-01 -1.098017022013664246e-01 -1.311229169368743896e-01 -5.281488969922065735e-02 3.587676584720611572e-02 -2.600082755088806152e-02 1.253772228956222534e-01 3.015864081680774689e-02 1.793457716703414917e-01 -9.748586453497409821e-03 -7.411225140094757080e-02 -2.560264617204666138e-02 -7.866775244474411011e-02 -5.720416456460952759e-02 9.642113745212554932e-02 -7.810032367706298828e-02 -1.280388236045837402e-01 1.154193952679634094e-01 -1.138313487172126770e-01 6.840614229440689087e-02 -1.108798459172248840e-01 -8.100123703479766846e-02 5.393168330192565918e-02 -1.518472731113433838e-01 1.888909563422203064e-02 -6.839866284281015396e-03 3.867985308170318604e-02 -2.118063718080520630e-02 1.052979379892349243e-01 -1.635263860225677490e-02 -2.164775691926479340e-02 1.091687753796577454e-02 1.731779798865318298e-02 4.268948920071125031e-03 -4.429386183619499207e-02 -1.300941407680511475e-02 -1.649785786867141724e-02 2.156985364854335785e-02 1.708005554974079132e-02 -5.037921667098999023e-02 -8.438863605260848999e-02 5.222064629197120667e-02 2.216450497508049011e-02 4.583725705742835999e-02 -6.534868478775024414e-02 -1.625429093837738037e-01 5.036345124244689941e-02 -1.260638004168868065e-03 -1.266257911920547485e-01 -2.197145484387874603e-02 -4.613684862852096558e-02 5.521763861179351807e-02 1.090021207928657532e-01 1.426650136709213257e-01 -2.432234352454543114e-03 2.137529477477073669e-02 1.337450295686721802e-01 -3.650880232453346252e-02 -7.824502885341644287e-02 -4.824894294142723083e-02 -2.932608500123023987e-02 -7.535452488809823990e-03 1.162047013640403748e-01 -5.001227930188179016e-02 5.929637700319290161e-02 1.519057154655456543e-01 1.864002458751201630e-02 -3.017217107117176056e-02 3.080513561144471169e-03 -9.394852072000503540e-02 1.431686803698539734e-02 2.692685835063457489e-02 1.371416542679071426e-02 2.670171298086643219e-02 -1.581193506717681885e-01 -9.221915900707244873e-02 -1.196800544857978821e-02 7.198160514235496521e-03 7.061867415904998779e-02 1.074073314666748047e-01 1.677147345617413521e-03 -6.705963611602783203e-02 -8.400137536227703094e-03 1.313225924968719482e-01 -4.015196114778518677e-02 -4.569014161825180054e-02 7.540613412857055664e-02 -8.926265686750411987e-02 -2.133404277265071869e-02 8.438773453235626221e-02 1.015672385692596436e-01 -1.776897348463535309e-02 -7.845011539757251740e-03 1.963397115468978882e-02 4.929492995142936707e-02 -1.732053607702255249e-01 -8.258252590894699097e-02 -3.396629914641380310e-02 8.312057703733444214e-02 -6.637024134397506714e-02 -5.706661567091941833e-02 5.113198235630989075e-02 -9.565582126379013062e-02 -2.939856611192226410e-02 4.464015364646911621e-02 -3.678360208868980408e-02 -2.577200345695018768e-02 2.215014398097991943e-02 7.541789207607507706e-03 2.220189897343516350e-03 -1.932570151984691620e-02 1.145064681768417358e-01 -4.148109257221221924e-02 6.122206524014472961e-02 -7.714785635471343994e-02 -4.606573656201362610e-02 3.828694671392440796e-02 1.013185456395149231e-01 -7.658026367425918579e-02 -7.777057588100433350e-02 -1.348064988851547241e-01 -2.840600162744522095e-02 3.742047026753425598e-02 -1.490353941917419434e-01 -8.037737756967544556e-02 -1.473035290837287903e-02 -7.549680024385452271e-02 9.161601960659027100e-02 -3.219056129455566406e-02 1.576840430498123169e-01 1.465011835098266602e-01 1.119457408785820007e-01 -1.369377672672271729e-01 7.555153220891952515e-02 3.027278780937194824e-01 8.971903473138809204e-02 1.761623471975326538e-01 2.218752056360244751e-01 1.007039695978164673e-01 3.677057847380638123e-02 -5.362926423549652100e-02 4.173538461327552795e-02 3.377662599086761475e-02 -1.954311318695545197e-02 -4.870411753654479980e-02 6.644123792648315430e-02 7.405341416597366333e-02 -6.558217853307723999e-02 -8.473315834999084473e-02 -4.636127036064863205e-03 -4.816597327589988708e-02 1.595790237188339233e-01 2.233654819428920746e-02 -8.071995526552200317e-02 -8.799465745687484741e-02 3.070684149861335754e-02 3.110226616263389587e-02 1.633068168302997947e-04 3.515671566128730774e-02 -1.944801770150661469e-02 7.655590772628784180e-02 -1.386303268373012543e-02 2.871922589838504791e-02 1.148474663496017456e-01 -1.026160642504692078e-01 6.913489196449518204e-03 5.957797542214393616e-02 1.413718312978744507e-01 2.957988530397415161e-02 5.464781075716018677e-02 4.512138664722442627e-02 -1.470434367656707764e-01 5.212852731347084045e-02 2.758573554456233978e-02 -4.579628258943557739e-02 2.099282480776309967e-02 -5.468355119228363037e-02 -2.286266908049583435e-02 -1.173485964536666870e-01 -6.941439211368560791e-02 2.869910746812820435e-02 -5.753932986408472061e-03 -5.324367806315422058e-02 -1.523579936474561691e-03 -1.652039214968681335e-02 4.131649062037467957e-02 4.825072735548019409e-02 6.556092202663421631e-02 -9.054545313119888306e-02 2.052939832210540771e-01 6.680146604776382446e-02 1.537940204143524170e-01 -7.012427598237991333e-02 -1.365416646003723145e-01 7.161783427000045776e-02 -6.911096163094043732e-03 3.932311385869979858e-02 -9.686927497386932373e-02 -9.672965854406356812e-02 2.230862528085708618e-02 -4.175089672207832336e-02 -3.110633231699466705e-02 -8.413290232419967651e-02 -1.061944663524627686e-02 -3.219664469361305237e-02 2.725728042423725128e-02 -1.712561845779418945e-01 -9.404671192169189453e-02 2.918234094977378845e-02 5.289511010050773621e-02 4.006057605147361755e-02 -7.047975808382034302e-02 6.379571557044982910e-02 -5.618266388773918152e-02 -4.523390531539916992e-02 2.281473018229007721e-02 6.274305284023284912e-02 -1.712066307663917542e-02 -1.219085380434989929e-01 8.769297599792480469e-02 -6.640306115150451660e-02 7.107885088771581650e-03 -3.176074847579002380e-02 -1.386184524744749069e-02 5.796917900443077087e-02 -7.614109665155410767e-02 -2.714946679770946503e-02 1.718184649944305420e-01 -6.017999257892370224e-03 -2.472478337585926056e-02 -1.077939644455909729e-01 -7.728506810963153839e-03 6.177312508225440979e-02 -3.574257716536521912e-02 3.486059606075286865e-02 -6.753466092050075531e-03 -2.077543437480926514e-01 -2.219783514738082886e-02 -4.643228650093078613e-02 -5.599929019808769226e-02 -8.489522337913513184e-02 -4.216817021369934082e-02 -3.320931643247604370e-02 5.984164774417877197e-03 -1.378912925720214844e-01 -9.061909466981887817e-02 -6.534640491008758545e-02 -1.110657081007957458e-01 -4.746406897902488708e-02 2.210619598627090454e-01 7.697970420122146606e-02 -6.889691948890686035e-02 7.313476409763097763e-03 -4.659873619675636292e-02 5.728770047426223755e-02 1.081060022115707397e-01 -1.382611393928527832e-01 1.133111864328384399e-01 4.951320588588714600e-02 -4.063090309500694275e-04 5.561352148652076721e-02 1.675371080636978149e-01 -7.085878401994705200e-02 -1.083042994141578674e-01 5.877696722745895386e-02 -4.467162117362022400e-02 -5.024646222591400146e-02 -4.924519360065460205e-02 6.424732506275177002e-02 -5.288622900843620300e-02 5.058803781867027283e-02 1.269548898562788963e-03 9.298122674226760864e-02 -3.366873040795326233e-02 -1.144394930452108383e-02 8.773910254240036011e-02 5.100068822503089905e-02 -2.131084725260734558e-02 1.836984045803546906e-02 3.564950078725814819e-02 8.079261519014835358e-03 -1.658805646002292633e-03 -4.050250723958015442e-02 -3.732147067785263062e-02 2.385267429053783417e-02 2.571705728769302368e-02 -9.352742135524749756e-02 -7.087966054677963257e-02 -1.978210732340812683e-02 -3.337258845567703247e-02 -3.770842030644416809e-02 -2.683426439762115479e-02 2.763701789081096649e-02 -1.248496770858764648e-02 -7.210251688957214355e-02 2.118321359157562256e-01 8.942586369812488556e-03 3.761683404445648193e-02 1.198601126670837402e-01 -7.260514050722122192e-02 -6.411166489124298096e-02 7.471423596143722534e-02 -1.878971755504608154e-01 8.953968062996864319e-03 4.753666743636131287e-02 1.134494468569755554e-01 1.719766668975353241e-02 5.486779846251010895e-03 -1.011463329195976257e-01 7.706460356712341309e-02 -8.713564835488796234e-03 1.204751059412956238e-01 3.782249242067337036e-02 2.372344769537448883e-02 -3.258849680423736572e-02 4.749543964862823486e-03 -7.509083300828933716e-02 -2.305918000638484955e-02 7.896972447633743286e-02 -3.867151215672492981e-02 2.577280625700950623e-02 -7.410857081413269043e-02 8.480337262153625488e-02 -1.221740692853927612e-01 1.564973406493663788e-02 -3.927282989025115967e-02 2.098007127642631531e-02 3.902224078774452209e-02 -1.069618985056877136e-01 3.280175477266311646e-02 -8.106976747512817383e-03 2.156232483685016632e-02 1.530321314930915833e-03 7.801219355314970016e-03 -4.857927560806274414e-02 -1.842743903398513794e-02 7.088498771190643311e-02 3.678233921527862549e-02 4.908942431211471558e-02 -1.803180202841758728e-02 -3.473125398159027100e-02 4.838076606392860413e-02 1.260890439152717590e-02 1.763366460800170898e-01 -7.904011756181716919e-03 -9.967239573597908020e-03 -7.382094115018844604e-02 9.139440208673477173e-02 5.436725914478302002e-02 4.036267101764678955e-02 8.964841067790985107e-02 -6.517140567302703857e-02 1.428723521530628204e-02 -3.892594948410987854e-02 3.408483415842056274e-02 5.042183771729469299e-02 1.162522658705711365e-01 -5.561711639165878296e-02 -4.324318468570709229e-02 3.372744470834732056e-02 -1.032754331827163696e-01 -1.055258065462112427e-01 4.923277348279953003e-02 -2.487239055335521698e-02 -4.573724791407585144e-02 -2.709946781396865845e-02 -2.772972732782363892e-02 1.155371405184268951e-02 -5.321769416332244873e-02 1.733956113457679749e-02 -1.287463754415512085e-01 1.897825896739959717e-01 -4.970397427678108215e-02 -1.925107091665267944e-02 1.370264440774917603e-01 1.171585544943809509e-01 -1.158325653523206711e-02 -1.624812558293342590e-02 4.665968194603919983e-02 2.681554555892944336e-01 1.478284746408462524e-01 -8.517552912235260010e-02 -8.809427917003631592e-02 -6.577435135841369629e-02 -1.608293652534484863e-01 -2.550890482962131500e-02 1.285756677389144897e-01 4.185675457119941711e-02 8.283684402704238892e-02 -7.807415723800659180e-02 5.559548269957304001e-03 -3.409339487552642822e-02 -7.881837338209152222e-02 2.056194469332695007e-02 4.711847007274627686e-02 -4.216718673706054688e-02 -6.008169054985046387e-02 4.224820062518119812e-02 -1.682790368795394897e-01 -5.508090183138847351e-02 7.115985453128814697e-02 7.485963404178619385e-02 -7.995332032442092896e-02 1.159319002181291580e-02
1.098242551088333130e-01 -5.894490703940391541e-02 1.149684414267539978e-01 2.848210558295249939e-02 -4.995346534997224808e-03 2.497348375618457794e-02 7.980081252753734589e-03 -4.635212942957878113e-02 -2.503447979688644409e-02 -3.308079391717910767e-02 -1.390521973371505737e-01 -1.486670784652233124e-02 -1.624434888362884521e-01 -4.119920078665018082e-03 5.814275890588760376e-02 -7.714826613664627075e-02 -4.953254759311676025e-02 4.387953877449035645e-02 -4.899841174483299255e-02 -1.844768971204757690e-02 -5.297115072607994080e-02 1.039147228002548218e-01 -1.299975216388702393e-01 -5.451444536447525024e-02 9.027306735515594482e-02 -1.313124597072601318e-01 -1.180182546377182007e-01 -2.239562757313251495e-02 -1.951080374419689178e-02 -4.676653817296028137e-02 -1.086533740162849426e-01 -1.476165056228637695e-01 1.156674139201641083e-02 6.092835217714309692e-03 -1.955899298191070557e-01 8.582922071218490601e-02 -9.739362448453903198e-02 7.950786501169204712e-02 -1.697198897600173950e-01 -9.428312629461288452e-02 8.204231970012187958e-03 -1.445906013250350952e-01 1.303228735923767090e-01 3.472279384732246399e-02 -1.812624037265777588e-01 -4.852942004799842834e-02 -3.633091226220130920e-02 -1.382718980312347412e-01 3.326434269547462463e-02 2.052382007241249084e-02 -1.417804658412933350e-01 -1.759580373764038086e-01 -2.337844111025333405e-02 -1.150554493069648743e-01 -1.060840785503387451e-01 1.866084896028041840e-02 -3.916484862565994263e-02 -1.175463497638702393e-01 -5.066886171698570251e-02 -1.147970184683799744e-01 -3.214805200695991516e-02 -5.345818772912025452e-02 -2.596230059862136841e-02 -3.504385799169540405e-02 -4.231187980622053146e-03 9.209321439266204834e-02 -5.045606940984725952e-02 -7.923924177885055542e-02 8.651430159807205200e-02 -6.363052874803543091e-02 -1.045198179781436920e-02 -1.063530892133712769e-01 -1.396646909415721893e-02 -3.693463653326034546e-02 -4.221582412719726562e-02 5.381641443818807602e-03 -8.294264227151870728e-02 2.548649720847606659e-02 -4.562564194202423096e-02 -8.445162326097488403e-02 1.044026762247085571e-01 4.232655465602874756e-02 -1.508894860744476318e-01 -4.215793218463659286e-03 -2.732242345809936523e-01 -4.370790719985961914e-02 -3.528160159476101398e-04 -6.095024943351745605e-02 1.452492773532867432e-01 2.840957231819629669e-02 4.661625996232032776e-02 -2.925342880189418793e-02 4.598971921950578690e-03 2.196893282234668732e-02 1.358831953257322311e-02 2.764153108000755310e-02 1.193999201059341431e-01 -1.890276931226253510e-02 -1.176383718848228455e-01 7.257650792598724365e-02 -1.407354697585105896e-02 -5.005820468068122864e-02 8.460297831334173679e-04 -1.547282487154006958e-01 -7.297731190919876099e-02 -8.099668659269809723e-03 -8.887325227260589600e-02 2.617896720767021179e-02 -1.357531100511550903e-01 -4.708421602845191956e-02 4.830180853605270386e-02 3.391763567924499512e-02 6.998963654041290283e-02 4.920613393187522888e-02 1.917990595102310181e-01 -6.229397282004356384e-02 -1.003412753343582153e-01 9.091622196137905121e-03 -3.613593429327011108e-02 -1.374110430479049683e-01 -8.756454102694988251e-03 2.899105846881866455e-02 -2.901680395007133484e-02 3.563753142952919006e-02 -1.129010915756225586e-01 1.896539628505706787e-01 -1.551221162080764771e-01 -5.713537335395812988e-02 -6.888536363840103149e-02 -4.026036709547042847e-02 -4.313356801867485046e-02 1.628923229873180389e-02 -4.177321493625640869e-02 3.993120416998863220e-02 -6.358796358108520508e-02 -5.863153189420700073e-02 -4.194347560405731201e-02 -3.247812017798423767e-02 3.299848176538944244e-04 -5.736890807747840881e-02 -4.228006675839424133e-02 1.288568079471588135e-01 -7.360722124576568604e-02 -1.830124855041503906e-02 2.999990247189998627e-03 -8.103698492050170898e-02 2.320468658581376076e-03 3.839826211333274841e-02 -3.433350101113319397e-02 -1.384026557207107544e-01 -6.085000932216644287e-02 -5.783632025122642517e-02 -5.785297602415084839e-02 -4.066684097051620483e-02 4.252804815769195557e-02 -5.253638327121734619e-02 -1.460616439580917358e-01 -7.674760371446609497e-02 3.484600782394409180e-02 -5.160854384303092957e-02 -4.934464022517204285e-02 1.318975090980529785e-01 1.207230389118194580e-01 -6.550604104995727539e-02 1.920794248580932617e-01 -4.020900931209325790e-03 -3.660546988248825073e-02 -3.956545516848564148e-02 3.565740305930376053e-03 -6.197160482406616211e-02 9.984149783849716187e-02 2.612128667533397675e-02 -5.178738012909889221e-02 -1.049518883228302002e-01 -1.706455647945404053e-01 -6.118889525532722473e-02 -3.356307744979858398e-02 5.535023286938667297e-02 -3.741651400923728943e-02 -1.159125566482543945e-01 -7.871937751770019531e-02 -2.506120502948760986e-02 -2.683923579752445221e-02 -1.478755027055740356e-01 -7.451956626027822495e-03 -9.498362243175506592e-02 3.516807779669761658e-02 5.266992375254631042e-02 -1.239612139761447906e-02 1.092036589980125427e-01 -1.496309340000152588e-01 1.745820194482803345e-01 9.224791079759597778e-02 -8.654303103685379028e-02 4.163676500320434570e-02 5.830833315849304199e-02 -1.183086261153221130e-01 2.803991362452507019e-02 -9.409100748598575592e-03 -1.288048624992370605e-01 4.152327030897140503e-02 -9.175331331789493561e-03 1.270235865376889706e-03 -8.811797201633453369e-02 -2.826981991529464722e-02 -6.465002149343490601e-02 -1.197727695107460022e-01 5.440360680222511292e-02 3.981732577085494995e-02 -3.172062337398529053e-01 1.140276249498128891e-02 -6.234443932771682739e-02 -5.819725245237350464e-02 -7.119280844926834106e-02 -5.098673328757286072e-02 4.741689190268516541e-04 5.055976286530494690e-02 1.590152829885482788e-02 -6.614508479833602905e-02 5.382221937179565430e-02 2.200913988053798676e-02 6.430909782648086548e-02 -6.648207455873489380e-02 1.315251290798187256e-01 -9.971178323030471802e-02 -6.485093384981155396e-02 8.397163450717926025e-02 1.467022579163312912e-02 -2.571792341768741608e-02 1.433343291282653809e-01 -7.977179437875747681e-02 -7.104557007551193237e-02 2.337398380041122437e-02 1.490917429327964783e-02 -2.452331222593784332e-02 -1.434161067008972168e-01 3.234822303056716919e-02 4.327827319502830505e-02 -5.782660562545061111e-03 -9.832283109426498413e-02 1.710669137537479401e-02 5.802151188254356384e-02 9.895066916942596436e-02 7.321844995021820068e-02 4.994936287403106689e-02 -6.681185960769653320e-02 -1.702025905251502991e-02 3.686404973268508911e-02 -5.728808417916297913e-02 5.503728613257408142e-02 -7.021286338567733765e-02 -6.977160274982452393e-02 -6.362957507371902466e-02 -4.265844821929931641e-02 8.527185767889022827e-02 -2.529752254486083984e-02 -5.564516037702560425e-02 -4.632990434765815735e-02 -6.976769864559173584e-02 2.960799902211874723e-04 -5.071484297513961792e-02 -5.013000220060348511e-02 -9.894151985645294189e-02 -4.455283749848604202e-03 2.257705107331275940e-02 3.673540055751800537e-02 -6.060139089822769165e-02 -5.334434658288955688e-02 9.847842901945114136e-02 -1.961748639587312937e-04 -2.377641387283802032e-02 -4.742227867245674133e-02 -3.210702911019325256e-02 -1.460649445652961731e-02 -1.391136944293975830e-01 5.119763687252998352e-02 6.758569739758968353e-03 -7.669325917959213257e-02 -9.119127690792083740e-02 -8.913003653287887573e-02 -1.016174107789993286e-01 -6.083699315786361694e-02 -3.923589363694190979e-02 7.765056192874908447e-02 -6.741368025541305542e-02 -1.603977568447589874e-02 4.840606823563575745e-03 -4.106535762548446655e-02 1.228619553148746490e-02 -7.281305640935897827e-02 1.163459662348031998e-02 1.440643053501844406e-02 4.690861701965332031e-02 -1.439989358186721802e-01 2.848861180245876312e-02 -1.737866364419460297e-02 -1.085543259978294373e-01 4.699019715189933777e-02 -2.084059268236160278e-02 3.769832104444503784e-02 2.003804594278335571e-02 -7.437259703874588013e-02 2.214577421545982361e-02 -1.280097011476755142e-02 -3.363328054547309875e-02 3.337576519697904587e-03 -1.063870731741189957e-02 2.076374553143978119e-02 -4.738158546388149261e-03 -9.577903896570205688e-02 -9.632098674774169922e-02 -8.364045619964599609e-02 -9.399157017469406128e-02 -2.017651870846748352e-02 -9.690870344638824463e-02 6.073550879955291748e-02 -1.686414238065481186e-03 -1.912588067352771759e-02 -4.541816934943199158e-02 -3.584039583802223206e-02 -4.226686432957649231e-03 9.318539500236511230e-02 -3.708961233496665955e-02 2.858117595314979553e-02 7.805080153048038483e-03 7.157412171363830566e-02 -1.216546520590782166e-01 5.723246559500694275e-02 -9.458319097757339478e-02 2.965029561892151833e-03 1.457341760396957397e-02 1.303044334053993225e-02 -9.451550990343093872e-02 -4.444957524538040161e-02 -1.402536183595657349e-01 -1.914589432999491692e-03 -6.208980455994606018e-02 -2.665849030017852783e-02 -1.817284226417541504e-01 8.456533402204513550e-02 -1.094555854797363281e-01 -5.730594322085380554e-02 -1.564455628395080566e-01 -1.556319445371627808e-01 -9.772387892007827759e-02 4.264051839709281921e-02 -5.291528627276420593e-02 -8.099623024463653564e-02 -4.833231866359710693e-02 -1.800859719514846802e-01 -8.439346402883529663e-02 6.087039783596992493e-02 -4.767191037535667419e-02 -5.212114378809928894e-02 -1.254575550556182861e-01 6.740826368331909180e-02 1.563532464206218719e-02 -9.245394170284271240e-02 -1.356387138366699219e-01 -4.956264048814773560e-02 2.920463122427463531e-02 4.119541868567466736e-02 1.497573405504226685e-02 -1.221448555588722229e-02 -9.697101265192031860e-02 5.691774562001228333e-02 -9.397636167705059052e-03 -1.461487263441085815e-01 3.853218629956245422e-02 1.549943387508392334e-01 -9.917524456977844238e-02 4.829050973057746887e-02 1.667908951640129089e-02 -3.934437781572341919e-02 8.480977267026901245e-03 -8.533962070941925049e-02 -2.388867549598217010e-02 2.220172248780727386e-02 2.579484321177005768e-02 -4.134522750973701477e-02 -2.161160670220851898e-02 1.414402276277542114e-01 -1.776602119207382202e-02 3.525102883577346802e-02 -7.660219818353652954e-02 -1.051703467965126038e-01 -1.662635616958141327e-02 -2.511965343728661537e-03 -1.091653853654861450e-02 7.664880249649286270e-03 -1.331470161676406860e-01 1.794802257791161537e-03 -4.558481648564338684e-02 -8.438450843095779419e-02 -3.222639858722686768e-02 -4.433503746986389160e-02 6.938582658767700195e-02 -1.810375787317752838e-02 2.778028696775436401e-02 -5.436859559267759323e-03 8.975351601839065552e-02 1.831840910017490387e-02 4.362836107611656189e-02 1.044549569487571716e-01 6.326242536306381226e-02 -2.474466525018215179e-02 8.627348579466342926e-03 -8.070908486843109131e-02 -8.867304027080535889e-02 3.649867326021194458e-02 -2.236694395542144775e-01 2.883839607238769531e-02 -1.287827827036380768e-02 -9.179393202066421509e-02 -7.112435996532440186e-02 -2.798704057931900024e-02 -6.832783669233322144e-02 -4.778156057000160217e-02 -4.620593041181564331e-02 4.067109432071447372e-03 5.411070957779884338e-02 4.375083837658166885e-03 -1.020781695842742920e-02 -6.442818790674209595e-02 2.526082796975970268e-03 -1.206747721880674362e-02 -4.227873403578996658e-03 5.023890733718872070e-02 -3.056695684790611267e-02 -7.505785906687378883e-04 -2.774169147014617920e-01 1.356016844511032104e-02 -1.088529005646705627e-01 -1.055340468883514404e-02 9.480267763137817383e-03 9.912776947021484375e-02 -5.169977620244026184e-02 6.888718158006668091e-02 4.638625681400299072e-02 -3.358959406614303589e-02 -2.783964015543460846e-02 -6.202801316976547241e-02 -6.512736529111862183e-02 3.920319303870201111e-02 -1.094003990292549133e-01 2.291266433894634247e-02 2.239684760570526123e-02 4.000464454293251038e-02 1.051815301179885864e-01 2.568080835044384003e-02 -1.252043694257736206e-01 -5.409369245171546936e-02 -5.575653165578842163e-02 -2.492440678179264069e-02 -3.034288436174392700e-02 -2.060208469629287720e-02 3.424978256225585938e-02 -6.522757560014724731e-02 1.009702235460281372e-01 -4.237665235996246338e-02 -9.146056324243545532e-02 1.098897382616996765e-01 -4.567249678075313568e-03 1.294399145990610123e-02 -1.904945261776447296e-02 -1.346962898969650269e-01 1.989052630960941315e-02 1.054721698164939880e-02 -1.622574329376220703e-01 -1.557066291570663452e-01 -4.809243977069854736e-02 -1.112488657236099243e-02 1.177088636904954910e-02 1.334788277745246887e-02 1.269001960754394531e-01 4.376104101538658142e-02 1.463167928159236908e-02 -1.775004714727401733e-02 -7.473726570606231689e-02 -4.195876047015190125e-02 -7.869719713926315308e-02 -7.482945173978805542e-02 2.717561461031436920e-02 -6.618386507034301758e-02 -8.414254337549209595e-02 -9.290710836648941040e-02 -3.527976199984550476e-02 1.540157664567232132e-02 6.018710136413574219e-02 -9.517147392034530640e-02 2.518611587584018707e-02 -7.363842427730560303e-02 -1.165271177887916565e-01 7.747438549995422363e-02 -1.297951191663742065e-01 -1.550510339438915253e-02 -2.441346831619739532e-02 -1.337911933660507202e-02 3.166532842442393303e-03 -8.115135878324508667e-02 -2.562298253178596497e-02 -7.712527364492416382e-02 1.323794759809970856e-02 -1.756719350814819336e-01 -1.483961045742034912e-01 -3.561254125088453293e-03 -1.149113625288009644e-01 1.930431276559829712e-02 -8.625805377960205078e-03 -2.506270632147789001e-02 8.187082409858703613e-02 -1.825188100337982178e-01
-5.781864374876022339e-02 4.949447512626647949e-02 -1.861770153045654297e-01 -1.107132509350776672e-01 -1.685634553432464600e-01 9.589948505163192749e-02 1.272829622030258179e-01 -2.681011855602264404e-01 -2.322677820920944214e-01 -1.006303075700998306e-02 -3.918528556823730469e-02 -8.667752891778945923e-02 -1.289064735174179077e-01 -1.333490386605262756e-02 9.594023972749710083e-02 1.163481641560792923e-02 -8.348765969276428223e-02 2.643253207206726074e-01 3.956305235624313354e-02 -1.162601187825202942e-01 -2.555783092975616455e-01 1.011179089546203613e-01 -7.308100163936614990e-02 -1.047099605202674866e-01 6.251102685928344727e-02 -4.516785219311714172e-02 3.017742000520229340e-02 -2.820688532665371895e-03 -9.914308786392211914e-02 3.385832160711288452e-02 1.931445300579071045e-02 -3.058479428291320801e-01 -5.700738355517387390e-02 -1.235838606953620911e-01 -7.190408557653427124e-02 4.949266556650400162e-03 -2.288789004087448120e-01 -1.393046528100967407e-01 -7.385445386171340942e-02 6.067511439323425293e-02 2.890636622905731201e-01 -2.484489828348159790e-01 2.028568461537361145e-02 -6.681366264820098877e-02 -1.067533791065216064e-01 2.535044401884078979e-02 8.959722518920898438e-02 -2.091670930385589600e-01 8.959307521581649780e-02 -5.023720487952232361e-02 8.677087724208831787e-02 1.232160255312919617e-01 -8.073858171701431274e-02 7.190839201211929321e-02 1.028290987014770508e-01 1.446734368801116943e-02 1.797100603580474854e-01 3.464725986123085022e-02 1.236918643116950989e-01 -1.420834809541702271e-01 -4.569582268595695496e-02 5.632589105516672134e-03 1.348054111003875732e-01 9.868510998785495758e-03 -4.500742256641387939e-02 1.035942137241363525e-01 -9.064296260476112366e-03 -3.096977248787879944e-02 -4.539003223180770874e-02 -2.619074843823909760e-02 2.590335533022880554e-02 -1.138349995017051697e-01 -9.580969065427780151e-02 -1.050020679831504822e-01 9.987862780690193176e-03 -8.747556805610656738e-02 9.680879861116409302e-02 -5.878828838467597961e-02 -5.519449710845947266e-02 -3.647150704637169838e-03 1.482033580541610718e-01 -1.501342058181762695e-01 -1.393028255552053452e-02 2.415574155747890472e-02 -2.477847784757614136e-01 -6.080316379666328430e-02 7.491116225719451904e-02 -7.786893844604492188e-02 9.132717549800872803e-02 5.891662463545799255e-02 6.692868471145629883e-02 -1.623974144458770752e-01 -6.083346530795097351e-02 1.030218824744224548e-01 -6.546562165021896362e-02 1.032303553074598312e-02 1.941170096397399902e-01 -5.582842230796813965e-02 3.703824011608958244e-03 1.084163319319486618e-02 1.706362962722778320e-01 2.170109748840332031e-02 -1.401423811912536621e-01 -1.430339068174362183e-01 -5.856744199991226196e-02 1.707095652818679810e-01 -1.834025233983993530e-01 -1.099317371845245361e-01 1.608005259186029434e-04 -1.424188315868377686e-01 4.701944068074226379e-03 -1.772867441177368164e-01 1.394963115453720093e-01 -5.671225860714912415e-02 2.529971599578857422e-01 6.034896522760391235e-02 5.836238618940114975e-03 -1.990520767867565155e-02 -7.665946334600448608e-02 -9.601109474897384644e-02 3.339885035529732704e-03 2.343124337494373322e-02 -1.205272153019905090e-01 3.371060267090797424e-02 -1.245584189891815186e-01 4.012549296021461487e-02 -1.651411801576614380e-01 -3.240688517689704895e-02 -1.948959380388259888e-02 -3.224060311913490295e-02 4.709277767688035965e-03 -3.585058748722076416e-01 -2.971377409994602203e-02 4.212255775928497314e-02 2.324604662135243416e-03 3.905696794390678406e-02 1.278089880943298340e-01 3.356705978512763977e-02 6.152273342013359070e-02 -6.846892088651657104e-02 5.706801638007164001e-02 -5.695916712284088135e-02 3.762280941009521484e-02 -7.018102705478668213e-02 4.614024981856346130e-02 7.027947157621383667e-02 3.620571270585060120e-02 -1.025125905871391296e-01 -4.267693310976028442e-02 5.341295897960662842e-02 8.391753584146499634e-02 -1.309258043766021729e-01 -8.276417851448059082e-02 1.246198490262031555e-01 -7.173877209424972534e-02 1.064586266875267029e-02 -2.204817235469818115e-01 -3.668488189578056335e-02 -5.193088203668594360e-02 -1.254180818796157837e-01 -1.325967013835906982e-01 2.575155794620513916e-01 2.274886146187782288e-02 -2.864271216094493866e-02 -9.290152043104171753e-02 -1.419616304337978363e-02 -5.365350469946861267e-02 1.498708594590425491e-02 2.718996405601501465e-01 -4.103697370737791061e-03 1.432390809059143066e-01 6.735388655215501785e-03 -1.162741407752037048e-01 5.845093168318271637e-03 -3.670028969645500183e-02 2.423959597945213318e-02 4.369659349322319031e-02 1.429465040564537048e-02 -6.149243563413619995e-02 -1.584064066410064697e-01 -4.801115393638610840e-02 1.031451374292373657e-01 -1.577277630567550659e-01 -9.939963370561599731e-02 6.599699705839157104e-02 -1.116677150130271912e-01 -5.963950976729393005e-02 3.526020050048828125e-02 1.608231961727142334e-01 -6.946203112602233887e-02 -1.111480146646499634e-01 -6.835160404443740845e-02 1.361886560916900635e-01 9.842281788587570190e-02 1.995004862546920776e-01 -1.043036803603172302e-01 4.039043560624122620e-02 1.406795978546142578e-01 5.862297862768173218e-02 -1.592872887849807739e-01 -1.201607584953308105e-01 9.109051525592803955e-02 -6.457890570163726807e-02 -1.309801191091537476e-01 5.301165580749511719e-02 1.862795948982238770e-01 1.118995398283004761e-01 2.692339010536670685e-02 -1.856012940406799316e-01 -3.040201067924499512e-01 -1.704337261617183685e-02 -1.686499565839767456e-01 6.150418892502784729e-02 1.721852421760559082e-01 -1.809612810611724854e-01 6.526054441928863525e-02 6.780359894037246704e-02 4.486620426177978516e-02 1.962586492300033569e-01 6.870343536138534546e-02 9.131134301424026489e-02 2.500706538558006287e-02 1.512141674757003784e-01 2.442445047199726105e-02 -1.585112214088439941e-01 6.631713360548019409e-03 -1.141852587461471558e-01 -2.672361582517623901e-02 -6.838110089302062988e-02 -1.045385301113128662e-01 8.072940260171890259e-02 -1.365712285041809082e-01 4.228680394589900970e-03 -6.058816611766815186e-02 -1.794257760047912598e-01 -3.359449282288551331e-02 7.242822553962469101e-03 5.193460360169410706e-02 -5.701822414994239807e-02 1.074336543679237366e-01 -5.534213036298751831e-02 1.055306792259216309e-01 -1.837000101804733276e-01 2.462438074871897697e-03 1.164262145757675171e-01 -2.815167792141437531e-02 -2.584375739097595215e-01 1.312524836976081133e-04 2.030346728861331940e-02 2.016660720109939575e-01 1.979359686374664307e-01 -5.114798620343208313e-02 -1.815468519926071167e-01 -2.040464580059051514e-01 7.107155025005340576e-02 4.460777714848518372e-02 -1.071307733654975891e-01 -1.791889220476150513e-01 -1.969848722219467163e-01 -2.304076105356216431e-01 -9.003674983978271484e-02 1.443919837474822998e-01 -6.938505172729492188e-02 -4.189266636967658997e-02 -9.936172515153884888e-03 6.414749473333358765e-02 -5.440049618482589722e-02 -3.393417596817016602e-02 -5.646872892975807190e-02 -1.062370836734771729e-02 2.233599573373794556e-01 -1.145747825503349304e-01 3.935497254133224487e-02 1.670303493738174438e-01 -2.277006208896636963e-02 1.011820361018180847e-01 4.269954562187194824e-02 -1.217641457915306091e-01 9.962199628353118896e-02 -1.881137490272521973e-01 -1.606225734576582909e-03 8.768792264163494110e-03 -6.446982175111770630e-02 1.586266756057739258e-01 -7.950770854949951172e-02 6.795614957809448242e-02 2.225185371935367584e-02 9.214980900287628174e-02 4.552013054490089417e-02 1.004428490996360779e-01 -3.201387450098991394e-02 5.837640538811683655e-02 4.946863627992570400e-04 -2.804659605026245117e-01 1.539843082427978516e-01 2.686126343905925751e-02 7.135359942913055420e-02 -1.033501178026199341e-01 6.739239394664764404e-02 -1.442496925592422485e-01 4.822302609682083130e-02 -2.891955971717834473e-01 -2.689995989203453064e-02 -3.260846138000488281e-01 -3.828252851963043213e-02 -4.255054891109466553e-02 9.274201095104217529e-02 4.790542647242546082e-03 -8.822941780090332031e-02 -1.346307098865509033e-01 -3.969667106866836548e-02 -2.332341298460960388e-02 -7.334914803504943848e-02 2.132532745599746704e-01 -1.363991796970367432e-01 -1.710815578699111938e-01 -1.117194257676601410e-02 1.243495568633079529e-02 -3.989365324378013611e-02 -5.987372994422912598e-02 -1.773446202278137207e-01 2.174426987767219543e-02 1.668575778603553772e-02 -1.976252719759941101e-02 6.750542670488357544e-02 -1.265977919101715088e-01 -7.465926557779312134e-02 -5.008424818515777588e-02 -1.546610295772552490e-01 -4.397024586796760559e-02 -5.849166586995124817e-02 1.461802516132593155e-02 -9.361336380243301392e-02 6.024879962205886841e-02 3.699541091918945312e-02 1.607642173767089844e-01 -3.686896339058876038e-02 -8.040181547403335571e-02 -1.740524321794509888e-01 1.657868474721908569e-01 2.341879718005657196e-02 -3.785157576203346252e-02 -7.254443131387233734e-03 1.564383357763290405e-01 -2.331250458955764771e-01 9.214791352860629559e-04 -1.087379530072212219e-01 6.536228209733963013e-02 -8.751798421144485474e-02 2.934637479484081268e-02 -1.362233073450624943e-03 6.672105938196182251e-02 -2.542000077664852142e-02 7.422691583633422852e-02 -3.308209404349327087e-02 -8.420038223266601562e-02 7.757882773876190186e-02 6.913056969642639160e-02 -1.155643537640571594e-01 -4.522255808115005493e-02 -6.369442492723464966e-02 1.200279295444488525e-01 4.803728684782981873e-02 -9.115223586559295654e-02 -7.134336233139038086e-02 -4.669889435172080994e-02 1.081860344856977463e-02 -2.422415614128112793e-01 5.962430965155363083e-03 1.158964484930038452e-01 -7.201359141618013382e-03 -7.429450750350952148e-02 2.333790957927703857e-01 1.159972026944160461e-01 -4.677021875977516174e-02 1.301030814647674561e-01 2.017893195152282715e-01 1.346893757581710815e-01 1.911263912916183472e-02 -1.643914915621280670e-02 -5.559520050883293152e-02 -4.807088896632194519e-02 -1.010127067565917969e-01 -3.752703964710235596e-02 -4.353063553571701050e-02 -4.933830723166465759e-02 2.915856055915355682e-02 -1.657525151968002319e-01 -3.288101404905319214e-02 1.128821000456809998e-01 -2.387302815914154053e-01 -3.002206422388553619e-02 9.839284420013427734e-02 -3.404809534549713135e-02 1.252221018075942993e-01 2.887228876352310181e-02 1.212071627378463745e-01 -1.430367492139339447e-02 -4.706834629178047180e-02 -2.876991629600524902e-01 9.557686001062393188e-02 -1.687982976436614990e-01 -3.464166074991226196e-02 1.965039968490600586e-01 7.263399660587310791e-02 1.138687017373740673e-03 1.391395330429077148e-01 -1.801970452070236206e-01 1.356838792562484741e-01 -1.251406669616699219e-01 -2.388577461242675781e-01 -1.406845748424530029e-01 -8.173893392086029053e-02 -6.361260265111923218e-02 3.466504625976085663e-03 -3.597182407975196838e-02 -8.267556130886077881e-02 3.446904942393302917e-02 -3.420688807964324951e-01 1.230403482913970947e-01 -1.007082313299179077e-02 -1.980832070112228394e-01 -3.233043849468231201e-01 2.415753901004791260e-02 -7.334463298320770264e-02 9.067238122224807739e-02 -1.641824468970298767e-02 8.204729855060577393e-02 2.450600713491439819e-01 2.071822248399257660e-02 4.476123955100774765e-03 2.845854498445987701e-02 8.605094999074935913e-02 -7.883206754922866821e-02 -1.414286345243453979e-01 5.930839851498603821e-02 -4.396919906139373779e-02 7.599545270204544067e-02 3.678145632147789001e-02 1.105460524559020996e-01 -2.994071245193481445e-01 5.303557589650154114e-02 1.672196984291076660e-01 -1.166614517569541931e-01 -1.923439949750900269e-01 3.720580041408538818e-02 3.001873753964900970e-02 6.929069012403488159e-02 2.942399494349956512e-02 3.396708751097321510e-03 2.898830454796552658e-03 2.458666451275348663e-02 -1.284801959991455078e-01 -8.060338348150253296e-02 5.111320316791534424e-02 -2.797996439039707184e-02 -1.407127361744642258e-02 -1.047504693269729614e-01 -6.935190409421920776e-03 1.053818594664335251e-02 -2.012922763824462891e-01 -1.309643592685461044e-02 -1.269778758287429810e-01 1.829120963811874390e-01 -1.355818510055541992e-01 3.207627683877944946e-02 -1.986853079870343208e-03 -9.918909519910812378e-02 7.367275655269622803e-02 1.436398271471261978e-02 -1.079575717449188232e-01 -1.550532430410385132e-01 -3.508861362934112549e-02 -2.019240893423557281e-02 1.521801501512527466e-01 -1.571236550807952881e-01 -2.815767824649810791e-01 -3.086306340992450714e-02 -1.017630696296691895e-01 -9.560835361480712891e-02 -7.122965157032012939e-02 -5.722616240382194519e-02 8.032588660717010498e-02 1.161319315433502197e-01 -1.128053069114685059e-01 -1.317427009344100952e-01 -3.845776990056037903e-02 -2.621006667613983154e-01 8.975423872470855713e-02 2.765708416700363159e-02 6.133333593606948853e-02 4.016831517219543457e-02 7.725733332335948944e-03 9.852982312440872192e-02 -8.050426095724105835e-02 -1.574533246457576752e-02 2.518936758860945702e-03 -8.874857425689697266e-02 4.680956155061721802e-02 1.102147325873374939e-01 -1.738483831286430359e-02 1.015138700604438782e-01 -2.127719484269618988e-02 -7.766404747962951660e-02 -6.495565176010131836e-02 8.235262334346771240e-02 -1.794863939285278320e-01 -4.157138988375663757e-02 2.633168362081050873e-02 1.781931519508361816e-02 -1.493579745292663574e-01 -1.213333457708358765e-01
